0
108173346964766720.00000000000000000000
165493078554050560.00000000000000000000
-78003426503426048.00000000000000000000
25205344141574144.00000000000000000000
-35446360798920704.00000000000000000000
-44469030525861888.00000000000000000000
65781667565928448.00000000000000000000
73714506521378816.00000000000000000000
-36281023268388864.00000000000000000000
-161012156354002944.00000000000000000000
-82231194741112832.00000000000000000000
57321337907052544.00000000000000000000
45305655795384320.00000000000000000000
25872092717121536.00000000000000000000
121243018345840640.00000000000000000000
-21808430884847616.00000000000000000000
-310128971285004288.00000000000000000000
-34190735699869696.00000000000000000000
-101427465171238912.00000000000000000000
119279041470529536.00000000000000000000
61497686796271616.00000000000000000000
-90573618957778944.00000000000000000000
-144419357659758592.00000000000000000000
-135844197755256832.00000000000000000000
221935941030248448.00000000000000000000
-48700032873922560.00000000000000000000
162325986849849344.00000000000000000000
134697845214150656.00000000000000000000
-21367700668284928.00000000000000000000
12218968282497024.00000000000000000000
-67988194129346560.00000000000000000000
-23249422477426688.00000000000000000000
75736482635055104.00000000000000000000
152155384033837056.00000000000000000000
-35513836882624512.00000000000000000000
-118668254171365376.00000000000000000000
-199749342569955328.00000000000000000000
80369996433195008.00000000000000000000
-9609719815602176.00000000000000000000
-9231304205795328.00000000000000000000
17545479348813824.00000000000000000000
-4738664261222400.00000000000000000000
18235786893721600.00000000000000000000
-6289847534747648.00000000000000000000
-36995014336708608.00000000000000000000
21182192440836096.00000000000000000000
22708976005152768.00000000000000000000
-10525398253174784.00000000000000000000
-18207719282442240.00000000000000000000
-16358788474863616.00000000000000000000
774803980025856.00000000000000000000
-923807401377792.00000000000000000000
-26689246752407552.00000000000000000000
13046784574095360.00000000000000000000
118714596868489216.00000000000000000000
12437923567763456.00000000000000000000
-54055410415435776.00000000000000000000
-161686088262352896.00000000000000000000
64834545672781824.00000000000000000000
18049213514383360.00000000000000000000
-24380774845251584.00000000000000000000
194552414961926144.00000000000000000000
-197905135152660480.00000000000000000000
54388175891595264.00000000000000000000
-109705636677156864.00000000000000000000
113572988439232512.00000000000000000000
-9165586911199232.00000000000000000000
22523961698942976.00000000000000000000
376093415479181312.00000000000000000000
-16011179591729152.00000000000000000000
99122923159158784.00000000000000000000
38407478756507648.00000000000000000000
-45460905978232832.00000000000000000000
-14440988940435456.00000000000000000000
59339762082775040.00000000000000000000
-30133142656385024.00000000000000000000
-8880238410858496.00000000000000000000
-15480403238322176.00000000000000000000
-11535888093806592.00000000000000000000
3148360009646080.00000000000000000000
-3172179092963328.00000000000000000000
-2557236681375744.00000000000000000000
-2760879602925568.00000000000000000000
-5549144454201344.00000000000000000000
-1825578265083904.00000000000000000000
7899125609660416.00000000000000000000
2175535690022912.00000000000000000000
5510514444599296.00000000000000000000
-10827694157594624.00000000000000000000
-940612870209536.00000000000000000000
6100932861362176.00000000000000000000
166825669467045888.00000000000000000000
135383201735507968.00000000000000000000
-20652341652881408.00000000000000000000
7583488463077376.00000000000000000000
-64748904024899584.00000000000000000000
-22595329023016960.00000000000000000000
74513035430985728.00000000000000000000
150555577435553792.00000000000000000000
-35293522240208896.00000000000000000000
-121557306872692736.00000000000000000000
-202108757084209152.00000000000000000000
77997027002155008.00000000000000000000
-8028957639180288.00000000000000000000
8158052544937984.00000000000000000000
8428490529439744.00000000000000000000
4853642146349056.00000000000000000000
12453657106710528.00000000000000000000
588259323281408.00000000000000000000
2128279909695488.00000000000000000000
8933720417370112.00000000000000000000
3481270709387264.00000000000000000000
-1418161157046272.00000000000000000000
2781906957500416.00000000000000000000
1676129777745920.00000000000000000000
-8674532025958400.00000000000000000000
3549316949999616.00000000000000000000
167361131629772800.00000000000000000000
135887302047039488.00000000000000000000
-20101355330863104.00000000000000000000
6464600090345472.00000000000000000000
-64023393854291968.00000000000000000000
-23272875146346496.00000000000000000000
74411519583977472.00000000000000000000
151470182131302400.00000000000000000000
-35624432290496512.00000000000000000000
-121773317957877760.00000000000000000000
-202765680922066944.00000000000000000000
77147293492445184.00000000000000000000
-7298972649521152.00000000000000000000
420620441485312.00000000000000000000
1936475528626176.00000000000000000000
-7219645677305856.00000000000000000000
-1084644061609984.00000000000000000000
-3283530146643968.00000000000000000000
-11911505532420096.00000000000000000000
7619097500057600.00000000000000000000
-1131706836844544.00000000000000000000
-2681484716539904.00000000000000000000
-8796472053071872.00000000000000000000
-2214061949321216.00000000000000000000
1857515776114688.00000000000000000000
2801979487158272.00000000000000000000
6314151144062976.00000000000000000000
5558601435316224.00000000000000000000
2007708232318976.00000000000000000000
5506622667358208.00000000000000000000
4776649488859136.00000000000000000000
1201519382757376.00000000000000000000
2612783761850368.00000000000000000000
5772257267810304.00000000000000000000
-3861252908515328.00000000000000000000
-14591390105206784.00000000000000000000
10448883410796544.00000000000000000000
3895197377232896.00000000000000000000
12029880199806976.00000000000000000000
6164185381601280.00000000000000000000
35646010206191616.00000000000000000000
9893751371595776.00000000000000000000
9770084230758400.00000000000000000000
-5040956407545856.00000000000000000000
15429657125978112.00000000000000000000
35429241059278848.00000000000000000000
-924951473291264.00000000000000000000
4101018652508160.00000000000000000000
10590948044046336.00000000000000000000
1797789960896512.00000000000000000000
-14715161399001088.00000000000000000000
-19263542502883328.00000000000000000000
49717454791770112.00000000000000000000
31471742228627456.00000000000000000000
1559228015706112.00000000000000000000
377272710419447808.00000000000000000000
26531091024183296.00000000000000000000
33370092003655680.00000000000000000000
39757893783781376.00000000000000000000
-18825329137156096.00000000000000000000
-23037491611172864.00000000000000000000
-62862322460262400.00000000000000000000
-23234349289701376.00000000000000000000
-45677784646811648.00000000000000000000
21849366218145792.00000000000000000000
-5599733800239104.00000000000000000000
17519277900824576.00000000000000000000
10389835126669312.00000000000000000000
19536758257483776.00000000000000000000
-14427201021673472.00000000000000000000
-27878244023795712.00000000000000000000
19203857489854464.00000000000000000000
23441783325196288.00000000000000000000
-9382147752198144.00000000000000000000
-8060660403404800.00000000000000000000
-22912999836614656.00000000000000000000
22028285965762560.00000000000000000000
-6851471417016320.00000000000000000000
-8709276163899392.00000000000000000000
8939746256486400.00000000000000000000
-3208259502604288.00000000000000000000
5811411800293376.00000000000000000000
-2521114395803648.00000000000000000000
-18008526215446528.00000000000000000000
18664577101201408.00000000000000000000
-795663025569792.00000000000000000000
-6824861947133952.00000000000000000000
-10277833117007872.00000000000000000000
-6907063326212096.00000000000000000000
22157495761895424.00000000000000000000
-10749465623265280.00000000000000000000
705014452453376.00000000000000000000
12483206481707008.00000000000000000000
-4267789816692736.00000000000000000000
6023962752450560.00000000000000000000
-5995011451650048.00000000000000000000
-7495700942159872.00000000000000000000
5130511844376576.00000000000000000000
-316147509493760.00000000000000000000
5072821306785792.00000000000000000000
-8956331809570816.00000000000000000000
-9692085477179392.00000000000000000000
-9794836127285248.00000000000000000000
-8969695063441408.00000000000000000000
105325440050135040.00000000000000000000
102750143299715072.00000000000000000000
40265855270912000.00000000000000000000
-318271507723714560.00000000000000000000
68686229394161664.00000000000000000000
-163748033341685760.00000000000000000000
23165936903127040.00000000000000000000
70137842440863744.00000000000000000000
-85304793597214720.00000000000000000000
-99406141892591616.00000000000000000000
-196745476802871296.00000000000000000000
195822711669260288.00000000000000000000
-49776763995160576.00000000000000000000
-2939381933408256.00000000000000000000
18076671240306688.00000000000000000000
-4838579696041984.00000000000000000000
-436064674119680.00000000000000000000
-3465810437734400.00000000000000000000
-34674162186321920.00000000000000000000
-3957815316054016.00000000000000000000
21842500712923136.00000000000000000000
58572683608064.00000000000000000000
-26555741988978688.00000000000000000000
-40675474891866112.00000000000000000000
2865443534536704.00000000000000000000
11439442455691264.00000000000000000000
375386248577024.00000000000000000000
1654430126571520.00000000000000000000
617835944476672.00000000000000000000
-8911733942910976.00000000000000000000
3203566713962496.00000000000000000000
-4206814702862336.00000000000000000000
3789565072506880.00000000000000000000
-876864281247744.00000000000000000000
-7756322778906624.00000000000000000000
-3024740113448960.00000000000000000000
-4023758096433152.00000000000000000000
1505290876878848.00000000000000000000
2717046508879872.00000000000000000000
186638559761924096.00000000000000000000
890013323624448.00000000000000000000
63781797648924672.00000000000000000000
112252200096366592.00000000000000000000
2011097632604160.00000000000000000000
-22591774937579520.00000000000000000000
10983628313985024.00000000000000000000
-158114290379784192.00000000000000000000
-46615556396154880.00000000000000000000
3970352057155584.00000000000000000000
-147842274795978752.00000000000000000000
118558569296560128.00000000000000000000
-81287504526835712.00000000000000000000
9519843329966080.00000000000000000000
1658635973296128.00000000000000000000
3613411552264192.00000000000000000000
4411567068151808.00000000000000000000
-8916254932860928.00000000000000000000
3939765984428032.00000000000000000000
6448534765174784.00000000000000000000
-6324153049153536.00000000000000000000
-1826343440351232.00000000000000000000
8176568685821952.00000000000000000000
-12768625312137216.00000000000000000000
6905868788432896.00000000000000000000
-11469333280587776.00000000000000000000
-1965611513020416.00000000000000000000
-6260400165224448.00000000000000000000
447441941823488.00000000000000000000
262486506864640.00000000000000000000
-12447173853577216.00000000000000000000
11156223722258432.00000000000000000000
-4650969618972672.00000000000000000000
-10047837618307072.00000000000000000000
6361310421843968.00000000000000000000
20363359073337344.00000000000000000000
-9672724838350848.00000000000000000000
-781323404836864.00000000000000000000
1036851678806016.00000000000000000000
74859553392427008.00000000000000000000
-8842011591311360.00000000000000000000
-18858125507428352.00000000000000000000
128373411381510144.00000000000000000000
-48943428670586880.00000000000000000000
146713488671113216.00000000000000000000
44668755095060480.00000000000000000000
-20701939935215616.00000000000000000000
-6007491552870400.00000000000000000000
60760258091417600.00000000000000000000
-5895563094523904.00000000000000000000
14693614621818880.00000000000000000000
23935972999692288.00000000000000000000
108489825924939776.00000000000000000000
-22685594203193344.00000000000000000000
32442540128993280.00000000000000000000
382388222627414016.00000000000000000000
-34195651289939968.00000000000000000000
65014126845362176.00000000000000000000
30351114394140672.00000000000000000000
-86436259781672960.00000000000000000000
25598438875856896.00000000000000000000
82029958343426048.00000000000000000000
-109280907361255424.00000000000000000000
12225882106101760.00000000000000000000
-63494704854990848.00000000000000000000
196146603742986240.00000000000000000000
197892628207894528.00000000000000000000
57228923095744512.00000000000000000000
-240053745172348928.00000000000000000000
-48763722943954944.00000000000000000000
-192192742749634560.00000000000000000000
67153338386350080.00000000000000000000
143108310302720000.00000000000000000000
-92950728737292288.00000000000000000000
-86849753463128064.00000000000000000000
-370192851968983040.00000000000000000000
215949237655961600.00000000000000000000
-41165083983740928.00000000000000000000
-3603176376762368.00000000000000000000
33295009532870656.00000000000000000000
-86126386481201152.00000000000000000000
-96800694471753728.00000000000000000000
30938846308859904.00000000000000000000
14545284705026048.00000000000000000000
11958363625619456.00000000000000000000
39778960598368256.00000000000000000000
-30730480265461760.00000000000000000000
-120220987928084480.00000000000000000000
12424981757558784.00000000000000000000
53048171865047040.00000000000000000000
2741877862301696.00000000000000000000
32478549134802944.00000000000000000000
481120724669431808.00000000000000000000
208039162027180032.00000000000000000000
-70606315998674944.00000000000000000000
146768910929100800.00000000000000000000
-613793363954499584.00000000000000000000
186060062026891264.00000000000000000000
877842799351824384.00000000000000000000
-206746772008075264.00000000000000000000
6622710184542208.00000000000000000000
-381484733307027456.00000000000000000000
278026203871313920.00000000000000000000
-259296229450579968.00000000000000000000
1368020769308672.00000000000000000000
-1918453308981248.00000000000000000000
-3772987304050688.00000000000000000000
-219880213184512.00000000000000000000
-6442122915872768.00000000000000000000
-5965122774237184.00000000000000000000
333681478598656.00000000000000000000
-1515399887716352.00000000000000000000
11722404564828160.00000000000000000000
-1074439353532416.00000000000000000000
2563256883347456.00000000000000000000
-5712023572709376.00000000000000000000
-5322081881292800.00000000000000000000
1508840264695808.00000000000000000000
-2012174864089088.00000000000000000000
-4140981981020160.00000000000000000000
-396659624247296.00000000000000000000
-4096238622343168.00000000000000000000
3712645161025536.00000000000000000000
816578039906304.00000000000000000000
-9665128114946048.00000000000000000000
-1138775547707392.00000000000000000000
-2695071040274432.00000000000000000000
-4859517124739072.00000000000000000000
6698081491877888.00000000000000000000
-449145332563968.00000000000000000000
4109082990477312.00000000000000000000
-7941896504606720.00000000000000000000
-16274951786987520.00000000000000000000
-11884826269319168.00000000000000000000
18293610038427648.00000000000000000000
-7132697822494720.00000000000000000000
-21861265425039360.00000000000000000000
-5044467006439424.00000000000000000000
-2959900334358528.00000000000000000000
-52430572747751424.00000000000000000000
2743642825424896.00000000000000000000
-46632792099913728.00000000000000000000
13874760853225472.00000000000000000000
1074372378886144.00000000000000000000
11287329746452480.00000000000000000000
303933394255872.00000000000000000000
-4963951938895872.00000000000000000000
3361014846324736.00000000000000000000
-23414205340188672.00000000000000000000
11995815740440576.00000000000000000000
30811459726344192.00000000000000000000
-6336613823021056.00000000000000000000
-19282764629016576.00000000000000000000
-4445179750645760.00000000000000000000
13741775780839424.00000000000000000000
7408877641400320.00000000000000000000
269815617970765824.00000000000000000000
52520672571686912.00000000000000000000
170353366625419264.00000000000000000000
-17830339833495552.00000000000000000000
-43521874272976896.00000000000000000000
-136690014254792704.00000000000000000000
102763595137286144.00000000000000000000
-102027978908631040.00000000000000000000
-47159887666348032.00000000000000000000
59319013095768064.00000000000000000000
-301790103301259264.00000000000000000000
166105145753468928.00000000000000000000
-201037678139932672.00000000000000000000
180719940209213440.00000000000000000000
52127996596715520.00000000000000000000
-103804574950752256.00000000000000000000
-16480764472328192.00000000000000000000
-20537799170064384.00000000000000000000
49902606536933376.00000000000000000000
14547492318216192.00000000000000000000
120799167835537408.00000000000000000000
-23415291966914560.00000000000000000000
-198846729422897152.00000000000000000000
-160727846698876928.00000000000000000000
41395414489890816.00000000000000000000
56207416663998464.00000000000000000000
28629766663831552.00000000000000000000
131814676618018816.00000000000000000000
-22236832397787136.00000000000000000000
-312978252589170688.00000000000000000000
-39694203713748992.00000000000000000000
-103320437647212544.00000000000000000000
126454729231302656.00000000000000000000
60415771649507328.00000000000000000000
-93898344551677952.00000000000000000000
-153663175252770816.00000000000000000000
-157547045459066880.00000000000000000000
227770293324611584.00000000000000000000
-47848697341411328.00000000000000000000
-10972407711924224.00000000000000000000
-28500204680380416.00000000000000000000
1154250717528064.00000000000000000000
-10597745903534080.00000000000000000000
473810759319552.00000000000000000000
79357303274340352.00000000000000000000
19806316847431680.00000000000000000000
-85409041043423232.00000000000000000000
325261446738870272.00000000000000000000
146182939950972928.00000000000000000000
21119634094686208.00000000000000000000
21255743755780096.00000000000000000000
-25657743784280064.00000000000000000000
129797407788498944.00000000000000000000
217299025618010112.00000000000000000000
16096549582929920.00000000000000000000
-80381781823455232.00000000000000000000
35600034728771584.00000000000000000000
-236091964259303424.00000000000000000000
108998573391085568.00000000000000000000
436678086717603840.00000000000000000000
-48920596624441344.00000000000000000000
-251166663813103616.00000000000000000000
-264037924884971520.00000000000000000000
82713845985968128.00000000000000000000
43247301308710912.00000000000000000000
10301504829259776.00000000000000000000
7754258510249984.00000000000000000000
-9994971939602432.00000000000000000000
-2339766917922816.00000000000000000000
2433272650924032.00000000000000000000
-11067532647596032.00000000000000000000
-1665821856235520.00000000000000000000
1208833712062464.00000000000000000000
-1079433393864704.00000000000000000000
-21185907587547136.00000000000000000000
-19425297413701632.00000000000000000000
5098447766028288.00000000000000000000
10211069997875200.00000000000000000000
115452826905214976.00000000000000000000
-80613365252096.00000000000000000000
17307992353406976.00000000000000000000
174034239497437184.00000000000000000000
19755103657394176.00000000000000000000
-14269302991486976.00000000000000000000
-13786356467630080.00000000000000000000
-125301350123700224.00000000000000000000
-29819577831522304.00000000000000000000
-5182291433226240.00000000000000000000
-78361403437613056.00000000000000000000
87610022804062208.00000000000000000000
-24308305862066176.00000000000000000000
-27405466908753920.00000000000000000000
-74975148142231552.00000000000000000000
148473978585874432.00000000000000000000
-2949505439760384.00000000000000000000
48340509751508992.00000000000000000000
-200835419540029440.00000000000000000000
-9985412416143360.00000000000000000000
-11164331546771456.00000000000000000000
-25846803949682688.00000000000000000000
135511844595957760.00000000000000000000
-109266295882514432.00000000000000000000
64067979909791744.00000000000000000000
-36221074114871296.00000000000000000000
-110356684999753728.00000000000000000000
28880934203817984.00000000000000000000
-5994695234682880.00000000000000000000
109299822397227008.00000000000000000000
7599405611876352.00000000000000000000
-43086897165107200.00000000000000000000
16740984729632768.00000000000000000000
61513079959060480.00000000000000000000
42007735092379648.00000000000000000000
51669633391919104.00000000000000000000
5392747515084800.00000000000000000000
-15106595054682112.00000000000000000000
30720767196921856.00000000000000000000
62882517396488192.00000000000000000000
11205162727112704.00000000000000000000
-19848437591703552.00000000000000000000
344410403809263616.00000000000000000000
-74233201131782144.00000000000000000000
189136306582847488.00000000000000000000
65867910509232128.00000000000000000000
-73905357688143872.00000000000000000000
-24006088340799488.00000000000000000000
133308182775726080.00000000000000000000
4752661559640064.00000000000000000000
20367291115896832.00000000000000000000
-12603115526160384.00000000000000000000
94007325051846656.00000000000000000000
150627698526388224.00000000000000000000
-50981648350576640.00000000000000000000
93074818932408320.00000000000000000000
31167430910803968.00000000000000000000
-125886324669415424.00000000000000000000
32575239586054144.00000000000000000000
188714334635950080.00000000000000000000
-33438371246243840.00000000000000000000
-198869647368388608.00000000000000000000
-90799224999903232.00000000000000000000
19438916754997248.00000000000000000000
89334847310397440.00000000000000000000
14750265240453120.00000000000000000000
10784215129915392.00000000000000000000
-3024610727559168.00000000000000000000
-4717956613275648.00000000000000000000
1476044431294464.00000000000000000000
13432890322845696.00000000000000000000
2687358621188096.00000000000000000000
982812400287744.00000000000000000000
-1958426972258304.00000000000000000000
-2695875809771520.00000000000000000000
5775257839337472.00000000000000000000
-391353628360704.00000000000000000000
6008559389114368.00000000000000000000
-7561730695626752.00000000000000000000
21232800040484864.00000000000000000000
14979356648538112.00000000000000000000
15504421769183232.00000000000000000000
-4244335268724736.00000000000000000000
-31774979804626944.00000000000000000000
14698348749520896.00000000000000000000
30360434473172992.00000000000000000000
-7766507756978176.00000000000000000000
-1742249591308288.00000000000000000000
-12075138417688576.00000000000000000000
14323894173302784.00000000000000000000
-10171287863296000.00000000000000000000
535458639511552.00000000000000000000
2856605834018816.00000000000000000000
-8798975482134528.00000000000000000000
-1447726369734656.00000000000000000000
1715343500247040.00000000000000000000
-6321683442958336.00000000000000000000
2794625697841152.00000000000000000000
-2138167863934976.00000000000000000000
-2897317829017600.00000000000000000000
-16904703514247168.00000000000000000000
-4621938324406272.00000000000000000000
10099556540743680.00000000000000000000
10211726054129664.00000000000000000000
-1258362603831296.00000000000000000000
-653092257267712.00000000000000000000
2250885119868928.00000000000000000000
29773275936587776.00000000000000000000
-10573153994539008.00000000000000000000
-12756616583577600.00000000000000000000
16061958990069760.00000000000000000000
-19360988868378624.00000000000000000000
6000104745992192.00000000000000000000
-3683021697843200.00000000000000000000
-19709641428566016.00000000000000000000
9889472510427136.00000000000000000000
-15619174705397760.00000000000000000000
6710069819342848.00000000000000000000
14610294403760128.00000000000000000000
-5482270739660800.00000000000000000000
-13056429996900352.00000000000000000000
838450093752320.00000000000000000000
-9674654352408576.00000000000000000000
10495516018212864.00000000000000000000
5097523811188736.00000000000000000000
14525411891347456.00000000000000000000
-2320933754765312.00000000000000000000
3908046577205248.00000000000000000000
5474883932782592.00000000000000000000
2143270285082624.00000000000000000000
103720496670965760.00000000000000000000
14374523247788032.00000000000000000000
-23435154043174912.00000000000000000000
141115101879992320.00000000000000000000
-34383725760348160.00000000000000000000
46378482791350272.00000000000000000000
58808672196755456.00000000000000000000
64434065742233600.00000000000000000000
53576689065656320.00000000000000000000
7168262836060160.00000000000000000000
-38672740231675904.00000000000000000000
86626380803997696.00000000000000000000
5608865437581312.00000000000000000000
3748202658398208.00000000000000000000
5506914725134336.00000000000000000000
-5725484000215040.00000000000000000000
2038023856324608.00000000000000000000
-2612677461409792.00000000000000000000
8435920822861824.00000000000000000000
-1440426938597376.00000000000000000000
-8702847671599104.00000000000000000000
11841166853013504.00000000000000000000
-1062502834110464.00000000000000000000
-2125826812280832.00000000000000000000
-17504954184892416.00000000000000000000
18966489679790080.00000000000000000000
30732131680387072.00000000000000000000
6741758088052736.00000000000000000000
-20454579883737088.00000000000000000000
91409136125739008.00000000000000000000
-66885388261654528.00000000000000000000
54552136268120064.00000000000000000000
21689174675423232.00000000000000000000
-44663218882215936.00000000000000000000
-20692776622489600.00000000000000000000
54549533517938688.00000000000000000000
-29891295195430912.00000000000000000000
55903577792577536.00000000000000000000
-2237270341976064.00000000000000000000
12631292659105792.00000000000000000000
9251086825160704.00000000000000000000
-1794030119682048.00000000000000000000
32796241423237120.00000000000000000000
-1002894727839744.00000000000000000000
-16499287592534016.00000000000000000000
2180036949966848.00000000000000000000
7582485588213760.00000000000000000000
26993154343305216.00000000000000000000
-16753126602178560.00000000000000000000
-13186838088908800.00000000000000000000
25368509949149184.00000000000000000000
-546513449123840.00000000000000000000
250809116375646208.00000000000000000000
53796264973697024.00000000000000000000
16040730040467456.00000000000000000000
34243321131958272.00000000000000000000
-22113538919104512.00000000000000000000
-28911340424790016.00000000000000000000
9571745862254592.00000000000000000000
-109396888658116608.00000000000000000000
-87314039427825664.00000000000000000000
3618051727556608.00000000000000000000
-109978753647509504.00000000000000000000
223066891818631168.00000000000000000000
-76841079504109568.00000000000000000000
-6317729925562368.00000000000000000000
-20411993135513600.00000000000000000000
-2211773939712000.00000000000000000000
-48398075198177280.00000000000000000000
5624390670614528.00000000000000000000
87057509621170176.00000000000000000000
15647691140759552.00000000000000000000
-55283921385947136.00000000000000000000
260982330531774464.00000000000000000000
132961166598078464.00000000000000000000
25643284776878080.00000000000000000000
7653229605158912.00000000000000000000
-15591143601340416.00000000000000000000
248277379317760.00000000000000000000
15962407016857600.00000000000000000000
-538497127546880.00000000000000000000
-10059483422130176.00000000000000000000
-33757261830553600.00000000000000000000
-35524447599329280.00000000000000000000
738218643292160.00000000000000000000
17598805662760960.00000000000000000000
15101907097878528.00000000000000000000
2383796506722304.00000000000000000000
-30622592834469888.00000000000000000000
5390376693137408.00000000000000000000
17561943032201216.00000000000000000000
-53854517615132672.00000000000000000000
21129319245938688.00000000000000000000
-36591910181142528.00000000000000000000
65947363109240832.00000000000000000000
-45134711802036224.00000000000000000000
-3745532799352832.00000000000000000000
11832684292603904.00000000000000000000
21165961759424512.00000000000000000000
22212389738905600.00000000000000000000
23307819000266752.00000000000000000000
15954649232179200.00000000000000000000
-26757019188854784.00000000000000000000
22334729734848512.00000000000000000000
198331642585022464.00000000000000000000
229993076339245056.00000000000000000000
96452346854244352.00000000000000000000
-3595663136784384.00000000000000000000
62091367240695808.00000000000000000000
-291037704215330816.00000000000000000000
84257775059730432.00000000000000000000
352621659724709888.00000000000000000000
-76054791251296256.00000000000000000000
-116751590655787008.00000000000000000000
-285115219192053760.00000000000000000000
173155008152338432.00000000000000000000
-171209456686727168.00000000000000000000
18844199075971072.00000000000000000000
109008786823315456.00000000000000000000
-46941557298823168.00000000000000000000
36396493464141824.00000000000000000000
-60728531168002048.00000000000000000000
2874170908082176.00000000000000000000
46420324362747904.00000000000000000000
121672051218972672.00000000000000000000
-18776106664460288.00000000000000000000
-44882206379737088.00000000000000000000
-149009320489517056.00000000000000000000
-89928351661162496.00000000000000000000
114414209323761664.00000000000000000000
-23600615510769664.00000000000000000000
-79375591245086720.00000000000000000000
62636136597553152.00000000000000000000
21766020230283264.00000000000000000000
76953092251189248.00000000000000000000
-116067239156776960.00000000000000000000
-45995440428023808.00000000000000000000
3196727515414528.00000000000000000000
-12031383438360576.00000000000000000000
143012893309272064.00000000000000000000
-55229177732792320.00000000000000000000
87269569336442880.00000000000000000000
-130621474573647872.00000000000000000000
266280018072567808.00000000000000000000
145943882071277568.00000000000000000000
-35058389960622080.00000000000000000000
93532842834788352.00000000000000000000
-108042505081061376.00000000000000000000
-78355691131109376.00000000000000000000
-2987471071608832.00000000000000000000
147496048892313600.00000000000000000000
-17978465739341824.00000000000000000000
-60522647615700992.00000000000000000000
-343775710722129920.00000000000000000000
-23396507927445504.00000000000000000000
9533451933843456.00000000000000000000
-110356676409819136.00000000000000000000
28880942793752576.00000000000000000000
-5994697382166528.00000000000000000000
109299813807292416.00000000000000000000
7599400243167232.00000000000000000000
-43086931524845568.00000000000000000000
16740967549763584.00000000000000000000
61513097138929664.00000000000000000000
42007769452118016.00000000000000000000
51669633391919104.00000000000000000000
5392751810052096.00000000000000000000
-15106664847900672.00000000000000000000
30720771491889152.00000000000000000000
90022797992001536.00000000000000000000
-65569788239282176.00000000000000000000
13684164163272704.00000000000000000000
293482674478120960.00000000000000000000
16664383987908608.00000000000000000000
94017839131787264.00000000000000000000
-13215663761915904.00000000000000000000
-149791038897127424.00000000000000000000
15273780951646208.00000000000000000000
86119588823040.00000000000000000000
-16503793013227520.00000000000000000000
-44588310357606400.00000000000000000000
99459777444184064.00000000000000000000
-53595994943651840.00000000000000000000
14514008753176576.00000000000000000000
6514472713715712.00000000000000000000
59690390327918592.00000000000000000000
-14458509185777664.00000000000000000000
-48800221576036352.00000000000000000000
10064414044585984.00000000000000000000
35353456361340928.00000000000000000000
15553521835311104.00000000000000000000
26856943750479872.00000000000000000000
-37205824216498176.00000000000000000000
17253147768520704.00000000000000000000
-26231841325318144.00000000000000000000
9199178924163072.00000000000000000000
7578263098490880.00000000000000000000
3740408634933248.00000000000000000000
16205198296875008.00000000000000000000
-1605563867725824.00000000000000000000
-29977727117295616.00000000000000000000
12595543498817536.00000000000000000000
14793664811237376.00000000000000000000
16989987606102016.00000000000000000000
-9554764635308032.00000000000000000000
-352784721379328.00000000000000000000
28373361411227648.00000000000000000000
-2693093744705536.00000000000000000000
2241950.50000000000000000000
9839477.00000000000000000000
-19456748.00000000000000000000
-902446.75000000000000000000
12552255.00000000000000000000
-32807056.00000000000000000000
15058187.00000000000000000000
12287993.00000000000000000000
2426158.50000000000000000000
-8671791.00000000000000000000
2405057.00000000000000000000
-20933880.00000000000000000000
-22829488.00000000000000000000
-9849065.00000000000000000000
29329932.00000000000000000000
5581552.00000000000000000000
-9242429.00000000000000000000
-4434460.00000000000000000000
27675288.00000000000000000000
-9605495.00000000000000000000
-7306288.00000000000000000000
50414168.00000000000000000000
-12603257.00000000000000000000
-14960783.00000000000000000000
-17400580.00000000000000000000
29169116.00000000000000000000
-10405037.00000000000000000000
-6314744.00000000000000000000
15091827.00000000000000000000
8938431.00000000000000000000
2684299.00000000000000000000
-2568482.00000000000000000000
-11134819.00000000000000000000
-10989793.00000000000000000000
50724756.00000000000000000000
-14152147.00000000000000000000
36706188.00000000000000000000
-12011149.00000000000000000000
-24428556.00000000000000000000
55072464.00000000000000000000
4994073.00000000000000000000
6361139.00000000000000000000
57058364.00000000000000000000
2019961.62500000000000000000
15541655.00000000000000000000
-22013332.00000000000000000000
-20211478.00000000000000000000
-22506366.00000000000000000000
-9051471.00000000000000000000
-3041440.00000000000000000000
-12089167.00000000000000000000
6426197.00000000000000000000
33798752.00000000000000000000
61610052.00000000000000000000
29617440.00000000000000000000
37405324.00000000000000000000
10914315.00000000000000000000
45156976.00000000000000000000
-69181056.00000000000000000000
5403073.00000000000000000000
-93112304.00000000000000000000
6361139.00000000000000000000
20951804.00000000000000000000
6542290.50000000000000000000
-11249997.00000000000000000000
-26899630.00000000000000000000
12159895.00000000000000000000
-27330094.00000000000000000000
-6494119.00000000000000000000
-8918393.00000000000000000000
-20366038.00000000000000000000
40180308.00000000000000000000
-718462.37500000000000000000
-7736057.00000000000000000000
-2072141.50000000000000000000
-7865841.50000000000000000000
-22426302.00000000000000000000
-27408406.00000000000000000000
48562716.00000000000000000000
12621229.00000000000000000000
-5820931.00000000000000000000
-14475721.00000000000000000000
16539450.00000000000000000000
4194972.00000000000000000000
7796628.00000000000000000000
-17261078.00000000000000000000
14428775.00000000000000000000
13053021.00000000000000000000
-10051490.00000000000000000000
40835028.00000000000000000000
39009276.00000000000000000000
42687676.00000000000000000000
33430336.00000000000000000000
-42059716.00000000000000000000
2179446.00000000000000000000
-23643178.00000000000000000000
-5957806.00000000000000000000
-11182577.00000000000000000000
8439928.00000000000000000000
4521866.50000000000000000000
-30324114.00000000000000000000
-7794751.00000000000000000000
25716538.00000000000000000000
-29274694.00000000000000000000
23031106.00000000000000000000
45459284.00000000000000000000
-8157959.00000000000000000000
8522367.00000000000000000000
5591308.00000000000000000000
13169351.00000000000000000000
-8120604.50000000000000000000
-14040299.00000000000000000000
5711351.00000000000000000000
13374633.00000000000000000000
-10970301.00000000000000000000
13902211.00000000000000000000
10647192.00000000000000000000
-18455216.00000000000000000000
25887034.00000000000000000000
38230692.00000000000000000000
9878903.00000000000000000000
4519627.00000000000000000000
-29536406.00000000000000000000
8141025.00000000000000000000
-12642757.00000000000000000000
-17362432.00000000000000000000
-8157959.00000000000000000000
-48538660.00000000000000000000
-18049046.00000000000000000000
10503437.00000000000000000000
13245428.00000000000000000000
3044958.00000000000000000000
248407.00000000000000000000
-441007.59375000000000000000
11859236.00000000000000000000
3566372.50000000000000000000
7007169.00000000000000000000
-7595602.00000000000000000000
-1447398.00000000000000000000
-13223476.00000000000000000000
-1656299.50000000000000000000
-4935580.00000000000000000000
2113211.50000000000000000000
-947431.31250000000000000000
9745274.00000000000000000000
-21410686.00000000000000000000
-8781616.00000000000000000000
-8579631.00000000000000000000
-7173390.00000000000000000000
-9943366.00000000000000000000
-720336.31250000000000000000
-640353.93750000000000000000
-5427910.00000000000000000000
12770406.00000000000000000000
2043709.00000000000000000000
5216631.00000000000000000000
911607.68750000000000000000
-10705932.00000000000000000000
7366058.00000000000000000000
-13710500.00000000000000000000
5905415.00000000000000000000
-8616646.00000000000000000000
517617.12500000000000000000
-7033427.00000000000000000000
-3112597.00000000000000000000
1161141.00000000000000000000
1560602.50000000000000000000
3090450.00000000000000000000
-8871405.00000000000000000000
2649730.00000000000000000000
9753788.00000000000000000000
-7224353.00000000000000000000
-9050482.00000000000000000000
-13434060.00000000000000000000
-6218651.00000000000000000000
8025148.00000000000000000000
-11965140.00000000000000000000
-1990295.25000000000000000000
10534264.00000000000000000000
-4094883.50000000000000000000
3425855.25000000000000000000
577416.37500000000000000000
1896949.25000000000000000000
8430398.00000000000000000000
10406774.00000000000000000000
20766278.00000000000000000000
-12407836.00000000000000000000
-5887832.00000000000000000000
-3577060.50000000000000000000
10580042.00000000000000000000
12153464.00000000000000000000
-7224353.00000000000000000000
-3586256.00000000000000000000
13360396.00000000000000000000
1331936.75000000000000000000
1090885.50000000000000000000
-2572086.50000000000000000000
-39333808.00000000000000000000
-4955145.00000000000000000000
15627899.00000000000000000000
28976596.00000000000000000000
33845260.00000000000000000000
3676888.50000000000000000000
-8511409.00000000000000000000
5840568.00000000000000000000
-9050870.00000000000000000000
4857958.00000000000000000000
-3205919.00000000000000000000
-15252627.00000000000000000000
50867088.00000000000000000000
-20446902.00000000000000000000
11185497.00000000000000000000
1554199.62500000000000000000
41675208.00000000000000000000
38075712.00000000000000000000
-5110679.00000000000000000000
-70972184.00000000000000000000
4630252.50000000000000000000
2926437.50000000000000000000
9934498.00000000000000000000
45484712.00000000000000000000
31172654.00000000000000000000
-30440024.00000000000000000000
38454120.00000000000000000000
19436002.00000000000000000000
-9547269.00000000000000000000
17676310.00000000000000000000
-16718722.00000000000000000000
-61902792.00000000000000000000
-23509130.00000000000000000000
-37609560.00000000000000000000
29611520.00000000000000000000
-45122664.00000000000000000000
25145654.00000000000000000000
-44452824.00000000000000000000
76734104.00000000000000000000
-44811632.00000000000000000000
-12163531.00000000000000000000
4889842.00000000000000000000
-4300300.50000000000000000000
-19759930.00000000000000000000
-2989283.00000000000000000000
-291858.53125000000000000000
11871313.00000000000000000000
15490760.00000000000000000000
-3488497.00000000000000000000
-12171573.00000000000000000000
-27031376.00000000000000000000
-31835068.00000000000000000000
50375360.00000000000000000000
27886980.00000000000000000000
-8925690.00000000000000000000
17087894.00000000000000000000
-39601952.00000000000000000000
-12717708.00000000000000000000
-27634300.00000000000000000000
-44811632.00000000000000000000
-30041084.00000000000000000000
19636372.00000000000000000000
-35165384.00000000000000000000
26410324.00000000000000000000
-47573400.00000000000000000000
524947.93750000000000000000
-5269460.00000000000000000000
14889043.00000000000000000000
42864480.00000000000000000000
2434099.25000000000000000000
20453906.00000000000000000000
-6454889.50000000000000000000
10958191.00000000000000000000
-6619328.50000000000000000000
-25179372.00000000000000000000
2168073.00000000000000000000
-11302769.00000000000000000000
-6988288.50000000000000000000
-7504767.00000000000000000000
19146954.00000000000000000000
22646424.00000000000000000000
10792271.00000000000000000000
-9783009.00000000000000000000
12712919.00000000000000000000
-3716956.50000000000000000000
7467804.00000000000000000000
20620320.00000000000000000000
9641285.00000000000000000000
17379336.00000000000000000000
15738235.00000000000000000000
8427323.00000000000000000000
31701404.00000000000000000000
-16389085.00000000000000000000
-4758093.00000000000000000000
-4595199.50000000000000000000
-11290929.00000000000000000000
796008.75000000000000000000
-14626437.00000000000000000000
3706630.25000000000000000000
24284098.00000000000000000000
29780332.00000000000000000000
2642294.00000000000000000000
7998578.50000000000000000000
26148812.00000000000000000000
-24398580.00000000000000000000
2003741.50000000000000000000
14087301.00000000000000000000
9932421.00000000000000000000
28097980.00000000000000000000
-19590796.00000000000000000000
-8788509.00000000000000000000
15789307.00000000000000000000
-2624726.25000000000000000000
-29648296.00000000000000000000
5904189.50000000000000000000
23302340.00000000000000000000
-11176697.00000000000000000000
34261696.00000000000000000000
29703700.00000000000000000000
4674822.50000000000000000000
215519.48437500000000000000
-51911768.00000000000000000000
3763597.75000000000000000000
-3680367.50000000000000000000
-24398580.00000000000000000000
4490263.00000000000000000000
5401480.00000000000000000000
-20731640.00000000000000000000
1573979392.00000000000000000000
-9482505.00000000000000000000
283968640.00000000000000000000
80612384.00000000000000000000
-107211664.00000000000000000000
108908032.00000000000000000000
-88762160.00000000000000000000
-213247392.00000000000000000000
87244720.00000000000000000000
-67145856.00000000000000000000
89248736.00000000000000000000
-26141376.00000000000000000000
35468632.00000000000000000000
53347364.00000000000000000000
-72567344.00000000000000000000
-69561456.00000000000000000000
-70772664.00000000000000000000
-89042416.00000000000000000000
323469312.00000000000000000000
-33870240.00000000000000000000
-35092100.00000000000000000000
194958576.00000000000000000000
-13045067.00000000000000000000
33089886.00000000000000000000
-58081908.00000000000000000000
19567328.00000000000000000000
362298016.00000000000000000000
134673008.00000000000000000000
502206496.00000000000000000000
11378681.00000000000000000000
-91655040.00000000000000000000
-57634732.00000000000000000000
-3157010.50000000000000000000
361298144.00000000000000000000
278083392.00000000000000000000
304201600.00000000000000000000
-54358336.00000000000000000000
245167008.00000000000000000000
23154916.00000000000000000000
125892720.00000000000000000000
104906576.00000000000000000000
220469168.00000000000000000000
-133283616.00000000000000000000
39649460.00000000000000000000
60111652.00000000000000000000
-70218976.00000000000000000000
-62776148.00000000000000000000
-39787940.00000000000000000000
-48064740.00000000000000000000
56200772.00000000000000000000
107806640.00000000000000000000
-80836688.00000000000000000000
-34658968.00000000000000000000
226812624.00000000000000000000
-120652832.00000000000000000000
-76029264.00000000000000000000
96643408.00000000000000000000
228457024.00000000000000000000
-120311984.00000000000000000000
133448264.00000000000000000000
84004752.00000000000000000000
220469168.00000000000000000000
-25551084.00000000000000000000
27992732.00000000000000000000
-66235660.00000000000000000000
-6181396.50000000000000000000
-23347272.00000000000000000000
-19121872.00000000000000000000
-15130364.00000000000000000000
-26050196.00000000000000000000
-23035246.00000000000000000000
17669558.00000000000000000000
-15426172.00000000000000000000
-13238230.00000000000000000000
23588560.00000000000000000000
-13156466.00000000000000000000
-21276488.00000000000000000000
-14417932.00000000000000000000
31395152.00000000000000000000
13626054.00000000000000000000
-28057766.00000000000000000000
-16967344.00000000000000000000
5723750.00000000000000000000
11702574.00000000000000000000
-4457761.50000000000000000000
-32895388.00000000000000000000
43566516.00000000000000000000
-25336652.00000000000000000000
2595744.25000000000000000000
30190056.00000000000000000000
14462688.00000000000000000000
-30644820.00000000000000000000
-17451352.00000000000000000000
-43719244.00000000000000000000
22387838.00000000000000000000
-18062014.00000000000000000000
6855144.00000000000000000000
-11152364.00000000000000000000
2799966.50000000000000000000
34085212.00000000000000000000
-16193564.00000000000000000000
19974016.00000000000000000000
13152766.00000000000000000000
-39512752.00000000000000000000
51786564.00000000000000000000
-24291722.00000000000000000000
-42009240.00000000000000000000
29506860.00000000000000000000
24456904.00000000000000000000
34924868.00000000000000000000
-2745555.50000000000000000000
-28854076.00000000000000000000
-23419834.00000000000000000000
-24140644.00000000000000000000
-3429163.00000000000000000000
43177160.00000000000000000000
-11153788.00000000000000000000
14032890.00000000000000000000
-24917882.00000000000000000000
45806956.00000000000000000000
-14627044.00000000000000000000
14358372.00000000000000000000
-7217433.00000000000000000000
-29691218.00000000000000000000
-28984908.00000000000000000000
-22259442.00000000000000000000
-42009240.00000000000000000000
14567608.00000000000000000000
-22723472.00000000000000000000
-27112408.00000000000000000000
-19241134.00000000000000000000
-7739686.50000000000000000000
-11717473.00000000000000000000
-2670550.25000000000000000000
-11916563.00000000000000000000
-1982168.12500000000000000000
-26100858.00000000000000000000
14951931.00000000000000000000
-972677.56250000000000000000
12099597.00000000000000000000
-1096702.75000000000000000000
2973903.25000000000000000000
-32164786.00000000000000000000
12827901.00000000000000000000
47828740.00000000000000000000
6295812.00000000000000000000
-5553095.00000000000000000000
8218527.00000000000000000000
1287220.37500000000000000000
25396358.00000000000000000000
-6618514.50000000000000000000
-15170007.00000000000000000000
13318686.00000000000000000000
-20806178.00000000000000000000
-24046838.00000000000000000000
-11929247.00000000000000000000
20760490.00000000000000000000
7514970.50000000000000000000
-10914103.00000000000000000000
-415127.00000000000000000000
-13965722.00000000000000000000
-2924944.25000000000000000000
9761160.00000000000000000000
-33411934.00000000000000000000
-28826570.00000000000000000000
-14116498.00000000000000000000
-8793633.00000000000000000000
-3847940.75000000000000000000
-26403702.00000000000000000000
-11325966.00000000000000000000
5944084.50000000000000000000
-23114442.00000000000000000000
12412900.00000000000000000000
9998987.00000000000000000000
-4825174.50000000000000000000
-19189984.00000000000000000000
-1803926.62500000000000000000
-1873445.62500000000000000000
2397787.25000000000000000000
20591862.00000000000000000000
5226458.50000000000000000000
21096414.00000000000000000000
-18043844.00000000000000000000
-23944726.00000000000000000000
-20098686.00000000000000000000
-29837394.00000000000000000000
9873083.00000000000000000000
-19064618.00000000000000000000
-1674480.62500000000000000000
-12215852.00000000000000000000
-6408624.00000000000000000000
-23114426.00000000000000000000
-3178383.75000000000000000000
11456749.00000000000000000000
9013792.00000000000000000000
39779576.00000000000000000000
-3204001.75000000000000000000
9986580.00000000000000000000
8624714.00000000000000000000
-2438846.25000000000000000000
13317420.00000000000000000000
19690772.00000000000000000000
-3854953.75000000000000000000
3127070.75000000000000000000
-12931268.00000000000000000000
1715729.62500000000000000000
-1949127.12500000000000000000
4739486.00000000000000000000
4114682.25000000000000000000
-6677743.50000000000000000000
673581.87500000000000000000
-8629105.00000000000000000000
1996231.87500000000000000000
3647354.75000000000000000000
14069958.00000000000000000000
-9022728.00000000000000000000
739431.12500000000000000000
-15516260.00000000000000000000
-22936504.00000000000000000000
-1080463.87500000000000000000
-7438074.50000000000000000000
-5744550.50000000000000000000
12616110.00000000000000000000
8427215.00000000000000000000
-2604534.25000000000000000000
-10563124.00000000000000000000
18486448.00000000000000000000
-2280936.75000000000000000000
-13063684.00000000000000000000
-4472771.00000000000000000000
10223042.00000000000000000000
648487.50000000000000000000
-37290928.00000000000000000000
-15800712.00000000000000000000
7831083.00000000000000000000
-1413087.37500000000000000000
17662788.00000000000000000000
3016175.25000000000000000000
-8032376.50000000000000000000
18334386.00000000000000000000
14833706.00000000000000000000
-12138798.00000000000000000000
-4416744.00000000000000000000
12847684.00000000000000000000
-2158185.00000000000000000000
11749428.00000000000000000000
29849010.00000000000000000000
19385714.00000000000000000000
19608746.00000000000000000000
-3141240.75000000000000000000
12356728.00000000000000000000
1106036.37500000000000000000
-8231023.50000000000000000000
-18385366.00000000000000000000
-8013376.50000000000000000000
37504120.00000000000000000000
17662788.00000000000000000000
13931526.00000000000000000000
-8238715.50000000000000000000
4124162.25000000000000000000
13789331.00000000000000000000
-27022022.00000000000000000000
-60159416.00000000000000000000
-13685151.00000000000000000000
-6784264.00000000000000000000
74185752.00000000000000000000
56426656.00000000000000000000
-24865694.00000000000000000000
-14391599.00000000000000000000
-2550843.25000000000000000000
-14265319.00000000000000000000
279906.09375000000000000000
21489836.00000000000000000000
-13302995.00000000000000000000
42375228.00000000000000000000
10730561.00000000000000000000
-42924832.00000000000000000000
-19802148.00000000000000000000
30715618.00000000000000000000
19255676.00000000000000000000
-14806891.00000000000000000000
-14246653.00000000000000000000
-5726425.00000000000000000000
2183904.25000000000000000000
37374688.00000000000000000000
31340810.00000000000000000000
-9354108.00000000000000000000
-26503230.00000000000000000000
40494512.00000000000000000000
28909540.00000000000000000000
-33806964.00000000000000000000
7244814.00000000000000000000
-33379214.00000000000000000000
79606872.00000000000000000000
-32123396.00000000000000000000
-55402224.00000000000000000000
-7733467.00000000000000000000
-50585540.00000000000000000000
44567372.00000000000000000000
10419229.00000000000000000000
44386496.00000000000000000000
-51320456.00000000000000000000
-73989456.00000000000000000000
-6468685.00000000000000000000
-42509856.00000000000000000000
-59384656.00000000000000000000
-34215344.00000000000000000000
5043075.00000000000000000000
-5799070.00000000000000000000
-13601737.00000000000000000000
-27576524.00000000000000000000
-17339300.00000000000000000000
-13213055.00000000000000000000
-41154776.00000000000000000000
6974591.00000000000000000000
-19118488.00000000000000000000
-22340932.00000000000000000000
-29745618.00000000000000000000
-14717633.00000000000000000000
74168816.00000000000000000000
-47317232.00000000000000000000
-51320456.00000000000000000000
24057468.00000000000000000000
22454508.00000000000000000000
-40659156.00000000000000000000
52062972.00000000000000000000
-43823548.00000000000000000000
-26948386.00000000000000000000
-8979827.00000000000000000000
-5707761.00000000000000000000
2960599.00000000000000000000
29700306.00000000000000000000
-1762764.87500000000000000000
-6809932.00000000000000000000
-28334122.00000000000000000000
-6316235.00000000000000000000
877816.56250000000000000000
-4924395.00000000000000000000
-66619448.00000000000000000000
14231442.00000000000000000000
-46916980.00000000000000000000
9878873.00000000000000000000
-72670016.00000000000000000000
2914698.50000000000000000000
-15552840.00000000000000000000
-16273981.00000000000000000000
130760224.00000000000000000000
-8951135.00000000000000000000
23991538.00000000000000000000
-37044836.00000000000000000000
63761132.00000000000000000000
-51800916.00000000000000000000
-63168152.00000000000000000000
46099204.00000000000000000000
1650160.62500000000000000000
54436268.00000000000000000000
-66223428.00000000000000000000
-23991482.00000000000000000000
85236464.00000000000000000000
82805344.00000000000000000000
-23133298.00000000000000000000
58162592.00000000000000000000
-41562700.00000000000000000000
39015676.00000000000000000000
152647200.00000000000000000000
7678373.00000000000000000000
-6841263.00000000000000000000
-42062468.00000000000000000000
-19393842.00000000000000000000
-2726502.00000000000000000000
680803.56250000000000000000
17307998.00000000000000000000
-28635498.00000000000000000000
-16442928.00000000000000000000
-105507568.00000000000000000000
-4987596.50000000000000000000
55914932.00000000000000000000
44927252.00000000000000000000
98261552.00000000000000000000
32286186.00000000000000000000
20402902.00000000000000000000
-34131804.00000000000000000000
51205100.00000000000000000000
-110161344.00000000000000000000
50396580.00000000000000000000
-86449120.00000000000000000000
-6841263.00000000000000000000
104780752.00000000000000000000
41149188.00000000000000000000
29477894.00000000000000000000
49073904.00000000000000000000
-27707432.00000000000000000000
19264388.00000000000000000000
-1152624.25000000000000000000
32873986.00000000000000000000
-2536081.50000000000000000000
-12344464.00000000000000000000
-32079718.00000000000000000000
-3672042.00000000000000000000
2377207.50000000000000000000
-3718155.50000000000000000000
-24173282.00000000000000000000
16920394.00000000000000000000
-30531546.00000000000000000000
22746442.00000000000000000000
-46403648.00000000000000000000
-36688632.00000000000000000000
-20496628.00000000000000000000
47197260.00000000000000000000
65052084.00000000000000000000
-3139265.25000000000000000000
2269336.75000000000000000000
-11330098.00000000000000000000
-2534519.50000000000000000000
3729978.00000000000000000000
26691894.00000000000000000000
-6410116.00000000000000000000
59403320.00000000000000000000
128745928.00000000000000000000
-21192906.00000000000000000000
-54081760.00000000000000000000
5743499.00000000000000000000
25868014.00000000000000000000
7319423.00000000000000000000
-17003490.00000000000000000000
26957814.00000000000000000000
-22872022.00000000000000000000
11098752.00000000000000000000
-40351188.00000000000000000000
40921660.00000000000000000000
11804632.00000000000000000000
25943114.00000000000000000000
40355720.00000000000000000000
4408059.00000000000000000000
-15033888.00000000000000000000
41933984.00000000000000000000
-25419062.00000000000000000000
4108997.50000000000000000000
-6425813.00000000000000000000
68213472.00000000000000000000
-72339800.00000000000000000000
14929696.00000000000000000000
17296854.00000000000000000000
-19375850.00000000000000000000
-24710058.00000000000000000000
24527922.00000000000000000000
-30111854.00000000000000000000
-44760208.00000000000000000000
-29670928.00000000000000000000
-3036220.00000000000000000000
-52960172.00000000000000000000
25943114.00000000000000000000
-44452924.00000000000000000000
23556494.00000000000000000000
38326152.00000000000000000000
10503293.00000000000000000000
-17113136.00000000000000000000
-6650835.50000000000000000000
-197567.84375000000000000000
-19970858.00000000000000000000
6735039.00000000000000000000
9303858.00000000000000000000
-1277020.62500000000000000000
1235954.37500000000000000000
-16337956.00000000000000000000
1455430.50000000000000000000
25519286.00000000000000000000
-7467518.00000000000000000000
-3282170.25000000000000000000
-5993580.00000000000000000000
-3834151.75000000000000000000
-4560920.00000000000000000000
16660025.00000000000000000000
-4413086.00000000000000000000
-14929970.00000000000000000000
18791860.00000000000000000000
13105673.00000000000000000000
4009029.75000000000000000000
-9716637.00000000000000000000
-5286574.00000000000000000000
2686202.25000000000000000000
-16212391.00000000000000000000
9696924.00000000000000000000
-6215829.50000000000000000000
7719592.50000000000000000000
-30362744.00000000000000000000
-22986018.00000000000000000000
24471502.00000000000000000000
2649699.00000000000000000000
-2557692.75000000000000000000
-7447383.00000000000000000000
2166775.00000000000000000000
-196780.18750000000000000000
-288694.12500000000000000000
914905.25000000000000000000
-13830807.00000000000000000000
-5749857.50000000000000000000
-15796357.00000000000000000000
21844374.00000000000000000000
-11375548.00000000000000000000
3771041.50000000000000000000
-699062.18750000000000000000
-6498011.00000000000000000000
-20219038.00000000000000000000
-6193784.00000000000000000000
7880564.50000000000000000000
14182265.00000000000000000000
7871005.50000000000000000000
17317774.00000000000000000000
-3730278.25000000000000000000
7013184.00000000000000000000
-8725550.00000000000000000000
3642022.75000000000000000000
-978117.81250000000000000000
3266498.25000000000000000000
-11093736.00000000000000000000
-5749863.50000000000000000000
355634.84375000000000000000
26764298.00000000000000000000
16105095.00000000000000000000
463359392.00000000000000000000
-30681438.00000000000000000000
-9856188.00000000000000000000
-25850294.00000000000000000000
-77648888.00000000000000000000
45389340.00000000000000000000
44683452.00000000000000000000
40067228.00000000000000000000
-22311146.00000000000000000000
3522994.25000000000000000000
-21652242.00000000000000000000
-12622466.00000000000000000000
-6480714.00000000000000000000
-15173374.00000000000000000000
-29223618.00000000000000000000
-31069538.00000000000000000000
11517422.00000000000000000000
-23302458.00000000000000000000
45437068.00000000000000000000
89861720.00000000000000000000
-48363764.00000000000000000000
110750568.00000000000000000000
-1004883.25000000000000000000
22731300.00000000000000000000
-66583380.00000000000000000000
86010440.00000000000000000000
90004248.00000000000000000000
-16596594.00000000000000000000
47708132.00000000000000000000
-12054944.00000000000000000000
-38218508.00000000000000000000
15530431.00000000000000000000
-4118982.75000000000000000000
104166072.00000000000000000000
-41115708.00000000000000000000
-1205620.37500000000000000000
98892520.00000000000000000000
27599854.00000000000000000000
34355668.00000000000000000000
55599844.00000000000000000000
45109164.00000000000000000000
119614136.00000000000000000000
-48892972.00000000000000000000
-55316900.00000000000000000000
109807344.00000000000000000000
-61366052.00000000000000000000
17976220.00000000000000000000
13297168.00000000000000000000
-28456574.00000000000000000000
-68659336.00000000000000000000
108309816.00000000000000000000
-17847858.00000000000000000000
-235441.18750000000000000000
48378620.00000000000000000000
80166808.00000000000000000000
8128484.00000000000000000000
-12635962.00000000000000000000
12947198.00000000000000000000
-64824004.00000000000000000000
22229362.00000000000000000000
25980802.00000000000000000000
119614136.00000000000000000000
129347320.00000000000000000000
-49416060.00000000000000000000
-6114442.00000000000000000000
18903692.00000000000000000000
31439656.00000000000000000000
16132479.00000000000000000000
3397876.50000000000000000000
-11555689.00000000000000000000
-31560888.00000000000000000000
16709112.00000000000000000000
-7782482.00000000000000000000
-601651.18750000000000000000
5113360.00000000000000000000
-1095808.62500000000000000000
5529097.00000000000000000000
-10613293.00000000000000000000
14793229.00000000000000000000
1727385.12500000000000000000
-4366582.00000000000000000000
-3407912.25000000000000000000
6193959.00000000000000000000
-15815176.00000000000000000000
1428100.37500000000000000000
5955228.00000000000000000000
-2226964.25000000000000000000
23771896.00000000000000000000
4096605.00000000000000000000
27018702.00000000000000000000
43904348.00000000000000000000
-3227781.50000000000000000000
-20459900.00000000000000000000
23232748.00000000000000000000
-5057416.00000000000000000000
-7700486.00000000000000000000
-8665583.00000000000000000000
-8997901.00000000000000000000
-13450024.00000000000000000000
-16886602.00000000000000000000
17649040.00000000000000000000
16744811.00000000000000000000
3472980.50000000000000000000
13468137.00000000000000000000
12728591.00000000000000000000
-572128.18750000000000000000
-27242566.00000000000000000000
-23530732.00000000000000000000
-11743327.00000000000000000000
-26888430.00000000000000000000
2643397.00000000000000000000
4691446.00000000000000000000
-3553881.00000000000000000000
24743.23828125000000000000
18347608.00000000000000000000
7070619.00000000000000000000
18099450.00000000000000000000
-18785842.00000000000000000000
5475633.00000000000000000000
14242605.00000000000000000000
-56174.00390625000000000000
-3481268.75000000000000000000
24043186.00000000000000000000
-50667444.00000000000000000000
19394652.00000000000000000000
21715624.00000000000000000000
-27242566.00000000000000000000
12533185.00000000000000000000
-15764591.00000000000000000000
3072421.50000000000000000000
-3973594.00000000000000000000
11806666.00000000000000000000
2420133.00000000000000000000
-15595718.00000000000000000000
10052294.00000000000000000000
-20261654.00000000000000000000
13646715.00000000000000000000
1693336.62500000000000000000
-20187930.00000000000000000000
510636.75000000000000000000
-20871318.00000000000000000000
-20451194.00000000000000000000
6579624.00000000000000000000
-27867138.00000000000000000000
18393878.00000000000000000000
34944192.00000000000000000000
-630942.81250000000000000000
-16024001.00000000000000000000
-5308199.00000000000000000000
3982824.50000000000000000000
7966031.00000000000000000000
5340766.00000000000000000000
1403575.62500000000000000000
-10289452.00000000000000000000
11445923.00000000000000000000
9281792.00000000000000000000
-6499489.00000000000000000000
-1242092.37500000000000000000
23860002.00000000000000000000
-32849614.00000000000000000000
-20036990.00000000000000000000
-5534967.00000000000000000000
5010032.00000000000000000000
-3027567.00000000000000000000
10116617.00000000000000000000
1864001.37500000000000000000
5489068.00000000000000000000
6279569.00000000000000000000
9635289.00000000000000000000
11999202.00000000000000000000
-1383365.87500000000000000000
-6393282.00000000000000000000
889610.62500000000000000000
-3920021.00000000000000000000
27474926.00000000000000000000
7553391.00000000000000000000
5517014.00000000000000000000
-5381508.00000000000000000000
-4307842.00000000000000000000
-24345602.00000000000000000000
5791261.00000000000000000000
-11642653.00000000000000000000
9221790.00000000000000000000
17048560.00000000000000000000
-455545.78125000000000000000
-10822705.00000000000000000000
-7232101.00000000000000000000
-10769116.00000000000000000000
17619398.00000000000000000000
16257861.00000000000000000000
-4383752.00000000000000000000
-6393282.00000000000000000000
5549035.00000000000000000000
177313.39062500000000000000
1260578.12500000000000000000
-954213.68750000000000000000
-58931692.00000000000000000000
4863583.50000000000000000000
8377958.50000000000000000000
33922204.00000000000000000000
4607708.50000000000000000000
-20157244.00000000000000000000
15892907.00000000000000000000
10020433.00000000000000000000
9951577.00000000000000000000
11134046.00000000000000000000
2017554.25000000000000000000
6833549.50000000000000000000
-33315254.00000000000000000000
4284857.50000000000000000000
26864424.00000000000000000000
4494016.00000000000000000000
7118132.50000000000000000000
8720449.00000000000000000000
-17361514.00000000000000000000
-13028273.00000000000000000000
1547520.75000000000000000000
10826327.00000000000000000000
-22318456.00000000000000000000
16013453.00000000000000000000
-9901322.00000000000000000000
8972137.00000000000000000000
-29386242.00000000000000000000
11057912.00000000000000000000
13211067.00000000000000000000
8121707.50000000000000000000
-15753531.00000000000000000000
-4226869.00000000000000000000
8314999.00000000000000000000
20662138.00000000000000000000
4709412.00000000000000000000
-6933086.50000000000000000000
17491366.00000000000000000000
24224462.00000000000000000000
-2674366.50000000000000000000
7207315.50000000000000000000
657984.68750000000000000000
24330748.00000000000000000000
-23985712.00000000000000000000
10791830.00000000000000000000
-5618620.50000000000000000000
25014074.00000000000000000000
451228.40625000000000000000
-10798249.00000000000000000000
-37352632.00000000000000000000
-24830076.00000000000000000000
-9954858.00000000000000000000
8177759.00000000000000000000
11720350.00000000000000000000
10779099.00000000000000000000
-40067836.00000000000000000000
21419092.00000000000000000000
10546117.00000000000000000000
-2739860.25000000000000000000
-21367604.00000000000000000000
18170156.00000000000000000000
657984.68750000000000000000
-7423617.50000000000000000000
33560380.00000000000000000000
11251415.00000000000000000000
-10025821.00000000000000000000
-7194735.50000000000000000000
-10776467.00000000000000000000
3136268.00000000000000000000
-25827872.00000000000000000000
6056468.50000000000000000000
-41886332.00000000000000000000
-6972162.50000000000000000000
4584972.50000000000000000000
-8085156.50000000000000000000
5100630.50000000000000000000
-1046924.93750000000000000000
26271880.00000000000000000000
2934339.50000000000000000000
-246567.82812500000000000000
8498191.00000000000000000000
-12012046.00000000000000000000
2750304.50000000000000000000
-28840412.00000000000000000000
-45397212.00000000000000000000
-3001673.50000000000000000000
-2912048.50000000000000000000
-1658935.12500000000000000000
5562717.50000000000000000000
39174396.00000000000000000000
-1975755.87500000000000000000
-19476680.00000000000000000000
-28532732.00000000000000000000
35000020.00000000000000000000
-1518955.62500000000000000000
-4229732.50000000000000000000
-15309467.00000000000000000000
-1509636.87500000000000000000
-2231332.00000000000000000000
12560639.00000000000000000000
-9202135.00000000000000000000
25575948.00000000000000000000
16034083.00000000000000000000
-36816628.00000000000000000000
-9554099.00000000000000000000
9582847.00000000000000000000
-9805649.00000000000000000000
23970528.00000000000000000000
-32323678.00000000000000000000
4510774.50000000000000000000
46377940.00000000000000000000
-5080432.50000000000000000000
35455588.00000000000000000000
-5075877.50000000000000000000
-19823208.00000000000000000000
8833363.00000000000000000000
-16210327.00000000000000000000
12798591.00000000000000000000
30624292.00000000000000000000
-10546717.00000000000000000000
24664492.00000000000000000000
2800462.00000000000000000000
34324532.00000000000000000000
-37702484.00000000000000000000
15859397.00000000000000000000
1516675.12500000000000000000
-9805641.00000000000000000000
10649943.00000000000000000000
9043464.00000000000000000000
-6069339.50000000000000000000
-473374.71875000000000000000
-767514.31250000000000000000
-2050086.75000000000000000000
2615486.00000000000000000000
4948485.00000000000000000000
-3444742.25000000000000000000
4479146.00000000000000000000
5701300.50000000000000000000
3251766.00000000000000000000
-488260.18750000000000000000
3256758.75000000000000000000
-6646010.00000000000000000000
-2696092.75000000000000000000
884118.31250000000000000000
-3299273.75000000000000000000
-15694449.00000000000000000000
-12561777.00000000000000000000
6598673.00000000000000000000
-6361412.50000000000000000000
13874643.00000000000000000000
-9604609.00000000000000000000
6228982.00000000000000000000
-485867.84375000000000000000
2507103.50000000000000000000
-15910871.00000000000000000000
-5291332.00000000000000000000
13520597.00000000000000000000
-34399.99218750000000000000
-12629933.00000000000000000000
-6698924.00000000000000000000
6650483.50000000000000000000
7131407.50000000000000000000
9391211.00000000000000000000
-7260703.50000000000000000000
14074701.00000000000000000000
-2273285.75000000000000000000
128137.70312500000000000000
-1423149.50000000000000000000
-4775552.00000000000000000000
3425430.75000000000000000000
-897147.81250000000000000000
9893097.00000000000000000000
4120505.50000000000000000000
8069138.50000000000000000000
2820061.75000000000000000000
-5761851.00000000000000000000
8041178.00000000000000000000
1150638.00000000000000000000
-2645013.25000000000000000000
4214722.00000000000000000000
3395262.50000000000000000000
13561343.00000000000000000000
10201363.00000000000000000000
-2591343.25000000000000000000
3125370.75000000000000000000
-5762344.50000000000000000000
-10479331.00000000000000000000
18674434.00000000000000000000
-28132246.00000000000000000000
-12264291.00000000000000000000
-10183373.00000000000000000000
9893097.00000000000000000000
-8398387.00000000000000000000
3516131.75000000000000000000
-5142610.00000000000000000000
46681980.00000000000000000000
-10219084.00000000000000000000
-13514330.00000000000000000000
-38613860.00000000000000000000
-44629020.00000000000000000000
-43516316.00000000000000000000
-8604996.00000000000000000000
-7654976.00000000000000000000
-39324372.00000000000000000000
4741149.50000000000000000000
-39074476.00000000000000000000
-54216476.00000000000000000000
26357834.00000000000000000000
-9088122.00000000000000000000
7249116.50000000000000000000
11243924.00000000000000000000
-41413336.00000000000000000000
-15537954.00000000000000000000
6676097.00000000000000000000
11200278.00000000000000000000
10808068.00000000000000000000
-34914088.00000000000000000000
-612483.37500000000000000000
-86384.25781250000000000000
46932212.00000000000000000000
-16659172.00000000000000000000
-17695038.00000000000000000000
-8979977.00000000000000000000
11004104.00000000000000000000
-9536508.00000000000000000000
-29941302.00000000000000000000
156977.92187500000000000000
-51238172.00000000000000000000
-1956570.75000000000000000000
980010.12500000000000000000
-15151228.00000000000000000000
22054806.00000000000000000000
-28220140.00000000000000000000
-40508508.00000000000000000000
-36869740.00000000000000000000
1444040.25000000000000000000
1161526.75000000000000000000
-34511220.00000000000000000000
-34100876.00000000000000000000
21285102.00000000000000000000
-10225402.00000000000000000000
-8106303.50000000000000000000
-27208558.00000000000000000000
-15994358.00000000000000000000
-17951222.00000000000000000000
16206315.00000000000000000000
28291506.00000000000000000000
-56468964.00000000000000000000
-11920768.00000000000000000000
36458756.00000000000000000000
-32555952.00000000000000000000
-30378278.00000000000000000000
25654958.00000000000000000000
-9431766.00000000000000000000
-16270398.00000000000000000000
-34863452.00000000000000000000
1161526.75000000000000000000
37312204.00000000000000000000
-25824122.00000000000000000000
-25999862.00000000000000000000
-146195.14062500000000000000
798813.87500000000000000000
220340.89062500000000000000
3750686.75000000000000000000
-1834380.37500000000000000000
-3390346.75000000000000000000
-3723720.50000000000000000000
-163403.92187500000000000000
3733189.00000000000000000000
1348409.12500000000000000000
3826512.00000000000000000000
-498635.65625000000000000000
-1926453.87500000000000000000
-1439719.12500000000000000000
-1563774.62500000000000000000
890917.62500000000000000000
3354254.75000000000000000000
1078243.62500000000000000000
-1320486.62500000000000000000
2547841.50000000000000000000
-2431300.00000000000000000000
405435.71875000000000000000
-1733000.37500000000000000000
2809564.25000000000000000000
5442337.00000000000000000000
6150581.00000000000000000000
-1090964.37500000000000000000
3088419.00000000000000000000
-710262.75000000000000000000
-289085.28125000000000000000
-3897998.25000000000000000000
-775740.62500000000000000000
-2356816.50000000000000000000
1511382.87500000000000000000
-4217602.00000000000000000000
-41522.06640625000000000000
-541394.00000000000000000000
-50579.02343750000000000000
-1285824.12500000000000000000
-1237249.37500000000000000000
-4983355.00000000000000000000
-1158437.37500000000000000000
-2822075.50000000000000000000
-765016.75000000000000000000
-865443.50000000000000000000
7260956.00000000000000000000
3995893.00000000000000000000
1182617.75000000000000000000
9990213.00000000000000000000
-4412142.00000000000000000000
-2216100.50000000000000000000
5847297.00000000000000000000
-2680343.25000000000000000000
-2280154.50000000000000000000
-892252.62500000000000000000
1187058.50000000000000000000
-807238.25000000000000000000
-2170587.00000000000000000000
-2624681.25000000000000000000
6939493.00000000000000000000
2006498.25000000000000000000
-1158439.37500000000000000000
2042789.12500000000000000000
-4115232.75000000000000000000
633151.00000000000000000000
-1630943.00000000000000000000
15052943.00000000000000000000
11385548.00000000000000000000
-4643578.50000000000000000000
-10166571.00000000000000000000
13689157.00000000000000000000
11861176.00000000000000000000
-6555453.50000000000000000000
-3405385.25000000000000000000
2534710.75000000000000000000
-3117442.25000000000000000000
12852961.00000000000000000000
3924036.75000000000000000000
-6639915.50000000000000000000
-12246455.00000000000000000000
-898504.18750000000000000000
3118414.75000000000000000000
9396522.00000000000000000000
19681484.00000000000000000000
12308741.00000000000000000000
-10303089.00000000000000000000
9302675.00000000000000000000
-24923280.00000000000000000000
-17196376.00000000000000000000
-13575310.00000000000000000000
4351745.50000000000000000000
331231.68750000000000000000
-9467501.00000000000000000000
-2953515.25000000000000000000
5129306.50000000000000000000
-1703889.62500000000000000000
-41909712.00000000000000000000
6406683.50000000000000000000
-959544.06250000000000000000
4532265.50000000000000000000
9274000.00000000000000000000
5544967.50000000000000000000
-4224089.50000000000000000000
607671.68750000000000000000
13028792.00000000000000000000
-881153.68750000000000000000
23431412.00000000000000000000
-23989812.00000000000000000000
5340263.50000000000000000000
-750929.37500000000000000000
-12011001.00000000000000000000
-14225066.00000000000000000000
-13044471.00000000000000000000
-1320109.00000000000000000000
-17567680.00000000000000000000
3201878.25000000000000000000
19566180.00000000000000000000
-10277385.00000000000000000000
-9168733.00000000000000000000
-12839170.00000000000000000000
12976353.00000000000000000000
10101601.00000000000000000000
5154833.50000000000000000000
-25937200.00000000000000000000
8129791.50000000000000000000
5477804.50000000000000000000
23431404.00000000000000000000
35367592.00000000000000000000
-44687768.00000000000000000000
10358653.00000000000000000000
12272657.00000000000000000000
-18019172.00000000000000000000
4611072.00000000000000000000
4265021.00000000000000000000
-13622563.00000000000000000000
-8983211.00000000000000000000
16482197.00000000000000000000
8243520.50000000000000000000
4823535.50000000000000000000
19632870.00000000000000000000
4953696.50000000000000000000
-4365758.00000000000000000000
-8948699.00000000000000000000
-10605861.00000000000000000000
-16566404.00000000000000000000
18899132.00000000000000000000
18331426.00000000000000000000
-21360364.00000000000000000000
-5170627.00000000000000000000
-15588599.00000000000000000000
-9132605.00000000000000000000
-11462729.00000000000000000000
11530043.00000000000000000000
-326176.09375000000000000000
-56968.82812500000000000000
-2472918.75000000000000000000
-4723486.00000000000000000000
2283868.25000000000000000000
17479390.00000000000000000000
12314319.00000000000000000000
5958567.00000000000000000000
-24093604.00000000000000000000
12461789.00000000000000000000
-1802898.12500000000000000000
-7436353.50000000000000000000
5055403.00000000000000000000
9699985.00000000000000000000
-6560156.00000000000000000000
-19359788.00000000000000000000
-496792.40625000000000000000
-1121401.25000000000000000000
15336195.00000000000000000000
-8256903.00000000000000000000
-4940738.00000000000000000000
-10067083.00000000000000000000
12348745.00000000000000000000
-6993185.50000000000000000000
14920395.00000000000000000000
2770598.25000000000000000000
17963746.00000000000000000000
-580995.68750000000000000000
11205111.00000000000000000000
-5951404.00000000000000000000
-4568021.00000000000000000000
8111605.00000000000000000000
21540432.00000000000000000000
-16410717.00000000000000000000
-8867157.00000000000000000000
-5096735.00000000000000000000
495589.78125000000000000000
-3561734.75000000000000000000
15336195.00000000000000000000
11912743.00000000000000000000
8378389.00000000000000000000
-6060507.50000000000000000000
-14973587.00000000000000000000
-47701404.00000000000000000000
11369261.00000000000000000000
21322844.00000000000000000000
25419024.00000000000000000000
-25166942.00000000000000000000
54358476.00000000000000000000
18778056.00000000000000000000
15981396.00000000000000000000
-2883548.75000000000000000000
16629185.00000000000000000000
3217145.00000000000000000000
9999842.00000000000000000000
24697578.00000000000000000000
3702781.25000000000000000000
9338697.00000000000000000000
-30296362.00000000000000000000
38746516.00000000000000000000
-81365792.00000000000000000000
12165802.00000000000000000000
-17584086.00000000000000000000
44172692.00000000000000000000
5006477.00000000000000000000
-3229247.50000000000000000000
-40161156.00000000000000000000
61655428.00000000000000000000
60910348.00000000000000000000
-2361304.00000000000000000000
27643702.00000000000000000000
21537150.00000000000000000000
613175.56250000000000000000
-29678124.00000000000000000000
-9276012.00000000000000000000
-3615615.75000000000000000000
-66897572.00000000000000000000
4905540.00000000000000000000
3588902.00000000000000000000
143384928.00000000000000000000
21039240.00000000000000000000
45039172.00000000000000000000
10724709.00000000000000000000
-21702312.00000000000000000000
-17663858.00000000000000000000
29718202.00000000000000000000
12344099.00000000000000000000
255580.26562500000000000000
-22312122.00000000000000000000
4534809.00000000000000000000
-24610178.00000000000000000000
-102862992.00000000000000000000
7703640.00000000000000000000
26801610.00000000000000000000
4288166.00000000000000000000
-25086518.00000000000000000000
29471250.00000000000000000000
13996765.00000000000000000000
-23937686.00000000000000000000
-102433088.00000000000000000000
-20253094.00000000000000000000
-28597806.00000000000000000000
36206284.00000000000000000000
-21702312.00000000000000000000
34997752.00000000000000000000
-25106538.00000000000000000000
-3985703.75000000000000000000
-4311745.50000000000000000000
-1392111.25000000000000000000
-2141658.50000000000000000000
2198788.50000000000000000000
11925888.00000000000000000000
-1805008.00000000000000000000
3872824.50000000000000000000
-323314.28125000000000000000
2138659.00000000000000000000
2710227.50000000000000000000
2128935.75000000000000000000
-2189372.00000000000000000000
-6251652.00000000000000000000
-3000141.50000000000000000000
-132322.87500000000000000000
419118.90625000000000000000
-13528578.00000000000000000000
-4293229.00000000000000000000
-10804916.00000000000000000000
-1180663.00000000000000000000
822346.68750000000000000000
-9133964.00000000000000000000
-3311784.50000000000000000000
769419.25000000000000000000
-3463043.50000000000000000000
-1560077.25000000000000000000
8072271.00000000000000000000
-9515650.00000000000000000000
-1750072.75000000000000000000
-857888.81250000000000000000
7115850.00000000000000000000
7808988.00000000000000000000
5396202.00000000000000000000
-3562520.50000000000000000000
4161383.50000000000000000000
-3147345.50000000000000000000
10852846.00000000000000000000
2766170.00000000000000000000
516766.03125000000000000000
-11790648.00000000000000000000
6498844.00000000000000000000
2272476.00000000000000000000
9155976.00000000000000000000
7508798.00000000000000000000
5505435.00000000000000000000
-6768807.00000000000000000000
-2717072.00000000000000000000
-6406476.00000000000000000000
400052.96875000000000000000
-1200840.50000000000000000000
-3062918.00000000000000000000
22716172.00000000000000000000
-4223620.50000000000000000000
4676117.00000000000000000000
2291854.00000000000000000000
-17889574.00000000000000000000
6190850.00000000000000000000
3589026.50000000000000000000
-21208548.00000000000000000000
-9179318.00000000000000000000
-6868471.00000000000000000000
2272481.00000000000000000000
-4262665.00000000000000000000
10379808.00000000000000000000
-4328672.00000000000000000000
109147344.00000000000000000000
58600708.00000000000000000000
-55444404.00000000000000000000
11017635.00000000000000000000
-42600912.00000000000000000000
-12720615.00000000000000000000
-36005152.00000000000000000000
-2745644.25000000000000000000
18225182.00000000000000000000
10998325.00000000000000000000
19014326.00000000000000000000
19057050.00000000000000000000
25257082.00000000000000000000
-19633236.00000000000000000000
47010544.00000000000000000000
-35414012.00000000000000000000
-57294052.00000000000000000000
-30098128.00000000000000000000
63572928.00000000000000000000
32579834.00000000000000000000
35625308.00000000000000000000
-16994172.00000000000000000000
-655082.25000000000000000000
6764099.50000000000000000000
1735492.87500000000000000000
-39869220.00000000000000000000
65240404.00000000000000000000
5026252.50000000000000000000
89082640.00000000000000000000
3955933.00000000000000000000
-7110532.50000000000000000000
40230792.00000000000000000000
-2690461.00000000000000000000
59787476.00000000000000000000
-41600924.00000000000000000000
-40544448.00000000000000000000
-18126380.00000000000000000000
-37021268.00000000000000000000
-20631366.00000000000000000000
-30386938.00000000000000000000
-53886884.00000000000000000000
-32118762.00000000000000000000
26856298.00000000000000000000
38320724.00000000000000000000
-17998534.00000000000000000000
-35704504.00000000000000000000
-62599888.00000000000000000000
-7599321.50000000000000000000
9789549.00000000000000000000
26786542.00000000000000000000
-46436532.00000000000000000000
-37001976.00000000000000000000
5273457.50000000000000000000
-25959520.00000000000000000000
9410895.00000000000000000000
47800496.00000000000000000000
-92939024.00000000000000000000
-47730708.00000000000000000000
-52655956.00000000000000000000
-67964.16406250000000000000
46538640.00000000000000000000
-32118762.00000000000000000000
22124666.00000000000000000000
29307542.00000000000000000000
-1462772.12500000000000000000
-3244757.50000000000000000000
1631841.25000000000000000000
203899.82812500000000000000
5740729.00000000000000000000
-4595245.00000000000000000000
11941128.00000000000000000000
3765630.50000000000000000000
10764271.00000000000000000000
4435274.00000000000000000000
3387195.00000000000000000000
4264348.50000000000000000000
4654112.00000000000000000000
14161882.00000000000000000000
-7584344.00000000000000000000
-3793837.75000000000000000000
17428660.00000000000000000000
8615953.00000000000000000000
-6083006.00000000000000000000
2718049.50000000000000000000
420614.75000000000000000000
-662122.62500000000000000000
-7557941.00000000000000000000
206717.43750000000000000000
16365330.00000000000000000000
21540552.00000000000000000000
274131.37500000000000000000
7397513.00000000000000000000
17927838.00000000000000000000
1214492.75000000000000000000
18722000.00000000000000000000
-8211131.00000000000000000000
9143601.00000000000000000000
-15393967.00000000000000000000
-13887047.00000000000000000000
-27030956.00000000000000000000
2251073.00000000000000000000
2005517.50000000000000000000
-7180338.00000000000000000000
-10513920.00000000000000000000
-4093034.75000000000000000000
-16933188.00000000000000000000
981099.25000000000000000000
759536.56250000000000000000
21470824.00000000000000000000
-9053670.00000000000000000000
-15118990.00000000000000000000
-3001737.00000000000000000000
-3638586.00000000000000000000
-1757658.00000000000000000000
5937568.00000000000000000000
-2001519.00000000000000000000
5545478.00000000000000000000
11394196.00000000000000000000
7333260.00000000000000000000
-564991.37500000000000000000
20773212.00000000000000000000
1117608.12500000000000000000
19530416.00000000000000000000
4731740.50000000000000000000
21568524.00000000000000000000
6436625.00000000000000000000
981099.25000000000000000000
12275422.00000000000000000000
-6330952.00000000000000000000
-11650902.00000000000000000000
38748384.00000000000000000000
505834.06250000000000000000
430914.84375000000000000000
4236030.50000000000000000000
16318587.00000000000000000000
17973702.00000000000000000000
24187934.00000000000000000000
16230549.00000000000000000000
-497763.34375000000000000000
12296795.00000000000000000000
-1546440.25000000000000000000
6347295.50000000000000000000
-17651886.00000000000000000000
-10945337.00000000000000000000
16010293.00000000000000000000
-100640.82812500000000000000
17521982.00000000000000000000
-19492010.00000000000000000000
-4551891.00000000000000000000
-6777429.50000000000000000000
-7939100.50000000000000000000
2760592.75000000000000000000
8956052.00000000000000000000
-13557383.00000000000000000000
-3884434.50000000000000000000
11319140.00000000000000000000
-1387744.75000000000000000000
20246902.00000000000000000000
10321960.00000000000000000000
15408882.00000000000000000000
5371959.50000000000000000000
31080506.00000000000000000000
-10757388.00000000000000000000
-23201978.00000000000000000000
-5296087.50000000000000000000
6467876.50000000000000000000
-7053957.50000000000000000000
-19188382.00000000000000000000
12580769.00000000000000000000
10994012.00000000000000000000
31967322.00000000000000000000
6830221.50000000000000000000
30756398.00000000000000000000
-12471566.00000000000000000000
21655182.00000000000000000000
-9602226.00000000000000000000
-22578218.00000000000000000000
-2256452.75000000000000000000
-1305894.00000000000000000000
4264104.50000000000000000000
12899096.00000000000000000000
12557398.00000000000000000000
5904098.50000000000000000000
23754570.00000000000000000000
-4789216.50000000000000000000
8302514.50000000000000000000
390049.87500000000000000000
-6216106.50000000000000000000
-27137750.00000000000000000000
18617202.00000000000000000000
29130386.00000000000000000000
6830221.50000000000000000000
34964768.00000000000000000000
15274430.00000000000000000000
-19536874.00000000000000000000
17868438.00000000000000000000
2669536.25000000000000000000
13898078.00000000000000000000
-16940282.00000000000000000000
3434666.25000000000000000000
-17901398.00000000000000000000
-11275060.00000000000000000000
25719166.00000000000000000000
-16863538.00000000000000000000
-13796260.00000000000000000000
-17011058.00000000000000000000
6841479.00000000000000000000
-5124667.00000000000000000000
427300.12500000000000000000
25180582.00000000000000000000
15261658.00000000000000000000
-8874280.00000000000000000000
-2242093.25000000000000000000
-9245290.00000000000000000000
24163670.00000000000000000000
3597514.25000000000000000000
-42159812.00000000000000000000
-21579086.00000000000000000000
4526757.00000000000000000000
15655284.00000000000000000000
-8820505.00000000000000000000
-14349244.00000000000000000000
5194436.00000000000000000000
-6601100.00000000000000000000
-10722428.00000000000000000000
8633393.00000000000000000000
13690660.00000000000000000000
25678046.00000000000000000000
-4318580.00000000000000000000
33580656.00000000000000000000
14628108.00000000000000000000
-21359830.00000000000000000000
19099530.00000000000000000000
14134610.00000000000000000000
-43244692.00000000000000000000
21243994.00000000000000000000
-5535566.00000000000000000000
-20650918.00000000000000000000
-43119572.00000000000000000000
-12439834.00000000000000000000
1090104.50000000000000000000
-4495441.00000000000000000000
6253533.00000000000000000000
530256.25000000000000000000
41451476.00000000000000000000
-16207450.00000000000000000000
-35244628.00000000000000000000
8321737.00000000000000000000
44653844.00000000000000000000
10662418.00000000000000000000
-20078874.00000000000000000000
22281214.00000000000000000000
24632714.00000000000000000000
-22412694.00000000000000000000
-34392460.00000000000000000000
-48894004.00000000000000000000
-5535566.00000000000000000000
-15122282.00000000000000000000
1713301.75000000000000000000
62408068.00000000000000000000
5049564.50000000000000000000
-8697152.00000000000000000000
-2968931.25000000000000000000
-1854350.25000000000000000000
3210133.75000000000000000000
9727679.00000000000000000000
-4633657.00000000000000000000
1286115.25000000000000000000
-1637646.25000000000000000000
-2510303.75000000000000000000
-1751200.25000000000000000000
2564552.75000000000000000000
-3007322.75000000000000000000
-1607502.00000000000000000000
4975119.00000000000000000000
3222225.75000000000000000000
1865904.25000000000000000000
7198607.00000000000000000000
-616327.81250000000000000000
-25579966.00000000000000000000
-17516932.00000000000000000000
-1323705.00000000000000000000
8646433.00000000000000000000
-6443397.00000000000000000000
18635562.00000000000000000000
-3485911.75000000000000000000
3387798.75000000000000000000
-17530976.00000000000000000000
7948008.50000000000000000000
222036.60937500000000000000
13930645.00000000000000000000
-6330885.50000000000000000000
2862913.25000000000000000000
1024201.06250000000000000000
-1028566.81250000000000000000
-4109239.75000000000000000000
4297580.00000000000000000000
418044.50000000000000000000
1247150.50000000000000000000
-9028609.00000000000000000000
-1293160.12500000000000000000
6989083.00000000000000000000
3277749.25000000000000000000
1204989.75000000000000000000
4390439.00000000000000000000
-7558734.50000000000000000000
10634325.00000000000000000000
-12089451.00000000000000000000
4875451.50000000000000000000
1703301.00000000000000000000
-161384.01562500000000000000
1219664.00000000000000000000
410297.65625000000000000000
-4553483.50000000000000000000
3836849.25000000000000000000
-6771274.00000000000000000000
-2500608.75000000000000000000
7844902.50000000000000000000
-8687423.00000000000000000000
-4572787.50000000000000000000
-379824.12500000000000000000
6989087.00000000000000000000
-1663512.75000000000000000000
2867413.75000000000000000000
-9376203.00000000000000000000
15057141.00000000000000000000
-35913084.00000000000000000000
1598173.37500000000000000000
12611268.00000000000000000000
13604538.00000000000000000000
19171514.00000000000000000000
-13178202.00000000000000000000
-10934256.00000000000000000000
14223065.00000000000000000000
-4154446.50000000000000000000
14965287.00000000000000000000
-2312247.25000000000000000000
15587678.00000000000000000000
-4168489.25000000000000000000
26552814.00000000000000000000
-18506490.00000000000000000000
18367922.00000000000000000000
8312128.50000000000000000000
-16870760.00000000000000000000
-5415903.00000000000000000000
-13454185.00000000000000000000
-17896046.00000000000000000000
14257850.00000000000000000000
3115109.25000000000000000000
20356398.00000000000000000000
10606570.00000000000000000000
-38123556.00000000000000000000
-10600698.00000000000000000000
4806945.00000000000000000000
-1880892.25000000000000000000
8303017.50000000000000000000
-13903134.00000000000000000000
-4414287.50000000000000000000
36661708.00000000000000000000
-20470018.00000000000000000000
-625299.37500000000000000000
9291425.00000000000000000000
7930765.50000000000000000000
5319379.50000000000000000000
-8353271.50000000000000000000
9398661.00000000000000000000
-7465227.50000000000000000000
-15205767.00000000000000000000
-12921328.00000000000000000000
-12263262.00000000000000000000
16504917.00000000000000000000
9480637.00000000000000000000
14627004.00000000000000000000
22047574.00000000000000000000
8761811.00000000000000000000
10735046.00000000000000000000
-6312346.50000000000000000000
6725123.00000000000000000000
16102001.00000000000000000000
-910472.12500000000000000000
-16745094.00000000000000000000
-3784111.75000000000000000000
-6469068.00000000000000000000
-29506838.00000000000000000000
12349349.00000000000000000000
-13748821.00000000000000000000
-7465227.50000000000000000000
3788784.50000000000000000000
205361.81250000000000000000
5788341.00000000000000000000
-9130563.00000000000000000000
2081070.75000000000000000000
17016628.00000000000000000000
-807511.68750000000000000000
35669736.00000000000000000000
-57327876.00000000000000000000
23782186.00000000000000000000
-3601516.00000000000000000000
-3488423.75000000000000000000
16023044.00000000000000000000
-3023096.50000000000000000000
-9232864.00000000000000000000
-10506947.00000000000000000000
1262984.50000000000000000000
-1324515.50000000000000000000
-17590096.00000000000000000000
-15000801.00000000000000000000
10317508.00000000000000000000
-10209378.00000000000000000000
33438382.00000000000000000000
-9260270.00000000000000000000
19578310.00000000000000000000
-7681197.00000000000000000000
-757134.06250000000000000000
22343918.00000000000000000000
13427354.00000000000000000000
52434932.00000000000000000000
28961696.00000000000000000000
16927446.00000000000000000000
-3593023.00000000000000000000
-5178429.00000000000000000000
4540595.50000000000000000000
-2360681.00000000000000000000
-10622267.00000000000000000000
-16813938.00000000000000000000
14952494.00000000000000000000
-36095544.00000000000000000000
42031152.00000000000000000000
-39573372.00000000000000000000
38815404.00000000000000000000
47492300.00000000000000000000
-13931758.00000000000000000000
17524498.00000000000000000000
29205150.00000000000000000000
-10730928.00000000000000000000
1363894.25000000000000000000
17372336.00000000000000000000
9502545.00000000000000000000
631373.68750000000000000000
42174116.00000000000000000000
-11071587.00000000000000000000
47147052.00000000000000000000
4004132.25000000000000000000
27121130.00000000000000000000
-41886204.00000000000000000000
12007602.00000000000000000000
-18055024.00000000000000000000
-33460216.00000000000000000000
-9887868.00000000000000000000
-2434370.25000000000000000000
-18304716.00000000000000000000
-13931758.00000000000000000000
-23449462.00000000000000000000
-20615546.00000000000000000000
930014.87500000000000000000
-795152.62500000000000000000
-11570312.00000000000000000000
1323855.62500000000000000000
3688027.75000000000000000000
5179637.00000000000000000000
4227449.50000000000000000000
1067897.37500000000000000000
9688618.00000000000000000000
4810092.00000000000000000000
11308803.00000000000000000000
5262595.50000000000000000000
-5062974.00000000000000000000
-6838048.00000000000000000000
4241760.00000000000000000000
-5573739.00000000000000000000
-3035675.75000000000000000000
13476638.00000000000000000000
7532253.50000000000000000000
5404478.50000000000000000000
12154232.00000000000000000000
7028254.00000000000000000000
-7574565.50000000000000000000
8792564.00000000000000000000
2244199.25000000000000000000
267295.50000000000000000000
6979104.00000000000000000000
11019989.00000000000000000000
9969507.00000000000000000000
5923419.00000000000000000000
3209560.25000000000000000000
6871166.00000000000000000000
-8648744.00000000000000000000
-12682647.00000000000000000000
-3585310.25000000000000000000
-2813774.25000000000000000000
520375.87500000000000000000
8528532.00000000000000000000
3035984.25000000000000000000
4037395.25000000000000000000
-6485276.00000000000000000000
-9213216.00000000000000000000
4393064.00000000000000000000
-1103407.62500000000000000000
12544134.00000000000000000000
15505.20019531250000000000
-11219837.00000000000000000000
-5295618.00000000000000000000
512495.25000000000000000000
119445.17187500000000000000
-623813.37500000000000000000
-8325041.00000000000000000000
-5320281.00000000000000000000
4519632.00000000000000000000
2028505.75000000000000000000
-10307602.00000000000000000000
-3644049.25000000000000000000
-18847434.00000000000000000000
3597618.25000000000000000000
6470200.00000000000000000000
4094617.50000000000000000000
4734015.00000000000000000000
4393064.00000000000000000000
-3689049.25000000000000000000
-7219225.00000000000000000000
-4288799.50000000000000000000
24395376.00000000000000000000
-47257776.00000000000000000000
17105928.00000000000000000000
-1447486.87500000000000000000
2260481.50000000000000000000
25234804.00000000000000000000
-7572506.50000000000000000000
11336005.00000000000000000000
557764.75000000000000000000
26441640.00000000000000000000
1199600.62500000000000000000
6314754.00000000000000000000
4643583.50000000000000000000
-46566768.00000000000000000000
-11454853.00000000000000000000
3550274.50000000000000000000
-8150675.00000000000000000000
9016376.00000000000000000000
12207422.00000000000000000000
2779592.50000000000000000000
-9466596.00000000000000000000
-11579357.00000000000000000000
2048755.00000000000000000000
-12574553.00000000000000000000
22601268.00000000000000000000
14010489.00000000000000000000
-7247409.50000000000000000000
-750009.12500000000000000000
15238643.00000000000000000000
9953668.00000000000000000000
-5113289.00000000000000000000
-41913728.00000000000000000000
-5272680.50000000000000000000
-24082332.00000000000000000000
-14886090.00000000000000000000
14761443.00000000000000000000
17998832.00000000000000000000
-4981477.00000000000000000000
-3288462.50000000000000000000
8061897.50000000000000000000
918289.50000000000000000000
5121929.00000000000000000000
9041408.00000000000000000000
-27495768.00000000000000000000
7129180.00000000000000000000
-11715302.00000000000000000000
8184895.00000000000000000000
-8175787.00000000000000000000
-16647385.00000000000000000000
-21160176.00000000000000000000
-28330232.00000000000000000000
14340878.00000000000000000000
-12927920.00000000000000000000
-6723410.50000000000000000000
19880086.00000000000000000000
-23362368.00000000000000000000
46917656.00000000000000000000
10073059.00000000000000000000
3697224.25000000000000000000
6966101.00000000000000000000
5721765.50000000000000000000
5121929.00000000000000000000
26976484.00000000000000000000
-19442762.00000000000000000000
-17233366.00000000000000000000
20258970.00000000000000000000
-5437578.00000000000000000000
-19910862.00000000000000000000
-15239226.00000000000000000000
6154534.00000000000000000000
-23670614.00000000000000000000
3195243.50000000000000000000
6289488.00000000000000000000
-15390131.00000000000000000000
2874581.00000000000000000000
-14444051.00000000000000000000
-16264039.00000000000000000000
25316862.00000000000000000000
-13590797.00000000000000000000
6291333.00000000000000000000
22162978.00000000000000000000
1546446.62500000000000000000
-42531924.00000000000000000000
-1202154.37500000000000000000
16803804.00000000000000000000
-12372047.00000000000000000000
-37360180.00000000000000000000
2990564.50000000000000000000
23265382.00000000000000000000
15482667.00000000000000000000
-7245122.00000000000000000000
-3058290.00000000000000000000
6941766.00000000000000000000
22252418.00000000000000000000
-3269945.00000000000000000000
41786636.00000000000000000000
-7843858.00000000000000000000
-7546014.50000000000000000000
9933806.00000000000000000000
15903631.00000000000000000000
