0
-2189737742416478200.00000000000000000000
3233386070603202600.00000000000000000000
-569946111549112320.00000000000000000000
27545290754486174000.00000000000000000000
2458327679800180700.00000000000000000000
76829878419067356000000.00000000000000000000
-998871473059790850.00000000000000000000
-938449117225418750.00000000000000000000
1868543595347181600.00000000000000000000
1109835835802386400.00000000000000000000
3484434536916320300.00000000000000000000
3392170667938938900.00000000000000000000
5901305955424927700.00000000000000000000
-2742592117510504400.00000000000000000000
656619685453758460.00000000000000000000
3441553308555149300.00000000000000000000
-3424129897545596900.00000000000000000000
2328858536362115100.00000000000000000000
-3537238857718169600.00000000000000000000
-1659258978703507500.00000000000000000000
-3391955988293615600.00000000000000000000
-3114296042053435400.00000000000000000000
-3154271261182394400.00000000000000000000
-1790544515350659100.00000000000000000000
-3721548892370632700.00000000000000000000
-186483270924369920.00000000000000000000
-367335667924992000.00000000000000000000
-68292398072987648.00000000000000000000
-2548467292312698900.00000000000000000000
644733896038023170.00000000000000000000
1227697916022358000.00000000000000000000
679194377158918140.00000000000000000000
-9781789090381824.00000000000000000000
661103012835491840.00000000000000000000
708032574290657280.00000000000000000000
221224213409693700.00000000000000000000
-317788993917812740.00000000000000000000
2151986518556672.00000000000000000000
215805356251545600.00000000000000000000
69352052404256768.00000000000000000000
-424337065128230910.00000000000000000000
-129156761876692990.00000000000000000000
71546136447418368.00000000000000000000
-876071279961047040.00000000000000000000
120689723478900740.00000000000000000000
186819944820768770.00000000000000000000
240413508812931070.00000000000000000000
-292340453695553540.00000000000000000000
-477031881443901440.00000000000000000000
-286502562348138500.00000000000000000000
-272749785008570370.00000000000000000000
344668273377280.00000000000000000000
45847324185853952.00000000000000000000
-460716400198025220.00000000000000000000
381252564554874880.00000000000000000000
24351616312279040.00000000000000000000
-926173207340253180.00000000000000000000
1168547214104985600.00000000000000000000
-3253213014031073300.00000000000000000000
1529257946515505200.00000000000000000000
33076724262502400.00000000000000000000
-182054936303894530.00000000000000000000
-102812755332956160.00000000000000000000
-50310113033977856.00000000000000000000
-1071768475506049000.00000000000000000000
-68814094865530880.00000000000000000000
-338117692605071360.00000000000000000000
299140348997795840.00000000000000000000
-305327644524675070.00000000000000000000
-150839732471857150.00000000000000000000
34002266092470272.00000000000000000000
500029713327063040.00000000000000000000
-129437463759290370.00000000000000000000
42985462922477568.00000000000000000000
-5018686465245184.00000000000000000000
7148793749307392.00000000000000000000
143277514834313220.00000000000000000000
6557818301056024600.00000000000000000000
-5317221189494505500.00000000000000000000
1730973799991476200.00000000000000000000
25529507708772811000.00000000000000000000
-5987506017775124500.00000000000000000000
4523799305240182800.00000000000000000000
-6761697993415458800.00000000000000000000
-2393948525214826500.00000000000000000000
-7527011962417315800.00000000000000000000
-5389456354660319200.00000000000000000000
-4711485940101546000.00000000000000000000
-479117002166763520.00000000000000000000
-7141268648777220100.00000000000000000000
471313596345745410.00000000000000000000
-86112341938143232.00000000000000000000
192986452705935360.00000000000000000000
45791614165057536.00000000000000000000
150627114410835970.00000000000000000000
-136026373088083970.00000000000000000000
167518722569797630.00000000000000000000
37105614039547904.00000000000000000000
275973364122648580.00000000000000000000
176165625608011780.00000000000000000000
48335518999511040.00000000000000000000
91157296423370752.00000000000000000000
197533311243911170.00000000000000000000
-773171216532897790.00000000000000000000
-16224434381651968.00000000000000000000
-389744986209386500.00000000000000000000
-1873011735724556300.00000000000000000000
95623272137228288.00000000000000000000
-502639404175589380.00000000000000000000
-126780777378611200.00000000000000000000
711352893248110590.00000000000000000000
-141162672937762820.00000000000000000000
-84918444109070336.00000000000000000000
-118433199201189890.00000000000000000000
75893085732601856.00000000000000000000
46042676478345216.00000000000000000000
31772911777873920.00000000000000000000
384848070656917500.00000000000000000000
7493946984890368.00000000000000000000
-586125390792097790.00000000000000000000
-171168585777938430.00000000000000000000
62628010519429120.00000000000000000000
116163790021591040.00000000000000000000
32745481352249344.00000000000000000000
318873318541230080.00000000000000000000
291559147604803580.00000000000000000000
299268270303739900.00000000000000000000
-35749469525901312.00000000000000000000
284861936380674050.00000000000000000000
3879257342700683300.00000000000000000000
-2285428239381823500.00000000000000000000
1772860382646370300.00000000000000000000
7230324142824751100.00000000000000000000
-3289349838067466200.00000000000000000000
1006160204359794700.00000000000000000000
-3272493225302032400.00000000000000000000
-995020021266644990.00000000000000000000
-3521536182406086700.00000000000000000000
-2526233792809533400.00000000000000000000
-2281764254321213400.00000000000000000000
-1504369813626028000.00000000000000000000
-3073859028040810500.00000000000000000000
952095774513037310.00000000000000000000
451035612632317950.00000000000000000000
451262077667901440.00000000000000000000
-1352675691899912200.00000000000000000000
52926491146584064.00000000000000000000
360814636259344380.00000000000000000000
716751151743107070.00000000000000000000
-17862355593461760.00000000000000000000
518176637347430400.00000000000000000000
463167830091628540.00000000000000000000
469749437976018940.00000000000000000000
-426370096487727100.00000000000000000000
313270550883467260.00000000000000000000
-790410184466890750.00000000000000000000
171615915211751420.00000000000000000000
-995605923525296130.00000000000000000000
-3944968555623088100.00000000000000000000
-307682111236603900.00000000000000000000
-1412260151154442200.00000000000000000000
234046546214125570.00000000000000000000
2528276960291848200.00000000000000000000
252803853806731260.00000000000000000000
30650875194114048.00000000000000000000
-15224843020533760.00000000000000000000
297207991671717890.00000000000000000000
-169860562077876220.00000000000000000000
2475241742048165900.00000000000000000000
-3026863427168501800.00000000000000000000
458062728884387840.00000000000000000000
4540735907476537300.00000000000000000000
-4071412392817328100.00000000000000000000
1705041405933518800.00000000000000000000
-4014979408765911000.00000000000000000000
-988185250829959170.00000000000000000000
-4244518678860660700.00000000000000000000
-3498973654048309200.00000000000000000000
-3354405742059716600.00000000000000000000
-1869208799881986000.00000000000000000000
-4227089770292969500.00000000000000000000
-472536115836878850.00000000000000000000
-164227712469172220.00000000000000000000
-671115371876450300.00000000000000000000
-727085461532573700.00000000000000000000
-130465859318579200.00000000000000000000
-658523833434636290.00000000000000000000
4197597434609664.00000000000000000000
24736456119418880.00000000000000000000
-252395866273349630.00000000000000000000
126803497755607040.00000000000000000000
-83674853508382720.00000000000000000000
-328860698052395010.00000000000000000000
-381665980926918660.00000000000000000000
3014523608169971700.00000000000000000000
94927702183641088.00000000000000000000
1501715867434483700.00000000000000000000
-208278838382166020.00000000000000000000
16101696877895877000.00000000000000000000
-2870339700617379800.00000000000000000000
2013580311606067200.00000000000000000000
-1564361779377602600.00000000000000000000
1386336965506367500.00000000000000000000
1208707013748457500.00000000000000000000
761304187534311420.00000000000000000000
1456556313541607400.00000000000000000000
1960602680283889700.00000000000000000000
815208294841843710.00000000000000000000
-63635167465439232.00000000000000000000
-200655151172681730.00000000000000000000
165246530251390980.00000000000000000000
-138454481309270020.00000000000000000000
807135955348619260.00000000000000000000
302156721709645820.00000000000000000000
53152135843414016.00000000000000000000
752815760736256.00000000000000000000
94926439463256064.00000000000000000000
158011503222456320.00000000000000000000
54149629113008128.00000000000000000000
-25484532048199680.00000000000000000000
-53675808320913408.00000000000000000000
290835187917389820.00000000000000000000
-1944659991461888.00000000000000000000
5389769165718421500.00000000000000000000
-158464055336501250.00000000000000000000
2558555036619636700.00000000000000000000
-219131000968445950.00000000000000000000
49737434979631104.00000000000000000000
42403245745766400.00000000000000000000
-44511215694643200.00000000000000000000
158876355017048060.00000000000000000000
435110939050639360.00000000000000000000
237511880447361020.00000000000000000000
1394421537066450900.00000000000000000000
1205912330068557800.00000000000000000000
590743270909280260.00000000000000000000
-842996595808010240.00000000000000000000
-337259386340638720.00000000000000000000
-163568434989236220.00000000000000000000
1501039118027587600.00000000000000000000
248806166967091200.00000000000000000000
1523267119972614100.00000000000000000000
1352659199225495600.00000000000000000000
1065777030487867400.00000000000000000000
-242257200834150400.00000000000000000000
813424062347870210.00000000000000000000
1864331503740125200.00000000000000000000
1003942283248140300.00000000000000000000
816089141094645760.00000000000000000000
4055597842197119000.00000000000000000000
-266287267977363460.00000000000000000000
-430047756724207620.00000000000000000000
925228658132516860.00000000000000000000
1450638192205103100.00000000000000000000
1071142922109321200.00000000000000000000
1038721347863183400.00000000000000000000
1025626576693231600.00000000000000000000
1436393056994590700.00000000000000000000
746007369451831300.00000000000000000000
1788133148911992800.00000000000000000000
460078305496793090.00000000000000000000
946120616010842110.00000000000000000000
4378153596978462700.00000000000000000000
-340734530279178240.00000000000000000000
-1183976248460705800.00000000000000000000
1025570295441784800.00000000000000000000
-1222701872624697300.00000000000000000000
726621398906175490.00000000000000000000
533736376147902460.00000000000000000000
684796938658250750.00000000000000000000
1006000087978999800.00000000000000000000
459803530669064190.00000000000000000000
2933202628668031000.00000000000000000000
-938473306481229820.00000000000000000000
1178540262972981200.00000000000000000000
2563254624194658300.00000000000000000000
-429510782732992510.00000000000000000000
-1156071330542518300.00000000000000000000
-350549149025828860.00000000000000000000
46484035907616768.00000000000000000000
-974005330402869250.00000000000000000000
375792492890554370.00000000000000000000
129807921868439550.00000000000000000000
573078826335076350.00000000000000000000
-414204756240629760.00000000000000000000
-700603174221774850.00000000000000000000
5936595064586240.00000000000000000000
-1247338079912460300.00000000000000000000
-2833945041104273400.00000000000000000000
48136017768611840.00000000000000000000
-1431460098076573700.00000000000000000000
420688335791456260.00000000000000000000
1369492035051978800.00000000000000000000
491400608633323520.00000000000000000000
7784577221263360.00000000000000000000
-54093768768356352.00000000000000000000
-103721329894621180.00000000000000000000
-176442358940827650.00000000000000000000
-240243737345654780.00000000000000000000
493110074336608260.00000000000000000000
188998816089767940.00000000000000000000
-545010802738855940.00000000000000000000
33401726585274368.00000000000000000000
222463689431711740.00000000000000000000
-198927457628192770.00000000000000000000
-176788533304885250.00000000000000000000
316278230581510140.00000000000000000000
282934956353650690.00000000000000000000
323600050309562370.00000000000000000000
844965408816496640.00000000000000000000
477442789555044350.00000000000000000000
480351753724755970.00000000000000000000
-49732388393058304.00000000000000000000
-21342089778298880.00000000000000000000
-277154669107609600.00000000000000000000
-88945525704884224.00000000000000000000
-418549579517001730.00000000000000000000
26983587303653376.00000000000000000000
-384433657852461060.00000000000000000000
-12798023289536512.00000000000000000000
-3493306013057024.00000000000000000000
-15919790203863040.00000000000000000000
-72229530168721408.00000000000000000000
2091465597517824.00000000000000000000
1026604248688754700.00000000000000000000
-332497641998909440.00000000000000000000
415939579430830080.00000000000000000000
-3584450512625336300.00000000000000000000
-1155333008484466700.00000000000000000000
1080400603856764900.00000000000000000000
180387217682726910.00000000000000000000
1483485689768050700.00000000000000000000
-677047649425162240.00000000000000000000
-558043210983669760.00000000000000000000
-547726596459462660.00000000000000000000
-2054239289528549400.00000000000000000000
-1033762894019297300.00000000000000000000
-2581276994163441700.00000000000000000000
101349425615470590.00000000000000000000
-1074819276675743700.00000000000000000000
-2739192427557421100.00000000000000000000
98859564354502656.00000000000000000000
-870708961752383490.00000000000000000000
204465800776515580.00000000000000000000
1201483497231876100.00000000000000000000
23510657420754944.00000000000000000000
42166670357168128.00000000000000000000
420395556460822530.00000000000000000000
-834273826467479550.00000000000000000000
372600885513027580.00000000000000000000
933571202608267260.00000000000000000000
-1465995620866064400.00000000000000000000
593017198394474500.00000000000000000000
33895914112286720.00000000000000000000
-1363205302442262500.00000000000000000000
266777598623744000.00000000000000000000
-1474040060251734000.00000000000000000000
-386044098789769220.00000000000000000000
-1614481505101283300.00000000000000000000
-855173274768769020.00000000000000000000
-1052176002932801500.00000000000000000000
-933184174515290110.00000000000000000000
-1226693924467245100.00000000000000000000
-443227087210283010.00000000000000000000
-2942561671643660300.00000000000000000000
-495317240850153470.00000000000000000000
12614271394474099000.00000000000000000000
-2175297993647849500.00000000000000000000
3947031239436795900.00000000000000000000
-1567803525650448400.00000000000000000000
56785403297923072.00000000000000000000
-3369004232819605500.00000000000000000000
-2145043694259011600.00000000000000000000
-1442495346528747500.00000000000000000000
18050731785322496.00000000000000000000
-1764922321010688000.00000000000000000000
589950385586700290.00000000000000000000
-2118428915797065700.00000000000000000000
49569055081758720.00000000000000000000
11626157886777852000.00000000000000000000
-2620464962966913000.00000000000000000000
2759279405485260800.00000000000000000000
-2148683077746950100.00000000000000000000
-158475411230031870.00000000000000000000
-3161714130268717100.00000000000000000000
-2373380236071927800.00000000000000000000
-1673959586605826000.00000000000000000000
327619452503851010.00000000000000000000
-2235159667271532500.00000000000000000000
56859452829073408.00000000000000000000
-529538715630960640.00000000000000000000
-584386169555386370.00000000000000000000
2910472149909110800.00000000000000000000
-415472046470856700.00000000000000000000
-3115486813146316800.00000000000000000000
-1527803979826724900.00000000000000000000
1909225250696986600.00000000000000000000
-2309373815928389600.00000000000000000000
344117693198106620.00000000000000000000
315805543660781570.00000000000000000000
2270895032124833800.00000000000000000000
-816931023404138500.00000000000000000000
-497456065844084740.00000000000000000000
57449392356982784.00000000000000000000
-360998941895950340.00000000000000000000
-688152854304653310.00000000000000000000
-196772414837751810.00000000000000000000
-374076498836979710.00000000000000000000
322632170839474180.00000000000000000000
790699424744472580.00000000000000000000
61677645925974016.00000000000000000000
-132096572501524480.00000000000000000000
33157735935639552.00000000000000000000
135589128237481980.00000000000000000000
181751711612796930.00000000000000000000
529598192338075650.00000000000000000000
-449307111633977340.00000000000000000000
172508289156775940.00000000000000000000
-3594429955036938200.00000000000000000000
324810818770173950.00000000000000000000
161351956986593280.00000000000000000000
408210493723901950.00000000000000000000
9334156861374464.00000000000000000000
355486712148787200.00000000000000000000
347726427799420930.00000000000000000000
-34491931018919936.00000000000000000000
-914987394514550780.00000000000000000000
-288820813895827460.00000000000000000000
170121524290781180.00000000000000000000
-164582442408083460.00000000000000000000
216082708059652100.00000000000000000000
-500159764936785920.00000000000000000000
-21845500747579392.00000000000000000000
97378633861038080.00000000000000000000
416603753173483520.00000000000000000000
32599018672488448.00000000000000000000
104768674849619970.00000000000000000000
189902305410154500.00000000000000000000
109470985433907200.00000000000000000000
63430881640972288.00000000000000000000
-2185341368795136.00000000000000000000
-891304326369116160.00000000000000000000
-1503280609919762400.00000000000000000000
-100750990642249730.00000000000000000000
4123408297694855200.00000000000000000000
-345605126272057340.00000000000000000000
3395484870862962700.00000000000000000000
-125852214039150590.00000000000000000000
-710763555015622660.00000000000000000000
-730661485662961660.00000000000000000000
-677011159383015420.00000000000000000000
-503426895019245570.00000000000000000000
-1214559576704155600.00000000000000000000
-575466415834791940.00000000000000000000
511001980378808320.00000000000000000000
46165796010852352.00000000000000000000
-78116727740694528.00000000000000000000
20413760514555904.00000000000000000000
-288401075331923970.00000000000000000000
324515702977331200.00000000000000000000
494412548938924030.00000000000000000000
-315493041840324610.00000000000000000000
60640900950261760.00000000000000000000
242733959383875580.00000000000000000000
256807708219408380.00000000000000000000
-67378321658216448.00000000000000000000
55579097308332032.00000000000000000000
268765292308463620.00000000000000000000
-794677045496905730.00000000000000000000
308651674333872130.00000000000000000000
-716478679017848830.00000000000000000000
-344630821530894340.00000000000000000000
337322951856619520.00000000000000000000
-496395793037524990.00000000000000000000
28374645606449152.00000000000000000000
-444203728413655040.00000000000000000000
-240896434935693310.00000000000000000000
-487485316446289920.00000000000000000000
-607664273824415740.00000000000000000000
-654128535702601730.00000000000000000000
-6595531631493120.00000000000000000000
149600445428400130.00000000000000000000
-184063469169934340.00000000000000000000
9657968404463616.00000000000000000000
-78888404514766848.00000000000000000000
-239073788254224380.00000000000000000000
-129170531541843970.00000000000000000000
778089400763416580.00000000000000000000
129727193663143940.00000000000000000000
111671924244873220.00000000000000000000
86644454026379264.00000000000000000000
343448056257052670.00000000000000000000
-18090546132156416.00000000000000000000
1205815160728453100.00000000000000000000
-401365690243612670.00000000000000000000
723959824852713470.00000000000000000000
-176135062620733440.00000000000000000000
-342157951160549380.00000000000000000000
-331173967438020610.00000000000000000000
277700422011977730.00000000000000000000
-2206391770164494300.00000000000000000000
141452162323447810.00000000000000000000
201238562350301180.00000000000000000000
-92600542873780224.00000000000000000000
-87276011787386880.00000000000000000000
-490961216299073540.00000000000000000000
1983437475208495100.00000000000000000000
944403385006686210.00000000000000000000
926640499782057980.00000000000000000000
4077173558868967400.00000000000000000000
3991956459914002400.00000000000000000000
-348009208446189570.00000000000000000000
718249648652812290.00000000000000000000
1428567832739708900.00000000000000000000
995951788651708420.00000000000000000000
974570410660069380.00000000000000000000
907735977890414590.00000000000000000000
1567704707042902000.00000000000000000000
1356720520300593200.00000000000000000000
-1382089414649315300.00000000000000000000
-2109944259443425300.00000000000000000000
-1163601061047435300.00000000000000000000
10167191718626066000.00000000000000000000
-2566305219205922800.00000000000000000000
1949041178078871600.00000000000000000000
-2063979175844249600.00000000000000000000
262457995395334140.00000000000000000000
-2793658660184653800.00000000000000000000
-2541420797168189400.00000000000000000000
-1842583026303762400.00000000000000000000
44737740859768832.00000000000000000000
-2366045394003034100.00000000000000000000
1050322157608894500.00000000000000000000
-399209238703898620.00000000000000000000
663841346544467970.00000000000000000000
1096874105539395600.00000000000000000000
41542998156115968.00000000000000000000
567547939249979390.00000000000000000000
-481171164765356030.00000000000000000000
-1083489750494478300.00000000000000000000
189825562934509570.00000000000000000000
63886642095587328.00000000000000000000
-229203919048278020.00000000000000000000
194374740754825220.00000000000000000000
-67559260040462336.00000000000000000000
-157652804733763580.00000000000000000000
47642410062184448.00000000000000000000
612136880967778300.00000000000000000000
355042234573258750.00000000000000000000
14869141044624097000.00000000000000000000
-153550544030400510.00000000000000000000
1754731360049692700.00000000000000000000
-3040758780242427900.00000000000000000000
843389946092847100.00000000000000000000
66418422237364224.00000000000000000000
-50928403641008128.00000000000000000000
84186684761047040.00000000000000000000
2009604202682122200.00000000000000000000
1716606344112373800.00000000000000000000
-2288892250765131800.00000000000000000000
153591999054741500.00000000000000000000
-2861040581025464300.00000000000000000000
-3195988656485564400.00000000000000000000
1397290575220178900.00000000000000000000
-1991731503733669900.00000000000000000000
-825790750661804030.00000000000000000000
-1945749102826356700.00000000000000000000
-2869720125815128100.00000000000000000000
-2916386422954917900.00000000000000000000
-2883971720656453600.00000000000000000000
-3036777448638251000.00000000000000000000
47296815518711808.00000000000000000000
987508776300969980.00000000000000000000
473207608203804670.00000000000000000000
-1725295921945641000.00000000000000000000
1603728693698494500.00000000000000000000
1059904057847578600.00000000000000000000
1147134981068292100.00000000000000000000
729978414064205820.00000000000000000000
1397734915356753900.00000000000000000000
1403957326536245200.00000000000000000000
1129177551005024300.00000000000000000000
-353934854565396480.00000000000000000000
1261564523425300500.00000000000000000000
-1861174954033152.00000000000000000000
213692661838643200.00000000000000000000
351623749843288060.00000000000000000000
-186524605689626620.00000000000000000000
-91971450424000512.00000000000000000000
-222177696149405700.00000000000000000000
323081630577065980.00000000000000000000
-354472206513733630.00000000000000000000
324970385395154940.00000000000000000000
129193836034392060.00000000000000000000
311985290510073860.00000000000000000000
215005667700768770.00000000000000000000
433816161029718020.00000000000000000000
118313644491538430.00000000000000000000
-255352727918346240.00000000000000000000
251727964499083260.00000000000000000000
-532221249124827140.00000000000000000000
-411254148068016130.00000000000000000000
81013116246163456.00000000000000000000
315713287763263490.00000000000000000000
-1307880763550597100.00000000000000000000
270952152216633340.00000000000000000000
-102349105023418370.00000000000000000000
-74653583940780032.00000000000000000000
-253993714366545920.00000000000000000000
2359656374599680.00000000000000000000
543136410291404800.00000000000000000000
-785267493705875460.00000000000000000000
378276736334299140.00000000000000000000
-3072704540831645700.00000000000000000000
-1009770863106457600.00000000000000000000
906633648764092420.00000000000000000000
-648593113132040190.00000000000000000000
-191595656396144640.00000000000000000000
-858835541842460670.00000000000000000000
-355443796835565570.00000000000000000000
-871321321009577980.00000000000000000000
-2163253805838237700.00000000000000000000
-1238058201774030800.00000000000000000000
647356781026082820.00000000000000000000
202572338674270210.00000000000000000000
-77839882738728960.00000000000000000000
-1204886623158796300.00000000000000000000
-241608162556248060.00000000000000000000
452686666780377090.00000000000000000000
76721688003215360.00000000000000000000
-994977071593684990.00000000000000000000
212144188689481730.00000000000000000000
-260139589228822530.00000000000000000000
-32667813311152128.00000000000000000000
-860863659759370240.00000000000000000000
-184523546066681860.00000000000000000000
1254707556597628900.00000000000000000000
960811259589033980.00000000000000000000
666362664145911810.00000000000000000000
-417810467184967680.00000000000000000000
-193543372525273090.00000000000000000000
-32368911504637952.00000000000000000000
1420562700894732300.00000000000000000000
20305263198208000.00000000000000000000
1373071907473063900.00000000000000000000
1429036087254188000.00000000000000000000
1260009539105718300.00000000000000000000
-81424531163447296.00000000000000000000
859243323217412100.00000000000000000000
277523331920429060.00000000000000000000
-342676748850167810.00000000000000000000
15142280864202752.00000000000000000000
1036085406174543900.00000000000000000000
-111310846344298500.00000000000000000000
220732130416656380.00000000000000000000
-108120226809249790.00000000000000000000
318163996102361090.00000000000000000000
-239947092544454660.00000000000000000000
-64675425724399616.00000000000000000000
-6208949141372928.00000000000000000000
349317077527429120.00000000000000000000
-120923008922550270.00000000000000000000
-412226872261214210.00000000000000000000
220769668430823420.00000000000000000000
2246024290631680.00000000000000000000
-817450748806692860.00000000000000000000
-273024645735645180.00000000000000000000
-462835880659255300.00000000000000000000
546176250704560130.00000000000000000000
870763387577958400.00000000000000000000
192679809220870140.00000000000000000000
285544183345709060.00000000000000000000
330237767646707710.00000000000000000000
-923538159004811260.00000000000000000000
289367030656663550.00000000000000000000
6553132182498443300.00000000000000000000
-5469301239801970700.00000000000000000000
1964048962042200100.00000000000000000000
25461311599571632000.00000000000000000000
-5568558002732007400.00000000000000000000
4828602070401548300.00000000000000000000
-6973921329762271200.00000000000000000000
-2071982108665970700.00000000000000000000
-7541897700589961200.00000000000000000000
-5027689541331320800.00000000000000000000
-4527591520844382200.00000000000000000000
-244821794526068740.00000000000000000000
-6795579444225376300.00000000000000000000
348148021789196290.00000000000000000000
-267249821688004610.00000000000000000000
-689759309512310780.00000000000000000000
-1384412957596713000.00000000000000000000
-167433372979691520.00000000000000000000
-745466409730965500.00000000000000000000
-295950116009803780.00000000000000000000
-657738163657113600.00000000000000000000
-194163256565170180.00000000000000000000
-345512251899248640.00000000000000000000
-75047956427833344.00000000000000000000
-96795248453222400.00000000000000000000
-347371251183910910.00000000000000000000
467146275477782530.00000000000000000000
-246335581519347710.00000000000000000000
-72101892330618880.00000000000000000000
227771478735585280.00000000000000000000
-510122233637634050.00000000000000000000
-524898055007240190.00000000000000000000
42898025978265600.00000000000000000000
-831766321480859650.00000000000000000000
-100556806580862980.00000000000000000000
132187840556564480.00000000000000000000
-44527875872784384.00000000000000000000
594908289674772480.00000000000000000000
-370365681452974080.00000000000000000000
150859953177886720.00000000000000000000
92747542424453120.00000000000000000000
-922664067661824.00000000000000000000
-186085917730013180.00000000000000000000
51206421169045504.00000000000000000000
-513326828996263940.00000000000000000000
-355748773873319940.00000000000000000000
1629281756244869100.00000000000000000000
65813171151044608.00000000000000000000
148741881465929730.00000000000000000000
-175735613482336260.00000000000000000000
-246318453189771260.00000000000000000000
-261628757469560830.00000000000000000000
810185450848256000.00000000000000000000
539097801003368450.00000000000000000000
1039487432589836300.00000000000000000000
2157529473426128900.00000000000000000000
7825051631556231200.00000000000000000000
-34565499513733120.00000000000000000000
1584102548581646300.00000000000000000000
-908252542197039100.00000000000000000000
887086324887060480.00000000000000000000
1019908703911936000.00000000000000000000
1035805786623705100.00000000000000000000
981143978365681660.00000000000000000000
1847709224390361100.00000000000000000000
786408511897600000.00000000000000000000
-12050656030359552.00000000000000000000
-348341982512283650.00000000000000000000
511761227517526020.00000000000000000000
-262976690005737470.00000000000000000000
-232034061978173440.00000000000000000000
33963600649388032.00000000000000000000
-52361621342781440.00000000000000000000
49573096645984256.00000000000000000000
262540183889510400.00000000000000000000
55218912760954880.00000000000000000000
-22862707917062144.00000000000000000000
-348611637738995710.00000000000000000000
6607860923526807600.00000000000000000000
-5289706460765225000.00000000000000000000
1637559566973534200.00000000000000000000
25552357759421252000.00000000000000000000
-6256779713952350200.00000000000000000000
4284113192088502300.00000000000000000000
-6689045563586904100.00000000000000000000
-2631334734919106600.00000000000000000000
-7561045145831866400.00000000000000000000
-5701686320867311600.00000000000000000000
-4831191420284960800.00000000000000000000
-576023696431382530.00000000000000000000
-7333006434231124000.00000000000000000000
833130265655115780.00000000000000000000
-177638215274987520.00000000000000000000
128667822799716350.00000000000000000000
-1845721307367342100.00000000000000000000
-459505700456890370.00000000000000000000
-364839089335173120.00000000000000000000
934934665746186240.00000000000000000000
-41162094686502912.00000000000000000000
67174860467470336.00000000000000000000
175699535757049860.00000000000000000000
161057064532049920.00000000000000000000
-652929793150418940.00000000000000000000
193467609302171650.00000000000000000000
3684197657741361200.00000000000000000000
-2391145320319811600.00000000000000000000
1654964698602274800.00000000000000000000
-6668850283763728400.00000000000000000000
-4405710107149598700.00000000000000000000
3775405445800263700.00000000000000000000
-4370917985833975800.00000000000000000000
1493730251920900100.00000000000000000000
-4512010891322982400.00000000000000000000
-3090124378428407800.00000000000000000000
-2938552852248789000.00000000000000000000
-4864117395490340900.00000000000000000000
-4005336142034501600.00000000000000000000
-622391751042138110.00000000000000000000
-353172480690487300.00000000000000000000
-395720522668703740.00000000000000000000
-58978022757236736.00000000000000000000
-157499268242866180.00000000000000000000
-1148754011940192300.00000000000000000000
-28219017466478592.00000000000000000000
-190927582823186430.00000000000000000000
142685530901970940.00000000000000000000
326416964740186110.00000000000000000000
29945740348358656.00000000000000000000
869065398027288580.00000000000000000000
-228212537517146110.00000000000000000000
1024792597123563500.00000000000000000000
-495931592972173310.00000000000000000000
467425379632545790.00000000000000000000
2256174083257401300.00000000000000000000
-697172079467823100.00000000000000000000
368953977242386430.00000000000000000000
-749749076240629760.00000000000000000000
-174387784025374720.00000000000000000000
-1007468348318941200.00000000000000000000
-536295558181027840.00000000000000000000
-568991529297772540.00000000000000000000
9246576035758080.00000000000000000000
-572550888955052030.00000000000000000000
2325683146781098000.00000000000000000000
2879072296843083800.00000000000000000000
104008027551563780.00000000000000000000
9297589071729655800.00000000000000000000
29938896781828948000.00000000000000000000
482418491987591170.00000000000000000000
-865258064138207230.00000000000000000000
-2135861260338593800.00000000000000000000
1598812502332801000.00000000000000000000
-2027458072493948900.00000000000000000000
-2280470541452181500.00000000000000000000
657200777349038080.00000000000000000000
3838781845781086200.00000000000000000000
-1020372010624090100.00000000000000000000
538790400.00000000000000000000
529544704.00000000000000000000
254441088.00000000000000000000
280943104.00000000000000000000
559691264.00000000000000000000
-2725006.75000000000000000000
387497440.00000000000000000000
397146112.00000000000000000000
62113476.00000000000000000000
116397376.00000000000000000000
153557952.00000000000000000000
62844172.00000000000000000000
-292737856.00000000000000000000
421218112.00000000000000000000
-6147016.50000000000000000000
787377216.00000000000000000000
-115866552.00000000000000000000
-98481088.00000000000000000000
240412544.00000000000000000000
-212124160.00000000000000000000
170458976.00000000000000000000
-4843769.00000000000000000000
-456239840.00000000000000000000
9640094.00000000000000000000
59018500.00000000000000000000
-67532976.00000000000000000000
-220618384.00000000000000000000
-51764912.00000000000000000000
3859851.50000000000000000000
115978696.00000000000000000000
-364351040.00000000000000000000
-179242768.00000000000000000000
300358944.00000000000000000000
236654288.00000000000000000000
646905728.00000000000000000000
26320520.00000000000000000000
158831072.00000000000000000000
218634592.00000000000000000000
-74901832.00000000000000000000
-235693760.00000000000000000000
-89421648.00000000000000000000
45056008.00000000000000000000
385455328.00000000000000000000
676776256.00000000000000000000
118033656.00000000000000000000
37244108.00000000000000000000
-32267830.00000000000000000000
157700400.00000000000000000000
185944784.00000000000000000000
48039820.00000000000000000000
-60012228.00000000000000000000
-476238400.00000000000000000000
388024768.00000000000000000000
-64515868.00000000000000000000
-71112656.00000000000000000000
242192528.00000000000000000000
524024096.00000000000000000000
216308272.00000000000000000000
383461920.00000000000000000000
71407160.00000000000000000000
39951344.00000000000000000000
-49229520.00000000000000000000
75858104.00000000000000000000
298116288.00000000000000000000
966178816.00000000000000000000
-168509664.00000000000000000000
-314107968.00000000000000000000
-67319160.00000000000000000000
153755248.00000000000000000000
-99109568.00000000000000000000
-421167616.00000000000000000000
370481600.00000000000000000000
-47057516.00000000000000000000
-170330656.00000000000000000000
177567584.00000000000000000000
-238520096.00000000000000000000
229166912.00000000000000000000
-884502720.00000000000000000000
133424416.00000000000000000000
45502840.00000000000000000000
-547018176.00000000000000000000
64451048.00000000000000000000
416674368.00000000000000000000
26023582.00000000000000000000
-688617472.00000000000000000000
72989096.00000000000000000000
-516664704.00000000000000000000
-464617632.00000000000000000000
-325465632.00000000000000000000
87369904.00000000000000000000
-94958200.00000000000000000000
-119011520.00000000000000000000
76628832.00000000000000000000
-497349728.00000000000000000000
-415631808.00000000000000000000
-136983216.00000000000000000000
59460180.00000000000000000000
-138371152.00000000000000000000
63422128.00000000000000000000
-785351616.00000000000000000000
432305152.00000000000000000000
91704696.00000000000000000000
192466544.00000000000000000000
-353288256.00000000000000000000
-529780448.00000000000000000000
-581449664.00000000000000000000
-547661312.00000000000000000000
-72778240.00000000000000000000
-879548096.00000000000000000000
189050352.00000000000000000000
311407520.00000000000000000000
-113627904.00000000000000000000
18934618.00000000000000000000
522624512.00000000000000000000
120307440.00000000000000000000
422810592.00000000000000000000
89703688.00000000000000000000
369480384.00000000000000000000
161605904.00000000000000000000
-383476160.00000000000000000000
-787637504.00000000000000000000
-549191104.00000000000000000000
-40909944.00000000000000000000
367919552.00000000000000000000
-101842072.00000000000000000000
-999541504.00000000000000000000
669486208.00000000000000000000
-154835776.00000000000000000000
-533473728.00000000000000000000
190358048.00000000000000000000
255562512.00000000000000000000
-14608771.00000000000000000000
85691656.00000000000000000000
-63533892.00000000000000000000
299362848.00000000000000000000
309201888.00000000000000000000
193589536.00000000000000000000
-36124032.00000000000000000000
27570994.00000000000000000000
-110971768.00000000000000000000
697388416.00000000000000000000
-9626618.00000000000000000000
-394446720.00000000000000000000
397691552.00000000000000000000
68241024.00000000000000000000
188042944.00000000000000000000
-92020712.00000000000000000000
-135096976.00000000000000000000
-61906420.00000000000000000000
109044968.00000000000000000000
-201271408.00000000000000000000
620117.06250000000000000000
-558503808.00000000000000000000
-256285424.00000000000000000000
-168405840.00000000000000000000
12949163.00000000000000000000
-443805632.00000000000000000000
482878304.00000000000000000000
276825888.00000000000000000000
-159212832.00000000000000000000
-355601600.00000000000000000000
-501892320.00000000000000000000
-201934880.00000000000000000000
-377809376.00000000000000000000
330109824.00000000000000000000
-70107248.00000000000000000000
-365650336.00000000000000000000
35907640.00000000000000000000
35187356.00000000000000000000
140772912.00000000000000000000
96318112.00000000000000000000
535822560.00000000000000000000
248890880.00000000000000000000
493996352.00000000000000000000
305763328.00000000000000000000
-58166300.00000000000000000000
50204968.00000000000000000000
-291644224.00000000000000000000
-3222893.25000000000000000000
-162848352.00000000000000000000
-404118592.00000000000000000000
-212819168.00000000000000000000
194518368.00000000000000000000
-48884260.00000000000000000000
-113076816.00000000000000000000
303949568.00000000000000000000
611747904.00000000000000000000
-130817032.00000000000000000000
195555568.00000000000000000000
-40275656.00000000000000000000
40511332.00000000000000000000
-164136832.00000000000000000000
-278240704.00000000000000000000
207794928.00000000000000000000
335010272.00000000000000000000
-344391328.00000000000000000000
-645015104.00000000000000000000
101196776.00000000000000000000
-41422856.00000000000000000000
-330056640.00000000000000000000
114243568.00000000000000000000
399541088.00000000000000000000
248876848.00000000000000000000
-266793520.00000000000000000000
-120952312.00000000000000000000
-356247232.00000000000000000000
-182445248.00000000000000000000
-398226432.00000000000000000000
-625054528.00000000000000000000
257201168.00000000000000000000
-387517472.00000000000000000000
68261072.00000000000000000000
-142733136.00000000000000000000
244505072.00000000000000000000
-191248880.00000000000000000000
70516904.00000000000000000000
-503883168.00000000000000000000
-149009456.00000000000000000000
339046496.00000000000000000000
-82190488.00000000000000000000
-29173028.00000000000000000000
-233848672.00000000000000000000
-197251920.00000000000000000000
-73973208.00000000000000000000
-226674240.00000000000000000000
-315278976.00000000000000000000
5080766.50000000000000000000
-12446160.00000000000000000000
28581756.00000000000000000000
65980676.00000000000000000000
-166011328.00000000000000000000
-89746952.00000000000000000000
153682784.00000000000000000000
-242323184.00000000000000000000
-133620424.00000000000000000000
-86076744.00000000000000000000
-465393344.00000000000000000000
-117804912.00000000000000000000
-670042624.00000000000000000000
188632592.00000000000000000000
-228872288.00000000000000000000
-204757136.00000000000000000000
-26032610.00000000000000000000
-1136243.12500000000000000000
-67379856.00000000000000000000
58344968.00000000000000000000
22683030.00000000000000000000
400762464.00000000000000000000
133195616.00000000000000000000
65709760.00000000000000000000
402432320.00000000000000000000
-362605600.00000000000000000000
-296304544.00000000000000000000
399434112.00000000000000000000
-164169456.00000000000000000000
-479018560.00000000000000000000
560060160.00000000000000000000
-312901568.00000000000000000000
-443366272.00000000000000000000
45440836.00000000000000000000
-59274844.00000000000000000000
-178493152.00000000000000000000
38611576.00000000000000000000
200598096.00000000000000000000
-57976656.00000000000000000000
-84987952.00000000000000000000
-178252576.00000000000000000000
37424744.00000000000000000000
179859920.00000000000000000000
-202609520.00000000000000000000
-215048832.00000000000000000000
45926468.00000000000000000000
-72025456.00000000000000000000
123662072.00000000000000000000
-61939076.00000000000000000000
90695208.00000000000000000000
-118834136.00000000000000000000
-11900946.00000000000000000000
-62658880.00000000000000000000
4977234.50000000000000000000
31773694.00000000000000000000
149533600.00000000000000000000
181474288.00000000000000000000
159701280.00000000000000000000
64464708.00000000000000000000
73583960.00000000000000000000
110519520.00000000000000000000
-31523490.00000000000000000000
26133666.00000000000000000000
49600184.00000000000000000000
101419768.00000000000000000000
25300112.00000000000000000000
-74690264.00000000000000000000
-147543392.00000000000000000000
-160917712.00000000000000000000
92195432.00000000000000000000
162352160.00000000000000000000
115196760.00000000000000000000
117522776.00000000000000000000
-62932060.00000000000000000000
-23297770.00000000000000000000
-97714400.00000000000000000000
33908920.00000000000000000000
129016848.00000000000000000000
30784672.00000000000000000000
27534216.00000000000000000000
106062544.00000000000000000000
110487600.00000000000000000000
-138810560.00000000000000000000
-92776696.00000000000000000000
-12566900.00000000000000000000
176932480.00000000000000000000
-180150160.00000000000000000000
-56120112.00000000000000000000
-177130352.00000000000000000000
-23512590.00000000000000000000
-100786120.00000000000000000000
87610784.00000000000000000000
-177120112.00000000000000000000
-200733504.00000000000000000000
-65936612.00000000000000000000
-99185336.00000000000000000000
-28903926.00000000000000000000
-97427384.00000000000000000000
-42285804.00000000000000000000
-31240706.00000000000000000000
-212328720.00000000000000000000
-115888616.00000000000000000000
97496400.00000000000000000000
-21694282.00000000000000000000
-135939552.00000000000000000000
40730272.00000000000000000000
24105666.00000000000000000000
39564544.00000000000000000000
37201468.00000000000000000000
44040192.00000000000000000000
-13673529.00000000000000000000
42080520.00000000000000000000
14001921.00000000000000000000
-3029886.75000000000000000000
29761552.00000000000000000000
-15223117.00000000000000000000
2375043.25000000000000000000
53220692.00000000000000000000
1707436.25000000000000000000
-11505139.00000000000000000000
-31092850.00000000000000000000
119474904.00000000000000000000
20273394.00000000000000000000
12483935.00000000000000000000
-129232368.00000000000000000000
-63592580.00000000000000000000
26219452.00000000000000000000
30625128.00000000000000000000
-856581.75000000000000000000
33141854.00000000000000000000
-33130510.00000000000000000000
-83417544.00000000000000000000
26673614.00000000000000000000
49535764.00000000000000000000
23841954.00000000000000000000
72466120.00000000000000000000
643821.81250000000000000000
66590520.00000000000000000000
-18709594.00000000000000000000
42632652.00000000000000000000
63682344.00000000000000000000
77495904.00000000000000000000
-6692475.00000000000000000000
-162939696.00000000000000000000
-55515920.00000000000000000000
18903978.00000000000000000000
-93924200.00000000000000000000
-100970664.00000000000000000000
-113303888.00000000000000000000
-23561878.00000000000000000000
153466224.00000000000000000000
41244704.00000000000000000000
-76495600.00000000000000000000
147263776.00000000000000000000
-62462844.00000000000000000000
-197860752.00000000000000000000
-90025648.00000000000000000000
40002628.00000000000000000000
80555696.00000000000000000000
-83785424.00000000000000000000
120679248.00000000000000000000
25771624.00000000000000000000
-85457520.00000000000000000000
-138763520.00000000000000000000
-94019272.00000000000000000000
-41459216.00000000000000000000
-150955456.00000000000000000000
175646352.00000000000000000000
-17787848.00000000000000000000
-295244480.00000000000000000000
-191776960.00000000000000000000
21047322.00000000000000000000
10981235.00000000000000000000
151950656.00000000000000000000
-95997760.00000000000000000000
-17782198.00000000000000000000
101418296.00000000000000000000
188832528.00000000000000000000
118550488.00000000000000000000
259885552.00000000000000000000
62609012.00000000000000000000
31995072.00000000000000000000
197689520.00000000000000000000
-44651784.00000000000000000000
-13640027.00000000000000000000
-112903384.00000000000000000000
181232304.00000000000000000000
-151877632.00000000000000000000
34656940.00000000000000000000
127318608.00000000000000000000
13164661.00000000000000000000
154018400.00000000000000000000
357048704.00000000000000000000
-37956268.00000000000000000000
341171232.00000000000000000000
84577240.00000000000000000000
39807524.00000000000000000000
124878784.00000000000000000000
-53494956.00000000000000000000
-118039384.00000000000000000000
142033152.00000000000000000000
105225088.00000000000000000000
178539456.00000000000000000000
-62706680.00000000000000000000
90360880.00000000000000000000
-14416306.00000000000000000000
-178783472.00000000000000000000
24335238.00000000000000000000
-78467696.00000000000000000000
148336944.00000000000000000000
-152991520.00000000000000000000
75551680.00000000000000000000
68898840.00000000000000000000
25964012.00000000000000000000
-136525456.00000000000000000000
151821344.00000000000000000000
-198788464.00000000000000000000
-5653089.50000000000000000000
36198888.00000000000000000000
-121118192.00000000000000000000
147218016.00000000000000000000
-128424608.00000000000000000000
-196000768.00000000000000000000
48851956.00000000000000000000
28081566.00000000000000000000
58918728.00000000000000000000
142152032.00000000000000000000
133962000.00000000000000000000
642040256.00000000000000000000
1120863488.00000000000000000000
935549888.00000000000000000000
311273280.00000000000000000000
142627088.00000000000000000000
1107411072.00000000000000000000
-244653008.00000000000000000000
674694208.00000000000000000000
729125760.00000000000000000000
-28040686.00000000000000000000
350008896.00000000000000000000
54278968.00000000000000000000
244573008.00000000000000000000
14640229.00000000000000000000
523487840.00000000000000000000
71041176.00000000000000000000
786155072.00000000000000000000
897209.62500000000000000000
-266814880.00000000000000000000
605166016.00000000000000000000
-208670896.00000000000000000000
598691008.00000000000000000000
-529528224.00000000000000000000
12160129.00000000000000000000
334039680.00000000000000000000
-134560960.00000000000000000000
328018368.00000000000000000000
60311512.00000000000000000000
167374640.00000000000000000000
-55540252.00000000000000000000
222457424.00000000000000000000
-7657377.50000000000000000000
209894752.00000000000000000000
358407232.00000000000000000000
299708640.00000000000000000000
156418400.00000000000000000000
306732224.00000000000000000000
105535520.00000000000000000000
154058128.00000000000000000000
554638208.00000000000000000000
-241954224.00000000000000000000
-319874912.00000000000000000000
621047040.00000000000000000000
1181677696.00000000000000000000
707715328.00000000000000000000
114880528.00000000000000000000
387602848.00000000000000000000
342705088.00000000000000000000
469266688.00000000000000000000
186288576.00000000000000000000
587840832.00000000000000000000
-322245888.00000000000000000000
-58255184.00000000000000000000
674657920.00000000000000000000
312896352.00000000000000000000
248699200.00000000000000000000
-116320240.00000000000000000000
1138545664.00000000000000000000
76328872.00000000000000000000
674452928.00000000000000000000
70186568.00000000000000000000
120135112.00000000000000000000
74907696.00000000000000000000
461088384.00000000000000000000
656408064.00000000000000000000
186104272.00000000000000000000
-19889384.00000000000000000000
246196592.00000000000000000000
35935104.00000000000000000000
-213133408.00000000000000000000
75244944.00000000000000000000
163148320.00000000000000000000
251874992.00000000000000000000
-199474800.00000000000000000000
34946104.00000000000000000000
-182069680.00000000000000000000
813694400.00000000000000000000
60881664.00000000000000000000
-262278048.00000000000000000000
523904832.00000000000000000000
-187653632.00000000000000000000
-38604900.00000000000000000000
-206333712.00000000000000000000
-438254848.00000000000000000000
-42190208.00000000000000000000
77070168.00000000000000000000
-44681556.00000000000000000000
-349308320.00000000000000000000
-226828944.00000000000000000000
-57054884.00000000000000000000
96777504.00000000000000000000
-133385296.00000000000000000000
-342505824.00000000000000000000
654482368.00000000000000000000
528510464.00000000000000000000
-222993312.00000000000000000000
-521004992.00000000000000000000
79227960.00000000000000000000
-48016144.00000000000000000000
-374545792.00000000000000000000
-126793928.00000000000000000000
163449488.00000000000000000000
-191793296.00000000000000000000
-58917068.00000000000000000000
-142003504.00000000000000000000
163708464.00000000000000000000
211805520.00000000000000000000
377649568.00000000000000000000
395247712.00000000000000000000
-204286464.00000000000000000000
123319728.00000000000000000000
302092096.00000000000000000000
93014464.00000000000000000000
-430502240.00000000000000000000
27608146.00000000000000000000
161823744.00000000000000000000
-130799000.00000000000000000000
-124330376.00000000000000000000
248642784.00000000000000000000
140729712.00000000000000000000
278079360.00000000000000000000
132456312.00000000000000000000
663731712.00000000000000000000
-102865824.00000000000000000000
248108640.00000000000000000000
-94883312.00000000000000000000
-9581400.00000000000000000000
-160764464.00000000000000000000
-180513488.00000000000000000000
368391520.00000000000000000000
256339520.00000000000000000000
-359733728.00000000000000000000
-112110408.00000000000000000000
161029968.00000000000000000000
-292539872.00000000000000000000
-401636352.00000000000000000000
-75629576.00000000000000000000
499193056.00000000000000000000
91853072.00000000000000000000
-309904704.00000000000000000000
20295364.00000000000000000000
-577086976.00000000000000000000
198831520.00000000000000000000
-515194560.00000000000000000000
-566943680.00000000000000000000
396662880.00000000000000000000
-615881216.00000000000000000000
-59975900.00000000000000000000
-178372096.00000000000000000000
-133883608.00000000000000000000
-268374512.00000000000000000000
-58590952.00000000000000000000
-695803840.00000000000000000000
-420131456.00000000000000000000
183254832.00000000000000000000
-39435072.00000000000000000000
-132370248.00000000000000000000
-83008000.00000000000000000000
-562821888.00000000000000000000
-291348768.00000000000000000000
-57030824.00000000000000000000
40441692.00000000000000000000
-399914720.00000000000000000000
-205574752.00000000000000000000
73025088.00000000000000000000
-683592960.00000000000000000000
142792976.00000000000000000000
-24148966.00000000000000000000
-244207984.00000000000000000000
-714776320.00000000000000000000
-140941328.00000000000000000000
-456031264.00000000000000000000
-285588448.00000000000000000000
-772840128.00000000000000000000
-342125536.00000000000000000000
-40607332.00000000000000000000
87118768.00000000000000000000
-108933448.00000000000000000000
-289800576.00000000000000000000
23978634.00000000000000000000
-78434632.00000000000000000000
65499660.00000000000000000000
-409350304.00000000000000000000
499004352.00000000000000000000
-199070176.00000000000000000000
-173604336.00000000000000000000
-309136448.00000000000000000000
-707052224.00000000000000000000
-323754848.00000000000000000000
501093120.00000000000000000000
-70478296.00000000000000000000
-895234688.00000000000000000000
298948960.00000000000000000000
73238376.00000000000000000000
-372765600.00000000000000000000
421293952.00000000000000000000
36119496.00000000000000000000
574091904.00000000000000000000
53741620.00000000000000000000
-3234602.75000000000000000000
66643712.00000000000000000000
-106163184.00000000000000000000
-30440312.00000000000000000000
-103037256.00000000000000000000
-188184880.00000000000000000000
252843840.00000000000000000000
-189048576.00000000000000000000
148180384.00000000000000000000
-145620928.00000000000000000000
-24170498.00000000000000000000
51980516.00000000000000000000
-278333696.00000000000000000000
-4635231.00000000000000000000
-148618672.00000000000000000000
16611174.00000000000000000000
-293952096.00000000000000000000
-430549088.00000000000000000000
-546766400.00000000000000000000
-127723888.00000000000000000000
225580784.00000000000000000000
-171656432.00000000000000000000
264059104.00000000000000000000
-6684555.50000000000000000000
-300935072.00000000000000000000
-138502816.00000000000000000000
-239620416.00000000000000000000
-192870048.00000000000000000000
220663840.00000000000000000000
170460448.00000000000000000000
136947328.00000000000000000000
-430096704.00000000000000000000
19028342.00000000000000000000
-301914560.00000000000000000000
155613024.00000000000000000000
-486182592.00000000000000000000
-18059064.00000000000000000000
-405568256.00000000000000000000
-31536640.00000000000000000000
-374174464.00000000000000000000
-14665830.00000000000000000000
22215732.00000000000000000000
-377782176.00000000000000000000
-143931504.00000000000000000000
-25675378.00000000000000000000
45927976.00000000000000000000
180530688.00000000000000000000
-337531072.00000000000000000000
-258889760.00000000000000000000
-31445618.00000000000000000000
-213324416.00000000000000000000
-156953232.00000000000000000000
-234528192.00000000000000000000
-267561168.00000000000000000000
-627840448.00000000000000000000
-30894130.00000000000000000000
213793904.00000000000000000000
-224044560.00000000000000000000
-250174624.00000000000000000000
-20971624.00000000000000000000
-235396320.00000000000000000000
-119003072.00000000000000000000
27811812.00000000000000000000
-219188256.00000000000000000000
-146020048.00000000000000000000
-41795268.00000000000000000000
28508478.00000000000000000000
-60529512.00000000000000000000
2260948.50000000000000000000
-275512160.00000000000000000000
-9434338.00000000000000000000
322890944.00000000000000000000
-312202720.00000000000000000000
311238048.00000000000000000000
-58046932.00000000000000000000
-481588992.00000000000000000000
64857876.00000000000000000000
239992176.00000000000000000000
58790276.00000000000000000000
-221962944.00000000000000000000
217862656.00000000000000000000
202315008.00000000000000000000
144408400.00000000000000000000
-279859840.00000000000000000000
-213502464.00000000000000000000
-72759032.00000000000000000000
67290480.00000000000000000000
249002048.00000000000000000000
-83264792.00000000000000000000
-393030624.00000000000000000000
-339151136.00000000000000000000
-239153072.00000000000000000000
-170988848.00000000000000000000
207716752.00000000000000000000
-216755536.00000000000000000000
-13449074.00000000000000000000
-521821920.00000000000000000000
405849696.00000000000000000000
-242921328.00000000000000000000
-96668088.00000000000000000000
-255757296.00000000000000000000
111892072.00000000000000000000
-441795552.00000000000000000000
-112861984.00000000000000000000
-12564367.00000000000000000000
-98478744.00000000000000000000
180308352.00000000000000000000
469674912.00000000000000000000
-31558192.00000000000000000000
-188625152.00000000000000000000
153235120.00000000000000000000
344285664.00000000000000000000
-135765136.00000000000000000000
47464348.00000000000000000000
1279373.62500000000000000000
-343411584.00000000000000000000
-22612114.00000000000000000000
-146876336.00000000000000000000
190055808.00000000000000000000
-111516416.00000000000000000000
1857079.50000000000000000000
77892968.00000000000000000000
-108086856.00000000000000000000
-277067008.00000000000000000000
40247152.00000000000000000000
230728816.00000000000000000000
76710936.00000000000000000000
29031980.00000000000000000000
12805554.00000000000000000000
37224580.00000000000000000000
-27693382.00000000000000000000
79761064.00000000000000000000
1107000.75000000000000000000
59423324.00000000000000000000
108320176.00000000000000000000
-22710504.00000000000000000000
-84364232.00000000000000000000
82560344.00000000000000000000
-8115722.50000000000000000000
-81062032.00000000000000000000
197497472.00000000000000000000
-43691576.00000000000000000000
-24159146.00000000000000000000
-41415448.00000000000000000000
16875974.00000000000000000000
53422128.00000000000000000000
-50049496.00000000000000000000
-58644816.00000000000000000000
-94932360.00000000000000000000
61395956.00000000000000000000
113110992.00000000000000000000
190127024.00000000000000000000
-70934640.00000000000000000000
38642180.00000000000000000000
-2042224.50000000000000000000
-68976016.00000000000000000000
-220246544.00000000000000000000
-18420756.00000000000000000000
153858224.00000000000000000000
21595676.00000000000000000000
-38739040.00000000000000000000
-79353184.00000000000000000000
-29357234.00000000000000000000
58276600.00000000000000000000
84622992.00000000000000000000
-92159336.00000000000000000000
-21140330.00000000000000000000
-19198386.00000000000000000000
64001196.00000000000000000000
80457896.00000000000000000000
-17530348.00000000000000000000
-6901137.50000000000000000000
-85751112.00000000000000000000
-19621340.00000000000000000000
-75080736.00000000000000000000
-188641552.00000000000000000000
128249888.00000000000000000000
52085740.00000000000000000000
-128200224.00000000000000000000
57976256.00000000000000000000
124906592.00000000000000000000
149191520.00000000000000000000
-93005904.00000000000000000000
-129644776.00000000000000000000
-39134568.00000000000000000000
55732896.00000000000000000000
120770136.00000000000000000000
-212384960.00000000000000000000
-56127072.00000000000000000000
-21271354.00000000000000000000
-52274504.00000000000000000000
-130941072.00000000000000000000
-99428936.00000000000000000000
133815080.00000000000000000000
-57133780.00000000000000000000
28883874.00000000000000000000
-86506072.00000000000000000000
243424944.00000000000000000000
-54191868.00000000000000000000
218435424.00000000000000000000
-181958672.00000000000000000000
9331501.00000000000000000000
378750880.00000000000000000000
-17264120.00000000000000000000
-65989048.00000000000000000000
-244360016.00000000000000000000
-50319604.00000000000000000000
11807335.00000000000000000000
115318560.00000000000000000000
195663280.00000000000000000000
32942234.00000000000000000000
-132706632.00000000000000000000
-59334112.00000000000000000000
86514664.00000000000000000000
-174960464.00000000000000000000
264603376.00000000000000000000
-4227086.50000000000000000000
-134096496.00000000000000000000
-128045512.00000000000000000000
119807120.00000000000000000000
33636708.00000000000000000000
-17086420.00000000000000000000
290129536.00000000000000000000
28944560.00000000000000000000
-44044308.00000000000000000000
-135893120.00000000000000000000
46158392.00000000000000000000
10058228.00000000000000000000
-78410848.00000000000000000000
-67826040.00000000000000000000
232413952.00000000000000000000
-113410048.00000000000000000000
-108555944.00000000000000000000
-373071072.00000000000000000000
-27935818.00000000000000000000
-376761280.00000000000000000000
200184.14062500000000000000
-42405020.00000000000000000000
56999988.00000000000000000000
-66281996.00000000000000000000
-68903776.00000000000000000000
-27081686.00000000000000000000
98670336.00000000000000000000
148905568.00000000000000000000
-53792776.00000000000000000000
-81609216.00000000000000000000
-37190412.00000000000000000000
-117837704.00000000000000000000
-71993008.00000000000000000000
165517248.00000000000000000000
-52229452.00000000000000000000
-31618588.00000000000000000000
735385.87500000000000000000
150569056.00000000000000000000
-136425536.00000000000000000000
18662384.00000000000000000000
-141656768.00000000000000000000
-107451800.00000000000000000000
84990216.00000000000000000000
79332064.00000000000000000000
-57801500.00000000000000000000
-117606624.00000000000000000000
-3230914.25000000000000000000
65015364.00000000000000000000
-86151128.00000000000000000000
135264512.00000000000000000000
-67022788.00000000000000000000
129632064.00000000000000000000
-33611868.00000000000000000000
46591020.00000000000000000000
183466320.00000000000000000000
-143444144.00000000000000000000
-92370104.00000000000000000000
33277614.00000000000000000000
177367744.00000000000000000000
124038544.00000000000000000000
-53316340.00000000000000000000
37577236.00000000000000000000
61838596.00000000000000000000
-81892592.00000000000000000000
-36024872.00000000000000000000
-44394264.00000000000000000000
-28169996.00000000000000000000
-14192461.00000000000000000000
-102429016.00000000000000000000
20323646.00000000000000000000
90397984.00000000000000000000
-183886208.00000000000000000000
58861260.00000000000000000000
45659316.00000000000000000000
-14773634.00000000000000000000
-92652408.00000000000000000000
-7057902.00000000000000000000
7374896.50000000000000000000
-194289344.00000000000000000000
-13582066.00000000000000000000
-63443744.00000000000000000000
-15547518.00000000000000000000
-42104784.00000000000000000000
1461042.62500000000000000000
-204668576.00000000000000000000
127706712.00000000000000000000
81663016.00000000000000000000
1368662.62500000000000000000
-197550432.00000000000000000000
142079600.00000000000000000000
144498688.00000000000000000000
64261176.00000000000000000000
6597587.50000000000000000000
66955620.00000000000000000000
-32231620.00000000000000000000
-9891229.00000000000000000000
-29798384.00000000000000000000
16890818.00000000000000000000
-120088648.00000000000000000000
64298668.00000000000000000000
19899740.00000000000000000000
47523008.00000000000000000000
30307896.00000000000000000000
-26941268.00000000000000000000
-72199736.00000000000000000000
-171138032.00000000000000000000
103254488.00000000000000000000
51206264.00000000000000000000
57043220.00000000000000000000
-217125024.00000000000000000000
45728912.00000000000000000000
-40423664.00000000000000000000
23824094.00000000000000000000
16870798.00000000000000000000
91056384.00000000000000000000
-33991396.00000000000000000000
140461360.00000000000000000000
-128738552.00000000000000000000
2338396.50000000000000000000
162105680.00000000000000000000
209058800.00000000000000000000
259491632.00000000000000000000
-14371066.00000000000000000000
60385920.00000000000000000000
31273990.00000000000000000000
-46096900.00000000000000000000
-135056128.00000000000000000000
-114568632.00000000000000000000
423538.65625000000000000000
1166039.25000000000000000000
-218471072.00000000000000000000
-1191482.50000000000000000000
55264712.00000000000000000000
36796084.00000000000000000000
258523248.00000000000000000000
174435200.00000000000000000000
105876672.00000000000000000000
-204388016.00000000000000000000
-113642384.00000000000000000000
-172045616.00000000000000000000
169256512.00000000000000000000
-80938888.00000000000000000000
-249874848.00000000000000000000
40859096.00000000000000000000
133403552.00000000000000000000
-22295768.00000000000000000000
346402400.00000000000000000000
179775168.00000000000000000000
36074920.00000000000000000000
-133198576.00000000000000000000
-179281088.00000000000000000000
41653928.00000000000000000000
-59012052.00000000000000000000
21606078.00000000000000000000
32797268.00000000000000000000
-86418992.00000000000000000000
-217411792.00000000000000000000
-135584848.00000000000000000000
24423620.00000000000000000000
219318528.00000000000000000000
-31843218.00000000000000000000
-10821427.00000000000000000000
93508168.00000000000000000000
31652242.00000000000000000000
27136026.00000000000000000000
-167111424.00000000000000000000
65205044.00000000000000000000
-154313152.00000000000000000000
-51612840.00000000000000000000
42933428.00000000000000000000
263230992.00000000000000000000
-369880000.00000000000000000000
77816512.00000000000000000000
151924176.00000000000000000000
236634272.00000000000000000000
-213101792.00000000000000000000
-360363936.00000000000000000000
52267936.00000000000000000000
-10653794.00000000000000000000
-177708256.00000000000000000000
304881600.00000000000000000000
-180190688.00000000000000000000
328221632.00000000000000000000
-275916992.00000000000000000000
302615392.00000000000000000000
223835488.00000000000000000000
66557996.00000000000000000000
-192676528.00000000000000000000
-22121608.00000000000000000000
194173600.00000000000000000000
-142801968.00000000000000000000
-56555448.00000000000000000000
-443118976.00000000000000000000
60897836.00000000000000000000
77427536.00000000000000000000
188533872.00000000000000000000
171646432.00000000000000000000
56858064.00000000000000000000
-178668656.00000000000000000000
-336767424.00000000000000000000
-224540720.00000000000000000000
-195761184.00000000000000000000
319277184.00000000000000000000
270694976.00000000000000000000
96799936.00000000000000000000
-322427808.00000000000000000000
64433288.00000000000000000000
-242448592.00000000000000000000
387145568.00000000000000000000
-343129248.00000000000000000000
-9760406.00000000000000000000
-551905728.00000000000000000000
-365321280.00000000000000000000
-106046968.00000000000000000000
-265401344.00000000000000000000
-99739256.00000000000000000000
-158130304.00000000000000000000
-254114288.00000000000000000000
-16767068.00000000000000000000
150413552.00000000000000000000
380168640.00000000000000000000
-124462968.00000000000000000000
171766656.00000000000000000000
46616016.00000000000000000000
-150960704.00000000000000000000
102361760.00000000000000000000
-313182720.00000000000000000000
69288096.00000000000000000000
-554735872.00000000000000000000
43679172.00000000000000000000
164693424.00000000000000000000
-93954048.00000000000000000000
120470040.00000000000000000000
2097228.00000000000000000000
148741824.00000000000000000000
3976842752.00000000000000000000
448240928.00000000000000000000
239658544.00000000000000000000
-167078224.00000000000000000000
237305072.00000000000000000000
468565632.00000000000000000000
-164407328.00000000000000000000
-1471760768.00000000000000000000
2897941.75000000000000000000
-555620992.00000000000000000000
-385446080.00000000000000000000
-517428704.00000000000000000000
8982488.00000000000000000000
-952624320.00000000000000000000
-217946576.00000000000000000000
-659235840.00000000000000000000
-194843136.00000000000000000000
-59150936.00000000000000000000
-101052472.00000000000000000000
-220103024.00000000000000000000
351864800.00000000000000000000
491616160.00000000000000000000
56131196.00000000000000000000
-1264148992.00000000000000000000
132409160.00000000000000000000
-406451680.00000000000000000000
-953436416.00000000000000000000
-1430706688.00000000000000000000
-433539104.00000000000000000000
-274986624.00000000000000000000
440928640.00000000000000000000
-927167808.00000000000000000000
-197640256.00000000000000000000
-765989056.00000000000000000000
318486144.00000000000000000000
-659021184.00000000000000000000
255839104.00000000000000000000
436211264.00000000000000000000
54123320.00000000000000000000
-403280992.00000000000000000000
340338240.00000000000000000000
-569495808.00000000000000000000
1053414656.00000000000000000000
372362112.00000000000000000000
1189491328.00000000000000000000
-266895856.00000000000000000000
406777184.00000000000000000000
53891148.00000000000000000000
-469364000.00000000000000000000
-178130848.00000000000000000000
-127619784.00000000000000000000
-26731326.00000000000000000000
-464447840.00000000000000000000
-1470814720.00000000000000000000
-1275137920.00000000000000000000
842352000.00000000000000000000
-513568064.00000000000000000000
436755040.00000000000000000000
-90332832.00000000000000000000
-1472330112.00000000000000000000
-7836292.00000000000000000000
634218560.00000000000000000000
-134330512.00000000000000000000
-340897728.00000000000000000000
1008155136.00000000000000000000
-51543612.00000000000000000000
-82978768.00000000000000000000
-428503232.00000000000000000000
-296838816.00000000000000000000
-110936968.00000000000000000000
-116598360.00000000000000000000
-114392688.00000000000000000000
68450824.00000000000000000000
20130592.00000000000000000000
131586584.00000000000000000000
-36044252.00000000000000000000
-50117188.00000000000000000000
-183156768.00000000000000000000
-79102584.00000000000000000000
-356721856.00000000000000000000
91408984.00000000000000000000
-271775904.00000000000000000000
215787184.00000000000000000000
-11161451.00000000000000000000
67339160.00000000000000000000
-70665080.00000000000000000000
220745232.00000000000000000000
57178484.00000000000000000000
-188423072.00000000000000000000
122948840.00000000000000000000
-89612400.00000000000000000000
-245801024.00000000000000000000
-189483152.00000000000000000000
-281121952.00000000000000000000
-96550272.00000000000000000000
-212601600.00000000000000000000
-292799872.00000000000000000000
-193515920.00000000000000000000
-86827880.00000000000000000000
100576312.00000000000000000000
-108398064.00000000000000000000
-38710660.00000000000000000000
43417672.00000000000000000000
-96793608.00000000000000000000
-12976682.00000000000000000000
-188331248.00000000000000000000
149975744.00000000000000000000
-226693424.00000000000000000000
-114685520.00000000000000000000
-175152224.00000000000000000000
-148347344.00000000000000000000
-53402928.00000000000000000000
-154384672.00000000000000000000
17751418.00000000000000000000
15050710.00000000000000000000
-179190832.00000000000000000000
201102768.00000000000000000000
82856592.00000000000000000000
66253208.00000000000000000000
2457725.25000000000000000000
57467304.00000000000000000000
-187171184.00000000000000000000
-502856832.00000000000000000000
13359640.00000000000000000000
71335904.00000000000000000000
118117160.00000000000000000000
-300423168.00000000000000000000
94548576.00000000000000000000
67409512.00000000000000000000
-240635344.00000000000000000000
473763936.00000000000000000000
143278784.00000000000000000000
531552480.00000000000000000000
196247056.00000000000000000000
135394592.00000000000000000000
120423048.00000000000000000000
-75688144.00000000000000000000
9026979.00000000000000000000
-234832816.00000000000000000000
-15156162.00000000000000000000
-117817000.00000000000000000000
-73427416.00000000000000000000
253962432.00000000000000000000
-233567136.00000000000000000000
229940736.00000000000000000000
-6625861.00000000000000000000
-392276576.00000000000000000000
-33098826.00000000000000000000
277116192.00000000000000000000
232832480.00000000000000000000
-348128480.00000000000000000000
-242081936.00000000000000000000
-274928928.00000000000000000000
-67174880.00000000000000000000
-197821728.00000000000000000000
-224760544.00000000000000000000
192042832.00000000000000000000
-46716124.00000000000000000000
-191354624.00000000000000000000
-95824752.00000000000000000000
-48256516.00000000000000000000
68151024.00000000000000000000
-73989104.00000000000000000000
89665272.00000000000000000000
-313985536.00000000000000000000
-193039008.00000000000000000000
313658944.00000000000000000000
-157391600.00000000000000000000
187434528.00000000000000000000
-247972480.00000000000000000000
-173354624.00000000000000000000
-140421824.00000000000000000000
-397929280.00000000000000000000
-106377832.00000000000000000000
-188512000.00000000000000000000
379178400.00000000000000000000
7163645.00000000000000000000
-389497888.00000000000000000000
-244596672.00000000000000000000
452908256.00000000000000000000
156465168.00000000000000000000
268646336.00000000000000000000
162066080.00000000000000000000
14493489.00000000000000000000
-56290572.00000000000000000000
-206574144.00000000000000000000
-257915072.00000000000000000000
-276628384.00000000000000000000
-125223632.00000000000000000000
7444292.00000000000000000000
-233836704.00000000000000000000
-265007680.00000000000000000000
429025440.00000000000000000000
-527303008.00000000000000000000
-177045776.00000000000000000000
-60503424.00000000000000000000
-27098334.00000000000000000000
-35440836.00000000000000000000
-144868960.00000000000000000000
63620864.00000000000000000000
-11080947.00000000000000000000
53513212.00000000000000000000
61381400.00000000000000000000
-91875688.00000000000000000000
-78059272.00000000000000000000
-114532016.00000000000000000000
-117455392.00000000000000000000
117752032.00000000000000000000
-77852272.00000000000000000000
-106604200.00000000000000000000
-512568928.00000000000000000000
143532000.00000000000000000000
51478880.00000000000000000000
-32419948.00000000000000000000
-77536536.00000000000000000000
65685628.00000000000000000000
221963280.00000000000000000000
-24077798.00000000000000000000
-202760512.00000000000000000000
19318356.00000000000000000000
-174810592.00000000000000000000
-170807488.00000000000000000000
-188030976.00000000000000000000
62507252.00000000000000000000
-9049893.00000000000000000000
-6754519.50000000000000000000
-362324768.00000000000000000000
-30296588.00000000000000000000
-401054752.00000000000000000000
86575944.00000000000000000000
35906364.00000000000000000000
197419904.00000000000000000000
150229088.00000000000000000000
-15492968.00000000000000000000
-167776208.00000000000000000000
111741576.00000000000000000000
-45866564.00000000000000000000
-295184096.00000000000000000000
2058104.00000000000000000000
-251409232.00000000000000000000
-7252288.50000000000000000000
68939296.00000000000000000000
-126808648.00000000000000000000
134930768.00000000000000000000
239341680.00000000000000000000
-8803101.00000000000000000000
15413253.00000000000000000000
-272230912.00000000000000000000
65282868.00000000000000000000
-205641840.00000000000000000000
206622608.00000000000000000000
-93462752.00000000000000000000
117914432.00000000000000000000
141923552.00000000000000000000
63644428.00000000000000000000
-80790120.00000000000000000000
-376902528.00000000000000000000
-156959232.00000000000000000000
-234367264.00000000000000000000
75855560.00000000000000000000
-20130026.00000000000000000000
311631360.00000000000000000000
-12870724.00000000000000000000
140794608.00000000000000000000
510053696.00000000000000000000
310651968.00000000000000000000
190425792.00000000000000000000
369786080.00000000000000000000
146283024.00000000000000000000
-150598752.00000000000000000000
-29692632.00000000000000000000
63162392.00000000000000000000
-3196062.50000000000000000000
-233003904.00000000000000000000
-92474024.00000000000000000000
359172576.00000000000000000000
923154944.00000000000000000000
90792104.00000000000000000000
-274285696.00000000000000000000
253760384.00000000000000000000
6164925.00000000000000000000
-238949568.00000000000000000000
354106432.00000000000000000000
-328401664.00000000000000000000
-459175040.00000000000000000000
-43530420.00000000000000000000
5546615.00000000000000000000
-295643712.00000000000000000000
-282726304.00000000000000000000
53159952.00000000000000000000
-221828864.00000000000000000000
-273761856.00000000000000000000
-199176000.00000000000000000000
415328416.00000000000000000000
347131712.00000000000000000000
1130400896.00000000000000000000
21204002.00000000000000000000
67176344.00000000000000000000
283850592.00000000000000000000
-239925920.00000000000000000000
-4468773.00000000000000000000
141604896.00000000000000000000
50215380.00000000000000000000
264559104.00000000000000000000
329274016.00000000000000000000
239164224.00000000000000000000
-292791072.00000000000000000000
-316765280.00000000000000000000
70718968.00000000000000000000
-138430800.00000000000000000000
50753100.00000000000000000000
113805720.00000000000000000000
36915976.00000000000000000000
367203904.00000000000000000000
-85863776.00000000000000000000
-79303904.00000000000000000000
574622016.00000000000000000000
205741680.00000000000000000000
312914272.00000000000000000000
368897056.00000000000000000000
67014560.00000000000000000000
160854144.00000000000000000000
175193760.00000000000000000000
-82286616.00000000000000000000
-11861820.00000000000000000000
-179207360.00000000000000000000
254322304.00000000000000000000
625379520.00000000000000000000
-482033120.00000000000000000000
-58918420.00000000000000000000
304102688.00000000000000000000
45897856.00000000000000000000
256981904.00000000000000000000
56791436.00000000000000000000
204429856.00000000000000000000
-262863872.00000000000000000000
-436272352.00000000000000000000
140155760.00000000000000000000
121418200.00000000000000000000
-63274820.00000000000000000000
472580320.00000000000000000000
134063808.00000000000000000000
21300424.00000000000000000000
66148316.00000000000000000000
205903264.00000000000000000000
19803768.00000000000000000000
324480480.00000000000000000000
-481995040.00000000000000000000
-37883900.00000000000000000000
347169728.00000000000000000000
-197627664.00000000000000000000
461998624.00000000000000000000
338812800.00000000000000000000
-755526336.00000000000000000000
420820896.00000000000000000000
2947765.25000000000000000000
580494784.00000000000000000000
158097280.00000000000000000000
128083176.00000000000000000000
-192319792.00000000000000000000
-639970240.00000000000000000000
80405736.00000000000000000000
-304715808.00000000000000000000
232456448.00000000000000000000
-820931136.00000000000000000000
87776736.00000000000000000000
35454592.00000000000000000000
631520064.00000000000000000000
-426270112.00000000000000000000
590543104.00000000000000000000
-215143344.00000000000000000000
64695640.00000000000000000000
111600472.00000000000000000000
142106480.00000000000000000000
-647132864.00000000000000000000
422229248.00000000000000000000
-127510344.00000000000000000000
-143104784.00000000000000000000
259207824.00000000000000000000
-464780000.00000000000000000000
342935552.00000000000000000000
-217433136.00000000000000000000
-99370976.00000000000000000000
96662184.00000000000000000000
252887232.00000000000000000000
-189055632.00000000000000000000
-608885824.00000000000000000000
-568948672.00000000000000000000
273854880.00000000000000000000
423338816.00000000000000000000
-256929184.00000000000000000000
44851968.00000000000000000000
-121303344.00000000000000000000
10253491.00000000000000000000
176714096.00000000000000000000
87446248.00000000000000000000
-36498372.00000000000000000000
13061288.00000000000000000000
178277856.00000000000000000000
2394619.00000000000000000000
7769130.50000000000000000000
15453627.00000000000000000000
156510656.00000000000000000000
-8576391.00000000000000000000
59876464.00000000000000000000
-153181472.00000000000000000000
-35053980.00000000000000000000
-66946232.00000000000000000000
49735460.00000000000000000000
-56380696.00000000000000000000
269941984.00000000000000000000
-12724828.00000000000000000000
325530368.00000000000000000000
33292234.00000000000000000000
-5936374.00000000000000000000
85974296.00000000000000000000
-150363648.00000000000000000000
226357568.00000000000000000000
24289122.00000000000000000000
-41312804.00000000000000000000
96338904.00000000000000000000
279720224.00000000000000000000
74717936.00000000000000000000
-209614256.00000000000000000000
-293486944.00000000000000000000
-81980384.00000000000000000000
185037776.00000000000000000000
-92841416.00000000000000000000
88102800.00000000000000000000
109632104.00000000000000000000
327159904.00000000000000000000
-46594900.00000000000000000000
152323040.00000000000000000000
164896480.00000000000000000000
-75176296.00000000000000000000
188936512.00000000000000000000
-207250992.00000000000000000000
-13780886.00000000000000000000
-24748644.00000000000000000000
41511292.00000000000000000000
-33285324.00000000000000000000
53747924.00000000000000000000
95357144.00000000000000000000
4878791.50000000000000000000
-35346312.00000000000000000000
168524368.00000000000000000000
138209984.00000000000000000000
-158857632.00000000000000000000
-31694766.00000000000000000000
-4975561.50000000000000000000
115912336.00000000000000000000
-2886422.00000000000000000000
43370060.00000000000000000000
-19755368.00000000000000000000
118796240.00000000000000000000
679798208.00000000000000000000
-439042496.00000000000000000000
-156571600.00000000000000000000
-468314336.00000000000000000000
70275376.00000000000000000000
-446179808.00000000000000000000
-279350336.00000000000000000000
313714880.00000000000000000000
-70319184.00000000000000000000
-212639584.00000000000000000000
301909664.00000000000000000000
-15303771.00000000000000000000
-46960392.00000000000000000000
-151869504.00000000000000000000
-60658548.00000000000000000000
-199980912.00000000000000000000
-360938048.00000000000000000000
-863161.18750000000000000000
-238027280.00000000000000000000
-236596928.00000000000000000000
-292729728.00000000000000000000
47437852.00000000000000000000
-308748512.00000000000000000000
-406023488.00000000000000000000
19633768.00000000000000000000
-95465504.00000000000000000000
121843440.00000000000000000000
244411168.00000000000000000000
114228624.00000000000000000000
-184514928.00000000000000000000
-217633280.00000000000000000000
-419756064.00000000000000000000
-17317256.00000000000000000000
-319310944.00000000000000000000
-42755120.00000000000000000000
-505032384.00000000000000000000
-82216904.00000000000000000000
-127955896.00000000000000000000
148708368.00000000000000000000
-613352000.00000000000000000000
-285165664.00000000000000000000
-193451744.00000000000000000000
-461246080.00000000000000000000
-424073984.00000000000000000000
-97571896.00000000000000000000
-302994624.00000000000000000000
89938384.00000000000000000000
-31303202.00000000000000000000
372428896.00000000000000000000
-82588912.00000000000000000000
-384710112.00000000000000000000
-295477888.00000000000000000000
-197980304.00000000000000000000
315250624.00000000000000000000
-385690208.00000000000000000000
78162952.00000000000000000000
-364832352.00000000000000000000
-289827104.00000000000000000000
-193634352.00000000000000000000
314881600.00000000000000000000
-28776334.00000000000000000000
-158283232.00000000000000000000
-401077344.00000000000000000000
91173504.00000000000000000000
-466065536.00000000000000000000
-478305408.00000000000000000000
-302826688.00000000000000000000
-427873472.00000000000000000000
-81514080.00000000000000000000
-193521200.00000000000000000000
-290413056.00000000000000000000
325621408.00000000000000000000
-75703624.00000000000000000000
-70288784.00000000000000000000
-33684016.00000000000000000000
255381456.00000000000000000000
-490351840.00000000000000000000
75176472.00000000000000000000
416330912.00000000000000000000
-360490112.00000000000000000000
-366197312.00000000000000000000
102994320.00000000000000000000
42031020.00000000000000000000
44983904.00000000000000000000
91501760.00000000000000000000
180430928.00000000000000000000
-139399488.00000000000000000000
35766256.00000000000000000000
213378528.00000000000000000000
34280276.00000000000000000000
64727388.00000000000000000000
-36369280.00000000000000000000
490330144.00000000000000000000
211289760.00000000000000000000
510339616.00000000000000000000
559468160.00000000000000000000
-749410880.00000000000000000000
366922912.00000000000000000000
232396864.00000000000000000000
-83662168.00000000000000000000
180172544.00000000000000000000
-161202016.00000000000000000000
-201368400.00000000000000000000
12801681.00000000000000000000
75850624.00000000000000000000
184872256.00000000000000000000
869108928.00000000000000000000
-283104224.00000000000000000000
-288691968.00000000000000000000
-542095232.00000000000000000000
-198742272.00000000000000000000
176467568.00000000000000000000
-306820128.00000000000000000000
164351632.00000000000000000000
-91129024.00000000000000000000
26331488.00000000000000000000
-170782304.00000000000000000000
-107961624.00000000000000000000
-69880728.00000000000000000000
207517856.00000000000000000000
137911792.00000000000000000000
46720160.00000000000000000000
311591776.00000000000000000000
-78551088.00000000000000000000
-71340632.00000000000000000000
-153259776.00000000000000000000
652563712.00000000000000000000
-106285896.00000000000000000000
-180817696.00000000000000000000
823698944.00000000000000000000
812462912.00000000000000000000
-316213856.00000000000000000000
-254739856.00000000000000000000
-571159680.00000000000000000000
58253960.00000000000000000000
-377470176.00000000000000000000
-210754448.00000000000000000000
220027072.00000000000000000000
-91935688.00000000000000000000
-178325888.00000000000000000000
302945120.00000000000000000000
-266523776.00000000000000000000
-111000664.00000000000000000000
-149539152.00000000000000000000
-246347744.00000000000000000000
-342210432.00000000000000000000
-502063168.00000000000000000000
-16896696.00000000000000000000
-310769344.00000000000000000000
-341845056.00000000000000000000
-272977696.00000000000000000000
157319168.00000000000000000000
-452329216.00000000000000000000
-533798336.00000000000000000000
19942098.00000000000000000000
-59644892.00000000000000000000
5595059.00000000000000000000
-40999684.00000000000000000000
-99633368.00000000000000000000
-406493824.00000000000000000000
-418357120.00000000000000000000
-565772544.00000000000000000000
-1836598.37500000000000000000
-477726816.00000000000000000000
-146239504.00000000000000000000
-546330304.00000000000000000000
-70579200.00000000000000000000
-176935840.00000000000000000000
46201948.00000000000000000000
-821643904.00000000000000000000
-331331584.00000000000000000000
-348954048.00000000000000000000
-655334400.00000000000000000000
-451024992.00000000000000000000
-163614896.00000000000000000000
-471848480.00000000000000000000
239041696.00000000000000000000
-228554864.00000000000000000000
178165888.00000000000000000000
-56261128.00000000000000000000
-263333088.00000000000000000000
6053932.00000000000000000000
-392689984.00000000000000000000
224410240.00000000000000000000
-571464256.00000000000000000000
50050356.00000000000000000000
-528567904.00000000000000000000
-322144704.00000000000000000000
-96291808.00000000000000000000
223095488.00000000000000000000
-200204448.00000000000000000000
-315296480.00000000000000000000
-463132640.00000000000000000000
48885120.00000000000000000000
-329713856.00000000000000000000
66717968.00000000000000000000
-36707296.00000000000000000000
-76726896.00000000000000000000
-73580696.00000000000000000000
21770824.00000000000000000000
-4933149.50000000000000000000
216297712.00000000000000000000
20953230.00000000000000000000
75055072.00000000000000000000
-83065224.00000000000000000000
-27694764.00000000000000000000
-105985920.00000000000000000000
-84443808.00000000000000000000
-18947070.00000000000000000000
42764536.00000000000000000000
-59822836.00000000000000000000
35356888.00000000000000000000
-220977568.00000000000000000000
103259168.00000000000000000000
-102481672.00000000000000000000
111321112.00000000000000000000
95323752.00000000000000000000
117186344.00000000000000000000
54553708.00000000000000000000
70820912.00000000000000000000
66820936.00000000000000000000
-77495736.00000000000000000000
157613824.00000000000000000000
33523040.00000000000000000000
-12877304.00000000000000000000
259828032.00000000000000000000
199008464.00000000000000000000
-132845352.00000000000000000000
61658284.00000000000000000000
17506206.00000000000000000000
-90987216.00000000000000000000
-85495176.00000000000000000000
32071020.00000000000000000000
-89476200.00000000000000000000
-40385548.00000000000000000000
81697008.00000000000000000000
-43683116.00000000000000000000
-50802836.00000000000000000000
-99647648.00000000000000000000
13153337.00000000000000000000
-96978000.00000000000000000000
213016240.00000000000000000000
-68902520.00000000000000000000
80369408.00000000000000000000
126827368.00000000000000000000
-156024656.00000000000000000000
11880998.00000000000000000000
-207983344.00000000000000000000
20502642.00000000000000000000
89934632.00000000000000000000
28306258.00000000000000000000
-71658920.00000000000000000000
-1951675.62500000000000000000
166305856.00000000000000000000
19277996.00000000000000000000
-78013112.00000000000000000000
-91277376.00000000000000000000
85015016.00000000000000000000
12298810.00000000000000000000
99755656.00000000000000000000
87930144.00000000000000000000
55204208.00000000000000000000
-226301744.00000000000000000000
-36523708.00000000000000000000
46553744.00000000000000000000
77593456.00000000000000000000
-94981016.00000000000000000000
-77830632.00000000000000000000
106221416.00000000000000000000
21292144.00000000000000000000
41483712.00000000000000000000
36466692.00000000000000000000
-134499376.00000000000000000000
58384876.00000000000000000000
113936624.00000000000000000000
-73469032.00000000000000000000
73157736.00000000000000000000
4635876.00000000000000000000
-129600496.00000000000000000000
175300848.00000000000000000000
-181482208.00000000000000000000
106700744.00000000000000000000
-281396192.00000000000000000000
139855824.00000000000000000000
148482816.00000000000000000000
35458124.00000000000000000000
113245776.00000000000000000000
-2427027.25000000000000000000
386928288.00000000000000000000
37786168.00000000000000000000
-135476672.00000000000000000000
212658656.00000000000000000000
87087432.00000000000000000000
-87236016.00000000000000000000
-24725876.00000000000000000000
-154926000.00000000000000000000
38888612.00000000000000000000
88846792.00000000000000000000
127971792.00000000000000000000
-113457672.00000000000000000000
-187673408.00000000000000000000
40047120.00000000000000000000
-11689752.00000000000000000000
-65919920.00000000000000000000
-95896024.00000000000000000000
-99682848.00000000000000000000
217010560.00000000000000000000
69115544.00000000000000000000
-11263257.00000000000000000000
-51115024.00000000000000000000
-10279939.00000000000000000000
108884472.00000000000000000000
302483776.00000000000000000000
-78691464.00000000000000000000
69570840.00000000000000000000
82241600.00000000000000000000
-5762710.50000000000000000000
-8440137.00000000000000000000
199191184.00000000000000000000
-77776648.00000000000000000000
-95882456.00000000000000000000
-124689592.00000000000000000000
62291388.00000000000000000000
196497472.00000000000000000000
-98383232.00000000000000000000
-196016864.00000000000000000000
-238488592.00000000000000000000
-536488672.00000000000000000000
-123059448.00000000000000000000
-18400214.00000000000000000000
-239106816.00000000000000000000
182090384.00000000000000000000
-267045744.00000000000000000000
98359928.00000000000000000000
-16077643.00000000000000000000
11517121.00000000000000000000
-42171860.00000000000000000000
-216823936.00000000000000000000
458841088.00000000000000000000
138988176.00000000000000000000
-355979392.00000000000000000000
681901184.00000000000000000000
-134111560.00000000000000000000
63864044.00000000000000000000
109319112.00000000000000000000
353018944.00000000000000000000
-8237764.00000000000000000000
133206416.00000000000000000000
528550112.00000000000000000000
53095016.00000000000000000000
70538088.00000000000000000000
316639712.00000000000000000000
481288608.00000000000000000000
506723360.00000000000000000000
312531456.00000000000000000000
-91659976.00000000000000000000
-53203588.00000000000000000000
227508304.00000000000000000000
230612672.00000000000000000000
13455203.00000000000000000000
231931872.00000000000000000000
-4050314.00000000000000000000
42770432.00000000000000000000
-68518880.00000000000000000000
200827936.00000000000000000000
356702912.00000000000000000000
785449600.00000000000000000000
-128397752.00000000000000000000
136931456.00000000000000000000
-669506560.00000000000000000000
-231172816.00000000000000000000
-68652744.00000000000000000000
52179300.00000000000000000000
20877620.00000000000000000000
-5885365.00000000000000000000
155791776.00000000000000000000
-173819584.00000000000000000000
96317024.00000000000000000000
-265315296.00000000000000000000
154128656.00000000000000000000
163524208.00000000000000000000
133708728.00000000000000000000
356566240.00000000000000000000
106094280.00000000000000000000
-266900032.00000000000000000000
-50949244.00000000000000000000
617139328.00000000000000000000
68017472.00000000000000000000
51573360.00000000000000000000
368741056.00000000000000000000
-448675936.00000000000000000000
423967008.00000000000000000000
-60533700.00000000000000000000
-160048528.00000000000000000000
-75704976.00000000000000000000
355702784.00000000000000000000
-216601312.00000000000000000000
99502256.00000000000000000000
239466320.00000000000000000000
89530160.00000000000000000000
157629696.00000000000000000000
226954976.00000000000000000000
-186155712.00000000000000000000
153250288.00000000000000000000
76552648.00000000000000000000
95420272.00000000000000000000
785931584.00000000000000000000
-81350904.00000000000000000000
-120490344.00000000000000000000
253799312.00000000000000000000
214007760.00000000000000000000
168687088.00000000000000000000
-18975060.00000000000000000000
79439232.00000000000000000000
8323815.00000000000000000000
-272116128.00000000000000000000
221076304.00000000000000000000
-26289884.00000000000000000000
-122370864.00000000000000000000
-2176055.50000000000000000000
-278421600.00000000000000000000
-39567592.00000000000000000000
-5446655.50000000000000000000
-85357736.00000000000000000000
72941544.00000000000000000000
335740000.00000000000000000000
-217050192.00000000000000000000
-214454960.00000000000000000000
145654208.00000000000000000000
206862480.00000000000000000000
168626016.00000000000000000000
138682640.00000000000000000000
79518296.00000000000000000000
274506688.00000000000000000000
-2077973.75000000000000000000
-270594208.00000000000000000000
-851620.43750000000000000000
46913740.00000000000000000000
134133592.00000000000000000000
-275791136.00000000000000000000
40657676.00000000000000000000
143430288.00000000000000000000
-136994688.00000000000000000000
103391128.00000000000000000000
159272928.00000000000000000000
69702704.00000000000000000000
-15326564.00000000000000000000
382774880.00000000000000000000
50497176.00000000000000000000
102599376.00000000000000000000
-154042992.00000000000000000000
287233344.00000000000000000000
-90068920.00000000000000000000
230205712.00000000000000000000
131751120.00000000000000000000
554790080.00000000000000000000
61966296.00000000000000000000
-163387648.00000000000000000000
166269040.00000000000000000000
250267456.00000000000000000000
199049536.00000000000000000000
326295008.00000000000000000000
23159300.00000000000000000000
32320672.00000000000000000000
-107827448.00000000000000000000
-192093088.00000000000000000000
421727296.00000000000000000000
460536192.00000000000000000000
22675370.00000000000000000000
-203223280.00000000000000000000
-347775072.00000000000000000000
596767296.00000000000000000000
263547920.00000000000000000000
-62383548.00000000000000000000
397107104.00000000000000000000
-85510904.00000000000000000000
-370990208.00000000000000000000
-80249128.00000000000000000000
53622740.00000000000000000000
-239880720.00000000000000000000
92053536.00000000000000000000
-235150480.00000000000000000000
-581977920.00000000000000000000
-65339848.00000000000000000000
-167563680.00000000000000000000
-322564000.00000000000000000000
-744138432.00000000000000000000
212987696.00000000000000000000
-9030416.00000000000000000000
202534544.00000000000000000000
507289088.00000000000000000000
380034400.00000000000000000000
42543616.00000000000000000000
369789248.00000000000000000000
66169704.00000000000000000000
-80777376.00000000000000000000
-135119696.00000000000000000000
198905568.00000000000000000000
197214672.00000000000000000000
-390741792.00000000000000000000
415060928.00000000000000000000
-174433792.00000000000000000000
-27412912.00000000000000000000
-529307808.00000000000000000000
134967728.00000000000000000000
502601600.00000000000000000000
54330660.00000000000000000000
-42981984.00000000000000000000
22466712.00000000000000000000
111121776.00000000000000000000
15456753.00000000000000000000
382777152.00000000000000000000
314967392.00000000000000000000
-164579312.00000000000000000000
17166586.00000000000000000000
-289080.25000000000000000000
-487624608.00000000000000000000
-129665544.00000000000000000000
-566377344.00000000000000000000
99976000.00000000000000000000
594052672.00000000000000000000
47152988.00000000000000000000
-593819904.00000000000000000000
-454963744.00000000000000000000
74171608.00000000000000000000
-11235281.00000000000000000000
-175775648.00000000000000000000
-147161168.00000000000000000000
-261452592.00000000000000000000
371177184.00000000000000000000
124167808.00000000000000000000
-22081248.00000000000000000000
86038544.00000000000000000000
-398070016.00000000000000000000
-92922304.00000000000000000000
-210922544.00000000000000000000
-96635376.00000000000000000000
110884752.00000000000000000000
83175080.00000000000000000000
-344968704.00000000000000000000
-400530592.00000000000000000000
164621280.00000000000000000000
-284759840.00000000000000000000
-456897728.00000000000000000000
-338578400.00000000000000000000
-159026272.00000000000000000000
-286168576.00000000000000000000
-217556784.00000000000000000000
-141314032.00000000000000000000
-157342608.00000000000000000000
-286086592.00000000000000000000
-481256544.00000000000000000000
-72778176.00000000000000000000
-891368384.00000000000000000000
-54192048.00000000000000000000
-460042400.00000000000000000000
-62079744.00000000000000000000
-87657152.00000000000000000000
131007488.00000000000000000000
-448805792.00000000000000000000
-434587392.00000000000000000000
-253849936.00000000000000000000
-543649088.00000000000000000000
-82523504.00000000000000000000
-473249632.00000000000000000000
-335067488.00000000000000000000
669021568.00000000000000000000
-128931912.00000000000000000000
801195.87500000000000000000
46346700.00000000000000000000
-547812160.00000000000000000000
