0
804654976080019456.000000
353129599737004032.000000
101153068300632064.000000
-1381092020163969024.000000
1112392200336965632.000000
-852053410524954624.000000
1493070544944234496.000000
-2224758287272771584.000000
1793827657071198208.000000
575218956999065600.000000
440907358193844224.000000
-615805195355422720.000000
499784522234068992.000000
953584856854429696.000000
-1512159578630914048.000000
146424007875362816.000000
-1374006080039813120.000000
-1665402499923705856.000000
1307768888242470912.000000
-1904907605973663744.000000
-675292897586708480.000000
-1868393924326850560.000000
-1182165902565572608.000000
-1552614184829583360.000000
-1106373267528089600.000000
-1872202907483373568.000000
-747533010554847232.000000
-314497193543204864.000000
-856159399259930624.000000
-796011440296165376.000000
462309283309027328.000000
1222210116049174528.000000
129750575465103360.000000
-409116353866235904.000000
436845178125287424.000000
3322629918294016.000000
-290794643426115584.000000
145765245791502336.000000
-191441587329302528.000000
-261757589308571648.000000
-89184102548242432.000000
-120697299801210880.000000
-180162556533407744.000000
34270445997916160.000000
-431926650297384960.000000
-101936693673721856.000000
265400391590477824.000000
-99054306761637888.000000
-95688830518034432.000000
-101215955211780096.000000
48906195599097856.000000
-184039125295300608.000000
804654976080019456.000000
353129599737004032.000000
101153068300632064.000000
-1381092020163969024.000000
1112392200336965632.000000
-852053410524954624.000000
1493070544944234496.000000
-2224758287272771584.000000
1793827657071198208.000000
575219025718542336.000000
440907289474367488.000000
-615805332794376192.000000
499784522234068992.000000
-587184357928599552.000000
222251174449905664.000000
-88705041896046592.000000
4994090665009741824.000000
301352772551311360.000000
-86049566696144896.000000
-11050115481468928.000000
532590959909666816.000000
35866234654294016.000000
-653036087148544.000000
194131645605871616.000000
711643439195750400.000000
378131325921525760.000000
6242760940698206208.000000
-4440212232273395712.000000
1233698363291992064.000000
27066528207380414464.000000
-5342273561933381632.000000
3793557283263217664.000000
-6096355469901692928.000000
-2320804063932841984.000000
-6449748952429363200.000000
-5302483885391609856.000000
-4416436942590181376.000000
-119452618278830080.000000
-6408747614073782272.000000
-495269549533298688.000000
-10619430119669760.000000
-141455357779116032.000000
-139727415126523904.000000
-99361431283040256.000000
-82841432284463104.000000
-30351999157403648.000000
45147747027779584.000000
-31588530979340288.000000
-70498297571180544.000000
-15603678463393792.000000
58007832594743296.000000
123615120193486848.000000
-614693795258171392.000000
137792429280460800.000000
-189546235441446912.000000
-1261369909867184128.000000
144736446505287680.000000
-885355624865464320.000000
15380379892449280.000000
443648234523459584.000000
-124208615954317312.000000
-29976069259919360.000000
92143807461588992.000000
402283782452805632.000000
42074715107360768.000000
-214044110422540288.000000
174778574509703168.000000
-136011478141501440.000000
-137522731104075776.000000
76582118745964544.000000
83155574782427136.000000
40068054847062016.000000
-8793419405066240.000000
-19457062991822848.000000
128356892937289728.000000
167486699293638656.000000
-39016384859996160.000000
167947755442929664.000000
2197675116857393152.000000
-260695546975485952.000000
929172331463442432.000000
7840588280612519936.000000
-334931651505160192.000000
-629796755696779264.000000
-80942403904602112.000000
-732181491768885248.000000
-62369552272457728.000000
-534209063068631040.000000
-154205457823563776.000000
73106021324685312.000000
-219428607842320384.000000
-151019330824306688.000000
185242592311508992.000000
37732537530843136.000000
-381794417628938240.000000
158960811253956608.000000
651623916934004736.000000
184023921111072768.000000
-156586673591812096.000000
161409320569798656.000000
138413610400481280.000000
174019481989808128.000000
31291271997816832.000000
198600267019583488.000000
-1086427508124942336.000000
-118224807387987968.000000
-1061627885921501184.000000
-1220675610133659648.000000
326018769732239360.000000
-1510534088128200704.000000
93927232501710848.000000
1271286130360188928.000000
89110400909443072.000000
-250439783547928576.000000
-160713587407454208.000000
1288016024410521600.000000
-86263026570756096.000000
381105573594136576.000000
-1187545538082373632.000000
-352942373522636800.000000
-952384533754281984.000000
-1149663376775839744.000000
587428037193105408.000000
-1280834976530563072.000000
-347156846416494592.000000
-1200417658147700736.000000
-898942152610938880.000000
-1165677076439629824.000000
-649132492304941056.000000
-1377968582507364352.000000
-339757442399207424.000000
-111452099228729344.000000
-694480337564073984.000000
-243933045533442048.000000
379164763772420096.000000
-276379633669111808.000000
-111797526268477440.000000
65899452749053952.000000
66466474331471872.000000
110658646970466304.000000
-129944003612246016.000000
15261257900752896.000000
-180235708416393216.000000
3491326825555034112.000000
1009177401705365504.000000
848461649634394112.000000
319700563602178048.000000
1605510452291305472.000000
-3299010971862827008.000000
1959726644394459136.000000
-1287252138707124224.000000
2190710260451246080.000000
1078113001195700224.000000
1155471272071659520.000000
351805169261871104.000000
672048719809478656.000000
224494521767952384.000000
86800988404449280.000000
7366004204109824.000000
311930795965022208.000000
212956521623977984.000000
1235755137230700544.000000
145972486553468928.000000
146327749068324864.000000
206480552755200000.000000
122233412034494464.000000
110421556185792512.000000
163434638168031232.000000
83746914469675008.000000
602413281168064512.000000
-599623270412582912.000000
263543917746585600.000000
6470584697775718400.000000
-864295166830182400.000000
3287840483480436736.000000
-1150245018426933248.000000
-100104254466818048.000000
-1173781714086920192.000000
-893526714246758400.000000
-638251244200132608.000000
158260491066540032.000000
-778253090557001728.000000
-76427946599907328.000000
-507641220009295872.000000
-148614389656715264.000000
-906905159416676352.000000
-492526233662259200.000000
1158973354045079552.000000
-603901263997829120.000000
-161237367259136000.000000
-596651359202181120.000000
-368685215368871936.000000
-507401354675748864.000000
-705686216476983296.000000
-681736997798150144.000000
911194010679246848.000000
486039870972624896.000000
220367126915973120.000000
3680577240829001728.000000
723570047980666880.000000
412252779503943680.000000
506265112487657472.000000
770160135220756480.000000
624302427373305856.000000
356448235067277312.000000
487799364454973440.000000
1127045048202952704.000000
422690443386421248.000000
493473875246448640.000000
171560149356380160.000000
334115951316303872.000000
-358711442314100736.000000
197991446815440896.000000
-653947940917739520.000000
383817072347447296.000000
-959084270419181568.000000
553493500587409408.000000
293491745449050112.000000
181875458210529280.000000
115704924305620992.000000
212632973147635712.000000
2121305925410095104.000000
265325624799789056.000000
811951197802987520.000000
3490967285252751360.000000
205461288296382464.000000
-1383740468797374464.000000
51824612991827968.000000
-661869647317958656.000000
192029688611209216.000000
267954831979708416.000000
281409950905794560.000000
1085207943571308544.000000
60850568368750592.000000
-1194252009255993344.000000
-357268917418196992.000000
-1221570200281808896.000000
-1390257549093109760.000000
277225587607601152.000000
-1348714701260849152.000000
180823019424317440.000000
382694917652086784.000000
235455347026821120.000000
-359353728903413760.000000
-350359586349252608.000000
509840586862231552.000000
-336770275464970240.000000
-295398745288212480.000000
141601979372666880.000000
-27056642549874688.000000
-235085893940019200.000000
-98984839960592384.000000
-16698428046180352.000000
-158057184494616576.000000
-127147266937978880.000000
-171694736451567616.000000
55005912447844352.000000
111513044814659584.000000
647054896364781568.000000
197237439536824320.000000
413670256150577152.000000
-251521342212407296.000000
-13897762550579200.000000
22089152094797824.000000
-254855405065207808.000000
-197714283985895424.000000
-336748216512937984.000000
-371919291383021568.000000
-288217130472570880.000000
-216666875151515648.000000
-251408796889382912.000000
-51445702387040256.000000
-279492454166560768.000000
-646677857828864.000000
-406234946206695424.000000
28294357635301376.000000
-708625485935935488.000000
-601553188197236736.000000
1506450364503687168.000000
-350606598508380160.000000
537267492100243456.000000
-541691686372245504.000000
-478253645020790784.000000
-363686938588217344.000000
-745435004930097152.000000
-370481954807611392.000000
-2931145442412462080.000000
-365975262803787776.000000
-1575528419469295616.000000
-681866534011797504.000000
-140886360511741952.000000
-716591447679172608.000000
129011428773330944.000000
352572181701459968.000000
34694956270485504.000000
-679819999275122688.000000
-407852705768275968.000000
-397315639162699776.000000
31966563263315968.000000
-148607998745378816.000000
-114775596461981696.000000
-36297855245221888.000000
-146717697739063296.000000
-49513491089850368.000000
-860684164486135808.000000
292576436378664960.000000
-507800374317416448.000000
289509073815076864.000000
-132281324814729216.000000
-46490465473658880.000000
-252823456037470208.000000
125886642496995328.000000
-1561622071279091712.000000
-110328948100956160.000000
-748776695644815360.000000
14667969999159689216.000000
112855033116098560.000000
2528175255466278912.000000
75543647193399296.000000
-12641170010144768.000000
-40157016504664064.000000
-952857667351609344.000000
-82355594173874176.000000
1047372648947908608.000000
176440159917572096.000000
-794818401460551680.000000
-126525286954041344.000000
-553163681458814976.000000
9198662712043765760.000000
59089812166017024.000000
1677721153323401216.000000
-99065559575953408.000000
-246149832773730304.000000
-88424288473841664.000000
-646672678635175936.000000
-153289238220111872.000000
1024586851010215936.000000
38106088016445440.000000
-335074210059649024.000000
239040493667745792.000000
-1030917701523996672.000000
3333502376748253184.000000
107597890066579456.000000
-2834722945580924928.000000
-1227626447766552576.000000
1388771696567123968.000000
-1100711401120333824.000000
-24778271921012736.000000
-41549217268760576.000000
2427535306908499968.000000
-418909841373790208.000000
-550445276398092288.000000
-75907113095790592.000000
-129684458738548736.000000
-536824595072679936.000000
-332077216240238592.000000
-233355571875545088.000000
-173070964232290304.000000
699242116265541632.000000
-284819811341434880.000000
-241530303389106176.000000
-85723389699817472.000000
206873044046577664.000000
-42422311105593344.000000
490057486460518400.000000
-1316476608017596416.000000
-141038574152712192.000000
-1000071796159938560.000000
-1543909351272480768.000000
483840778997596160.000000
-1724649821425369088.000000
-101876091685175296.000000
-1821670727460323328.000000
-1146970397921509376.000000
-1331622793007071232.000000
-1179739967597838336.000000
-1800517360692494336.000000
-115705894968229888.000000
-16096859894317056.000000
65811723747065856.000000
33722171947745280.000000
-1833332425883648.000000
-159926079383928832.000000
82601489641504768.000000
-163838347913986048.000000
68540458204135424.000000
-69114716806447104.000000
-5372038793396224.000000
2972395199528960.000000
24061600793100288.000000
-1995534164698333184.000000
55928029041393664.000000
-763954079276728320.000000
2827647863134093312.000000
595717186635431936.000000
3371174668772835328.000000
849023912393048064.000000
-693539499208081408.000000
839885115340357632.000000
-53863098959790080.000000
118416680756969472.000000
-1150360948184186880.000000
302547151416721408.000000
95116371507019776.000000
151815978538237952.000000
-103771443573030912.000000
-391848248874106880.000000
337685447096401920.000000
783972818764169216.000000
194459678028070912.000000
-146208503596318720.000000
248106224736796672.000000
222716405307408384.000000
153461019732082688.000000
-113852238622883840.000000
111109919184257024.000000
12168999559233536.000000
-95385631596740608.000000
-100066647733174272.000000
-62940473685180416.000000
209608147940147200.000000
-385112709361827840.000000
259071293423353856.000000
-435696051035308032.000000
384478153713647616.000000
24333764280713216.000000
-76936986123829248.000000
-193032803992993792.000000
-89373579325472768.000000
-223029302264856576.000000
-96097101519257600.000000
-271530254814674944.000000
-394089568967589888.000000
-96507408334979072.000000
-134621257357328384.000000
-262750706006491136.000000
601485430793175040.000000
-296174725619515392.000000
-149182476391022592.000000
-121678459310178304.000000
95151057662902272.000000
-259179732757643264.000000
631112802395750400.000000
377412520194867200.000000
376322079538020352.000000
-676488479042961408.000000
512737800001421312.000000
-667052126656004096.000000
726013231537061888.000000
-1461531603657293824.000000
850008525055721472.000000
356641130638475264.000000
389862427795128320.000000
-277317001691529216.000000
321257540786585600.000000
911194010679246848.000000
486039870972624896.000000
220367126915973120.000000
3680577790584815616.000000
723570185419620352.000000
412252916942897152.000000
506265078127919104.000000
770160135220756480.000000
624302221214875648.000000
356448372506230784.000000
487799227016019968.000000
1127045323080859648.000000
422691027501973504.000000
-1726452058422247424.000000
-960083863927783424.000000
-1223022105386287104.000000
16577275239327596544.000000
-953513869634961408.000000
1050556765902471168.000000
-953564515889315840.000000
188498246241353728.000000
-1173754501174132736.000000
-1990957584986669056.000000
-1001926740995473408.000000
1408985393210064896.000000
-839940640677560320.000000
-64536870079430656.000000
103923305026682880.000000
-169936205041893376.000000
-586458955132174336.000000
461403045209571328.000000
-366135825861181440.000000
522356052843298816.000000
-784402590371676160.000000
686904702448697344.000000
207792785523212288.000000
110955987556368384.000000
-68311819915100160.000000
288815831733764096.000000
-58556390112755712.000000
578859199480463360.000000
379669680127737856.000000
-1109597585376542720.000000
757619930228064256.000000
-430690764868026368.000000
1381969842759794688.000000
-1880299848549269504.000000
1441497539726540800.000000
535928390016827392.000000
651243760788701184.000000
-1092981353340731392.000000
883502672894754816.000000
-813322151363870720.000000
-244610482135105536.000000
-434268472625594368.000000
-857844813146357760.000000
139123766063005696.000000
-239866518957981696.000000
603365870554578944.000000
-294795663160377344.000000
718702647443456000.000000
-160698280144011264.000000
-178772361519038464.000000
-109374168281120768.000000
312489450951147520.000000
-863421604841914368.000000
25232892061810688.000000
-375813040014098432.000000
-924828573338959872.000000
409243691056627712.000000
1872870173602480128.000000
148681099088756736.000000
73530140755230720.000000
427675800905449472.000000
231815791740190720.000000
-10738015240454144.000000
43541154381168640.000000
344264203122507776.000000
-256452016207822848.000000
86606108558360576.000000
242419980094668800.000000
-406853558936272896.000000
-104798052425924608.000000
-195191145318318080.000000
198598600572272640.000000
-78492271091122176.000000
112167597830569984.000000
-81351894676537344.000000
104220448044089344.000000
-13537903346974720.000000
258974519220240384.000000
458885885136470016.000000
81175337160933376.000000
403215068801531904.000000
29197756761374720.000000
69622888746975232.000000
-271901099470880768.000000
447050157859536896.000000
-1265244726282420224.000000
483370943935152128.000000
51089099842387968.000000
111260552277262336.000000
-445354607850291200.000000
249563953816928256.000000
-689543942672220160.000000
33135097163022336.000000
-318499656386478080.000000
-503015608950980608.000000
255668648532770816.000000
440464907842879488.000000
297630891331551232.000000
-376814935625170944.000000
411266139616706560.000000
179483659642863616.000000
39547672314511360.000000
-475836952822677504.000000
149916434762301440.000000
72687442401951744.000000
195028056820154368.000000
26842819750526976.000000
-612445568857276416.000000
350746202125369344.000000
624680796812214272.000000
398627459613851648.000000
-362713389761298432.000000
483418532172791808.000000
243355853468467200.000000
199711134540890112.000000
-297637591480532992.000000
164673667513450496.000000
169694449922736128.000000
-413141803374477312.000000
-123070329361793024.000000
-1124782734309326848.000000
-253098763441143808.000000
1422016117827698688.000000
-298931544867733504.000000
-352698281941270528.000000
-248723428717101056.000000
-230753285550637056.000000
-391662637567442944.000000
-695409150011637760.000000
-595922932748779520.000000
139631620175953920.000000
-106087118140342272.000000
-86201806106918912.000000
1078822323634569216.000000
139987818993680384.000000
414104116566949888.000000
-3681843803062272.000000
-41663910075432960.000000
136603505023516672.000000
7500757192409088.000000
-106113884376530944.000000
348421490946867200.000000
-100915745587724288.000000
-922655457326137344.000000
95744038027657216.000000
-126122204273311744.000000
-267354447091335168.000000
135530227055984640.000000
-207085936985505792.000000
237352056124342272.000000
175429055896616960.000000
169525932585910272.000000
93140179744718848.000000
91856817746870272.000000
-630226389865332736.000000
153924773120835584.000000
6242760940698206208.000000
-4440212232273395712.000000
1233698363291992064.000000
27066528207380414464.000000
-5342273561933381632.000000
3793557283263217664.000000
-6096355469901692928.000000
-2320804063932841984.000000
-6449748952429363200.000000
-5302483885391609856.000000
-4416436942590181376.000000
-119452618278830080.000000
-6408747614073782272.000000
-495913554109530112.000000
-224664361954705408.000000
-771799850655154176.000000
-392624194845671424.000000
106305809285120000.000000
-1021177196733005824.000000
282754825425256448.000000
-290184929868775424.000000
251792801325383680.000000
-300945918889295872.000000
-151171544465276928.000000
177139844449828864.000000
-109282582398500864.000000
579365387146100736.000000
145554878293344256.000000
-74485126733496320.000000
-119242199241064448.000000
316118251639668736.000000
-1140399716433920000.000000
149022291290750976.000000
-499465079746461696.000000
381286821214027776.000000
327275580242264064.000000
125888764210839552.000000
430927400386166784.000000
97698617514524672.000000
-538922566337691648.000000
-83670060324880384.000000
-512627470881521664.000000
34959193395953664.000000
441998348606504960.000000
-290842231663755264.000000
280877237522137088.000000
717164293237243904.000000
409075843734700032.000000
49225968799186944.000000
-62922361808093184.000000
180987928988614656.000000
125562441185624064.000000
-212648795807154176.000000
580590380538396672.000000
111941218694332416.000000
157349923640049664.000000
665717731856744448.000000
-248405051381383168.000000
917420888624726016.000000
-442772095554813952.000000
905428240422666240.000000
403433459298598912.000000
618936329593421824.000000
-109075212787515392.000000
663897009320624128.000000
123295969763655680.000000
-8807448915738624.000000
-385473658413383680.000000
-115950733873905664.000000
438374427000832000.000000
-113228918609149952.000000
-100026077472096256.000000
-34810147293364224.000000
59181501127852032.000000
235946416407576576.000000
-16381267259949056.000000
-76822001259380736.000000
-270792946368905216.000000
6242758741674950656.000000
-4440211132761767936.000000
1233697813536178176.000000
27066528207380414464.000000
-5342272462421753856.000000
3793557558141124608.000000
-6096354370390065152.000000
-2320803789054935040.000000
-6449748952429363200.000000
-5302483885391609856.000000
-4416436392834367488.000000
-119451828004847616.000000
-6408748713585410048.000000
-146572957341188096.000000
-31672701600923648.000000
-39916713084452864.000000
-22240107310350336.000000
-48403873404026880.000000
9282640876142592.000000
36497399425794048.000000
4224833969717248.000000
76725278595874816.000000
-21057062863634432.000000
-32226874788675584.000000
56429036976472064.000000
53741263622504448.000000
434509162592862208.000000
420560311406297088.000000
377295490925985792.000000
-177459304117305344.000000
254589958906445824.000000
201592502015229952.000000
427428548228153344.000000
-48230184926576640.000000
394251403335303168.000000
339509949203742720.000000
427378554808827904.000000
-28667132879306752.000000
426832475486945280.000000
129737089267793920.000000
-418645649345478656.000000
-673621090156675072.000000
-127921409023279104.000000
203526353989926912.000000
-1120007692748849152.000000
52192721753866240.000000
-623879046677135360.000000
303748299150589952.000000
-220104206197981184.000000
-414971184564666368.000000
475422746176651264.000000
-355807494666190848.000000
-37910804443430912.000000
7350580976549888.000000
76616323865509888.000000
-323229892848123904.000000
-43216403313983488.000000
470680071489716224.000000
-16747808358924288.000000
-61108536989450240.000000
53397168022618112.000000
19814608281796608.000000
-17366523093975040.000000
29393426881445888.000000
30305892683481088.000000
163148971303239680.000000
413016905725509632.000000
-88054053702991872.000000
1940236701280501760.000000
616178067236192256.000000
1172722884389371904.000000
529844757820604416.000000
-241671659352752128.000000
607181313341915136.000000
242396512393363456.000000
431089200394141696.000000
616471293243424768.000000
479836048411590656.000000
201070144.000000
566251968.000000
629890624.000000
293707936.000000
254025264.000000
566251968.000000
-89918856.000000
659577408.000000
247030544.000000
-325143200.000000
1288898.500000
280094688.000000
108491016.000000
-312927168.000000
519241344.000000
-1662331.500000
802401856.000000
-132933160.000000
-13125106.000000
174048400.000000
-227535440.000000
175082672.000000
190186192.000000
-431688384.000000
-100645496.000000
168558832.000000
-121296168.000000
-265255088.000000
-24631706.000000
63634564.000000
235993808.000000
-276629216.000000
-493503200.000000
377734112.000000
261743072.000000
650182336.000000
51646676.000000
217534304.000000
33965852.000000
50399180.000000
-227535440.000000
-37398028.000000
69507176.000000
374105440.000000
715041536.000000
70311024.000000
-21100498.000000
68243048.000000
163547648.000000
263190176.000000
42652092.000000
-30626850.000000
-741292864.000000
659577408.000000
-57703380.000000
-79528816.000000
314357952.000000
503942560.000000
207688400.000000
659577408.000000
93111504.000000
110976472.000000
-23379250.000000
48433492.000000
340583072.000000
1115447680.000000
-153143312.000000
-516004288.000000
-292414784.000000
-149605904.000000
-153143312.000000
-585325824.000000
118027272.000000
10716494.000000
-180897648.000000
487097024.000000
-197894640.000000
-33656484.000000
-565649536.000000
-75484536.000000
-15963546.000000
-533358176.000000
-169888176.000000
-210501744.000000
-255593072.000000
-700298432.000000
56582828.000000
-570750080.000000
-589133312.000000
37314048.000000
319857696.000000
99687376.000000
-30894470.000000
271815200.000000
-561221312.000000
-591578624.000000
-504327008.000000
-20447420.000000
-132656408.000000
316163488.000000
-756548096.000000
-35258304.000000
230067856.000000
-433916.218750
-261680816.000000
-700298432.000000
-496164768.000000
-321760384.000000
-60337072.000000
-538820544.000000
-399376896.000000
13574850.000000
488995424.000000
450285728.000000
96032904.000000
-217717296.000000
-240600912.000000
-275131904.000000
118027272.000000
61294472.000000
-565717248.000000
-832127040.000000
-672105664.000000
47044876.000000
118027272.000000
124762552.000000
-753420928.000000
-177092784.000000
400733856.000000
-781913984.000000
620717184.000000
120309144.000000
178575216.000000
200543440.000000
-102061056.000000
120309144.000000
153235344.000000
426516736.000000
-158313424.000000
-212620560.000000
-226927584.000000
865702656.000000
-5626666.500000
-346746048.000000
604536320.000000
106888928.000000
8284942.500000
-57817424.000000
2710925.500000
-81481928.000000
20298478.000000
-338956800.000000
151259728.000000
-468789472.000000
-316415744.000000
-69443280.000000
77937192.000000
-445044736.000000
518042176.000000
320299584.000000
-51162880.000000
-260612912.000000
-746472192.000000
-63518824.000000
-424728192.000000
376317632.000000
-147766656.000000
-334681984.000000
-112515496.000000
131231592.000000
20298478.000000
233994096.000000
406334080.000000
88263264.000000
621109504.000000
367442240.000000
-134887312.000000
94710320.000000
-294968000.000000
21610074.000000
-209513232.000000
-286249088.000000
-411486912.000000
426516736.000000
-20891834.000000
-291966144.000000
303797888.000000
449091904.000000
-148581104.000000
426516864.000000
-19596838.000000
134147840.000000
-121902096.000000
-363213152.000000
129073768.000000
705108480.000000
-402640960.000000
-685813696.000000
-41892732.000000
-75857928.000000
-402640960.000000
63146292.000000
545734528.000000
157497056.000000
-418831744.000000
-53558640.000000
-319890656.000000
-201423200.000000
-370304896.000000
-631437312.000000
178738432.000000
-375781664.000000
17317332.000000
-194920608.000000
189982560.000000
-153181760.000000
91552104.000000
-483359168.000000
-243735776.000000
356218688.000000
-114822568.000000
5820714.500000
-303619008.000000
-183074848.000000
-122202536.000000
-251061216.000000
-396945408.000000
-122239376.000000
25307860.000000
-35140764.000000
-86012152.000000
-208250464.000000
-184402912.000000
72423672.000000
-311849312.000000
-153181760.000000
-39290556.000000
-628084288.000000
-158799904.000000
-666089472.000000
51540788.000000
-230302560.000000
-98633752.000000
-71958608.000000
-62437760.000000
-106795776.000000
25655914.000000
-120079936.000000
545734528.000000
29854358.000000
38320740.000000
279773312.000000
-373447680.000000
-380426944.000000
545734528.000000
-165557472.000000
-468484224.000000
430870464.000000
-377660032.000000
-468239744.000000
98368160.000000
-18100192.000000
-150659568.000000
-11540318.000000
264569280.000000
-18100192.000000
-9341584.000000
-99938864.000000
-12669865.000000
56797404.000000
-288705024.000000
-179323024.000000
15518602.000000
-167756624.000000
129536120.000000
-68984248.000000
107936832.000000
-163376432.000000
10602514.000000
-131957432.000000
33466858.000000
60287572.000000
213762288.000000
178166512.000000
69809760.000000
64291052.000000
3619030.500000
85957328.000000
-41877884.000000
160845008.000000
194086832.000000
204605744.000000
-14754966.000000
-145274832.000000
-167834048.000000
-81564296.000000
104270400.000000
170698032.000000
132136608.000000
102935056.000000
33466858.000000
14394726.000000
-37952988.000000
49667740.000000
56193252.000000
-581712.375000
-56642532.000000
28118926.000000
74863800.000000
-128913920.000000
-133573224.000000
-39641684.000000
166349088.000000
-99938864.000000
-38806564.000000
-94424920.000000
57246492.000000
-47480332.000000
57385308.000000
-99938864.000000
-193806608.000000
-135032064.000000
-62803452.000000
-7292827.000000
-25073122.000000
-22289898.000000
-14741777.000000
-196726144.000000
-92053408.000000
81764624.000000
-14741777.000000
-165263296.000000
-3442842.000000
35678136.000000
63671228.000000
71349232.000000
35267376.000000
13179643.000000
69258272.000000
-25783620.000000
17138914.000000
-278795.250000
-10361863.000000
-65406740.000000
29640828.000000
-49024832.000000
-42720120.000000
-53810000.000000
148868208.000000
56851056.000000
336472.875000
-121701600.000000
-50964136.000000
18445428.000000
3872954.250000
-16786612.000000
31513340.000000
-11937309.000000
-113699424.000000
32058624.000000
11127434.000000
35323160.000000
52086744.000000
18561832.000000
76885376.000000
-49024832.000000
19061374.000000
103391888.000000
70115392.000000
37932296.000000
-166731904.000000
-47895520.000000
-3563010.000000
-73725920.000000
-90792320.000000
-161434048.000000
-69240208.000000
163142688.000000
-3442842.000000
-57175736.000000
134001224.000000
-54879040.000000
-242990496.000000
-98131120.000000
-3442842.000000
122913744.000000
-66673536.000000
83950336.000000
62687272.000000
-154212896.000000
-167010848.000000
45919884.000000
-41550572.000000
-243332704.000000
176294080.000000
45919884.000000
-224983568.000000
-174926272.000000
-32137064.000000
-28381028.000000
70378680.000000
-88222224.000000
-107000856.000000
46246760.000000
200252432.000000
56998732.000000
251022288.000000
99351392.000000
33493024.000000
121971040.000000
-24692402.000000
-6296753.000000
-103196192.000000
131833264.000000
-190862608.000000
11332093.000000
33788660.000000
-57984224.000000
164509968.000000
442185824.000000
47587388.000000
354401632.000000
8268070.500000
-9736472.000000
152984464.000000
-52180984.000000
-161299792.000000
139755216.000000
22587070.000000
131418632.000000
-24692402.000000
172808976.000000
-17844782.000000
-163272144.000000
41496064.000000
-174490128.000000
94091840.000000
-177611360.000000
4072146.000000
12973645.000000
-49426868.000000
-120998640.000000
157333456.000000
-174926272.000000
-45285284.000000
84943792.000000
-161652352.000000
136769424.000000
-141297792.000000
-174926272.000000
-4097366.500000
-38743892.000000
40566092.000000
143796208.000000
142579712.000000
2030428416.000000
1093410688.000000
1224347776.000000
288589536.000000
9366285.000000
1093410688.000000
-583664000.000000
1393992448.000000
324171648.000000
-985485440.000000
160772880.000000
479588448.000000
336986080.000000
19056292.000000
838674176.000000
64453308.000000
688653440.000000
-66631608.000000
-80555176.000000
220824688.000000
-201625104.000000
586808832.000000
65844296.000000
-5304239.000000
239779376.000000
96621248.000000
243104112.000000
-41400660.000000
423078112.000000
143930096.000000
564437376.000000
315981344.000000
-574019200.000000
464591584.000000
370051520.000000
139343904.000000
284716384.000000
210247088.000000
-447487840.000000
879182848.000000
-201625104.000000
-53314452.000000
658263296.000000
1067609024.000000
817990912.000000
-115071552.000000
257288272.000000
522220800.000000
380856288.000000
312318304.000000
333241280.000000
-201127024.000000
-656923136.000000
1393992448.000000
328009760.000000
326811552.000000
-57777308.000000
1035705024.000000
-27582684.000000
1393992448.000000
210478608.000000
252145088.000000
136492976.000000
332048928.000000
793338624.000000
162498400.000000
-74676848.000000
369027264.000000
111582448.000000
-370883360.000000
-74676848.000000
-28506456.000000
321262464.000000
-86868360.000000
55768268.000000
-232738864.000000
938367232.000000
-40660936.000000
-105171328.000000
640205696.000000
-142610816.000000
-245820336.000000
-191879168.000000
-437751904.000000
-22480084.000000
-34669756.000000
-149559088.000000
-298844672.000000
-183805680.000000
85491152.000000
166921712.000000
-36334076.000000
-297200320.000000
738080320.000000
516407872.000000
-204096912.000000
-554589120.000000
-48296764.000000
102225824.000000
-349320256.000000
-63051012.000000
43732796.000000
-90806336.000000
-243089008.000000
14858158.000000
-34669756.000000
360597312.000000
379882240.000000
283162240.000000
22118896.000000
61380464.000000
303769056.000000
261079376.000000
-324488288.000000
-86705096.000000
65082784.000000
-112007376.000000
-201262832.000000
321262464.000000
188033296.000000
72782064.000000
87757024.000000
477330880.000000
97805920.000000
321262464.000000
-84827256.000000
136159888.000000
-320280992.000000
-110589424.000000
200492208.000000
401975776.000000
-553716032.000000
-124907656.000000
-45794104.000000
-131909008.000000
-553716032.000000
-167426288.000000
729566400.000000
-93967336.000000
-362324256.000000
-22950464.000000
-347637728.000000
57157660.000000
-490931616.000000
-363848320.000000
282111104.000000
-550537920.000000
-128785944.000000
-82051832.000000
-186759120.000000
-154845360.000000
46642156.000000
-544774272.000000
-504814400.000000
100921624.000000
28301218.000000
-146428688.000000
-195352496.000000
-386087712.000000
-204321584.000000
54368132.000000
75614248.000000
-460513568.000000
-134554000.000000
29445466.000000
-603753152.000000
62297172.000000
90408760.000000
-296489440.000000
-592536896.000000
-154845360.000000
-249546096.000000
-377989248.000000
-749163264.000000
-281489056.000000
-229745168.000000
39131612.000000
-115774376.000000
-219663856.000000
-131064632.000000
-113956272.000000
166787792.000000
-492622112.000000
729566400.000000
-249867408.000000
-97362464.000000
-324438912.000000
-581171520.000000
-302697888.000000
729566400.000000
-153523968.000000
-767333888.000000
306917856.000000
187073584.000000
-244853168.000000
44406104.000000
57487280.000000
349091264.000000
-33216998.000000
10678212.000000
57487280.000000
-75662160.000000
88987816.000000
-114312416.000000
43437600.000000
-41396624.000000
-23296632.000000
-70191968.000000
-7538305.500000
7860763.500000
114899288.000000
-120980248.000000
77868088.000000
103139544.000000
134965584.000000
-66410112.000000
-178857424.000000
-158838992.000000
-69992440.000000
195281040.000000
66241984.000000
69133576.000000
-56565272.000000
-232932624.000000
-117209848.000000
-190061488.000000
-25378304.000000
186625488.000000
190984816.000000
53165280.000000
-174526736.000000
-36388616.000000
-25308608.000000
72687840.000000
-71931016.000000
-66410112.000000
-69506872.000000
59178008.000000
-131025032.000000
48388392.000000
-95071512.000000
-188756912.000000
-4876528.000000
-65026256.000000
-146370992.000000
181571920.000000
-27345068.000000
-205158160.000000
88987816.000000
-69798832.000000
-149921952.000000
-82869648.000000
-97493672.000000
-138384944.000000
88987816.000000
24313018.000000
-125401696.000000
-34969696.000000
13629698.000000
-126028304.000000
-266946576.000000
-95882712.000000
214711776.000000
-3582678.250000
21646128.000000
-95882712.000000
-2623503.250000
254576000.000000
-10319853.000000
28240282.000000
175277168.000000
42983288.000000
46868336.000000
9298481.000000
-112623792.000000
276809824.000000
-162835920.000000
-86681920.000000
-92787136.000000
-158844976.000000
-33521164.000000
-85551248.000000
-151519888.000000
-90765328.000000
37880092.000000
-59815764.000000
220270464.000000
95846848.000000
-118622808.000000
27473284.000000
158359904.000000
198983904.000000
110076200.000000
-48747896.000000
36394980.000000
-183296672.000000
121167480.000000
-101157328.000000
-128925624.000000
-122233984.000000
-33521164.000000
-120500984.000000
-60292480.000000
-239663200.000000
106221040.000000
70319736.000000
168754832.000000
-54975292.000000
-89667312.000000
-82636672.000000
-61600952.000000
-44260908.000000
-63147048.000000
254576000.000000
25174148.000000
-121230448.000000
-37102784.000000
-76325176.000000
95747640.000000
254576000.000000
21915666.000000
14976907.000000
-66383848.000000
198186896.000000
121942096.000000
110449168.000000
49931212.000000
21139118.000000
21517766.000000
-55333204.000000
49931212.000000
-41392600.000000
32825522.000000
37683236.000000
33332582.000000
-54321100.000000
105085112.000000
11558954.000000
22373854.000000
152406960.000000
-11502642.000000
-83607416.000000
-47640396.000000
-37364792.000000
29675626.000000
-97675120.000000
-104310352.000000
-45576864.000000
90265792.000000
167757232.000000
265173648.000000
-26090590.000000
77236912.000000
13247064.000000
-138311520.000000
-272772832.000000
-19899690.000000
125757584.000000
53446844.000000
-18810492.000000
-123941344.000000
-79197336.000000
141396528.000000
59173216.000000
-10795404.000000
-97675120.000000
8277316.500000
32113872.000000
38845828.000000
74929752.000000
-28436254.000000
-17325416.000000
44235652.000000
-28497334.000000
-174901328.000000
50248652.000000
76719680.000000
-123088504.000000
32825522.000000
159520496.000000
58677036.000000
-67890816.000000
-223898608.000000
7158029.500000
32825522.000000
181124000.000000
-139628896.000000
-80071128.000000
-38851352.000000
-154764144.000000
-4869513.000000
-82451992.000000
146320672.000000
-120932272.000000
-30992466.000000
-82451992.000000
214390080.000000
30164322.000000
225751168.000000
-325488160.000000
-150145024.000000
436377120.000000
-161942944.000000
-59616180.000000
-186869248.000000
-48093676.000000
29130598.000000
52726352.000000
224791232.000000
-38343932.000000
-100066416.000000
-10521209.000000
179147776.000000
-191023488.000000
273619264.000000
99567576.000000
-270309056.000000
-129774736.000000
171079008.000000
149638048.000000
68930592.000000
338051872.000000
-91792008.000000
-87836232.000000
-126470632.000000
153382464.000000
-44410764.000000
-52744628.000000
-243075168.000000
326392352.000000
-100066416.000000
-37733756.000000
-189803104.000000
-7638041.000000
-351978912.000000
-177266560.000000
-152463136.000000
39569476.000000
-30706906.000000
-208911328.000000
-78919528.000000
39002436.000000
27005422.000000
30164322.000000
-60857820.000000
17276358.000000
-43257536.000000
-36621904.000000
246401888.000000
30164322.000000
-96960296.000000
33140864.000000
24269450.000000
-2711115.500000
92646408.000000
-133472272.000000
-92338456.000000
30979402.000000
3103191.750000
-82894200.000000
-92338456.000000
2696368.750000
16374229.000000
-191026848.000000
165929808.000000
2216642.250000
151500032.000000
-33954464.000000
77091816.000000
117782360.000000
-139566944.000000
-41234976.000000
-22284294.000000
51213948.000000
61247964.000000
-34281128.000000
76706712.000000
85631080.000000
-95522072.000000
-47184692.000000
10313376.000000
10662877.000000
10151230.000000
-23022210.000000
59932708.000000
111882696.000000
-196161136.000000
66153936.000000
-1088388.000000
20790658.000000
-58993132.000000
-58246416.000000
115897672.000000
-159443984.000000
56570096.000000
-34281128.000000
8264466.500000
11477594.000000
46233884.000000
-166828496.000000
48678196.000000
43941876.000000
84699800.000000
-86839176.000000
176576880.000000
75755792.000000
-37572032.000000
922572.875000
16374229.000000
-8389214.000000
42242984.000000
50590172.000000
58892444.000000
-120447032.000000
16374229.000000
90391848.000000
87890344.000000
17786046.000000
91800400.000000
-60318252.000000
-24862488.000000
-11657243.000000
74737408.000000
166668096.000000
-192821664.000000
-11657243.000000
-137800544.000000
41856276.000000
-100342840.000000
60825060.000000
-11248927.000000
156600160.000000
-36605804.000000
117826200.000000
230741888.000000
294096672.000000
241188800.000000
28845776.000000
80104600.000000
81119880.000000
-113487864.000000
-182894240.000000
-99580720.000000
135578112.000000
1463198.625000
-100292808.000000
49912164.000000
128597904.000000
94232240.000000
181833056.000000
124244920.000000
72645648.000000
-219217504.000000
-39441276.000000
-110010552.000000
150251488.000000
-9021775.000000
-190729152.000000
33081668.000000
240624448.000000
-113487864.000000
328581344.000000
141170880.000000
-5765045.000000
-64614080.000000
-89198744.000000
136518816.000000
-53299476.000000
101856664.000000
151072096.000000
-13699407.000000
-194264576.000000
-130894560.000000
41856276.000000
273248960.000000
-86493152.000000
45144212.000000
68891600.000000
53650852.000000
41856276.000000
-115401288.000000
188364512.000000
-59952756.000000
-25267014.000000
-22282412.000000
-159935312.000000
-77015896.000000
157552976.000000
-2324180.000000
13282933.000000
-77015896.000000
-173757840.000000
58825376.000000
30907106.000000
21066414.000000
75744160.000000
-76163376.000000
-92172352.000000
-101515072.000000
230673440.000000
235032928.000000
-193136240.000000
-18861822.000000
103590608.000000
1292173.625000
-110583712.000000
-22295966.000000
-132313608.000000
-34360444.000000
189924816.000000
128814208.000000
28287226.000000
22437582.000000
-177373888.000000
-223081504.000000
-123518560.000000
-90006672.000000
76530328.000000
197289664.000000
4630057.000000
-116953048.000000
-228594160.000000
-33305002.000000
205312432.000000
-99636552.000000
-110583712.000000
-78468328.000000
-277754464.000000
5410370.500000
20541030.000000
-335289568.000000
-124236008.000000
-100642480.000000
-85748936.000000
-181356576.000000
43199100.000000
139445312.000000
4683008.000000
58825376.000000
-11248296.000000
-73292776.000000
-262602528.000000
-182352288.000000
-50522508.000000
58825376.000000
-99723504.000000
-133594848.000000
141216080.000000
44482740.000000
-64178988.000000
5611467264.000000
-176882528.000000
1098728448.000000
-78010040.000000
-244622816.000000
-176882528.000000
-784730368.000000
-1421386624.000000
-246138400.000000
-1476253312.000000
-526183456.000000
-135442688.000000
-68362840.000000
-995949952.000000
260240304.000000
-971020672.000000
-906276736.000000
-5629896.500000
-135603520.000000
-314589408.000000
9142851.000000
23389902.000000
232510720.000000
-1428652288.000000
103874096.000000
-453957312.000000
-568838784.000000
-1833426304.000000
-658377664.000000
-488163072.000000
330437312.000000
-919565824.000000
-760532800.000000
-437636864.000000
153084560.000000
-727745856.000000
-50004096.000000
246988640.000000
-566118720.000000
-506928864.000000
9142851.000000
-673837120.000000
863191936.000000
-357737984.000000
1511605760.000000
-355125632.000000
40088784.000000
-191031168.000000
-584618240.000000
-551726912.000000
-281288768.000000
-97292072.000000
-1523809280.000000
-1421386624.000000
-1712146304.000000
437133440.000000
-798401792.000000
-185600880.000000
-342663744.000000
-1421386624.000000
-163095104.000000
829739200.000000
-892778880.000000
-249402880.000000
699566080.000000
148378592.000000
-97172384.000000
-379941600.000000
-241165888.000000
-137714528.000000
-97172384.000000
-164555008.000000
139608080.000000
141831936.000000
-70645848.000000
11207440.000000
-98364568.000000
-115268840.000000
-215548384.000000
-312975840.000000
69144584.000000
-214253968.000000
178522720.000000
-43793524.000000
67687984.000000
-114910920.000000
193690272.000000
-58477996.000000
-202217504.000000
93915912.000000
-146122960.000000
-267766016.000000
-207395312.000000
-239758720.000000
-58831404.000000
-178201312.000000
-321697248.000000
-231440864.000000
-45404764.000000
151269808.000000
-125665552.000000
98824768.000000
-91429416.000000
-112057720.000000
-112110720.000000
-114910920.000000
447803.000000
-173429744.000000
-111984608.000000
-287336864.000000
-93017248.000000
-120655256.000000
-120475352.000000
24090992.000000
106464824.000000
-72630600.000000
67980464.000000
45295920.000000
139608080.000000
-35755452.000000
172173248.000000
-216173088.000000
-436808032.000000
-105652936.000000
139608080.000000
169900672.000000
-351131424.000000
57781252.000000
116765048.000000
-184755520.000000
269521920.000000
119621408.000000
95398384.000000
-57108476.000000
23987922.000000
119621408.000000
-167485776.000000
-83349024.000000
-190402048.000000
-63510332.000000
-31232230.000000
18025170.000000
19538154.000000
-124646400.000000
85789328.000000
-103225616.000000
-48275176.000000
-178770784.000000
-82522160.000000
127872544.000000
-140517312.000000
-10237512.000000
-176233264.000000
-141157760.000000
-64849116.000000
107708672.000000
171701408.000000
-102345648.000000
11884486.000000
-66723140.000000
-124619072.000000
-130361200.000000
4464299.000000
11748524.000000
-49656692.000000
-40654740.000000
39150300.000000
31954690.000000
128431600.000000
-58884860.000000
-140517312.000000
-41628924.000000
-7428730.500000
107640640.000000
-66888428.000000
-149285120.000000
-192254816.000000
80108880.000000
85368512.000000
39374460.000000
56974276.000000
-214118080.000000
-49809136.000000
-83349024.000000
-154752880.000000
-72703520.000000
-124764624.000000
-35582912.000000
32275890.000000
-83349024.000000
-140157248.000000
-88005888.000000
-154036048.000000
101252384.000000
-49931264.000000
-112351080.000000
-71423240.000000
-21238212.000000
-2258163.500000
43411004.000000
-71423240.000000
-27970544.000000
96439640.000000
87985960.000000
18670600.000000
-115057624.000000
-58829228.000000
75823960.000000
48504092.000000
-26468664.000000
-341154304.000000
68338864.000000
12393355.000000
-79082792.000000
-65759476.000000
-101244888.000000
74582664.000000
-78653048.000000
-38221644.000000
117100824.000000
-82313688.000000
-120954264.000000
-51167236.000000
87823576.000000
-4930049.000000
21433944.000000
-337702368.000000
16691247.000000
-236505296.000000
161080704.000000
48963868.000000
137077392.000000
190217360.000000
-24724704.000000
-72500296.000000
-101244888.000000
-5492840.000000
-248369456.000000
-34468276.000000
-112870056.000000
-2846764.500000
44745012.000000
4475368.000000
232848528.000000
164515408.000000
-51841596.000000
-77334936.000000
-262463888.000000
96439640.000000
-26508172.000000
66894652.000000
-99073560.000000
-16474552.000000
242104160.000000
96439640.000000
-70107528.000000
-223620016.000000
-80572840.000000
-158387136.000000
-47627612.000000
352095488.000000
299283904.000000
19337488.000000
122715736.000000
597315904.000000
299283904.000000
163720416.000000
500268992.000000
-58535204.000000
-387746112.000000
-55846804.000000
116509728.000000
87842480.000000
-251295664.000000
-101166664.000000
353767424.000000
944385536.000000
111609712.000000
-260534592.000000
249594720.000000
26805332.000000
-243015808.000000
478011008.000000
-319912640.000000
-604301312.000000
57903152.000000
42329424.000000
-327716160.000000
-350665216.000000
46515792.000000
-193093440.000000
-232596672.000000
-332136064.000000
441070144.000000
351803904.000000
1127904256.000000
57078944.000000
83648280.000000
281493824.000000
-181870592.000000
26805332.000000
146434048.000000
24180392.000000
246996192.000000
318047424.000000
253022944.000000
-307520256.000000
-339859968.000000
57214464.000000
-35543016.000000
86367224.000000
147590784.000000
-85722096.000000
500268992.000000
-103215368.000000
-98120360.000000
643170176.000000
192064192.000000
253835872.000000
500268992.000000
108486360.000000
182348544.000000
208473696.000000
-130661448.000000
13244461.000000
139243040.000000
22463488.000000
882380992.000000
-327189120.000000
-248398992.000000
22463488.000000
-223330304.000000
15668297.000000
17438276.000000
383694464.000000
-164701824.000000
-424299328.000000
230388560.000000
583981568.000000
-239255728.000000
810939072.000000
-296713472.000000
83122808.000000
-244486528.000000
126026792.000000
-341514560.000000
-60365168.000000
-344547264.000000
303028224.000000
638745344.000000
-77026864.000000
777365504.000000
681293824.000000
-945556736.000000
244469504.000000
-121963144.000000
701424320.000000
183673264.000000
222265312.000000
-184634944.000000
-655593728.000000
-71699016.000000
-269921824.000000
281827904.000000
-613111360.000000
-341514560.000000
62497068.000000
653782848.000000
-736319680.000000
1037670656.000000
-101820696.000000
147283648.000000
71845688.000000
404055488.000000
-626546816.000000
140606384.000000
-242524512.000000
-276371488.000000
15668297.000000
-194477952.000000
-176606288.000000
-12178923.000000
-605068416.000000
281886528.000000
15668297.000000
134492160.000000
-303528384.000000
-708233664.000000
390159232.000000
-103997552.000000
-197043808.000000
38526920.000000
-89927288.000000
-36258820.000000
188702912.000000
38526920.000000
-2599054.500000
64994852.000000
139972384.000000
68366872.000000
-65987836.000000
114753608.000000
-3054374.000000
64775664.000000
112047736.000000
-185564512.000000
-118940312.000000
-15750346.000000
124866960.000000
-85263912.000000
276003072.000000
-16688182.000000
351501792.000000
-7288721.000000
37516124.000000
66656656.000000
-146846688.000000
210097952.000000
51385264.000000
-46955364.000000
61779836.000000
217432160.000000
18326748.000000
-176303168.000000
-307824128.000000
-58595712.000000
46339868.000000
-26424268.000000
6369510.500000
145805328.000000
276003072.000000
82172472.000000
69874496.000000
148336432.000000
6066520.000000
49176348.000000
-196827712.000000
3164872.000000
-32657820.000000
-117027888.000000
-124446104.000000
101007744.000000
-3533413.000000
64994852.000000
-65849492.000000
79078880.000000
61428804.000000
-257691072.000000
26927504.000000
64994852.000000
2532023.000000
19499728.000000
-59459788.000000
-23394616.000000
18962656.000000
364420064.000000
-343928224.000000
-126515848.000000
-405677248.000000
145231264.000000
-343928224.000000
-152854704.000000
381613152.000000
-34675568.000000
-195167024.000000
4599080.000000
48064592.000000
-130376984.000000
-205723808.000000
10775468.000000
-55226552.000000
-341186656.000000
60565504.000000
136973.656250
-194667232.000000
-197383408.000000
148396064.000000
-38407832.000000
-276583040.000000
-86673000.000000
-10589262.000000
-80917048.000000
274006016.000000
96428088.000000
13716504.000000
-19110914.000000
-106279896.000000
-23723662.000000
-393553792.000000
-73731480.000000
-152117424.000000
-58531856.000000
71638488.000000
152021248.000000
-331729280.000000
-197383408.000000
-37228656.000000
-238063440.000000
-313940064.000000
-134067752.000000
-231585232.000000
112848584.000000
-175643280.000000
302655360.000000
-112879480.000000
-377079840.000000
-55005760.000000
-113168504.000000
381613152.000000
-160892816.000000
145042384.000000
-105310008.000000
-193970544.000000
93182792.000000
381613152.000000
-108964264.000000
-231244208.000000
-65538900.000000
76777448.000000
-320439264.000000
-167330768.000000
-442540672.000000
-438480928.000000
-26483708.000000
-298930752.000000
-442540672.000000
137970896.000000
-202390240.000000
-78931408.000000
35806112.000000
438559680.000000
-613379968.000000
208284080.000000
615438080.000000
-442343808.000000
-300787744.000000
86245808.000000
156667232.000000
-158524256.000000
200560864.000000
13573536.000000
-287304800.000000
-92845832.000000
301678496.000000
142790048.000000
65660252.000000
192229248.000000
565135360.000000
168641200.000000
322895328.000000
382085152.000000
-929837952.000000
475175040.000000
339319968.000000
-161533536.000000
5451796.000000
-59163312.000000
-344216064.000000
77755904.000000
56229380.000000
13573536.000000
776667264.000000
-355088288.000000
-414919776.000000
-426078304.000000
-126026712.000000
342138880.000000
-343041024.000000
257862496.000000
-13554822.000000
105511896.000000
-280944384.000000
-92120272.000000
-202390240.000000
201620112.000000
-40382716.000000
20194450.000000
194171904.000000
-80902504.000000
-202390240.000000
-8925556.000000
847779072.000000
-324520000.000000
-119010216.000000
617556928.000000
402238720.000000
-379334080.000000
-134141024.000000
-361950848.000000
179520096.000000
-379334080.000000
-165016032.000000
399776800.000000
151336704.000000
-205282448.000000
63344780.000000
-51989520.000000
-162467760.000000
-155730656.000000
-38076376.000000
7105784.000000
-523928416.000000
-50723808.000000
-87060232.000000
-389498976.000000
-313978752.000000
136693456.000000
-175763968.000000
-237205360.000000
4414702.000000
43051768.000000
-95506384.000000
160055984.000000
14874803.000000
-65742520.000000
-43105576.000000
-70452232.000000
51739248.000000
-419597344.000000
-95097048.000000
-64759672.000000
-73768376.000000
29489776.000000
140841024.000000
-442738336.000000
-313978752.000000
-151498240.000000
-358187872.000000
-440198208.000000
-159380512.000000
-346513760.000000
157046752.000000
-308717120.000000
249055792.000000
-81163832.000000
-325119168.000000
157930768.000000
-277304896.000000
399776800.000000
-122197864.000000
86798904.000000
-171790752.000000
-264380800.000000
230671728.000000
399776800.000000
-155611952.000000
-232063856.000000
-35357928.000000
162592240.000000
-185023984.000000
87182216.000000
48529964.000000
-33677812.000000
-7722714.500000
-100508008.000000
48529964.000000
177162176.000000
-170932176.000000
105734456.000000
6902765.500000
48004376.000000
-244360480.000000
37580832.000000
33347396.000000
-89733000.000000
9865668.000000
-43330792.000000
-197392112.000000
-61576416.000000
-46380628.000000
10446675.000000
46360640.000000
47765004.000000
134956096.000000
122607064.000000
27655076.000000
-15616961.000000
214162144.000000
-34816928.000000
-139335952.000000
156801488.000000
161191664.000000
-80653872.000000
42528424.000000
-5549360.500000
-177625680.000000
-9285923.000000
-23376332.000000
-56864144.000000
-27441516.000000
10446675.000000
-177079728.000000
-12247253.000000
-83192712.000000
91504048.000000
-4454988.500000
312904064.000000
-80625384.000000
126672880.000000
248304176.000000
-152734256.000000
-72651480.000000
-176604880.000000
-170932176.000000
150052320.000000
-43225976.000000
-48806624.000000
-92559312.000000
242271632.000000
-170932176.000000
24604016.000000
-93962488.000000
70670488.000000
19129628.000000
-52254568.000000
169438752.000000
36318872.000000
-208745456.000000
-100297320.000000
164391024.000000
36318872.000000
-79945808.000000
-24298456.000000
22286264.000000
-95609496.000000
2615971.500000
124082232.000000
-183407568.000000
38924600.000000
131031224.000000
-97852120.000000
42773592.000000
-72941320.000000
-183860368.000000
62221704.000000
-156970144.000000
95161496.000000
-178676208.000000
139479424.000000
115027720.000000
72295976.000000
110014952.000000
-25946830.000000
412977216.000000
109360128.000000
-39976676.000000
319399616.000000
34970176.000000
-107395800.000000
3596887.000000
-103650680.000000
-62512648.000000
106504840.000000
159808240.000000
-142512096.000000
-156970144.000000
122178152.000000
-49766928.000000
-121891896.000000
-112565640.000000
-186237584.000000
120729944.000000
69245144.000000
-43431008.000000
-98593352.000000
-123819680.000000
76739608.000000
243492912.000000
-24298456.000000
41350248.000000
80550808.000000
32133278.000000
-25339644.000000
186530192.000000
-24298456.000000
-51139808.000000
-165563392.000000
39626200.000000
187754896.000000
-101732968.000000
622681920.000000
-553661248.000000
-368568800.000000
-71950632.000000
59490524.000000
-553661248.000000
-66679168.000000
-473266208.000000
-59974916.000000
-123163976.000000
196755568.000000
-50442164.000000
83115288.000000
736431424.000000
182643536.000000
-146841440.000000
608847936.000000
11967589.000000
-155058832.000000
152652544.000000
248830544.000000
-148683216.000000
198244336.000000
812032192.000000
99083944.000000
90808840.000000
686953728.000000
642537536.000000
575393472.000000
86743496.000000
-247948976.000000
-39968048.000000
406476640.000000
363786784.000000
-231061040.000000
15398059.000000
231336544.000000
-210893536.000000
61782808.000000
296769568.000000
248830544.000000
634988224.000000
-289645184.000000
-81826704.000000
-496247488.000000
-84981216.000000
118451936.000000
-119013448.000000
93594472.000000
237828912.000000
211688848.000000
-177604176.000000
42076784.000000
-473266208.000000
272479584.000000
-6324841.500000
243576048.000000
227974160.000000
115007448.000000
-473266208.000000
235476816.000000
897281856.000000
-41825848.000000
25613056.000000
256714032.000000
-101417968.000000
275771360.000000
77808520.000000
-18748414.000000
-95410152.000000
275771360.000000
-429188128.000000
218822768.000000
236174128.000000
-73067624.000000
273699616.000000
336229984.000000
-76638504.000000
318345088.000000
212107504.000000
306237952.000000
690386816.000000
-126663208.000000
-202228272.000000
154287376.000000
14105501.000000
11343282.000000
33101424.000000
253821616.000000
112585480.000000
-211944272.000000
389008128.000000
165394656.000000
31102386.000000
51577952.000000
-203805296.000000
62204144.000000
-119268176.000000
35086160.000000
158045264.000000
400833344.000000
-210798544.000000
-210020240.000000
145076304.000000
395762784.000000
14105501.000000
162720144.000000
127164568.000000
166783920.000000
134569072.000000
-208729008.000000
-13696779.000000
113502912.000000
316540000.000000
-143606640.000000
-23500522.000000
70434360.000000
-238959728.000000
218822768.000000
343450272.000000
-18076700.000000
82740968.000000
272702624.000000
88731912.000000
218822768.000000
45327256.000000
499183968.000000
-43345848.000000
313651680.000000
5326471.500000
287313568.000000
103016472.000000
98448232.000000
258381952.000000
141414352.000000
103016472.000000
342559456.000000
-9690481.000000
182339248.000000
146536944.000000
-313009312.000000
526526624.000000
218580160.000000
267116976.000000
-147287936.000000
-200061792.000000
149462592.000000
303513632.000000
-95967080.000000
204007920.000000
-358766624.000000
-635729536.000000
-63150780.000000
158539168.000000
-91302552.000000
6411213.500000
-216704672.000000
-463026464.000000
17278186.000000
-92936424.000000
-262550720.000000
-707427584.000000
141069152.000000
105093160.000000
216987664.000000
618028224.000000
104499560.000000
149283360.000000
311136928.000000
110789800.000000
-358766624.000000
97819736.000000
160839920.000000
41015724.000000
-22040108.000000
312108000.000000
-279218016.000000
67208136.000000
-451290016.000000
-76081528.000000
139730080.000000
87934920.000000
-174152288.000000
-9690481.000000
303114336.000000
-284769376.000000
373914016.000000
-112561288.000000
118354392.000000
-9690481.000000
-65702988.000000
-372997664.000000
-203960944.000000
-482862368.000000
-290399840.000000
1034770944.000000
-254768464.000000
-356887360.000000
-634831872.000000
4960378.500000
-254768464.000000
-414426720.000000
266656608.000000
-174997056.000000
-102494120.000000
103806048.000000
344979328.000000
-217417568.000000
-340257760.000000
291577696.000000
-171760304.000000
-239915648.000000
-246691632.000000
-10392098.000000
-670650176.000000
-503601216.000000
67543440.000000
-159850176.000000
-513900864.000000
-213614928.000000
-135700432.000000
-272082784.000000
-152492656.000000
262384304.000000
266912832.000000
112893904.000000
-318186304.000000
-399514720.000000
-733031680.000000
-53171388.000000
-225745072.000000
-345606816.000000
-64504148.000000
-95105328.000000
-323920512.000000
-503601216.000000
49195764.000000
-437920032.000000
-285901888.000000
-315478784.000000
-765958336.000000
200983632.000000
59056020.000000
281175904.000000
-269638656.000000
-809666304.000000
62890136.000000
-281462880.000000
266656608.000000
-327940480.000000
-189525696.000000
-440242976.000000
-243131152.000000
222631504.000000
266656608.000000
-288744320.000000
-149917408.000000
-345333888.000000
126827648.000000
-317096160.000000
-120708848.000000
18642364.000000
172406368.000000
353157344.000000
-21263542.000000
18642364.000000
121301832.000000
-58994028.000000
-189114464.000000
263053200.000000
-182081408.000000
144763360.000000
-584162.750000
59741780.000000
231628800.000000
-359802848.000000
-265545056.000000
30785740.000000
-20065844.000000
96118032.000000
-2868789.750000
-67808824.000000
1718720.250000
163941248.000000
846628.750000
7094608.500000
-16675892.000000
-234342848.000000
42030644.000000
24092306.000000
120334128.000000
-383400160.000000
310747712.000000
-125645088.000000
-225048800.000000
75853128.000000
10289118.000000
-46116980.000000
-5577372.000000
45788020.000000
-2868789.750000
-6486574.500000
-89944024.000000
-117874088.000000
-102908280.000000
244875616.000000
-36736008.000000
66038056.000000
-107756344.000000
150299872.000000
122679832.000000
-137472928.000000
-81045888.000000
-58994028.000000
151950688.000000
6394868.500000
20738564.000000
-5409650.500000
65629164.000000
-58994028.000000
85077128.000000
-73167416.000000
-314941408.000000
-147432640.000000
-13091405.000000
51928772.000000
61921496.000000
164795312.000000
60005308.000000
-196157472.000000
61921496.000000
-11318417.000000
-76192.210938
158887248.000000
-35481852.000000
-15958637.000000
-1695765.750000
-27986916.000000
30323588.000000
-184686352.000000
-104518592.000000
-103614432.000000
109606560.000000
332373088.000000
-12475454.000000
117255968.000000
-43211376.000000
-11372151.000000
116191968.000000
118839456.000000
-106119680.000000
-116407776.000000
3758503.750000
-20056986.000000
-446281248.000000
-119324864.000000
154120512.000000
-113227536.000000
66901220.000000
10861513.000000
-193883664.000000
28890536.000000
-111164208.000000
-213049904.000000
167493584.000000
117255968.000000
-213656992.000000
195618256.000000
181611984.000000
164981520.000000
99272320.000000
-110657056.000000
121772368.000000
-27782732.000000
-118667184.000000
194799696.000000
-50302028.000000
-113285360.000000
-76192.210938
79321184.000000
-60361900.000000
-58685320.000000
-114132976.000000
-133815872.000000
-76192.210938
174595104.000000
-115886288.000000
-238465120.000000
-319998208.000000
-197015536.000000
13391508.000000
-16648048.000000
-60213212.000000
-172125488.000000
-123234560.000000
-16648048.000000
-152313296.000000
-321042880.000000
118738336.000000
345579584.000000
421203904.000000
354576128.000000
-55439108.000000
848450752.000000
90934888.000000
195941744.000000
495199456.000000
-120472104.000000
-20979430.000000
139943920.000000
213635664.000000
91811600.000000
11899394.000000
712177344.000000
167798224.000000
221400048.000000
471529408.000000
625137344.000000
214240752.000000
-97329032.000000
-251852272.000000
702627776.000000
24816622.000000
252104368.000000
112607864.000000
-236106800.000000
9454242.000000
-85133560.000000
161145200.000000
249459024.000000
213635664.000000
29290974.000000
45378692.000000
38025108.000000
-85148328.000000
-234254032.000000
266212304.000000
136953008.000000
369347968.000000
-43764084.000000
-42323260.000000
166432176.000000
237849008.000000
-321042880.000000
345219104.000000
299949984.000000
-140734896.000000
179493264.000000
72544688.000000
-321042880.000000
249082864.000000
341887040.000000
130883192.000000
188141616.000000
-42175116.000000
18570838.000000
124126112.000000
69728664.000000
-33537922.000000
-192184992.000000
124126112.000000
55710668.000000
83858064.000000
100997296.000000
-39887420.000000
-86860720.000000
-265574656.000000
121069152.000000
53221156.000000
-152001120.000000
60718156.000000
183098016.000000
-35667644.000000
-50991140.000000
40514324.000000
59114692.000000
105686352.000000
16242982.000000
60323220.000000
-18298216.000000
-27877430.000000
75355264.000000
-156847584.000000
-257295472.000000
143364384.000000
13509905.000000
-16275795.000000
117129136.000000
212875296.000000
91567984.000000
-160691840.000000
-186110496.000000
-28753756.000000
-149969584.000000
-56141668.000000
59114692.000000
49705052.000000
123986112.000000
38893604.000000
213829248.000000
94628048.000000
193972672.000000
32559446.000000
-38310764.000000
-213248288.000000
58265116.000000
-120162496.000000
20290606.000000
83858064.000000
-92209680.000000
42615236.000000
43005028.000000
-26242930.000000
-44596468.000000
83858064.000000
77567128.000000
-169881760.000000
-58595676.000000
59337956.000000
123987648.000000
-260641072.000000
-55007552.000000
-138681312.000000
189425744.000000
38639008.000000
-55007552.000000
-37690104.000000
-11086353.000000
56320528.000000
98029936.000000
-43792.742188
46915.519531
-3035954.000000
129556672.000000
122481648.000000
-203116720.000000
57669128.000000
-108975936.000000
-86475808.000000
-129822528.000000
-67738760.000000
87895456.000000
97481488.000000
-16350112.000000
96090192.000000
86340672.000000
-145134240.000000
-115389024.000000
-21013046.000000
93319424.000000
157926000.000000
-230233856.000000
58145288.000000
-66624424.000000
3726467.500000
-31173442.000000
46373256.000000
222787952.000000
-114167504.000000
-62936968.000000
-67738760.000000
182520368.000000
-329446912.000000
-62019852.000000
-22821842.000000
-53208312.000000
61805680.000000
89393760.000000
8848849.000000
133573096.000000
153144464.000000
-178923440.000000
-244072992.000000
-11086353.000000
-74646064.000000
-57857780.000000
110451896.000000
-51735600.000000
-118279120.000000
-11086353.000000
75175136.000000
25166802.000000
-118676240.000000
-113145168.000000
57814560.000000
1302638848.000000
43459872.000000
248408864.000000
124265160.000000
-348868064.000000
43459872.000000
-449662752.000000
-59938592.000000
300953600.000000
-379739136.000000
195668288.000000
700794112.000000
200541344.000000
425154144.000000
955353600.000000
282904064.000000
560338880.000000
-186148480.000000
-332209184.000000
93492280.000000
-174034784.000000
51769364.000000
158817024.000000
342493728.000000
371485472.000000
132813736.000000
426701184.000000
61570304.000000
753278464.000000
373796512.000000
214251552.000000
322389440.000000
-273020000.000000
601453824.000000
-206937248.000000
107121360.000000
-97363712.000000
-179720640.000000
-244659104.000000
782116480.000000
-174034720.000000
437166880.000000
297004576.000000
590345216.000000
191115552.000000
-47053568.000000
267983808.000000
302780832.000000
371388352.000000
110329784.000000
118841280.000000
-152305184.000000
-359452736.000000
-59938592.000000
525763488.000000
161015488.000000
-171822400.000000
528245856.000000
82451944.000000
-59938592.000000
165023600.000000
471522080.000000
-215663744.000000
39245824.000000
338629376.000000
-290505856.000000
-39780376.000000
-107449216.000000
-150424800.000000
-74786400.000000
-39780376.000000
-15537759.000000
-16033011.000000
-4783282.000000
56757248.000000
54018296.000000
66308308.000000
-14586839.000000
-159605584.000000
-109211440.000000
-49703400.000000
-139551312.000000
37356884.000000
33555352.000000
-16814762.000000
725849.375000
23389676.000000
61538748.000000
-62476412.000000
-5328238.000000
-65669828.000000
-86457520.000000
-134160672.000000
-85290112.000000
19922268.000000
163807936.000000
-40732948.000000
-24510860.000000
-123069056.000000
55261172.000000
-126216832.000000
16483499.000000
-6909243.500000
16749604.000000
202446672.000000
725849.375000
-69369344.000000
40458828.000000
-11648957.000000
-1749042.625000
-54311044.000000
59188916.000000
29635700.000000
-18957086.000000
82076544.000000
-14944731.000000
45830392.000000
-1289999.875000
-16033011.000000
25638340.000000
140622512.000000
-80395312.000000
-25287548.000000
-7162557.000000
-16033011.000000
38503020.000000
140970288.000000
98080960.000000
29259800.000000
44996860.000000
-171296320.000000
32986406.000000
48543596.000000
-13631710.000000
-190538880.000000
32986406.000000
-8740171.000000
183923744.000000
125796064.000000
-66193996.000000
-47892356.000000
94418008.000000
31583892.000000
-44822420.000000
-21486876.000000
-101327824.000000
233683232.000000
-78576720.000000
-147552128.000000
28139860.000000
-11170446.000000
138873728.000000
34427476.000000
-91442168.000000
149990112.000000
-20450324.000000
60649988.000000
150632096.000000
-52602908.000000
-6943300.000000
84195536.000000
80353408.000000
22729948.000000
21358776.000000
78805968.000000
-123399008.000000
26801412.000000
-10066508.000000
-63848604.000000
133090968.000000
-11170446.000000
-80243128.000000
47985804.000000
63011052.000000
20186876.000000
66934972.000000
110862840.000000
33376146.000000
-30691822.000000
-161444064.000000
-48819916.000000
-3466787.250000
6859921.000000
183923744.000000
-121985232.000000
84373056.000000
149590464.000000
-19233526.000000
87700432.000000
183923744.000000
115652664.000000
90144224.000000
-40147188.000000
39043792.000000
-11554560.000000
-34104492.000000
39912940.000000
8503167.000000
-4356776.500000
-149627920.000000
39912940.000000
14406343.000000
24454044.000000
195793296.000000
-100282312.000000
9280207.000000
-3235561.250000
74116760.000000
95261232.000000
-42734280.000000
22893204.000000
88886936.000000
-11513986.000000
4496148.000000
-33561480.000000
37225852.000000
84411000.000000
136297952.000000
19053204.000000
7722511.500000
49021212.000000
-21233920.000000
130253368.000000
-6123822.000000
56789260.000000
97819184.000000
95288368.000000
-6458202.500000
-19843696.000000
35443556.000000
66725260.000000
34731252.000000
5055507.000000
-8571141.000000
66216076.000000
37225852.000000
-77370768.000000
67305344.000000
58681032.000000
22600456.000000
26876744.000000
50965900.000000
25100416.000000
95432344.000000
-188050256.000000
34757476.000000
-41094824.000000
55712180.000000
24454044.000000
-46745132.000000
28489764.000000
-45370364.000000
22607132.000000
78273600.000000
24454044.000000
-22565616.000000
22835284.000000
-50633004.000000
45471988.000000
33660300.000000
-128373520.000000
28501654.000000
65140252.000000
79562432.000000
-70463760.000000
28501654.000000
41577444.000000
15060601.000000
-78451744.000000
11882121.000000
-36343912.000000
-23144130.000000
8549772.000000
101418672.000000
27628634.000000
-47760580.000000
-61851900.000000
-68368168.000000
-111629760.000000
-111437440.000000
4812686.000000
-68993984.000000
-21739254.000000
-71531904.000000
73717472.000000
101037536.000000
-44723548.000000
47773748.000000
-26845074.000000
-41638372.000000
5033729.000000
-126214944.000000
-39442548.000000
8876044.000000
-20894374.000000
-36769896.000000
44149052.000000
89823936.000000
-18086002.000000
37491868.000000
4812686.000000
184998848.000000
-29331898.000000
-180629024.000000
55604468.000000
-4876573.500000
4736641.000000
31587974.000000
-113506768.000000
8070923.000000
9112233.000000
-82748144.000000
-144606480.000000
15060601.000000
-5220347.000000
35391100.000000
15970990.000000
-36828956.000000
-53464124.000000
15060601.000000
37233652.000000
4851899.000000
-41759140.000000
97231712.000000
42527460.000000
384162432.000000
126011320.000000
-113926632.000000
1159079.125000
280654688.000000
126011320.000000
-17615964.000000
10356670.000000
-2316456.000000
-113380832.000000
89481440.000000
-29397436.000000
89937712.000000
64995872.000000
-145716944.000000
286999840.000000
356420608.000000
54023192.000000
75229184.000000
46569912.000000
253430608.000000
-323247136.000000
36753824.000000
103906056.000000
-381219040.000000
-134957728.000000
467958688.000000
-135841232.000000
180940400.000000
-51950372.000000
-229617904.000000
267691344.000000
-114766736.000000
118301840.000000
93192976.000000
238387376.000000
34889704.000000
-318001440.000000
345343072.000000
112883736.000000
253430608.000000
-853401.687500
129118208.000000
176714416.000000
89315904.000000
49899476.000000
-289776928.000000
-22733160.000000
-8269191.000000
94095816.000000
196850640.000000
-116852496.000000
130213208.000000
10356670.000000
27690862.000000
-463789472.000000
296277376.000000
272876544.000000
-97021264.000000
10356670.000000
-10418318.000000
198937232.000000
158114032.000000
-300002336.000000
-34361028.000000
2262915840.000000
-47673376.000000
-354730048.000000
-730533824.000000
-664923200.000000
-47673376.000000
-745095744.000000
912371136.000000
-226359776.000000
-787244608.000000
643982656.000000
213291136.000000
-8186291.000000
-1055648832.000000
269775872.000000
28966454.000000
-825380160.000000
-181231.375000
-205390656.000000
-27215750.000000
-522558272.000000
265197824.000000
-746991040.000000
-983695168.000000
82550000.000000
-330677632.000000
549351872.000000
-477668672.000000
430536576.000000
226576224.000000
9013742.000000
-417756288.000000
-984705216.000000
-190064992.000000
54409048.000000
-215200288.000000
30586070.000000
-392615552.000000
-414716992.000000
-49858640.000000
-522558272.000000
-211834592.000000
-72578352.000000
352417536.000000
-273023296.000000
-690914432.000000
-52371336.000000
194353760.000000
590633344.000000
332293888.000000
-341368896.000000
-44575072.000000
-668742336.000000
912371136.000000
-453406208.000000
-168307488.000000
-688881472.000000
314456384.000000
42390064.000000
912371136.000000
179071744.000000
14546218.000000
-405708480.000000
447035072.000000
-104394576.000000
687973440.000000
-1160763648.000000
-266590864.000000
270956896.000000
-151410288.000000
-1160763648.000000
-134101040.000000
-625163008.000000
253723408.000000
478516672.000000
540834112.000000
607333184.000000
268576768.000000
1136473984.000000
-78496216.000000
156494896.000000
-217138928.000000
110729168.000000
-95868624.000000
184130256.000000
-340189504.000000
-704512384.000000
138243216.000000
1155609984.000000
24753308.000000
-45283868.000000
924465152.000000
297413632.000000
-187451952.000000
556536512.000000
219897104.000000
-315887168.000000
641322688.000000
201158864.000000
-530943936.000000
885129408.000000
248336144.000000
-219104688.000000
-2818332.500000
88073712.000000
-340189504.000000
454534848.000000
-395298624.000000
-312126400.000000
-153217552.000000
226180336.000000
90936752.000000
-191381328.000000
-248997392.000000
24166648.000000
8793204.000000
239331664.000000
528193216.000000
-625163008.000000
222786384.000000
-351090400.000000
494546496.000000
5032749.500000
27943512.000000
-625163008.000000
211697488.000000
1567059712.000000
-49441432.000000
10304426.000000
119246528.000000
64447092.000000
13553979.000000
223238192.000000
9271858.000000
7189851.000000
13553979.000000
-6852484.000000
-50033140.000000
185187568.000000
29000368.000000
-64232676.000000
-46988164.000000
24546212.000000
139108704.000000
-35908564.000000
127265880.000000
-70198232.000000
25436248.000000
73044216.000000
30921772.000000
-122619648.000000
131114152.000000
130666136.000000
184651232.000000
218352336.000000
-102550776.000000
-35718256.000000
74820152.000000
-5035407.000000
-36290164.000000
85921144.000000
26538032.000000
14700968.000000
90807720.000000
-64218088.000000
56677956.000000
79745536.000000
60948452.000000
-407600.687500
21813700.000000
-122619648.000000
-64439660.000000
48369076.000000
76937608.000000
100648208.000000
43102948.000000
8143471.000000
-76118624.000000
78979240.000000
-121709400.000000
54894380.000000
-61504932.000000
-17480276.000000
-50033140.000000
106311024.000000
230534096.000000
-28493760.000000
-39399292.000000
94857800.000000
-50033140.000000
69184248.000000
5290702.000000
101347400.000000
92528648.000000
40385700.000000
-47341696.000000
168661168.000000
118771144.000000
16072339.000000
37100392.000000
168661168.000000
-60625452.000000
-52364612.000000
141980064.000000
-45999452.000000
47282788.000000
-61732612.000000
-17157814.000000
34705612.000000
168156832.000000
-19037832.000000
40386540.000000
44018524.000000
1310349.875000
149015648.000000
-679096.500000
186654448.000000
87082736.000000
85940968.000000
162495760.000000
130819392.000000
49791100.000000
359129344.000000
-55187508.000000
-98272536.000000
-61579108.000000
256621744.000000
-111347144.000000
125951064.000000
30246634.000000
-200673392.000000
45849428.000000
96491360.000000
-38762516.000000
146827280.000000
-679096.500000
11420546.000000
179438064.000000
196299632.000000
79081728.000000
-64897524.000000
149077312.000000
-28053508.000000
135689408.000000
37885092.000000
-45357324.000000
75861312.000000
-213122704.000000
-52364612.000000
30383918.000000
320021696.000000
-58927852.000000
-93054680.000000
96996288.000000
-52364612.000000
114952912.000000
-191929168.000000
87689344.000000
22984576.000000
-24716022.000000
-244681280.000000
-106831960.000000
-154345776.000000
-198242800.000000
-257808480.000000
-106831960.000000
131296400.000000
83112896.000000
-124270184.000000
128692032.000000
15894253.000000
271591136.000000
-251337696.000000
-360202048.000000
70280584.000000
-280487488.000000
-406788160.000000
28365400.000000
216927520.000000
49212708.000000
8237931.000000
-165262592.000000
56392668.000000
-194327056.000000
-670938.750000
122978136.000000
-15256903.000000
3647759.000000
76856552.000000
146715952.000000
252927584.000000
11384469.000000
-44408756.000000
-50265484.000000
-327463168.000000
-57456948.000000
-256928032.000000
-188422656.000000
-34763796.000000
255401664.000000
8237931.000000
-95136040.000000
64174348.000000
32970506.000000
-117081960.000000
-14585425.000000
6192539.000000
213470016.000000
-309040256.000000
-263263872.000000
-24630736.000000
103869320.000000
-27493652.000000
83112896.000000
4853878.000000
170574080.000000
-194655360.000000
-135108800.000000
-73400760.000000
83112896.000000
-146662784.000000
180643936.000000
-152107808.000000
-78361256.000000
201035296.000000
248020672.000000
-57888096.000000
281319104.000000
222395072.000000
-289233408.000000
-57888096.000000
34870216.000000
168075472.000000
-84571832.000000
78000968.000000
-97246280.000000
547587392.000000
88023528.000000
6416842.500000
528610496.000000
-33262206.000000
-281431360.000000
-156963536.000000
-148079648.000000
34630668.000000
-208677072.000000
-98980856.000000
-209081008.000000
-44937112.000000
142258016.000000
229797872.000000
18288356.000000
-169992880.000000
348715264.000000
242619376.000000
132017824.000000
-337768896.000000
-136686112.000000
60898928.000000
-382421184.000000
141205200.000000
-145671200.000000
-227292784.000000
-256748560.000000
118268200.000000
-208677072.000000
240612976.000000
318205440.000000
-16323439.000000
161436000.000000
290960448.000000
180148976.000000
183813136.000000
-216252592.000000
-35217380.000000
4926114.500000
-122681352.000000
-252946064.000000
168075472.000000
278233760.000000
90728360.000000
-18032680.000000
197541936.000000
118702248.000000
168075472.000000
-6712100.500000
168557200.000000
-340835520.000000
-10870905.000000
79956520.000000
138259232.000000
-16576212.000000
-18814942.000000
98635424.000000
-4479255.500000
-16576212.000000
121286528.000000
51650248.000000
-30549420.000000
34614596.000000
-164225664.000000
111448912.000000
-161017472.000000
-66938208.000000
-118281040.000000
67491104.000000
-37900684.000000
37294060.000000
169916960.000000
-158800.781250
-5119559.000000
-137011568.000000
32377630.000000
-22799782.000000
64346148.000000
-57261040.000000
-147101856.000000
-158867776.000000
-268684.593750
97051840.000000
47757956.000000
108340544.000000
-200804960.000000
-119954432.000000
-222981888.000000
2610548.000000
-91295360.000000
-75546960.000000
-110379696.000000
107085376.000000
-5119559.000000
14828038.000000
56227640.000000
5749896.000000
-56008384.000000
129901728.000000
-115420416.000000
56722932.000000
-152992896.000000
-138175920.000000
-58372508.000000
-41091024.000000
-46954292.000000
51650248.000000
72937320.000000
62512288.000000
110912448.000000
-27479338.000000
100956816.000000
51650248.000000
-128229560.000000
-96491272.000000
89665360.000000
-240195360.000000
-40366800.000000
-22984742.000000
37483752.000000
-1488538.125000
803766.875000
69423120.000000
37483736.000000
-7846298.000000
-12448980.000000
92022864.000000
44391584.000000
22494144.000000
-48375504.000000
42467192.000000
8067730.000000
82705504.000000
-23645954.000000
-63279844.000000
104804912.000000
42657992.000000
-32806694.000000
112808560.000000
50384648.000000
52523144.000000
-23824776.000000
-27470082.000000
-114653824.000000
10491270.000000
-128687536.000000
32605894.000000
22544002.000000
-6614005.000000
24453214.000000
10626562.000000
-94863568.000000
-76073232.000000
-110863184.000000
-47657272.000000
-121082232.000000
89719168.000000
-32903712.000000
112808560.000000
-69789296.000000
-22278460.000000
-56988292.000000
41928576.000000
-872143.750000
-118466176.000000
-101976128.000000
76486416.000000
191063472.000000
16667532.000000
13754806.000000
-25845108.000000
-12448980.000000
6712953.000000
-53743120.000000
-24445910.000000
47638920.000000
-23043986.000000
-12448980.000000
24515578.000000
-51889812.000000
7769164.500000
-25646812.000000
-7734011.000000
1121325952.000000
26043846.000000
-394200832.000000
-125634976.000000
-162610800.000000
26043846.000000
-519699904.000000
-139450256.000000
-45921708.000000
-107564752.000000
399915264.000000
-257115888.000000
-151232288.000000
-376731072.000000
-45158452.000000
-173186160.000000
-351669856.000000
-356706496.000000
-185670256.000000
2888998.750000
-628080256.000000
-258134256.000000
-534843264.000000
-467926720.000000
33612508.000000
203559088.000000
128856928.000000
-304049728.000000
117057504.000000
-406997824.000000
-324844096.000000
-511325440.000000
149402112.000000
-57685952.000000
250199904.000000
-482407968.000000
-135963760.000000
88352976.000000
54841884.000000
-201407184.000000
-628080256.000000
-265098096.000000
-275574496.000000
6358037.500000
-346078080.000000
-328612672.000000
-95856128.000000
508041152.000000
407877568.000000
-34538304.000000
-26111538.000000
-445735104.000000
-75741840.000000
-139450256.000000
-48658660.000000
-559484288.000000
-689090368.000000
-400549696.000000
-78020704.000000
-139450256.000000
201962800.000000
-543975168.000000
-293671520.000000
282656288.000000
-450069728.000000
-4528553.500000
40541104.000000
124380136.000000
-64753396.000000
-224335472.000000
40541104.000000
-179079808.000000
82666832.000000
160244784.000000
54874672.000000
89644960.000000
32974912.000000
-50562184.000000
239174064.000000
-52267560.000000
166967184.000000
147746784.000000
33449872.000000
134148392.000000
74983752.000000
-53871224.000000
-67491792.000000
39926016.000000
239964512.000000
212026480.000000
35058584.000000
51174512.000000
358764352.000000
171784576.000000
-86732680.000000
-119732904.000000
157779152.000000
-228838688.000000
-63796232.000000
-101319752.000000
-92317568.000000
5751201.000000
-150391856.000000
-75965272.000000
390187872.000000
-53871224.000000
198733424.000000
292463072.000000
59998440.000000
18710252.000000
-60841212.000000
132016608.000000
122591920.000000
60120792.000000
-288000992.000000
16667418.000000
35356736.000000
-65309040.000000
82666832.000000
316435968.000000
226042192.000000
-87517216.000000
-33243988.000000
30479916.000000
82666832.000000
85677600.000000
212561936.000000
-107515224.000000
94826808.000000
-15480670.000000
-233919280.000000
-17634040.000000
71054640.000000
177947664.000000
143839920.000000
-17634040.000000
54242276.000000
66696700.000000
-7490187.000000
176044688.000000
-342269.437500
-14415635.000000
187789776.000000
78539816.000000
152859648.000000
-56568084.000000
143858672.000000
22523618.000000
-176912080.000000
166900304.000000
-119539000.000000
-259552912.000000
-43561444.000000
179356784.000000
42284436.000000
54392748.000000
-201790960.000000
-282796480.000000
10832437.000000
47277596.000000
65899224.000000
-657420160.000000
172053760.000000
8048016.000000
-1830002.625000
352532992.000000
154398960.000000
135055520.000000
125494616.000000
-17272540.000000
-119539000.000000
98591896.000000
-154296528.000000
-120572472.000000
14413721.000000
146492752.000000
58130140.000000
3829001.250000
-117897048.000000
91595552.000000
-15929977.000000
-234004336.000000
-279851296.000000
66696700.000000
303711616.000000
-67998840.000000
138949872.000000
-13329611.000000
88585064.000000
66696700.000000
-46352804.000000
-110270904.000000
-156170928.000000
-91479464.000000
-61192108.000000
10027104.000000
-7425919.000000
-78998256.000000
36068048.000000
-48959208.000000
-7425919.000000
103783888.000000
-102548296.000000
-26428472.000000
47418856.000000
-647586.562500
-172285552.000000
47402496.000000
28855624.000000
-21589380.000000
-70510168.000000
-64065856.000000
-149239280.000000
-98989504.000000
-12590572.000000
-2030265.500000
25092992.000000
18478468.000000
-4445502.500000
53101408.000000
70718592.000000
9155894.000000
128995480.000000
80808344.000000
-27731828.000000
96198232.000000
-3036813.750000
-3927681.750000
74964608.000000
-57489472.000000
-111473112.000000
117082328.000000
125492464.000000
-158757872.000000
-26728596.000000
-2030265.500000
124763144.000000
-106764672.000000
-125434784.000000
64389048.000000
-50406576.000000
244435664.000000
-58084792.000000
-49837008.000000
206488592.000000
-87285696.000000
-110904368.000000
-183541072.000000
-102548296.000000
46721840.000000
-116949504.000000
-37785448.000000
-154656400.000000
61243384.000000
-102548296.000000
71303216.000000
-34146536.000000
-9910148.000000
40349808.000000
-19739964.000000
1664013824.000000
-277808256.000000
-61921004.000000
-966650688.000000
-333735040.000000
-277808256.000000
-458562688.000000
908371776.000000
-127263816.000000
-674081024.000000
152612176.000000
52539608.000000
-161126208.000000
-500961216.000000
356475840.000000
24661484.000000
-625700480.000000
-114862984.000000
-111338424.000000
-271681216.000000
-698083904.000000
384835584.000000
-476810496.000000
-555273792.000000
113132696.000000
-74316488.000000
219535888.000000
60428912.000000
497669696.000000
343707008.000000
364347904.000000
-346814080.000000
-325295616.000000
-422905920.000000
-355992832.000000
-305850496.000000
-82917800.000000
45921144.000000
-164946256.000000
-274889792.000000
-698083904.000000
232442128.000000
-63348800.000000
-281301024.000000
-86430392.000000
-881047232.000000
765391040.000000
-62114888.000000
292791808.000000
-214538736.000000
-504058048.000000
283968704.000000
-881198848.000000
908371776.000000
-41530592.000000
-83159032.000000
-610953536.000000
143830192.000000
32114992.000000
908371840.000000
48735860.000000
-246928848.000000
-163298832.000000
679525504.000000
200287920.000000
-429357440.000000
-132981928.000000
-34016596.000000
-248915872.000000
42146348.000000
-132981928.000000
-23944714.000000
72569304.000000
-165845760.000000
-265188688.000000
-63959212.000000
94797704.000000
-121308312.000000
60692156.000000
192150848.000000
-253688992.000000
199338848.000000
97586040.000000
21984572.000000
-31524072.000000
-84661736.000000
163378112.000000
-57901672.000000
40622076.000000
55349092.000000
-110528408.000000
8150171.000000
194845120.000000
342004608.000000
30140584.000000
50776052.000000
204003616.000000
35512460.000000
-225370240.000000
-5179041.500000
-61901068.000000
-130725400.000000
97201304.000000
-214020992.000000
-280362752.000000
-84661736.000000
278658240.000000
-54589368.000000
-74725688.000000
-5673273.000000
-172172320.000000
69445944.000000
-1348647.000000
123396728.000000
155956832.000000
-240669536.000000
74227688.000000
-173987360.000000
72569304.000000
-315693824.000000
431140864.000000
9484261.000000
66359796.000000
32310760.000000
72569432.000000
-63986684.000000
191888768.000000
-125934776.000000
-107306520.000000
105194216.000000
982708544.000000
279784064.000000
289354240.000000
-425528896.000000
174584160.000000
279784064.000000
-466028288.000000
-218971920.000000
-91664048.000000
264399696.000000
-40186264.000000
-70046904.000000
-66717944.000000
-66108256.000000
222573456.000000
-258808096.000000
-56087312.000000
-192121504.000000
37125816.000000
70415784.000000
-537511744.000000
-442456896.000000
-627147264.000000
-74555112.000000
114043896.000000
85218448.000000
303470912.000000
-602346752.000000
77947912.000000
69222336.000000
20713342.000000
-635251072.000000
422927168.000000
72346272.000000
-111925232.000000
50125144.000000
-133044072.000000
178705696.000000
210322016.000000
95026480.000000
-537511744.000000
214570192.000000
178207312.000000
259029728.000000
154913488.000000
-457484800.000000
-195299536.000000
-49136920.000000
-430753280.000000
-641298496.000000
127363504.000000
-371828576.000000
3305448.750000
-218971920.000000
-263873936.000000
-150969136.000000
-275841568.000000
166523376.000000
-156062432.000000
-218971920.000000
133271240.000000
-114566968.000000
-123080464.000000
232032048.000000
50465864.000000
-290734560.000000
-35688080.000000
137640448.000000
26977640.000000
-226368528.000000
-35688080.000000
87065896.000000
133387624.000000
195200528.000000
-158945568.000000
-67334384.000000
713466496.000000
-130808632.000000
178529904.000000
33616248.000000
-364177120.000000
55885840.000000
35649544.000000
-186941872.000000
150330224.000000
19718528.000000
30297288.000000
-91718872.000000
131679736.000000
189516304.000000
-124660600.000000
-124978696.000000
-247328640.000000
238860976.000000
-98680840.000000
139114672.000000
-303342560.000000
405718240.000000
-53228792.000000
-192404288.000000
105911224.000000
-6891059.000000
-77222472.000000
84403696.000000
100077336.000000
19718528.000000
-189519760.000000
-169993152.000000
-14806446.000000
7899161.000000
190620048.000000
-11187190.000000
175161728.000000
-102493720.000000
-89563720.000000
247569936.000000
-17677992.000000
263443088.000000
133387624.000000
58586504.000000
408286752.000000
293971200.000000
103416408.000000
232818800.000000
133387624.000000
-68610136.000000
166457632.000000
-180828240.000000
140936368.000000
96450808.000000
427647488.000000
-152117056.000000
2490681.000000
-324045376.000000
221149920.000000
-152117056.000000
-326466112.000000
141613408.000000
60744132.000000
28299562.000000
465158720.000000
-485993984.000000
-53586292.000000
-93346528.000000
-322222592.000000
105003216.000000
-454932096.000000
-91960360.000000
-43003188.000000
-209322240.000000
-410029824.000000
-21511698.000000
-493642496.000000
-136786720.000000
24022394.000000
38642316.000000
-146012272.000000
48614940.000000
-185944384.000000
-502918848.000000
-432170816.000000
-366669696.000000
157270544.000000
-212593504.000000
499996096.000000
-345340096.000000
133625360.000000
279857984.000000
-49428612.000000
-381248128.000000
-410029824.000000
-421025088.000000
-182181584.000000
-300252352.000000
18145250.000000
-369785792.000000
107138312.000000
-36458628.000000
161961136.000000
-29207854.000000
-214297776.000000
-174548352.000000
-96572312.000000
141613408.000000
-42542580.000000
-161593472.000000
-544014144.000000
-398763264.000000
11370853.000000
141613408.000000
89580800.000000
-144231232.000000
109393584.000000
115714016.000000
-416388032.000000
-288831232.000000
130032144.000000
360351136.000000
-124330032.000000
-146332000.000000
130032144.000000
13198494.000000
93068640.000000
331004320.000000
-132789632.000000
-58724940.000000
411420544.000000
-74771360.000000
-237611392.000000
167047280.000000
-154661328.000000
140669008.000000
150275280.000000
115384496.000000
52698388.000000
-171863088.000000
-27182216.000000
-81626208.000000
-84470800.000000
156759648.000000
57323948.000000
-220774080.000000
-179370544.000000
203769584.000000
-2442469.750000
382813856.000000
62985204.000000
32917672.000000
123234480.000000
-64977124.000000
174139664.000000
-114899920.000000
44519900.000000
-177841808.000000
407147552.000000
-171863088.000000
-71234832.000000
91489632.000000
211723632.000000
11781724.000000
23990492.000000
186373904.000000
189339136.000000
-113496000.000000
-194896656.000000
-107876528.000000
30158068.000000
-147141680.000000
93068640.000000
73145600.000000
309569984.000000
-286130208.000000
-22417968.000000
57850428.000000
93068640.000000
-136715424.000000
166890208.000000
32821908.000000
330461792.000000
243051648.000000
1675481472.000000
956556032.000000
-607609088.000000
-755028608.000000
280283136.000000
956556032.000000
-168996400.000000
-569477568.000000
-178086000.000000
909849984.000000
-79687904.000000
114845376.000000
-749872128.000000
788940928.000000
-712284736.000000
-400308288.000000
1049299328.000000
-654009984.000000
-126092592.000000
-536731392.000000
-552495232.000000
-722307200.000000
-60769760.000000
795632768.000000
355960448.000000
58002852.000000
-216044944.000000
-1193573120.000000
268362800.000000
757479936.000000
453223168.000000
-323996736.000000
315096320.000000
-434132352.000000
918698112.000000
64690540.000000
-581109056.000000
655863936.000000
91868512.000000
983546112.000000
-552495232.000000
1102504064.000000
287554560.000000
1035242880.000000
-268289152.000000
-955889152.000000
-353167232.000000
910520448.000000
-712261504.000000
-479714944.000000
-738326528.000000
-34010944.000000
709647360.000000
-569477568.000000
357554688.000000
36676032.000000
-105477336.000000
179012480.000000
264117904.000000
-569477568.000000
-494519424.000000
583162560.000000
936939904.000000
-711698560.000000
127141960.000000
-43378772.000000
82227016.000000
22050064.000000
15158053.000000
97676168.000000
82227032.000000
91550856.000000
67938184.000000
105846280.000000
-69755896.000000
63469936.000000
29098552.000000
-96181288.000000
-24167106.000000
-36695316.000000
54772284.000000
-9804011.000000
52811748.000000
16625849.000000
-22420308.000000
-38385164.000000
7093379.000000
-49063868.000000
-122087624.000000
-44862660.000000
-210825264.000000
93845752.000000
42431604.000000
-4468337.000000
3480175.000000
17053548.000000
-120978424.000000
-15140181.000000
-68053200.000000
-148006960.000000
105668872.000000
-48468140.000000
-125574968.000000
159513040.000000
66369820.000000
-38385164.000000
15404111.000000
32690946.000000
-11103165.000000
99831192.000000
70533960.000000
-134850896.000000
40590500.000000
-15843520.000000
233400528.000000
-150231440.000000
-128492392.000000
-148181264.000000
67938184.000000
136521392.000000
-207306096.000000
-3113500.500000
42005060.000000
120647976.000000
67938184.000000
-82897944.000000
-101785464.000000
101872056.000000
-34969752.000000
-48292388.000000
214107.187500
3851.332031
-9133.568359
4168.092285
180.350174
333.589355
2161.386230
902.079407
8425.259766
-280.288147
1861.352295
-2411.283447
356.361969
-1016.554138
-1258.698608
-3040.824951
1547.515503
1264.143555
13204.738281
-1707.352661
-6620.451172
1797.915405
4568.294922
-1647.488525
4330.430176
3373.946045
447.523529
365.016357
-4564.628418
-327.006439
7172.145508
5838.155762
258.963806
-1528.210693
-3956.123047
-170.586472
2977.674805
-207.348679
2521.601563
6895.617676
2705.988525
-1962.643677
817.427429
-504.491394
4519.872559
-2365.001465
6047.636230
-1419.210571
-2059.144775
-5156.159180
-921.650940
-731.606995
3751.067139
-8161.505859
1931.450684
-540.846436
-3270.391846
-1480.961792
2905.000488
-5636.019531
-829.533142
-2112.149414
1358.269653
-4156.198242
-2447.145752
141919.546875
-618.748474
-431.762024
735.786743
3430.136963
-1002.333313
-2717.259033
673.515991
7997.702148
-4983.579590
1807.401611
-4850.407715
-1860.767700
-1368.102051
1031.597900
2864.980713
2960.283447
2001.083374
4671.664551
-2513.387451
1400.621338
2676.868408
4372.971680
-2908.214600
598.307251
1671.875854
5532.292480
-1354.519287
-4962.233398
63.717617
6921.510742
10.879766
-1762.921265
6596.307617
701.455078
-4219.053711
740.794556
-68.539192
3209.968018
4764.616211
-2896.322021
1889.176270
2032.130127
-3485.413330
7790.384766
-1426.576416
2148.464600
-2204.507324
-3188.817627
-2258.456787
-7162.299316
-2812.127441
-448.780334
1217.264893
-4961.239258
284.031036
-6062.042480
-2590.910400
-3534.037842
277.653198
608.449585
-3374.183350
-2528.122803
-3011.817139
-4366.038574
40583.347656
5874.520020
1028.477417
3917.584961
4576.966309
-7908.661133
12346.206055
-7374.075684
-14991.973633
-1568.889648
-4875.816895
1330.767456
-5214.503906
134.520309
-715.526367
5801.330078
6296.878906
-1764.328369
-9894.954102
-1458.305176
-2082.970703
7934.483398
15101.926758
5157.356445
885.137756
-9999.652344
2393.280518
-8810.098633
16339.033203
-12036.656250
5231.011230
3751.377197
6419.701172
-14822.468750
-2050.683594
12181.730469
4115.281738
-653.194214
834.459717
-3324.247314
-1382.604980
1714.558350
2971.141602
-2711.164307
5577.600586
-16058.663086
31528.931641
8521.173828
5092.601563
7188.637695
1444.058350
977.902832
-946.996948
898.962158
14031.565430
7327.340820
6359.839844
-21472.160156
-11782.470703
-10510.042969
2768.276123
3813.369141
-1.910869
-26911.894531
1441.620239
234626.437500
5338.886230
-9485.002930
4869.163574
-1101.797363
3294.233398
3556.281006
3757.539551
7018.000488
667.680969
-2439.938965
-980.474060
2700.642578
-2691.738770
-3343.407227
-5447.724121
-773.081177
-4311.110840
16555.939453
3110.585693
-11164.234375
-1151.204590
2813.535645
0.099695
2253.959961
-102.464821
2167.991943
607.337524
621.233215
718.284119
6457.196777
6978.625488
-951.115479
-5935.578613
-5737.030762
5974.950684
4779.904785
-2082.649414
-991.138672
8307.593750
3538.344727
-3142.901123
-874.566040
3208.909180
3182.578369
-1744.991577
11026.155273
-289.027222
1640.539185
-331.338562
3376.051025
4331.379395
2615.361084
-9561.002930
5785.613770
-3533.725830
2459.386963
-1911.038940
4098.099121
-9827.781250
-1124.345825
-611.195313
2960.696777
-9430.593750
2879.984619
216455.625000
6249.156250
9470.871094
-10370.027344
6405.353027
2339.602051
6373.530273
-98.159325
13016.317383
-14875.253906
1945.307861
-6326.742676
-7581.774414
1852.575684
863.815186
7628.757324
-1334.567505
-7908.414551
-13947.453125
1109.666626
7842.916504
-2368.827393
3256.463379
-4237.017578
-531.097900
-10303.201172
5299.192871
-12362.178711
-541.577026
8082.402832
10728.046875
4685.104492
-7355.504395
-2798.256592
-2030.007568
4453.771973
5521.748535
3889.956787
-4597.400391
-664.770508
-11868.438477
8357.405273
3411.362061
-4067.308350
202.947601
-21054.888672
10957.119141
-7807.465820
6795.278809
-4945.211426
-10334.881836
-2462.646729
1164.638062
6688.601074
2669.264893
-7707.373047
-4559.640625
-14994.666992
-12737.420898
3792.391602
-1309.876587
-3305.125732
-2746.130615
-23861.068359
-6991.952148
258888.375000
474.694458
-9862.586914
2853.809082
347.190155
168.366028
-430.037964
2381.182373
6454.057129
-3104.008545
-2828.245605
-2044.755371
3713.805176
-1359.551758
-2504.870850
-5994.481934
-83.431694
-2813.576904
19315.369141
411.048309
-9752.307617
652.059509
4290.476563
2366.417725
673.604553
-2542.595459
-764.305725
-579.028809
798.779053
1520.920166
8583.088867
50.312244
3150.843750
-1903.201294
-5407.286133
4359.341797
10075.420898
-5382.017578
-17.432480
8086.922852
1272.229248
-1730.481934
-871.726257
-119.605247
8605.424805
-523.134949
7206.468750
6125.846680
4297.194824
4088.010498
-2462.730713
2112.922119
-1563.039551
-11253.260742
-1297.033936
-2587.009277
960.333496
-232.260925
3508.742920
-10805.901367
-3674.797363
-460.355988
-1398.983398
-10245.245117
2519.881104
218888.203125
10219.577148
4334.385254
4990.231934
6061.913086
947.019897
1368.241333
5919.038574
16950.125000
6940.535156
-11621.351563
318.960999
-10156.375000
-1552.202759
6930.374512
-4144.628418
5419.190430
-1003.675842
4809.473633
11494.457031
650.987671
1049.011719
4638.881348
-6317.982422
-8197.685547
-6429.338867
6345.378906
-7982.969238
5503.401855
-3958.884766
-1561.122437
9780.610352
-6282.826172
2339.212891
-2851.680176
10583.153320
-3097.621094
-3217.856201
5038.854980
12669.843750
781.779724
-6075.365723
-4489.830566
4269.520996
1703.047119
1278.634766
10317.658203
-4931.384766
1590.165649
2550.126709
6924.794922
5656.468750
-4742.539551
7189.101563
7460.076172
-1899.378296
5090.541016
-1363.201294
-8200.657227
-2063.964600
1714.653809
-2505.612305
7590.989746
-545.044128
-1231.252563
264061.156250
396.041565
-9892.907227
3073.581055
-1563.436157
1430.947632
-1760.517456
3410.181641
5188.222656
-2437.917480
-3942.065918
-2658.909668
4130.633301
-2322.306641
-3487.665039
-6553.467285
-450.042664
-4997.682617
19549.669922
1882.414429
-11642.594727
-918.244690
3390.604492
1793.583740
-503.223602
-3450.785156
1153.657104
19.213900
2130.371094
2161.564453
8130.858887
-278.193054
1229.219116
-3266.581055
-5741.518555
5059.824707
9443.041016
-5888.707520
-1888.902588
8493.560547
603.060486
-2060.830811
-2101.102051
-567.268555
7538.507324
-765.182373
9408.347656
6719.102051
4107.712891
4448.704102
-2136.677246
3395.206543
-2783.859863
-11367.238281
-993.554260
-3584.736328
1458.009399
-1763.466919
4096.057617
-11382.602539
-3295.411621
-1026.077515
-1503.743164
-12864.236328
4103.335938
224075.984375
4711.701660
-7317.196289
4844.329590
-47.774395
2946.414063
85.990746
2833.557617
11907.498047
99.059570
74.765724
-2493.531494
1507.528687
-5510.793945
-432.224609
-2151.935059
10.714692
-2520.142090
16558.019531
1930.007202
-9384.304688
-1439.075562
2166.497803
-4187.884766
1205.479614
2342.840820
4603.593262
1600.214111
-4530.737793
50.259426
7175.901367
6655.327637
-3172.049072
837.545166
-4472.543945
1364.434814
536.613098
1153.901001
-686.209534
8503.159180
2006.940796
-2411.322021
-264.885498
962.938538
4797.429688
1259.527466
7440.019531
-4885.880371
-3323.215820
-3672.501465
-378.642822
3602.307129
1588.663574
-4891.624512
2371.592529
-4672.058105
-2749.553467
-1887.250122
2617.501953
-6191.984863
-202.144913
-3398.333252
1335.469482
-5588.504883
-1198.859009
214352.203125
