0
-21964554560964919296.00000000000000000000
4138601899123277824.00000000000000000000
-11343017149951115264.00000000000000000000
14165179824452141056.00000000000000000000
8003088402616418304.00000000000000000000
-2197671406005649408.00000000000000000000
9264813729617281024.00000000000000000000
-11811685080802263040.00000000000000000000
10037054621874126848.00000000000000000000
1840546593330167808.00000000000000000000
4021486318579089408.00000000000000000000
3711319860819525632.00000000000000000000
5721467634562629632.00000000000000000000
-6259648889545031680.00000000000000000000
563056606049206272.00000000000000000000
-3421769795836575744.00000000000000000000
-3269108928511737856.00000000000000000000
2360818040846680064.00000000000000000000
683985911393812480.00000000000000000000
2803926449520640000.00000000000000000000
-3137520751289040896.00000000000000000000
3341809736851914752.00000000000000000000
616391303772504064.00000000000000000000
504528983627399168.00000000000000000000
-362648003179184128.00000000000000000000
1194941540485562368.00000000000000000000
2662011659089870848.00000000000000000000
-2132004173548355584.00000000000000000000
848589467861123072.00000000000000000000
1246013855595757568.00000000000000000000
-195665825103872000.00000000000000000000
1537301148950593536.00000000000000000000
449162525854924800.00000000000000000000
-2459517901137248256.00000000000000000000
1006323825433903104.00000000000000000000
-1055466085320491008.00000000000000000000
-1930874909525803008.00000000000000000000
-732049344215121920.00000000000000000000
-1854805197558120448.00000000000000000000
-3163574503942914048.00000000000000000000
1278686805687795712.00000000000000000000
-1521968321862303744.00000000000000000000
-3662805009755537408.00000000000000000000
1359530459704328192.00000000000000000000
-254683949970751488.00000000000000000000
1894814089230680064.00000000000000000000
-80698381042712576.00000000000000000000
1315832294203719680.00000000000000000000
693784209264738304.00000000000000000000
1176641543830765568.00000000000000000000
-2431379199559204864.00000000000000000000
412604932462477312.00000000000000000000
-21964554560964919296.00000000000000000000
4138601899123277824.00000000000000000000
-11343017149951115264.00000000000000000000
14165179824452141056.00000000000000000000
8003088402616418304.00000000000000000000
-2197671406005649408.00000000000000000000
9264813729617281024.00000000000000000000
-11811685080802263040.00000000000000000000
10037054621874126848.00000000000000000000
1840546593330167808.00000000000000000000
4021486318579089408.00000000000000000000
3711319860819525632.00000000000000000000
5721467634562629632.00000000000000000000
-116074935738171392.00000000000000000000
-613184990426955776.00000000000000000000
147931386777436160.00000000000000000000
4337355118518206464.00000000000000000000
-2074013181520379904.00000000000000000000
-36419445769371648.00000000000000000000
-2984983029266513920.00000000000000000000
-362751803948793856.00000000000000000000
-3478151927475208192.00000000000000000000
-931411074576547840.00000000000000000000
-718059845458067456.00000000000000000000
56561330559123456.00000000000000000000
-1329507195196276736.00000000000000000000
3057125835455594496.00000000000000000000
-2607801612671909888.00000000000000000000
-310466658793684992.00000000000000000000
3295020569287720960.00000000000000000000
-1361525248675020800.00000000000000000000
4815161640263614464.00000000000000000000
-1090114170612875264.00000000000000000000
-4195813887162974208.00000000000000000000
-736149835391959040.00000000000000000000
-2153111360827817984.00000000000000000000
-2462910719142658048.00000000000000000000
-2508711975509295104.00000000000000000000
-3665641199999385600.00000000000000000000
2666910808025333760.00000000000000000000
-14025240581538578432.00000000000000000000
1569384760810143744.00000000000000000000
-39053289624185077760.00000000000000000000
-21545477903061352448.00000000000000000000
11974800929317715968.00000000000000000000
-19099873771817795584.00000000000000000000
3167468974128496640.00000000000000000000
-23372435219866976256.00000000000000000000
-14120972859945779200.00000000000000000000
-14390087126936977408.00000000000000000000
-23410304599350837248.00000000000000000000
-21638795653933957120.00000000000000000000
-1372213188891770880.00000000000000000000
582668388795416576.00000000000000000000
-553196460649218048.00000000000000000000
-1737540633188368384.00000000000000000000
719307378838732800.00000000000000000000
-998100509250289664.00000000000000000000
670054892911460352.00000000000000000000
-35233107082739712.00000000000000000000
495388331148836864.00000000000000000000
225743549797236736.00000000000000000000
517270364888236032.00000000000000000000
365410594863448064.00000000000000000000
512589091053764608.00000000000000000000
413329407545966592.00000000000000000000
2699668008195850240.00000000000000000000
223824747387944960.00000000000000000000
-633880616760246272.00000000000000000000
952712600536219648.00000000000000000000
-2056878392313118720.00000000000000000000
874671120622551040.00000000000000000000
1316432352674578432.00000000000000000000
-243353551365996544.00000000000000000000
1722980075579637760.00000000000000000000
2543307009365639168.00000000000000000000
-1672520188446113792.00000000000000000000
1140389133634502656.00000000000000000000
-7440169785276497920.00000000000000000000
1160800879809396736.00000000000000000000
-3936720019391512576.00000000000000000000
-3577240465126195200.00000000000000000000
2625931459902308352.00000000000000000000
1385257657404751872.00000000000000000000
3723777602440134656.00000000000000000000
-4100844669825449984.00000000000000000000
3787126514630262784.00000000000000000000
597790865565417472.00000000000000000000
1179649807644360704.00000000000000000000
-1875204299349295104.00000000000000000000
1567225319973191680.00000000000000000000
-1508007822724431872.00000000000000000000
1179390185461252096.00000000000000000000
-648826003438698496.00000000000000000000
214683510793830400.00000000000000000000
-114178724856856576.00000000000000000000
-833595702671048704.00000000000000000000
40881401393840128.00000000000000000000
904825914209075200.00000000000000000000
-921400227364077568.00000000000000000000
411134026422681600.00000000000000000000
983354065456988160.00000000000000000000
-1695773759861948416.00000000000000000000
-254189255637598208.00000000000000000000
8748479770678788096.00000000000000000000
-9604188988646621184.00000000000000000000
4085824241478402048.00000000000000000000
-28697422809744277504.00000000000000000000
-14839413548743917568.00000000000000000000
7300643958734979072.00000000000000000000
-13432797328213803008.00000000000000000000
8567164805700386816.00000000000000000000
-16454464188551528448.00000000000000000000
-9143261619655016448.00000000000000000000
-9791915205926584320.00000000000000000000
-15558730548309393408.00000000000000000000
-15067242253623754752.00000000000000000000
4925526769169072128.00000000000000000000
-3069177307529740288.00000000000000000000
1899413346369667072.00000000000000000000
-1727302668105285632.00000000000000000000
-3605031995907768320.00000000000000000000
1655198069945270272.00000000000000000000
-3083166119092027392.00000000000000000000
-959660758109519872.00000000000000000000
-3572179138225635328.00000000000000000000
-2423729622286860288.00000000000000000000
-2988473428928888832.00000000000000000000
-3328987782004604928.00000000000000000000
-4391214970482720768.00000000000000000000
9168149615105540096.00000000000000000000
-8055825928086880256.00000000000000000000
3980204604758425600.00000000000000000000
-16366995839538692096.00000000000000000000
-11725579026696241152.00000000000000000000
5369480427406884864.00000000000000000000
-11369289980296822784.00000000000000000000
4628642686750949376.00000000000000000000
-13342718738596626432.00000000000000000000
-7001917094828703744.00000000000000000000
-8196740437814280192.00000000000000000000
-11783458418293997568.00000000000000000000
-12564433830921895936.00000000000000000000
591341405234790400.00000000000000000000
-3516089201802084352.00000000000000000000
-749223921999413248.00000000000000000000
2541469725435625472.00000000000000000000
-4179980095089278976.00000000000000000000
149623483632975872.00000000000000000000
-3709782743563894784.00000000000000000000
-1667180822542680064.00000000000000000000
-3956733330040291328.00000000000000000000
-3683910135450697728.00000000000000000000
-3498269416850718720.00000000000000000000
-2247891737043271680.00000000000000000000
-5058459923990446080.00000000000000000000
-632767429956599808.00000000000000000000
682809640110522368.00000000000000000000
-446292044592185344.00000000000000000000
-29342486421831680.00000000000000000000
232838543712452608.00000000000000000000
-392576091211956224.00000000000000000000
169705874535743488.00000000000000000000
547907569201446912.00000000000000000000
-221617787032829952.00000000000000000000
396003921790763008.00000000000000000000
623141824130711552.00000000000000000000
-676689483512414208.00000000000000000000
-22472258882633728.00000000000000000000
873265944762253312.00000000000000000000
649746500829577216.00000000000000000000
475485933735510016.00000000000000000000
5080383086336671744.00000000000000000000
84143065073188864.00000000000000000000
970764382441046016.00000000000000000000
-474741152046645248.00000000000000000000
462949267795869696.00000000000000000000
-628023312160653312.00000000000000000000
319183071582617600.00000000000000000000
589275903922536448.00000000000000000000
521233039154479104.00000000000000000000
563085811826819072.00000000000000000000
90750081984102400.00000000000000000000
-266257563983544320.00000000000000000000
-164232179235160064.00000000000000000000
7781230595631218688.00000000000000000000
-616718683359674368.00000000000000000000
-370275968176095232.00000000000000000000
-1265600143416098816.00000000000000000000
-1070529051023638528.00000000000000000000
-1346314055060553728.00000000000000000000
-619125376873922560.00000000000000000000
-310445630633803776.00000000000000000000
920412316166520832.00000000000000000000
-737057276082257920.00000000000000000000
-10930120846907277312.00000000000000000000
1652072570704363520.00000000000000000000
-5720474225806934016.00000000000000000000
-31925688059559936.00000000000000000000
3108378745350651904.00000000000000000000
74536838139740160.00000000000000000000
3057091750595133440.00000000000000000000
-1622754642905530368.00000000000000000000
3290730274916139008.00000000000000000000
842258205030481920.00000000000000000000
1497148771010609152.00000000000000000000
817169961024749568.00000000000000000000
2262294927050276864.00000000000000000000
-23686073110713335808.00000000000000000000
3755529848982863872.00000000000000000000
-11765939899528642560.00000000000000000000
-317640491128586240.00000000000000000000
5882260764764405760.00000000000000000000
-651733387060445184.00000000000000000000
6501878447969665024.00000000000000000000
-7492540073863282688.00000000000000000000
6783556834331459584.00000000000000000000
1751538653160538112.00000000000000000000
3497145441089224704.00000000000000000000
777125747541147648.00000000000000000000
4792845402510458880.00000000000000000000
438688165771870208.00000000000000000000
146800642147483648.00000000000000000000
-55162833372971008.00000000000000000000
-133073626021756928.00000000000000000000
150236186487554048.00000000000000000000
-1528759455431262208.00000000000000000000
57921215989284864.00000000000000000000
-390579618614083584.00000000000000000000
201830271404736512.00000000000000000000
209592514259189760.00000000000000000000
115123883949948928.00000000000000000000
193452783075065856.00000000000000000000
-131208734041964544.00000000000000000000
533112987414691840.00000000000000000000
-1317521556380844032.00000000000000000000
-603678956490588160.00000000000000000000
7668869303365533696.00000000000000000000
-928925422383529984.00000000000000000000
-1390532152122146816.00000000000000000000
-1282334572951896064.00000000000000000000
1319060460342870016.00000000000000000000
-1537994391031906304.00000000000000000000
-1685917737630564352.00000000000000000000
-1328160705769111552.00000000000000000000
262970024216494080.00000000000000000000
-1985810496179142656.00000000000000000000
5500187620937826304.00000000000000000000
-13353265254130253824.00000000000000000000
3069133327064629248.00000000000000000000
-39605715052305317888.00000000000000000000
-21339803257969573888.00000000000000000000
12632042800913842176.00000000000000000000
-19264571817565618176.00000000000000000000
6764248310636085248.00000000000000000000
-23508385434594967552.00000000000000000000
-13326572410342735872.00000000000000000000
-13702068825367773184.00000000000000000000
-22569145218753363968.00000000000000000000
-20669129752328536064.00000000000000000000
376041704072937472.00000000000000000000
-39530453790621696.00000000000000000000
-42859727754887168.00000000000000000000
-1011445281876606976.00000000000000000000
-173510339386671104.00000000000000000000
-336518006265872384.00000000000000000000
-337052643794878464.00000000000000000000
-187918717714169856.00000000000000000000
-397800111473688576.00000000000000000000
-40991086268645376.00000000000000000000
-58546662011830272.00000000000000000000
-16060134702710784.00000000000000000000
-118789784565972992.00000000000000000000
-5294690546973933568.00000000000000000000
1679773529215598592.00000000000000000000
-2620975686118014976.00000000000000000000
-4265331334462832640.00000000000000000000
1019347471945433088.00000000000000000000
650558215288782848.00000000000000000000
1900831578930544640.00000000000000000000
446110109777526784.00000000000000000000
856720631226433536.00000000000000000000
571919975439138816.00000000000000000000
1529535710640472064.00000000000000000000
-3290699213712654336.00000000000000000000
433012246231121920.00000000000000000000
2845911026149359616.00000000000000000000
-4561877317055414272.00000000000000000000
1113629425796120576.00000000000000000000
20339375220042235904.00000000000000000000
-5616826013435559936.00000000000000000000
215457807497953280.00000000000000000000
-5678161719835230208.00000000000000000000
3041048501556346880.00000000000000000000
-6383324706216345600.00000000000000000000
-5531497863806189568.00000000000000000000
-4575959587106062336.00000000000000000000
106108850674860032.00000000000000000000
-5175822344895070208.00000000000000000000
1016025297562107904.00000000000000000000
-598791214988263424.00000000000000000000
481489267223166976.00000000000000000000
5000410108090384384.00000000000000000000
-486427895498014720.00000000000000000000
-482757382087114752.00000000000000000000
-99648635746123776.00000000000000000000
-352020433022746624.00000000000000000000
-184614066797412352.00000000000000000000
-771068263105822720.00000000000000000000
-515380785436426240.00000000000000000000
158800832312115200.00000000000000000000
-522135875639836672.00000000000000000000
475079183152709632.00000000000000000000
-3378474876225454080.00000000000000000000
279292927165857792.00000000000000000000
7864367968342245376.00000000000000000000
-4000985374523392000.00000000000000000000
6147652085383954432.00000000000000000000
-3407395880326660096.00000000000000000000
534411682445787136.00000000000000000000
-3926356847421816832.00000000000000000000
-3733825764328472576.00000000000000000000
-3340499393869512704.00000000000000000000
-2405170965521629184.00000000000000000000
-4019392298683990016.00000000000000000000
-234588811605049344.00000000000000000000
-390445684353925120.00000000000000000000
-239100743468974080.00000000000000000000
-214230030966849536.00000000000000000000
17356624268099584.00000000000000000000
2357182505649438720.00000000000000000000
166784214442704896.00000000000000000000
-385582132107411456.00000000000000000000
308889649881808896.00000000000000000000
-269997243547779072.00000000000000000000
-376362177352695808.00000000000000000000
-62656868404690944.00000000000000000000
-111201548016549888.00000000000000000000
1110840102235406336.00000000000000000000
-1710700592281681920.00000000000000000000
-336251890092212224.00000000000000000000
8088967407571304448.00000000000000000000
-2686926317697368064.00000000000000000000
-2347089263784361984.00000000000000000000
-3719571695585984512.00000000000000000000
1225332179316244480.00000000000000000000
-4111527524800921600.00000000000000000000
-2210135469818118144.00000000000000000000
-2032801011810172928.00000000000000000000
1073581432741298176.00000000000000000000
-3429969403800715264.00000000000000000000
3897160690535759872.00000000000000000000
-6597806439446609920.00000000000000000000
2231714897341710336.00000000000000000000
-24156455180192186368.00000000000000000000
-10650581010661507072.00000000000000000000
5939557415199440896.00000000000000000000
-9333805885236969472.00000000000000000000
6199256564121993216.00000000000000000000
-11620215026429722624.00000000000000000000
-6438809361488805888.00000000000000000000
-6723181001582837760.00000000000000000000
-12579402582222438400.00000000000000000000
-10369111531508989952.00000000000000000000
200477459785711616.00000000000000000000
-4840249746830393344.00000000000000000000
-226262072608948224.00000000000000000000
-11900845578210246656.00000000000000000000
-6491468271877881856.00000000000000000000
3260517619530203136.00000000000000000000
-5713581387412406272.00000000000000000000
-402361298022563840.00000000000000000000
-6967880612879269888.00000000000000000000
-4683558894511849472.00000000000000000000
-4958237789851222016.00000000000000000000
-7547256170507927552.00000000000000000000
-7350088446880251904.00000000000000000000
882172951019913216.00000000000000000000
-13182160354127380480.00000000000000000000
680740702824431616.00000000000000000000
-40452044336576593920.00000000000000000000
-21139307312644620288.00000000000000000000
11726730215370522624.00000000000000000000
-18924677589047967744.00000000000000000000
2456553342910857216.00000000000000000000
-23407254554095386624.00000000000000000000
-13699283762414616576.00000000000000000000
-13621394358702964736.00000000000000000000
-23750471506752176128.00000000000000000000
-21102909079718723584.00000000000000000000
5621451109097799680.00000000000000000000
-4363469069433700352.00000000000000000000
3149628848212017152.00000000000000000000
-1124270499329736704.00000000000000000000
-4515234109659807744.00000000000000000000
3986831361339031552.00000000000000000000
-2752869802451140608.00000000000000000000
-1656443954058493952.00000000000000000000
-3444805938828017664.00000000000000000000
-3290321531468513280.00000000000000000000
-4146934547994378240.00000000000000000000
-6596296260225859584.00000000000000000000
-5811232863365890048.00000000000000000000
6634571909256183808.00000000000000000000
1278090732946587648.00000000000000000000
3364865945930563584.00000000000000000000
5911699638842294272.00000000000000000000
-2597407104620822528.00000000000000000000
-788277612945342464.00000000000000000000
-4340743813355012096.00000000000000000000
4256506379260395520.00000000000000000000
-6108709032795570176.00000000000000000000
510251048296775680.00000000000000000000
1084161895696433152.00000000000000000000
-2110702785027637248.00000000000000000000
-1180803607658758144.00000000000000000000
-862671531753340928.00000000000000000000
474554956624429056.00000000000000000000
-344471083107221504.00000000000000000000
-1143453678699544576.00000000000000000000
-445174700260196352.00000000000000000000
-699452466583830528.00000000000000000000
-109316581359616000.00000000000000000000
-436484297793208320.00000000000000000000
-781631477472296960.00000000000000000000
-41881128046428160.00000000000000000000
351088081522130944.00000000000000000000
-1801701672154562560.00000000000000000000
-579813300695465984.00000000000000000000
6972154414576435200.00000000000000000000
-15992442805490286592.00000000000000000000
3624103849725263872.00000000000000000000
-39495390055574274048.00000000000000000000
-24898772863499108352.00000000000000000000
13026816953308676096.00000000000000000000
-22653086334464294912.00000000000000000000
5901734215203946496.00000000000000000000
-27365870248042430464.00000000000000000000
-15872828035016163328.00000000000000000000
-16350828620563873792.00000000000000000000
-25012545928694857728.00000000000000000000
-24645111132924674048.00000000000000000000
-26201254337762557952.00000000000000000000
3745988287077023744.00000000000000000000
-13120229262181269504.00000000000000000000
-323166121173712896.00000000000000000000
7599943668199325696.00000000000000000000
151384025087344640.00000000000000000000
8972743309105561600.00000000000000000000
-11364811669436891136.00000000000000000000
9804879547529691136.00000000000000000000
1898682446015102976.00000000000000000000
3525650005161410560.00000000000000000000
1243577062950699008.00000000000000000000
5308822569925738496.00000000000000000000
-10930120846907277312.00000000000000000000
1652072570704363520.00000000000000000000
-5720474225806934016.00000000000000000000
-31925688059559936.00000000000000000000
3108379844862279680.00000000000000000000
74536838139740160.00000000000000000000
3057091750595133440.00000000000000000000
-1622754642905530368.00000000000000000000
3290730274916139008.00000000000000000000
842258617347342336.00000000000000000000
1497148771010609152.00000000000000000000
817170510780563456.00000000000000000000
2262296301439811584.00000000000000000000
3715143962260930560.00000000000000000000
-7203417444025630720.00000000000000000000
1538251814191759360.00000000000000000000
21586441308265775104.00000000000000000000
-9259663617152778240.00000000000000000000
5970580685532954624.00000000000000000000
-8298173684011499520.00000000000000000000
2420740325048844288.00000000000000000000
-9641466830874738688.00000000000000000000
-8339601083122843648.00000000000000000000
-7194340425782525952.00000000000000000000
-3417983902424236032.00000000000000000000
-8931317009505845248.00000000000000000000
-22503519767737925632.00000000000000000000
5030397638470533120.00000000000000000000
-11406962547199311872.00000000000000000000
23855408896507117568.00000000000000000000
8586069808628367360.00000000000000000000
-1320776248238014464.00000000000000000000
9349428845956038656.00000000000000000000
-9841571350060204032.00000000000000000000
9947956796628926464.00000000000000000000
2053393490208882688.00000000000000000000
4844441085155475456.00000000000000000000
5605921606867091456.00000000000000000000
6895399706864648192.00000000000000000000
-18103294024587673600.00000000000000000000
4485419752361033728.00000000000000000000
-8685440920767692800.00000000000000000000
386060694543400960.00000000000000000000
7529983942347194368.00000000000000000000
-2835391173772705792.00000000000000000000
9021088285623058432.00000000000000000000
-11179465894831063040.00000000000000000000
9544124867444473856.00000000000000000000
3078596273889083392.00000000000000000000
4385165182628790272.00000000000000000000
2040325657073811456.00000000000000000000
6028224231886553088.00000000000000000000
-2251774662356762624.00000000000000000000
-1455217933012697088.00000000000000000000
-1157589756100476928.00000000000000000000
116985881121783808.00000000000000000000
-10195011115155456.00000000000000000000
1225932924981870592.00000000000000000000
1617305050961412096.00000000000000000000
-1889948063083003904.00000000000000000000
1809966288743694336.00000000000000000000
-1150706057396355072.00000000000000000000
-1386283501753466880.00000000000000000000
-1554355673809027072.00000000000000000000
-757075122216501248.00000000000000000000
1052061997320896512.00000000000000000000
-749515911056064512.00000000000000000000
553881250234892288.00000000000000000000
4352724092051259392.00000000000000000000
-286307502113423360.00000000000000000000
2233841627707736064.00000000000000000000
-176509291711168512.00000000000000000000
-601582875011186688.00000000000000000000
70160348069494784.00000000000000000000
-475231568592371712.00000000000000000000
-717942953628139520.00000000000000000000
-411467556403019776.00000000000000000000
-708209045906915328.00000000000000000000
-367166755451174912.00000000000000000000
280054270248615936.00000000000000000000
248941166379139072.00000000000000000000
1876857552520609792.00000000000000000000
-384425445874991104.00000000000000000000
75276379968503808.00000000000000000000
-118797412427890688.00000000000000000000
12191843416539136.00000000000000000000
-319285807200337920.00000000000000000000
-198221021407346688.00000000000000000000
278785382290554880.00000000000000000000
157433297545199616.00000000000000000000
227700611775201280.00000000000000000000
104333714921619456.00000000000000000000
1344829302046195712.00000000000000000000
212784997810044928.00000000000000000000
-1856241159743995904.00000000000000000000
661389504334004224.00000000000000000000
-850517324061474816.00000000000000000000
816339623587348480.00000000000000000000
-784032398550499328.00000000000000000000
423762948259840000.00000000000000000000
946249602468675584.00000000000000000000
1283530291847102464.00000000000000000000
-659568575639453696.00000000000000000000
1055861909506490368.00000000000000000000
2287830259971653632.00000000000000000000
-819936332280233984.00000000000000000000
1162598306442903552.00000000000000000000
10987602215295778816.00000000000000000000
-1453496922437320704.00000000000000000000
21619265492746240.00000000000000000000
-1452862229350187008.00000000000000000000
540932439233527808.00000000000000000000
-1794504956233908224.00000000000000000000
-1163605459093946368.00000000000000000000
-832478805015658496.00000000000000000000
-524899188878606336.00000000000000000000
-1589668688758308864.00000000000000000000
2843248283864793088.00000000000000000000
976982601732456448.00000000000000000000
1515143240871837696.00000000000000000000
-2949089747055673344.00000000000000000000
256100327105757184.00000000000000000000
-269349528119803904.00000000000000000000
266318518159409152.00000000000000000000
101343404071321600.00000000000000000000
-107130692114055168.00000000000000000000
1062381257544957952.00000000000000000000
976895671594385408.00000000000000000000
-1530684150535684096.00000000000000000000
205790214071779328.00000000000000000000
16321591506869682176.00000000000000000000
-17960783023976742912.00000000000000000000
8276892636455895040.00000000000000000000
-35728522592441597952.00000000000000000000
-29123817817042321408.00000000000000000000
13143809388550553600.00000000000000000000
-27874381181749297152.00000000000000000000
7019102461570842624.00000000000000000000
-32861240358783156224.00000000000000000000
-17064548006432342016.00000000000000000000
-18291810790728007680.00000000000000000000
-24860731960201314304.00000000000000000000
-27701900792700076032.00000000000000000000
-1538422375933018112.00000000000000000000
-1288880790305767424.00000000000000000000
-894806477062012928.00000000000000000000
-8181292849199841280.00000000000000000000
-1864435270149996544.00000000000000000000
1550588472094359552.00000000000000000000
-1446073432243437568.00000000000000000000
-227777079372939264.00000000000000000000
-2023291473180491776.00000000000000000000
-1414551670825680896.00000000000000000000
-1372655192566136832.00000000000000000000
-3623936723957841920.00000000000000000000
-2435941348180754432.00000000000000000000
-89016349715595264.00000000000000000000
685583020752633856.00000000000000000000
295283605804941312.00000000000000000000
16374881536933101568.00000000000000000000
270411914050273280.00000000000000000000
-1639396438586687488.00000000000000000000
-112591184685170688.00000000000000000000
2131011864304287744.00000000000000000000
-495169425255694336.00000000000000000000
-350732217711853568.00000000000000000000
661757634570878976.00000000000000000000
1365915736043683840.00000000000000000000
693453806020591616.00000000000000000000
3057125835455594496.00000000000000000000
-2607801612671909888.00000000000000000000
-310466658793684992.00000000000000000000
3295020569287720960.00000000000000000000
-1361525248675020800.00000000000000000000
4815161640263614464.00000000000000000000
-1090114170612875264.00000000000000000000
-4195813887162974208.00000000000000000000
-736149835391959040.00000000000000000000
-2153111360827817984.00000000000000000000
-2462910719142658048.00000000000000000000
-2508711975509295104.00000000000000000000
-3665641199999385600.00000000000000000000
2807601292258574336.00000000000000000000
-2575295101152526336.00000000000000000000
935316746036838400.00000000000000000000
6813272235583733760.00000000000000000000
-3603190863687057408.00000000000000000000
-147029804422529024.00000000000000000000
-3063958475588501504.00000000000000000000
-188756631473881088.00000000000000000000
-3938813764408705024.00000000000000000000
-3065871625820831744.00000000000000000000
-2520948715292721152.00000000000000000000
-1582312268773720064.00000000000000000000
-3832059431688863744.00000000000000000000
-25848757506967339008.00000000000000000000
3561705740215255040.00000000000000000000
-13329596067319119872.00000000000000000000
284704740577640448.00000000000000000000
6588333597017505792.00000000000000000000
1283689446155223040.00000000000000000000
7173161083052490752.00000000000000000000
-8218144630672195584.00000000000000000000
7683221778398707712.00000000000000000000
1609549783133847552.00000000000000000000
3312365914971701248.00000000000000000000
1262347375704276992.00000000000000000000
5039674218074079232.00000000000000000000
5092643190742188032.00000000000000000000
-11364695121204346880.00000000000000000000
2500281470103322624.00000000000000000000
-23640267456300187648.00000000000000000000
-17304454846543298560.00000000000000000000
8157559340958482432.00000000000000000000
-15892295987897565184.00000000000000000000
3150438363647967232.00000000000000000000
-19020003048152891392.00000000000000000000
-11082163513819398144.00000000000000000000
-11604291899036270592.00000000000000000000
-16161127680400424960.00000000000000000000
-17202513625974046720.00000000000000000000
-15212437162118086656.00000000000000000000
5875389916602433536.00000000000000000000
-7374830757040095232.00000000000000000000
3211392539512799232.00000000000000000000
8528057376123650048.00000000000000000000
-3489815821700562944.00000000000000000000
9562582369139949568.00000000000000000000
-7850551505227612160.00000000000000000000
9729683947306090496.00000000000000000000
4236234408501182464.00000000000000000000
5744854246885425152.00000000000000000000
2873220146204246016.00000000000000000000
7028355401674391552.00000000000000000000
255991750332514304.00000000000000000000
88478095824125952.00000000000000000000
-277350433716961280.00000000000000000000
1742258225266294784.00000000000000000000
415815918732443648.00000000000000000000
-52011693177307136.00000000000000000000
-148113716729085952.00000000000000000000
34171676782493696.00000000000000000000
-20657568628080640.00000000000000000000
219908269789937664.00000000000000000000
72313952045891584.00000000000000000000
102420994186018816.00000000000000000000
-159152796292087808.00000000000000000000
3057125285699780608.00000000000000000000
-2607801612671909888.00000000000000000000
-310467071110545408.00000000000000000000
3295021668799348736.00000000000000000000
-1361524424041299968.00000000000000000000
4815163839286870016.00000000000000000000
-1090114170612875264.00000000000000000000
-4195812787651346432.00000000000000000000
-736150797464633344.00000000000000000000
-2153114109606887424.00000000000000000000
-2462910444264751104.00000000000000000000
-2508710601119760384.00000000000000000000
-3665640100487757824.00000000000000000000
-322193465699991552.00000000000000000000
986119268481368064.00000000000000000000
-111714195313000448.00000000000000000000
-2348490591353962496.00000000000000000000
985309272009080832.00000000000000000000
-661129401114558464.00000000000000000000
1487362155450728448.00000000000000000000
379790798205485056.00000000000000000000
1271167932860203008.00000000000000000000
819004564895170560.00000000000000000000
957906624746356736.00000000000000000000
-1505368170184048640.00000000000000000000
576538817628995584.00000000000000000000
-18878135261844209664.00000000000000000000
2081452202316005376.00000000000000000000
-9420173623110402048.00000000000000000000
-82663225501417472.00000000000000000000
3784812592409608192.00000000000000000000
3193833613695123456.00000000000000000000
5367417193837363200.00000000000000000000
-5193272693939503104.00000000000000000000
5060121286060015616.00000000000000000000
379268976858890240.00000000000000000000
1836164902054526976.00000000000000000000
-1000643679645335552.00000000000000000000
2500453543673069568.00000000000000000000
3360431615535742976.00000000000000000000
-3100526857938796544.00000000000000000000
985500724471267328.00000000000000000000
3378162889801072640.00000000000000000000
-5886891357984784384.00000000000000000000
-280132163775496192.00000000000000000000
-6121379804794060800.00000000000000000000
2570630697949593600.00000000000000000000
-7476506445551239168.00000000000000000000
-3801524069640175616.00000000000000000000
-3265732328302837760.00000000000000000000
-3483807540410580992.00000000000000000000
-5726953098073604096.00000000000000000000
9995587640344182784.00000000000000000000
-17161733839211462656.00000000000000000000
5369653050732445696.00000000000000000000
-40442012392484765696.00000000000000000000
-27504089854770151424.00000000000000000000
14125778825270788096.00000000000000000000
-25280342980755980288.00000000000000000000
6922681339128840192.00000000000000000000
-30426915017817325568.00000000000000000000
-16964148301165232128.00000000000000000000
-17578256331603705856.00000000000000000000
-26261483385708871680.00000000000000000000
-26501566147680272384.00000000000000000000
-26001358725786370048.00000000000000000000
4228472406164897792.00000000000000000000
-13253151421886365696.00000000000000000000
2048706272139673600.00000000000000000000
8018799874021523456.00000000000000000000
2043917761561755648.00000000000000000000
8938364329284075520.00000000000000000000
-10357953687510319104.00000000000000000000
9488837024753385472.00000000000000000000
2092027854907768832.00000000000000000000
4051844659255705600.00000000000000000000
2392796237028917248.00000000000000000000
6003293355482546176.00000000000000000000
-736244992.00000000000000000000
300240928.00000000000000000000
-50129876.00000000000000000000
-14282623.00000000000000000000
120020936.00000000000000000000
300240928.00000000000000000000
108787960.00000000000000000000
-142510064.00000000000000000000
347553024.00000000000000000000
-282532832.00000000000000000000
-70938232.00000000000000000000
-852750400.00000000000000000000
86841448.00000000000000000000
-45922780.00000000000000000000
-414092416.00000000000000000000
7767063.00000000000000000000
96739144.00000000000000000000
81440432.00000000000000000000
71997192.00000000000000000000
-245204016.00000000000000000000
-309788864.00000000000000000000
361630304.00000000000000000000
188173296.00000000000000000000
-16081761.00000000000000000000
-14927017.00000000000000000000
104159816.00000000000000000000
-237286672.00000000000000000000
298106432.00000000000000000000
-289619776.00000000000000000000
-354588864.00000000000000000000
-82157552.00000000000000000000
86024920.00000000000000000000
133564584.00000000000000000000
-379549504.00000000000000000000
183052976.00000000000000000000
289656512.00000000000000000000
-82887936.00000000000000000000
225592048.00000000000000000000
170997344.00000000000000000000
-274957248.00000000000000000000
-309788864.00000000000000000000
-55605364.00000000000000000000
-90136472.00000000000000000000
107552264.00000000000000000000
245704672.00000000000000000000
-3790076.00000000000000000000
-262273200.00000000000000000000
-214622352.00000000000000000000
105405640.00000000000000000000
341225824.00000000000000000000
-201216176.00000000000000000000
-102336104.00000000000000000000
-430103808.00000000000000000000
-142510064.00000000000000000000
-215839888.00000000000000000000
-125196752.00000000000000000000
-101103752.00000000000000000000
266439872.00000000000000000000
35098336.00000000000000000000
-142510064.00000000000000000000
12729651.00000000000000000000
-145637728.00000000000000000000
190217328.00000000000000000000
-218723376.00000000000000000000
160846480.00000000000000000000
-24374958.00000000000000000000
323630144.00000000000000000000
-445412896.00000000000000000000
-143306096.00000000000000000000
-110400752.00000000000000000000
323630144.00000000000000000000
-367573408.00000000000000000000
-32695674.00000000000000000000
53515684.00000000000000000000
62432340.00000000000000000000
-9921435.00000000000000000000
493288480.00000000000000000000
-313589312.00000000000000000000
60986620.00000000000000000000
-9941654.00000000000000000000
91815416.00000000000000000000
-166227184.00000000000000000000
-197766192.00000000000000000000
208818752.00000000000000000000
-489204128.00000000000000000000
-220706064.00000000000000000000
46328060.00000000000000000000
-101682368.00000000000000000000
102496744.00000000000000000000
71755112.00000000000000000000
-62056348.00000000000000000000
9805232.00000000000000000000
82804688.00000000000000000000
195446992.00000000000000000000
-182196192.00000000000000000000
-253903904.00000000000000000000
-250903296.00000000000000000000
178973888.00000000000000000000
278726368.00000000000000000000
123860376.00000000000000000000
-179882752.00000000000000000000
-197840544.00000000000000000000
232927984.00000000000000000000
57764820.00000000000000000000
502947072.00000000000000000000
-220706064.00000000000000000000
179945808.00000000000000000000
-1921664.87500000000000000000
430292096.00000000000000000000
-218677312.00000000000000000000
-454192672.00000000000000000000
-322554336.00000000000000000000
258612176.00000000000000000000
-241771616.00000000000000000000
-79856104.00000000000000000000
-297436288.00000000000000000000
54128012.00000000000000000000
2321309.00000000000000000000
-32695674.00000000000000000000
56860524.00000000000000000000
-416239616.00000000000000000000
-207243264.00000000000000000000
-172973200.00000000000000000000
94000728.00000000000000000000
-32695674.00000000000000000000
-93382064.00000000000000000000
-227408368.00000000000000000000
280890304.00000000000000000000
107283480.00000000000000000000
-352151808.00000000000000000000
-284934752.00000000000000000000
10788315.00000000000000000000
-41009392.00000000000000000000
-61914684.00000000000000000000
-104184216.00000000000000000000
10788315.00000000000000000000
521037472.00000000000000000000
-83449992.00000000000000000000
301153792.00000000000000000000
16128965.00000000000000000000
-138348016.00000000000000000000
134228368.00000000000000000000
198709152.00000000000000000000
112954296.00000000000000000000
-154202400.00000000000000000000
14130497.00000000000000000000
-96157432.00000000000000000000
223378928.00000000000000000000
43792156.00000000000000000000
87847320.00000000000000000000
62557548.00000000000000000000
51001528.00000000000000000000
186742400.00000000000000000000
112961624.00000000000000000000
-113649544.00000000000000000000
22439824.00000000000000000000
-57635644.00000000000000000000
86785256.00000000000000000000
-81523544.00000000000000000000
-190299488.00000000000000000000
-211883824.00000000000000000000
75023432.00000000000000000000
-132230568.00000000000000000000
-226360592.00000000000000000000
-131100200.00000000000000000000
-80580760.00000000000000000000
290586368.00000000000000000000
322783904.00000000000000000000
308922624.00000000000000000000
-132168808.00000000000000000000
62557548.00000000000000000000
23705556.00000000000000000000
375336480.00000000000000000000
-26637584.00000000000000000000
282886496.00000000000000000000
286661472.00000000000000000000
-193866064.00000000000000000000
171802672.00000000000000000000
-148611920.00000000000000000000
229901744.00000000000000000000
-37048604.00000000000000000000
10323355.00000000000000000000
160443328.00000000000000000000
-83449992.00000000000000000000
-153618016.00000000000000000000
-173304864.00000000000000000000
431811392.00000000000000000000
350433344.00000000000000000000
-141365120.00000000000000000000
-83449848.00000000000000000000
-121063592.00000000000000000000
-154373376.00000000000000000000
145417744.00000000000000000000
-175746432.00000000000000000000
72092592.00000000000000000000
-443638624.00000000000000000000
9518648.00000000000000000000
-561523136.00000000000000000000
-51449992.00000000000000000000
-24388344.00000000000000000000
9518648.00000000000000000000
-39223976.00000000000000000000
363547360.00000000000000000000
173049680.00000000000000000000
-168971824.00000000000000000000
-33769208.00000000000000000000
-126647800.00000000000000000000
6784981.00000000000000000000
-185916704.00000000000000000000
-503431456.00000000000000000000
214306656.00000000000000000000
-199205056.00000000000000000000
330183840.00000000000000000000
-102697320.00000000000000000000
78354968.00000000000000000000
150870432.00000000000000000000
166826160.00000000000000000000
-389934880.00000000000000000000
-250992272.00000000000000000000
268603264.00000000000000000000
-11367296.00000000000000000000
85844664.00000000000000000000
-251242656.00000000000000000000
144689424.00000000000000000000
64169840.00000000000000000000
-181934880.00000000000000000000
-450333600.00000000000000000000
-29137896.00000000000000000000
22676836.00000000000000000000
17911688.00000000000000000000
124461768.00000000000000000000
-68856568.00000000000000000000
-49172732.00000000000000000000
-3986668.25000000000000000000
101814200.00000000000000000000
150870432.00000000000000000000
199420848.00000000000000000000
-187099072.00000000000000000000
217090736.00000000000000000000
-178406992.00000000000000000000
-22591464.00000000000000000000
-246071728.00000000000000000000
84594480.00000000000000000000
-229991536.00000000000000000000
-91797384.00000000000000000000
-197336096.00000000000000000000
-107749416.00000000000000000000
-189098496.00000000000000000000
363547360.00000000000000000000
135444960.00000000000000000000
169653376.00000000000000000000
532788832.00000000000000000000
-43867832.00000000000000000000
-230738320.00000000000000000000
363547360.00000000000000000000
21641976.00000000000000000000
-324154016.00000000000000000000
398588768.00000000000000000000
-228426752.00000000000000000000
-173928400.00000000000000000000
1477982208.00000000000000000000
1218138240.00000000000000000000
260510560.00000000000000000000
94446592.00000000000000000000
198454560.00000000000000000000
1218138240.00000000000000000000
-88773856.00000000000000000000
-449716576.00000000000000000000
844570496.00000000000000000000
249786704.00000000000000000000
-383423680.00000000000000000000
372223712.00000000000000000000
95112320.00000000000000000000
-208200384.00000000000000000000
-277873792.00000000000000000000
-268293872.00000000000000000000
727891392.00000000000000000000
-243832144.00000000000000000000
-19921156.00000000000000000000
-169039824.00000000000000000000
756051392.00000000000000000000
1243350400.00000000000000000000
317038240.00000000000000000000
-10211880.00000000000000000000
645180800.00000000000000000000
101585824.00000000000000000000
216741696.00000000000000000000
-54080600.00000000000000000000
-66868940.00000000000000000000
-455194112.00000000000000000000
-241462976.00000000000000000000
-195763392.00000000000000000000
447459232.00000000000000000000
304311136.00000000000000000000
685881856.00000000000000000000
-32975650.00000000000000000000
53160148.00000000000000000000
360825792.00000000000000000000
631712320.00000000000000000000
1324273536.00000000000000000000
756051392.00000000000000000000
-697378880.00000000000000000000
1263932800.00000000000000000000
1298352256.00000000000000000000
272767168.00000000000000000000
-83890752.00000000000000000000
-88931216.00000000000000000000
286592416.00000000000000000000
-142394512.00000000000000000000
-40328000.00000000000000000000
8204941.50000000000000000000
338135808.00000000000000000000
48723280.00000000000000000000
-449716576.00000000000000000000
-122582016.00000000000000000000
970089280.00000000000000000000
407185376.00000000000000000000
1155150080.00000000000000000000
-140867472.00000000000000000000
-449716576.00000000000000000000
237102080.00000000000000000000
889706304.00000000000000000000
-703944768.00000000000000000000
419421888.00000000000000000000
1165309952.00000000000000000000
14150833.00000000000000000000
125055904.00000000000000000000
-71048352.00000000000000000000
-99405552.00000000000000000000
-66308088.00000000000000000000
125055904.00000000000000000000
-168755520.00000000000000000000
56303900.00000000000000000000
132739160.00000000000000000000
11187928.00000000000000000000
104692432.00000000000000000000
-40460924.00000000000000000000
176625216.00000000000000000000
134029736.00000000000000000000
67218624.00000000000000000000
-55748076.00000000000000000000
-39549176.00000000000000000000
9890516.00000000000000000000
95550480.00000000000000000000
164420800.00000000000000000000
46866004.00000000000000000000
-108448368.00000000000000000000
-243170304.00000000000000000000
-23221408.00000000000000000000
-42757360.00000000000000000000
-183697888.00000000000000000000
-185896672.00000000000000000000
191521152.00000000000000000000
60334516.00000000000000000000
-90705184.00000000000000000000
-112072032.00000000000000000000
109817776.00000000000000000000
66436040.00000000000000000000
-73421776.00000000000000000000
-3295722.00000000000000000000
52381976.00000000000000000000
44185708.00000000000000000000
12327685.00000000000000000000
12486973.00000000000000000000
107648688.00000000000000000000
46866004.00000000000000000000
-15547905.00000000000000000000
184638976.00000000000000000000
209001280.00000000000000000000
-80080800.00000000000000000000
1287449.62500000000000000000
-94137664.00000000000000000000
-79359888.00000000000000000000
50007772.00000000000000000000
-77556544.00000000000000000000
-131586128.00000000000000000000
-14352354.00000000000000000000
239509664.00000000000000000000
56303900.00000000000000000000
-44599020.00000000000000000000
122206256.00000000000000000000
-109226448.00000000000000000000
-91618304.00000000000000000000
-108823664.00000000000000000000
56303900.00000000000000000000
4554902.50000000000000000000
-76151616.00000000000000000000
-51455572.00000000000000000000
63588288.00000000000000000000
11232637.00000000000000000000
407385952.00000000000000000000
54835660.00000000000000000000
-183505440.00000000000000000000
-145788064.00000000000000000000
277008192.00000000000000000000
54835660.00000000000000000000
-513508960.00000000000000000000
-298509952.00000000000000000000
227674000.00000000000000000000
-35485172.00000000000000000000
73624656.00000000000000000000
-37144852.00000000000000000000
-113854608.00000000000000000000
144645760.00000000000000000000
166768272.00000000000000000000
81084368.00000000000000000000
112310832.00000000000000000000
15632304.00000000000000000000
-173400448.00000000000000000000
-44025732.00000000000000000000
-139301088.00000000000000000000
-15157762.00000000000000000000
-307384032.00000000000000000000
209359984.00000000000000000000
-69288432.00000000000000000000
44998820.00000000000000000000
190913792.00000000000000000000
62946212.00000000000000000000
140393104.00000000000000000000
-15276948.00000000000000000000
-408008000.00000000000000000000
90466864.00000000000000000000
342682560.00000000000000000000
179946096.00000000000000000000
83545920.00000000000000000000
-157145840.00000000000000000000
-22130796.00000000000000000000
351442208.00000000000000000000
328223136.00000000000000000000
215166848.00000000000000000000
-139301088.00000000000000000000
-324465344.00000000000000000000
112751184.00000000000000000000
-159733776.00000000000000000000
264433360.00000000000000000000
-253002672.00000000000000000000
325365792.00000000000000000000
-21122238.00000000000000000000
204891072.00000000000000000000
56945180.00000000000000000000
-150679424.00000000000000000000
-181436304.00000000000000000000
-47045508.00000000000000000000
-298509952.00000000000000000000
101026128.00000000000000000000
124851984.00000000000000000000
27023388.00000000000000000000
133263040.00000000000000000000
-147988160.00000000000000000000
-298509952.00000000000000000000
114892656.00000000000000000000
210136176.00000000000000000000
-265269248.00000000000000000000
258860848.00000000000000000000
133983264.00000000000000000000
-797228416.00000000000000000000
348889760.00000000000000000000
381062688.00000000000000000000
-49778960.00000000000000000000
299339744.00000000000000000000
348889760.00000000000000000000
-108889728.00000000000000000000
15999500.00000000000000000000
97744304.00000000000000000000
2728476.00000000000000000000
278435648.00000000000000000000
-304672640.00000000000000000000
-11484930.00000000000000000000
153732864.00000000000000000000
-232021088.00000000000000000000
182895872.00000000000000000000
-112845216.00000000000000000000
308857664.00000000000000000000
207709056.00000000000000000000
-115189440.00000000000000000000
-532482976.00000000000000000000
222292992.00000000000000000000
-33494230.00000000000000000000
56283776.00000000000000000000
226948640.00000000000000000000
-51773616.00000000000000000000
508789984.00000000000000000000
949527872.00000000000000000000
-259292720.00000000000000000000
20749420.00000000000000000000
-57885160.00000000000000000000
327321408.00000000000000000000
488957856.00000000000000000000
-116730096.00000000000000000000
-39597424.00000000000000000000
35028104.00000000000000000000
168356352.00000000000000000000
22305196.00000000000000000000
291834144.00000000000000000000
-179175648.00000000000000000000
-532482976.00000000000000000000
24780284.00000000000000000000
-103199888.00000000000000000000
405776608.00000000000000000000
297228384.00000000000000000000
-275903104.00000000000000000000
176844000.00000000000000000000
-319469248.00000000000000000000
-209648640.00000000000000000000
120127200.00000000000000000000
90156960.00000000000000000000
-13909124.00000000000000000000
251149440.00000000000000000000
15999500.00000000000000000000
-197532064.00000000000000000000
-113776816.00000000000000000000
120663200.00000000000000000000
351298656.00000000000000000000
17502424.00000000000000000000
15999500.00000000000000000000
273819424.00000000000000000000
-184739584.00000000000000000000
-136878768.00000000000000000000
21349988.00000000000000000000
-96378032.00000000000000000000
2911521536.00000000000000000000
-2830054144.00000000000000000000
-861294144.00000000000000000000
159185296.00000000000000000000
406833984.00000000000000000000
-2830054144.00000000000000000000
366356736.00000000000000000000
-584833536.00000000000000000000
-1833456384.00000000000000000000
-624225024.00000000000000000000
-305157664.00000000000000000000
-719123456.00000000000000000000
-320583488.00000000000000000000
-1095406848.00000000000000000000
-166671792.00000000000000000000
-320919712.00000000000000000000
-1280445952.00000000000000000000
351491168.00000000000000000000
218112480.00000000000000000000
-547549952.00000000000000000000
-2764514816.00000000000000000000
-2798163968.00000000000000000000
209134368.00000000000000000000
-193064256.00000000000000000000
-1841531648.00000000000000000000
523927456.00000000000000000000
207242976.00000000000000000000
-278055168.00000000000000000000
-234261568.00000000000000000000
-17420738.00000000000000000000
-403440640.00000000000000000000
254465920.00000000000000000000
-1919619328.00000000000000000000
-840563648.00000000000000000000
-1770311168.00000000000000000000
-53725624.00000000000000000000
-532154304.00000000000000000000
-205025696.00000000000000000000
-1810148864.00000000000000000000
-2819473408.00000000000000000000
-2764514816.00000000000000000000
-147320032.00000000000000000000
-2338803456.00000000000000000000
-2465872640.00000000000000000000
-293590656.00000000000000000000
482223104.00000000000000000000
-370746336.00000000000000000000
587506048.00000000000000000000
-355847360.00000000000000000000
204919456.00000000000000000000
-1262392320.00000000000000000000
-833467712.00000000000000000000
-732859008.00000000000000000000
-584833536.00000000000000000000
-79599496.00000000000000000000
-2675722240.00000000000000000000
-1015350656.00000000000000000000
-2176139520.00000000000000000000
-132839480.00000000000000000000
-584833536.00000000000000000000
-247219232.00000000000000000000
-2765063936.00000000000000000000
143893312.00000000000000000000
-1883353600.00000000000000000000
-2513742592.00000000000000000000
-687112064.00000000000000000000
1181422.50000000000000000000
9198833.00000000000000000000
160216800.00000000000000000000
-216784896.00000000000000000000
1181422.50000000000000000000
99863872.00000000000000000000
175784032.00000000000000000000
-68008696.00000000000000000000
87059088.00000000000000000000
-174998432.00000000000000000000
-390344928.00000000000000000000
358634944.00000000000000000000
-46569444.00000000000000000000
-330829056.00000000000000000000
308704352.00000000000000000000
-30089756.00000000000000000000
92573936.00000000000000000000
217115744.00000000000000000000
202064512.00000000000000000000
279528064.00000000000000000000
57137036.00000000000000000000
-207916992.00000000000000000000
-148940832.00000000000000000000
249742448.00000000000000000000
97251936.00000000000000000000
-178108896.00000000000000000000
34509932.00000000000000000000
-87500240.00000000000000000000
-33944440.00000000000000000000
167830976.00000000000000000000
-97336640.00000000000000000000
-101392864.00000000000000000000
172491616.00000000000000000000
160102304.00000000000000000000
-6701611.50000000000000000000
277203072.00000000000000000000
163488288.00000000000000000000
-426954912.00000000000000000000
-126594688.00000000000000000000
279528064.00000000000000000000
82882480.00000000000000000000
50603092.00000000000000000000
-189419712.00000000000000000000
-254930192.00000000000000000000
12728594.00000000000000000000
-23986344.00000000000000000000
252418208.00000000000000000000
-185201664.00000000000000000000
-108776368.00000000000000000000
203397760.00000000000000000000
-42566920.00000000000000000000
-175377344.00000000000000000000
175784032.00000000000000000000
300291680.00000000000000000000
11910802.00000000000000000000
-39219368.00000000000000000000
-86774576.00000000000000000000
-101877536.00000000000000000000
175784032.00000000000000000000
-115110928.00000000000000000000
-491193760.00000000000000000000
549207552.00000000000000000000
-38637140.00000000000000000000
56436484.00000000000000000000
-10769586.00000000000000000000
98079128.00000000000000000000
253568224.00000000000000000000
-38172432.00000000000000000000
-69204952.00000000000000000000
98079128.00000000000000000000
-19186830.00000000000000000000
76317864.00000000000000000000
-306370240.00000000000000000000
92728088.00000000000000000000
-14953325.00000000000000000000
-34215720.00000000000000000000
-107635128.00000000000000000000
-239419712.00000000000000000000
193393152.00000000000000000000
154331264.00000000000000000000
37307888.00000000000000000000
8342093.00000000000000000000
152425984.00000000000000000000
240144288.00000000000000000000
17612458.00000000000000000000
-89137736.00000000000000000000
2224514.50000000000000000000
108460552.00000000000000000000
62109176.00000000000000000000
184488032.00000000000000000000
-12094351.00000000000000000000
-86029960.00000000000000000000
-51434652.00000000000000000000
92562968.00000000000000000000
100742728.00000000000000000000
-200462272.00000000000000000000
111700296.00000000000000000000
6239834.00000000000000000000
-195676576.00000000000000000000
-179691232.00000000000000000000
-185119424.00000000000000000000
-209432832.00000000000000000000
-124326512.00000000000000000000
-118702472.00000000000000000000
17612458.00000000000000000000
58512884.00000000000000000000
22115750.00000000000000000000
-87160456.00000000000000000000
-24094482.00000000000000000000
-161564064.00000000000000000000
-218714848.00000000000000000000
-70107824.00000000000000000000
-201007168.00000000000000000000
-194785024.00000000000000000000
142798080.00000000000000000000
166095600.00000000000000000000
-209237088.00000000000000000000
76317864.00000000000000000000
-84119064.00000000000000000000
-116055728.00000000000000000000
-376983360.00000000000000000000
-59184364.00000000000000000000
-51689444.00000000000000000000
76317864.00000000000000000000
65650948.00000000000000000000
-217264880.00000000000000000000
21071314.00000000000000000000
-179679584.00000000000000000000
-59628024.00000000000000000000
260661664.00000000000000000000
-259562880.00000000000000000000
260069904.00000000000000000000
255105232.00000000000000000000
-47268448.00000000000000000000
-259562880.00000000000000000000
197092240.00000000000000000000
-232864368.00000000000000000000
-545359616.00000000000000000000
113176120.00000000000000000000
128436840.00000000000000000000
-277404416.00000000000000000000
9686369.00000000000000000000
-175879824.00000000000000000000
284997152.00000000000000000000
153650720.00000000000000000000
349357120.00000000000000000000
-314310240.00000000000000000000
38495560.00000000000000000000
986388416.00000000000000000000
-235815856.00000000000000000000
-463716192.00000000000000000000
375084448.00000000000000000000
509945408.00000000000000000000
-259993488.00000000000000000000
183178464.00000000000000000000
273656416.00000000000000000000
-119362280.00000000000000000000
200178816.00000000000000000000
223054112.00000000000000000000
72810728.00000000000000000000
6568424.50000000000000000000
-92419352.00000000000000000000
-462941728.00000000000000000000
-326407200.00000000000000000000
357852896.00000000000000000000
314845920.00000000000000000000
-523061952.00000000000000000000
-485118432.00000000000000000000
-351757696.00000000000000000000
-235815856.00000000000000000000
-54275072.00000000000000000000
-274880192.00000000000000000000
-345503840.00000000000000000000
-165979872.00000000000000000000
955360000.00000000000000000000
404836096.00000000000000000000
-79047912.00000000000000000000
162528432.00000000000000000000
160893200.00000000000000000000
570251136.00000000000000000000
-412485664.00000000000000000000
320921184.00000000000000000000
-232864368.00000000000000000000
294357888.00000000000000000000
-318895136.00000000000000000000
-710327552.00000000000000000000
-209449072.00000000000000000000
117083880.00000000000000000000
-232864368.00000000000000000000
-348979360.00000000000000000000
-483089888.00000000000000000000
-257116768.00000000000000000000
-246315920.00000000000000000000
-170809472.00000000000000000000
440109248.00000000000000000000
296484896.00000000000000000000
2179834112.00000000000000000000
-19200194.00000000000000000000
1076012800.00000000000000000000
296484896.00000000000000000000
-269529536.00000000000000000000
238768080.00000000000000000000
420622592.00000000000000000000
1076967680.00000000000000000000
-490235232.00000000000000000000
1015696640.00000000000000000000
-436367904.00000000000000000000
1353485568.00000000000000000000
401562016.00000000000000000000
-628182464.00000000000000000000
-1155130496.00000000000000000000
-150859200.00000000000000000000
-158978592.00000000000000000000
36175632.00000000000000000000
-69245960.00000000000000000000
260897376.00000000000000000000
757782528.00000000000000000000
1774841088.00000000000000000000
1035162496.00000000000000000000
389997664.00000000000000000000
1477443840.00000000000000000000
195089920.00000000000000000000
843674624.00000000000000000000
169297568.00000000000000000000
-5420169.50000000000000000000
322101216.00000000000000000000
1760895744.00000000000000000000
650636672.00000000000000000000
699245568.00000000000000000000
11796774.00000000000000000000
-1517538944.00000000000000000000
162443552.00000000000000000000
872891712.00000000000000000000
194704784.00000000000000000000
-69245960.00000000000000000000
310089440.00000000000000000000
340098336.00000000000000000000
121269480.00000000000000000000
-593663872.00000000000000000000
1002603712.00000000000000000000
623493760.00000000000000000000
366821856.00000000000000000000
18125458.00000000000000000000
242031328.00000000000000000000
82456968.00000000000000000000
1308872960.00000000000000000000
594910336.00000000000000000000
238768080.00000000000000000000
682038144.00000000000000000000
545520896.00000000000000000000
474475392.00000000000000000000
-207574960.00000000000000000000
2013662.50000000000000000000
238768080.00000000000000000000
424216992.00000000000000000000
1388621696.00000000000000000000
-132894472.00000000000000000000
693555584.00000000000000000000
111186632.00000000000000000000
-83557968.00000000000000000000
-13341479.00000000000000000000
-5225027.50000000000000000000
-2377449.25000000000000000000
-49572516.00000000000000000000
-13341479.00000000000000000000
-60670144.00000000000000000000
13413177.00000000000000000000
170344080.00000000000000000000
-121005968.00000000000000000000
77882584.00000000000000000000
176332560.00000000000000000000
122639936.00000000000000000000
19182398.00000000000000000000
-464266240.00000000000000000000
151330240.00000000000000000000
76461464.00000000000000000000
51114000.00000000000000000000
-144384208.00000000000000000000
-21482626.00000000000000000000
1851943.62500000000000000000
-22146442.00000000000000000000
-223799264.00000000000000000000
-287814112.00000000000000000000
277457248.00000000000000000000
-57062516.00000000000000000000
-383981184.00000000000000000000
-287787072.00000000000000000000
-48373376.00000000000000000000
-50233892.00000000000000000000
-146318048.00000000000000000000
-131601960.00000000000000000000
178875296.00000000000000000000
-125231152.00000000000000000000
94237528.00000000000000000000
4703139.00000000000000000000
426221504.00000000000000000000
-232863248.00000000000000000000
57454116.00000000000000000000
450703232.00000000000000000000
1851943.62500000000000000000
-61390328.00000000000000000000
-211976848.00000000000000000000
64874240.00000000000000000000
-110083576.00000000000000000000
-358044928.00000000000000000000
165476240.00000000000000000000
-443844480.00000000000000000000
-233007264.00000000000000000000
-249693504.00000000000000000000
-12637455.00000000000000000000
-26746750.00000000000000000000
28594406.00000000000000000000
13413177.00000000000000000000
-211436704.00000000000000000000
32344626.00000000000000000000
-52015540.00000000000000000000
39757980.00000000000000000000
13484523.00000000000000000000
13413177.00000000000000000000
-209285152.00000000000000000000
113018240.00000000000000000000
-55455264.00000000000000000000
-44616772.00000000000000000000
127079552.00000000000000000000
54425180.00000000000000000000
-2527927.75000000000000000000
-102265160.00000000000000000000
-100915800.00000000000000000000
-256827616.00000000000000000000
-2527927.75000000000000000000
106348848.00000000000000000000
-86917136.00000000000000000000
-69907096.00000000000000000000
33971956.00000000000000000000
-294246976.00000000000000000000
150815360.00000000000000000000
-69822656.00000000000000000000
40488108.00000000000000000000
-41953356.00000000000000000000
-264364576.00000000000000000000
-8358261.00000000000000000000
-329892576.00000000000000000000
-1055042.50000000000000000000
69951208.00000000000000000000
58446612.00000000000000000000
184454112.00000000000000000000
-190406832.00000000000000000000
-29138604.00000000000000000000
-52938188.00000000000000000000
48477388.00000000000000000000
-234563984.00000000000000000000
-31939196.00000000000000000000
87392840.00000000000000000000
57571156.00000000000000000000
171868128.00000000000000000000
-316330432.00000000000000000000
98286536.00000000000000000000
-93211080.00000000000000000000
123801712.00000000000000000000
-123917144.00000000000000000000
-95026744.00000000000000000000
-186111408.00000000000000000000
-308990464.00000000000000000000
127709672.00000000000000000000
58446612.00000000000000000000
-47300636.00000000000000000000
91576984.00000000000000000000
117404464.00000000000000000000
-84918240.00000000000000000000
-132343400.00000000000000000000
187971376.00000000000000000000
-227238224.00000000000000000000
-63672084.00000000000000000000
-131982416.00000000000000000000
175010096.00000000000000000000
-22533982.00000000000000000000
151568928.00000000000000000000
-86917136.00000000000000000000
-56363244.00000000000000000000
117531600.00000000000000000000
-93055776.00000000000000000000
121205488.00000000000000000000
-246921168.00000000000000000000
-86917136.00000000000000000000
-240134000.00000000000000000000
213395424.00000000000000000000
-151408416.00000000000000000000
-126543512.00000000000000000000
33250632.00000000000000000000
1314301440.00000000000000000000
876753984.00000000000000000000
-22550616.00000000000000000000
345873184.00000000000000000000
-504857376.00000000000000000000
876753984.00000000000000000000
548563712.00000000000000000000
-1054782080.00000000000000000000
327734944.00000000000000000000
519245440.00000000000000000000
-845642880.00000000000000000000
42329640.00000000000000000000
-653643392.00000000000000000000
209417712.00000000000000000000
-505280800.00000000000000000000
-252824784.00000000000000000000
626811200.00000000000000000000
-315790784.00000000000000000000
433242112.00000000000000000000
224910256.00000000000000000000
301058176.00000000000000000000
1265307264.00000000000000000000
195571376.00000000000000000000
136222480.00000000000000000000
21535120.00000000000000000000
-55135944.00000000000000000000
-499506592.00000000000000000000
-560526720.00000000000000000000
-359822560.00000000000000000000
-463585728.00000000000000000000
-572579456.00000000000000000000
-239414000.00000000000000000000
246194800.00000000000000000000
-180682960.00000000000000000000
689542528.00000000000000000000
392863840.00000000000000000000
-457243872.00000000000000000000
-198756208.00000000000000000000
345570272.00000000000000000000
692563264.00000000000000000000
301058176.00000000000000000000
-153841264.00000000000000000000
937408128.00000000000000000000
984670080.00000000000000000000
-710897856.00000000000000000000
100511504.00000000000000000000
-260451056.00000000000000000000
-228879760.00000000000000000000
-495601696.00000000000000000000
325712800.00000000000000000000
742231808.00000000000000000000
342612288.00000000000000000000
105197344.00000000000000000000
-1054782080.00000000000000000000
-71274040.00000000000000000000
1037276352.00000000000000000000
383383840.00000000000000000000
1133564672.00000000000000000000
-173141712.00000000000000000000
-1054782080.00000000000000000000
58752280.00000000000000000000
376822688.00000000000000000000
-121757296.00000000000000000000
-89813696.00000000000000000000
943878208.00000000000000000000
31479552.00000000000000000000
35210264.00000000000000000000
-234194320.00000000000000000000
-146229936.00000000000000000000
268835008.00000000000000000000
35210264.00000000000000000000
110001992.00000000000000000000
32121386.00000000000000000000
126491952.00000000000000000000
-263537072.00000000000000000000
176590672.00000000000000000000
-139452272.00000000000000000000
309760416.00000000000000000000
-339868768.00000000000000000000
305526112.00000000000000000000
140515408.00000000000000000000
43142732.00000000000000000000
361335904.00000000000000000000
192121584.00000000000000000000
129380840.00000000000000000000
166122800.00000000000000000000
-6937102.00000000000000000000
-3881582.50000000000000000000
-183176240.00000000000000000000
130898928.00000000000000000000
-106809576.00000000000000000000
174935120.00000000000000000000
121150856.00000000000000000000
-80658744.00000000000000000000
-308625408.00000000000000000000
-342233184.00000000000000000000
-17416990.00000000000000000000
170958960.00000000000000000000
170177456.00000000000000000000
-148248144.00000000000000000000
-18459688.00000000000000000000
-246718512.00000000000000000000
-270940480.00000000000000000000
310913376.00000000000000000000
-1821258.50000000000000000000
166122800.00000000000000000000
-203348912.00000000000000000000
-225025264.00000000000000000000
132995784.00000000000000000000
264027920.00000000000000000000
-113334568.00000000000000000000
-75279976.00000000000000000000
-161555312.00000000000000000000
-55615184.00000000000000000000
-602348224.00000000000000000000
36294040.00000000000000000000
-292978848.00000000000000000000
-83266984.00000000000000000000
32121386.00000000000000000000
70410016.00000000000000000000
945166.87500000000000000000
-202773264.00000000000000000000
-91823640.00000000000000000000
-284426304.00000000000000000000
32121386.00000000000000000000
-51498212.00000000000000000000
231937072.00000000000000000000
-24032478.00000000000000000000
-112908376.00000000000000000000
52065332.00000000000000000000
-87255016.00000000000000000000
-26767366.00000000000000000000
649628736.00000000000000000000
289037728.00000000000000000000
502911168.00000000000000000000
-26767366.00000000000000000000
241689008.00000000000000000000
-527408736.00000000000000000000
180517296.00000000000000000000
29286132.00000000000000000000
-272921376.00000000000000000000
-91763784.00000000000000000000
-655134592.00000000000000000000
157455936.00000000000000000000
425034656.00000000000000000000
199949840.00000000000000000000
-218388656.00000000000000000000
278716480.00000000000000000000
347082336.00000000000000000000
-101608104.00000000000000000000
137843280.00000000000000000000
-641482432.00000000000000000000
503305344.00000000000000000000
-104980648.00000000000000000000
501020192.00000000000000000000
305559904.00000000000000000000
-431360064.00000000000000000000
-16657191.00000000000000000000
-364367456.00000000000000000000
474808928.00000000000000000000
802831680.00000000000000000000
-2954088.00000000000000000000
19698702.00000000000000000000
-242507168.00000000000000000000
321797088.00000000000000000000
-56465608.00000000000000000000
-44842316.00000000000000000000
204473264.00000000000000000000
-76881176.00000000000000000000
-550591680.00000000000000000000
137843280.00000000000000000000
739698560.00000000000000000000
630497088.00000000000000000000
-139445360.00000000000000000000
757899712.00000000000000000000
-244767600.00000000000000000000
-163990512.00000000000000000000
41270676.00000000000000000000
-129450296.00000000000000000000
16940506.00000000000000000000
-29029050.00000000000000000000
351641504.00000000000000000000
-230613616.00000000000000000000
-527408736.00000000000000000000
-410145440.00000000000000000000
112271976.00000000000000000000
-156270960.00000000000000000000
-97446136.00000000000000000000
53046044.00000000000000000000
-527408736.00000000000000000000
88901240.00000000000000000000
-180540432.00000000000000000000
-67251480.00000000000000000000
321260544.00000000000000000000
240673616.00000000000000000000
23573900.00000000000000000000
45487164.00000000000000000000
-474102688.00000000000000000000
-131128776.00000000000000000000
-122663704.00000000000000000000
45487164.00000000000000000000
-274783008.00000000000000000000
104520096.00000000000000000000
96838768.00000000000000000000
-14124708.00000000000000000000
-38287396.00000000000000000000
-67201008.00000000000000000000
-1118342.37500000000000000000
20575936.00000000000000000000
-406696800.00000000000000000000
146985056.00000000000000000000
27972412.00000000000000000000
194282960.00000000000000000000
-489700768.00000000000000000000
-72634256.00000000000000000000
-57873796.00000000000000000000
170099808.00000000000000000000
95186136.00000000000000000000
346897376.00000000000000000000
40212716.00000000000000000000
92358624.00000000000000000000
-69237600.00000000000000000000
-279292896.00000000000000000000
-63918660.00000000000000000000
44638500.00000000000000000000
-6241733.50000000000000000000
-106688960.00000000000000000000
-132469248.00000000000000000000
-329688096.00000000000000000000
77006960.00000000000000000000
131457952.00000000000000000000
-53274132.00000000000000000000
-245056416.00000000000000000000
-116595880.00000000000000000000
116084768.00000000000000000000
-57873796.00000000000000000000
161339552.00000000000000000000
139642752.00000000000000000000
29410682.00000000000000000000
-130344208.00000000000000000000
-28540380.00000000000000000000
-329557536.00000000000000000000
-504832672.00000000000000000000
-229398288.00000000000000000000
333959136.00000000000000000000
-331937056.00000000000000000000
115358664.00000000000000000000
-69525600.00000000000000000000
104520096.00000000000000000000
208566384.00000000000000000000
147193616.00000000000000000000
-31464006.00000000000000000000
-294576352.00000000000000000000
-72878888.00000000000000000000
104520096.00000000000000000000
216650576.00000000000000000000
-99357344.00000000000000000000
52744220.00000000000000000000
-127593344.00000000000000000000
-71435640.00000000000000000000
914434496.00000000000000000000
1164320256.00000000000000000000
-17363832.00000000000000000000
-544615296.00000000000000000000
38128988.00000000000000000000
1164320256.00000000000000000000
-486803968.00000000000000000000
-92738896.00000000000000000000
-81750640.00000000000000000000
142002512.00000000000000000000
-338848768.00000000000000000000
305474336.00000000000000000000
239464736.00000000000000000000
46356684.00000000000000000000
-142412224.00000000000000000000
90881760.00000000000000000000
-168669104.00000000000000000000
-93305776.00000000000000000000
73765040.00000000000000000000
-476524352.00000000000000000000
136375696.00000000000000000000
679502656.00000000000000000000
28904940.00000000000000000000
-66300548.00000000000000000000
-33625048.00000000000000000000
38485980.00000000000000000000
147183888.00000000000000000000
-37792128.00000000000000000000
50055692.00000000000000000000
-309646176.00000000000000000000
-182951728.00000000000000000000
-250091920.00000000000000000000
-142001632.00000000000000000000
-69957664.00000000000000000000
257634528.00000000000000000000
-98330784.00000000000000000000
95757344.00000000000000000000
70171664.00000000000000000000
-33429318.00000000000000000000
1187602304.00000000000000000000
136375696.00000000000000000000
-91250656.00000000000000000000
943931200.00000000000000000000
1144878464.00000000000000000000
-50943132.00000000000000000000
-516781760.00000000000000000000
-141285600.00000000000000000000
294780000.00000000000000000000
-334658464.00000000000000000000
-74532752.00000000000000000000
-29392760.00000000000000000000
52146436.00000000000000000000
-130507120.00000000000000000000
-92738896.00000000000000000000
-276572640.00000000000000000000
612190144.00000000000000000000
-253389840.00000000000000000000
971223488.00000000000000000000
70433968.00000000000000000000
-92738896.00000000000000000000
38126248.00000000000000000000
752854720.00000000000000000000
-50881764.00000000000000000000
-394860864.00000000000000000000
871526080.00000000000000000000
1962728192.00000000000000000000
-1506264704.00000000000000000000
-1314188160.00000000000000000000
-212410976.00000000000000000000
-155428768.00000000000000000000
-1506264704.00000000000000000000
101781712.00000000000000000000
-76224192.00000000000000000000
-2133348608.00000000000000000000
-1034628608.00000000000000000000
-68144840.00000000000000000000
-1252245888.00000000000000000000
-401568896.00000000000000000000
-1879564672.00000000000000000000
-168152064.00000000000000000000
-540390912.00000000000000000000
-232435616.00000000000000000000
237613600.00000000000000000000
260726560.00000000000000000000
-579053568.00000000000000000000
-1618308096.00000000000000000000
-977686912.00000000000000000000
-233790720.00000000000000000000
-779720064.00000000000000000000
-1842688640.00000000000000000000
-69349840.00000000000000000000
4369043.50000000000000000000
-152576288.00000000000000000000
-146372336.00000000000000000000
642480384.00000000000000000000
535288544.00000000000000000000
-189311424.00000000000000000000
-1691537280.00000000000000000000
-1992231936.00000000000000000000
-1461832448.00000000000000000000
14005062.00000000000000000000
-1047589760.00000000000000000000
-987617024.00000000000000000000
-1663540608.00000000000000000000
-1634949888.00000000000000000000
-1618308096.00000000000000000000
230930560.00000000000000000000
-1813289088.00000000000000000000
-1387834624.00000000000000000000
-526136512.00000000000000000000
704688512.00000000000000000000
-321870016.00000000000000000000
-641817216.00000000000000000000
20221600.00000000000000000000
272832000.00000000000000000000
-1088527616.00000000000000000000
-1079080960.00000000000000000000
-835643136.00000000000000000000
-76224192.00000000000000000000
-493657472.00000000000000000000
-976986880.00000000000000000000
-2062904448.00000000000000000000
-1274414336.00000000000000000000
-27932504.00000000000000000000
-76224192.00000000000000000000
-546917248.00000000000000000000
-1942166400.00000000000000000000
308994880.00000000000000000000
-2227996160.00000000000000000000
-1342347520.00000000000000000000
-620095616.00000000000000000000
249863024.00000000000000000000
-251226704.00000000000000000000
-88676552.00000000000000000000
405467584.00000000000000000000
249863024.00000000000000000000
-85087680.00000000000000000000
301053760.00000000000000000000
2537916.25000000000000000000
-374663552.00000000000000000000
33897684.00000000000000000000
30532066.00000000000000000000
-233823568.00000000000000000000
-242930560.00000000000000000000
-94438760.00000000000000000000
50277252.00000000000000000000
748071168.00000000000000000000
-36874440.00000000000000000000
-227452624.00000000000000000000
-64366612.00000000000000000000
114783344.00000000000000000000
-3720036.50000000000000000000
365341568.00000000000000000000
-157200512.00000000000000000000
-317880960.00000000000000000000
149196720.00000000000000000000
61394424.00000000000000000000
-272742848.00000000000000000000
-93568520.00000000000000000000
-34804104.00000000000000000000
-96931304.00000000000000000000
-135634640.00000000000000000000
-172165680.00000000000000000000
205113184.00000000000000000000
185691536.00000000000000000000
510564800.00000000000000000000
139916624.00000000000000000000
416281920.00000000000000000000
278392128.00000000000000000000
-203939632.00000000000000000000
114783344.00000000000000000000
155026880.00000000000000000000
-4127911.75000000000000000000
197863856.00000000000000000000
97867432.00000000000000000000
-307322176.00000000000000000000
9524938.00000000000000000000
-280549824.00000000000000000000
-217603504.00000000000000000000
-57053968.00000000000000000000
-93759696.00000000000000000000
324102848.00000000000000000000
101677856.00000000000000000000
301053760.00000000000000000000
-151127840.00000000000000000000
69466960.00000000000000000000
371296768.00000000000000000000
153214864.00000000000000000000
327430208.00000000000000000000
301053760.00000000000000000000
204860432.00000000000000000000
-32267310.00000000000000000000
48940120.00000000000000000000
-103820128.00000000000000000000
-30492006.00000000000000000000
4556342784.00000000000000000000
-3125657088.00000000000000000000
1297607936.00000000000000000000
529123904.00000000000000000000
-482555968.00000000000000000000
-3125657088.00000000000000000000
574467136.00000000000000000000
702891328.00000000000000000000
-1388440832.00000000000000000000
412788032.00000000000000000000
-517491008.00000000000000000000
-515094464.00000000000000000000
-69747664.00000000000000000000
48036256.00000000000000000000
331135936.00000000000000000000
209267136.00000000000000000000
-658697536.00000000000000000000
-518230464.00000000000000000000
-207907232.00000000000000000000
1037324864.00000000000000000000
-3741995264.00000000000000000000
-3055015680.00000000000000000000
-439904192.00000000000000000000
-1353150.62500000000000000000
-1648909056.00000000000000000000
-237898656.00000000000000000000
-495030400.00000000000000000000
227832480.00000000000000000000
-746234176.00000000000000000000
-33794336.00000000000000000000
76842112.00000000000000000000
689492800.00000000000000000000
-2945761280.00000000000000000000
1048603456.00000000000000000000
-375151680.00000000000000000000
-709113664.00000000000000000000
1111273600.00000000000000000000
-226837408.00000000000000000000
-1642382976.00000000000000000000
-4352562176.00000000000000000000
-3741995264.00000000000000000000
-464982208.00000000000000000000
-2877333248.00000000000000000000
-3869847296.00000000000000000000
107745712.00000000000000000000
638692928.00000000000000000000
27693000.00000000000000000000
428688512.00000000000000000000
788955456.00000000000000000000
-194664704.00000000000000000000
131671760.00000000000000000000
6728036.50000000000000000000
682106688.00000000000000000000
702891328.00000000000000000000
363479744.00000000000000000000
-3410831872.00000000000000000000
263796128.00000000000000000000
-3638750464.00000000000000000000
252729920.00000000000000000000
702891328.00000000000000000000
-558790848.00000000000000000000
-4619613184.00000000000000000000
91743552.00000000000000000000
-1564035328.00000000000000000000
-3285997824.00000000000000000000
-5150874.00000000000000000000
-245298544.00000000000000000000
394368768.00000000000000000000
163460496.00000000000000000000
-35589680.00000000000000000000
-245298544.00000000000000000000
-254938496.00000000000000000000
-306003744.00000000000000000000
-421913824.00000000000000000000
95561632.00000000000000000000
498070144.00000000000000000000
159900544.00000000000000000000
589143296.00000000000000000000
36566512.00000000000000000000
88663168.00000000000000000000
-241985616.00000000000000000000
-13903199.00000000000000000000
-94418032.00000000000000000000
367160544.00000000000000000000
123240624.00000000000000000000
233440512.00000000000000000000
650416448.00000000000000000000
396182432.00000000000000000000
-299741280.00000000000000000000
71572456.00000000000000000000
-25174818.00000000000000000000
503131168.00000000000000000000
453123264.00000000000000000000
9536657.00000000000000000000
-113343384.00000000000000000000
93905776.00000000000000000000
-242558928.00000000000000000000
300535328.00000000000000000000
-268636000.00000000000000000000
-309067776.00000000000000000000
-120022576.00000000000000000000
381533760.00000000000000000000
54185224.00000000000000000000
-110638984.00000000000000000000
18045688.00000000000000000000
233440512.00000000000000000000
88579360.00000000000000000000
-235501248.00000000000000000000
-47189360.00000000000000000000
-171620432.00000000000000000000
394739872.00000000000000000000
-330356032.00000000000000000000
261394240.00000000000000000000
84794896.00000000000000000000
297237920.00000000000000000000
69253848.00000000000000000000
-188324752.00000000000000000000
113483304.00000000000000000000
-306003744.00000000000000000000
41195776.00000000000000000000
179352448.00000000000000000000
-40285816.00000000000000000000
-437363680.00000000000000000000
102401840.00000000000000000000
-306003744.00000000000000000000
-130200584.00000000000000000000
604976512.00000000000000000000
79238192.00000000000000000000
112848016.00000000000000000000
-176633984.00000000000000000000
-179456912.00000000000000000000
-78923640.00000000000000000000
-527468.12500000000000000000
-43561000.00000000000000000000
20333.75195312500000000000
-78923640.00000000000000000000
-44913168.00000000000000000000
134010216.00000000000000000000
31711336.00000000000000000000
114993192.00000000000000000000
-47901168.00000000000000000000
166364384.00000000000000000000
22454460.00000000000000000000
29569420.00000000000000000000
87960072.00000000000000000000
-38490376.00000000000000000000
140318656.00000000000000000000
116078008.00000000000000000000
44041084.00000000000000000000
37924920.00000000000000000000
46900532.00000000000000000000
86322744.00000000000000000000
269649088.00000000000000000000
-72927960.00000000000000000000
15662271.00000000000000000000
113398904.00000000000000000000
-8531478.00000000000000000000
338237568.00000000000000000000
124219864.00000000000000000000
29451104.00000000000000000000
-24660484.00000000000000000000
-259558240.00000000000000000000
210626784.00000000000000000000
-93362248.00000000000000000000
-58008408.00000000000000000000
106517720.00000000000000000000
8522754.00000000000000000000
-48192964.00000000000000000000
87342984.00000000000000000000
-188839680.00000000000000000000
46900532.00000000000000000000
-5034624.50000000000000000000
-57067116.00000000000000000000
-16299581.00000000000000000000
-162790144.00000000000000000000
-141896448.00000000000000000000
121718840.00000000000000000000
30096160.00000000000000000000
213599840.00000000000000000000
55285000.00000000000000000000
-110217592.00000000000000000000
-37496564.00000000000000000000
-24813872.00000000000000000000
134010216.00000000000000000000
170341152.00000000000000000000
175336816.00000000000000000000
44690500.00000000000000000000
75650248.00000000000000000000
108327224.00000000000000000000
134010216.00000000000000000000
240855392.00000000000000000000
-80542904.00000000000000000000
-208668544.00000000000000000000
58748416.00000000000000000000
-221623168.00000000000000000000
843243136.00000000000000000000
-669837184.00000000000000000000
-837645696.00000000000000000000
39677160.00000000000000000000
-850045312.00000000000000000000
-669837184.00000000000000000000
503898432.00000000000000000000
484746368.00000000000000000000
6517835.00000000000000000000
-107854152.00000000000000000000
-175932736.00000000000000000000
-806338304.00000000000000000000
54797108.00000000000000000000
378621248.00000000000000000000
11794147.00000000000000000000
-518292384.00000000000000000000
15356426.00000000000000000000
-222940640.00000000000000000000
-271009504.00000000000000000000
80464760.00000000000000000000
-411392992.00000000000000000000
-224435968.00000000000000000000
28201214.00000000000000000000
386405760.00000000000000000000
-178814144.00000000000000000000
422999680.00000000000000000000
-547487488.00000000000000000000
1061951488.00000000000000000000
706963456.00000000000000000000
696320768.00000000000000000000
642086528.00000000000000000000
-393445696.00000000000000000000
-52022932.00000000000000000000
528689408.00000000000000000000
9164737.00000000000000000000
-112088232.00000000000000000000
147221408.00000000000000000000
118998776.00000000000000000000
-140518272.00000000000000000000
-270765280.00000000000000000000
-411392992.00000000000000000000
1193661440.00000000000000000000
-627748800.00000000000000000000
-702834496.00000000000000000000
-824302720.00000000000000000000
-140745024.00000000000000000000
849399296.00000000000000000000
-75048968.00000000000000000000
769181824.00000000000000000000
-64684548.00000000000000000000
-2424319.25000000000000000000
-171046272.00000000000000000000
-446955328.00000000000000000000
484746368.00000000000000000000
725710720.00000000000000000000
1379753.25000000000000000000
289565312.00000000000000000000
-89245552.00000000000000000000
43155996.00000000000000000000
484746368.00000000000000000000
-17795352.00000000000000000000
363768128.00000000000000000000
223325376.00000000000000000000
-460339584.00000000000000000000
503708896.00000000000000000000
-192412272.00000000000000000000
-71802960.00000000000000000000
24179988.00000000000000000000
-80928848.00000000000000000000
135968048.00000000000000000000
-71802960.00000000000000000000
-121435360.00000000000000000000
133143800.00000000000000000000
235537680.00000000000000000000
25287062.00000000000000000000
485265.56250000000000000000
93955504.00000000000000000000
90293056.00000000000000000000
140239312.00000000000000000000
84780080.00000000000000000000
8745683.00000000000000000000
-475683.87500000000000000000
146499024.00000000000000000000
-75591232.00000000000000000000
-45083636.00000000000000000000
15782715.00000000000000000000
117071120.00000000000000000000
214607248.00000000000000000000
25301974.00000000000000000000
-46279620.00000000000000000000
250118288.00000000000000000000
-33526090.00000000000000000000
112872048.00000000000000000000
179569808.00000000000000000000
98661232.00000000000000000000
98241072.00000000000000000000
-177378288.00000000000000000000
239197424.00000000000000000000
-142039424.00000000000000000000
-75313024.00000000000000000000
206910288.00000000000000000000
137119536.00000000000000000000
-172664368.00000000000000000000
54703676.00000000000000000000
-338898080.00000000000000000000
15782715.00000000000000000000
-19541540.00000000000000000000
-147056496.00000000000000000000
-96329808.00000000000000000000
-101766608.00000000000000000000
-135946416.00000000000000000000
34696628.00000000000000000000
-156274448.00000000000000000000
144899248.00000000000000000000
4548946.50000000000000000000
4370126.50000000000000000000
51181868.00000000000000000000
-78926832.00000000000000000000
133143800.00000000000000000000
151091952.00000000000000000000
162182672.00000000000000000000
81772864.00000000000000000000
46338084.00000000000000000000
160231952.00000000000000000000
133143800.00000000000000000000
151898320.00000000000000000000
-123526576.00000000000000000000
-105577616.00000000000000000000
28211858.00000000000000000000
-41721692.00000000000000000000
2853894912.00000000000000000000
-1141024640.00000000000000000000
-390953920.00000000000000000000
-108450112.00000000000000000000
953028096.00000000000000000000
-1141024640.00000000000000000000
-83438280.00000000000000000000
-325512832.00000000000000000000
1073391488.00000000000000000000
932320256.00000000000000000000
-975346560.00000000000000000000
-729757568.00000000000000000000
84947784.00000000000000000000
1836699008.00000000000000000000
595403904.00000000000000000000
1115561472.00000000000000000000
-425029952.00000000000000000000
-646269440.00000000000000000000
309110912.00000000000000000000
181726624.00000000000000000000
-1554369920.00000000000000000000
-1624734720.00000000000000000000
185351040.00000000000000000000
30668500.00000000000000000000
-158918368.00000000000000000000
-98458664.00000000000000000000
839411584.00000000000000000000
-156266976.00000000000000000000
-768224640.00000000000000000000
-668370304.00000000000000000000
-294400576.00000000000000000000
175431984.00000000000000000000
-1182441856.00000000000000000000
1697080192.00000000000000000000
1915116416.00000000000000000000
113287208.00000000000000000000
1683660416.00000000000000000000
516696000.00000000000000000000
529674048.00000000000000000000
-1662998784.00000000000000000000
-1554369920.00000000000000000000
-502468224.00000000000000000000
-1263178880.00000000000000000000
-1153574656.00000000000000000000
-193025264.00000000000000000000
13102997.00000000000000000000
-372328832.00000000000000000000
704855552.00000000000000000000
-94448376.00000000000000000000
-641514112.00000000000000000000
1189787648.00000000000000000000
326944800.00000000000000000000
-824370688.00000000000000000000
-325512832.00000000000000000000
-707512064.00000000000000000000
-1680984576.00000000000000000000
1789883008.00000000000000000000
-1036594304.00000000000000000000
128281096.00000000000000000000
-325512832.00000000000000000000
548577920.00000000000000000000
-2012433536.00000000000000000000
19070882.00000000000000000000
389739328.00000000000000000000
-1223581440.00000000000000000000
220599344.00000000000000000000
94568296.00000000000000000000
-133849928.00000000000000000000
39736352.00000000000000000000
97599328.00000000000000000000
94568296.00000000000000000000
-278494208.00000000000000000000
10290584.00000000000000000000
146091408.00000000000000000000
-66292708.00000000000000000000
283894272.00000000000000000000
131407320.00000000000000000000
33114112.00000000000000000000
-134137008.00000000000000000000
15839752.00000000000000000000
388013440.00000000000000000000
-63007592.00000000000000000000
180592384.00000000000000000000
-95089096.00000000000000000000
-91256152.00000000000000000000
-208346464.00000000000000000000
151612096.00000000000000000000
-243211808.00000000000000000000
-29281324.00000000000000000000
158776816.00000000000000000000
10318288.00000000000000000000
296166336.00000000000000000000
-431414368.00000000000000000000
220622288.00000000000000000000
196791504.00000000000000000000
20922176.00000000000000000000
310264576.00000000000000000000
36095952.00000000000000000000
-32011676.00000000000000000000
-79999528.00000000000000000000
198560880.00000000000000000000
95066496.00000000000000000000
-118582432.00000000000000000000
135045248.00000000000000000000
-34706784.00000000000000000000
-208346464.00000000000000000000
152205392.00000000000000000000
55786512.00000000000000000000
-64725256.00000000000000000000
146789120.00000000000000000000
-101301192.00000000000000000000
-126390904.00000000000000000000
107635400.00000000000000000000
-61032960.00000000000000000000
12682428.00000000000000000000
-186500704.00000000000000000000
-13818412.00000000000000000000
-131594632.00000000000000000000
10290584.00000000000000000000
-120983528.00000000000000000000
107854536.00000000000000000000
-19061366.00000000000000000000
1070999.12500000000000000000
389596224.00000000000000000000
10290584.00000000000000000000
73452376.00000000000000000000
-67040168.00000000000000000000
115868248.00000000000000000000
303926656.00000000000000000000
-105142840.00000000000000000000
2466848768.00000000000000000000
-2346018304.00000000000000000000
-1202232576.00000000000000000000
23338204.00000000000000000000
211810400.00000000000000000000
-2346018304.00000000000000000000
-399953728.00000000000000000000
18318408.00000000000000000000
-1455335680.00000000000000000000
-580591872.00000000000000000000
424656960.00000000000000000000
-311673280.00000000000000000000
150768800.00000000000000000000
-1309311488.00000000000000000000
207712736.00000000000000000000
-633493248.00000000000000000000
616682368.00000000000000000000
549772672.00000000000000000000
-62579520.00000000000000000000
-812848256.00000000000000000000
-1919677440.00000000000000000000
-1820107008.00000000000000000000
46139296.00000000000000000000
121680288.00000000000000000000
-1875184384.00000000000000000000
-48972256.00000000000000000000
1001692672.00000000000000000000
-104186000.00000000000000000000
481883904.00000000000000000000
33592504.00000000000000000000
-381373824.00000000000000000000
14952965.00000000000000000000
-2084041728.00000000000000000000
-721731456.00000000000000000000
-1665403648.00000000000000000000
135427456.00000000000000000000
-481420512.00000000000000000000
123070176.00000000000000000000
-1922297088.00000000000000000000
-1903688448.00000000000000000000
-1919677440.00000000000000000000
174269952.00000000000000000000
-2065019648.00000000000000000000
-1940995584.00000000000000000000
-352703616.00000000000000000000
-117812032.00000000000000000000
129226152.00000000000000000000
-127379736.00000000000000000000
51740680.00000000000000000000
514610624.00000000000000000000
-1728891648.00000000000000000000
-386412896.00000000000000000000
-1121534208.00000000000000000000
18318408.00000000000000000000
47127464.00000000000000000000
-1707023616.00000000000000000000
-873961344.00000000000000000000
-1643832832.00000000000000000000
215004256.00000000000000000000
18318408.00000000000000000000
739943936.00000000000000000000
-1218325504.00000000000000000000
114281728.00000000000000000000
-1676139520.00000000000000000000
-1619906304.00000000000000000000
2008632960.00000000000000000000
2113142528.00000000000000000000
942354560.00000000000000000000
77902600.00000000000000000000
579384576.00000000000000000000
2113142528.00000000000000000000
-262174736.00000000000000000000
-86091304.00000000000000000000
1226625152.00000000000000000000
33169720.00000000000000000000
423393824.00000000000000000000
672424832.00000000000000000000
793406976.00000000000000000000
512624448.00000000000000000000
283360128.00000000000000000000
796430528.00000000000000000000
37539276.00000000000000000000
332088000.00000000000000000000
161373584.00000000000000000000
-120712568.00000000000000000000
600645056.00000000000000000000
2050378624.00000000000000000000
76185632.00000000000000000000
-262032464.00000000000000000000
716220288.00000000000000000000
283193664.00000000000000000000
1352186752.00000000000000000000
537323264.00000000000000000000
229699248.00000000000000000000
369359264.00000000000000000000
418945088.00000000000000000000
92881160.00000000000000000000
376531776.00000000000000000000
307486016.00000000000000000000
1650297088.00000000000000000000
732236416.00000000000000000000
353869280.00000000000000000000
-173054960.00000000000000000000
822223360.00000000000000000000
2224339200.00000000000000000000
600645056.00000000000000000000
115440328.00000000000000000000
2092336512.00000000000000000000
1774892544.00000000000000000000
783320192.00000000000000000000
-96420056.00000000000000000000
158346192.00000000000000000000
-38197292.00000000000000000000
599274944.00000000000000000000
-150632912.00000000000000000000
-255644208.00000000000000000000
619590848.00000000000000000000
291122816.00000000000000000000
-86091304.00000000000000000000
223586224.00000000000000000000
2097172096.00000000000000000000
285845088.00000000000000000000
1787581952.00000000000000000000
38769480.00000000000000000000
-86091304.00000000000000000000
-82101064.00000000000000000000
2392670720.00000000000000000000
-87516120.00000000000000000000
536053728.00000000000000000000
1982932992.00000000000000000000
30275444.00000000000000000000
247063504.00000000000000000000
-230338560.00000000000000000000
-3362719.50000000000000000000
123009824.00000000000000000000
247063504.00000000000000000000
-19500686.00000000000000000000
306888704.00000000000000000000
-326813952.00000000000000000000
-151589792.00000000000000000000
165301872.00000000000000000000
573750848.00000000000000000000
166107904.00000000000000000000
-206943104.00000000000000000000
-173238608.00000000000000000000
-10016632.00000000000000000000
506165120.00000000000000000000
72877136.00000000000000000000
-283393024.00000000000000000000
28788326.00000000000000000000
89855072.00000000000000000000
270345600.00000000000000000000
-486568000.00000000000000000000
-102578368.00000000000000000000
61509712.00000000000000000000
-97248640.00000000000000000000
258801552.00000000000000000000
-650223936.00000000000000000000
92956736.00000000000000000000
167463248.00000000000000000000
243512832.00000000000000000000
-821092672.00000000000000000000
251948544.00000000000000000000
-86457152.00000000000000000000
-230438768.00000000000000000000
-119205472.00000000000000000000
192698224.00000000000000000000
122223760.00000000000000000000
70609704.00000000000000000000
360907904.00000000000000000000
89855072.00000000000000000000
52127264.00000000000000000000
199568352.00000000000000000000
222026816.00000000000000000000
1765159.25000000000000000000
-363025792.00000000000000000000
-54482784.00000000000000000000
-45085528.00000000000000000000
-274417664.00000000000000000000
-205626816.00000000000000000000
163053248.00000000000000000000
-147424608.00000000000000000000
-281805440.00000000000000000000
306888704.00000000000000000000
59515040.00000000000000000000
311614208.00000000000000000000
-180470944.00000000000000000000
71110032.00000000000000000000
69184432.00000000000000000000
306888704.00000000000000000000
165413808.00000000000000000000
10102730.00000000000000000000
-169451360.00000000000000000000
-391658816.00000000000000000000
-148334848.00000000000000000000
-349629792.00000000000000000000
62753604.00000000000000000000
-184527008.00000000000000000000
-29639822.00000000000000000000
-39860204.00000000000000000000
62753604.00000000000000000000
-49730420.00000000000000000000
-143625312.00000000000000000000
-9727278.00000000000000000000
514714304.00000000000000000000
-53425340.00000000000000000000
344606432.00000000000000000000
-111767824.00000000000000000000
402624640.00000000000000000000
231887424.00000000000000000000
-18298838.00000000000000000000
225438064.00000000000000000000
-35941356.00000000000000000000
-41289644.00000000000000000000
-202719360.00000000000000000000
-195142336.00000000000000000000
