0
-8246062330413056.000000
11978973026189312.000000
2198843269578752.000000
66334232288428032.000000
-15733340304834560.000000
-3500277818720256.000000
19674996074872832.000000
16526596068343808.000000
4038828062932992.000000
-15764133072863232.000000
-24340084325089280.000000
-78917339709440.000000
4182137431392256.000000
1235154479611904.000000
-8683163299610624.000000
-11580146658050048.000000
-16040285511352320.000000
-3995524323606528.000000
-20713465479954432.000000
-12966694171443200.000000
-5194451559383040.000000
-17828664796250112.000000
-15032694773645312.000000
8509753458163712.000000
-32577069242122240.000000
-1849111733075968.000000
-9111106324791296.000000
-2875935065899008.000000
373015057530880.000000
319387458338816.000000
-2319137116258304.000000
904427569414144.000000
-2648414273667072.000000
-9894790753681408.000000
14640286160388096.000000
-3754552767545344.000000
-15097081702121472.000000
-18176838467584000.000000
-3893092574822400.000000
2769502823514112.000000
9576204038307840.000000
1516626637750272.000000
2200926999805952.000000
-14470477112147968.000000
17647232492765184.000000
12477874279809024.000000
-15876910324121600.000000
-80771842163343360.000000
5941772647661568.000000
-8613319615184896.000000
-19881339188674560.000000
1034254767095808.000000
6260712624095232.000000
1755768940396544.000000
3789410453684224.000000
8712533359722496.000000
-23494366609801216.000000
-5369015136419840.000000
14512705230602240.000000
1089427044564992.000000
36113463709270016.000000
-1082398397693952.000000
-5092023568695296.000000
19104895000903680.000000
15760396451315712.000000
256440179277955072.000000
110056441015959552.000000
85766253473431552.000000
-369520191370952704.000000
35181305482182656.000000
-101727838004051968.000000
51186045844193280.000000
123940077419102208.000000
559870290071388160.000000
-28456039531675648.000000
-23533721395134464.000000
-28982486558048256.000000
-62363943045169152.000000
3446443893325824.000000
16680588899516416.000000
-6462520252432384.000000
51024112692232192.000000
-10476947800850432.000000
-7987091908591616.000000
14206827323457536.000000
13307264676921344.000000
-10926069309767680.000000
-13079607787913216.000000
-1282805128495104.000000
14842385846501376.000000
5381012590690304.000000
-7717634250375168.000000
11223172598726656.000000
-5913124142055424.000000
-13877009268604928.000000
-5694201069043712.000000
-6068410295255040.000000
11113228952141824.000000
3074320410607616.000000
-10458810153959424.000000
-1405354504093696.000000
-10699826538741760.000000
-831648610385920.000000
3004154603634688.000000
1525494000386048.000000
-1973769132310528.000000
703150839300096.000000
1388843173412864.000000
-4087622649511936.000000
-9214462565285888.000000
-2270599422410752.000000
4556724077854720.000000
12317269346484224.000000
-2856943794257920.000000
2250383682437120.000000
-4678154614472704.000000
2889204098924544.000000
8202709467398144.000000
2727204911841280.000000
-5291159727374336.000000
28678102225780736.000000
-31658886838616064.000000
-4277835208327168.000000
11642362480558080.000000
-4933758855675904.000000
533198714961920.000000
-958839369236480.000000
-6212160703168512.000000
-14967117065486336.000000
-3863697281777664.000000
-626643110461440.000000
1433207098572800.000000
221432139218944.000000
-967172075552768.000000
-732623039102976.000000
-9027361978712064.000000
-4605581478330368.000000
680088139988992.000000
4122138617315328.000000
-3214280778317824.000000
-7529370264535040.000000
-6094260092796928.000000
-3274533263900672.000000
-36807521834369024.000000
13555403191222272.000000
19586932065435648.000000
12581089860124672.000000
34638552612470784.000000
36955711090982912.000000
26283649368326144.000000
-21625523260096512.000000
-100360311827070976.000000
-17230627107504128.000000
-80554499638296576.000000
-15616937027436544.000000
35125180997042176.000000
30041142309421056.000000
-18951942625558528.000000
15483959471243264.000000
36650265901793280.000000
5076743148797952.000000
32952750031503360.000000
-23527467922751488.000000
-40425963061772288.000000
-23509055397953536.000000
45984548390961152.000000
-1978734382940160.000000
164723806961664.000000
23171082273947648.000000
-1208087327277056.000000
3220811007655936.000000
5561313170292736.000000
9640403061964800.000000
-13950538034970624.000000
10527037856940032.000000
11159898066780160.000000
-6255275732369408.000000
-34781766149472256.000000
4017873991237632.000000
-9310850221342720.000000
4050223953346560.000000
-4329033634414592.000000
-1914243033071616.000000
2549065774530560.000000
-5230641490690048.000000
-40489532872720384.000000
-14704230707232768.000000
-10788277095235584.000000
4929192768569344.000000
10157875754172416.000000
408103430389760.000000
-96090498007040.000000
983847621623808.000000
-9441880009867264.000000
-3875378519080960.000000
-3733224765259776.000000
-5592940772589568.000000
3082726735347712.000000
5046255860318208.000000
8704178574589952.000000
-6848841823289344.000000
-3395706370916352.000000
10403712166002688.000000
3348804791173120.000000
-3980012243910656.000000
-106651688370176.000000
1841976316002304.000000
-1511855197519872.000000
14469101648871424.000000
34788932302405632.000000
278508496486400.000000
29001652849606656.000000
-29152477068656640.000000
134425320949284864.000000
76620395494506496.000000
-129847229409132544.000000
-56552779279237120.000000
22363624127332352.000000
-46889828712710144.000000
21677481626959872.000000
24888021220327424.000000
-6885644324306944.000000
-8953038106525696.000000
17270856992423936.000000
17677063188119552.000000
6564786108104704.000000
7715367044513792.000000
4591251319947264.000000
-30937757534650368.000000
-1068585715761152.000000
8582799577579520.000000
-2118391821238272.000000
-34529997314064384.000000
2733348862558208.000000
-93846830713929728.000000
43877385895936000.000000
75188006721421312.000000
-147186450469748736.000000
90567648953237504.000000
-826957566574592.000000
59448119812685824.000000
43545969039507456.000000
-57367564640059392.000000
8982992282189824.000000
-30710697646096384.000000
-33034506881466368.000000
50603210192191488.000000
-15379663706652672.000000
-967006987747328.000000
8036044335218688.000000
-11979003090960384.000000
2635185505959936.000000
-22502038038380544.000000
4635661818658816.000000
6965830826852352.000000
12364680416722944.000000
-1680194293202944.000000
-14798976612040704.000000
-14529595189493760.000000
4287396073963520.000000
-8951225093455872.000000
-8519285601206272.000000
20927838035116032.000000
-21424551002898432.000000
18895358578917376.000000
1210765239386112.000000
5903078213550080.000000
-4138593442332672.000000
-27420814974386176.000000
2452076823052288.000000
-9006279057997824.000000
-2717904160161792.000000
9900601844432896.000000
4149257040822272.000000
-996706216837120.000000
2993709243170816.000000
12993232774365184.000000
11008970768515072.000000
14860850984648704.000000
-12568818064818176.000000
-25830014922522624.000000
-16000632225792000.000000
5693392541450240.000000
-6828202894819328.000000
-1736494737784832.000000
3217220414996480.000000
9205029743362048.000000
-3663276659441664.000000
5512209882939392.000000
46651329178763264.000000
8509594007502848.000000
295409461231616.000000
-3814896789618688.000000
-2299785335799808.000000
2255414028664832.000000
-1886302928633856.000000
-1514603037065216.000000
-10751207232503808.000000
1826591608930304.000000
-3567724374523904.000000
6741533676011520.000000
-574293230485504.000000
-3099507709444096.000000
-1775326610849792.000000
-4862944508641280.000000
-2309428342685696.000000
-13688684616351744.000000
-6037169240014848.000000
-1435364380114944.000000
-14414432083902464.000000
5656844517244928.000000
12831415586521088.000000
-3635509695873024.000000
-7178085426266112.000000
11089303836819456.000000
-14823490137882624.000000
19692246811017216.000000
-19636167423033344.000000
-8745587964903424.000000
9967827746291712.000000
611255182163968.000000
-7630187105615872.000000
-3858460106031104.000000
-8858862895497216.000000
5419695213641728.000000
-17295867660730368.000000
-105094619917713408.000000
71511600615391232.000000
-255681121117798400.000000
86620702857232384.000000
10731087458205696.000000
-61993931612618752.000000
-93053902441676800.000000
-5281966886748160.000000
59617298574475264.000000
44402857964732416.000000
2766487488036864.000000
-10805642721755136.000000
5809508056039424.000000
-13688888627298304.000000
14846124615532544.000000
6377434802814976.000000
23499662304477184.000000
-13476914811371520.000000
-8775130360578048.000000
-3384537576898560.000000
20502080074547200.000000
-11278347896094720.000000
-8846262535192576.000000
-29024072578891776.000000
-5158343232454656.000000
4118334081597440.000000
-29092229414912.000000
9700976059482112.000000
11962095952199680.000000
9841999163162624.000000
-12375544536498176.000000
-4036472541806592.000000
8250568824848384.000000
29750138947764224.000000
-6436812188811264.000000
-23619399550238720.000000
-15627910668877824.000000
4822665231597568.000000
-36067793174528.000000
19677852228124672.000000
9304675132112896.000000
-4869409508163584.000000
14332972660424704.000000
16283293687218176.000000
20316256167002112.000000
-879394822291456.000000
-64222676041859072.000000
-8472802780774400.000000
-25970507597742080.000000
-30585072000172032.000000
11116404006715392.000000
23837712737894400.000000
-58267398943277056.000000
-33166096089481216.000000
25344690060525568.000000
-56677638273499136.000000
-79524721099538432.000000
-61260303953821696.000000
17993442290302976.000000
-2968469062549504.000000
-22211777706065920.000000
14290208744800256.000000
-63247314738741248.000000
-48506132280377344.000000
-13093731787866112.000000
13214489088360448.000000
-2569702555516928.000000
-11256880575807488.000000
-37401408437223424.000000
-34773150445076480.000000
29746402326216704.000000
8131481192890368.000000
-25253600246628352.000000
-3711686309576704.000000
-17289417693593600.000000
-15580858228408320.000000
-7838182171213824.000000
1985042347720704.000000
2101488709009408.000000
-5797623881531392.000000
287641912213504.000000
-2149663880773632.000000
-340623487926272.000000
-1403992731025408.000000
-5571799332945920.000000
2701887421808640.000000
808403173638144.000000
-2234624507904000.000000
-2993910569762816.000000
-3388441970606080.000000
-8604003294248960.000000
15744731631845376.000000
-9214146885189632.000000
-3092182105849856.000000
-21561611999248384.000000
-13729927039811584.000000
10520273283448832.000000
8316610926346240.000000
11953166715191296.000000
-6788824487165952.000000
-16597516715819008.000000
-53278326277537792.000000
5221328390979584.000000
-10875616328941568.000000
6552110049001472.000000
658084150116352.000000
-1258925512982528.000000
-2269905516756992.000000
-4606727697727488.000000
7535158269837312.000000
-4020795911176192.000000
12584904864825344.000000
-3969713717641216.000000
-18258855163068416.000000
-13625594767998976.000000
-449886717739008.000000
-149515817392799744.000000
113990270281842688.000000
136161630198169600.000000
24431163401568256.000000
214105768973041664.000000
166466232243978240.000000
145842915980083200.000000
-44488018576277504.000000
-156625156498784256.000000
63842159119302656.000000
-58038524431040512.000000
97740252927492096.000000
158774358133702656.000000
-6028151419305984.000000
9357066216931328.000000
224268696682496.000000
2699763560480768.000000
-20964310897393664.000000
-2990821682970624.000000
18536559158493184.000000
-6414256094314496.000000
25707299116941312.000000
-8489171438010368.000000
-13722552580964352.000000
-10540034427977728.000000
-4532032310870016.000000
-6901825613594624.000000
-9713983367938048.000000
-14813549436076032.000000
25717632808255488.000000
-26570261125922816.000000
-29176380709142528.000000
-10319727301754880.000000
9639151078998016.000000
44697131943985152.000000
-15975141594890240.000000
-9274418161254400.000000
-27935416480956416.000000
-9765409158856704.000000
-5002079974195200.000000
-3818599588298752.000000
2362123564875776.000000
2797483461705728.000000
10325397732327424.000000
-4279825925668864.000000
-6020587981897728.000000
-2521650192973824.000000
2616800630013952.000000
-1907934262984704.000000
-10389193029058560.000000
-12396445994844160.000000
1978673716527104.000000
-6787518280237056.000000
-1494727539032064.000000
2702789633376256.000000
2336781647216640.000000
-1856361369436160.000000
-3622247105298432.000000
2956456575893504.000000
3763243365433344.000000
1891061886615552.000000
-607787801378816.000000
-8106742718136320.000000
-2614401353908224.000000
-1895076741513216.000000
-5533336290197504.000000
-6312571132968960.000000
10183777628192768.000000
2652003255713792.000000
7900560665608192.000000
-6557477147508736.000000
-2618454729293824.000000
6188407386537984.000000
4186430251204608.000000
-4703144881684480.000000
-8564027349270528.000000
-17118966547742720.000000
4965592616402944.000000
36190468177920.000000
-4361244546957312.000000
4306263059988480.000000
-1511521934901248.000000
-3049929291333632.000000
-6438788947509248.000000
1052178001166336.000000
1196907795841024.000000
23446290893373440.000000
-5379923279609856.000000
-6308047995535360.000000
-4176556389826560.000000
8346356259225600.000000
-7540095334744064.000000
-4235264029360128.000000
3124507103461376.000000
7676485779324928.000000
18638757905301504.000000
-4807061615411200.000000
-8729086163681280.000000
-9317117652369408.000000
13143981831487488.000000
-3389368072929280.000000
-14323736333254656.000000
-16514506809147392.000000
1209787194802176.000000
-113479547130740736.000000
45934185604448256.000000
44064689419714560.000000
-272290378126721024.000000
53841946245857280.000000
14866659927916544.000000
74835767863541760.000000
16483191128850432.000000
-46934500667555840.000000
-4890335662571520.000000
-70297769843097600.000000
-38306057398779904.000000
42362765679001600.000000
7982514547195904.000000
5046577982865408.000000
1265063423901696.000000
594811363000320.000000
-9937200334503936.000000
243870424104960.000000
11303343532015616.000000
-2929108640071680.000000
-5942516750745600.000000
745377615577088.000000
9873321285910528.000000
-13984741007032320.000000
-12656022007054336.000000
-12684557769768960.000000
9083879453360128.000000
-187837307682816.000000
37024963143663616.000000
4346187465359360.000000
-2909240121360384.000000
13520888834031616.000000
-7504136794800128.000000
-12193598984421376.000000
-17610613601599488.000000
-35587136941981696.000000
40361723235926016.000000
8667253667004416.000000
17576971122769920.000000
-38537212538650624.000000
9726801697832960.000000
2348949289566208.000000
11834285241663488.000000
-30984765951705088.000000
-26080357828788224.000000
7593989121245184.000000
-3779302785024000.000000
6414067115753472.000000
29427146669686784.000000
2141842208456704.000000
-3983975156547584.000000
-28492847401402368.000000
-12844874940284928.000000
5659959442276352.000000
-132282218167926784.000000
8882810022526976.000000
-31963992725389312.000000
-4808773159878656.000000
10330370230714368.000000
2475524123262976.000000
-1002061302857728.000000
-6592812380323840.000000
5753325588840448.000000
-3719783396671488.000000
-7900733001170944.000000
5958176201506816.000000
2348877080428544.000000
2023801608994816.000000
8670990288551936.000000
-5479787711692800.000000
-11359906103820288.000000
-15305326412693504.000000
22509440414515200.000000
-5652802416148480.000000
-7159526872580096.000000
-16954340451287040.000000
5259593865232384.000000
-73072718148272128.000000
93937214005706752.000000
71655937286340608.000000
-61320850107793408.000000
122792290358919168.000000
-19435667612237824.000000
97635653293965312.000000
119324851591708672.000000
-69150794531733504.000000
-6493908947173376.000000
-45771801480921088.000000
93480306794823680.000000
80269794846179328.000000
-94507594252550144.000000
71951121798660096.000000
48986752005701632.000000
-89185330908889088.000000
96299695126609920.000000
45641268834861056.000000
82373864964751360.000000
43084474803552256.000000
-91414015208587264.000000
4450457460146176.000000
-45683647277170688.000000
67085679766536192.000000
83234627950477312.000000
-49706571344642048.000000
-394039358652416.000000
35785665362788352.000000
-122390882715435008.000000
33937497985646592.000000
57014574162903040.000000
26256754283118592.000000
-58799931938308096.000000
-55576168140636160.000000
51158064132259840.000000
-25364788359987200.000000
25295145465282560.000000
22324606496931840.000000
-5167556474175488.000000
15254458967523328.000000
19098809032245248.000000
26260722832900096.000000
-19916362499489792.000000
56673502219993088.000000
30154172963749888.000000
-55582129555243008.000000
-92483925921759232.000000
21808963460792320.000000
-28358771407323136.000000
-8647923629817856.000000
363237329600512.000000
-13214750007623680.000000
4422573995589632.000000
4367300987715584.000000
-7959615929057280.000000
3598633375105024.000000
932375122935808.000000
5826665376645120.000000
1824905834266624.000000
11569110739582976.000000
-4819435416190976.000000
-15063686183911424.000000
-25992106988273664.000000
7789347856187392.000000
-40498852951752704.000000
31081812885241856.000000
-22009882030899200.000000
-18747706193215488.000000
-38453125668929536.000000
60980796072132608.000000
35065916890808320.000000
-43661039803301888.000000
-211564076046745600.000000
-14901578012033024.000000
-37556774584188928.000000
-160779850162896896.000000
39261369794560000.000000
19335644266364928.000000
6052505494487040.000000
18124113449058304.000000
2962568851226624.000000
-3522368983007232.000000
23329276656877568.000000
23313228511576064.000000
94586252820480.000000
-32134122822434816.000000
26047290875576320.000000
24087843043278848.000000
7052786197856256.000000
1553527923015680.000000
16577387277844480.000000
-15845195211866112.000000
4611313112186880.000000
33044834130329600.000000
5043940872945664.000000
-8475663765864448.000000
-7494866107891712.000000
-9962515945488384.000000
11812449627930624.000000
3856541866262528.000000
19605441226997760.000000
-14728467207684096.000000
-12119830773628928.000000
19654599275184128.000000
-47484969446014976.000000
16389483532386304.000000
-88396336826679296.000000
18138417837637632.000000
16864914937217024.000000
-43317408059883520.000000
-48420761215434752.000000
-18624698329858048.000000
32298083198959616.000000
23507715368157184.000000
35357579529945088.000000
-25329788671492096.000000
15179452732407808.000000
-156225408860160.000000
-14259020839780352.000000
25868935916158976.000000
-33205375712886784.000000
28627453823942656.000000
15522787049340928.000000
-18131633936793600.000000
-22213534347689984.000000
7251396223041536.000000
53178942881792.000000
16454309621268480.000000
-5193713898749952.000000
-46242727465058304.000000
33976661644935168.000000
11439841887649792.000000
53064681719332864.000000
35389456777216000.000000
-8986163578667008.000000
34724621609598976.000000
10754135326457856.000000
4697483577917440.000000
-21950527730352128.000000
-9659145225502720.000000
-19563165863903232.000000
37794157426638848.000000
-13449806051540992.000000
-48266859652317184.000000
28518539895767040.000000
-65794449388601344.000000
23216802200813568.000000
-23714129348919296.000000
-24334715615969280.000000
-59606848919044096.000000
-72681455217541120.000000
46119195615690752.000000
37610727963361280.000000
3522027801542656.000000
-40840216952438784.000000
-42024876306857984.000000
102596417830256640.000000
87729379945218048.000000
-69080726435266560.000000
141753119271813120.000000
-12807201634648064.000000
95455837132161024.000000
112229505489174528.000000
-59507106893529088.000000
-16327945240969216.000000
-90509967542452224.000000
109225837290586112.000000
84573687084220416.000000
1142032766079074304.000000
-389946884032036864.000000
-338229086876860416.000000
-412717013929033728.000000
-1111239293675765760.000000
-547507312609198080.000000
-293170069578448896.000000
-640111824032759808.000000
6464173995229970432.000000
214913257184428032.000000
560972069441896448.000000
71388283514388480.000000
-836153853912023040.000000
3386311129956352.000000
-3279274102489088.000000
-853202702434304.000000
-10304659482738688.000000
-7864731511554048.000000
-6679004857761792.000000
-133576804794368.000000
9481140305920000.000000
-12746848754204672.000000
-204093289136128.000000
9288985616580608.000000
9528452591910912.000000
330674431066112.000000
26751092133986304.000000
7804885974122496.000000
-25284236248350720.000000
-110864891300020224.000000
-43777931633229824.000000
-63809650511839232.000000
2762773951938560.000000
85020372272939008.000000
-26094778181484544.000000
-18340307070353408.000000
44706911584518144.000000
62783149033127936.000000
32768083617644544.000000
14820323.000000
49711708.000000
-34539560.000000
-8393279.000000
-49956908.000000
37540204.000000
-162242544.000000
-35061044.000000
25301944.000000
-7965654.000000
-16581648.000000
-17023232.000000
68376160.000000
-3852949.000000
-58741200.000000
-25229600.000000
-4260154.000000
9581368.000000
-17448020.000000
35442276.000000
-1101097.250000
55391216.000000
-5428653.500000
-21554280.000000
-50264192.000000
17828160.000000
77049520.000000
20172166.000000
-47428660.000000
-36035200.000000
-202592.000000
-960350.812500
-2109978.000000
-33211012.000000
16912760.000000
-4669407.000000
3378375.250000
-18095252.000000
-9921163.000000
-45187860.000000
21360816.000000
2077866.875000
-62216424.000000
85290160.000000
-55019364.000000
-74109520.000000
8611198.000000
-1252784.000000
-11572184.000000
71786448.000000
15293662.000000
-68747600.000000
8991896.000000
-41071600.000000
-92071344.000000
10032694.000000
-45349972.000000
-7315280.500000
21557972.000000
5685874.000000
12890832.000000
46240052.000000
119000112.000000
-11612184.000000
-7248795.000000
42571832.000000
5297133.000000
23853344.000000
-29026740.000000
-5411366.500000
-11060410.000000
20677148.000000
-44196836.000000
23502352.000000
-1199482.875000
349418.750000
11043013.000000
-39900048.000000
-9458060.000000
-22055564.000000
-10983842.000000
1990785.375000
17387024.000000
10029235.000000
-27129640.000000
9669632.000000
-53149776.000000
-2442246.000000
19140700.000000
-16705508.000000
-35940868.000000
66104428.000000
-22291854.000000
19863404.000000
-17396238.000000
-37906984.000000
120246.250000
-28141582.000000
36109788.000000
-22646664.000000
4597246.000000
48889736.000000
57875392.000000
-29460164.000000
-13844187.000000
5752808.000000
2975623.250000
33723656.000000
44660368.000000
789906.000000
31357390.000000
13918695.000000
-9529652.000000
-23493680.000000
3845503.500000
-8433816.000000
12986326.000000
20343220.000000
-3500890.500000
-71995720.000000
44175832.000000
29657730.000000
48757448.000000
-6188192.500000
52425260.000000
71752128.000000
-61357704.000000
-124570208.000000
-3670050.000000
-54805412.000000
41702720.000000
-38930008.000000
20258806.000000
9783413.000000
25256930.000000
-20467944.000000
97475224.000000
-42137488.000000
-11072819.000000
-29592658.000000
3600897.250000
-15607662.000000
108991960.000000
-9386855.000000
3762051.000000
-28014874.000000
22262988.000000
43156580.000000
-33634272.000000
30459460.000000
37218280.000000
11737577.000000
-23180028.000000
-34308972.000000
-38269428.000000
-25259536.000000
-83413776.000000
-4391557.000000
-17615594.000000
45865720.000000
-17196728.000000
26589314.000000
18102084.000000
26892580.000000
24586760.000000
-59130088.000000
-17784134.000000
41768560.000000
4183707.000000
22163214.000000
-2195193.500000
9452594.000000
-10365377.000000
4725511.500000
14556114.000000
61946964.000000
-1641980.250000
-20981946.000000
-15138143.000000
-7433751.500000
35393044.000000
23276406.000000
37915544.000000
-3066382.500000
-12671329.000000
30183824.000000
15841164.000000
-1136305.250000
-35446992.000000
-71269904.000000
-50480820.000000
-7021867.000000
-51281888.000000
-7307100.000000
16187922.000000
6927258.000000
829004.000000
-78861472.000000
-27258860.000000
-17320036.000000
-21673514.000000
1034860.625000
33966648.000000
-41686072.000000
11371801.000000
32471772.000000
41020088.000000
-70977776.000000
1371474.875000
-13612097.000000
-5352924.500000
40429888.000000
22729194.000000
40523552.000000
-45257080.000000
-44079780.000000
-57743712.000000
15619362.000000
12269981.000000
-11401161.000000
11462519.000000
-5340884.000000
11754224.000000
17094636.000000
-20029290.000000
73551936.000000
61089804.000000
49496216.000000
17147096.000000
-5205808.000000
23459920.000000
2850592.500000
35952032.000000
-25588064.000000
3492877.250000
1662533.000000
2542512.500000
-12906394.000000
-18183440.000000
30953496.000000
-41150948.000000
-22635858.000000
-46186028.000000
-27505514.000000
-2990151.000000
-11455202.000000
-37842360.000000
46117144.000000
-15018918.000000
-69603328.000000
-2448747.000000
14268240.000000
-2624290.500000
-6425931.000000
70947312.000000
26727780.000000
53460088.000000
23964382.000000
-10830594.000000
29665350.000000
39566508.000000
6250909.000000
24704820.000000
-17005172.000000
-25656966.000000
56116520.000000
-96546608.000000
18668898.000000
-12301674.000000
785080.750000
9430588.000000
-20227524.000000
-3307739.500000
-41142944.000000
37461100.000000
15769886.000000
-16946666.000000
-37913080.000000
-14786518.000000
-22067368.000000
3598728.000000
30962834.000000
11262893.000000
-37453880.000000
-30692588.000000
-270106.500000
-13904212.000000
57385288.000000
-27710716.000000
36622884.000000
-8942254.000000
49773048.000000
-21301422.000000
-19011750.000000
18070908.000000
21717298.000000
4286161.000000
-36534456.000000
-32239348.000000
-31813940.000000
24322548.000000
4555777.500000
-7182794.500000
-25714596.000000
2761656.500000
24205372.000000
-9208865.000000
28631450.000000
-12603714.000000
22772104.000000
-38692052.000000
23457812.000000
-17747828.000000
-18899852.000000
26759384.000000
-404341.687500
25022372.000000
18919308.000000
-1271418.500000
93187472.000000
-13583229.000000
6039967.500000
72628296.000000
19414204.000000
20243220.000000
34071800.000000
-9869170.000000
-45644272.000000
-1262392.625000
18046242.000000
-45484772.000000
11054176.000000
12431061.000000
-10014323.000000
-34525452.000000
-24272574.000000
2356489.750000
53931836.000000
-41267024.000000
-55635212.000000
-16259834.000000
9380699.000000
47506444.000000
-42213616.000000
-13333724.000000
-18875204.000000
38684728.000000
10046050.000000
-13342161.000000
-30457912.000000
-34775468.000000
29264108.000000
-30816134.000000
-25501520.000000
24732620.000000
-31352924.000000
25905390.000000
29500068.000000
36773560.000000
-200359.750000
3074793.000000
-38889824.000000
-9979953.000000
-26206168.000000
20439984.000000
50896176.000000
-8044475.500000
1697104.000000
22988776.000000
445470.000000
22736002.000000
29879640.000000
10585384.000000
-4071355.000000
-31465946.000000
-12981743.000000
13097893.000000
-20724954.000000
9086245.000000
-36208348.000000
15060861.000000
10789510.000000
24341148.000000
21079016.000000
21896388.000000
-23347488.000000
-54584536.000000
21958790.000000
-37308768.000000
-53168656.000000
1110925.000000
-18032676.000000
-26843882.000000
14543229.000000
-5973497.500000
1907100.000000
-40048120.000000
-23085924.000000
51735272.000000
3356504.500000
49855164.000000
16590435.000000
19993916.000000
35748976.000000
-33114910.000000
-9307428.000000
408193.031250
13262200.000000
3587861.500000
54010780.000000
14165906.000000
-49267740.000000
-43501216.000000
10447234.000000
-7707537.500000
-46062112.000000
-37426120.000000
30027012.000000
-5366637.000000
507490.500000
23030766.000000
-48087296.000000
33155468.000000
25008448.000000
26828340.000000
26277868.000000
8078054.000000
-555879.000000
-17995902.000000
8804871.000000
5588487.000000
13674746.000000
16408176.000000
-128031888.000000
-16685778.000000
42128968.000000
-6525740.500000
8331368.000000
58866668.000000
32918408.000000
31153960.000000
6887690.000000
-1637337.750000
9102602.000000
-88466872.000000
-20634964.000000
44292764.000000
-28611872.000000
-34611296.000000
-51329232.000000
9278988.000000
34007208.000000
16443868.000000
19809884.000000
69092536.000000
37310848.000000
-5791956.500000
-25553384.000000
-16301387.000000
34290428.000000
3221923.000000
5938289.000000
28762234.000000
-34473720.000000
-15772355.000000
-26053066.000000
-10445529.000000
-18165292.000000
19618288.000000
3506096.250000
12233014.000000
28080684.000000
25124706.000000
-10162354.000000
-4633715.000000
-31768664.000000
-10668800.000000
2115121.000000
11154762.000000
-7196380.500000
20701866.000000
2219493.750000
-3432452.250000
-49895376.000000
-31824488.000000
23223550.000000
37160804.000000
-37883992.000000
-1013574.750000
3110248.000000
-25636668.000000
2595976.500000
-12174078.000000
-22420874.000000
-6087418.000000
31607920.000000
11417638.000000
7533188.000000
4134055.500000
2781751.000000
-3720292.500000
-8896124.000000
-14421296.000000
-18440030.000000
-24183692.000000
-19885936.000000
5952515.500000
4790123.000000
-5031582.000000
-6961303.000000
-19281852.000000
14011002.000000
-15397942.000000
19223666.000000
771195.500000
-821766.125000
-8165002.000000
32134218.000000
12377152.000000
24988498.000000
41499048.000000
-15420796.000000
-36503156.000000
24282624.000000
47887360.000000
-53270396.000000
81221256.000000
17153238.000000
8832486.000000
-19519602.000000
-36346056.000000
26525416.000000
-33204576.000000
-35742916.000000
-2499568.000000
-18117528.000000
9738644.000000
-10214555.000000
-21557490.000000
23742514.000000
-20843094.000000
-17673598.000000
-77454432.000000
-25281934.000000
-61938120.000000
80957488.000000
36465872.000000
50281168.000000
-66288392.000000
-20932910.000000
47139504.000000
-2702670.000000
25830124.000000
-520312.750000
-8775978.000000
50942076.000000
-10693061.000000
-1403367.000000
20364080.000000
-14877935.000000
10775334.000000
-6112061.000000
-27222146.000000
-39201216.000000
56497940.000000
-45048340.000000
15184248.000000
-88285936.000000
-25405522.000000
-8532129.000000
-15920661.000000
-82644976.000000
63232024.000000
-9026287.000000
-6758612.000000
-44277680.000000
-32536244.000000
-11382058.000000
8815254.000000
8452079.000000
14787554.000000
9004474.000000
-25563132.000000
-5674304.000000
-2944160.000000
57799232.000000
-73020256.000000
38126960.000000
-17802520.000000
23620464.000000
9564889.000000
12569657.000000
-5056375.500000
26326236.000000
19243376.000000
-15520535.000000
12613825.000000
-59851712.000000
58982712.000000
-12904920.000000
-65582072.000000
-42106216.000000
-7994167.500000
-14509824.000000
-24178766.000000
-4174661.000000
23529326.000000
10746628.000000
49561104.000000
4141502.000000
1281985.000000
32435646.000000
28637690.000000
52421468.000000
-2523693.000000
-52672128.000000
-22795996.000000
25086880.000000
16266614.000000
-16426293.000000
-67375408.000000
-2526845.000000
-37212528.000000
1128959.125000
-3806945.000000
2995812.250000
20397880.000000
11463208.000000
-1975110.250000
27333210.000000
-39943848.000000
7976706.000000
13577108.000000
13246512.000000
-18564858.000000
-18661670.000000
-8589110.000000
-26354568.000000
-2049085.250000
7772934.000000
-14334426.000000
25815386.000000
7286035.000000
29861620.000000
11153789.000000
60526144.000000
-26679964.000000
-51154900.000000
16168591.000000
66068116.000000
66009560.000000
3671339.000000
20135778.000000
-5923825.000000
-43475416.000000
-20421736.000000
40768008.000000
-32108248.000000
-28047376.000000
-29866764.000000
14450252.000000
-6548381.000000
1333113.750000
-15524928.000000
26796264.000000
26389732.000000
-31676708.000000
44882696.000000
-1385681.500000
1615287.000000
12324839.000000
-9418776.000000
-28443056.000000
22065660.000000
-15518056.000000
46632704.000000
70902672.000000
-10316982.000000
-8519282.000000
-6352593.500000
9875010.000000
57337880.000000
38791920.000000
-28365542.000000
-26299834.000000
5019403.000000
-69182040.000000
1776024.250000
16522642.000000
2766905.500000
19960418.000000
-7799546.500000
-40686328.000000
41346032.000000
-34262656.000000
13973078.000000
543321.500000
-37235608.000000
-29563340.000000
25315476.000000
38952984.000000
15157848.000000
-2025417.250000
17051302.000000
-15980585.000000
-29486632.000000
-12215120.000000
15292961.000000
-18243620.000000
15520189.000000
27856614.000000
12191192.000000
-32943464.000000
-14582013.000000
-31372688.000000
28067838.000000
3353230.000000
-8338959.500000
-16602578.000000
4016853.500000
-2466328.750000
50718400.000000
-8884074.000000
26708452.000000
-27561194.000000
-11289835.000000
28674768.000000
-1794209.500000
42702684.000000
20106608.000000
24801996.000000
-6238896.000000
-36186744.000000
-12584280.000000
-72332848.000000
-7508121.000000
-29398536.000000
27743586.000000
15068721.000000
-30981876.000000
17695798.000000
46004300.000000
-41191368.000000
12127719.000000
-12077193.000000
-30621752.000000
-33718824.000000
-58029916.000000
28193484.000000
10824396.000000
34133692.000000
45694888.000000
-29087796.000000
-38843652.000000
19713120.000000
-22321818.000000
49335868.000000
-14948294.000000
23612032.000000
63061008.000000
272072.375000
-8516296.000000
-53878620.000000
31150444.000000
15611659.000000
-1854446.625000
-10279799.000000
71678368.000000
5821590.000000
-61432360.000000
9082099.000000
7252882.500000
47352312.000000
-17214928.000000
15840629.000000
26853194.000000
-7984064.500000
-48655448.000000
-6322910.000000
42853240.000000
16621276.000000
9286352.000000
-12425989.000000
6113692.000000
-23192376.000000
-2559204.000000
28341900.000000
-17337510.000000
12479549.000000
-14852759.000000
-58823764.000000
-30593976.000000
40317884.000000
19704998.000000
23162566.000000
18678390.000000
-25775586.000000
10893953.000000
18461150.000000
32285384.000000
-4755846.500000
-16849586.000000
-20056550.000000
36677924.000000
2219771.000000
-19951644.000000
32678548.000000
-39738092.000000
9401920.000000
-26068448.000000
-6578509.000000
27895464.000000
14642622.000000
-22176954.000000
-1558197.250000
-3645765.500000
-28037538.000000
9540648.000000
16973076.000000
21767672.000000
-4696763.000000
-45698800.000000
109078.781250
39379728.000000
-8238815.000000
-15932407.000000
6407978.000000
-2644794.500000
10062841.000000
15913846.000000
19530190.000000
18334824.000000
-3794393.500000
10000409.000000
16903900.000000
-9801780.000000
-2204677.750000
-632824.875000
-7489600.000000
6671425.000000
-5906173.000000
-14659212.000000
-10978278.000000
-48033896.000000
-39145932.000000
41537288.000000
41686196.000000
4318511.000000
-6604244.500000
3423.000000
-15562294.000000
-57478064.000000
14722395.000000
-30358672.000000
28104920.000000
13529414.000000
24935746.000000
-30217322.000000
37787968.000000
3333614.750000
20776552.000000
25984000.000000
40921736.000000
12449256.000000
88759704.000000
-10491682.000000
13345.500000
-21181640.000000
10591216.000000
-4995224.500000
20561022.000000
20603500.000000
-46843768.000000
-6621116.500000
-9081072.000000
6300044.000000
-3863438.750000
25239602.000000
2688938.500000
-19481098.000000
21607334.000000
20885474.000000
41991424.000000
-12422478.000000
2125969.000000
-18410894.000000
31533848.000000
8607832.000000
-61055624.000000
2342277.250000
-13249536.000000
23654244.000000
11109280.000000
12557810.000000
-2431041.500000
-20236210.000000
-33153530.000000
4631816.000000
9893282.000000
-34952116.000000
-31569044.000000
45908068.000000
21665460.000000
-60520256.000000
44474176.000000
-12351650.000000
-33605564.000000
118991880.000000
-46786300.000000
-8158164.500000
42855768.000000
8671703.000000
-21915964.000000
17219766.000000
5047898.500000
-17960838.000000
-53918428.000000
17113554.000000
-12553051.000000
5888776.500000
14919549.000000
-4275143.500000
16742455.000000
-58208552.000000
-1750282.500000
-25349254.000000
-5271805.000000
-55017036.000000
43907640.000000
-23730148.000000
4466078.500000
-12776884.000000
38060868.000000
-9050048.000000
-26612724.000000
12163902.000000
-114475984.000000
-3076411.750000
-65188432.000000
2420350.250000
11182380.000000
-42905560.000000
7148040.000000
-5256748.000000
-4840019.000000
-22968944.000000
-3281523.250000
-663589.250000
-39242584.000000
15087027.000000
-13394098.000000
-1921144.625000
1241524.000000
54610640.000000
-12656206.000000
23070472.000000
-24856254.000000
55369036.000000
-3298559.250000
-2858117.000000
13266790.000000
74899056.000000
56180424.000000
9060749.000000
-54137044.000000
36941928.000000
-36009024.000000
2760298.750000
-53920628.000000
43759120.000000
-11718722.000000
-2039583.250000
-7243219.500000
-2568501.000000
-36584416.000000
-21863404.000000
-6410038.500000
19285856.000000
-2962580.500000
12491162.000000
6528097.000000
43780192.000000
4802420.500000
-19434422.000000
-751274.000000
-21622418.000000
-2205550.000000
18537936.000000
-26150136.000000
9104411.000000
191717.625000
-23677426.000000
28494742.000000
-36280004.000000
-11177490.000000
-20698526.000000
7394935.500000
25731552.000000
26064764.000000
5689974.000000
30267256.000000
-42172032.000000
14828486.000000
-33734592.000000
43560500.000000
35467220.000000
-15399926.000000
13567644.000000
7691142.000000
338974.312500
49162728.000000
-26461504.000000
-16622510.000000
18692366.000000
3828394.000000
900567.812500
7570421.500000
22928164.000000
14338564.000000
-14846544.000000
-28179726.000000
-28868254.000000
-2642174.000000
-5990334.000000
-1226702.125000
-13343344.000000
12075044.000000
-16565821.000000
-32166764.000000
-6019218.000000
3263384.000000
14838098.000000
-16875902.000000
-22258848.000000
-6335726.000000
-3503092.000000
-33517264.000000
10474062.000000
30429370.000000
-14033896.000000
35405444.000000
13835256.000000
-14270122.000000
7209905.000000
-49128016.000000
-3029131.500000
-824626.500000
16125818.000000
-23400852.000000
-30754068.000000
-309001.000000
-16419240.000000
48614408.000000
-63218448.000000
-29036892.000000
-839971.500000
-9901700.000000
-27520532.000000
45141060.000000
-27604586.000000
20015128.000000
4272990.500000
-42845676.000000
9962400.000000
-48610720.000000
-38110400.000000
26771578.000000
-39669344.000000
18281652.000000
49839180.000000
7256502.500000
-32348844.000000
-20905658.000000
-32761960.000000
12400019.000000
-6070217.000000
17571276.000000
-59391168.000000
-2642145.500000
24895608.000000
48624380.000000
-29375650.000000
14119313.000000
14078338.000000
4042643.500000
-45360904.000000
78851016.000000
-22911636.000000
452248.000000
-12847456.000000
-22913230.000000
-11308332.000000
-36566824.000000
-6907007.000000
-51141652.000000
14249113.000000
8546457.000000
3040141.000000
6706060.000000
25005510.000000
-32474304.000000
-20343936.000000
-8231903.000000
3447184.000000
-12662172.000000
36846400.000000
-6323071.500000
-2183078.250000
4681802.000000
-15469216.000000
-13089953.000000
6205893.000000
-5330728.000000
18689732.000000
5468791.500000
-21853364.000000
8840870.000000
-7974217.000000
21438872.000000
24800482.000000
-7955493.000000
5772826.000000
-15255992.000000
406223.250000
-7304987.000000
17534558.000000
29610600.000000
19248038.000000
5387886.500000
1272001.500000
-14688338.000000
19345074.000000
26234714.000000
-12321081.000000
-8604945.000000
-11370410.000000
15493040.000000
24429376.000000
-3222752.500000
11137705.000000
-13668440.000000
266869.375000
38001184.000000
5793196.000000
-15653896.000000
3635512.750000
-9236522.000000
12879338.000000
-9162239.000000
22775800.000000
14669460.000000
-15679143.000000
10803862.000000
24418242.000000
-7181474.500000
-7836490.000000
7926483.000000
8141085.000000
-25299402.000000
-7325074.000000
10784054.000000
-19332090.000000
-20230476.000000
12898768.000000
-1716661.500000
-24766362.000000
-19219954.000000
26725384.000000
-4374228.000000
9868348.000000
11100636.000000
-21586328.000000
-8611130.000000
8574679.000000
-7399884.000000
-14111462.000000
-899452.375000
2409662.000000
18410560.000000
28350020.000000
-16061995.000000
-21465498.000000
-2353986.000000
11009055.000000
14347880.000000
-22482076.000000
-17729292.000000
-3376420.500000
-25551758.000000
-6693486.500000
-8764024.000000
-10818818.000000
-6204389.000000
-10770325.000000
19429550.000000
-5530257.000000
-18159950.000000
-6766573.000000
-3250598.000000
-10276213.000000
9382286.000000
1971725.125000
-27061396.000000
177905.750000
-9980685.000000
-18018222.000000
-10326399.000000
-28387954.000000
11214197.000000
-5504366.000000
4756248.000000
14331736.000000
-8205860.000000
14546555.000000
35028780.000000
-21732186.000000
-3603281.750000
-11852670.000000
1791869.750000
-9692788.000000
-5847781.500000
-15209960.000000
17291618.000000
-19475272.000000
51190592.000000
16724711.000000
4107301.250000
815342.187500
-15303614.000000
17927868.000000
-7314411.000000
-2753109.000000
-11150380.000000
11258407.000000
-23020522.000000
99052136.000000
-4957285.000000
-16529476.000000
-10412382.000000
-79551584.000000
-922338.000000
-115179520.000000
-15230089.000000
34145052.000000
20665406.000000
12364808.000000
21419472.000000
-1001124.000000
-982728.000000
-56219832.000000
21654544.000000
-21629684.000000
-6191802.000000
-25477378.000000
-96070432.000000
-11744458.000000
-14166024.000000
-1675205.000000
-53932148.000000
-47981052.000000
11367392.000000
45726944.000000
3299922.000000
-59443672.000000
-79031016.000000
-24519466.000000
-10355292.000000
8518459.000000
-5427281.000000
304847.750000
-38495600.000000
-17320644.000000
9478397.000000
-30797504.000000
-35761812.000000
6765487.000000
-5365382.000000
24684584.000000
21811660.000000
44849840.000000
-54903420.000000
63896732.000000
48392936.000000
25496968.000000
47916604.000000
29633266.000000
-7377339.500000
13677144.000000
29473434.000000
-61253328.000000
-2560057.000000
25646844.000000
-77039368.000000
-13513923.000000
101112496.000000
3235814.000000
35115680.000000
45029368.000000
5560955.000000
13650385.000000
13454804.000000
33186256.000000
-637428.750000
12186214.000000
45510412.000000
-33633676.000000
91257888.000000
-17979196.000000
29705824.000000
-23727722.000000
13235484.000000
16661880.000000
18926348.000000
-40263140.000000
74211456.000000
23085334.000000
-50494384.000000
2300769.000000
-29699760.000000
22442052.000000
32330550.000000
-9524727.000000
-33572720.000000
21182416.000000
20498910.000000
2659868.500000
4558704.500000
18895316.000000
13595623.000000
20814306.000000
-30734424.000000
12380638.000000
-37832820.000000
-46136632.000000
2316015.500000
-82556048.000000
-13841354.000000
24179566.000000
-15035577.000000
-11816967.000000
-55161268.000000
-18255124.000000
10241244.000000
-1498895.750000
53640580.000000
-17320808.000000
52832132.000000
-25897824.000000
-28778648.000000
-4090551.000000
14047172.000000
36802804.000000
16701846.000000
20224270.000000
12904932.000000
13858840.000000
-3621430.500000
-28904058.000000
35627584.000000
-50665120.000000
-36228460.000000
5815444.000000
-15023036.000000
-9037343.000000
27319684.000000
178113904.000000
21678232.000000
-10390724.000000
15137139.000000
-16116698.000000
4713772.000000
93460656.000000
-3340773.000000
22347974.000000
35116152.000000
-19337634.000000
1364715.875000
36241232.000000
-17103532.000000
71619992.000000
7238967.000000
10009264.000000
101781056.000000
-13923040.000000
-1176863.000000
-4719217.000000
-47960232.000000
-32105602.000000
3275726.500000
133806576.000000
3998959.500000
52600144.000000
23645504.000000
-80893512.000000
11456211.000000
7345311.000000
5126740.000000
-24251622.000000
13066738.000000
14347580.000000
11839680.000000
-5410158.000000
-10949946.000000
1039337.250000
-21781392.000000
-32699492.000000
-14944884.000000
62927108.000000
-39027740.000000
6168569.500000
96182336.000000
-41995884.000000
-15927525.000000
32084522.000000
-48773712.000000
-38592584.000000
36405168.000000
-17636376.000000
6328219.500000
11431781.000000
-14235097.000000
39540592.000000
-33540950.000000
-23785036.000000
40114952.000000
-30181092.000000
42042936.000000
12065813.000000
-32141142.000000
-52701680.000000
39092468.000000
-38184860.000000
-45878748.000000
-20579334.000000
-24044434.000000
10550048.000000
-53372412.000000
-22938800.000000
-11259584.000000
13682364.000000
-11247678.000000
28946084.000000
6053443.000000
6938374.000000
1685685.500000
47719204.000000
-29728732.000000
45924596.000000
17399610.000000
26909528.000000
-30250966.000000
4847807.000000
-54379536.000000
-6981240.500000
20848640.000000
22559080.000000
35691328.000000
-45190648.000000
-33322336.000000
-13012070.000000
16008136.000000
-1858170.000000
-6503919.500000
34826904.000000
-33532498.000000
17742996.000000
23084816.000000
6193542.000000
19097932.000000
-5497483.000000
53745968.000000
2385415.000000
-63499856.000000
14632384.000000
33816792.000000
-2813711.000000
-11874877.000000
27332538.000000
678100.500000
17746574.000000
32191470.000000
5756144.000000
13929403.000000
-997340.000000
-19120128.000000
-15531536.000000
69132176.000000
40780284.000000
24236920.000000
20585668.000000
21716486.000000
-6755709.500000
11039464.000000
-41512936.000000
-7933414.000000
67233256.000000
9376432.000000
-3815214.000000
19226552.000000
-5731081.000000
-373081.000000
53838116.000000
42167348.000000
-4771574.000000
6209529.000000
14755122.000000
-27977034.000000
6538124.000000
24183588.000000
-3398279.250000
26005278.000000
-34683892.000000
51761036.000000
12699250.000000
-7265626.000000
20128698.000000
9040392.000000
16168169.000000
15916574.000000
-37195324.000000
-15161038.000000
6515159.000000
25153556.000000
-69738464.000000
-32953000.000000
-5951694.000000
27195752.000000
-20129216.000000
3865628.500000
17911640.000000
52816976.000000
6085431.500000
57832840.000000
-30183628.000000
-18278054.000000
11218163.000000
-7389589.500000
-45043360.000000
-6794216.500000
40996592.000000
-7950100.000000
-34425580.000000
-11175008.000000
-5098147.000000
41765088.000000
15529772.000000
-9137376.000000
-19454702.000000
-33065256.000000
10413840.000000
-39778760.000000
-27299384.000000
-31847760.000000
12445130.000000
43026624.000000
-48801192.000000
17787288.000000
54058200.000000
14498502.000000
-21083516.000000
11700750.000000
-22263064.000000
-13536509.000000
14366444.000000
11733655.000000
-17440886.000000
30658146.000000
6306662.500000
-11912004.000000
-6862944.500000
-32167828.000000
-1079850.875000
31970260.000000
15699162.000000
1699034.250000
18784378.000000
4159008.750000
-30895878.000000
3103300.000000
41093768.000000
-41502136.000000
-24830952.000000
18933448.000000
16240721.000000
36309228.000000
-40424416.000000
5053979.500000
12350404.000000
20423236.000000
-1819257.500000
16287986.000000
-4906631.500000
-24123006.000000
-19795508.000000
-374608.062500
-9208329.000000
5997934.500000
18216604.000000
-8530683.000000
30733144.000000
4684879.000000
9419240.000000
-8541523.000000
-11911860.000000
-23943160.000000
9232158.000000
-17390668.000000
11282376.000000
11642888.000000
2294036.750000
1986148.625000
15566374.000000
14045276.000000
3118823.500000
-4196626.000000
4297490.500000
10819934.000000
-3801821.250000
22200316.000000
-33997644.000000
6475275.500000
-15632388.000000
11638662.000000
23503558.000000
17453060.000000
-33090988.000000
28318468.000000
23105916.000000
-6924641.000000
-27839722.000000
-5332049.500000
20466238.000000
-23756328.000000
-40108108.000000
-22391000.000000
-19791152.000000
5094484.000000
-64325528.000000
-56091052.000000
-12560313.000000
-18416046.000000
13606223.000000
36913116.000000
-28027424.000000
41029088.000000
-30859576.000000
-31569400.000000
22984552.000000
2744794.000000
-57668536.000000
-10868491.000000
4791006.500000
34872068.000000
-39079776.000000
13725074.000000
55273608.000000
-22553072.000000
2382956.500000
-24871268.000000
-11499966.000000
74030912.000000
39910640.000000
-19591022.000000
-5798823.500000
4861758.000000
-16776922.000000
-14110640.000000
-7141494.500000
37493.000000
-2445630.250000
-26398522.000000
-4524070.000000
-36293616.000000
8900045.000000
-13242636.000000
41580908.000000
96622376.000000
-41923168.000000
32021180.000000
64448144.000000
948584.000000
33070008.000000
9699504.000000
-46198392.000000
73882000.000000
-30017338.000000
-48048416.000000
29891290.000000
-26400706.000000
-2843781.000000
23008328.000000
46350068.000000
11235705.000000
13752338.000000
-20072392.000000
-64348480.000000
-32377634.000000
52979080.000000
-22504274.000000
5889430.000000
3223645.000000
21855830.000000
12553578.000000
14156777.000000
-22517312.000000
25640076.000000
-43044688.000000
-63586832.000000
-58722696.000000
-4979774.500000
-12360989.000000
67688200.000000
1371391.000000
41614784.000000
22479408.000000
22280406.000000
-26349158.000000
-61761616.000000
4141187.500000
-8909848.000000
882376.500000
31447008.000000
7107513.500000
21619118.000000
9192132.000000
26829600.000000
-29545254.000000
-30363580.000000
9874329.000000
755050.125000
-8802558.000000
6565416.000000
22762896.000000
27666976.000000
29853260.000000
-7199633.500000
80398064.000000
-14202659.000000
36672388.000000
686906.125000
-15128756.000000
85353776.000000
39639540.000000
18823786.000000
-103493952.000000
27860296.000000
25522216.000000
8332402.000000
674334.750000
16749802.000000
-79326048.000000
-16786530.000000
43412184.000000
-44151824.000000
13063068.000000
24403700.000000
54711512.000000
-6597607.000000
-8968327.000000
-35272144.000000
-18311470.000000
34782528.000000
-2385386.000000
31019546.000000
-22137808.000000
3588494.000000
11181162.000000
-46522112.000000
9237265.000000
18525308.000000
32406120.000000
42088148.000000
5535063.500000
-31664456.000000
-32283102.000000
18368422.000000
3730130.000000
-14671159.000000
13177524.000000
48353784.000000
3755557.250000
-50737892.000000
-18256698.000000
44739176.000000
-11086565.000000
-41731644.000000
24745516.000000
27111440.000000
46374104.000000
-19859.750000
11299974.000000
-16518762.000000
-925779.875000
-16903800.000000
-33967388.000000
-11631942.000000
-5304664.500000
18203608.000000
-7233711.000000
13614770.000000
-44573676.000000
29288468.000000
-57097900.000000
9501300.000000
-1477011.250000
14778816.000000
-15638796.000000
-7629883.500000
11334864.000000
-8417088.000000
-29877832.000000
-2737671.000000
-93130896.000000
-39400384.000000
48594124.000000
60833404.000000
-44237568.000000
42474044.000000
-19138152.000000
1374678.000000
279428608.000000
1527095.500000
-60415360.000000
-42059228.000000
-76843072.000000
20453500.000000
157346544.000000
14776599.000000
-79727424.000000
9728470.000000
3941825.000000
-4624033.000000
-208679712.000000
-57479832.000000
-128927576.000000
12646947.000000
-4118450.000000
12522642.000000
47440304.000000
-81938904.000000
-7087729.500000
-71622848.000000
-92050040.000000
46132880.000000
-172810176.000000
-8651261.000000
-20192844.000000
11548797.000000
-81705496.000000
-44044392.000000
-157603552.000000
-12359424.000000
-17997188.000000
1025199.000000
-24828062.000000
-33298324.000000
-13583829.000000
30262302.000000
17476696.000000
1402200.250000
5390106.000000
-34787888.000000
-11472512.000000
-35667336.000000
6024165.000000
-156099104.000000
18635908.000000
-54228904.000000
-19751132.000000
-13351866.000000
-107530904.000000
-125966016.000000
-66298092.000000
5367612.000000
-15958072.000000
-18808196.000000
51089312.000000
-75138920.000000
-85146712.000000
-18340100.000000
-20109704.000000
14011129.000000
110542816.000000
-44288120.000000
-39681664.000000
126038016.000000
36773496.000000
7297688.500000
8562410.000000
-1137864.750000
29816972.000000
-30692448.000000
6474759.000000
25193772.000000
2752944.000000
42681084.000000
4965656.000000
-5065569.000000
8860382.000000
32060890.000000
81529200.000000
32732718.000000
67446456.000000
-8466393.000000
13899290.000000
12016640.000000
-355609.000000
-13564857.000000
20101316.000000
9133268.000000
-25247084.000000
-10267150.000000
-44255228.000000
70622688.000000
10112594.000000
75428584.000000
67572616.000000
35959056.000000
-55391208.000000
4824815.000000
46940632.000000
5527723.000000
44285128.000000
17501534.000000
11275466.000000
-19632392.000000
1950241.375000
-17745146.000000
28817598.000000
3349145.000000
22221112.000000
49322416.000000
21841068.000000
-33456666.000000
45854436.000000
22939210.000000
21100416.000000
110402096.000000
18936720.000000
-94327408.000000
-12653099.000000
45756840.000000
49127476.000000
76400440.000000
-36167160.000000
27850464.000000
-14722042.000000
-78353088.000000
43846464.000000
2181201.500000
-11970480.000000
3069239.500000
-12612863.000000
20329236.000000
-36296172.000000
38049880.000000
5096692.500000
-6962284.500000
7027402.000000
-4397235.000000
3734126.250000
-22394732.000000
-3510530.000000
-9726290.000000
-25894876.000000
-12838698.000000
27372774.000000
-39606008.000000
4926622.000000
-8271592.000000
5269241.000000
-18133756.000000
-2484671.250000
24842914.000000
-2958570.500000
-17330228.000000
21920658.000000
35970200.000000
-24048390.000000
6911985.000000
9434560.000000
-11025058.000000
-12696933.000000
10024005.000000
-8713690.000000
10667244.000000
7423605.000000
17286906.000000
2216814.000000
-11443306.000000
6861081.500000
-15403923.000000
13930272.000000
25832668.000000
30112654.000000
25087698.000000
-31638598.000000
16253012.000000
-8651390.000000
-8563132.000000
-2024629.625000
12370521.000000
20411392.000000
-8130233.500000
2379208.250000
-40514800.000000
3917461.000000
8880350.000000
35333216.000000
23067076.000000
24899232.000000
8469228.000000
-15586949.000000
6975780.500000
11944130.000000
7390941.500000
13588993.000000
-3840853.000000
-15657279.000000
-20548412.000000
-333547.250000
55852696.000000
5023548.000000
36473828.000000
29058588.000000
-11386304.000000
37439880.000000
-63957264.000000
6624615.000000
-36882192.000000
31731880.000000
35493528.000000
-40739680.000000
39506188.000000
59558636.000000
17164112.000000
-8876002.000000
39346616.000000
-31706376.000000
51164440.000000
-15687034.000000
-28876152.000000
7696733.500000
-76361200.000000
-71800864.000000
41075036.000000
-3512093.000000
-12005976.000000
-5800516.500000
-32069940.000000
35017712.000000
719950.000000
8014720.500000
43456008.000000
-42772584.000000
50133416.000000
17056408.000000
31356900.000000
28137888.000000
-45142680.000000
16358818.000000
-1096381.250000
-15028628.000000
5167020.500000
-36465640.000000
31370010.000000
4298612.500000
-10791518.000000
11078371.000000
177197.625000
-16304286.000000
-18857308.000000
-31565772.000000
32863630.000000
51451948.000000
55267688.000000
-25812398.000000
39386400.000000
-1677686.500000
80827456.000000
39072144.000000
-5839785.500000
3032711.750000
25072592.000000
15343382.000000
40802096.000000
-27213246.000000
7821790.500000
-20874712.000000
-9384862.000000
8815578.000000
689221.375000
3080863.000000
-26632156.000000
1219377.500000
-16983442.000000
-37836824.000000
30248878.000000
-74359384.000000
-26728548.000000
-41063080.000000
596421.375000
31027564.000000
-4848270.500000
-77668040.000000
-50508332.000000
-24526880.000000
-35875980.000000
48578464.000000
1584476.250000
79376040.000000
43227080.000000
-4879450.000000
25714744.000000
3813625.250000
23222908.000000
7818971.500000
-54484160.000000
-64354536.000000
-2716402.500000
-2134884.000000
-18972622.000000
-28113724.000000
-13321714.000000
27092984.000000
-58719636.000000
-25894132.000000
-33337672.000000
3259251.000000
475955.500000
15870158.000000
-10023325.000000
-34036832.000000
-4741637.500000
28723028.000000
-34732764.000000
-17580046.000000
61941048.000000
11512759.000000
31506024.000000
7701016.000000
-21735712.000000
-78427496.000000
9221957.000000
2186209.750000
20838636.000000
13860804.000000
-7748574.000000
-7137415.000000
39440436.000000
-39907360.000000
17147774.000000
1891286.250000
10163575.000000
-205797.500000
-23070960.000000
12518285.000000
-5468958.000000
-34824152.000000
-24836726.000000
-9450632.000000
44677904.000000
22123656.000000
8380636.000000
1152153.750000
33869844.000000
-5350285.000000
33767852.000000
-9282839.000000
-17378900.000000
-37284128.000000
16111414.000000
32811776.000000
-32179040.000000
-25072508.000000
-13722862.000000
-2893971.500000
-15750672.000000
2603792.250000
-14355730.000000
-257138.750000
-26397250.000000
11323459.000000
-16338873.000000
-11333934.000000
17591852.000000
10609.000000
-9965457.000000
-36190816.000000
23288792.000000
11036210.000000
32534.937500
-3214323.000000
-11917064.000000
-10899062.000000
4695370.000000
-15450230.000000
-7993710.000000
6627527.500000
15034138.000000
32836708.000000
-17770538.000000
-46539288.000000
12873820.000000
-11749373.000000
-23898008.000000
-11666054.000000
19873364.000000
-10089854.000000
11880365.000000
20842128.000000
16516576.000000
24386732.000000
-1331356.375000
117170240.000000
-33355976.000000
18688516.000000
24875646.000000
-49159324.000000
-16157068.000000
405463.500000
30953948.000000
43293932.000000
-80710208.000000
-115601176.000000
4763872.000000
-43979296.000000
-40761684.000000
-40325032.000000
-28803620.000000
7371467.000000
-74569000.000000
32551566.000000
35522916.000000
-54797876.000000
-38498280.000000
19095244.000000
20465716.000000
54397700.000000
30509944.000000
119707208.000000
-28235696.000000
14214918.000000
-9048846.000000
12899062.000000
-15602378.000000
11891798.000000
33915540.000000
-11394360.000000
-14076978.000000
-1064262.125000
-2294923.500000
-20628850.000000
-53491096.000000
44135984.000000
-50279836.000000
-14918349.000000
37264684.000000
-8541286.000000
-19870376.000000
-49679256.000000
-20782132.000000
69042288.000000
20412410.000000
-855118.812500
7939652.500000
5925956.000000
-29286088.000000
-16562512.000000
4494342.000000
59579084.000000
729275.000000
4316215.500000
21899168.000000
5303155.000000
23219028.000000
25104716.000000
-21175826.000000
-8825869.000000
23376758.000000
36347328.000000
74880192.000000
65121656.000000
-19304934.000000
26048412.000000
-14229721.000000
-576137.000000
-70852144.000000
-21139132.000000
-50981496.000000
71576936.000000
-10426290.000000
-86837984.000000
6976955.500000
-40427136.000000
249699.000000
27326588.000000
721105.000000
-21140276.000000
-57858756.000000
55567896.000000
-67775968.000000
-28027884.000000
77830608.000000
3368290.000000
31732604.000000
1582038.000000
4196215.000000
16440729.000000
-5306964.500000
-60876600.000000
17012040.000000
23347170.000000
30091050.000000
782980.500000
-6546054.000000
-13387986.000000
6731423.000000
39852324.000000
-19719922.000000
-3527039.000000
64732740.000000
39114236.000000
-1012714.500000
27978416.000000
12272940.000000
-36856024.000000
-11366867.000000
8480318.000000
-20693422.000000
-2342435.000000
-23149944.000000
13485931.000000
-9878072.000000
-49728736.000000
57821076.000000
20975350.000000
38547260.000000
-27219944.000000
-50206832.000000
55715632.000000
-7988076.000000
47252520.000000
-4665096.500000
36790548.000000
41733720.000000
-194117088.000000
20895808.000000
-6018431.000000
9195029.000000
1902409.625000
-2933550.500000
44777748.000000
-138024800.000000
30897288.000000
-14763475.000000
147040.375000
-15011091.000000
-33660508.000000
51188484.000000
-16409459.000000
45043296.000000
-78248048.000000
-46459540.000000
-49133128.000000
-7436326.000000
9131218.000000
-26056632.000000
15233800.000000
-27674740.000000
-5231863.000000
-18816308.000000
-31728534.000000
-8828693.000000
16068585.000000
10569733.000000
-10073652.000000
5107616.000000
-2042915.250000
39123520.000000
19401058.000000
26735000.000000
-39424368.000000
11452310.000000
-50569248.000000
-61286264.000000
-4147681.750000
2108727.250000
12070864.000000
56947936.000000
32905056.000000
-35019064.000000
53142964.000000
-10671610.000000
-117567080.000000
-16474435.000000
12495299.000000
10080060.000000
-5780193.500000
-11985550.000000
78879216.000000
52098760.000000
67295040.000000
33120648.000000
2255561.250000
30910584.000000
3551517.000000
44523268.000000
10045563.000000
-72424984.000000
-61433920.000000
27490104.000000
-60840476.000000
-56106104.000000
23671910.000000
13526760.000000
-14258740.000000
-138985552.000000
-195811552.000000
-44962936.000000
50929168.000000
6375546.000000
-152234992.000000
-2369311.000000
15351410.000000
-20402900.000000
29117512.000000
-75243224.000000
-119645736.000000
-72172192.000000
18190784.000000
-34640568.000000
-4387138.000000
54949168.000000
-21826204.000000
-22406984.000000
-3751630.500000
44314120.000000
-49340092.000000
-44160520.000000
-109960048.000000
-26139164.000000
34465500.000000
3830489.000000
-26559380.000000
7522861.000000
1795162.250000
44395176.000000
-31733548.000000
58364040.000000
-190503248.000000
49852528.000000
83512752.000000
33424304.000000
-31511726.000000
-32613566.000000
-17698784.000000
-95646696.000000
6254584.000000
-55863736.000000
7687194.000000
17180970.000000
12360951.000000
-122102624.000000
-72896232.000000
98454184.000000
-56580500.000000
146050432.000000
-6669547.000000
50031264.000000
147108864.000000
95343152.000000
7442738.500000
11614213.000000
-80919592.000000
52167752.000000
22439302.000000
83284984.000000
-75114072.000000
-30446408.000000
62234296.000000
16166062.000000
-127012776.000000
-8061007.500000
-42080296.000000
25813276.000000
-22828608.000000
-51586400.000000
29462692.000000
-59278648.000000
-19416526.000000
-36912544.000000
-89888480.000000
25070392.000000
-143561600.000000
-56435840.000000
-45960024.000000
30294050.000000
17877176.000000
-6298599.000000
-8124964.000000
52140824.000000
26439120.000000
18407128.000000
2987041.500000
-49876952.000000
18942258.000000
45028080.000000
-2093646.500000
10589834.000000
11376812.000000
-32423510.000000
-39186696.000000
-102828496.000000
-8335566.500000
-131297576.000000
46601704.000000
-40750412.000000
-39914544.000000
-127011384.000000
-101293488.000000
-58957888.000000
-39196396.000000
-15227365.000000
43090968.000000
88619304.000000
47449416.000000
-51101016.000000
-25128210.000000
2943642.000000
3177097.000000
-133925488.000000
92248304.000000
22047716.000000
-13949030.000000
-32760866.000000
-13390658.000000
-12022393.000000
-22728902.000000
-6423167.000000
-1311094.625000
-60061556.000000
15958148.000000
-46896580.000000
-28477684.000000
-16487203.000000
-4312304.500000
288480.250000
-35274832.000000
-12266324.000000
-1533147.625000
-11988216.000000
62992760.000000
-3998208.250000
55271456.000000
-5270065.500000
-28464590.000000
-5782334.500000
-36899888.000000
-5827342.000000
5508032.500000
-67933344.000000
571108.062500
6149750.500000
14461376.000000
7184634.500000
-11600890.000000
-16464716.000000
-14274910.000000
24421468.000000
24721764.000000
30661916.000000
-5751061.000000
7387764.000000
39611556.000000
34323360.000000
9332788.000000
-43180540.000000
-55122552.000000
20606896.000000
-5019083.500000
-38820340.000000
23358684.000000
-4689963.500000
-9765074.000000
-18639072.000000
9739520.000000
16841936.000000
33497836.000000
-48333712.000000
-6403978.000000
-5963524.000000
-10601605.000000
-21027588.000000
-37746524.000000
43232352.000000
-15312535.000000
22272948.000000
6465746.000000
-42387464.000000
59939536.000000
-5527321.000000
2866688.000000
5947820.000000
41593808.000000
17260832.000000
-12981550.000000
17085882.000000
35966932.000000
-19107952.000000
33009876.000000
-5081203.500000
10756183.000000
-13489928.000000
9677380.000000
-50844548.000000
-27662108.000000
-1908361.500000
-11413014.000000
19608112.000000
-18780132.000000
876453.000000
29460638.000000
-40736852.000000
-20785938.000000
-11765424.000000
61325880.000000
-28262196.000000
-22167158.000000
-243671.000000
66323048.000000
-1173723.000000
-8313916.000000
-21745026.000000
-19851280.000000
15980972.000000
-1321752.750000
-35632800.000000
-8375303.000000
-28272694.000000
-15306226.000000
5703357.000000
10377869.000000
-3697614.250000
-13873532.000000
74917288.000000
19914888.000000
-6748447.000000
-2657248.250000
6880957.500000
2595883.000000
55344316.000000
15893712.000000
-20446530.000000
-102496776.000000
-27074940.000000
24906488.000000
29950348.000000
-11048240.000000
88331984.000000
-43801976.000000
-7029342.000000
27885778.000000
-22177814.000000
11048290.000000
202959744.000000
-8870408.000000
12883898.000000
50221680.000000
1892757.625000
-13704609.000000
-37289312.000000
-15189240.000000
-30731434.000000
-10723623.000000
9647171.000000
5146036.000000
-97282632.000000
33674164.000000
-77646416.000000
7800921.000000
-24816698.000000
-97447640.000000
-12759422.000000
-135057648.000000
-14306522.000000
-18885008.000000
13292238.000000
-12050328.000000
-162143072.000000
45186428.000000
26510068.000000
-17752418.000000
37917960.000000
-23233124.000000
-33437770.000000
43559664.000000
6673150.000000
12853165.000000
1953200.750000
100759168.000000
-9653628.000000
66337136.000000
8088798.500000
20542762.000000
6028337.500000
42550948.000000
-2155126.000000
-103661216.000000
16282454.000000
-160742048.000000
41547028.000000
32199824.000000
5878812.000000
-75167064.000000
-35212412.000000
-40866428.000000
24675200.000000
26458846.000000
-30476854.000000
-2076837.000000
-13942420.000000
43900576.000000
-82302440.000000
-171207792.000000
-40134492.000000
-90570968.000000
26495420.000000
18905072.000000
83943120.000000
60807192.000000
21182092.000000
19073746.000000
11792526.000000
-31654698.000000
-3207090.500000
-64554336.000000
-12775912.000000
6440981.500000
-12823196.000000
34289232.000000
399434.562500
-34219564.000000
-11480779.000000
-1718970.000000
12320816.000000
-17030648.000000
-47526188.000000
-54652656.000000
21680164.000000
36937688.000000
-45683196.000000
27259716.000000
-16035772.000000
-978134.500000
11663839.000000
11753256.000000
-9058320.000000
-31767692.000000
-3617496.750000
5329013.000000
-15129265.000000
-40916032.000000
23251116.000000
-13936249.000000
62408536.000000
2903023.500000
43819120.000000
10665296.000000
-10222968.000000
-10140846.000000
13902891.000000
5266464.000000
-12609386.000000
-65945368.000000
18106148.000000
-30289580.000000
53413172.000000
5969722.000000
27984408.000000
-21950814.000000
-2731021.750000
-25720728.000000
18873588.000000
-9930704.000000
-5452253.000000
73262216.000000
391977.437500
13165087.000000
38464656.000000
-15718309.000000
31154196.000000
-42027148.000000
15206731.000000
-13988031.000000
-23139812.000000
2953806.500000
24331080.000000
-44346944.000000
7749101.000000
-42225700.000000
-33438112.000000
76577040.000000
24485164.000000
19244874.000000
27291092.000000
8621336.000000
-75253160.000000
54379580.000000
1950351.000000
16057418.000000
2114256.250000
39347532.000000
-9125958.000000
28299168.000000
2704815.500000
5241354.500000
-39926480.000000
75227072.000000
-2653307.500000
22435512.000000
-50236896.000000
32109996.000000
-13899882.000000
54574684.000000
44640728.000000
-5369887.000000
15801219.000000
24581844.000000
-14673220.000000
43824944.000000
-7355185.000000
-38144088.000000
27011532.000000
-24387032.000000
-28853568.000000
29788992.000000
-18039600.000000
-17593302.000000
15415558.000000
52938236.000000
-55968236.000000
27477322.000000
-10460884.000000
-25138884.000000
-24657478.000000
59903252.000000
-51679572.000000
150022.625000
-17512144.000000
-67954408.000000
28134206.000000
12700032.000000
-93532624.000000
-67936992.000000
1333817.000000
-33824916.000000
46277988.000000
-34631992.000000
770061.812500
58968896.000000
-38345600.000000
7306957.500000
37563176.000000
21620608.000000
-28039268.000000
17958494.000000
-11257370.000000
-7127881.000000
41599512.000000
26957824.000000
-768040.437500
17992152.000000
20898604.000000
-67535152.000000
41082324.000000
-15405064.000000
20498392.000000
-2729822.500000
-23708474.000000
2956630.500000
-947824.875000
10060409.000000
7446218.500000
22888604.000000
-58601932.000000
12749643.000000
-23490736.000000
336822.000000
-32085028.000000
-11278246.000000
-13484172.000000
-31216072.000000
19716704.000000
14073213.000000
-53803868.000000
22277048.000000
-35649012.000000
-30595160.000000
-12858959.000000
7454545.000000
24386670.000000
-15221496.000000
21015848.000000
-8657965.000000
16118052.000000
17578104.000000
17039732.000000
-16625518.000000
-3699781.000000
6342196.000000
-7255846.000000
-49549448.000000
-5580131.000000
-23516072.000000
16453892.000000
-15990963.000000
9826116.000000
4025225.000000
43572556.000000
68685664.000000
-23387992.000000
-1987885.000000
4880686.000000
2778680.750000
4801447.500000
23640688.000000
15216436.000000
2898974.500000
5752742.000000
-12171898.000000
-3108463.500000
17755804.000000
-3025518.500000
-11837312.000000
-5426740.000000
-6959631.500000
-31180816.000000
-13322720.000000
14938529.000000
332821.156250
8682240.000000
-12995890.000000
13937366.000000
-10875330.000000
-512052.500000
894412.250000
13358153.000000
27072688.000000
-5284477.500000
-3130413.500000
-9930899.000000
1374045.375000
-5958912.000000
-3942960.000000
-4291005.000000
-7856133.500000
-4766949.000000
-14821115.000000
-2310551.500000
-2573393.500000
-11136779.000000
5079343.500000
5995513.000000
4721791.500000
7987093.000000
6355276.000000
-15337613.000000
14017676.000000
1470427.000000
28168866.000000
-8077742.000000
-8103761.500000
3177170.750000
12407714.000000
1045338.000000
10303075.000000
27439024.000000
-512963.000000
1354548.000000
6694963.000000
-3560323.500000
13888624.000000
11079851.000000
10446986.000000
-471803.437500
20259246.000000
16764358.000000
33363340.000000
1048090.500000
157435632.000000
-25207324.000000
-41239360.000000
6755838.000000
21093776.000000
30250272.000000
33182900.000000
-10452948.000000
-10095192.000000
32705348.000000
14441468.000000
-12664664.000000
-293178048.000000
20918064.000000
-110092120.000000
-27847262.000000
-12074155.000000
-95267968.000000
-47443308.000000
-99216736.000000
-34448020.000000
-62754600.000000
25023320.000000
6062297.000000
-118707576.000000
-54515864.000000
48094880.000000
1411652.000000
-104088528.000000
-84540848.000000
15988651.000000
-36501976.000000
38262096.000000
2838212.000000
-9901567.000000
18140480.000000
-58102024.000000
-24081172.000000
9371304.000000
-51657100.000000
-10846519.000000
7321035.000000
-30946338.000000
-63444584.000000
-922006.000000
-89053680.000000
-61398160.000000
-71621008.000000
-18799336.000000
-130525888.000000
-215052752.000000
-110883232.000000
-88040640.000000
337233.187500
-191173664.000000
-119746880.000000
-2629799.500000
20450356.000000
13583170.000000
23535732.000000
-112733144.000000
-26903308.000000
-76634680.000000
-61560692.000000
-59893824.000000
7254244.000000
-16357593.000000
1484909.875000
21656448.000000
10747474.000000
-2698037.000000
3063375.750000
-774131.750000
5752906.000000
1050380.500000
-13305407.000000
-24061504.000000
7850041.000000
-8948418.000000
18360308.000000
9972154.000000
8668696.000000
-3581457.250000
33027620.000000
29326368.000000
-2081713.250000
18521796.000000
-8714502.000000
8144610.000000
3355166.000000
-10338472.000000
-13955152.000000
-14806760.000000
-4289448.500000
9054224.000000
-16885974.000000
11080654.000000
17466196.000000
-2074006.500000
-2340054.750000
13727192.000000
6710440.000000
-5778316.000000
-10721415.000000
2992271.250000
-22385984.000000
1631553.875000
-8782290.000000
-5258596.500000
-15171476.000000
7760153.000000
47550848.000000
6918864.500000
7197081.500000
-17820938.000000
927475.937500
-458219.937500
-11707374.000000
-13284602.000000
-22034374.000000
-8395408.000000
-9868812.000000
-13599215.000000
12931492.000000
-8072899.000000
10764657.000000
-17379132.000000
-10952676.000000
632647.750000
-3757948.250000
91613600.000000
-4988166.000000
-5846086.000000
-57066280.000000
7267156.000000
-28463672.000000
-40441936.000000
21135220.000000
7290108.000000
-8908682.000000
-21535466.000000
-9992952.000000
12081733.000000
2763492.000000
-5520864.500000
34963376.000000
3709329.500000
1414532.000000
-39966668.000000
-14745060.000000
974909.500000
-17701356.000000
49603980.000000
-47660848.000000
-27382460.000000
-5936528.000000
41558496.000000
-31628526.000000
-34383920.000000
17911848.000000
34967224.000000
54566096.000000
-4072831.500000
7276115.000000
-39323264.000000
8033383.000000
26224652.000000
-19640912.000000
28297014.000000
7737005.000000
2687975.500000
4312802.000000
-6239026.000000
-30128356.000000
67407832.000000
-34457072.000000
25576052.000000
5104693.500000
-24746984.000000
-36902672.000000
-15117636.000000
10672879.000000
-20907014.000000
3542556.000000
17625152.000000
23424732.000000
-19555772.000000
-13492702.000000
46974188.000000
105810976.000000
57664328.000000
-51334984.000000
-37345384.000000
-1283526.625000
-28473232.000000
46568932.000000
31078184.000000
-20535228.000000
-2159318.000000
-36635172.000000
-33538550.000000
-10066582.000000
60479536.000000
11789355.000000
-65863608.000000
-47727196.000000
-26233140.000000
-29032786.000000
51846788.000000
12643708.000000
-24025336.000000
-8505469.000000
-20534784.000000
21926312.000000
8615794.000000
-34448724.000000
-29477168.000000
-32923218.000000
-20663962.000000
12081354.000000
-4418530.500000
-13812166.000000
-3190084.500000
-56578664.000000
-74888856.000000
15990029.000000
-10588894.000000
8874286.000000
-12879904.000000
-8804007.000000
-43207072.000000
-26368814.000000
34686248.000000
-14990228.000000
-18830072.000000
-21396564.000000
-23059652.000000
4007345.500000
5364571.000000
28512928.000000
-37626836.000000
32613568.000000
6292468.500000
-18641080.000000
-26019756.000000
-19252626.000000
15866108.000000
-4720532.500000
16412950.000000
27158266.000000
-7744887.500000
-13707613.000000
17635948.000000
-6501019.500000
929361.500000
1477001.125000
-77464.000000
54764848.000000
-5642663.000000
-33130248.000000
19849042.000000
6595264.500000
-15673574.000000
-10906887.000000
-30637328.000000
15308849.000000
-15783428.000000
8371328.500000
28875112.000000
24457544.000000
7828311.000000
-24535656.000000
-626287.000000
7142243.000000
15276741.000000
547499.000000
3562456.500000
13639943.000000
25764844.000000
8339550.500000
27296248.000000
28535572.000000
11109838.000000
-38636740.000000
-18465348.000000
18055164.000000
-34886352.000000
-11072014.000000
22095630.000000
-18255622.000000
-18362624.000000
29732912.000000
35093900.000000
20464584.000000
-10817836.000000
14383567.000000
-16350970.000000
18259002.000000
30122668.000000
-56344200.000000
21413774.000000
-40458384.000000
-8315319.500000
2646115.500000
31103412.000000
1596612.000000
11710363.000000
2094199.000000
-12728573.000000
18596480.000000
5484872.500000
16009532.000000
6212992.000000
-12533560.000000
15172692.000000
17140564.000000
-510874.687500
-7533122.000000
22033996.000000
26806208.000000
-5893676.000000
18680910.000000
-43936880.000000
9167998.000000
-54015564.000000
36407720.000000
10115612.000000
61152388.000000
25626244.000000
-60900492.000000
-54252824.000000
6178935.500000
-10955625.000000
8113780.500000
27329812.000000
56026320.000000
19815394.000000
15381768.000000
-54405868.000000
4595384.000000
6922569.500000
22350398.000000
-14276990.000000
30135524.000000
3092032.000000
-10426297.000000
42525720.000000
-23181556.000000
-60197956.000000
-36010348.000000
17525228.000000
40840488.000000
13550944.000000
25944796.000000
-4592552.000000
-60930808.000000
44433140.000000
12598876.000000
7294345.000000
8736746.000000
-27300590.000000
4102208.500000
-23463110.000000
35530524.000000
34204816.000000
30562886.000000
1057617.000000
49228632.000000
-13084739.000000
37737248.000000
-6351355.000000
-35867244.000000
-42078064.000000
4749536.000000
-17395526.000000
5098076.000000
-49124692.000000
-62272344.000000
7107659.500000
63934712.000000
-41138552.000000
-18125630.000000
-22865880.000000
50532124.000000
-32248538.000000
50936352.000000
-7322695.000000
-4892529.000000
35334524.000000
-2314609.250000
10603898.000000
-8061978.000000
-12463043.000000
-7789493.000000
-6037839.000000
-9728283.000000
-34610848.000000
-60776080.000000
4883494.000000
-23153832.000000
36828656.000000
-8620345.000000
19016838.000000
-3564050.500000
6652618.500000
-21750986.000000
11906457.000000
15416094.000000
-17938224.000000
726574.625000
-999509.500000
-26961902.000000
1280396.250000
-11387794.000000
-33509288.000000
-692304.062500
-48046000.000000
-58516792.000000
15531595.000000
9367620.000000
30833620.000000
-62513000.000000
5191396.500000
-20140046.000000
6525882.000000
56794744.000000
37672156.000000
-20363660.000000
6173599.000000
36308472.000000
-18217900.000000
-8728522.000000
633994.500000
10899073.000000
25042638.000000
16091104.000000
36824848.000000
7377259.500000
-12992044.000000
12120866.000000
28648818.000000
22845550.000000
-40149936.000000
-8799160.000000
49468212.000000
-22283150.000000
18864080.000000
44982472.000000
-14478142.000000
-49562048.000000
1326023.000000
-4204649.000000
-21503592.000000
-68483520.000000
32917816.000000
4414319.500000
19568760.000000
-12142418.000000
-20784024.000000
17870164.000000
-54140328.000000
-4144302.750000
28030338.000000
1626892.875000
-4416637.500000
-4717964.000000
-1637107.000000
27228958.000000
-12769462.000000
39624316.000000
-5194865.000000
-5585411.500000
-12649324.000000
548735.000000
-20513318.000000
-1866620.250000
8595734.000000
-36373068.000000
17885186.000000
-73326152.000000
-28437020.000000
8151340.000000
56206152.000000
25412356.000000
47972088.000000
-3448488.000000
6967145.000000
6687900.500000
23777284.000000
-1764986.250000
36525952.000000
42317064.000000
7665675.000000
14856386.000000
-25667572.000000
-51335808.000000
4240419.500000
-3830306.500000
-55212376.000000
13393575.000000
-27102400.000000
10971743.000000
-7986811.000000
-47817428.000000
-13368253.000000
-24931864.000000
-2610056.500000
940998.500000
-13662488.000000
-41345976.000000
11255583.000000
39321164.000000
22420960.000000
21549404.000000
-36844516.000000
-21158984.000000
13626831.000000
-62703944.000000
27934432.000000
36640460.000000
92101912.000000
6167387.500000
6407898.000000
-14351137.000000
-9046936.000000
-48688888.000000
-88581024.000000
25573300.000000
-3799730.500000
14653429.000000
-28589676.000000
-18786784.000000
113084592.000000
14057097.000000
32055582.000000
-41592364.000000
-16207194.000000
26734900.000000
-2131872.000000
-101663792.000000
16415237.000000
7585911.000000
57264.500000
1541963.625000
-48547760.000000
1341098.250000
69315528.000000
-57696248.000000
-12072955.000000
17686480.000000
-23818618.000000
-559680.625000
-79090.500000
-23253598.000000
11331842.000000
63567492.000000
-29438578.000000
-21102926.000000
-29276792.000000
133146.812500
9284583.000000
1975063.750000
-8880262.000000
57080704.000000
8065641.000000
12526565.000000
24749052.000000
-26101074.000000
-19878440.000000
26645506.000000
18205886.000000
24765112.000000
-52382924.000000
18121840.000000
-47757952.000000
-40328188.000000
-17627112.000000
-20677144.000000
-33373836.000000
-75565640.000000
-15259698.000000
-1618466.000000
-80488480.000000
-19875402.000000
1898959.000000
17211788.000000
-23748626.000000
13727170.000000
13765546.000000
8111231.500000
-773857.250000
-39878916.000000
-4587650.000000
36830808.000000
15725712.000000
45592204.000000
763638.500000
-112344624.000000
-5526713.000000
-976628.125000
-7886005.000000
5039038.000000
51588864.000000
17395572.000000
-23285812.000000
-9800936.000000
-20986504.000000
-12466742.000000
37364524.000000
-2376863.000000
-49509840.000000
657228.375000
-7549149.000000
-32090918.000000
-30170948.000000
10541656.000000
-1274728.000000
21527650.000000
19451640.000000
23008996.000000
-2988681.750000
-2015374.000000
-811319.000000
-5546023.500000
27189736.000000
-24348288.000000
7801674.000000
-58044704.000000
-18781348.000000
-11184130.000000
-9885387.000000
-12141163.000000
-8472052.000000
-750755.500000
-28951370.000000
16913032.000000
17175114.000000
-30787448.000000
-35814536.000000
-12387684.000000
15412407.000000
-21279392.000000
178420.250000
-13159611.000000
21791252.000000
3310094.000000
-38506716.000000
38232324.000000
-1616097.250000
32637506.000000
35028532.000000
11947112.000000
3201862.750000
-17967534.000000
18924788.000000
19246240.000000
8481770.000000
23950166.000000
-20842308.000000
-26100536.000000
18746612.000000
-6943754.000000
-31672156.000000
-30544456.000000
-6287614.000000
-17465852.000000
3062048.000000
27774566.000000
7561222.500000
-47227428.000000
2558987.500000
28145888.000000
-2217084.750000
16982260.000000
-7477341.000000
-36043492.000000
55299728.000000
9943455.000000
13547702.000000
-34737088.000000
-19600580.000000
12705934.000000
26283894.000000
33466958.000000
-20367992.000000
27558474.000000
-7084329.500000
-1778908.500000
-4972074.500000
10712598.000000
-16748915.000000
-17906004.000000
-5590671.000000
67132696.000000
-10689252.000000
60273504.000000
3585830.000000
-12394254.000000
35928592.000000
3237308.250000
-681658.562500
16278152.000000
-17989800.000000
-33564232.000000
32539158.000000
-10813471.000000
-13693889.000000
-21874170.000000
5197074.000000
12046204.000000
199657.156250
-29697614.000000
-3313160.250000
3053860.250000
19019502.000000
45583880.000000
423569.875000
-760329.125000
9837669.000000
-17310960.000000
8303489.000000
-29866148.000000
3009234.750000
26709900.000000
-13825264.000000
-5756972.000000
-25848820.000000
-27814106.000000
1689014.500000
-20921230.000000
7078358.000000
4118862.750000
-3297064.500000
-595767.375000
18442568.000000
14218696.000000
11460850.000000
-31443018.000000
10337917.000000
6079781.500000
10046644.000000
-30288050.000000
9454720.000000
10433686.000000
-21602190.000000
10649081.000000
8754979.000000
-33733256.000000
11904548.000000
-23643120.000000
28199998.000000
-15821028.000000
36356080.000000
-24157434.000000
36530832.000000
40646112.000000
3065328.750000
13084010.000000
-28104002.000000
3823837.000000
7771411.500000
-15018521.000000
-4640854.000000
19689468.000000
-3930269.750000
7965604.000000
20706036.000000
413175.500000
33545712.000000
10886026.000000
-7490862.000000
-32164372.000000
-57101.375000
-9345410.000000
9086674.000000
19846412.000000
-2404227.000000
-19628506.000000
-3066287.500000
-9002928.000000
18736186.000000
26010734.000000
-19139076.000000
-34520456.000000
8164781.000000
31429222.000000
-44816100.000000
-3756486.250000
19253980.000000
4458163.500000
30517744.000000
-3187742.250000
-16775462.000000
-42782320.000000
-20835040.000000
-44162792.000000
33588848.000000
-57933268.000000
46770360.000000
-14765912.000000
18545036.000000
26531126.000000
-16917512.000000
35795012.000000
-12438072.000000
3319699.750000
3205918.500000
-19779526.000000
-7434361.000000
6697312.000000
58604840.000000
-15388798.000000
13815676.000000
-7422067.000000
-3658329.750000
37429420.000000
-19952924.000000
-77318872.000000
3586062.000000
-38018840.000000
-2876570.000000
17619942.000000
-20037560.000000
31819044.000000
46492648.000000
1042340.500000
-5079204.500000
-43888632.000000
10566286.000000
-935239.000000
23272948.000000
27731496.000000
62951772.000000
5455843.000000
-29229546.000000
-10560350.000000
2196805.750000
-7771898.000000
311261.500000
-44618608.000000
-59848736.000000
27905038.000000
-84992240.000000
4806767.500000
27149264.000000
147924704.000000
-41925876.000000
-1800632.000000
-28964852.000000
14162810.000000
-21019072.000000
-54162024.000000
-40847464.000000
7813358.000000
1344481.000000
1789854.000000
277298.250000
2607104.000000
19592432.000000
35110192.000000
-50636156.000000
34324932.000000
67026712.000000
-7766038.500000
44080136.000000
44368360.000000
-25626698.000000
-17356514.000000
-61815724.000000
-40011616.000000
-32428412.000000
78132952.000000
-13237608.000000
-68035136.000000
-27092172.000000
53807768.000000
-38267444.000000
6584230.500000
13485112.000000
-6589258.000000
11800022.000000
-7286836.000000
62228088.000000
4616916.500000
18734450.000000
20677714.000000
-1172163.000000
-12249278.000000
68139992.000000
60236852.000000
12658640.000000
50772736.000000
18338938.000000
6928717.500000
-5496881.000000
28684770.000000
124756176.000000
49013004.000000
-41588336.000000
35779960.000000
-33511408.000000
-40655536.000000
41753928.000000
-15094988.000000
18542212.000000
17564978.000000
-22464128.000000
69611064.000000
16250638.000000
25472372.000000
-771650.250000
-11500398.000000
-2453795.000000
-4356918.500000
11009152.000000
-8003941.000000
-5050757.000000
29917572.000000
18059448.000000
14695372.000000
-30723336.000000
-8621299.000000
-19453914.000000
44748.656250
26020696.000000
-8615600.000000
10458222.000000
-4174456.250000
-2834459.750000
1469645.500000
-42759044.000000
-1408392.750000
-9037449.000000
-17520924.000000
-12554082.000000
548319.375000
-11358398.000000
-10829506.000000
12097347.000000
11066369.000000
8443164.000000
-3965509.500000
1394304.375000
6271066.000000
-20985212.000000
-8679070.000000
41448816.000000
-1132065.250000
8927828.000000
-967792.875000
3006359.750000
-15918978.000000
16878772.000000
22753782.000000
-7183164.000000
17448332.000000
26716444.000000
-10223210.000000
-3738921.000000
-21232820.000000
-10914847.000000
36938056.000000
-2099092.250000
1804968.500000
-4544880.000000
33240052.000000
-3745814.000000
12726115.000000
15905179.000000
7661149.000000
-3900741.000000
-17400164.000000
-11651231.000000
21260516.000000
-154134.500000
6166650.000000
61089.750000
1188741.500000
3417077.000000
8701372.000000
1707651.500000
32486084.000000
-12306609.000000
13632405.000000
-4224162.500000
-12141997.000000
-13353324.000000
10909546.000000
-16077175.000000
21613338.000000
-11083812.000000
28539628.000000
12506234.000000
-5845629.000000
-30354350.000000
-25105724.000000
13967436.000000
3268541.000000
144711.812500
-14682790.000000
-38338948.000000
-15747927.000000
-6042198.000000
33340492.000000
-6030239.000000
-56709908.000000
-1781378.750000
-7316640.000000
-34430520.000000
-29584832.000000
3012524.500000
-24390236.000000
40601696.000000
-3813032.250000
8380228.000000
-28927384.000000
476084.750000
-11565400.000000
11283142.000000
1704922.500000
-7670696.000000
21705862.000000
11385912.000000
-16851972.000000
-618607.500000
-8293625.500000
11947655.000000
9875520.000000
10299795.000000
-48618684.000000
27337666.000000
-17160712.000000
23047432.000000
-8583007.000000
10865206.000000
-6555993.500000
-24140692.000000
-29997080.000000
-34095488.000000
-25000690.000000
13897578.000000
24048226.000000
-4218220.000000
421980.250000
52845448.000000
-8764970.000000
-14255404.000000
15206244.000000
31110470.000000
14649388.000000
-10040586.000000
-2128518.750000
-30429322.000000
-32437536.000000
11711123.000000
20100040.000000
-7316851.000000
7775758.000000
-23798544.000000
-36460196.000000
35696976.000000
-26697080.000000
28843572.000000
-24702636.000000
-20458006.000000
-18796112.000000
37485312.000000
60274548.000000
-11053080.000000
37119172.000000
-40484284.000000
18967670.000000
13470234.000000
-22784716.000000
-1882580.125000
102554640.000000
2510934.000000
-22162420.000000
2944470.000000
46143596.000000
-11029678.000000
-9335870.000000
-18439018.000000
29053120.000000
24387792.000000
-5242118.000000
32383176.000000
38721984.000000
27138652.000000
18180378.000000
-83805864.000000
52114136.000000
12481835.000000
2794153.500000
-40548632.000000
32274164.000000
7174069.000000
26149864.000000
-25805234.000000
-65414900.000000
-25567160.000000
31103592.000000
-50504632.000000
-13506195.000000
22100320.000000
10863672.000000
-3530734.000000
3995120.750000
-7191051.000000
-14922780.000000
-12530948.000000
35942568.000000
-13692604.000000
20754392.000000
1221026.375000
18438872.000000
5747688.000000
21398040.000000
5457290.500000
8280180.000000
-16247174.000000
-19363090.000000
-7429091.000000
-8863030.000000
-4340270.000000
35741784.000000
-8153.937500
-22989978.000000
-21511848.000000
14858800.000000
19235646.000000
-13737096.000000
12390303.000000
18502854.000000
7486657.000000
-8595309.000000
9242993.000000
-6797879.000000
6880167.000000
-12591020.000000
-4628541.500000
1332073.250000
-2935440.250000
-6579652.000000
12394953.000000
17278744.000000
-209528.000000
2934360.500000
-22391596.000000
4038545.500000
-7561778.000000
15118182.000000
-37821228.000000
-8884342.000000
-19027804.000000
-13098792.000000
37009172.000000
5502443.500000
441031.625000
12614506.000000
3691157.250000
-29832758.000000
7337263.000000
4676759.500000
-2453610.250000
-12400698.000000
-19232080.000000
-15285580.000000
10092353.000000
-2676892.750000
232382.937500
1165.997314
-3832.834961
-1834.291504
1939.494141
1037.545654
2463.799316
-1588.222900
1031.936157
565.282837
2124.034668
-1933.459961
742.450317
-891.998352
165.501709
-1874.441650
729.525513
718.143921
-1007.443726
-1591.377686
646.834534
-1846.240723
-1515.682495
-600.883057
-2622.111816
-2596.285645
1935.465820
2020.768311
1664.699219
303.910492
-698.214478
-419.501923
1843.187988
-586.244507
-2280.776855
1286.179443
1475.091919
162.893463
-2209.703125
-2288.107178
-1153.538086
772.702148
-3811.008545
-686.963623
1786.986328
1885.206177
-250.564423
-3653.838135
1006.725525
3376.630371
314.412689
-459.484161
202.543869
-199.690659
455.683899
-282.974640
609.182495
2491.033203
-662.579163
-197.650208
3283.046387
-1980.873779
-94.208038
519.372681
-1077.785522
240966.437500
-3357.091309
-98.113701
514.591614
-795.821045
674.010498
-2452.373047
632.431641
-3502.726807
-514.415100
-356.511505
-2099.211914
-1703.307861
573.358093
1380.541626
-3804.898682
-391.455017
-643.412476
151.104462
1050.830200
-1070.904541
-1351.419556
-1714.131836
-2597.029785
444.166809
1739.194946
-402.023956
-416.537964
1387.543091
402.511658
-2440.291504
1602.155273
-496.594391
224.695343
65.683510
970.789124
999.407227
-2776.327148
522.508972
839.994019
-173.070587
-1465.861084
-2768.346924
1851.495117
901.451294
-7.312226
106.120827
-3719.959229
1029.854980
1382.073730
479.254242
-429.129700
-1362.321899
-497.666382
-4231.062500
-1261.075684
286.165527
-2025.517700
-573.667725
-789.199463
744.043213
1026.971680
464.725677
1.319725
868.035583
238042.343750
-450.357788
1058.726563
1564.528076
-1414.681885
414.325958
969.711121
-2141.477051
-738.344910
-313.008484
-819.374146
892.921021
1185.194214
-363.892548
-780.396240
67.966797
212.675949
2416.569824
-474.366638
372.451843
2201.121094
1168.236206
-792.283875
955.406616
340.925751
587.473816
-411.442413
1813.413818
591.739624
1071.757568
651.260010
731.513489
1930.231445
180.455612
986.682678
338.782745
1001.702332
3242.243896
3551.539551
1814.316040
207.902084
-88.942413
1890.367432
-170.832855
1351.441528
-3565.342041
-1320.408813
-5401.985840
1159.935669
1580.905151
-2895.145020
1072.707886
1680.025513
732.077820
176.213409
-156.666199
151.253250
1.796753
-950.180847
3044.853027
-2913.429199
1153.623779
2739.708008
-2274.779785
1170.351440
342910.281250
-431.186707
-2211.805176
-1660.411377
1923.321899
114.768585
1584.077393
-1391.124023
1832.029663
-1928.189331
3031.918945
-2132.021729
-1638.304321
-130.546631
1797.774048
-220.603241
450.657501
694.883667
-289.741943
-962.669556
-4170.830078
909.188843
870.093628
145.664612
-407.858643
-43.563553
668.538086
766.637085
3714.781250
-921.157654
221.918900
939.849182
2550.999023
1063.793945
-1931.275269
81.741333
-1635.685669
946.648254
1565.260498
-1890.203613
247.800766
2291.316895
943.853027
431.066559
1579.499756
-2003.612549
-1112.238281
-4039.020508
-1275.365234
-852.044434
-40.919540
-636.033264
1305.053223
-1299.670776
-1816.696533
-833.098083
1466.085938
2960.249268
26.243469
-677.056824
3827.130859
-321.223938
626.453369
-1235.370361
661.293945
273138.843750
-909.909790
5589.292969
1300.382324
1141.873169
707.562866
-1121.256104
1402.401611
-301.309052
480.743347
1345.904785
-1665.511230
459.897125
-2049.291016
1014.460144
3431.081543
111.852417
-297.380280
191.266403
318.035889
2526.237793
1510.968018
3598.807129
-148.751099
-1701.639404
-769.031372
16.272003
-1020.639221
690.599487
-925.347412
2449.900146
214.116516
2184.793701
198.593948
-3020.575439
533.338867
1109.636353
1312.416870
2524.410645
-28.170654
108.404449
1234.643433
72.393616
1331.940918
2384.745361
3271.465332
-1876.448730
-1662.025635
468.110046
2182.118896
-564.802856
-1404.788818
640.774048
627.507202
805.693726
1721.894775
-927.672363
1145.270630
-1362.874634
-162.645844
-1064.368652
-812.478577
-855.633484
1262.960083
339.239319
237030.843750
-3067.814697
-1538.114014
646.167236
-1295.910645
2074.533691
-2232.474365
367.147217
1678.672729
-2085.185059
-502.777008
-1444.468994
-2346.612061
225.500061
-1288.240479
-2598.790039
-1926.833984
-745.054565
-745.399170
1573.354004
-4707.609863
413.254669
1989.807129
-68.938507
-2578.852295
1449.551514
1559.745972
-1922.789551
-917.266602
-1118.742920
1268.022095
1310.396484
-1350.584961
-700.743469
-1074.134521
142.468430
-1774.468994
-2633.454102
-831.626587
-3099.770996
-602.673096
-4377.024902
-3516.525635
-1308.781250
-520.038330
-1938.848633
329.023468
-3118.174316
-1049.838257
-882.246399
-141.977417
-980.121399
1589.712891
957.479492
-1874.902832
246.808685
26.044830
-1637.131104
-93.060715
-649.303040
-1921.234985
-1302.932129
1410.794678
463.133301
-691.216187
166075.328125
-1087.393799
446.217407
193.106949
1196.443115
932.728271
-659.552673
1073.365967
-1415.350342
-2179.595459
-293.327576
-1005.364929
1679.482056
1448.610718
-352.770905
-1695.572144
-1085.814941
-2535.923096
-393.780548
-106.149567
1725.559326
-756.111023
-2571.311768
-388.693054
-2054.178955
-1003.228333
-2149.769043
1330.424927
-2123.363281
3275.031738
607.794312
-1191.493164
1031.202393
1776.125000
20.210754
-305.577698
-693.141968
3384.229980
-5593.766602
144.891998
-1496.531250
425.493103
-1625.604370
-1855.446777
548.379761
-910.049438
-2503.354736
2742.362305
578.671204
-441.346283
1134.554077
600.003662
-3519.689453
-525.603455
-271.959381
836.227966
166.803207
1096.067871
-194.188446
-2232.102539
-312.785156
-95.411896
198.343414
34.222229
519.091248
103235.921875
-19.986694
488.327393
891.615417
-3795.931641
282.197784
29.611938
2542.264893
-798.985474
-49.762451
-1.270020
-1206.833374
-1411.976440
620.463013
-223.055908
1701.908203
1345.703613
3432.162109
2415.154297
-151.036621
-2841.913330
1586.072388
1009.847473
495.618408
-1805.601318
-987.688782
2045.319458
420.185089
-1863.926514
8964.831055
1125.198975
1139.669678
190.777588
-680.482727
-452.206787
1509.384033
12468.505859
1158.577881
-5126.353027
-4853.079102
-591.876099
1103.112427
-3594.361084
1959.438232
-1015.139893
1338.117432
-1277.837891
-6409.669434
-714.221680
688.341553
-992.997681
484.215332
-1294.305908
-901.638184
-545.747314
2232.986328
-1922.545532
-567.840576
-596.749939
6297.064941
8801.120117
-662.912354
-916.135132
-1480.553711
-772.924011
162424.750000
938.940308
1670.207275
2360.301758
-1140.837646
1057.700439
-2092.737305
44.298203
-1.107819
-313.626617
1168.963623
-1081.218872
112.348053
467.424316
-1066.629639
3252.638672
90.650681
1969.242188
-325.854431
288.555603
88.064758
320.000977
2183.160400
-1482.713501
-1065.232056
467.007538
1024.796021
931.208496
-2489.864746
1464.231567
1519.931763
820.195679
-497.851624
-405.079071
-1515.169434
-145.024475
-437.332520
1205.702759
4310.064453
-2593.577393
-568.398865
985.550659
2511.905273
-873.955688
345.229065
-110.471092
282.587769
2411.122803
-106.361298
1126.615479
66.017250
-322.851807
487.430847
1330.282593
-983.567261
2956.288330
223.243759
1493.434326
855.121460
746.056885
-2829.088135
528.661133
169.411774
1197.686523
363.612244
9027.997070
4250.770508
-48.291443
983.572693
897.475586
1174.862549
-64.051880
866.184937
788.320190
503.317017
1177.793701
-784.538330
-244.129333
325.976563
436.630127
1757.923828
-530.336853
1206.928223
346.216339
363.446991
1522.028809
1414.351440
118.737122
-460.050415
-1505.275391
315.806641
603.991028
2582.793457
-1355.200073
2545.948730
4903.216309
738.549927
-251.726105
834.444214
266.059692
-160.859726
3052.444336
2793.336182
-409.395691
-2402.868164
398.445740
159.419312
953.555481
-61.403305
1932.975342
2930.716309
456.492615
5435.075684
-639.571167
1824.634033
-500.430603
1029.203857
29.910828
1742.232544
642.597778
3063.028320
102.367722
-1101.534912
1059.367920
-43.130386
-2022.352417
672.939941
-818.524353
2737.418457
233.909286
565939.875000
-2293.247803
682.724548
-1667.112549
1501.040039
-823.830322
2513.152588
-1547.133911
3236.675781
-1577.948486
120.777878
399.252502
-654.224854
-2245.668213
1097.136719
-1986.640137
90.005371
89.960358
-157.189209
1799.125977
-3324.628662
1316.081299
1948.916992
-5174.656738
-2452.338867
2035.310181
-2609.099365
2285.624512
-190.306458
2612.548828
497.472717
409.399261
-4022.930176
-626.170471
507.470093
-423.423462
-4150.946777
6574.175781
-981.669373
331.632446
-2042.363770
3230.633789
1001.454712
-1949.168579
894.505737
-1098.022217
-1227.288086
-8865.320313
938.054443
1228.572632
-72.549377
871.052795
-3005.109375
3495.680176
-2003.590576
2355.462891
-145.399597
-118.494019
-720.245300
-384.686157
2869.498779
1894.553955
2383.819580
-805.860107
803.358154
386594.156250
2230.779297
4614.164063
743.966492
1588.235718
1991.317627
-2067.492188
3327.298828
-283.669495
1278.438721
-774.397583
-63.621887
2911.149902
1674.498291
2675.692139
1834.055420
1857.278687
2157.592773
318.539886
-2182.937744
1889.572021
762.423828
561.193237
-1803.103394
-641.733948
1160.134033
728.289307
1669.501221
-910.488770
-710.088501
1352.237183
-182.250641
3517.609863
1134.668823
-32.971527
-8.100718
-159.467636
4245.113770
-3206.231934
-413.814545
-693.145752
2045.295898
2788.144531
1269.346558
-23.175812
-1993.779175
-1333.609863
-1569.839111
-410.083557
1790.099365
657.239136
965.945923
-695.348877
-532.682373
1502.938599
2040.491455
-508.601929
902.939453
-196.950714
-1508.027588
-522.392456
345.301300
14.114349
84.420288
369.541626
