-5970837971253854200.000000
11837094794520166000.000000
-2717256345949569000.000000
81696449528686707000.000000
10853818038474506000.000000
76835426853808276000000.000000
4942089262574075900.000000
-2944491589428314100.000000
7571385502935285800.000000
5553268743791968300.000000
11950788694878716000.000000
10758373832113783000.000000
14446781244999991000.000000
-2961455129699549200.000000
813100324892966910.000000
3568754709260927000.000000
-3438093145462538200.000000
2287927841628618800.000000
-3391247353049514000.000000
-1342469062898221100.000000
-3426743161806913500.000000
-2894580633474957300.000000
-3128500632772673500.000000
-1588035226796294100.000000
-3778271597735968800.000000
146592284694020100.000000
-51506806886760448.000000
-420500731619966980.000000
-2535856168820015100.000000
-438042546287935490.000000
931187598838202370.000000
918252119415324670.000000
-445219333560336380.000000
970357356980338690.000000
274709200628613120.000000
37849738598416384.000000
-647573865853091840.000000
-428229095772389380.000000
-378244472539971580.000000
203200365972160510.000000
-333449475471179780.000000
-149004097809285120.000000
3209976918292037600.000000
-524718078697668610.000000
-231850890212933630.000000
372084870962216960.000000
393632824965464060.000000
41731839278186496.000000
-440322177489698820.000000
-198980560603840510.000000
539660647877574660.000000
275223411293159420.000000
-143494178754527230.000000
501979731558662140.000000
259719885024657410.000000
11124258316488802000.000000
42218733950730240.000000
1050871432386445300.000000
-2546121759132745700.000000
1510740796314222600.000000
654939150650179580.000000
62180148509671424.000000
835068361057501180.000000
1463631533427392500.000000
-73582487816634368.000000
-467333914009010180.000000
-624338848695975940.000000
105616217926008830.000000
-770649005578256380.000000
-449547629802553340.000000
370624101045239810.000000
248748734664409090.000000
-594242741542584320.000000
-175083070511120380.000000
-335540265550872580.000000
-278566476397412350.000000
-3808109399113728.000000
6257850088521990100.000000
-5888276192879968300.000000
2602438469829525500.000000
25243120114109252000.000000
-5104396420287299600.000000
5763685032778530800.000000
-7071391386297172000.000000
-1217858386465390600.000000
-7803804119105273900.000000
-3985574069792669700.000000
-3891133992426012700.000000
389873319832190980.000000
-6276118474217488400.000000
1658508562017550300.000000
-254578225055793150.000000
275657031191363580.000000
-95706422704078848.000000
-145489474531360770.000000
-53123406807171072.000000
80410893111787520.000000
-13944993232191488.000000
72427510981197824.000000
135387909019664380.000000
98898974974410752.000000
157083154631360510.000000
167270817057472510.000000
-725401215877251070.000000
50940579873292288.000000
-466058446161051650.000000
-1881307825834033200.000000
758095537726554110.000000
-488963850348003330.000000
-86591600158834688.000000
691676789071675390.000000
-90698662635634688.000000
-71372688488136704.000000
-178257635458416640.000000
7833448043511808.000000
178146000668459010.000000
-25373401916899328.000000
360923762788401150.000000
5485082869497856.000000
-606541809891409920.000000
-230194905442418690.000000
78719268702650368.000000
55739394077753344.000000
37783222439903232.000000
337999769982992380.000000
301821370663174140.000000
350960400734355460.000000
-36950406806372352.000000
270763895210115070.000000
3882550380025872400.000000
-2669843205536612400.000000
2269401757895360500.000000
7047495150334902300.000000
-2307245986050736100.000000
1862239270551420900.000000
-3571759399661731800.000000
-207700031409487870.000000
-3643365919054364700.000000
-1560974596369285100.000000
-1741597281339047900.000000
-979846417205952510.000000
-2257297921579941900.000000
1790394706891374600.000000
393352174622474240.000000
576413885620289540.000000
-1369074358072377300.000000
2775364985721716700.000000
407777526660726780.000000
958726585542770690.000000
20247032031608832.000000
507440902734610430.000000
411870699213291520.000000
363920000693567490.000000
-307433518529511420.000000
570061835147935740.000000
-667433313593458690.000000
54672279388291072.000000
-934245409394524160.000000
-3916397196219514900.000000
-128223156245626880.000000
-1344762231836901400.000000
250517522455986180.000000
2508590204596518900.000000
218692536347131900.000000
55630800124641280.000000
25420579985162240.000000
311301978393149440.000000
-114245382749290500.000000
2518651010868576300.000000
-3312844202529783800.000000
823538194933874690.000000
4542199632331014100.000000
-4038398731559632900.000000
1970256254936809500.000000
-3950604377349161000.000000
-566565010214486020.000000
-4332957346885009400.000000
-3069786711849435100.000000
-3088459168068141100.000000
-1487841130203578400.000000
-4137207718379257900.000000
-8789815927504896.000000
-181410124273811460.000000
-665377914044284930.000000
-732880437566767100.000000
-50449093880709120.000000
-666492337798512640.000000
-16734340415225856.000000
46104871899758592.000000
-298127561349660670.000000
148559001758466050.000000
-98744579490054144.000000
-320318935813586940.000000
-359859469892452350.000000
3015963143768637400.000000
-375129040702406660.000000
1691477005859553300.000000
-503039076652285950.000000
9291956273660559400.000000
-2569060045589315600.000000
2004884136703033300.000000
-1255032599722590200.000000
1042868155967340500.000000
1589283584810680300.000000
1248658455938465800.000000
1644824864931971100.000000
1322279830388998100.000000
967146783027232770.000000
-86222576568762368.000000
-246832852832878590.000000
51606471602864128.000000
-222567954057789440.000000
841248372319846400.000000
227821283176349700.000000
-33969042372952064.000000
-111963707143094270.000000
-17327160792449024.000000
63330035808862208.000000
29716610285568000.000000
-12080362171662336.000000
-119352536950898690.000000
204440563548684290.000000
-64795019088756736.000000
5334260870945964000.000000
-95249034456858624.000000
2524353902803943400.000000
-134741671060439040.000000
-2964999802716160.000000
-13074187539185664.000000
-92674115663560704.000000
138895187903512580.000000
375106809951682560.000000
210767703210721280.000000
1340458468447879200.000000
792211253232664580.000000
358403647777800190.000000
-1034077216905887700.000000
-1004461252736450600.000000
-324075142411976700.000000
1717724684876775400.000000
-14387169778991104.000000
1039115866379124700.000000
1105790114048507900.000000
948759993673318400.000000
-504392644185554940.000000
503874361892012030.000000
1625803863527260200.000000
397150884217225220.000000
495483748142284800.000000
3719918591504547800.000000
-1020509999333376000.000000
-655987191389880320.000000
1289065508259233800.000000
1118316987462713300.000000
471735259054997500.000000
707665612284887040.000000
807016864495435780.000000
1121673590303883300.000000
414477125886672900.000000
1465727340028887000.000000
351552212868005890.000000
793389036344442880.000000
4323874281327951900.000000
-412855071357796350.000000
-1348418107999256600.000000
1340338759119405100.000000
-1409647711526846500.000000
676461953324941310.000000
348999868422815740.000000
545070073287540740.000000
863756749729955840.000000
318464231496220670.000000
2763490260141735900.000000
-1025494222981038100.000000
1271761669139202000.000000
2550650097771741200.000000
-244085190454935550.000000
-1125307338794729500.000000
-400819507842514940.000000
155068162134507520.000000
-995669970077614080.000000
532412083111723010.000000
90155280553213952.000000
665453230590787580.000000
-284873635871588350.000000
-550633395965657090.000000
-36036313211731968.000000
-1191983854206844900.000000
-2813933104845029400.000000
43251437362216960.000000
-1342073238712221700.000000
442230070682058750.000000
1494169644255150100.000000
466769005550501890.000000
166652633824624640.000000
-7234907306721280.000000
-54999976803041280.000000
-105366371088465920.000000
-101192564819886080.000000
528857396378861570.000000
231405210046562300.000000
-480867355958706180.000000
-116266053192908800.000000
229426106296434690.000000
-202914389869723650.000000
-149873897406201860.000000
360428535879303170.000000
307816286014930940.000000
383828857737707520.000000
885355556145987580.000000
446464221241147390.000000
523151824383901700.000000
-51955875782328320.000000
-18769468792504320.000000
-292985042387337220.000000
-128134920437497860.000000
-412761887747342340.000000
43757891315826688.000000
-378178948518903810.000000
-22981025676132352.000000
-10083979768102912.000000
-11346339375874048.000000
-73699834913095680.000000
-32893438680629248.000000
1012752669921509400.000000
-462047462102663170.000000
864734490444955650.000000
-4011789175777919000.000000
-1049986669123469300.000000
1747511554384855000.000000
-237689915431714820.000000
1660264482087108600.000000
-968857416961622020.000000
-237011654196330500.000000
1325967268118528.000000
-1609333454221082600.000000
-733994930040471550.000000
-2246394477084147700.000000
53405543208845312.000000
-1047727172728389600.000000
-2701244432992174100.000000
-2554957127483392.000000
-870173705748086780.000000
245795102834819070.000000
1221269071534751700.000000
-971930765099008.000000
70468537742786560.000000
434826371697475580.000000
-811360279022534660.000000
346576991471796220.000000
963919304082849790.000000
-1600541621806432300.000000
823176936644673540.000000
-45852521096282112.000000
-721788564265762820.000000
697925382371803140.000000
-1684543210656890900.000000
-8590659904602112.000000
-1641776468943962100.000000
-379583952580509700.000000
-812099013397446660.000000
-702879506888654850.000000
-792268977593122820.000000
-8292489853140992.000000
-3419730751522865200.000000
-134341878324658180.000000
12432992713379414000.000000
-1706900954973995000.000000
4334720138902241300.000000
-1579045757166551000.000000
473400847372386300.000000
-3567984776243576800.000000
-1598507525295046700.000000
-1343520883209142300.000000
360582158269546500.000000
-1322665896409301000.000000
1079396131265314800.000000
-2391339109244207100.000000
527079451717009410.000000
11510172604187017000.000000
-2239846335584927700.000000
3350735847124107300.000000
-2199282190540341200.000000
424955093742256130.000000
-3344984301799211000.000000
-1650118463663898600.000000
-1315436057700859900.000000
790354040654397440.000000
-1816458217710944300.000000
657771904920190980.000000
-478246532554948610.000000
-243328382857641980.000000
2951214003520536600.000000
7235379147533451300.000000
-2891918440946204700.000000
-1538186393249906700.000000
2102842376400666600.000000
-2183131739117846500.000000
540174910081728510.000000
65743584090914816.000000
2623926775326965800.000000
232400474228129790.000000
-64179335526875136.000000
178781947886043140.000000
-499009469615702020.000000
-584430562337357820.000000
-810549251758096380.000000
-654397022698209280.000000
536679940574150660.000000
535759855500132350.000000
186597843471958020.000000
-447223640178556930.000000
-100088637965729790.000000
-23053041540268032.000000
-206259052701810690.000000
223167995348779010.000000
-427697894217220100.000000
139549466041516030.000000
-3669195096458264600.000000
-232524976740106240.000000
59090177238237184.000000
355584946640781310.000000
-251150188318556160.000000
263807560019083260.000000
77935213832830976.000000
-19947760857907200.000000
-947591212812992510.000000
-531860025195364350.000000
-69758949015945216.000000
-185799409051631620.000000
244455244837158910.000000
-535835996680355840.000000
-202847354020167680.000000
85053245952622592.000000
213825823004688380.000000
-26878038482354176.000000
117495487581388800.000000
120829936981245950.000000
138990364378791940.000000
81816120511692800.000000
-88199859252756480.000000
-915893735693221890.000000
-1581196401910480900.000000
-34081615613263872.000000
4052273193912631300.000000
-265566847343001600.000000
3486491998049796100.000000
-165945441689534460.000000
-754217422776434690.000000
-767354800021962750.000000
-683326960331390980.000000
-485696788985020420.000000
-1172316202526048300.000000
-448167914508386300.000000
544594431429312510.000000
-54628028340240384.000000
-39865529959186432.000000
-62705964175851520.000000
-549176165101731840.000000
260648061817061380.000000
366725026654715900.000000
-450255337333719040.000000
-134185429845934080.000000
13133953082851328.000000
212593923304980480.000000
-37627456860979200.000000
-210088325283840000.000000
175932700941615100.000000
-814739628010504190.000000
364596853179678720.000000
-733427650760015870.000000
-208501403587444740.000000
448198872632655870.000000
-540444084272103420.000000
124020685365313540.000000
-459635133591322620.000000
-118787387974221820.000000
-420071853365657600.000000
-550943011568091140.000000
-561271514561773570.000000
88951865076613120.000000
120088814604517380.000000
-184211439383216130.000000
-12104296950661120.000000
-83956027837382656.000000
-197125890646212610.000000
-149710362231439360.000000
764242151323205630.000000
151660483542253570.000000
105240408287608830.000000
140576521571008510.000000
333306298441400320.000000
-758835962707968.000000
1215712002329018400.000000
-465955470025162750.000000
747131894969139200.000000
-269541152380682240.000000
-612945915367391230.000000
-250889552523165700.000000
273521436012838910.000000
-2155439989016494100.000000
-24018597433049088.000000
221051349565964290.000000
-53425274288603136.000000
-107484279591665660.000000
-754409493713911810.000000
1871101884027109400.000000
680750254831697920.000000
763333130084941820.000000
3875102288259317800.000000
359514463759499260.000000
-368509465307119620.000000
837589678658945020.000000
1363635074049769500.000000
852774552713822210.000000
948528958792531970.000000
1055528207727460400.000000
1393469497435750400.000000
904063540334166020.000000
-1517980805505220600.000000
-2413194926503231500.000000
-628749195993415680.000000
10027474577061315000.000000
-2369557234142150700.000000
2477518005995569200.000000
-2077028317281648600.000000
741820085575876610.000000
-2890199629394083800.000000
-1939395437446299600.000000
-1426400420443455500.000000
555851300193959940.000000
-2154677202824724500.000000
1576108824169807900.000000
-314880510784438270.000000
782169276097232900.000000
1167247041605140500.000000
-83366363187380224.000000
699126255227764740.000000
-588055446015705090.000000
-903534812680159230.000000
318725193709125630.000000
238557825243021310.000000
-47023840282279936.000000
327139172080943100.000000
-997457769005056.000000
53305006614380544.000000
-367673355433672700.000000
533409992993144830.000000
118954264633540610.000000
6280106952647245800.000000
-198538436670390270.000000
2139630798515470300.000000
-2992390164224933900.000000
555409330879332350.000000
186525688021385220.000000
274313771579604990.000000
-1612020143095808.000000
1082078733478658000.000000
1601630000878977000.000000
-2629877332256489500.000000
598496202274635780.000000
-2807728560729489400.000000
-2611358257909858300.000000
1870041130184212500.000000
-2141276492544344100.000000
-119375575155474430.000000
-2064895756224954400.000000
-2126604746822254600.000000
-2595497252923375600.000000
-2424177948153086000.000000
-2571339058315788300.000000
842938252972261380.000000
1172374888959180800.000000
400721170271305730.000000
-1705300203482906600.000000
38185772544688128.000000
1050457741136494600.000000
876949308715302910.000000
716669375565791230.000000
1506520870686818300.000000
1423856425414688800.000000
1154875886525218800.000000
-395694581066235900.000000
1183679517760159700.000000
-131936894207393790.000000
52727131649605632.000000
373846941424943100.000000
-252412788444495870.000000
-350602475339776000.000000
-268807297088618500.000000
417840875553423360.000000
-383162175734153220.000000
202732025558335490.000000
38066041741377536.000000
293812940283314180.000000
227904760160714750.000000
146800985744867330.000000
41729099089051648.000000
-354079165466542080.000000
431258078508220420.000000
-566352495232679940.000000
-499359079953596420.000000
297294028456591360.000000
245047726985707520.000000
-1054634442213031900.000000
78572767368183808.000000
149563233831747580.000000
98668842036756480.000000
-73324325922406400.000000
13917669723996160.000000
734293722325319680.000000
-768114768715186180.000000
473991559994408960.000000
-3350759211746197500.000000
-651362920361361410.000000
1343278303456264200.000000
-847626433114144770.000000
-118548072396488700.000000
-877174914757427200.000000
-147345140921401340.000000
-621026982234161150.000000
-2070360603892908000.000000
-900241912793923580.000000
698440366130462720.000000
127767331366502400.000000
137050525219684350.000000
-986713898113564670.000000
-80615213295992832.000000
447284972311543810.000000
76289399544872960.000000
-721446891027431420.000000
282465121291206660.000000
-21395663052865536.000000
57503092333084672.000000
-627469776775544830.000000
-173561277698801660.000000
1553498604495175700.000000
733247124694630400.000000
626836595516899330.000000
-549885247022432260.000000
-414964690574114820.000000
-45812878548140032.000000
1434829551459893200.000000
-42067284813938688.000000
1144287520830259200.000000
1359143294172397600.000000
1230183774373806100.000000
-131726346320609280.000000
804417069251559420.000000
236347136856293380.000000
-393863962925465600.000000
19675756284084224.000000
1005206171864268800.000000
-32292800389185536.000000
254720783610281980.000000
-113497852281356290.000000
335211855171551230.000000
-262267951682420740.000000
-41236693973467136.000000
4308838161317888.000000
356082991048425470.000000
-83743109128650752.000000
-371837549565444100.000000
-183463187360776190.000000
-282753433855852540.000000
-1005691743686885400.000000
-787496203775377410.000000
-775083748289937410.000000
867171420528967680.000000
602882978791555070.000000
-310372100793696260.000000
62995728439443456.000000
-8456283799683072.000000
-1204938987400069100.000000
135880292660412420.000000
6250557027894951900.000000
-6137973634280456200.000000
2875893608727183400.000000
25114765325705937000.000000
-4155056090632945700.000000
6257195879103463400.000000
-7409153661768564700.000000
-737246048484851710.000000
-7778839707596619800.000000
-3414007518622384100.000000
-3638353520421240800.000000
675607838948589570.000000
-5599566979414360100.000000
1736928480089604100.000000
-232258723127492610.000000
-950447400424570880.000000
-1024448312545116200.000000
-3305231542648832.000000
-948395643007664130.000000
-280345709549453310.000000
-501666542543437820.000000
-79902841430343680.000000
-53588869592907776.000000
-372547387400388610.000000
-333467995370160130.000000
60283911858552832.000000
670648148154122240.000000
-355425654893707260.000000
81270144269025280.000000
164452253359407100.000000
-1072446186985619500.000000
-503270523849932800.000000
121172941659439100.000000
-780832201238380540.000000
-325124832419119100.000000
99511050763763712.000000
60897216008552448.000000
718008030972608510.000000
-834719128676728830.000000
39771775118082048.000000
150710093178994690.000000
63656337359241216.000000
-145371362930720770.000000
-29789278984732672.000000
-398592962436530180.000000
-411001810149441540.000000
1688721492281393200.000000
185410594252259330.000000
198672800427278340.000000
-1683776161710080.000000
-196204225024229380.000000
-271423499107565570.000000
887637248932052990.000000
214027806726684670.000000
791781893942018050.000000
1925957756087435300.000000
227986622237376510.000000
-154167060815937540.000000
1797181854730682400.000000
-1000635295869173800.000000
735947868849831940.000000
1012226691046572000.000000
1273724159955828700.000000
715658443343527940.000000
854654580158365700.000000
515435932816506880.000000
-434106122861805570.000000
-629938042940948480.000000
298780533817606140.000000
-747922168951603200.000000
-504522214758940670.000000
375823451014823940.000000
-272321628308766720.000000
-433170644624998400.000000
72862694247497728.000000
-259225774807056380.000000
-306423514020184060.000000
-486898142877319170.000000
6304068059795554300.000000
-5846017562978025500.000000
2536708290331541500.000000
25266979516431991000.000000
-5650391904408305700.000000
5457926242256814100.000000
-6928266858197942300.000000
-1527844936634859500.000000
-7796146020617814000.000000
-4391880724773339100.000000
-4004068954883489800.000000
308690191600582660.000000
-6627064443861729300.000000
1928999142688817200.000000
-242645757935484930.000000
69718129646764032.000000
-1892783978448945200.000000
-450268290955083780.000000
-434558056500559870.000000
921206713317588990.000000
-82481015808851968.000000
-26842514807848960.000000
130451127580753920.000000
84407695188164608.000000
-706873207998644220.000000
198332656197304320.000000
3634390605636829200.000000
-2772271509756969000.000000
1957516900900536300.000000
-6173579669078540300.000000
-3736463217845600300.000000
3717218465824636900.000000
-4273112578252603400.000000
2220111613694836700.000000
-4596501213091987500.000000
-2483968840715730900.000000
-2959363033949798400.000000
-4534953850703970300.000000
-3834298037363015700.000000
165824821827993600.000000
-356326945190838270.000000
-498444973474054140.000000
-59259678122573824.000000
-23477382161629184.000000
-1204177438158880800.000000
37777162241048576.000000
-331025292850102270.000000
203827465557114880.000000
202154610155061250.000000
-21606376295890944.000000
768728777239822340.000000
-146252793299075070.000000
970959477035499520.000000
-692934561654374400.000000
396059859444826110.000000
2137210498544828400.000000
-485257912046845950.000000
375677834443620350.000000
-658605609611952130.000000
-197886409095249920.000000
-1117957790757814300.000000
-539211428658151420.000000
-560607375178858500.000000
-53301789683875840.000000
-550865152400949250.000000
2278221078100705300.000000
3042231301189926900.000000
-20484870140592128.000000
9661823189151383600.000000
35559598023996604000.000000
542175952524804100.000000
-982944703534071810.000000
-1663363318171041800.000000
1823257735056064500.000000
-1536920305610522600.000000
-2580306400274022400.000000
620868583840284670.000000
4240981000198291500.000000
-602476846684045310.000000
539224256.000000
532690240.000000
265035728.000000
276786528.000000
579062336.000000
12061857.000000
375264256.000000
407021408.000000
52778392.000000
121972672.000000
141266432.000000
69451520.000000
-303561440.000000
405251392.000000
4717039.000000
789708544.000000
-116889704.000000
-109684456.000000
228942544.000000
-230896592.000000
161135808.000000
-8618383.000000
-453687552.000000
20724422.000000
40410584.000000
-62233972.000000
-211777296.000000
-54555356.000000
11854259.000000
108458328.000000
-366518432.000000
-173166400.000000
296542272.000000
246021200.000000
653309248.000000
23526690.000000
158187104.000000
223813280.000000
-89026824.000000
-231758560.000000
-107532736.000000
47256872.000000
370747520.000000
680001664.000000
131780520.000000
21031918.000000
-38925880.000000
155234208.000000
194266912.000000
26613210.000000
-75654864.000000
-478256928.000000
370850368.000000
-58254556.000000
-59937888.000000
251056992.000000
510894208.000000
199374480.000000
373546176.000000
80692552.000000
26718300.000000
-42827948.000000
77281688.000000
287397536.000000
971711232.000000
-179227760.000000
-242759184.000000
29363284.000000
185179216.000000
-142142640.000000
-479829056.000000
378988928.000000
54897260.000000
-140975216.000000
193418480.000000
-231094784.000000
320048128.000000
-891948800.000000
145696400.000000
142289584.000000
-537277824.000000
-30799830.000000
461471808.000000
5844424.500000
-667493952.000000
87123888.000000
-534975072.000000
-415732960.000000
-310374848.000000
84291816.000000
-50390444.000000
-40487356.000000
89155936.000000
-426326656.000000
-351195968.000000
-39836120.000000
89938632.000000
-84798648.000000
155422144.000000
-728769280.000000
471116032.000000
177884320.000000
222218272.000000
-348378176.000000
-450165504.000000
-607860480.000000
-445814560.000000
-78424600.000000
-975681536.000000
280950816.000000
247937248.000000
-98752520.000000
78556424.000000
561168320.000000
128656408.000000
405215840.000000
121272408.000000
384543552.000000
259436512.000000
-361370944.000000
-689411264.000000
-548765440.000000
-83271800.000000
376166592.000000
492460.093750
-987127552.000000
742244544.000000
-92893144.000000
-512226944.000000
103235040.000000
243923824.000000
4645492.000000
118380360.000000
-42996880.000000
287718272.000000
286182560.000000
195200064.000000
-961273.625000
53162224.000000
-95517352.000000
694910400.000000
17324044.000000
-406302880.000000
396832928.000000
100872872.000000
198937760.000000
-123951672.000000
-119517744.000000
-72036184.000000
115026976.000000
-201514688.000000
-9588752.000000
-544331584.000000
-252096624.000000
-172616688.000000
37948072.000000
-422024608.000000
496512320.000000
300022432.000000
-146521808.000000
-328249568.000000
-499097376.000000
-180006704.000000
-348126144.000000
355378944.000000
-56223676.000000
-338124032.000000
52013464.000000
30465422.000000
170111632.000000
75888064.000000
568417984.000000
241560336.000000
467186816.000000
338802272.000000
-69680976.000000
59425964.000000
-268857312.000000
15451284.000000
-165003840.000000
-404987936.000000
-205006928.000000
199909200.000000
-20959432.000000
-107744584.000000
337627488.000000
605144448.000000
-138403776.000000
196744592.000000
-5066517.000000
52457968.000000
-146798800.000000
-251947376.000000
214168528.000000
315066592.000000
-438645632.000000
-664782528.000000
88524208.000000
-28648516.000000
-371977856.000000
92410560.000000
487744704.000000
240477856.000000
-207310816.000000
-103275312.000000
-271061856.000000
-172317360.000000
-379455808.000000
-533382624.000000
245264864.000000
-295165760.000000
80961688.000000
-85309984.000000
309501728.000000
-112252936.000000
148686064.000000
-461942560.000000
-94363904.000000
278955456.000000
-1933192.000000
21654948.000000
-222560944.000000
-110659168.000000
-50911568.000000
-179302576.000000
-311489280.000000
61749912.000000
27044550.000000
24398982.000000
84901944.000000
-95551760.000000
-90185512.000000
223917216.000000
-158315168.000000
-125575064.000000
-57925548.000000
-470900384.000000
-42280908.000000
-659850688.000000
178213616.000000
-172784144.000000
-195291440.000000
9300224.000000
61747104.000000
23466544.000000
122707168.000000
96611984.000000
490071808.000000
135611504.000000
4452903.000000
390621024.000000
-284296960.000000
-242816672.000000
487076352.000000
-174219840.000000
-386246912.000000
584727488.000000
-277929216.000000
-357896032.000000
44815708.000000
-59545240.000000
-191336528.000000
23722060.000000
202536768.000000
-58007836.000000
-80627800.000000
-178280864.000000
21615436.000000
171611824.000000
-199291328.000000
-212220224.000000
32390420.000000
-70705672.000000
123413600.000000
-77273928.000000
91120608.000000
-101794736.000000
-20543810.000000
-63114580.000000
-880191.875000
25183952.000000
149687216.000000
172096528.000000
159178256.000000
66738316.000000
67808376.000000
97597984.000000
-30167572.000000
15950579.000000
35937116.000000
84769168.000000
18976022.000000
-78545200.000000
-155343040.000000
-167245136.000000
84176136.000000
148018672.000000
110868072.000000
119699112.000000
-74954104.000000
-19184800.000000
-114450928.000000
35403120.000000
145986096.000000
17534452.000000
39714652.000000
107658864.000000
97343328.000000
-144855296.000000
-92672312.000000
-12495729.000000
168663536.000000
-180014816.000000
-71113704.000000
-179347520.000000
-40542212.000000
-99614832.000000
94197072.000000
-177205184.000000
-216831952.000000
-65321536.000000
-105552016.000000
-35079096.000000
-101086592.000000
-28280190.000000
-27038342.000000
-199408032.000000
-104878424.000000
103600752.000000
-20467428.000000
-141918848.000000
35077844.000000
35650804.000000
37515244.000000
39723672.000000
37711256.000000
-4691468.000000
40757916.000000
10490862.000000
8097997.500000
25800254.000000
-27847824.000000
5611768.000000
47490616.000000
-1162512.375000
-14812943.000000
-36167688.000000
122285800.000000
25461862.000000
6252627.000000
-127979800.000000
-54637276.000000
23573010.000000
36796416.000000
3283368.750000
43947756.000000
-35472208.000000
-79434800.000000
36167060.000000
57504384.000000
23171220.000000
83997912.000000
-1229046.625000
60347496.000000
-11021678.000000
37142692.000000
75689672.000000
70733408.000000
-19043706.000000
-153205904.000000
-61942332.000000
21106566.000000
-90006240.000000
-102429504.000000
-117338232.000000
-27112042.000000
153109488.000000
36212996.000000
-66423612.000000
151973552.000000
-50690040.000000
-202773824.000000
-94601056.000000
34346016.000000
92422112.000000
-87700720.000000
126915000.000000
29680914.000000
-89135384.000000
-150327840.000000
-89653280.000000
-44912752.000000
-152010592.000000
186581856.000000
-24011954.000000
-302077760.000000
-192360864.000000
18943618.000000
18395366.000000
159490160.000000
-95113496.000000
-19639632.000000
103407056.000000
194380784.000000
117482912.000000
258550464.000000
60995532.000000
34128360.000000
186539088.000000
-37107120.000000
-16785902.000000
-118489888.000000
177949360.000000
-146747632.000000
40469564.000000
129422224.000000
17609094.000000
160567008.000000
356743360.000000
-42249340.000000
338239840.000000
76545592.000000
45044452.000000
136559312.000000
-46786100.000000
-124767400.000000
140586272.000000
106965296.000000
174804064.000000
-64681540.000000
85811032.000000
-16007562.000000
-181089408.000000
25138794.000000
-74674272.000000
150557408.000000
-145520160.000000
75308712.000000
72729640.000000
31723630.000000
-130558240.000000
143834912.000000
-194861472.000000
-8778863.000000
39949340.000000
-122336136.000000
144068864.000000
-123253256.000000
-197815312.000000
47368304.000000
27852090.000000
62952732.000000
145326128.000000
130311528.000000
641991744.000000
1131254400.000000
934504256.000000
308846368.000000
140585680.000000
1104820096.000000
-245960448.000000
680705024.000000
727472384.000000
-33653116.000000
339970208.000000
58945024.000000
241916432.000000
17511216.000000
527156640.000000
68665664.000000
781711488.000000
1817722.125000
-267753200.000000
612924864.000000
-200880144.000000
607241216.000000
-521059136.000000
9102388.000000
326154528.000000
-128814744.000000
323806784.000000
55733088.000000
156748320.000000
-61749032.000000
227176320.000000
-5634866.000000
209073328.000000
357567008.000000
293857280.000000
150318944.000000
307084096.000000
105280488.000000
146173920.000000
559637184.000000
-244055520.000000
-312367040.000000
619531136.000000
1188655360.000000
709022656.000000
111130040.000000
393560736.000000
346816064.000000
467471680.000000
179035072.000000
595401088.000000
-315211264.000000
-57814148.000000
680312704.000000
312721728.000000
242021456.000000
-117918856.000000
1143426944.000000
84806040.000000
681540032.000000
68364040.000000
118554616.000000
70100752.000000
457441184.000000
664104512.000000
187518896.000000
-33567780.000000
258762640.000000
53350348.000000
-197611664.000000
63728340.000000
140883536.000000
257788960.000000
-180814224.000000
63286240.000000
-163807776.000000
804808832.000000
78802240.000000
-270412512.000000
528889088.000000
-169996560.000000
-26472612.000000
-226259184.000000
-416895200.000000
-55208400.000000
87619696.000000
-43700784.000000
-362115328.000000
-212073296.000000
-51209988.000000
90561632.000000
-113380792.000000
-326435168.000000
673124032.000000
544045504.000000
-208695328.000000
-501977024.000000
82008960.000000
-27834568.000000
-353477280.000000
-109010168.000000
181029264.000000
-170981904.000000
-44078404.000000
-149813616.000000
182194272.000000
198998464.000000
397932672.000000
383519744.000000
-223892384.000000
139686992.000000
293773984.000000
97671576.000000
-410957216.000000
42578192.000000
167248336.000000
-129658648.000000
-113470384.000000
261585584.000000
157611408.000000
286092768.000000
151560064.000000
651280960.000000
-104925592.000000
253216496.000000
-75892840.000000
8918589.000000
-144247712.000000
-159243488.000000
378728032.000000
236808704.000000
-345570432.000000
-35155700.000000
223279088.000000
-299991264.000000
-382594816.000000
-71690864.000000
485939744.000000
162786272.000000
-298410208.000000
7075124.000000
-598093440.000000
256980624.000000
-553706688.000000
-587585920.000000
460549376.000000
-630294592.000000
-114630616.000000
-177434656.000000
-153793520.000000
-268431696.000000
-55862948.000000
-711174720.000000
-395866112.000000
210640384.000000
-65451920.000000
-122955576.000000
-35000084.000000
-577190656.000000
-255487712.000000
-21302606.000000
108871256.000000
-412585376.000000
-210789008.000000
111562168.000000
-677026176.000000
147964432.000000
11780354.000000
-247619312.000000
-735826752.000000
-90112048.000000
-477621856.000000
-210176544.000000
-800699584.000000
-394741472.000000
10871772.000000
61185040.000000
-107578816.000000
-241318912.000000
30001042.000000
-111939672.000000
53142628.000000
-407012896.000000
487049536.000000
-133129088.000000
-164217568.000000
-238538784.000000
-729603136.000000
-326981152.000000
488671008.000000
2551938.750000
-910535936.000000
302646976.000000
100146544.000000
-376994336.000000
390337952.000000
20182344.000000
730249664.000000
245304816.000000
37935380.000000
32649224.000000
-170364112.000000
-16033265.000000
95337008.000000
-131506112.000000
253083600.000000
-186561312.000000
311999232.000000
-238503344.000000
-28627798.000000
244776432.000000
-266828336.000000
-170558000.000000
-100710528.000000
472454.000000
-270788448.000000
-396875776.000000
-581426112.000000
-38233680.000000
243436448.000000
-178689280.000000
339845184.000000
130823712.000000
-291543872.000000
-22760298.000000
-126812920.000000
-8279237.000000
223022832.000000
232364896.000000
276124256.000000
-350721792.000000
76339472.000000
-168444112.000000
187016976.000000
-482977600.000000
134322176.000000
-472563648.000000
172666832.000000
-380480288.000000
-172501872.000000
186465440.000000
-449597632.000000
-116778136.000000
100043840.000000
93096560.000000
153585104.000000
-361093376.000000
-209944816.000000
-15909669.000000
-30738792.000000
-140878032.000000
-40746044.000000
-271232224.000000
-644551616.000000
-14822767.000000
417500448.000000
-216059568.000000
-182463152.000000
86744928.000000
-201341360.000000
-236856672.000000
9709156.000000
-215304992.000000
-130995360.000000
-17388798.000000
13561345.000000
-78500088.000000
14808434.000000
-264064432.000000
9808180.000000
329347328.000000
-302540128.000000
324898304.000000
-65691388.000000
-466845920.000000
79573872.000000
256382304.000000
40757308.000000
-202381984.000000
223269504.000000
216081872.000000
155451104.000000
-285301248.000000
-199725584.000000
-76856224.000000
77140080.000000
265875536.000000
-64256636.000000
-374157696.000000
-321764832.000000
-226795952.000000
-160421872.000000
199025680.000000
-197359040.000000
6581727.500000
-498725952.000000
420776192.000000
-224440688.000000
-75060312.000000
-246600608.000000
127825368.000000
-449387232.000000
-101700408.000000
-2374705.750000
-115984984.000000
197982512.000000
484465280.000000
-18339800.000000
-170379760.000000
174433120.000000
361186848.000000
-124291176.000000
58220380.000000
14692173.000000
-332623072.000000
-31628918.000000
-132785008.000000
198504800.000000
-96351688.000000
14410910.000000
89602456.000000
-89461936.000000
-254381376.000000
54702920.000000
243445392.000000
55987724.000000
1976314.000000
-2300221.500000
26082852.000000
-2129629.250000
50318860.000000
-21754758.000000
90493576.000000
95418976.000000
-1789223.000000
-66724984.000000
107410528.000000
-15929557.000000
-63725564.000000
232287008.000000
-55561592.000000
2125111.000000
-34991416.000000
41481632.000000
68923040.000000
-16396154.000000
-32219384.000000
-82408728.000000
66652512.000000
90354512.000000
212786512.000000
-49687152.000000
30131222.000000
28393518.000000
-71284936.000000
-208635440.000000
-28044204.000000
160362304.000000
48963816.000000
-37956764.000000
-60226372.000000
-8648341.000000
63644796.000000
100610800.000000
-66046056.000000
-23562452.000000
-8139613.000000
51727952.000000
98601280.000000
-12008770.000000
-16635787.000000
-64496796.000000
-3342531.250000
-74574568.000000
-174288736.000000
164710480.000000
75441192.000000
-109328856.000000
93169240.000000
114213920.000000
126969536.000000
-103396216.000000
-104227656.000000
-16116433.000000
85614448.000000
107910440.000000
-180574304.000000
-46921508.000000
-9846939.000000
-25564836.000000
-131580080.000000
-93045024.000000
149250000.000000
-30873152.000000
37787392.000000
-89073704.000000
228804352.000000
-62597732.000000
249050448.000000
-180193392.000000
6280287.000000
369137344.000000
7075814.000000
-77315408.000000
-255323120.000000
-23290700.000000
4993645.500000
86222464.000000
209752288.000000
24783880.000000
-135986944.000000
-63226180.000000
77560712.000000
-170319088.000000
272401632.000000
-14500106.000000
-129398408.000000
-104336752.000000
111283368.000000
50605848.000000
-3403781.000000
319607456.000000
23285720.000000
-39097696.000000
-114233616.000000
55832256.000000
17076600.000000
-50685536.000000
-69076368.000000
222165728.000000
-93298488.000000
-120100848.000000
-341701024.000000
-39802644.000000
-405988672.000000
25683270.000000
-51651608.000000
61588144.000000
-49982064.000000
-66568744.000000
-38989560.000000
91564456.000000
151531328.000000
-61170108.000000
-55005680.000000
-34488668.000000
-87568536.000000
-82566768.000000
162865600.000000
-60391252.000000
-654026.500000
-4397638.500000
165751152.000000
-127332416.000000
12695333.000000
-168702752.000000
-75505576.000000
115146344.000000
96937792.000000
-41891696.000000
-138634512.000000
-28226706.000000
41561648.000000
-68601936.000000
133110048.000000
-94732824.000000
106070544.000000
-34445784.000000
37960008.000000
154011216.000000
-125836984.000000
-121604720.000000
4202935.500000
187823424.000000
128516232.000000
-46253012.000000
49340740.000000
74535416.000000
-90203448.000000
-33283558.000000
-64193288.000000
-42513512.000000
-16718677.000000
-135602720.000000
851651.812500
96467600.000000
-172410944.000000
41712380.000000
65747016.000000
-15556459.000000
-75398168.000000
-12474527.000000
34816860.000000
-226364912.000000
-34504608.000000
-62592696.000000
-2757180.500000
-23302196.000000
-18103002.000000
-232307840.000000
133050064.000000
74341264.000000
18730246.000000
-216604144.000000
114488520.000000
118121576.000000
68717608.000000
-714539.625000
44037000.000000
-22352742.000000
-11676669.000000
-3982090.000000
-163124.656250
-112020112.000000
42985220.000000
40339172.000000
19933232.000000
22487922.000000
-35117468.000000
-92532528.000000
-197929472.000000
208839168.000000
209431664.000000
186405264.000000
-212215456.000000
122830208.000000
-6111292.000000
-90443912.000000
127686896.000000
73844608.000000
-32478536.000000
18297966.000000
-51673452.000000
-41168136.000000
53759888.000000
339475808.000000
147900944.000000
-126004720.000000
20879810.000000
-81443616.000000
-133928616.000000
-224251232.000000
-182844032.000000
-21515502.000000
98058128.000000
-334980832.000000
-30751624.000000
146555056.000000
-33347558.000000
306619232.000000
179287408.000000
198221136.000000
-272215008.000000
-141614624.000000
-83082088.000000
191435392.000000
-131957672.000000
-193093312.000000
-7397539.500000
11787057.000000
46968704.000000
256806304.000000
295344576.000000
-73733784.000000
-232348656.000000
-63438044.000000
-65821656.000000
-72196888.000000
81452616.000000
12285530.000000
-193530800.000000
-309073856.000000
-203368736.000000
-87133264.000000
310267744.000000
59123172.000000
111813592.000000
-24694450.000000
-43445112.000000
-85444728.000000
-49748884.000000
-41435320.000000
-149791328.000000
-49221760.000000
-48220056.000000
205156976.000000
-452874272.000000
61791388.000000
196604736.000000
285097632.000000
-295972416.000000
-439648448.000000
133042960.000000
46455612.000000
-94645040.000000
302476672.000000
-97205544.000000
395071008.000000
-244085680.000000
394933920.000000
267478800.000000
145242480.000000
-254604208.000000
66824496.000000
246679632.000000
-49874152.000000
20140080.000000
-403491264.000000
138612768.000000
24740810.000000
269892800.000000
247241824.000000
125195800.000000
-107306952.000000
-259671616.000000
-150845856.000000
-131351368.000000
374765952.000000
346041824.000000
177457120.000000
-239037120.000000
142526640.000000
-164462912.000000
479648800.000000
-265304288.000000
58476880.000000
-537608384.000000
-311186944.000000
-30363562.000000
-333245248.000000
-42711896.000000
-135383120.000000
-198928640.000000
57947244.000000
241734256.000000
476018784.000000
-54472944.000000
248914192.000000
134497024.000000
-89518488.000000
55601800.000000
-257351360.000000
137720592.000000
-525785888.000000
120546088.000000
217523168.000000
-7161466.000000
215289168.000000
75209992.000000
226611888.000000
3891072768.000000
270963392.000000
181334016.000000
-141434784.000000
300575744.000000
351841184.000000
-257551472.000000
-1307640448.000000
34577676.000000
-414129920.000000
-326391328.000000
-373259072.000000
78981664.000000
-966410176.000000
-42979060.000000
-632921088.000000
-22965850.000000
-91890000.000000
26619398.000000
-111957688.000000
489390784.000000
622917504.000000
58349844.000000
-1133482880.000000
43343640.000000
-263948752.000000
-833953088.000000
-1350398336.000000
-273241888.000000
-173844464.000000
544897216.000000
-875860672.000000
-126119280.000000
-660195264.000000
374578464.000000
-567531072.000000
393016928.000000
482503168.000000
214924976.000000
-260063952.000000
395276608.000000
-564271808.000000
1086638720.000000
504791328.000000
1147341056.000000
-225102272.000000
504458496.000000
88041600.000000
-375049600.000000
-28686534.000000
44287688.000000
80227824.000000
-324438848.000000
-1302045056.000000
-1222518528.000000
737286592.000000
-489816000.000000
574017728.000000
-8804408.000000
-1309369472.000000
18376586.000000
812728768.000000
-15409191.000000
-246598656.000000
1164136832.000000
-117116544.000000
-62055148.000000
-474496992.000000
-340753792.000000
-133010600.000000
-90074776.000000
-86975352.000000
35378172.000000
-20108916.000000
107934728.000000
-49692888.000000
-67237576.000000
-213659472.000000
-71021512.000000
-385508192.000000
48046572.000000
-294727008.000000
258148672.000000
-36905272.000000
55826732.000000
-114275104.000000
179223472.000000
58240512.000000
-213348320.000000
132280584.000000
-105675864.000000
-272880192.000000
-215131136.000000
-307352000.000000
-117795680.000000
-243647408.000000
-331437024.000000
-207922320.000000
-127592552.000000
66518588.000000
-140109104.000000
-62648804.000000
4643929.500000
-109064944.000000
-31041090.000000
-222310992.000000
156773184.000000
-269043904.000000
-126940072.000000
-136514224.000000
-182146416.000000
-39502532.000000
-169466352.000000
-9004820.000000
3055536.750000
-205255216.000000
183659744.000000
59277176.000000
31736496.000000
-34463592.000000
57040836.000000
-230544096.000000
-519198720.000000
7769200.000000
38001204.000000
75751064.000000
-323504064.000000
80560560.000000
34791100.000000
-271927552.000000
499645440.000000
240266016.000000
740994944.000000
372538560.000000
144211152.000000
168067648.000000
-80012280.000000
-87075376.000000
-57742648.000000
-33852068.000000
-138569664.000000
-180643456.000000
382468192.000000
-310556320.000000
113132080.000000
170367872.000000
-491952128.000000
-182918624.000000
253164400.000000
134419792.000000
-414713600.000000
-294389888.000000
-327317760.000000
-46911832.000000
-95077952.000000
-338224992.000000
189425296.000000
53056024.000000
-276641696.000000
-34520268.000000
3826006.000000
227324048.000000
-123884160.000000
92218904.000000
-215822336.000000
-159119008.000000
283099808.000000
-57128296.000000
123427168.000000
-348818400.000000
-66376720.000000
-213210624.000000
-213802112.000000
-216706000.000000
-326081632.000000
518537472.000000
-121365712.000000
-384175488.000000
-181990240.000000
414058912.000000
10943769.000000
175588592.000000
122102936.000000
-80481752.000000
99416424.000000
-120603168.000000
-83970680.000000
-376195296.000000
-193459392.000000
-87110224.000000
-50051760.000000
-367396928.000000
430938464.000000
-480731104.000000
-244062368.000000
-143776928.000000
19040422.000000
98482752.000000
-25873742.000000
144555328.000000
-27798006.000000
-21625054.000000
10133272.000000
26752756.000000
-96523560.000000
-122827288.000000
-180552960.000000
192760592.000000
-123221256.000000
-168183456.000000
-394053600.000000
95498456.000000
-76245728.000000
-11972850.000000
-127387984.000000
59356876.000000
211953920.000000
-46673228.000000
-211050672.000000
66370520.000000
-238269776.000000
-135848160.000000
-130122000.000000
20742626.000000
22604870.000000
14589661.000000
-262591312.000000
-95402632.000000
-345197056.000000
185117328.000000
104294792.000000
184755712.000000
281959520.000000
-65162516.000000
-230846960.000000
212312224.000000
-94390024.000000
-173269760.000000
-72890696.000000
-372043200.000000
94477624.000000
8809805.000000
-65194812.000000
172939088.000000
198036880.000000
-78107968.000000
-15547509.000000
-307915328.000000
16540109.000000
-112563456.000000
259394784.000000
38645880.000000
53940844.000000
133278048.000000
14298626.000000
44661528.000000
-426938560.000000
-135652816.000000
-177631600.000000
39088608.000000
-112058928.000000
341101888.000000
12738806.000000
168383904.000000
534752992.000000
310271872.000000
177419376.000000
338218336.000000
168003648.000000
-169488784.000000
-28573562.000000
31152418.000000
3993932.250000
-243112272.000000
-123864832.000000
386141888.000000
895546624.000000
69785848.000000
-287931552.000000
225688736.000000
-14995499.000000
-259945808.000000
345755904.000000
-346600384.000000
-439976448.000000
-78258352.000000
6576913.500000
-289908032.000000
-309527264.000000
49940800.000000
-236158096.000000
-265807328.000000
-223279584.000000
429294400.000000
371783168.000000
1158440832.000000
3018242.000000
89223584.000000
258412192.000000
-273840416.000000
8794695.000000
121301104.000000
67167232.000000
231179616.000000
311504064.000000
264374784.000000
-320068704.000000
-299906048.000000
56526820.000000
-160026160.000000
17816552.000000
90877760.000000
11433872.000000
336354816.000000
-72835192.000000
-54289280.000000
598526336.000000
174440304.000000
297587488.000000
338859392.000000
90114952.000000
126275512.000000
178058032.000000
-81087536.000000
-38514864.000000
-194689808.000000
131452632.000000
546118400.000000
-507783872.000000
-12310840.000000
197540352.000000
-19368500.000000
380939424.000000
23127934.000000
262396480.000000
-205201472.000000
-314838016.000000
119158192.000000
140829216.000000
61569040.000000
444651616.000000
251865584.000000
43034800.000000
131998176.000000
297222976.000000
113155784.000000
416373696.000000
-438750464.000000
4281225.500000
258222272.000000
-76274864.000000
524449024.000000
320869184.000000
-638750848.000000
420959456.000000
30922208.000000
552109440.000000
213811152.000000
223834016.000000
-194929776.000000
-575924096.000000
155626112.000000
-294336416.000000
304842304.000000
-693091392.000000
78456024.000000
54649224.000000
598474688.000000
-310978080.000000
609145536.000000
-235250304.000000
113791176.000000
138516928.000000
131301704.000000
-591813696.000000
544530560.000000
-53442980.000000
-64439504.000000
381089728.000000
-491090720.000000
284714592.000000
-249070624.000000
16267228.000000
131893136.000000
374448896.000000
-223038576.000000
-485111072.000000
-528706080.000000
307935520.000000
521643200.000000
-254227760.000000
40540604.000000
-126495528.000000
1638962.750000
183445376.000000
78971848.000000
-40890120.000000
21785286.000000
169640496.000000
7081020.500000
7359623.500000
24289386.000000
147330464.000000
-3300881.000000
68460096.000000
-161976416.000000
-31068818.000000
-59954548.000000
53049044.000000
-47899736.000000
277883040.000000
-5165847.000000
331144384.000000
29321588.000000
-13338993.000000
95780512.000000
-149270464.000000
219381760.000000
27547090.000000
-49756892.000000
95197288.000000
273899200.000000
70988120.000000
-203476784.000000
-300047744.000000
-79472112.000000
187926928.000000
-94172344.000000
85567064.000000
117989352.000000
321643168.000000
-38504672.000000
144322144.000000
172798448.000000
-68612056.000000
180263776.000000
-194888064.000000
-7505212.000000
-28445196.000000
37040748.000000
-22015786.000000
62536708.000000
95861624.000000
14185693.000000
-43326664.000000
160217856.000000
130816720.000000
-152001264.000000
-21718952.000000
4214095.500000
107265272.000000
6123323.500000
39257088.000000
-21195714.000000
123659728.000000
682873984.000000
-415478592.000000
-87878864.000000
-381486304.000000
88184120.000000
-441523296.000000
-306058656.000000
282375424.000000
21393584.000000
-224000192.000000
294425184.000000
-51846772.000000
23822794.000000
-199626464.000000
-94137584.000000
-111860312.000000
-385592544.000000
-88049744.000000
-235750304.000000
-273174656.000000
-314486208.000000
26309698.000000
-338707008.000000
-396643040.000000
53272436.000000
-133655720.000000
141363248.000000
306377312.000000
85580264.000000
-134734704.000000
-195012656.000000
-336683840.000000
-52550932.000000
-307709408.000000
27841998.000000
-486735424.000000
-90339232.000000
-56335228.000000
140291232.000000
-650138240.000000
-213621456.000000
-242694208.000000
-368413856.000000
-468273792.000000
-181881168.000000
-221878640.000000
47463124.000000
-16000015.000000
421383360.000000
-84214384.000000
-425514816.000000
-328221024.000000
-215432672.000000
283843840.000000
-306499744.000000
110854016.000000
-270717888.000000
-327343584.000000
-214594480.000000
284229600.000000
65635436.000000
-185195728.000000
-374211520.000000
133650240.000000
-489976000.000000
-543545152.000000
-321084768.000000
-400671584.000000
-55104144.000000
-179857984.000000
-315382208.000000
296149504.000000
-43909776.000000
-40151136.000000
-12370056.000000
251312928.000000
-464679648.000000
102987144.000000
398724960.000000
-338116064.000000
-339096608.000000
124815144.000000
14325594.000000
72559704.000000
114763192.000000
213769712.000000
-101696224.000000
44431176.000000
245473552.000000
19466502.000000
84998072.000000
-16665276.000000
513927872.000000
225866592.000000
532524576.000000
597086592.000000
-717128960.000000
369136000.000000
259367472.000000
-66484836.000000
201180928.000000
-129221672.000000
-174782432.000000
29932256.000000
98140624.000000
208442080.000000
855901504.000000
-251821808.000000
-267328448.000000
-569798528.000000
-177184672.000000
189166384.000000
-284668416.000000
185205952.000000
-74349560.000000
44419232.000000
-141175664.000000
-79661616.000000
-38752200.000000
238585968.000000
118513584.000000
74012512.000000
328935712.000000
-54693572.000000
-39100256.000000
-123791296.000000
673594752.000000
-85947544.000000
-160199904.000000
859033216.000000
789940480.000000
-183123760.000000
-129828296.000000
-501222944.000000
63535240.000000
-315542784.000000
-190721264.000000
88872680.000000
-19258126.000000
-282728352.000000
264502944.000000
-394756000.000000
-92973904.000000
-183093472.000000
-390742752.000000
-271197600.000000
-634596288.000000
-84354512.000000
-400201952.000000
-445531936.000000
-373364992.000000
61709196.000000
-480273984.000000
-621971712.000000
116267592.000000
-191664304.000000
-45690336.000000
-39325112.000000
-225623168.000000
-437591040.000000
-492408640.000000
-516780960.000000
-111827984.000000
-516360416.000000
-114223328.000000
-569800448.000000
-184192848.000000
-127238672.000000
-92513224.000000
-948889280.000000
-296402944.000000
-392756224.000000
-579873408.000000
-587712832.000000
-220929248.000000
-423121312.000000
146307808.000000
-204984688.000000
150185504.000000
-188204768.000000
-419066080.000000
-83314872.000000
-517149504.000000
91491992.000000
-529580896.000000
143372672.000000
-446901344.000000
-446627296.000000
-153494032.000000
93449248.000000
-120155904.000000
-453755872.000000
-530916512.000000
35055256.000000
-460583904.000000
53617096.000000
-71112504.000000
-93080464.000000
-78858256.000000
33608444.000000
-22470930.000000
198999360.000000
43860404.000000
66476576.000000
-67259864.000000
-1715585.125000
-83857160.000000
-88938136.000000
-13335829.000000
70411784.000000
-66161692.000000
66266524.000000
-213324432.000000
116655928.000000
-88981712.000000
120644456.000000
101896992.000000
109924304.000000
64767388.000000
54971876.000000
90183152.000000
-58523876.000000
154988960.000000
68988720.000000
-10581353.000000
252889376.000000
188901440.000000
-115652376.000000
84948008.000000
22848344.000000
-70505864.000000
-70312120.000000
35567396.000000
-69669584.000000
-19847848.000000
79615824.000000
-47128660.000000
-59943440.000000
-79766288.000000
20733216.000000
-97976120.000000
216867056.000000
-63409148.000000
78683920.000000
138476032.000000
-125980456.000000
22070366.000000
-185761936.000000
43663236.000000
81659928.000000
26536072.000000
-81724080.000000
17353980.000000
159365488.000000
41501416.000000
-86688872.000000
-58242356.000000
95772816.000000
23648558.000000
117680176.000000
89662720.000000
68345808.000000
-223000480.000000
-36315384.000000
51834488.000000
81242072.000000
-98840312.000000
-90266480.000000
106572968.000000
21464332.000000
47110592.000000
25859774.000000
-136608432.000000
59269552.000000
104638992.000000
-73082864.000000
61258764.000000
1159316.625000
-131768872.000000
167792272.000000
-186414480.000000
98466744.000000
-290952640.000000
135206832.000000
159203056.000000
27431272.000000
108264440.000000
1117085.375000
387145952.000000
35334040.000000
-142503008.000000
211018784.000000
79686352.000000
-87845000.000000
-20697962.000000
-153509504.000000
29353684.000000
89345504.000000
121029960.000000
-124547688.000000
-193055008.000000
39406820.000000
-10734320.000000
-77441520.000000
-99101016.000000
-98168536.000000
214948048.000000
71643784.000000
-16230768.000000
-56606520.000000
-21627466.000000
105685352.000000
294771232.000000
-89216896.000000
67830304.000000
88108824.000000
-5316870.500000
-17569436.000000
195867536.000000
-90505488.000000
-95218504.000000
-136281136.000000
62763772.000000
193859776.000000
-110628632.000000
-198830336.000000
-229564464.000000
-528437920.000000
-116253128.000000
-16559961.000000
-245699584.000000
171224848.000000
-270689920.000000
109529872.000000
-13968503.000000
1060385.000000
-47462624.000000
-208958288.000000
459379744.000000
129177208.000000
-348564192.000000
675317504.000000
-144636176.000000
72452624.000000
116674104.000000
360497216.000000
1859597.750000
139813280.000000
537369728.000000
49772084.000000
67582000.000000
316820704.000000
486422592.000000
496714112.000000
313772768.000000
-80435896.000000
-41284208.000000
228286640.000000
235862992.000000
11115679.000000
233997216.000000
2806052.250000
50977168.000000
-73953576.000000
198004896.000000
359774464.000000
794284864.000000
-116885344.000000
135599280.000000
-679633664.000000
-228526608.000000
-70635000.000000
56327496.000000
22060782.000000
-9746347.000000
147050112.000000
-170413648.000000
103669016.000000
-268494368.000000
165173152.000000
158300768.000000
142543280.000000
355817280.000000
112972152.000000
-269472224.000000
-39970108.000000
610680320.000000
70776568.000000
53158984.000000
372632608.000000
-457387008.000000
453159840.000000
-49945832.000000
-178753456.000000
-77346072.000000
359309760.000000
-207351792.000000
97069832.000000
222117344.000000
72986504.000000
128215368.000000
227079984.000000
-210458000.000000
173662880.000000
62110724.000000
75967496.000000
765364224.000000
-71312888.000000
-130649816.000000
277470912.000000
229691888.000000
189493840.000000
10183442.000000
58571880.000000
-5547127.500000
-265728368.000000
204524448.000000
-52499600.000000
-152083200.000000
-29857914.000000
-291148384.000000
-54203848.000000
-19220186.000000
-94817448.000000
47452764.000000
322855200.000000
-229535744.000000
-222766928.000000
115062280.000000
206263888.000000
158552416.000000
168098096.000000
62715512.000000
285704032.000000
10261204.000000
-295236608.000000
17127896.000000
62298184.000000
121271072.000000
-307031040.000000
44805888.000000
163288624.000000
-149905424.000000
97196680.000000
141002336.000000
56050652.000000
-29921860.000000
381680576.000000
75412544.000000
102183128.000000
-171092032.000000
269208736.000000
-117972448.000000
215560896.000000
122382064.000000
570410176.000000
24448472.000000
-149650240.000000
202011264.000000
283092576.000000
173570080.000000
289957824.000000
42360144.000000
57597012.000000
-43530696.000000
-137670048.000000
411521952.000000
495016864.000000
22525320.000000
-165390800.000000
-312197536.000000
628246272.000000
219918976.000000
-15131721.000000
364487552.000000
-52551112.000000
-359975232.000000
-114746592.000000
78025416.000000
-222417712.000000
84261264.000000
-195673312.000000
-525150080.000000
-9151350.000000
-116761248.000000
-295101792.000000
-717510784.000000
216132720.000000
27211440.000000
262712976.000000
554291712.000000
413598048.000000
78380440.000000
429391936.000000
56075104.000000
-44818648.000000
-168985648.000000
223032512.000000
191598800.000000
-433335808.000000
461021472.000000
-184051440.000000
-27719706.000000
-474002912.000000
197403184.000000
547769344.000000
64167356.000000
-21336388.000000
52597100.000000
136089808.000000
32351500.000000
412827296.000000
298206912.000000
-169567712.000000
34938876.000000
25466714.000000
-448141568.000000
-67621776.000000
-529857184.000000
127696144.000000
542030400.000000
85959072.000000
-521904544.000000
-413960288.000000
90213344.000000
-566012.812500
-179688304.000000
-181743392.000000
-222843344.000000
349108096.000000
103408600.000000
-62596308.000000
85583320.000000
-423984960.000000
-137093696.000000
-169463072.000000
-135707232.000000
67697112.000000
64587452.000000
-368404256.000000
-410301088.000000
159828880.000000
-283104576.000000
-485480352.000000
-313054816.000000
-201793344.000000
-304237888.000000
-221356720.000000
-177857920.000000
-180332736.000000
-298036704.000000
-460013728.000000
-117133640.000000
-881464704.000000
-43572752.000000
-455969184.000000
-89451016.000000
-52929844.000000
80120216.000000
-488335808.000000
-420952256.000000
-260430784.000000
-503427808.000000
-131711760.000000
-508732896.000000
-315399840.000000
644761600.000000
-107107208.000000
-10390359.000000
-2233446.750000
-604356928.000000
295243648.000000
2831541.750000
-180873552.000000
-413662912.000000
-180661664.000000
-440211104.000000
-231733680.000000
205756464.000000
-178944528.000000
-327871712.000000
-408442016.000000
-117961776.000000
-283474944.000000
-427644224.000000
289562400.000000
-12576811.000000
610977600.000000
495767552.000000
-45004444.000000
-114263776.000000
-36082888.000000
-57991252.000000
-11202246.000000
127026184.000000
-90785752.000000
91694648.000000
63801620.000000
75626928.000000
343909472.000000
-378884192.000000
-645264704.000000
-58376960.000000
-71523288.000000
-44998400.000000
-250106752.000000
-337457952.000000
-225414528.000000
35665928.000000
181956800.000000
-336767552.000000
172303744.000000
-234390016.000000
6516595.000000
-69066888.000000
29041354.000000
-495358848.000000
94894056.000000
61452800.000000
-239671872.000000
-173636576.000000
-121882608.000000
-169624864.000000
-203885136.000000
-294238368.000000
-103850520.000000
-74003504.000000
-320342048.000000
-460700800.000000
-75067560.000000
332342144.000000
-172377008.000000
99523488.000000
-121557520.000000
27308154.000000
-63890736.000000
-157818832.000000
-282960736.000000
-52756236.000000
78187776.000000
-154127936.000000
-209720752.000000
-391863360.000000
-116640568.000000
-54110204.000000
204956080.000000
-122313304.000000
-591754688.000000
-299763008.000000
-345067936.000000
-248964400.000000
-16526088.000000
90845776.000000
-58495320.000000
-37006768.000000
15321032.000000
56276032.000000
71031320.000000
105145392.000000
45595488.000000
9202701.000000
116138784.000000
-138228256.000000
55439760.000000
-100526280.000000
-130559288.000000
-32768080.000000
64137016.000000
340957344.000000
-57070128.000000
195524016.000000
180483.953125
42876152.000000
93351240.000000
109715872.000000
-49693600.000000
-114874080.000000
25796754.000000
137119632.000000
-287431296.000000
13081242.000000
173180096.000000
-47262000.000000
69648992.000000
47557244.000000
-34786120.000000
-55258384.000000
-18986368.000000
-85280464.000000
218049824.000000
152921312.000000
-42860192.000000
130852080.000000
199756592.000000
188575856.000000
-26714562.000000
-158407152.000000
124199832.000000
41843156.000000
-139331904.000000
139190144.000000
14462280.000000
-9465432.000000
72491936.000000
92713088.000000
-20887810.000000
-43659456.000000
-36274356.000000
-69931184.000000
70211112.000000
153445600.000000
-63842460.000000
-138967440.000000
-247150320.000000
-87089160.000000
-220184512.000000
195405440.000000
-166257344.000000
-250478928.000000
-171311696.000000
163272992.000000
-4054551.500000
-278768288.000000
146133344.000000
175669472.000000
258479840.000000
253045536.000000
-200772400.000000
646733120.000000
-7876350.000000
58086004.000000
562246336.000000
-253691280.000000
85175776.000000
79810824.000000
333141280.000000
206251216.000000
8699937.000000
511017920.000000
91364672.000000
212078336.000000
292184256.000000
499349792.000000
63049808.000000
109200776.000000
-139178752.000000
680042176.000000
-147642128.000000
104100752.000000
196643232.000000
-60953804.000000
-161469408.000000
50094928.000000
47871276.000000
105954080.000000
410740032.000000
117093720.000000
212974672.000000
131958280.000000
-292182784.000000
-338483264.000000
27138810.000000
190916720.000000
307976544.000000
-216831488.000000
-66609664.000000
59950056.000000
108238352.000000
-276947072.000000
225869792.000000
486490400.000000
-108990952.000000
260705824.000000
-31288324.000000
-275644576.000000
128881808.000000
85662128.000000
50670864.000000
255121056.000000
86980240.000000
9658749.000000
40493420.000000
135395504.000000
-39820676.000000
-160004240.000000
19560502.000000
-30600308.000000
189257248.000000
-31694824.000000
-51955344.000000
-141920144.000000
-172457968.000000
97517440.000000
86397512.000000
-50441716.000000
83246552.000000
135587472.000000
-45401688.000000
30242876.000000
101877936.000000
22584542.000000
79231200.000000
22879586.000000
112519144.000000
-66506884.000000
-8206647.500000
80601064.000000
-139532912.000000
-332020416.000000
135442272.000000
38554088.000000
2340869.500000
71415600.000000
263626256.000000
10124416.000000
-150262528.000000
-171619904.000000
-28189226.000000
-214880544.000000
2848031.500000
-20711940.000000
77963432.000000
79920288.000000
-4394331.500000
236241008.000000
123780872.000000
222680064.000000
-108171248.000000
-53560236.000000
-208236688.000000
109024224.000000
-70899624.000000
-14041974.000000
189297904.000000
-58721228.000000
-34370272.000000
-2349248.000000
-45152172.000000
-38842428.000000
188650064.000000
37817580.000000
-79192528.000000
-13367675.000000
49108972.000000
101732568.000000
-183235072.000000
-136580640.000000
-84244712.000000
262337168.000000
69792248.000000
-94843360.000000
-46780684.000000
-29399868.000000
137872224.000000
97699800.000000
118242168.000000
6797910.500000
115126424.000000
128611888.000000
108568872.000000
-120046816.000000
28589886.000000
-188496144.000000
-155035696.000000
-169882880.000000
-96951224.000000
48547652.000000
55239832.000000
40781052.000000
138911088.000000
49187912.000000
-53017656.000000
-8425997.000000
1242442.500000
126110416.000000
195373328.000000
-184417360.000000
117470944.000000
-54047260.000000
60946884.000000
-47319936.000000
56604680.000000
184413136.000000
16973136.000000
-110377456.000000
-38673852.000000
114784976.000000
-360759264.000000
-99671840.000000
-48639584.000000
38167352.000000
16135720.000000
95058696.000000
102982000.000000
224615120.000000
123267184.000000
-236861888.000000
-236857248.000000
-27703286.000000
-12061474.000000
-67969480.000000
160750992.000000
-63612096.000000
-190995328.000000
-28602106.000000
210394832.000000
31804006.000000
-84716008.000000
-109891320.000000
41698396.000000
131603824.000000
588947904.000000
144382544.000000
269850304.000000
-269186976.000000
524213216.000000
239320896.000000
-561914048.000000
778219712.000000
100048920.000000
151256480.000000
75640160.000000
191717408.000000
-85485944.000000
301454208.000000
322998560.000000
496712736.000000
-281856032.000000
-490134464.000000
43338900.000000
-236757456.000000
-31954378.000000
-406659264.000000
193476288.000000
328452512.000000
-313617504.000000
52799796.000000
68087512.000000
259046992.000000
634401216.000000
232761536.000000
355975936.000000
212510272.000000
110352824.000000
-48642220.000000
235718560.000000
-166650192.000000
-271254368.000000
230822000.000000
92668992.000000
209842096.000000
102685056.000000
614821440.000000
680353408.000000
-200572144.000000
148592240.000000
-106003096.000000
-73083792.000000
265710688.000000
4336074.500000
13629173.000000
-473499776.000000
-13889055.000000
-562020032.000000
589427584.000000
462059424.000000
19848148.000000
522064640.000000
-198469872.000000
-557010944.000000
149768656.000000
-214072368.000000
-120580928.000000
106007880.000000
305231744.000000
-46606556.000000
85058104.000000
-316549472.000000
-396528928.000000
-88069864.000000
97253144.000000
79924064.000000
-69176224.000000
-299957472.000000
-102250896.000000
57186072.000000
-102520688.000000
174182096.000000
-484370880.000000
-345550464.000000
-356592672.000000
186790240.000000
102381888.000000
132502200.000000
102556688.000000
419942400.000000
421750560.000000
114208240.000000
-317772896.000000
-306993472.000000
-144798880.000000
-191078240.000000
-457688704.000000
-281749728.000000
-92074784.000000
42379576.000000
-104137688.000000
-31132484.000000
-428588288.000000
-138280048.000000
-328140960.000000
276562080.000000
-157997088.000000
61632136.000000
50790452.000000
450295840.000000
-263357408.000000
49134476.000000
191735280.000000
-401666912.000000
-33219426.000000
217327872.000000
-175152432.000000
-324587424.000000
235951936.000000
184624544.000000
172222208.000000
17924256.000000
-66261008.000000
-308606080.000000
430945536.000000
-80302600.000000
355261728.000000
-205968656.000000
-67331584.000000
-3197029.500000
-143796400.000000
-21707646.000000
-115410304.000000
377846016.000000
-246477408.000000
128731592.000000
162604560.000000
68717608.000000
-144215152.000000
45975832.000000
-11329831.000000
123327552.000000
217226368.000000
-51135480.000000
-37198288.000000
25395246.000000
79473872.000000
-66786316.000000
-45692812.000000
-77858664.000000
105021928.000000
-26465792.000000
-78411896.000000
-10831900.000000
-42176224.000000
107277480.000000
-7723087.500000
-156534016.000000
225648848.000000
-219410832.000000
46529832.000000
111253824.000000
-107778272.000000
-104984592.000000
11247389.000000
52668308.000000
-48010940.000000
61594104.000000
77590920.000000
-207374064.000000
36242636.000000
-2247853.500000
-190598960.000000
8437667.000000
3661284.500000
-105802744.000000
-27804270.000000
-6037961.000000
8562868.000000
173027696.000000
151852032.000000
65440268.000000
-145853968.000000
-213712928.000000
-122784200.000000
111764048.000000
-7744878.000000
125904096.000000
-125881568.000000
99991760.000000
59416476.000000
-130712496.000000
77093024.000000
128414544.000000
125243832.000000
8573548.000000
-39585124.000000
-114666600.000000
-102909328.000000
11919698.000000
90266872.000000
83128432.000000
34007252.000000
-105543224.000000
-21989064.000000
-65427132.000000
68361840.000000
277735072.000000
-134540208.000000
95412184.000000
26416578.000000
155842080.000000
105668208.000000
-21171168.000000
54109608.000000
18106144.000000
-54601120.000000
55855868.000000
-63090116.000000
35509032.000000
90511680.000000
153933456.000000
-25659622.000000
19877652.000000
-68904608.000000
67068352.000000
140432000.000000
44731532.000000
33610540.000000
160444432.000000
121681728.000000
-103091472.000000
115539952.000000
24018620.000000
-1621171.750000
42590216.000000
34522948.000000
-743474.187500
40634064.000000
41806632.000000
-37894408.000000
-70917272.000000
12231975.000000
18729130.000000
103275040.000000
59668692.000000
223104032.000000
106350360.000000
-142370640.000000
-30901988.000000
49510508.000000
88961440.000000
70932312.000000
-15659545.000000
16666347.000000
-107971952.000000
-35259096.000000
106503056.000000
73309896.000000
45360796.000000
22009818.000000
28783236.000000
-43763724.000000
-927376.000000
-18757912.000000
-74340248.000000
64435356.000000
121484696.000000
-53909280.000000
-56197384.000000
-22516372.000000
-18827368.000000
-108921784.000000
73965168.000000
119370080.000000
-20276640.000000
137551312.000000
113767192.000000
17391370.000000
-61214904.000000
-20354538.000000
-69703376.000000
-186463008.000000
-48949176.000000
12950231.000000
-70647224.000000
-88712968.000000
-21761946.000000
32286860.000000
143906848.000000
87649624.000000
68504224.000000
24777826.000000
-133018632.000000
-44931580.000000
-201972272.000000
59019296.000000
106519424.000000
7669780.000000
-134317328.000000
126085240.000000
61561616.000000
148218688.000000
10896365.000000
1229548.250000
100358024.000000
-133283232.000000
-190061616.000000
79862648.000000
89497176.000000
55327940.000000
84245568.000000
-69325448.000000
156916560.000000
68545432.000000
-93821816.000000
-72351552.000000
-17907002.000000
-42646152.000000
-33130252.000000
1996196.625000
-25268250.000000
-102154592.000000
-17969226.000000
122805568.000000
75588232.000000
-28850626.000000
125927184.000000
31312182.000000
60223568.000000
115963376.000000
-116261768.000000
60303380.000000
238883632.000000
135481040.000000
15609197.000000
28129504.000000
143455776.000000
-96518320.000000
41755336.000000
-12270685.000000
15722356.000000
8586064.000000
-103552368.000000
324494752.000000
333817952.000000
-79076040.000000
71663592.000000
25324630.000000
241726816.000000
-312542048.000000
-10322525.000000
105199544.000000
-326982656.000000
-120732984.000000
367881056.000000
-76714848.000000
184451600.000000
80448064.000000
-109196160.000000
311176768.000000
-101355776.000000
102257872.000000
188651584.000000
365420064.000000
-26474984.000000
-207386896.000000
293081504.000000
85906312.000000
254550944.000000
5879983.000000
232770720.000000
176033568.000000
27164616.000000
48551500.000000
-381554208.000000
6657695.000000
41836996.000000
26509678.000000
179661664.000000
-200933360.000000
138752192.000000
29971300.000000
88341536.000000
-393483040.000000
315101120.000000
304939584.000000
-64949024.000000
22382754.000000
2578855.500000
154537536.000000
198351952.000000
-210315056.000000
23910412.000000
2481069312.000000
485097152.000000
-738770944.000000
-1038673984.000000
-840682496.000000
406809216.000000
-385867072.000000
455191552.000000
-710842944.000000
-776303104.000000
532766176.000000
-265197520.000000
-66790844.000000
-1093382272.000000
-394509248.000000
-349236512.000000
-811628096.000000
423988448.000000
-452117440.000000
1518477.375000
-419997632.000000
387360416.000000
-736691200.000000
-1319195904.000000
-33092784.000000
-550600128.000000
301806208.000000
-914289664.000000
-143550912.000000
-372625024.000000
-644529024.000000
-905969984.000000
-1059202048.000000
-662873920.000000
-279059904.000000
-806911616.000000
-15767505.000000
-673401600.000000
-586585920.000000
-362492896.000000
-529267328.000000
-358518080.000000
-310344352.000000
583043904.000000
-334423360.000000
-871157504.000000
213489856.000000
85665016.000000
55855452.000000
241316960.000000
-410018336.000000
-75011032.000000
-918791872.000000
448176608.000000
-958754880.000000
-85436640.000000
-960747072.000000
292062688.000000
-40683280.000000
461810848.000000
-109374520.000000
-477107616.000000
-770372544.000000
6790931.500000
-371101440.000000
-146251744.000000
-359268096.000000
-771082688.000000
-95467896.000000
-202907072.000000
-437251776.000000
414630016.000000
-448156800.000000
286860896.000000
477185696.000000
164070784.000000
458057984.000000
-242051968.000000
501175168.000000
-348299904.000000
-356455456.000000
191705328.000000
-203318384.000000
101890648.000000
103943992.000000
137427424.000000
-184291984.000000
133062256.000000
541696128.000000
-237202688.000000
47221484.000000
216814880.000000
-125959488.000000
-314836288.000000
852409344.000000
391015200.000000
-322474336.000000
398742656.000000
-251401792.000000
-244317472.000000
1155331840.000000
-51393384.000000
119852904.000000
-199771440.000000
-51192812.000000
132801184.000000
609671616.000000
15473790.000000
257538448.000000
-679289664.000000
-258666720.000000
-232632528.000000
175904944.000000
-475690208.000000
-356467264.000000
-45953156.000000
109573360.000000
520577056.000000
-447119744.000000
-66991472.000000
165948512.000000
423315232.000000
446505664.000000
-38784932.000000
-446002880.000000
-279507136.000000
886870144.000000
50278080.000000
54693784.000000
568438976.000000
231577360.000000
137322512.000000
115534776.000000
-179394128.000000
41562836.000000
129261784.000000
92126944.000000
-16482485.000000
-33338992.000000
-107682840.000000
-148535920.000000
-114309920.000000
58005892.000000
-38727780.000000
-157292592.000000
-37202852.000000
94216968.000000
22063402.000000
181105216.000000
56467768.000000
124419848.000000
361752288.000000
203592912.000000
30900126.000000
32480700.000000
-85584960.000000
-187042448.000000
-100261280.000000
-100338320.000000
-51309112.000000
51594816.000000
2136127.750000
-80997288.000000
-80310152.000000
-122050736.000000
15537597.000000
169652224.000000
84243136.000000
-44767552.000000
-29738690.000000
123895168.000000
-115563744.000000
96861496.000000
225158432.000000
-76382272.000000
-28200202.000000
58289592.000000
-115359168.000000
-57200040.000000
-95975808.000000
144339456.000000
12748960.000000
-69981208.000000
-12197307.000000
-53583372.000000
384875072.000000
-27784676.000000
128565000.000000
-1482072.000000
-13861773.000000
12372045.000000
-166750032.000000
104570872.000000
40998648.000000
244619840.000000
-132740416.000000
145274528.000000
89775856.000000
-2078816.250000
19262942.000000
143155488.000000
-41763688.000000
16585027.000000
139253408.000000
-53337332.000000
12562062.000000
-7813710.500000
-81422048.000000
32738720.000000
229354608.000000
-51831024.000000
33148582.000000
59559872.000000
41973832.000000
146282944.000000
9718270.000000
185414592.000000
81016384.000000
66488696.000000
128986136.000000
127630952.000000
45971992.000000
339830048.000000
-52279416.000000
-48744960.000000
-16962610.000000
224556400.000000
-107827360.000000
127346936.000000
11499491.000000
-177739120.000000
3689247.250000
106687768.000000
-55094452.000000
140430848.000000
-24805846.000000
74325288.000000
139581040.000000
190516896.000000
94300648.000000
-108120152.000000
101635816.000000
-21551402.000000
113045608.000000
-10497959.000000
-59016932.000000
87876040.000000
-210084784.000000
14716896.000000
404048.125000
293253408.000000
-122833152.000000
-84492688.000000
78224248.000000
16610490.000000
79087104.000000
-196080272.000000
57170196.000000
8053261.500000
-2493385.500000
-82455280.000000
-68194856.000000
4192656.000000
13672319.000000
-52164928.000000
-186962384.000000
96255488.000000
49197320.000000
-162744768.000000
-76116792.000000
-318316832.000000
234373024.000000
-212457536.000000
-340881856.000000
-1656038.125000
6014284.000000
-492491328.000000
-99023664.000000
222552896.000000
-91058904.000000
-53174676.000000
-262297488.000000
243709536.000000
44399832.000000
-60998664.000000
316514208.000000
-130564608.000000
189771632.000000
-122904472.000000
253391968.000000
366074112.000000
321380608.000000
-139676512.000000
-67200448.000000
-162089152.000000
133707040.000000
-307238464.000000
34247796.000000
-191024368.000000
315117152.000000
77122024.000000
-164020832.000000
429523328.000000
-102485080.000000
-210903856.000000
31903424.000000
-161697040.000000
63428504.000000
-263861408.000000
-380953856.000000
-96349720.000000
-28529196.000000
-193129728.000000
54646248.000000
265568288.000000
153918384.000000
229365008.000000
-237523648.000000
-96971544.000000
49800384.000000
78647104.000000
164589264.000000
-85078720.000000
11038232.000000
163499680.000000
137922928.000000
-41572716.000000
226175904.000000
122782112.000000
-220385584.000000
-22773250.000000
88880736.000000
188416768.000000
-7336270.000000
83163888.000000
21717682.000000
515995936.000000
98266792.000000
-143873168.000000
500206656.000000
-161430784.000000
-136012912.000000
-266490992.000000
-171373184.000000
16685267.000000
-103412928.000000
11777052.000000
-341404448.000000
-219762048.000000
66274672.000000
122614192.000000
29187856.000000
-259665680.000000
334484192.000000
304407488.000000
175544704.000000
-380768416.000000
-47168480.000000
16418317.000000
-389327936.000000
77636688.000000
-98750056.000000
-300757024.000000
-147188800.000000
-41345564.000000
-54368804.000000
138418624.000000
362100896.000000
55613876.000000
-20377886.000000
234509216.000000
92347112.000000
144216640.000000
-228255856.000000
-60936676.000000
77337112.000000
-209128544.000000
-220720224.000000
191676656.000000
183396944.000000
265291360.000000
-71418984.000000
332269376.000000
-61967812.000000
185869840.000000
-35053848.000000
101936496.000000
-428517280.000000
53577456.000000
243652880.000000
116793960.000000
-26815266.000000
190419440.000000
247925552.000000
-39886112.000000
4915119.000000
128291224.000000
-47673992.000000
218165760.000000
82921480.000000
59675132.000000
73832000.000000
-21619554.000000
-33293784.000000
-146967776.000000
299407520.000000
-202245136.000000
-18393502.000000
-77863712.000000
-169064240.000000
-212025504.000000
-323018912.000000
-109650736.000000
140258544.000000
183106768.000000
-193160864.000000
-6298432.500000
74602448.000000
162378416.000000
223404912.000000
153081440.000000
182980896.000000
-66739088.000000
-104382616.000000
-150867168.000000
89237304.000000
-84245384.000000
-207696560.000000
103400048.000000
38134196.000000
-10281427.000000
-95026968.000000
164443584.000000
-46829508.000000
110603904.000000
201405888.000000
-311026400.000000
87253608.000000
81754672.000000
247140.109375
-226657376.000000
-263763216.000000
-32240264.000000
-48643776.000000
295087904.000000
765234.500000
210065120.000000
-194543888.000000
86617824.000000
-46433712.000000
169146880.000000
-34389740.000000
16335245.000000
-51303460.000000
-183681856.000000
26281270.000000
223584896.000000
-159765856.000000
-298489344.000000
-199194176.000000
159378800.000000
91884560.000000
-137352864.000000
-217954848.000000
-62564852.000000
-121925984.000000
-122770392.000000
-144960400.000000
-1135362.875000
-123169384.000000
-350826784.000000
-194723072.000000
294516480.000000
36508400.000000
-71794568.000000
230959744.000000
134789872.000000
221416768.000000
-358231520.000000
-75205736.000000
-212079904.000000
-165953408.000000
-477742816.000000
-164989360.000000
-149524272.000000
-208043680.000000
-178583952.000000
-238733632.000000
-351890784.000000
-345554208.000000
-314193792.000000
-252136352.000000
-195616080.000000
-188036304.000000
-115710072.000000
105367168.000000
96164856.000000
-229537664.000000
-38610700.000000
157068368.000000
-211931952.000000
-84975920.000000
-138207840.000000
-206555024.000000
-17681906.000000
-168476784.000000
167852608.000000
-240192816.000000
-143031232.000000
-338050336.000000
-35197928.000000
-226159488.000000
-7505076.000000
9765053.000000
-132430440.000000
-208272608.000000
-273324288.000000
-262439984.000000
-229584096.000000
-87436992.000000
1230907392.000000
166095568.000000
-130368960.000000
26291962.000000
68015944.000000
70543608.000000
-398241536.000000
-10790027.000000
-162791280.000000
42538848.000000
6676647.500000
-368273344.000000
11174320.000000
-621614208.000000
-3528476.250000
-145218368.000000
-549724352.000000
-128918912.000000
430321696.000000
228647264.000000
-582283264.000000
-202306368.000000
-392364320.000000
-460345088.000000
-284585280.000000
-84644624.000000
-82862008.000000
-454496480.000000
-212028896.000000
-499767456.000000
-284047584.000000
-209717232.000000
50523680.000000
-74732776.000000
-66711648.000000
-611489472.000000
173865520.000000
60899544.000000
87898632.000000
-321868960.000000
-530387872.000000
-237342688.000000
-553923648.000000
-29725670.000000
-613887424.000000
175367616.000000
252553424.000000
-11829946.000000
-108236848.000000
227691248.000000
111300704.000000
307200160.000000
167506304.000000
-6511940.500000
-4800625.000000
-555372096.000000
-675353728.000000
-479541664.000000
-2459740.000000
-7517245.000000
-44616412.000000
-872901696.000000
381206432.000000
-363907808.000000
-457663488.000000
-315654656.000000
311485632.000000
250287152.000000
-79801320.000000
-88010264.000000
128958280.000000
-44034448.000000
-82968992.000000
253453200.000000
100285032.000000
-25378848.000000
-123939600.000000
-120790568.000000
123095656.000000
-261802624.000000
104491624.000000
60075776.000000
-93176104.000000
169291296.000000
21365744.000000
78715888.000000
12619335.000000
34999244.000000
19330036.000000
200186448.000000
-145322016.000000
-46990480.000000
265989904.000000
-10266919.000000
-116131152.000000
-161644080.000000
204914768.000000
-314543552.000000
-115127808.000000
-57947516.000000
-24081810.000000
-135555488.000000
25595462.000000
-182010464.000000
144140048.000000
157106704.000000
214280096.000000
331726528.000000
1447338.500000
-188623936.000000
-64252968.000000
31803944.000000
220904272.000000
-37966172.000000
-521941184.000000
-123561600.000000
70401704.000000
-132154288.000000
-75853624.000000
240667392.000000
346054112.000000
-17859662.000000
-112767880.000000
13391382.000000
-75769800.000000
57416584.000000
-66881504.000000
-196686704.000000
29425216.000000
-41535852.000000
-79481608.000000
241038128.000000
205231792.000000
235081280.000000
183771168.000000
220964336.000000
283333376.000000
-88463672.000000
31717596.000000
63948432.000000
22912382.000000
-306567104.000000
469626560.000000
-227532688.000000
-106119840.000000
-68552864.000000
153203024.000000
5748491.000000
-176454880.000000
136466816.000000
-44595396.000000
-211691920.000000
-144362672.000000
123975376.000000
-63985252.000000
-141349920.000000
-333074144.000000
-346696800.000000
-175457312.000000
92203440.000000
91653528.000000
-554847104.000000
157509680.000000
-255395328.000000
33031096.000000
288170496.000000
342795488.000000
-25958462.000000
259266240.000000
-333598816.000000
242738192.000000
-154544176.000000
-110380480.000000
-103631888.000000
-247915744.000000
378110688.000000
18222280.000000
-209450512.000000
-281866816.000000
335762720.000000
-20544850.000000
-207760032.000000
-156522112.000000
-85063744.000000
252897728.000000
115410320.000000
256913152.000000
-6049055.000000
-160058320.000000
-84536904.000000
106859024.000000
-493717440.000000
-97541008.000000
-299246496.000000
16884968.000000
-45555096.000000
-169145968.000000
-107965176.000000
13408686.000000
91280776.000000
-73258872.000000
67157824.000000
41584376.000000
-51227240.000000
-131674352.000000
-2629620.000000
-73776160.000000
102374384.000000
-127716536.000000
105239488.000000
-112759280.000000
88937544.000000
-219665792.000000
-20029382.000000
-4948386.500000
179579744.000000
170216528.000000
54503812.000000
-30188600.000000
-77614576.000000
69232424.000000
-34577428.000000
87556136.000000
117589576.000000
116952904.000000
260593552.000000
110142024.000000
42413564.000000
-19332876.000000
-68411368.000000
-23441356.000000
221034064.000000
43638000.000000
-67640928.000000
-32316594.000000
168183952.000000
53268916.000000
-40934256.000000
-79474344.000000
-115554072.000000
-12843851.000000
128028288.000000
-190167328.000000
-86239056.000000
268832032.000000
39285836.000000
-93877536.000000
-188559296.000000
41058316.000000
1481247.625000
65602568.000000
21215504.000000
107357888.000000
-84791536.000000
33410616.000000
78868736.000000
-86020872.000000
67839112.000000
61126340.000000
267864384.000000
1504579840.000000
-31075348.000000
-117599624.000000
-560275648.000000
-113186144.000000
-83576600.000000
-310189696.000000
603400896.000000
-84130968.000000
-701736896.000000
184423872.000000
-292384992.000000
502228416.000000
-738106112.000000
32445690.000000
253440336.000000
-325951744.000000
-32286654.000000
-27103516.000000
-52440420.000000
-613096384.000000
496254976.000000
-646267136.000000
-268776352.000000
-54768324.000000
-60249336.000000
193978096.000000
226077232.000000
118047048.000000
130209232.000000
235153808.000000
-167050320.000000
68289488.000000
-616000448.000000
-158532896.000000
-533084480.000000
466862048.000000
34621152.000000
126668424.000000
-444007296.000000
-377289760.000000
-362903456.000000
166930832.000000
-147483504.000000
-586239936.000000
-299129664.000000
1000813696.000000
-353334752.000000
104210872.000000
284954432.000000
-135131536.000000
295180704.000000
-598823040.000000
616291712.000000
129047888.000000
77749288.000000
-348350144.000000
364294272.000000
-274325248.000000
600998272.000000
341114880.000000
-483712096.000000
309709792.000000
449344128.000000
349830784.000000
-250445216.000000
61850900.000000
-437511584.000000
-571035328.000000
-75484440.000000
52166984.000000
42319828.000000
33207614.000000
-550232064.000000
-465752256.000000
-71881456.000000
-74168592.000000
75108152.000000
-295682816.000000
-92008928.000000
-638980992.000000
594578944.000000
195682224.000000
110054200.000000
140213024.000000
373080224.000000
620631616.000000
-1458927.500000
-285144512.000000
-315204352.000000
-123756848.000000
-147382240.000000
-217537456.000000
95703120.000000
-137726480.000000
-136806752.000000
60633276.000000
-11785385.000000
-593529152.000000
-255846624.000000
-369235200.000000
129856152.000000
-66991976.000000
-238153536.000000
-381752192.000000
343350048.000000
66548340.000000
-52341288.000000
231028912.000000
-392042464.000000
-188021536.000000
294165408.000000
-160045232.000000
-252351792.000000
328591584.000000
-9829814.000000
186338704.000000
-190265280.000000
30393244.000000
-717561536.000000
761799424.000000
-81055232.000000
507272320.000000
-187993264.000000
33852616.000000
-170356656.000000
-103063376.000000
-252053456.000000
-295005600.000000
483028800.000000
1381585408.000000
13671281.000000
657681856.000000
52444876.000000
241631904.000000
-18504280.000000
-808889408.000000
-245867664.000000
-111077944.000000
386614688.000000
-187471232.000000
-117711424.000000
318124160.000000
144218976.000000
346024896.000000
85856568.000000
-392586624.000000
110622232.000000
226076624.000000
410566144.000000
-895942400.000000
-749633600.000000
-490468096.000000
412306208.000000
78478240.000000
110944952.000000
491968000.000000
-415237632.000000
-141983568.000000
-307703648.000000
-174832240.000000
-362434464.000000
510750464.000000
335866272.000000
-310908320.000000
-147445376.000000
220833632.000000
45831028.000000
298952640.000000
293143616.000000
-898674688.000000
49909104.000000
-51581756.000000
-14256487.000000
318056768.000000
191186112.000000
295372224.000000
-460093856.000000
-579791296.000000
-256619776.000000
332666848.000000
77314728.000000
170706560.000000
-246719840.000000
-4110710.250000
-549391616.000000
-137389776.000000
-154176400.000000
96751192.000000
-246169008.000000
270778720.000000
29190306.000000
347708736.000000
-169435808.000000
-342802080.000000
-267252880.000000
141286864.000000
192749888.000000
-189884528.000000
-214342192.000000
41344224.000000
246100768.000000
68827016.000000
-170258576.000000
-165094064.000000
-302888256.000000
679351232.000000
-345065056.000000
245111040.000000
-125939504.000000
-506230048.000000
-91568024.000000
137685344.000000
-148329664.000000
90100808.000000
88716936.000000
61187204.000000
77929936.000000
-11020215.000000
122178080.000000
-138226352.000000
-343144096.000000
-423037152.000000
26192188.000000
-229954000.000000
47156736.000000
-391836448.000000
206819808.000000
-189952176.000000
-325014976.000000
23724538.000000
-186542016.000000
-22160654.000000
-137798448.000000
24898046.000000
-12901722.000000
-12826296.000000
-375196416.000000
-43999276.000000
106421688.000000
22314686.000000
9794223.000000
75392696.000000
-294142624.000000
-278418688.000000
63143716.000000
121102480.000000
115005376.000000
71291120.000000
-103239864.000000
359300352.000000
198435520.000000
-36652860.000000
259070304.000000
76440408.000000
-236548128.000000
1234121.875000
-233936800.000000
-27438140.000000
-38665824.000000
755632704.000000
-380833920.000000
106170440.000000
-318845824.000000
283429824.000000
-300191584.000000
-495943808.000000
441493568.000000
153557248.000000
-179725632.000000
587482240.000000
-257408208.000000
-2754585.250000
-225438384.000000
-5447775.000000
58560060.000000
-344063264.000000
-303717600.000000
25898804.000000
-205237184.000000
-367127904.000000
32282350.000000
-639165888.000000
-154556240.000000
-87345504.000000
47107132.000000
39174536.000000
74578088.000000
45999168.000000
-301675872.000000
-224684592.000000
-378732576.000000
165031344.000000
-42730176.000000
570258816.000000
-271003968.000000
210338352.000000
254915440.000000
42164400.000000
-424131776.000000
-304802816.000000
-441801856.000000
-181924384.000000
-283408960.000000
-100370240.000000
-410432416.000000
-59881016.000000
39477812.000000
312245120.000000
18456772.000000
-97265104.000000
-282352960.000000
-123653544.000000
442509792.000000
-55258024.000000
-127352656.000000
-662477504.000000
-263546208.000000
-166004800.000000
437402720.000000
174293520.000000
-4378343.500000
78930432.000000
318146976.000000
-224377472.000000
-516157600.000000
497680768.000000
822501952.000000
364930144.000000
31883118.000000
324105248.000000
97696144.000000
-287037568.000000
756284864.000000
-166617296.000000
8303619.000000
-30982524.000000
361320192.000000
-493844512.000000
-207449824.000000
404320032.000000
-124864752.000000
-228853616.000000
-47603996.000000
-255215568.000000
-406229664.000000
-268714848.000000
-332883840.000000
43109108.000000
210608176.000000
-357135136.000000
-224124448.000000
192029664.000000
-107580184.000000
289096704.000000
618464512.000000
559178752.000000
98055712.000000
-19710320.000000
250898000.000000
368789760.000000
-74945984.000000
163846576.000000
-88754904.000000
-42390776.000000
232397552.000000
-429581152.000000
577533696.000000
23209194.000000
-391208288.000000
565189696.000000
-264712624.000000
10908563.000000
89684712.000000
-84380848.000000
-383320416.000000
-360864832.000000
-204058832.000000
-285890720.000000
545853440.000000
641018240.000000
265145456.000000
-256606896.000000
-260781728.000000
-291231744.000000
468002720.000000
-238281696.000000
264945216.000000
414856448.000000
158162064.000000
2829035008.000000
1430552832.000000
-915696576.000000
-1184716928.000000
382871040.000000
1431964288.000000
-190027072.000000
-827086464.000000
-870317120.000000
470490912.000000
-7153020.500000
-284940096.000000
-119391856.000000
196092128.000000
-1381178368.000000
-714216320.000000
2000664960.000000
-792832128.000000
-166602160.000000
-337675296.000000
133488520.000000
86594216.000000
-26212394.000000
656479168.000000
-237550224.000000
209927888.000000
-292195456.000000
-1555498496.000000
-156790432.000000
622050944.000000
374346336.000000
-281903168.000000
440759136.000000
-1111235840.000000
738772416.000000
-251405376.000000
217816240.000000
484251680.000000
288230688.000000
923049408.000000
373150048.000000
455435360.000000
849433216.000000
1633181184.000000
-1280426112.000000
-850122048.000000
-34693476.000000
576605632.000000
-1014113024.000000
109955864.000000
-203480656.000000
-224251520.000000
798298048.000000
-811786944.000000
-40436808.000000
738283456.000000
304282368.000000
1066679552.000000
-296824000.000000
-826272448.000000
-241158112.000000
234578704.000000
714288256.000000
-720986624.000000
842307008.000000
-160337968.000000
-1666759680.000000
-2380842752.000000
-369082048.000000
-602087232.000000
60079456.000000
-133699080.000000
-607432896.000000
-374316544.000000
-94263704.000000
-57886464.000000
-31475376.000000
178583008.000000
-100005824.000000
-61726196.000000
-428262944.000000
78760824.000000
139146512.000000
-160440464.000000
-29425848.000000
-558250688.000000
-698235520.000000
-164051824.000000
-152716448.000000
67804944.000000
-15334475.000000
-49460392.000000
-449886624.000000
-138589264.000000
268777728.000000
-653840000.000000
-491939456.000000
25247726.000000
-515694752.000000
-322654880.000000
-396127424.000000
-173762992.000000
-499009504.000000
595490560.000000
71867200.000000
-390500544.000000
85986064.000000
-553317504.000000
118103112.000000
-16323463.000000
-96477232.000000
-91677728.000000
-501179072.000000
-97906520.000000
355499616.000000
41189092.000000
-290563264.000000
64450000.000000
-597742528.000000
-226527728.000000
237483648.000000
-615857088.000000
173235072.000000
-425708928.000000
-626652800.000000
-557107648.000000
-9676267.000000
1121177856.000000
146934096.000000
-133801672.000000
131146960.000000
2224.956299
1831.932739
1214.636475
2513.845459
-3291.998291
1018.503540
-2139.668945
5681.640137
412.198883
5347.939453
-3402.422852
-7698.022949
1561.805786
-566.188477
2733.053467
-1068.334717
-4769.023926
10395.573242
-1185.800781
5885.142578
-9072.721680
-888.389526
-3313.929932
483.910400
1496.899780
-466.036804
-2857.616455
-5172.409180
-914.582703
-716.682312
-511.695496
-8160.253418
6639.463379
-627.937317
-3730.497559
-3779.122559
1167.459351
2159.899658
1596.228516
-11655.144531
906.341797
2208.224854
-1808.618164
-843.454041
2705.249023
9.899176
-7994.674316
-2548.415771
-1582.111206
-2177.604492
-1813.368652
-6653.411621
5304.134277
430.403748
-4065.622559
-9459.347656
7473.355957
-10388.901367
8529.208008
691.225830
-2896.242188
1323.838989
-16112.685547
-10430.314453
150973.093750
-545.852234
946.810425
1749.480591
5463.037598
-2289.048828
-4802.511230
-696.370605
8336.200195
-4821.611328
3699.993408
-3356.993164
-2209.195068
-940.104858
497.694061
3237.141357
1670.485474
1440.981445
6972.209473
-1496.002808
3603.608398
2042.960327
4386.567871
-3224.798584
-435.371246
2544.774658
5145.934082
-563.926025
-4822.634277
-523.439331
5768.791016
-2707.620605
-1982.933594
9203.300781
1888.541138
-5345.818848
-1138.906128
691.841370
2121.120850
4559.695313
-4270.510254
2260.795410
2213.274414
-3331.539063
8071.601563
1631.022827
916.948486
-3028.500488
-3842.596924
-2271.364990
-6370.974609
-3609.091553
-1215.116943
3619.185059
-5670.466309
131.491211
-6212.372559
-613.615601
-4162.770020
2197.699707
-552.168335
-2054.152100
-4326.040527
-3512.963379
-4172.899414
62263.289063
-15810.610352
28870.363281
-13504.043945
1070.062622
-8237.340820
770.165222
-2033.113647
-14713.827148
-1455.805542
-4517.896484
-7447.714844
-19251.662109
-3473.994873
-5873.004395
67.479225
2456.963379
-10342.023438
-12690.976563
-9883.291016
4950.583984
-15300.238281
-7922.710449
18057.357422
-14935.317383
-12647.030273
-5024.760742
-12856.659180
-543.561157
-951.074585
4895.078125
5354.629395
-93.477264
-10429.091797
-5842.982910
-5034.738281
450.504974
14036.581055
-2291.760986
-5195.580078
-11178.706055
-4682.252930
-77.974617
9510.630859
-3888.100342
-12276.385742
13042.153320
3600.931641
-3558.276855
8987.015625
-6325.275391
-6629.091797
-15413.205078
11322.874023
-4925.488281
-10247.835938
-11791.359375
-17943.669922
-28869.058594
204.118820
-1398.540527
-485.657349
-13876.779297
-43198.085938
-24878.830078
245430.937500
2413.798584
4079.836670
1540.468140
2660.007324
-697.313477
3321.566895
21.148512
3015.318848
2370.646729
2776.018066
-2562.402100
-6879.750000
493.388885
-1687.185303
1470.568481
-3014.770508
-11295.699219
12516.561523
4020.215088
3633.583008
-14264.246094
-4858.493164
-1067.244751
-1873.421997
-1114.420410
1317.562866
-2075.953857
913.619690
-185.515320
-3238.955078
-32.662453
-11764.766602
5453.935547
-2662.083984
1280.498901
-3175.310303
-286.571899
-977.395020
1904.014648
-13368.053711
516.440613
492.921478
1334.754761
-4099.839355
5306.348145
3455.774414
-7833.437988
172.413818
4726.362305
2672.301025
3769.000732
-9893.054688
6641.268066
4529.888184
-8083.264648
-4790.835449
9864.787109
-11592.027344
6974.326172
639.038574
-1403.347412
2958.564453
-23816.207031
-6703.146484
229140.781250
9485.294922
3346.355469
-2313.673828
12285.343750
2373.432617
3877.079346
-1930.287598
17122.310547
-12768.722656
6830.968750
-1719.138306
-3374.897461
2782.745850
454.805145
3915.838379
-3003.696533
-4480.264160
-4091.502686
3264.818604
3833.496094
4875.446289
9573.102539
-6327.983887
1353.206299
-3998.616455
2629.808594
-5920.733887
4411.395996
5835.199219
12375.309570
303.584930
-1602.568970
2180.598633
-3388.994873
3514.579590
5455.115234
3964.874268
-6945.000488
3645.876221
-4169.010254
6960.438965
3210.682373
-3664.791992
5544.478516
-13346.886719
11079.991211
-3576.070313
5595.606445
-6353.869629
-5185.435059
-2188.812744
6924.450684
2611.442627
3217.504883
-5012.860840
1700.422485
-13067.320313
-2532.302979
-2353.040283
-6224.179688
1523.534790
-7668.928223
-14118.891602
1280.914185
281732.437500
-2507.135254
2706.937012
305.851868
4702.128418
-3729.974854
-496.964874
-1866.377319
2083.559326
-904.002014
3037.784668
-3107.814697
-5074.408203
1734.885986
68.716568
720.990295
-1683.506836
-9210.951172
15551.607422
1707.044067
4483.717773
-11768.257813
-3054.483887
1865.915527
-2378.003906
-2581.577881
-1182.784180
-2284.877197
1873.466064
-24.042059
-831.164490
-6885.621094
-7530.968262
10141.584961
-2637.034424
-280.467712
2397.801025
-3832.847900
-431.569427
1835.044067
-14882.627930
1868.834961
202.849899
-2320.709961
1376.770020
6870.985840
511.446716
-579.058350
2560.421875
9676.301758
-2448.159668
2338.809814
-13208.194336
3977.344238
-1778.771240
-7007.206543
-5707.663086
11969.168945
-11178.309570
5049.889648
-1841.049316
-1389.941406
-1080.171509
-24058.433594
-6234.499512
228578.015625
13410.897461
4644.521484
9254.002930
6648.341797
-3881.792969
-475.342926
1645.924316
23728.859375
11834.480469
-8707.268555
649.953186
-10734.246094
1019.754456
7933.224609
-2474.249512
5439.646484
-2166.792236
8222.851563
11957.181641
535.629395
2098.906982
4029.976807
-9218.645508
-8552.535156
-5372.595215
1631.077515
-8083.098633
7634.451660
-7682.938965
-4875.592773
8588.623047
-6556.633789
5292.682617
-4535.983398
12221.884766
-5147.501465
-1920.580322
4158.765137
17450.923828
1020.726074
-3564.491943
-2663.398682
4549.208984
-67.844421
8176.493164
4612.249023
-3970.717041
5071.117676
3450.848633
11199.429688
6601.778809
-5447.865723
7821.944336
9616.008789
-2462.419434
6415.339844
3869.279053
-7807.283203
-2280.887451
477.242523
-2514.660645
9085.328125
960.527588
-1262.727661
286453.218750
-3009.833984
3787.385254
394.111115
3634.750732
-2333.368896
-1529.881592
-976.903931
512.628906
74.121094
2811.751221
-3929.529053
-5001.398926
899.492065
-696.839478
430.886383
-2043.750977
-11612.504883
15504.064453
3418.381348
3400.350586
-13973.890625
-4704.562012
1346.978271
-3908.882813
-2960.795898
638.823853
-1237.187744
3571.382568
665.380066
-1861.917236
-7563.882813
-10191.454102
10246.508789
-3158.872803
-315.697174
1276.200439
-4193.728516
-2136.348145
1866.874146
-16305.686523
1607.915283
-1127.936157
-3015.893066
-154.806030
7617.418457
2066.204834
-396.796661
1752.692627
10464.352539
-1968.677002
3765.590088
-15175.874023
4997.581055
-1594.199829
-8324.883789
-5565.622559
11567.520508
-11311.782227
5417.291504
-1533.410156
-1772.889648
-1494.111694
-27307.083984
-5132.474609
243545.156250
4177.667480
1848.400146
3322.536133
2857.587891
-653.863586
-265.137207
-584.740967
8982.756836
1321.423828
4196.448730
-2945.791016
-5907.776855
-2808.652832
994.650635
4213.577148
-1935.341064
-7832.981445
14560.962891
2795.228271
