0
566766837170176.000000
-485277885792256.000000
310873256099840.000000
-1645151252381696.000000
367160949997568.000000
-41183464128512.000000
-288905874112512.000000
179799142170624.000000
1064672195248128.000000
899281191960576.000000
-494516528218112.000000
559038848827392.000000
641516246663168.000000
-21507480378933248.000000
1806138706231296.000000
-1443398653313024.000000
-1283228451209216.000000
3101028396302336.000000
-669225429499904.000000
4609720753061888.000000
-421172076347392.000000
5345197395279872.000000
7089219868557312.000000
5453129386557440.000000
471627808636928.000000
2711801011634176.000000
35429107915292672.000000
25593012184678400.000000
3898945273069568.000000
104891880281473024.000000
44689890629124096.000000
-43468376160337920.000000
-20056717735755776.000000
14801318442958848.000000
-16017882961936384.000000
24557336655822848.000000
12513241188007936.000000
12770628914380800.000000
179240628649984.000000
1122251063689216.000000
894751880511488.000000
-1049717521776640.000000
171670044147712.000000
672601542230016.000000
-761767479214080.000000
125201585012736.000000
859006209884160.000000
-36196570890240.000000
1014736690872320.000000
664544049364992.000000
220233138700288.000000
167390578999296.000000
-866111696404480.000000
972881899028480.000000
2004005165203456.000000
-4941419466719232.000000
-760949086617600.000000
-504196814077952.000000
225197416251392.000000
987799662624768.000000
1549291071995904.000000
1298620406038528.000000
1185780072448000.000000
709577720987648.000000
-786343953170432.000000
-410156961628160.000000
-2330184577449984.000000
523716534468608.000000
377085914775552.000000
4594666892689408.000000
-2741849676578816.000000
-287005955063808.000000
-222897830363136.000000
891381874688000.000000
1572709649612800.000000
-1285814692610048.000000
1014011848032256.000000
-3294508888358912.000000
-557168826777600.000000
-310194819039232.000000
2198790924664832.000000
-1274356256735232.000000
1051374171193344.000000
-1099641147883520.000000
-1642626348482560.000000
-978481663967232.000000
1107167943852032.000000
76500825014272.000000
-1021798757957632.000000
1172693038661632.000000
609174270509056.000000
-3039787262935040.000000
-1214671243706368.000000
-591892261634048.000000
-543088615358464.000000
1226962903236608.000000
-165634088370176.000000
1220177928650752.000000
-637177188843520.000000
884470936764416.000000
360641223196672.000000
-553157427986432.000000
-486013063397376.000000
23280333357056.000000
-113537426915328.000000
957219495477248.000000
-403388462268416.000000
-7147010801008640.000000
732958046552064.000000
-421373906255872.000000
364803918921728.000000
-311781071257600.000000
1625543384498176.000000
1754547022200832.000000
762638820704256.000000
-1566392558026752.000000
669677206372352.000000
-4456003336667136.000000
-2694404515037184.000000
4045388893913088.000000
-3924744873181184.000000
-5833754757038080.000000
1738207355994112.000000
10009047621173248.000000
1814153383641088.000000
-947082835787776.000000
-6456230272827392.000000
-1803886801190912.000000
-7756076355158016.000000
9551672258854912.000000
-5744614321422336.000000
-2160286677073920.000000
2209943478337536.000000
6720399752560640.000000
-2949872659464192.000000
6704232421916672.000000
402206641618944.000000
-114409967976448.000000
3291097073713152.000000
-70376386199552.000000
-3706126742847488.000000
2405841500110848.000000
2551813211422720.000000
-1021225514041344.000000
-783959306797056.000000
1473889699889152.000000
1653313569292288.000000
2458437938053120.000000
-407554110783488.000000
1593701839142912.000000
-1174354922569728.000000
1575754378772480.000000
2223136946782208.000000
-479650874654720.000000
-3849309141336064.000000
-1768956100608000.000000
-3252939242078208.000000
8771084501385216.000000
20300506521927680.000000
-21480952513429504.000000
-7835900469837824.000000
30286417154277376.000000
16565637321064448.000000
9604268428361728.000000
-5997246445256704.000000
-11307727619883008.000000
8361389718503424.000000
-31971298464759808.000000
19565403541864448.000000
-2126263154114560.000000
878587502657536.000000
3115322852769792.000000
-6531126986276864.000000
-1043730203148288.000000
833295461908480.000000
-1143856896671744.000000
676413594140672.000000
-1193495175888896.000000
61264185262080.000000
865364774748160.000000
138341953568768.000000
226165260288000.000000
-35942131826688.000000
656181748039680.000000
-94295184900096.000000
-1542676956577792.000000
-586003861471232.000000
192611818143744.000000
1027414830350336.000000
125144441815040.000000
-105291593023488.000000
419858084790272.000000
-318091317739520.000000
441880026284032.000000
-351210682974208.000000
-412146907217920.000000
1145135857401856.000000
205286686064640.000000
-333117797695488.000000
257586234392576.000000
-384351925698560.000000
-798572664586240.000000
205950057185280.000000
359387830943744.000000
114030324744192.000000
312145472389120.000000
1760793246826496.000000
-584828315500544.000000
-3424917517238272.000000
1400397709180928.000000
-5095285059485696.000000
29166313305800704.000000
-9927907099017216.000000
-1962170304692224.000000
-4524797438459904.000000
2853800146632704.000000
1848327364673536.000000
2226441521463296.000000
-1920460266668032.000000
9249637273698304.000000
-4135554484535296.000000
-4720858400555008.000000
-4097766556958720.000000
16572002462597120.000000
-19314390620700672.000000
-8339560547221504.000000
18495484238757888.000000
17109805382500352.000000
4131906715123712.000000
-1014781318266880.000000
-11706377894363136.000000
1332611582525440.000000
-11830105164742656.000000
14416210200363008.000000
-155177940156416.000000
10024816476160.000000
-1376101884493824.000000
-405957020483584.000000
345057135689728.000000
186467011788800.000000
543678837817344.000000
575951087861760.000000
972889482330112.000000
1862015425445888.000000
-27031077126144.000000
546886037536768.000000
-35328039583744.000000
-68608923271168.000000
-1372028108013568.000000
1395208583380992.000000
4527891962396672.000000
-401422440988672.000000
939140233297920.000000
1361674284040192.000000
8892390047744.000000
-1906916087300096.000000
773875663110144.000000
662777609846784.000000
1066843569651712.000000
313043355435008.000000
32943704830377984.000000
-1537074171740160.000000
-4870685650321408.000000
260186060774965248.000000
43113311213977600.000000
-47160226968764416.000000
-59688964398776320.000000
29299244691095552.000000
-59421164597936128.000000
4078384980164608.000000
-18039584197705728.000000
-14348560170483712.000000
-40306966697869312.000000
-1258868604665856.000000
-20357272567808.000000
1073549355778048.000000
-414146382266368.000000
-344944124362752.000000
10333143957504.000000
-397392285270016.000000
206966991355904.000000
-180503080599552.000000
-180375271768064.000000
186998815981568.000000
-116793716768768.000000
1209688678989824.000000
5962648336203776.000000
8042406792396800.000000
-296494208909312.000000
-1272529687674880.000000
-3094072965201920.000000
-2788421886017536.000000
-4087364951474176.000000
3620234376249344.000000
5475950158413824.000000
7181170823397376.000000
3889137446813696.000000
5668149944909824.000000
-4233624962465792.000000
2741809411260416.000000
-454897803722752.000000
-728589662158848.000000
-15529628932243456.000000
-2696066667380736.000000
-841255177158656.000000
1959151613771776.000000
-2029730274476032.000000
-943173476024320.000000
-153898761322496.000000
1268358334906368.000000
-8821427960545280.000000
-1954053084938240.000000
2218720646660096.000000
2277705982672896.000000
3394856504262656.000000
-4209036543131648.000000
1316454452428800.000000
-875924824260608.000000
-1644702159863808.000000
3592755175489536.000000
-262514944245760.000000
-1139696415539200.000000
3119149131759616.000000
2814026870423552.000000
-1035598353661952.000000
-1079098520633344.000000
-3658913241104384.000000
-143057945100288.000000
-100907379326976.000000
2407204078485504.000000
-2791344342827008.000000
2727575352770560.000000
-836697545768960.000000
2349108203356160.000000
616529334894592.000000
-2157884850831360.000000
1339792230973440.000000
-2283349301264384.000000
-37875525615616.000000
45440707854336.000000
3733122222915584.000000
-2328876759908352.000000
-159083877367808.000000
-153624504172544.000000
-441298561531904.000000
2045265036967936.000000
-682979324067840.000000
-105983124701184.000000
285997208174592.000000
1891430582714368.000000
1277638685491200.000000
-4020230586105856.000000
2006413702332416.000000
3540306645483520.000000
-1026526577426432.000000
-11107105402519552.000000
1266893482622976.000000
3144323277258752.000000
3755175269367808.000000
3630693963792384.000000
-2118200560975872.000000
-457644804407296.000000
348829123608576.000000
3026992555360256.000000
-2970381128302592.000000
-924173882884096.000000
4392734978736128.000000
-512014258536448.000000
2953872347758592.000000
-852513225965568.000000
-2772756261240832.000000
-445066388701184.000000
-1554208943767552.000000
-872805134499840.000000
855629962936320.000000
4109883733442560.000000
420155645493248.000000
1380732127674368.000000
-297364812201984.000000
1169241092915200.000000
-385492776386560.000000
574230013935616.000000
1027463954038784.000000
269581557956608.000000
34645001371648.000000
792720637427712.000000
295722826072064.000000
-469580518522880.000000
-329588878082048.000000
-89342122917888.000000
14178973386801152.000000
16771034468319232.000000
35189616243900416.000000
3530879729139712.000000
13899331287384064.000000
-23586431381274624.000000
71550598381568.000000
21550629767872512.000000
-7303097965608960.000000
16337280352387072.000000
10508464270868480.000000
-31885996119293952.000000
4483474752798720.000000
-1992446871339008.000000
-311225443418112.000000
2716428838895616.000000
-6621778713509888.000000
3989259040063488.000000
169062562791424.000000
-463045658673152.000000
636482880536576.000000
-657739948752896.000000
-3792441895288832.000000
1602357003550720.000000
612114712494080.000000
921735683637248.000000
-1965537022181376.000000
-2863489861287936.000000
3946940190425088.000000
835831103225856.000000
1821437379739648.000000
267715008790528.000000
5429589744549888.000000
437616432381952.000000
4451098215579648.000000
217811901218816.000000
-3063598024753152.000000
-7135672624218112.000000
-4010145466023936.000000
141435540800012288.000000
41153423147532288.000000
-102724777222864896.000000
784932967293124608.000000
104847092362510336.000000
-121078168911085568.000000
-125268553753427968.000000
31771734956834816.000000
-54824553158803456.000000
71247666285117440.000000
-7548861899866112.000000
115933708623544320.000000
-109881481228189696.000000
-3665830285934592.000000
-1691809898037248.000000
2850946677735424.000000
1210283129307136.000000
-2374404486987776.000000
6784753395040256.000000
1851644421603328.000000
870630807306240.000000
-879589437997056.000000
-594801296670720.000000
-251998800707584.000000
-1143252782678016.000000
4250236822224896.000000
-2571009836187648.000000
-619180940328960.000000
5825552980115456.000000
-3679813625708544.000000
2193490800803840.000000
336776103198720.000000
-1086273599045632.000000
-1213914524155904.000000
-2935995888566272.000000
-1855054894071808.000000
1490047366856704.000000
-2877063300120576.000000
-1565192383102976.000000
-168199375028224.000000
-143896118034432.000000
1738508272140288.000000
-1569758738644992.000000
-868857925337088.000000
-143370689183744.000000
-1374205119561728.000000
608373795979264.000000
2380538237157376.000000
2287786807787520.000000
-225308867297280.000000
729409195606016.000000
-218643128385536.000000
4393759060000768.000000
4877699331915776.000000
16474756349952.000000
1193902124040192.000000
-3617886102880256.000000
-257840241442816.000000
-2008317312368640.000000
6518271075418112.000000
3247973991448576.000000
5576188789522432.000000
2170801025449984.000000
9577175774658560.000000
-6105174678437888.000000
-2266819045883904.000000
-282683104034816.000000
1347978975510528.000000
6068890794721280.000000
1354570408132608.000000
-399740256649216.000000
-3813193298214912.000000
-442853541019648.000000
2638101251883008.000000
-3629770814259200.000000
1742642983469056.000000
2412149733326848.000000
-1155326338400256.000000
-631508905754624.000000
332817552637952.000000
-1389062619398144.000000
-297228111446016.000000
224376708399104.000000
-24377047384064.000000
-87629227884544.000000
-73003924717568.000000
47236184539136.000000
279298669805568.000000
407189072117760.000000
230064050405376.000000
55088567549952.000000
353841082007552.000000
222214393692160.000000
157109266153472.000000
-2125192767733760.000000
-1475969806237696.000000
340645096980480.000000
-104730831355904.000000
-973900745801728.000000
2341674420273152.000000
670248302804992.000000
-290418910560256.000000
-1747978289152.000000
-518980292837376.000000
-48910336786432.000000
-573462959620096.000000
360719237251072.000000
2318597292556288.000000
-617530867580928.000000
-535935280218112.000000
-353376520896512.000000
970855479771136.000000
-384892856696832.000000
1325536160776192.000000
-1298134000992256.000000
124276346716160.000000
-299013475663872.000000
-3099429594726400.000000
-1266872813092864.000000
5781485005045760.000000
284747876007936.000000
703121311399936.000000
-1353326478229504.000000
-3602484618592256.000000
-968964888854528.000000
-1068753487921152.000000
-515508180877312.000000
-1324989357752320.000000
2780554579673088.000000
-762821222596608.000000
-628894210195456.000000
3233699936075776.000000
2839498979278848.000000
820145748443136.000000
-8943974114918400.000000
5856880471572480.000000
4284327856701440.000000
2156313295454208.000000
2840986111705088.000000
350637707493376.000000
1649609159999488.000000
-1475256573231104.000000
1337495899865088.000000
6553276132622336.000000
6318650122305536.000000
446265758318592.000000
-1403507131285504.000000
-5745427143983104.000000
-1295745999175680.000000
-2962887484112896.000000
2935999646662656.000000
4800572993568768.000000
5475930831060992.000000
3218260333953024.000000
4429769139552256.000000
-2996640021479424.000000
-3152084014727168.000000
-3309949832658944.000000
18560986784989184.000000
-29707043245916160.000000
-13239427815964672.000000
10819503654961152.000000
15927482490290176.000000
7657888034062336.000000
-4953027152707584.000000
-11166652976594944.000000
4013235426557952.000000
-20103453422387200.000000
14159205799821312.000000
3554474131980288.000000
1786153686532096.000000
-1665110368059392.000000
-2095948335415296.000000
-3208501631385600.000000
5081956702224384.000000
190577094164480.000000
-486826959699968.000000
118371546824704.000000
-1715969625948160.000000
1873756792291328.000000
974206359568384.000000
-1332821230616576.000000
2357613849214976.000000
-760663873945600.000000
-1088996339875840.000000
-855584731561984.000000
1401926851756032.000000
-1121309660545024.000000
3617645047840768.000000
2914170743816192.000000
885921696186368.000000
-2422645022785536.000000
-176270725873664.000000
-3834705447223296.000000
4562462154162176.000000
-12690769366220800.000000
6793225830400.000000
2917288084766720.000000
3286391937040384.000000
-3205505891696640.000000
8479303213776896.000000
5798644473135104.000000
-4806977863548928.000000
4361463053418496.000000
-165213902995456.000000
2406799277817856.000000
-6437261549764608.000000
-1681942344892416.000000
2315096088903680.000000
2058817672052736.000000
-4782267842953216.000000
4305704714240000.000000
13998155263639552.000000
-2425079732371456.000000
-5435032541855744.000000
-95030739992576.000000
-1962568126038016.000000
4434333079175168.000000
1539067170783232.000000
3545576301920256.000000
-3926777734889472.000000
-1070754271592448.000000
-137504359448576.000000
1479981976780800.000000
-1251599909388288.000000
425739035869184.000000
-828369671290880.000000
502270051483648.000000
395903642894336.000000
-756146709200896.000000
-306125975060480.000000
607696264888320.000000
8492041633792.000000
141793530216448.000000
-22525402660470784.000000
-3563221906620416.000000
1656573046816768.000000
-2407744707493888.000000
-2292705619083264.000000
1284117912092672.000000
7244340128645120.000000
-424121242484736.000000
7040081684594688.000000
8133545998417920.000000
-472172631949312.000000
-276877415546880.000000
3732042038640640.000000
534927439298560.000000
-227726514454528.000000
-2764317187375104.000000
-3143283895173120.000000
4522263944626176.000000
-6354605977894912.000000
2910347417616384.000000
4819514873085952.000000
6574557695574016.000000
4438980770660352.000000
-2150165049769984.000000
2410510666432512.000000
-2863744606535680.000000
494457640189952.000000
302305769422848.000000
-888628532215808.000000
-752550613614592.000000
182203317223424.000000
-619904508100608.000000
-31004609740800.000000
134925441302528.000000
-803300416946176.000000
712221139140608.000000
-771969234501632.000000
1140282141704192.000000
502314074898432.000000
-13512744502296576.000000
3208072403091456.000000
1965962895032320.000000
-3183708932669440.000000
8675535437692928.000000
702182592610304.000000
7300508100329472.000000
7049575709802496.000000
7847346557681664.000000
7740677823660032.000000
6541408064241664.000000
-149228689031168.000000
8599981594247168.000000
-10577084963356672.000000
754102841638912.000000
2351923822854144.000000
-4051088047079424.000000
-4011034524254208.000000
-4447278379040768.000000
-406342024036352.000000
-2550211725492224.000000
1438401995735040.000000
2808458713759744.000000
-9600417923072.000000
3863762243158016.000000
-608523717181440.000000
59978595518382080.000000
41302501462376448.000000
-1440786105237504.000000
174301455182725120.000000
27002807282302976.000000
-27165021754621952.000000
-18611240049836032.000000
21597715494338560.000000
-5899649755906048.000000
48086775968563200.000000
20020105287041024.000000
5136835646849024.000000
-4739994090471424.000000
-3204921776144384.000000
-2976803178151936.000000
-4906949132943360.000000
266348772982784.000000
8822979517480960.000000
-5695684980244480.000000
2552438129164288.000000
671981858979840.000000
3178227749093376.000000
-8966509808320512.000000
2120580778164224.000000
-1695383042392064.000000
448717110902784.000000
241838424342921216.000000
91995502240858112.000000
-159470623871991808.000000
668819729036607488.000000
137609188795744256.000000
-184116898563096576.000000
-108892565008285696.000000
88209059072704512.000000
11665809780768768.000000
184874977470709760.000000
28052787199737856.000000
56559917514883072.000000
-123267159123034112.000000
-3473125840781312.000000
-1268718306852864.000000
4418600613969920.000000
-2057514283696128.000000
-779301548982272.000000
-1417889768800256.000000
-556514213363712.000000
30985760538624.000000
316176030760960.000000
1391709795647488.000000
-971401343270912.000000
1436987340881920.000000
1209222138167296.000000
-922020158111744.000000
-230356997373952.000000
204453596626944.000000
-383887263924224.000000
-358853443059712.000000
-84656858857472.000000
232683812683776.000000
77627608006656.000000
184509983096832.000000
-280993202176000.000000
132130004795392.000000
153171318013952.000000
57367098032128.000000
2617487287910400.000000
818776996052992.000000
1840129077411840.000000
-5566432234438656.000000
-333976120066048.000000
-342320000008192.000000
170887588347904.000000
1432386222948352.000000
3148407522721792.000000
-497277286219776.000000
-213216906969088.000000
1766563266953216.000000
-1429472356073472.000000
-3395758447394816.000000
522387409862656.000000
3616745252192256.000000
-1588448557268992.000000
-2259280036102144.000000
-244719284125696.000000
35804067921920.000000
666166540369920.000000
-629999962947584.000000
-761302549004288.000000
1380679514324992.000000
943365944246272.000000
-60200396521472.000000
389189535268864.000000
-341950028840960.000000
-220557828161536.000000
-2540945065115648.000000
6331397048369152.000000
-770960990928896.000000
-186650655195136.000000
173549528547328.000000
-1549719494983680.000000
-2070664399814656.000000
576969196437504.000000
239358460297216.000000
1245974307536896.000000
24502700.000000
13227621.000000
40073176.000000
8174254.500000
-655118.750000
18602720.000000
-14988121.000000
-6925001.000000
15060428.000000
1669995.000000
-18179512.000000
5750646.000000
-7222768.000000
-890576.500000
-5606422.000000
4787409.500000
267883.718750
-1494674.500000
-15380418.000000
11613962.000000
5454157.000000
5386405.000000
-3469508.500000
7009458.000000
11681311.000000
-26209488.000000
17679960.000000
-693053.875000
-21586916.000000
-1493377.250000
-1059944.375000
12523910.000000
-5780408.000000
4650740.500000
-16941030.000000
-32157664.000000
8727978.000000
7479285.000000
-954843.000000
-7810799.500000
9201072.000000
-12531412.000000
-4214276.000000
76776.437500
1497666.250000
2645341.250000
-26418672.000000
15597899.000000
-11417268.000000
-44400804.000000
-10987607.000000
-26875116.000000
46155116.000000
-6381092.000000
22289472.000000
18374200.000000
-17487704.000000
-10843680.000000
8636840.000000
-123607168.000000
-41426308.000000
2675645.500000
3300487.500000
-18192260.000000
22391116.000000
-17147836.000000
-657930.750000
-4220169.000000
-5043524.000000
4770486.500000
305835.250000
-1429988.750000
8479266.000000
-8413092.000000
10996069.000000
131572.968750
-2819205.500000
10628503.000000
17302188.000000
15991573.000000
8758918.000000
4105465.000000
-7787314.000000
462838.531250
5090382.000000
1352563.625000
-387534.656250
6694844.000000
-14432465.000000
5805784.000000
1593203.875000
16307526.000000
-1905486.500000
-10343302.000000
-25456232.000000
-6997850.000000
-37441948.000000
-3519297.000000
-2746824.000000
11784565.000000
4122423.000000
241920.062500
13427476.000000
-4551813.000000
-15225904.000000
2107139.000000
-760342.312500
1445282.000000
-1149411.250000
-18470440.000000
7290816.000000
4417975.500000
-17323852.000000
-16660966.000000
-2417507.500000
-5189918.000000
14870234.000000
12517465.000000
7255276.000000
1568765.500000
-1285176.375000
-3110907.000000
-39827492.000000
-4338265.500000
26921674.000000
-5487724.000000
-6080898.000000
8978990.000000
10497668.000000
-209633.921875
-143742.250000
821749.625000
-2751305.000000
2360603.500000
266791.625000
-2949726.000000
-2647210.000000
-6264875.000000
543505.125000
3896201.000000
513390.687500
-1671002.500000
5402923.000000
-1560389.750000
-1959378.250000
1007769.750000
1122840.500000
402601.687500
-2039098.250000
-3135939.500000
-2175618.000000
-5362849.500000
597821.312500
-1842586.000000
1400225.500000
-1507367.750000
-546512.812500
-4164537.500000
2617773.500000
3171791.500000
-1176866.000000
-29449.855469
1111752.750000
-312063.593750
966968.500000
-1040420.125000
1874723.500000
3254516.000000
-1166729.750000
-1460270.250000
-243438.437500
4468795.500000
-995150.937500
350681.500000
-3360896.000000
470019.625000
797317.750000
1594593.000000
-1512772.000000
-128053.070313
469067.937500
2403590.500000
-292108.968750
-3016908.000000
-1423805.250000
772687.500000
788010.250000
2372880.500000
2271077.500000
-561899.125000
2833399.000000
1893363.000000
2633540.500000
53601.578125
-1012933.750000
1046483.000000
-1372751.000000
-4430577.500000
8899029.000000
1864943.250000
-1499606.500000
-14708186.000000
496286.031250
768674.625000
-5704666.500000
1958928.000000
-1005929.875000
1407258.250000
8848463.000000
-3625960.000000
835897.750000
6300420.500000
-16050856.000000
4991907.500000
14198034.000000
-5862862.000000
-550296.812500
-2058102.250000
8484706.000000
-3748360.500000
3933660.250000
-589773.000000
-870001.125000
3975955.500000
5881136.000000
3676106.000000
1154574.125000
-13030640.000000
1223851.500000
3274614.500000
4031328.000000
-6159617.000000
-10321690.000000
3924799.000000
-7309238.000000
1237600.625000
9926831.000000
4445420.500000
-4138126.000000
-1670965.500000
6730649.000000
-9051179.000000
1345758.875000
-3050460.500000
309501.937500
8223749.500000
-3703339.500000
-1637691.750000
-1803034.750000
-95484.203125
-6452706.500000
4361191.500000
4031793.500000
2787325.000000
-2573081.000000
8041682.500000
2299190.500000
2854331.000000
4502156.000000
-8504992.000000
16303254.000000
11182074.000000
-2677141.750000
18773488.000000
-8484031.000000
-1643737.750000
2990873.000000
-230704.296875
9049391.000000
-9161734.000000
-1056381.250000
-7805368.000000
-34097008.000000
-13590886.000000
-3514503.750000
19236564.000000
6070371.500000
1838942.375000
-1085946.875000
6047664.000000
10709418.000000
-30536484.000000
13614170.000000
9146982.000000
3353483.250000
9561394.000000
-18340332.000000
9705870.000000
-8485548.000000
18008836.000000
15799866.000000
6430608.500000
-2806738.750000
-1037927.062500
2192195.250000
10023614.000000
-7659724.000000
9177898.000000
9095253.000000
29055992.000000
-9021409.000000
-681709.437500
1335012.250000
5895082.000000
-1354783.500000
11107814.000000
-4931551.500000
2370834.500000
15583948.000000
-22529852.000000
22123584.000000
14150526.000000
-11483998.000000
10197586.000000
-501209.906250
6935398.000000
-4545848.000000
22183200.000000
9847240.000000
15899198.000000
1679227.125000
9493452.000000
-3178400.000000
-3101948.750000
1258314.625000
-9210256.000000
-2817497.000000
-5996823.000000
-14712207.000000
-3787299.750000
14717968.000000
4001502.000000
4455218.500000
-5804859.500000
5744980.500000
-7283244.000000
-3325240.500000
1154485.375000
-849866.375000
-8126629.000000
-101363.226563
6096182.500000
13295263.000000
18765548.000000
-7943924.000000
-10565499.000000
10474810.000000
-581230.250000
-14883113.000000
-2327320.500000
-4372245.500000
-5278864.500000
-187854.000000
958809.937500
992200.437500
-783804.687500
-6362193.000000
-8845819.000000
-3114981.500000
-12624977.000000
2558191.500000
-2664879.750000
3277765.500000
6505163.500000
1714945.625000
5505719.500000
-279421.437500
-4023204.250000
5524125.500000
-2475169.500000
-9369444.000000
-6598070.000000
-15309056.000000
3238526.000000
-7006154.500000
-7050534.500000
-4299129.500000
6059394.000000
3178808.500000
-2107688.500000
411320.562500
10521736.000000
9305309.000000
-500853.093750
-826903.625000
8592938.000000
-6141074.000000
-1992787.500000
-12929306.000000
6981932.500000
519545.250000
4666079.500000
2546462.500000
4928951.000000
-2558022.500000
3682513.250000
11024501.000000
-4968957.500000
-484401.125000
-1011670.250000
2999045.000000
-210976.468750
5670017.000000
2262890.500000
-3509540.500000
3895377.750000
-3296117.000000
4541418.000000
6944758.500000
-3654318.500000
9015091.000000
1308156.000000
2498931.000000
4867473.500000
-6751074.500000
976021.000000
-7771254.000000
2347190.250000
-5956717.000000
568524.562500
-752970.250000
570385.562500
-4840198.500000
4958479.000000
8898564.000000
7263733.500000
-4886026.000000
-4704808.500000
-5566197.500000
-4201219.000000
-881499.000000
1837332.125000
-1189522.625000
814117.750000
3928039.500000
2022852.000000
147568.687500
82384.609375
-8261660.000000
-2998159.500000
3218108.500000
845940.500000
-2114775.000000
-717322.687500
-5240322.500000
-3778035.500000
-2627668.500000
-4536285.500000
180940.593750
-4160231.000000
-2700735.000000
3686206.500000
-1312397.250000
650915.625000
-395736.500000
834211.875000
-981373.375000
-381752.625000
185569.593750
1977319.000000
-2054749.750000
1343499.125000
-1541110.250000
1629549.625000
3062689.750000
936553.500000
-407584.687500
923561.562500
-2054090.500000
-1149995.750000
-2869909.750000
284637.156250
1002639.750000
536385.500000
-874150.625000
3701929.500000
-2265589.000000
-650448.312500
1758243.125000
3134299.500000
4050193.500000
99852.179688
1651313.875000
-2800738.500000
-68572.304688
-2061881.500000
-1548277.500000
-309394.187500
2392439.500000
2368237.750000
812784.875000
-2522371.750000
-672875.000000
-312428.843750
2832605.750000
1240660.500000
596318.187500
-2075081.000000
-294591.812500
-2231649.000000
-1048773.875000
2180424.000000
-339356.656250
1312332.625000
2529344.000000
2850910.500000
975640.625000
-818514.625000
-991427.750000
2020194.625000
337976.281250
1181928.000000
2592149.000000
-2438344.000000
435704.812500
-3443289.000000
-1087232.375000
-505553.625000
2204042.500000
-1485971.875000
252962.218750
-3127017.750000
-150372.750000
-2112541.250000
-916604.000000
3850408.500000
-1898837.625000
3699061.750000
746089.375000
-1292515.625000
1860924.375000
-3567005.750000
778627.250000
-1213150.125000
124691.531250
1386311.375000
2553879.500000
1247483.500000
2841592.500000
2695979.750000
-443182.781250
-3098407.500000
267925.562500
-2387846.250000
2536048.500000
-1097918.375000
884557.000000
-2642876.500000
2715443.250000
1908979.125000
-3396247.250000
-1717108.250000
-2275044.750000
-547372.187500
-1414702.750000
2540078.750000
457694.968750
-2308899.250000
-228191.500000
-2180.609375
244383.359375
896804.625000
768745.250000
-2626317.000000
-4506504.000000
1330532.875000
-473984.375000
-2651734.750000
375317.375000
-3017825.250000
-739832.250000
84526.984375
-332352.812500
-842960.375000
1701933.625000
2307386.250000
-256024.609375
-3708.296875
-3487306.250000
2628736.000000
5278260.000000
701110.250000
-348195.031250
-4599801.000000
1659454.125000
-6942914.000000
3950924.500000
-11949594.000000
-11424604.000000
8799144.000000
-18578162.000000
19067716.000000
-12556456.000000
-11976556.000000
5587405.000000
5180613.000000
15070636.000000
7232027.000000
-6646956.000000
-5118143.000000
260329.937500
-11386382.000000
-11027738.000000
-22300132.000000
-4912898.500000
3441697.250000
4106763.000000
-16555276.000000
-25945264.000000
-7911909.000000
10758928.000000
-15078960.000000
5308892.000000
16973166.000000
-3556353.000000
-9763604.000000
-3027916.000000
2789864.500000
13935978.000000
24946348.000000
-12139790.000000
-14363440.000000
13780008.000000
-3922627.000000
-9839368.000000
1345455.375000
-16983120.000000
-6540857.000000
2053720.875000
-7038630.000000
-12374936.000000
-14826232.000000
-5819253.000000
3532125.500000
1242376.125000
17093170.000000
-2475389.500000
14731998.000000
-12554190.000000
-128085.914063
-126096.289063
187085.250000
-14235228.000000
-12333064.000000
-15097710.000000
-9525548.000000
6247603.000000
-285827.250000
5343303.000000
-6542312.000000
5702264.000000
12040080.000000
2258233.750000
6258829.000000
4420217.000000
-7696994.000000
3038017.250000
1037596.750000
-1854295.250000
3181480.000000
-5915094.000000
-3210338.000000
-2190877.500000
-2780069.500000
-2489609.000000
1524499.625000
-618009.875000
3353846.500000
144200.953125
14874564.000000
1834433.875000
12419114.000000
1959543.000000
-4406560.000000
5728000.000000
-3267195.500000
782430.750000
2065185.125000
-2369428.250000
513491.500000
-840241.250000
5136092.000000
189541.656250
2628831.500000
-10446824.000000
-45748.046875
-5901603.000000
-3400071.500000
1620154.000000
-4662658.000000
3708949.250000
509548.437500
-3812078.250000
-2766733.500000
-3983499.750000
6268849.000000
-735411.500000
8578790.000000
-8027579.000000
-2050927.625000
7896403.000000
4030630.500000
-1827472.125000
-1797565.000000
2935611.500000
5401550.000000
5234852.000000
-3281470.000000
3992028.000000
-6694502.000000
6272439.000000
2233294.500000
8884068.000000
-10317992.000000
-483503.593750
-6407354.000000
4202266.500000
-8380421.000000
-33315366.000000
1954896.875000
5406586.000000
-5908227.500000
-7992792.000000
3582000.500000
-6677540.500000
-10335346.000000
12011214.000000
4038395.500000
-18792752.000000
-4785789.500000
12139468.000000
2108484.250000
-11727180.000000
-7507624.500000
-420771.812500
1971006.000000
-29313556.000000
-3840448.500000
2847981.500000
10706364.000000
11101206.000000
12944146.000000
4216854.000000
-5678182.500000
-3307790.500000
-294765.656250
-19410112.000000
-3516257.750000
1948728.250000
42204536.000000
-9640241.000000
7124139.000000
-11355708.000000
9096616.000000
9338842.000000
-16478200.000000
-1592689.125000
439628.093750
-8246350.000000
-2064114.500000
1423419.375000
7102287.500000
-5048352.000000
-8236773.000000
-15288865.000000
1752708.750000
-5522521.500000
17409206.000000
-2987321.750000
-1833344.250000
11388958.000000
23082070.000000
-3008368.750000
-6457863.000000
9276180.000000
-10539274.000000
2330335.250000
3784001.250000
11035810.000000
2141757.000000
2257874.000000
1908907.750000
2178605.750000
-552538.875000
172469.656250
-195793.343750
1810787.250000
271867.281250
-942144.625000
-218566.421875
-2421008.500000
1205064.125000
-551005.062500
-430005.156250
1416649.750000
2172031.500000
2489008.000000
-2011816.875000
1729581.500000
-2375880.000000
1313719.750000
-1734886.000000
848686.312500
-1682935.500000
-1138451.500000
625535.375000
1005387.000000
-1218917.875000
-267586.218750
870519.187500
2012329.750000
221567.703125
-251548.250000
1531296.750000
-6319013.000000
461022.750000
-443212.093750
-1302273.750000
-575740.875000
1225400.625000
-1933370.000000
-473019.250000
3025911.000000
-272852.437500
-1035289.687500
936218.500000
861289.625000
1577949.500000
-2345315.000000
-2555678.500000
2025791.750000
54244.773438
1608202.750000
2388169.500000
1003652.812500
2267340.500000
71000.843750
3330633.500000
-2258518.000000
1958611.000000
-1082546.125000
-2423072.000000
1271000.250000
-1021750.687500
-113665.218750
852685.125000
2614618.500000
-569955.687500
26408.031250
258568.234375
-1539233.250000
-177593.703125
-599048.187500
-258017.500000
1293688.375000
467224.875000
2162458.000000
-2323062.500000
285972.000000
-3682852.000000
1350119.250000
2050761.875000
-1165469.500000
1798776.375000
1011660.750000
-27350.167969
-99986.921875
549483.625000
1273813.625000
905288.750000
1769444.625000
801554.687500
-68695.695313
4122468.000000
2457049.500000
-902543.750000
1819365.625000
-4222104.500000
1042812.750000
788419.000000
14519.818359
2425712.000000
-2043652.750000
-986078.375000
1435007.250000
1321153.750000
180407.593750
1052938.500000
-2004926.500000
-980791.875000
-7455.792969
-5357619.500000
3943836.500000
-1074565.875000
1978675.125000
-1454500.375000
-369191.468750
2007931.625000
-397096.437500
425377.968750
126809.906250
1979295.500000
-238314.734375
969598.125000
1008793.562500
-2620288.500000
703906.250000
-2767839.500000
2361152.500000
-289625.343750
53599712.000000
-9544017.000000
52056028.000000
12725717.000000
-6646188.500000
-13850480.000000
3012430.750000
3482821.000000
7230770.000000
-9241546.000000
-126105.250000
5467230.500000
14783096.000000
-45581520.000000
13354310.000000
-3632186.000000
-1461253.750000
18109686.000000
-16097726.000000
6571357.500000
1545727.125000
5003.750000
-3144267.000000
-12268450.000000
-8051342.000000
-26894808.000000
-862831.562500
-14944394.000000
-4675688.500000
-10072137.000000
-891190.500000
48556812.000000
-13834082.000000
-4814996.500000
15334024.000000
32350712.000000
-5790866.500000
-10114786.000000
-31022784.000000
-12233010.000000
-741577.750000
-9620218.000000
-15380930.000000
-3029272.500000
-9937728.000000
-19486676.000000
-12486270.000000
-1311519.250000
14160702.000000
16538584.000000
-20012706.000000
-16625814.000000
14474106.000000
-16237792.000000
-1520140.750000
55666892.000000
7501408.000000
-10374600.000000
-15632202.000000
-24459052.000000
-3268507.500000
-1892910.875000
-21265744.000000
3206053.000000
-7737893.000000
-718884.312500
962768.812500
-7872367.000000
-797829.062500
-3221241.250000
-1916742.000000
-6190265.000000
-10121326.000000
1454407.625000
-6325785.500000
-16212896.000000
6106707.500000
-950099.000000
-14015174.000000
6913595.500000
5596397.500000
2426856.500000
137424.250000
-10033130.000000
4836159.500000
-4518983.000000
5844346.000000
-2881631.500000
-6184345.000000
261117.953125
-2960694.500000
4589476.000000
1669059.000000
-7028062.000000
-7373559.500000
3229177.500000
14363824.000000
2780501.750000
-8061343.500000
13636952.000000
286057.406250
526421.125000
35197.585938
1827520.625000
2807113.500000
-58210.050781
-899941.500000
-4419589.000000
5034139.500000
-2187945.500000
4707382.000000
11789726.000000
2225587.000000
5640008.000000
3577601.000000
1802124.000000
-7681216.500000
18226392.000000
4795472.500000
7161135.000000
-6433539.500000
3442177.500000
-7526419.500000
-2915938.500000
-29170400.000000
-234142.062500
9204672.000000
6133557.000000
3566603.000000
-457283.062500
-268918.875000
-302037.312500
-135550.250000
242438.343750
2851093.500000
5140263.000000
1436626.250000
-871674.750000
4464737.000000
1577298.000000
2220175.500000
2664679.500000
4073505.250000
-3549738.500000
-8567549.000000
-139456.265625
2252565.750000
91505.265625
-2957363.500000
-3361889.000000
2185000.000000
-4216683.500000
-2284989.500000
4217222.000000
2776857.000000
-837005.562500
-980834.562500
2400646.000000
4522885.500000
-3358345.500000
-5005890.000000
-820022.500000
2304423.500000
-5594945.500000
-1606766.750000
3507304.500000
3619162.000000
-1699597.250000
579417.000000
3055945.500000
3868701.500000
2495606.250000
1440379.500000
-8275470.000000
1603612.250000
-7964178.500000
-9079652.000000
-1242709.875000
-3214799.500000
5981648.000000
3193031.500000
2302507.250000
-2436777.000000
1162266.250000
-276341.468750
1906987.750000
-3358256.000000
4085245.500000
-2575708.250000
9782174.000000
2669349.750000
1391359.375000
-3127165.000000
-210705.984375
1186035.625000
9462546.000000
5565442.500000
3162206.500000
6378042.500000
-4559598.000000
4616158.500000
17046402.000000
-1810043.500000
-3200927.500000
-2317505.000000
-477391.187500
2782551.000000
-1643933.625000
2912365.500000
-6447618.500000
1053475.125000
-3068557.500000
15204820.000000
-5812507.000000
524615.750000
-3881195.500000
10009144.000000
-797806.250000
-4075864.000000
669388.750000
-4235913.000000
-10835176.000000
-2766338.500000
11594822.000000
1340017.125000
-1863084.625000
9660622.000000
7331990.000000
11173298.000000
-3505478.500000
-6020061.000000
2253950.500000
2053541.500000
-8913432.000000
-2152351.000000
3522735.500000
-1524896.750000
11070414.000000
-8279932.000000
-7637395.000000
8982310.000000
12915878.000000
-6684868.000000
5862276.000000
-269490.156250
9545940.000000
-6011752.500000
3454835.000000
-16392698.000000
4704919.500000
1163738.000000
-7656947.500000
15671068.000000
10725776.000000
-24595128.000000
6800408.000000
-3691784.000000
9335248.000000
-15437564.000000
-1604420.750000
9685056.000000
-1412785.125000
-9632542.000000
-2832894.500000
-9806109.000000
15418577.000000
706319.750000
-2584458.000000
-16084727.000000
-12576408.000000
24224392.000000
-2943810.500000
2089208.500000
-10792544.000000
-1469227.250000
2956803.000000
-3666498.750000
-5996387.000000
-4067041.000000
-11028816.000000
688351.687500
-1602005.125000
2473729.250000
6405656.000000
-2365686.000000
12349916.000000
-999882.250000
2766613.000000
7592815.000000
-4497386.500000
3962234.500000
25615736.000000
-9363076.000000
987774.625000
1892157.750000
-2073048.000000
-20618024.000000
7002896.000000
-710675.000000
-5102628.000000
-14820450.000000
8632373.000000
8693202.000000
899030.250000
-1102441.875000
-4755182.500000
-5887785.000000
6257506.000000
17566406.000000
9815192.000000
96223.859375
-6397125.000000
-29557888.000000
2826082.250000
-2345566.250000
6176356.000000
-25821580.000000
20207208.000000
-3439841.750000
5517512.000000
7353986.000000
5697165.000000
11257430.000000
-5720020.500000
-6339505.000000
1398481.500000
-4255528.500000
4965549.000000
5988481.000000
-7372595.000000
-3371491.000000
-3898219.250000
4550773.500000
-6794187.000000
-4099550.250000
-7197932.000000
10402052.000000
-16429642.000000
6504817.000000
7476035.000000
-11046318.000000
6217211.000000
-10492798.000000
4520592.500000
4566761.500000
13361942.000000
14866704.000000
-471295.343750
1923072.000000
-10364530.000000
-7976326.500000
-4888026.000000
8014426.000000
8296966.000000
-18461010.000000
-9551870.000000
-4120634.000000
1084622.250000
-7667984.000000
9267626.000000
-1381972.250000
-8948194.000000
6326886.000000
-7170394.000000
-10102544.000000
-2046396.250000
-15347946.000000
9673222.000000
-6057745.000000
-1720910.250000
-4974314.000000
659037.375000
4467074.500000
-4987673.000000
9878408.000000
5747642.000000
-3532557.000000
20329728.000000
-7287416.000000
4349012.000000
-3387646.750000
7442414.000000
-36522640.000000
3470281.500000
141380.250000
-12332764.000000
-525640.687500
-8964570.000000
-11364392.000000
-2956836.000000
829862.000000
1379299.250000
4972695.000000
12209950.000000
3907584.500000
-3723898.500000
-3846840.500000
10397150.000000
-3092565.000000
4913050.000000
7618734.000000
-4903475.000000
-7295008.000000
-12706058.000000
-553655.250000
-7893220.000000
6721733.000000
-6155217.000000
1937609.000000
6749066.000000
-3526041.000000
-5045507.000000
-1663074.375000
949911.125000
-2173923.500000
-7354037.000000
956781.375000
-8616760.000000
226424.468750
-339833.500000
-9302280.000000
-6491742.000000
342464.937500
4064581.500000
-11206846.000000
-2225025.250000
-5708469.000000
2451810.500000
1717574.875000
-1636982.250000
5559001.000000
5951611.000000
-400201.875000
-7996066.000000
-11247726.000000
3334316.500000
8538764.000000
-4755829.000000
659749.250000
5902528.000000
-8101819.000000
-3974061.000000
4094336.500000
-7151562.000000
6876799.000000
1684260.250000
-7342543.000000
3238608.000000
543937.625000
-5023600.000000
-3748339.000000
1791620.125000
4534201.000000
1365710.000000
-2109516.000000
-2996482.250000
5005299.000000
-4598768.000000
23218112.000000
-1131614.000000
9568872.000000
5163768.000000
-12903274.000000
4694854.000000
2013635.625000
-4105514.500000
-8219153.000000
1838195.125000
-8958200.000000
2991725.750000
-1465668.500000
1126567.250000
-13248420.000000
-7674386.000000
5138061.000000
-6301361.000000
-2704278.500000
8316441.500000
5190496.000000
7857094.000000
-9129734.000000
-3849141.000000
-2481779.500000
-6921253.000000
8306155.500000
-5557269.500000
21837504.000000
7414329.000000
-1320533.250000
10410878.000000
-22966162.000000
-3938314.500000
3551037.500000
-384793.000000
-2998046.250000
12398856.000000
-5633748.000000
-2701882.750000
-3968278.250000
10164602.000000
8253568.000000
6601344.000000
-14315286.000000
5288419.000000
-26371766.000000
-259060.250000
-8001471.000000
46570224.000000
-6917129.000000
2547178.750000
-15248738.000000
-38338816.000000
10439604.000000
-22625502.000000
13292776.000000
558068.125000
3704489.500000
87056.187500
10068224.000000
-8096811.000000
802947.187500
-618747.437500
1447297.500000
2738204.000000
323817.093750
-999042.437500
-2701020.500000
171940.875000
2064717.500000
1873073.750000
-2353844.000000
-1737878.750000
204108.140625
1720742.500000
-4366895.500000
4422008.000000
1632124.500000
-2474104.000000
-3616022.500000
92576.664063
-1155065.250000
2121616.250000
-352334.562500
543083.125000
-4099918.000000
-2271386.500000
2268206.750000
-267046.187500
339543.562500
-3610152.000000
1448464.000000
-2089851.250000
-2677588.000000
-1368436.000000
-5740109.000000
4808988.000000
2191802.500000
-206965.250000
-477996.437500
-3665089.500000
-41060.953125
4338586.000000
834386.187500
-1247534.000000
314889.406250
-1724311.750000
-958159.250000
-1407857.000000
-2643898.500000
2969255.500000
1238180.875000
453128.125000
-148298.890625
-1988782.375000
-1879363.500000
1400601.500000
1969734.500000
-890208.187500
2207244.500000
652279.000000
1749093.750000
316528.750000
-4583572.000000
2067601.875000
-2604105.500000
3963118.500000
-6243603.000000
29510254.000000
7067506.500000
-11809655.000000
4925183.000000
-12288015.000000
838260.375000
16559230.000000
303753.812500
-28017002.000000
-8608916.000000
13489708.000000
8778624.000000
3771268.000000
-5104066.000000
1528760.500000
3145357.500000
-7567060.500000
15086464.000000
3818993.500000
17762476.000000
-4349645.500000
1765646.500000
-5336499.500000
-11308793.000000
3199728.000000
-9545191.000000
-28751440.000000
-12938120.000000
-4481487.000000
-35139632.000000
9392914.000000
1305782.500000
-40683828.000000
10711860.000000
-8064772.500000
14880116.000000
-2953529.000000
-12806904.000000
11333580.000000
-11878000.000000
3325702.500000
6316566.500000
-6750070.000000
520201.812500
-2007842.500000
3219178.250000
14562039.000000
-1820468.000000
6602932.000000
4151623.500000
20008990.000000
5993862.500000
13976125.000000
4876667.500000
-6530097.000000
-29601278.000000
2270324.000000
1570074.750000
-17181500.000000
-12655805.000000
-5832864.000000
-4095405.250000
17128488.000000
2204227.000000
2392987.250000
-96915.796875
-4423561.000000
590817.625000
-2358332.750000
1417028.250000
-3338328.250000
3789936.250000
3722011.000000
1251339.500000
2254893.500000
2142495.500000
-471178.812500
-464511.750000
-3438356.000000
286064.468750
1464551.000000
-4835183.000000
619772.500000
-399113.375000
1876347.500000
1143135.375000
-924614.625000
2041688.000000
-1120616.500000
3785012.250000
1135086.500000
4935744.000000
281475.718750
2238443.750000
4113922.000000
1199371.875000
-121734.585938
-5096824.000000
585837.187500
737884.375000
1731624.250000
-3904290.250000
469899.000000
689789.875000
1035564.875000
3980248.000000
-1544087.000000
2156006.250000
-6566828.000000
-3362295.250000
-518965.281250
-2126395.500000
-1238793.500000
-3462170.500000
2017641.750000
-4991462.000000
-4747233.000000
1498073.250000
-6574979.000000
-537334.687500
7408283.000000
-615370.125000
4171590.500000
-2039890.250000
-1780955.000000
1045595.250000
1568972.500000
2113678.500000
1369252.250000
354229.687500
-48811.976563
-5099480.000000
1138574.500000
-1480985.500000
3457955.500000
-664297.750000
-1962473.500000
1700323.000000
339438.312500
1756903.750000
3824596.500000
2258295.000000
3178157.000000
-834649.000000
-734127.125000
3503977.000000
-4913762.000000
-5357882.000000
-3271301.500000
-4181720.500000
1214435.000000
2769150.000000
-2050567.625000
1526393.250000
-382731.156250
-344717.218750
3107309.500000
-468855.562500
-2111589.000000
-1863252.250000
5070201.000000
2150956.250000
-4352842.000000
2626875.500000
1719975.000000
-1836632.250000
-2008172.750000
-1542183.250000
-575586.000000
115683.109375
5064722.000000
-2347870.000000
1339617.500000
-3937580.000000
-147729.375000
1710487.250000
432377.187500
-2738511.500000
657526.875000
-497909.250000
694467.625000
-1980294.500000
1239592.750000
-1516571.750000
1776936.750000
4547264.000000
-3412754.500000
-1399172.750000
-1909965.000000
1736888.750000
-7275.351563
-5627059.000000
145739.906250
-3131955.750000
4992455.000000
-5792280.000000
-1779682.500000
-1624773.125000
5316628.000000
3885485.250000
-2362710.000000
-2716497.750000
-1049649.000000
5549621.000000
-6254997.000000
2177028.250000
2747488.250000
-1161437.125000
-576671.500000
3490878.250000
5028719.000000
-6652400.000000
-5106523.000000
-718107.562500
-1057715.125000
7183382.000000
-301472.062500
-2830107.500000
9287540.000000
7358820.000000
546513.937500
2692300.750000
-12300770.000000
-1141237.000000
-1463758.750000
-2034433.125000
-8658480.000000
-8781786.000000
1779315.875000
-3867255.000000
12741570.000000
-9297314.000000
-4596813.000000
1244506.500000
-2597936.250000
2850879.500000
630056.125000
-3872994.500000
4034868.750000
2339512.250000
7759431.000000
2238863.750000
4203473.500000
-7445782.000000
-3958907.500000
-7407397.000000
-3744559.000000
-1331946.875000
-7434539.000000
-2165927.250000
14404408.000000
2782763.250000
-1344987.000000
7047134.000000
2354010.250000
-3564887.500000
1597978.250000
3510421.750000
-20701336.000000
-3163580.500000
-9848231.000000
74672.281250
-1587973.750000
-405120.312500
-2956459.500000
5050375.500000
2074306.000000
-2097709.750000
-3035159.000000
2798176.000000
2603233.500000
-9236831.000000
4747080.000000
4694144.000000
3676657.500000
-11123649.000000
-2536589.000000
-22733.007813
-1204339.125000
-3109323.500000
6258677.000000
2629986.500000
-9669393.000000
7840610.000000
-10124915.000000
-295393.750000
-5720060.500000
-1660654.250000
-147606.859375
-3235355.000000
-5387268.500000
1991385.250000
-2549720.000000
1106249.750000
2914604.500000
6603550.500000
6576879.000000
801362.125000
2511493.000000
4262887.000000
2377159.000000
2453647.500000
-709485.000000
-2043256.000000
-77675.023438
943655.687500
-1847131.000000
3710574.500000
2249486.000000
1185424.500000
-4457400.500000
3787400.000000
2268546.000000
-15878922.000000
-18981328.000000
7398617.000000
2176240.500000
2597081.500000
-2177006.500000
364260.781250
6036978.500000
7732181.500000
1111047.250000
-299413.500000
302733.031250
6231056.000000
1624103.000000
1814247.500000
556793.937500
2980466.000000
-3499158.000000
933574.250000
5069916.000000
2037904.625000
-381483.781250
343838.187500
1498055.250000
-7430411.000000
883230.750000
-1878271.000000
2105645.500000
3840156.000000
-1513955.500000
-15612.929688
15483.937500
925998.562500
-3747486.500000
1777706.500000
725506.000000
3080126.000000
512912.687500
1082087.500000
1579316.000000
-3530656.000000
-1390364.250000
-8802276.000000
3533016.500000
64254.335938
-618031.812500
-3981114.750000
3951341.000000
-159073.031250
1470194.250000
387103.875000
3995810.500000
850583.250000
9600109.000000
-4357559.000000
2382417.500000
3900520.500000
1257141.750000
1951301.625000
1296984.125000
-4157480.000000
-1210605.000000
-1995316.500000
-3246196.500000
1570242.750000
-3023526.500000
-1088673.375000
-505084.687500
3271842.000000
49914.164063
-788560.750000
-2839931.000000
-749036.000000
-1831495.000000
5026792.000000
7222841.500000
-10856832.000000
17082180.000000
53902368.000000
-7236831.500000
14910236.000000
-3583338.750000
-14416690.000000
10566686.000000
-1448743.000000
15902441.000000
-20086276.000000
-1482242.250000
12556300.000000
-6664706.000000
-5277874.000000
-4494093.500000
-13309470.000000
-3258697.000000
-6039203.000000
-2902384.000000
-3817789.250000
4910768.000000
-7882228.000000
5236690.000000
-15772512.000000
9826206.000000
1015866.000000
-20564328.000000
-696049.187500
-15322418.000000
31555276.000000
-4001959.500000
10186342.000000
33298512.000000
14121814.000000
-5131338.000000
-10048849.000000
9064356.000000
-68556.687500
3396008.000000
-4648273.000000
-8582600.000000
4366304.000000
15031382.000000
-3294635.500000
-19334504.000000
1795846.750000
10276784.000000
6305551.000000
-10070230.000000
-3462432.250000
-257606.437500
-36917608.000000
-17127024.000000
21088048.000000
1424288.375000
39801976.000000
-27673204.000000
34529828.000000
3159855.000000
-494206.812500
-7867481.000000
-7323634.500000
-9623498.000000
9869574.000000
217698.281250
5155830.500000
-528553.875000
5511583.500000
-702612.062500
4180487.000000
782374.625000
-13246774.000000
17650452.000000
-567403.312500
-13947530.000000
-11169953.000000
6177460.000000
-4731735.500000
-9681622.000000
7587105.000000
10547141.000000
20048800.000000
-2968791.000000
4359950.000000
4511253.000000
7748995.000000
13396818.000000
-2605403.000000
4426117.000000
8715326.000000
14555648.000000
-23624888.000000
-7717426.000000
4654417.000000
4077244.250000
-4020825.500000
-13039678.000000
-12331250.000000
782768.625000
10609492.000000
-6992522.000000
1478400.500000
-6448024.500000
-4049237.500000
13122800.000000
4421373.000000
5061641.500000
17175372.000000
5053636.500000
17734748.000000
-15201755.000000
-33356028.000000
8395531.000000
5135992.000000
-17727776.000000
11479048.000000
8375630.500000
3573556.750000
12458408.000000
-6417601.000000
12626940.000000
-14202050.000000
-42388392.000000
-10016570.000000
-8876376.000000
1330435.875000
-6884090.500000
-15127920.000000
-2401313.500000
-3768466.500000
2137806.500000
-1497654.250000
152465.953125
896708.500000
-500214.562500
2438564.500000
4415728.500000
-326719.062500
3566887.000000
-5228732.500000
-1562512.000000
1432553.000000
3407786.000000
-4104343.750000
1642402.500000
-864157.125000
-226847.265625
-238631.750000
2798967.500000
-7091421.000000
3801169.000000
-3047638.000000
933094.500000
1341828.000000
1928739.500000
449729.750000
-757885.125000
-483002.125000
2153322.500000
2199187.000000
-467056.062500
402780.812500
-4747840.500000
-1023030.937500
127256.281250
-1067572.625000
-837421.750000
553216.750000
-962990.312500
3089552.500000
3286691.500000
-1731671.875000
-1167049.250000
-553621.625000
-4935308.000000
770854.750000
-3321643.000000
-3451920.000000
858444.937500
-76692.289063
-1171546.250000
-1286570.500000
4858098.000000
-2298602.500000
-9074.484375
2400374.000000
-2771288.500000
1451778.000000
-15089.208984
-3075945.000000
172568.375000
80140.328125
2794531.000000
-623209.125000
-156308.359375
-4222718.500000
94380.804688
1670585.500000
5371055.500000
4911478.000000
2224934.000000
3471793.000000
-2660720.500000
519601.562500
2287663.500000
-1954156.250000
-4516117.500000
-4936.768555
-1764869.750000
5930080.000000
5888958.000000
2916688.500000
-2236250.750000
480258.187500
-1497598.250000
-1339641.000000
624724.625000
-3810202.750000
4489421.000000
-1471246.500000
-1976777.750000
-1181888.250000
-1657801.750000
2673523.250000
-3710419.250000
4156290.500000
-4282315.000000
3244133.500000
6768882.000000
1686631.750000
4744850.000000
266771.687500
1429972.500000
1806746.750000
-6690017.500000
-3520003.000000
-4041037.500000
417238.062500
448602.062500
1771287.250000
-1512529.250000
568842.312500
4987171.000000
5057398.500000
-762009.125000
-1470951.500000
194787.812500
-3107325.750000
3126218.500000
-7103602.000000
-672363.125000
-1466865.000000
4653380.000000
-9183802.000000
4385931.500000
1542246.750000
-2670702.000000
-2262407.250000
3749881.000000
6438468.500000
316524.187500
-16655824.000000
-10229496.000000
9074872.000000
-489134.593750
-3095331.000000
3157067.000000
-6242134.500000
8532193.000000
478973.812500
-1564606.250000
-1748001.250000
-11036882.000000
-2360216.250000
-8892206.000000
-14913918.000000
-836478.250000
2301010.000000
-6614579.500000
9530890.000000
1069581.250000
-4102484.000000
-15382794.000000
1440727.000000
-4544784.500000
3890801.250000
182879.125000
-16483996.000000
-5307048.000000
10688626.000000
748678.687500
9686632.000000
10632090.000000
-9491860.000000
5280303.000000
-1107211.250000
-1268083.250000
-521247.250000
5844669.000000
7879437.000000
-10708316.000000
1069562.875000
-4665177.000000
5797619.500000
-6850351.500000
-5281836.000000
13240778.000000
4939571.000000
3131291.000000
-9243799.000000
-8546826.000000
3160827.250000
-11588684.000000
3217246.500000
-7803993.500000
7590189.000000
-3300071.500000
-18208400.000000
970650.687500
7070398.500000
-8155206.000000
-1097693.500000
-2888396.000000
-5021104.500000
-2427352.000000
-12143400.000000
4831284.500000
3169688.000000
4305596.500000
3865025.000000
499693.312500
1389259.500000
1105028.250000
311158.625000
-3582500.000000
1315004.250000
-3193197.000000
-5353441.500000
-3765131.000000
6245662.500000
1924006.000000
2288568.000000
-4548615.000000
1848259.250000
-3329785.500000
-3357588.000000
-3585481.000000
-8288980.000000
3498597.500000
14159382.000000
-9237028.000000
824497.250000
1917495.375000
-132293.390625
-1299778.000000
3114544.500000
-9739314.000000
-7394567.500000
4636644.000000
109951.179688
1628670.875000
2295370.500000
9420298.000000
-1484106.750000
-7374387.000000
-7496220.000000
2970430.500000
-3428231.500000
-7802808.000000
-6400092.500000
866742.250000
2503922.500000
-402418.625000
6758372.500000
-5711973.000000
4670160.500000
7207115.000000
587434.062500
-1112006.625000
-7106717.500000
6564610.000000
-4589349.500000
8326701.000000
-4371497.000000
3254849.000000
2303616.500000
6291238.000000
-2610476.000000
2410642.500000
1909495.875000
-256234.046875
6287363.000000
1240737.250000
2174288.250000
-4222623.000000
-7248928.000000
8616519.000000
2023370.750000
-6678809.000000
-3121775.000000
-5022422.000000
7157267.000000
2604630.000000
6350887.000000
-2417344.250000
3972901.250000
6259412.000000
10165555.000000
-5764745.000000
2622846.500000
4947657.000000
-5295781.000000
265532.281250
2104024.000000
9687135.000000
-6866836.000000
-1586445.000000
2907676.000000
-2261598.500000
1076877.750000
-3005623.000000
6247114.000000
-6751739.000000
-553132.250000
-3660280.500000
-424760.437500
-3319647.500000
945984.250000
48402.800781
-2469650.000000
-1346721.000000
2368415.750000
-1692969.750000
-2533070.000000
-1682813.250000
-966656.250000
-8468843.000000
-2919652.500000
2506434.000000
2806073.500000
-528779.125000
-612462.250000
15933.523438
9088594.000000
2539185.500000
-1434901.750000
-7621571.000000
-19028.875000
-5603208.000000
-6170797.000000
1932574.000000
-1218954.375000
-5547909.000000
3134754.000000
704165.750000
896685.187500
1391679.125000
-901072.375000
-3410554.000000
3505352.500000
-1754280.125000
-8952069.000000
9451016.000000
3837881.250000
2468911.000000
2938607.500000
1792939.000000
-470997.000000
-2459109.000000
-3176920.000000
-2246897.250000
463832.312500
-771828.625000
-694416.750000
1866011.875000
91620.062500
2333860.000000
-1524059.750000
-884224.125000
-438804.062500
2633770.500000
-443631.218750
-4171324.000000
5106659.500000
691255.437500
777104.062500
7251347.000000
2316641.500000
2487163.000000
-7554220.000000
-2836296.500000
-1247851.000000
3512428.750000
-2780195.500000
2904381.000000
-1780755.750000
1599716.500000
5390.765625
3492189.500000
2457303.750000
4228206.500000
-772266.750000
-3495192.500000
-261908.484375
3763622.500000
-1361005.000000
-7773095.000000
965182.500000
697534.625000
-4900497.000000
-4051740.000000
-2085938.375000
-6957130.000000
-2580668.000000
2834144.500000
-1181315.875000
-1361857.125000
-1359568.250000
5416448.000000
-1489172.250000
6917932.000000
-8775928.000000
6026756.000000
-1395352.000000
-4372925.000000
831407.250000
-13342886.000000
5445914.000000
-9757186.000000
4784240.000000
-3248700.750000
-11051602.000000
-912648.625000
1192404.250000
2733666.250000
17646632.000000
-10414386.000000
4613641.000000
-8884748.000000
-3334703.000000
-4028566.250000
-4022280.500000
-9681420.000000
3242370.000000
-4219180.000000
-2193664.000000
-7965876.000000
-3793725.750000
7915743.000000
5608861.000000
13109566.000000
-2868742.000000
-8202153.000000
-7694310.000000
-10345726.000000
2191455.500000
-1436999.750000
4207563.500000
-885366.625000
-300361.125000
-259807.437500
2617985.250000
-306222.843750
115159.882813
2897966.750000
-5312909.000000
4482978.000000
-17263188.000000
5878281.000000
-9978038.000000
10059632.000000
3048401.000000
10772040.000000
2419607.250000
10851112.000000
-8482916.000000
915336.375000
-16823734.000000
-3778768.000000
8502397.000000
5022946.000000
-6480311.000000
3665098.500000
1129516.500000
17119110.000000
-1763192.250000
-4640121.000000
-7748499.000000
-7165690.000000
-7615439.000000
-10832299.000000
-1777764.625000
710108.187500
3991805.250000
-6684015.000000
10026856.000000
-8764315.000000
4538398.000000
6754908.000000
5692447.000000
2422349.500000
11203096.000000
7432041.000000
-3037007.500000
8365922.500000
-7181464.500000
1502877.500000
14961597.000000
3546295.000000
1494061.000000
1978310.000000
8731651.000000
-7999641.000000
13783361.000000
-10457051.000000
-4723186.000000
22481658.000000
27740640.000000
12143225.000000
1267064.500000
-12116352.000000
-7855649.500000
-4783858.000000
-2858164.750000
2273826.500000
-4109096.500000
-13045442.000000
6699417.000000
10132349.000000
4918812.000000
2406991.000000
15484848.000000
-1819897.750000
9183869.000000
-6913658.000000
779225.687500
3600007.500000
126101.031250
6757658.500000
-1188224.375000
-8729031.000000
7378678.000000
24492546.000000
-2759464.500000
8091932.000000
-5915965.000000
-7246566.000000
-12706749.000000
4347208.000000
3994496.500000
-2691865.750000
-9504487.000000
8189147.000000
-1295180.750000
386490.718750
-1929345.250000
-1029902.687500
5224353.000000
2683508.500000
1985470.500000
-4519835.000000
-1788931.250000
8487288.000000
6640230.000000
-8465062.000000
1359137.750000
4979139.000000
-12524140.000000
-4775674.000000
-11402532.000000
-7133582.000000
-1696022.750000
2580747.500000
-12549888.000000
3010343.000000
3669915.500000
7586984.000000
3595970.250000
-778011.312500
6054934.000000
-641556.125000
-7845665.000000
266624.718750
-3304453.500000
4123967.250000
6011223.000000
-5733025.000000
-5035199.000000
7920230.000000
3955508.500000
-1211596.750000
-3898054.000000
10855039.000000
-6160998.000000
5902985.000000
-5967035.000000
-13990102.000000
379521.750000
-3161454.500000
-5523560.000000
3491410.000000
5944857.000000
4927540.000000
-1792549.625000
-534889.312500
7488150.000000
4199699.000000
4284471.000000
-2245821.000000
4346413.000000
2177521.250000
-2399784.000000
-1685185.500000
-19281888.000000
-918649.125000
-1372425.250000
-30004726.000000
353616.156250
17674824.000000
-551505.625000
2931571.000000
-2134825.750000
5745772.000000
11938028.000000
-5796406.000000
11651742.000000
332718.156250
7702104.000000
-12008406.000000
-5179854.000000
1981395.500000
8737632.000000
-3354871.000000
-2516806.500000
-35281508.000000
13500714.000000
-16308346.000000
23690178.000000
14966942.000000
3058569.000000
15789824.000000
7171170.500000
-3361602.500000
5187730.500000
-30795890.000000
29689978.000000
-7037194.500000
41948564.000000
5236863.000000
10974062.000000
-3768559.500000
-16065404.000000
8281940.000000
-7573286.000000
-4002297.500000
-4550590.000000
2463740.000000
-11262140.000000
-13768640.000000
11889434.000000
-3289753.500000
-440441.625000
-14961494.000000
12097240.000000
829722.312500
8980284.000000
-7596353.500000
-2798681.000000
14953750.000000
11423674.000000
-58475632.000000
-10826938.000000
66050772.000000
2603781.000000
-15221244.000000
-7176077.500000
-3811076.500000
5496173.000000
-19161742.000000
8281284.000000
13443256.000000
-31433476.000000
5203736.500000
1715937.875000
13534207.000000
4384108.000000
-7323625.500000
4270334.500000
-2421092.500000
8658272.000000
17786322.000000
13335354.000000
5059146.500000
1976464.750000
-11655144.000000
14634694.000000
-5998890.500000
-2675096.000000
3237974.000000
-924185.312500
7916416.000000
-3514508.250000
10885254.000000
7537253.000000
16444888.000000
13522966.000000
-13391072.000000
-10573140.000000
-2885419.500000
-49757508.000000
2950742.000000
-9458550.000000
61700988.000000
2924470.500000
-6280253.000000
10157526.000000
-19900026.000000
3101430.500000
-7631102.000000
4288821.000000
173200.046875
6428628.000000
-18783132.000000
-13220026.000000
-834252.375000
-16051360.000000
-5728289.000000
-13934024.000000
-6389622.500000
396704.812500
18386222.000000
-1030579.875000
-1534808.250000
2043142.250000
7679127.000000
-54792920.000000
5658779.000000
54291932.000000
144657.796875
518156.031250
-255418.875000
15336900.000000
-2248064.000000
-37906.375000
-1969601.750000
5289910.000000
-3075372.000000
2932540.000000
8556236.000000
4543297.000000
-2114640.250000
4547460.000000
298207.437500
-11525066.000000
-2828936.000000
1438277.625000
-5186441.000000
-4119189.250000
-1265923.375000
4045976.500000
8417826.000000
-1332501.750000
-2240187.000000
-7785300.000000
-2492439.500000
5391764.000000
-4775657.000000
2175105.000000
537977.437500
1865428.875000
924102.000000
3616387.500000
-4231090.500000
888839.625000
-51624.843750
-3372040.500000
6814870.000000
-4320577.000000
-336031.312500
-325527.375000
7387123.000000
-2579302.500000
3675852.000000
-1870225.375000
-354807.593750
3201989.500000
2336123.000000
-4841634.500000
-224440.906250
-1784554.125000
1278138.000000
3494713.500000
1418719.750000
-4015672.500000
-3135079.000000
-3470428.250000
-7512845.000000
-5611132.000000
383462.218750
-5001836.000000
320592.593750
-10502.421875
-6629022.000000
-2580079.000000
-3863387.000000
7039906.000000
1866495.375000
-43312.796875
-804602.375000
10590434.000000
4975595.000000
-8726221.000000
-5811961.000000
-3104705.500000
11555756.000000
-429947.750000
-11804944.000000
8064699.000000
-9786572.000000
3782443.000000
3001385.000000
291908.375000
-5706084.000000
2854611.500000
2522702.000000
16545040.000000
-3904340.250000
8464090.000000
-3018606.500000
-4884693.000000
-15379784.000000
-6227590.000000
-13945214.000000
2330086.000000
-10962700.000000
-1842818.250000
-5850.406250
242696.812500
-4260805.500000
-2627799.000000
-7748546.000000
4959416.000000
23840488.000000
621656.125000
15442130.000000
3348539.000000
826935.125000
-5676687.000000
-6760984.000000
1113418.375000
3692202.000000
826419.062500
5251602.500000
2555401.500000
-3690996.500000
-6855642.000000
5467641.000000
-5874003.000000
-19936816.000000
-1647496.000000
-3836838.500000
-2753289.250000
-895368.312500
12145964.000000
-1372729.250000
-13700710.000000
-830044.062500
-15807564.000000
-1522545.625000
9677782.000000
2071887.875000
-3210244.500000
10528388.000000
-1430858.125000
553307.375000
53829.820313
4283100.000000
-1007386.000000
-4943073.000000
-670607.875000
824304.750000
7309071.000000
1335567.750000
-7034950.000000
2036741.750000
390640.125000
-2133585.000000
-3957443.000000
217255.281250
-4942955.000000
1804407.250000
12743088.000000
-1216053.375000
4792900.000000
3994608.000000
-1942194.250000
2741986.500000
-7381058.000000
-8537738.000000
-1084792.750000
223109.437500
-8551468.000000
3139108.750000
3341277.500000
3262866.500000
-1100187.375000
2166689.500000
-2310115.250000
170261.625000
-4233166.000000
-1552881.625000
10924548.000000
4882914.000000
-1602997.875000
-2911591.500000
-85868.125000
1166425.250000
-1954995.250000
-1011788.000000
3061583.500000
-1288901.375000
2908980.000000
-1783931.500000
-4334271.000000
2750855.000000
403725.343750
1712444.000000
107042.250000
1214233.750000
-1338182.875000
3057799.500000
-297289.375000
-5414838.000000
247433.625000
825522.312500
-3411447.000000
-1341061.250000
-5996412.000000
17250528.000000
-621166.125000
33469640.000000
-11462428.000000
6173035.000000
9605616.000000
-7701103.000000
-12155430.000000
13788646.000000
-3569219.000000
-38060616.000000
17225324.000000
3583633.000000
50327052.000000
7896108.000000
-5573800.000000
-19241192.000000
2663567.000000
-7066809.000000
-3143086.000000
4070165.250000
3294573.000000
1863623.000000
3441971.500000
-2304847.500000
-2035569.750000
8630400.000000
-4951996.000000
-13633410.000000
-5161238.000000
-2970486.750000
-35300504.000000
4874216.000000
9109149.000000
19614916.000000
-4191778.000000
19519620.000000
-10391387.000000
-18883156.000000
-16738222.000000
15031228.000000
5835032.000000
-6890159.000000
-11592047.000000
-9484492.000000
-9873664.000000
-17934764.000000
-10919283.000000
8813310.000000
5568519.000000
4835097.000000
-11556454.000000
20279588.000000
533032.062500
-3359691.000000
15194696.000000
-21399712.000000
-43679592.000000
23840388.000000
-6214145.000000
-16381928.000000
-4183590.000000
-16456282.000000
-1969324.375000
24334160.000000
1129737.125000
-4880910.500000
2676140.500000
-1175311.750000
-4358794.500000
7572146.500000
-8067120.000000
-4961387.000000
-3233422.000000
-99856.515625
-992131.250000
10885508.000000
-1674495.125000
4923359.500000
-2912474.500000
-905498.875000
3107982.500000
3215329.000000
-829586.625000
-2755622.000000
-829180.750000
638876.187500
-582278.375000
-6872717.500000
3135759.000000
-2576822.000000
-6726991.000000
-2160840.250000
7507478.500000
-6253.638672
956445.625000
-3390113.500000
-73920.390625
-4253145.000000
8682972.000000
-7041306.500000
-5432318.000000
-13282.515625
-8217683.000000
2505727.500000
2410139.000000
3827302.000000
3261571.500000
1393270.125000
-695247.562500
-2278632.750000
-2773877.500000
1626433.750000
3979371.500000
1069860.375000
-1502989.000000
4330210.000000
586092.250000
2490477.000000
-2812859.500000
2801885.500000
5638815.500000
-7090511.000000
2085505.875000
11318648.000000
4740503.500000
-79323.234375
2637531.000000
-2091071.000000
3847.734375
-15858144.000000
1113054.125000
-11917966.000000
8441355.000000
-1243190.000000
-224814.593750
-4189797.500000
-2675185.750000
7718514.000000
-561117.250000
-6052799.000000
3180959.750000
2118766.000000
4549400.000000
-2744463.000000
-2121788.000000
-244707.406250
-18215908.000000
-5953760.000000
1734472.875000
1708577.875000
-2573238.500000
10269443.000000
-3092332.500000
3852169.250000
15316860.000000
-8919435.000000
6322472.500000
-15867009.000000
2908589.250000
6711858.000000
-1323667.000000
-1393649.375000
412277.250000
-17774004.000000
-12791171.000000
-3288157.500000
8879128.000000
10426134.000000
-2805146.500000
1485675.250000
-4275313.000000
7544204.000000
1289977.750000
-2890331.500000
-9703562.000000
5562520.000000
1212556.750000
-7580359.000000
-6721379.000000
9102862.000000
-2096078.500000
1735099.750000
10490825.000000
-141644.687500
-32215988.000000
-19305660.000000
23208840.000000
-11254100.000000
-20494608.000000
-3937369.000000
2945228.500000
5615568.500000
5231228.000000
4182920.000000
24664924.000000
3946432.000000
16595191.000000
15234266.000000
4310775.000000
4356497.000000
2663606.000000
-3985395.500000
-13383488.000000
-8939265.000000
14274905.000000
-5575355.000000
-7626850.000000
-3946499.000000
4168220.000000
-1099547.750000
-1315740.875000
-6668434.000000
11421458.000000
-20789564.000000
3406126.750000
-13953289.000000
-5651956.000000
-10199674.000000
-3514184.000000
5782262.000000
5330215.500000
2341906.750000
3757058.750000
10443423.000000
-1700996.250000
16075247.000000
6962430.000000
-22685916.000000
-6660727.000000
-12045545.000000
-17468056.000000
15900128.000000
16109727.000000
-1261431.125000
10269075.000000
11638227.000000
-8768228.000000
7448768.000000
-6334837.000000
-5484950.500000
-1594716.250000
1852129.375000
-30454660.000000
-5447713.500000
-18091448.000000
4496414.500000
-8399495.000000
3264604.750000
-6774271.000000
13377131.000000
8544335.000000
13262361.000000
-7563586.000000
-2316494.750000
8472433.000000
-14108355.000000
13550008.000000
-3633405.500000
-3215501.500000
-8844618.000000
15361685.000000
27605.562500
-24843692.000000
-2870414.500000
23968208.000000
-8837788.000000
-3962841.000000
-5899040.500000
13792607.000000
-11723802.000000
-9012310.000000
13324545.000000
15052873.000000
22236452.000000
45890.453125
-1671078.875000
-17433008.000000
187663.015625
854145.250000
-1035771.562500
-11658485.000000
-6500619.000000
-229607.421875
-4779159.500000
-7518252.000000
3341705.000000
-16732864.000000
-17850140.000000
-14445846.000000
-4506817.000000
-32311224.000000
14775554.000000
-935332.250000
5912156.500000
3425064.500000
-1090277.250000
13990342.000000
-13062035.000000
-7291347.500000
4974130.500000
-18754.375000
4056115.000000
5877934.000000
-2361075.000000
1808658.625000
718758.250000
-5523863.500000
-9471752.000000
10365794.000000
16670890.000000
4215351.000000
20193724.000000
20106464.000000
-7204082.000000
2599573.250000
-27137776.000000
-46776360.000000
12947594.000000
28573176.000000
-528918.500000
8750255.000000
4941836.500000
1727339.750000
-21654532.000000
-12047933.000000
13065304.000000
-4164127.500000
-50156248.000000
-8346191.000000
9446378.000000
-9822099.000000
7900755.000000
6482527.000000
11297747.000000
-4081098.000000
-3283891.000000
-8989992.000000
29920518.000000
-3691647.000000
1701378.000000
6085343.000000
2494453.750000
17690620.000000
1619116.750000
-5721669.500000
-87293120.000000
2500209.250000
-4939646.000000
16942294.000000
4457954.500000
-5173567.000000
4859524.000000
22110452.000000
-7543055.500000
-13494779.000000
-38650568.000000
14780963.000000
2396767.000000
4458366.500000
584745.750000
1421027.625000
5807421.000000
-12148982.000000
-1500989.625000
4480552.000000
2688484.000000
13102359.000000
-8910853.000000
11700999.000000
5230315.000000
-7927021.000000
-12932736.000000
-27867344.000000
-19513444.000000
8524184.000000
6613010.000000
26296566.000000
-11970951.000000
9956515.000000
-27970554.000000
-20164918.000000
-15213758.000000
-12937977.000000
37087216.000000
-17908640.000000
10485252.000000
-7532767.500000
8217109.000000
17487708.000000
-1264697.625000
-4643950.000000
1901334.625000
3968369.250000
889430.750000
-483267.093750
-7508638.500000
7801382.000000
-1452891.250000
1568554.000000
-330995.500000
7245937.000000
-3454435.750000
-812744.062500
-10517530.000000
202340.562500
-1952165.000000
724258.000000
1151026.125000
-608708.000000
1582091.250000
2282593.750000
-1729759.750000
3507820.000000
-5405634.000000
-4580990.500000
-2590440.000000
-2598703.250000
-2701297.250000
1803141.125000
2782908.500000
-3860613.000000
3302060.000000
-6060233.500000
4598367.500000
8318523.000000
-7907681.500000
4215906.000000
-9616632.000000
-1886277.500000
1877137.375000
2409180.500000
-3254742.000000
4222982.000000
8204333.000000
2151506.500000
875546.875000
2223057.000000
-977929.000000
-1828.562500
-3860482.000000
1026268.000000
3301478.750000
6385788.000000
648202.062500
3959446.500000
-444864.437500
-3006958.000000
1256362.750000
-7191637.500000
-3069403.500000
-256748.500000
-5384921.500000
-5816272.000000
-1487787.500000
-15445166.000000
4872656.000000
-20371768.000000
9313084.000000
622824.812500
-4664016.500000
2651408.500000
1523029.750000
12292538.000000
-1920224.875000
-9740281.000000
-4833780.500000
359993.468750
23124916.000000
4714654.000000
2023694.750000
930057.125000
-17926660.000000
-3151402.750000
4507533.000000
6854757.000000
-2280315.000000
8585212.000000
-4792636.000000
13579256.000000
11290666.000000
6037440.000000
2322459.500000
-8588982.000000
1479.945313
-638721.812500
8210699.500000
-4858608.000000
1437047.250000
-19935952.000000
-8957602.000000
-4656383.500000
3597142.500000
-360376.437500
-3135294.250000
1730184.000000
-5143743.500000
618665.750000
3294788.000000
-1793151.000000
-14270951.000000
4977601.000000
7636075.500000
-10540207.000000
-7812530.000000
4597490.000000
-4245741.000000
-10442515.000000
-930370.375000
1345464.750000
-29944416.000000
-15392539.000000
29669104.000000
-7349166.000000
-12763835.000000
-6456223.500000
7377064.000000
439378.250000
7205941.500000
9826897.000000
14467969.000000
-5639325.000000
3312042.000000
-4049616.000000
2470050.500000
395808.593750
-9545405.000000
-4054702.000000
6304339.000000
4744516.000000
-3346687.000000
2488309.000000
-3430677.500000
8499735.000000
13426574.000000
6208029.000000
-5083938.000000
4791277.000000
7208963.000000
-8554086.000000
6782263.000000
-8200986.000000
-1854194.250000
-10428528.000000
12534842.000000
-6828795.000000
12832266.000000
-1107459.000000
10408329.000000
2507577.500000
-3114497.500000
9628280.000000
7347561.000000
-268650.656250
-21621052.000000
-6806988.000000
6392308.000000
-1492105.375000
12581026.000000
-2691805.750000
1656814.000000
-3041381.000000
-1403360.500000
-7867800.000000
2726028.750000
-9211178.000000
14255438.000000
-3720135.000000
-12073722.000000
-6446215.000000
-8009193.000000
-1459218.000000
1396516.875000
-6915850.000000
1229588.000000
-5533456.000000
1481958.875000
-1582729.875000
-15094248.000000
-1873405.375000
1733814.125000
-6997023.000000
1121840.250000
-756797.375000
-2732828.250000
9636099.000000
-810314.000000
-3788739.500000
-10724555.000000
-1560023.375000
-9729445.000000
4212983.500000
1021259.125000
-2578639.000000
131681.656250
-12018421.000000
7359210.500000
-8657006.000000
31687842.000000
419142.625000
1661069.875000
4864518.500000
2748137.000000
11962099.000000
3327159.000000
-2766554.750000
25678406.000000
11996158.000000
-12774071.000000
5643296.000000
-2491500.500000
-3686397.500000
4842400.000000
-3561225.750000
-16161978.000000
2130008.500000
-8531279.000000
7459135.500000
9626211.000000
22378886.000000
8110661.500000
-2592328.250000
-4832959.500000
-9589501.000000
-6246649.500000
-1106117.750000
-3560962.500000
-2249039.000000
-4696723.000000
842936.625000
5685866.500000
-5309835.000000
-7224699.500000
-9908245.000000
6002574.000000
906213.687500
3230681.250000
39278480.000000
157775.671875
-4475665.500000
4915714.500000
-9151367.000000
-23656602.000000
2431521.750000
-11458855.000000
-15515461.000000
3206526.250000
-11890072.000000
-11510264.000000
4212314.500000
-5008965.000000
-2468657.000000
-4294909.000000
13108658.000000
4943694.000000
-547032.125000
978391.500000
-1404849.000000
3067782.000000
3264750.500000
2259607.250000
978788.125000
-2938231.000000
-3876169.500000
-205138.359375
3184109.000000
-878769.375000
-6064179.000000
2874633.500000
-359280.000000
-2148088.750000
-4443617.000000
297404.250000
-2199633.500000
5867517.000000
-443981.250000
1994044.750000
-3981278.000000
3224375.500000
2775880.000000
-3922647.000000
-2923120.000000
-8427310.000000
-2953377.000000
7127395.000000
-3542510.000000
-1956663.250000
-511443.750000
-249721.281250
-1605166.000000
-1219248.750000
3787120.000000
1100993.500000
-3498208.500000
-2481550.000000
-2330622.000000
-8713910.000000
3019670.000000
-2922394.500000
2273450.000000
-10113400.000000
3768614.000000
5879409.000000
-1358651.500000
-1105262.875000
15479.460938
1231520.500000
-3686892.000000
2900873.000000
-12220272.000000
5534204.000000
-572040.000000
-3772232.000000
1757034.500000
-1270910.500000
3240121.250000
-7256282.000000
-5539218.000000
7023691.500000
-3161969.000000
-4610274.500000
5760896.000000
-4374670.000000
-936020.250000
15908820.000000
127398.812500
6251711.000000
4571684.500000
7447652.000000
-3936161.500000
2894532.000000
-1910766.625000
782331.625000
2322916.000000
5837463.000000
10914392.000000
16920952.000000
-924457.562500
-1087901.000000
730050.625000
11725855.000000
4061635.000000
-10164776.000000
10354289.000000
9404982.000000
-3458362.500000
-3986325.750000
-8519596.000000
-428213.156250
12675766.000000
68829.437500
-6494118.000000
-6227006.000000
-4633878.000000
-1086326.875000
3748014.500000
6203448.500000
6954925.000000
8486917.000000
-5406823.500000
69617.484375
-2294821.750000
-4810493.000000
-6272385.500000
3578813.500000
3852913.000000
-4241517.500000
1697033.875000
-4689884.000000
11245578.000000
-1512525.250000
-8634292.000000
8909294.000000
5825339.000000
-10223614.000000
7050788.500000
10601590.000000
-102365.296875
-7614272.000000
-1420820.250000
2336064.000000
-4795150.500000
-1328996.875000
10939479.000000
4779935.500000
-152519.687500
2974287.000000
5308820.000000
4558071.000000
952013.750000
-369166.375000
9795538.000000
-4997511.500000
-2876107.500000
-463359.375000
3447083.000000
2912988.000000
-755928.750000
-9162036.000000
6065583.000000
7815420.000000
838177.062500
233372.968750
3405478.000000
-187844.375000
3344959.500000
-1497090.500000
-1424940.375000
-1484097.750000
-7174727.000000
4973834.000000
3927611.000000
-1516427.000000
-4033636.000000
-728128.187500
-1332476.750000
-10233334.000000
-6692247.000000
4309475.000000
-8826678.000000
-2090370.000000
-5241690.500000
-7284630.000000
-3767736.000000
-5206400.000000
-3388282.500000
-3271938.500000
-8516092.000000
-7124901.000000
8003660.500000
1363219.125000
6810064.500000
5246610.500000
-6673616.500000
-1050304.625000
5484492.500000
-2617045.500000
5652672.000000
-563775.750000
-5484295.000000
-4256710.000000
970737.312500
-2739214.000000
2378636.000000
-9766144.000000
-6367554.000000
-3220653.000000
13269950.000000
-7369978.500000
-889159.125000
-3838760.500000
3628603.500000
1357807.750000
195859.156250
-4008579.000000
-1625917.500000
519230.437500
4626361.500000
-5752723.000000
-12996704.000000
6155246.500000
-5119917.000000
4545202.000000
-392005.531250
-3803119.500000
2938100.500000
196161.781250
4080241.750000
1107885.375000
-1351733.750000
-4035934.000000
1359937.750000
-163711.500000
816291.250000
2409649.250000
-5552951.500000
-9066737.000000
-2113043.500000
-1487950.375000
-5086771.000000
-3471078.500000
-5862263.500000
-721884.250000
4672414.000000
-3936030.000000
-358892.968750
-1720141.625000
274056.968750
3949356.250000
1994116.125000
1820808.125000
1838563.625000
-6427180.000000
-1003568.625000
-2167580.000000
-10099961.000000
-5585118.500000
-185605.484375
3486984.000000
-5218153.000000
17595.843750
-2452796.000000
8507058.000000
-990315.125000
4601719.000000
-10196102.000000
1888352.250000
-3310358.500000
1903433.750000
5205063.500000
-2401324.250000
11323830.000000
3693277.000000
1755535.125000
3563594.250000
4302914.000000
-2749048.750000
-121372.273438
5882295.500000
-7844519.500000
-1116541.625000
3174231.000000
8729233.000000
-2446914.500000
-12658343.000000
-6056147.500000
8898563.000000
4448127.000000
-1677774.250000
7494154.500000
536290.375000
-9960326.000000
-11573748.000000
6380744.500000
-2796468.000000
-324892.718750
-8397004.000000
-3557065.250000
-2699678.000000
3546144.750000
7851933.500000
-3439981.500000
3869758.000000
-5208632.500000
-536739.875000
6945550.000000
-12224215.000000
5035298.500000
3690505.250000
-3850715.000000
-3031368.250000
-9065733.000000
-2775252.750000
533156.125000
6170143.000000
3295815.750000
-3861328.750000
-6007742.500000
-471268.500000
-780585.875000
4185376.500000
1147503.375000
3272960.500000
-9409278.000000
-5884177.000000
-5686922.500000
-1031159.875000
7307340.500000
6952407.500000
8976060.000000
3728805.250000
-12893838.000000
-4114986.500000
5051556.500000
-10110381.000000
-24511960.000000
2024883.875000
-16190206.000000
29055038.000000
-4057084.000000
-720383.750000
-168607.234375
-826661.187500
2674330.500000
809568.937500
-6903362.000000
3790378.750000
1055726.375000
10327166.000000
5077599.500000
3400360.500000
1115250.000000
-18606830.000000
1542427.250000
4166806.000000
2404512.000000
12380345.000000
1263264.125000
-3591694.500000
18237728.000000
16442503.000000
-2938418.000000
1355899.875000
-8164528.500000
1775749.375000
-51005.355469
3402331.500000
2530927.000000
-2333725.000000
18390788.000000
-7554925.500000
-5741587.500000
6358162.000000
14255213.000000
447287.562500
1873204.000000
585349.187500
2140738.750000
3738373.500000
-800588.625000
-4719366.000000
5669454.000000
5309429.000000
-3879509.000000
-2972548.000000
5004112.000000
-2067511.500000
8917893.000000
-1825525.000000
1640313.750000
-15823401.000000
-12255334.000000
-19328010.000000
-5769876.000000
-9841728.000000
-3498854.000000
6393757.500000
-3311023.500000
7058131.500000
-170173.906250
-1809549.875000
-1407013.375000
-1220023.500000
8873332.000000
-4008889.250000
-1773061.750000
1116363.375000
3839525.750000
792731.312500
1769180.125000
7355782.000000
-3521772.250000
-801722.375000
-2730459.500000
3279706.750000
1618877.750000
-3640077.500000
6628832.500000
-1119031.250000
6424260.000000
-8092051.500000
-2300806.250000
-2494392.500000
2673137.000000
-3079732.000000
-3901689.000000
1462861.750000
1021284.562500
-5801377.500000
-3268794.000000
4604198.000000
-81401.359375
-5510217.000000
454158.812500
-1768845.875000
636095.375000
7417729.500000
6877833.500000
8818097.000000
-1430394.375000
4317432.000000
-3247124.250000
-3519398.750000
6359230.000000
-1437922.000000
-975699.875000
5663810.000000
-4267903.000000
3921158.500000
2974479.750000
2444163.000000
-4718206.000000
5462593.000000
-6362122.500000
586961.687500
1126140.250000
-6604581.000000
-755736.000000
10042252.000000
-3735238.250000
1060103.125000
-6133149.000000
5915821.500000
-2491649.000000
-4577984.000000
-445193.000000
5459373.500000
-11423629.000000
-11125850.000000
-3733542.500000
3823076.000000
4517041.000000
1876659.250000
5412722.500000
4205485.500000
1514035.875000
4172051.750000
7301920.000000
-13516089.000000
3311471.500000
-285928.375000
5407421.500000
-3990598.500000
-4052198.000000
-3499789.500000
13043398.000000
-21697748.000000
-3498464.500000
1765765.250000
3497874.000000
-4642309.000000
-1403115.250000
6185864.000000
-10997280.000000
-5007148.500000
-3485870.000000
681193.812500
-4236.250000
-3856941.250000
-23002056.000000
-4313779.000000
4168944.500000
4926407.000000
-8012764.000000
-2809648.500000
3286321.500000
-10639052.000000
2211402.000000
-296075.937500
-10108191.000000
-1584386.000000
15484239.000000
-2392001.500000
-10961120.000000
4170848.250000
5934397.500000
2405198.750000
-10469023.000000
1482146.750000
1008024.437500
-17150352.000000
-14154807.000000
35367096.000000
132190.828125
7333134.000000
8268433.000000
2549672.500000
1411738.875000
-256190.781250
5395557.000000
-4334765.000000
-3066514.000000
-9084258.000000
-9829523.000000
-3631588.250000
-2552461.000000
-4270865.000000
-4189966.000000
1139354.750000
6520137.000000
-6283343.000000
-1225715.125000
-2568911.500000
4419327.000000
12895880.000000
-2087591.500000
2926858.500000
-4395793.000000
-1673137.000000
1395939.625000
3656251.250000
-10672903.000000
-807358.375000
-2912138.250000
-4900676.000000
5614554.000000
936032.187500
3877444.000000
-1317408.250000
-2345828.500000
369068.875000
1200250.250000
4482864.000000
1299883.000000
-12907630.000000
-955519.250000
-7201489.000000
6786916.000000
-1463071.750000
-1174339.000000
7679293.000000
1134343.000000
7867025.000000
4995514.000000
-5077120.000000
-4044006.250000
20720228.000000
-1851377.125000
-13097569.000000
-6434265.000000
-2877963.500000
-7225054.000000
-3038362.000000
5694149.000000
3828558.500000
-9828519.000000
-6536040.000000
29531618.000000
18008590.000000
7015527.000000
-2901986.750000
22712.500000
-709430.937500
-3593340.000000
-916904.375000
216634.937500
-759.120361
-486.511139
-102.052841
783.691833
-272.135529
-683.114014
-330.263550
-519.682251
-93.504761
-260.627441
559.619812
-660.340088
108.693039
-247.671906
-2533.577881
184.695694
386.274658
193.932907
1089.198853
1749.626343
-110.613602
967.995972
47.011749
843.884644
461.955139
407.047791
-211.058060
1579.709717
-162.689758
1380.500610
498.486023
583.358521
406.605713
204.654831
93.948288
527.236084
221.932739
47.523121
879.467590
1426.047485
991.521606
-2173.509766
387.350006
-540.842346
812.893188
-309.547913
740.109497
-876.275879
2389.258301
-417.007080
-1668.811157
574.448792
-374.339874
136.473206
-958.792969
959.733643
1159.705688
-49.752666
750.816284
-766.888550
727.705688
471.236145
1282.897461
1160.972534
137350.390625
-1117.594604
-96.672974
-72.501854
-633.500610
224.663788
53.258343
-809.343018
-270.188812
318.388550
-1013.659668
-642.564575
669.519531
-308.505676
75.523758
384.045044
516.190918
1001.320435
-1514.592529
1050.220703
1034.787842
-524.795471
-2496.868652
80.717300
419.065186
667.187012
418.750488
-766.118286
291.692261
414.478333
2227.754883
732.164429
316.925659
-529.578857
-687.467529
-770.813965
-147.905518
-125.096359
-844.272217
-514.256592
-1395.357178
108.429390
-601.340210
795.995361
571.659302
872.713135
-227.296967
-928.410767
1779.527100
-1200.668457
1786.367920
2278.348145
-823.971069
618.979614
121.097214
-206.645081
1278.776855
980.966187
-486.386902
-870.436890
934.781982
406.054321
-401.548523
-774.058105
-1053.640991
172291.062500
-290.641449
1385.822021
236.483917
-556.000122
-1673.929443
1598.552734
91.423752
268.711731
717.239197
-1261.453857
2085.585205
1416.969971
-480.018005
-146.073624
-3461.818848
48.257198
-530.232971
-396.314270
1995.024658
-1011.627808
1779.561768
-254.960876
-0.617479
1456.238281
218.245483
-373.044983
1526.915039
350.706116
811.731689
2439.482422
-891.142090
1311.798218
230.706665
-341.750427
593.807739
1256.615967
-850.500977
-49.948902
314.070282
-102.872910
1984.918457
-602.140259
1759.887207
97.713036
469.812012
-1179.953125
-708.303711
-2236.931152
-2330.144287
1405.226563
2325.408691
-641.325928
-1187.972168
429.838013
-2419.758301
485.139526
2402.753906
-615.360718
1469.985107
-193.074860
-1490.247559
-605.884033
-280.631165
-751.939453
245091.000000
2739.213379
-1098.055908
-348.855042
318.208954
-999.127930
-789.869385
-527.317505
-58.401691
-385.587280
-194.093994
-383.171600
-233.758926
-271.764587
676.549438
-1645.237549
185.736664
583.144043
1356.137207
339.272736
1121.072266
9.496515
-1085.910645
-478.541046
1085.430664
3.979893
-40.546989
-2336.456543
-1733.238037
17.549507
-3392.777344
174.028275
107.783424
-398.427734
1036.990234
536.203430
369.330566
-108.140900
-829.708374
-655.013367
-92.720345
-1221.924072
-2577.762695
696.682495
-641.620117
-305.556122
-775.081421
-214.104889
-794.614502
363.489532
-2643.123047
1331.241699
790.000366
-652.626587
1509.649414
179.409729
-84.846237
347.933716
-473.168213
672.916626
-1155.216309
-1059.560059
424.363770
-1323.861572
-632.614319
142579.187500
-1457.767944
-392.279083
-378.273865
-432.815491
524.592224
-307.195282
1096.148193
164.135452
519.390747
-2428.242676
-346.879700
-2742.239014
93.343987
-84.871338
-670.069946
-213.964111
-1173.151733
565.580750
-2566.137207
-1447.556763
902.599792
1562.872681
68.048492
340.848541
15.921064
817.375977
-806.597656
226.852295
126.010094
-1448.401245
-588.209473
452.676971
84.650436
-1095.604492
-716.248718
316.272064
-306.663696
1041.242920
-1564.543701
-986.096680
28.697460
35.680283
-368.606842
897.468811
654.838501
-2822.758301
-368.891388
3098.230225
1114.720703
-1304.962891
2429.140869
1292.556519
3014.307861
-693.433716
-1376.942871
66.065750
414.819580
399.322327
-1131.384155
-659.138245
3921.599609
274.546631
1263.136841
-44.701401
263446.062500
-31.907328
802.292969
-414.769348
445.782593
-325.370178
243.798279
559.693481
322.569580
22.036646
1338.188232
-424.432678
1151.275391
-10.042747
-98.777718
-288.105560
-454.112915
-472.689514
-285.407654
-133.656815
-1625.894775
652.868652
-3307.993652
234.991699
-269.006104
316.226746
-421.128967
132.010193
-1364.442627
-306.764221
173.108398
-1336.802002
344.640228
228.077026
-646.744080
200.582474
102.665039
-571.429565
554.975830
86.284294
-38.667419
60.271706
1921.305420
-2109.105225
774.736816
554.713684
1550.673828
-739.236938
-1942.136475
-3079.575195
1322.287109
-766.131348
112.175232
-292.715118
-1414.315918
516.406799
210.566513
435.716492
-148.971863
-118.812393
544.264404
-1575.460693
-306.312286
-1077.289551
-366.683380
247289.671875
-2069.271240
-3841.271240
474.151245
-388.437164
-1415.765625
608.443848
-213.995148
-607.468872
-354.901154
-3946.498047
809.632568
-147.393433
399.374329
-88.499817
-1731.775269
-329.402252
152.485535
80.187546
1411.589478
-2239.589111
174.491547
14569.259766
123.759819
-3695.018066
18.959148
-558.826965
-250.348022
413.757385
272.730774
-1842.517944
-821.567261
411.435822
642.811279
118.965141
-284.864532
1071.166016
471.282288
-689.385498
-741.321777
-396.983398
-2790.913818
-2504.011230
-732.706665
-568.527832
-39.818836
-2618.832520
77.003830
4019.771729
-2291.154785
-4057.760254
487.419312
74.492958
2919.420410
381.800964
-2361.213379
585.309570
967.197876
492.689331
-1102.337891
-571.609802
5103.701172
-458.189148
-1064.566406
-158.362289
268860.812500
2325.621582
429.917297
630.308838
-319.588318
-417.165131
-582.226074
823.932617
-251.853973
519.979919
1864.756348
-1535.858643
1221.039917
-776.393799
471.206726
544.170105
1163.421387
-515.133911
-1174.312256
107.654190
669.129822
-660.660400
-3929.519043
82.338226
1363.881226
-906.087463
-295.848816
173.442871
406.824860
-837.127014
-211.881592
-694.698242
-1508.860229
109.914764
-397.447388
-139.812469
-1870.265381
770.106445
59.861038
844.065430
-233.055206
-507.575348
2080.039551
-1686.243896
905.322876
50.078865
2053.724609
793.838013
-139.266998
-3396.965332
2763.828125
-241.355087
511.093750
-1139.285767
-26.810616
12.159840
505.052612
141.033585
-647.892090
-293.538177
1097.453735
-691.171753
-399.718140
750.189331
29.126617
227478.515625
5863.533203
2478.004639
-242.013977
-512.493164
-200.680984
457.724762
-139.008057
340.436707
-223.776352
159.901413
-1383.343140
-1510.172729
370.490021
-1071.779785
2370.926270
646.301636
-8.685123
180.602036
-1966.945923
387.216370
-619.104980
1736.672119
-328.005035
3453.933350
-107.649460
-256.267487
1422.148804
2114.274658
132.718948
5108.850586
335.408661
144.219131
-714.345459
1344.799927
1478.953735
-1076.165283
-6.681660
-1332.896973
1383.339355
1084.714600
-767.863159
734.393433
218.356445
435.200012
-276.705750
4774.519531
-620.725342
2562.563232
-184.898361
2593.339355
-277.908661
-2165.179688
1314.524292
482.144592
3034.520996
-378.874603
-214.121704
-99.079941
-1126.338745
170.030014
2718.934326
-154.270828
1401.679443
1960.800903
216105.812500
-323.852356
-1380.877930
-394.845520
331.801819
-471.409363
-705.442627
598.693176
-40.637878
-830.559692
310.036011
310.514740
-650.139282
31.987255
-392.460846
-2298.801758
-547.403687
-1089.924805
-311.930389
-112.776627
-735.254150
33.822281
1003.530151
241.533096
-330.682922
-440.796936
114.573860
33.470276
492.767761
-339.784027
302.824036
-63.597649
42.115891
187.881592
-602.384583
-726.495361
442.519379
-626.334473
213.096161
-136.004211
925.681030
631.110840
-1955.370605
-381.854797
-878.584595
1214.094482
-689.808594
548.652710
-1619.640503
1287.698486
-1905.385864
-2956.318604
683.477173
-141.237488
-665.454102
-49.057995
-461.642120
456.026123
-566.523682
342.955750
-1134.361084
-144.319946
227.548431
363.677551
629.414612
231695.843750
2616.079834
2427.740723
-497.583740
256.020203
-341.773987
396.088623
-54.710594
-159.072601
508.567322
411.607727
23.427391
1176.605469
-233.941040
331.171753
-793.803467
-281.867493
440.538971
215.493866
-389.878174
1230.927002
-161.028702
1891.961914
868.075195
1815.445068
603.000793
338.167969
1143.106445
1213.467529
-226.083145
-2958.628418
-2252.717529
140.842438
-600.050049
794.750244
-41.053631
265.161285
272.806152
281.194824
479.899780
-922.106995
2919.801025
2907.619629
972.099243
-907.493042
-98.130562
339.004883
416.043427
3278.260254
-605.766846
1269.556396
2629.223633
2.093338
2972.722900
-1964.448364
543.997192
-579.459106
-893.881836
-142.633194
1008.133545
333.195068
3191.554199
439.715210
2014.985840
1229.044189
267032.187500
-825.980774
-31.285713
41.320965
-222.861374
-1101.363525
678.590332
210.907196
428.985046
-259.216583
234.639130
1350.940430
-841.889465
-174.387085
133.585861
-566.727417
-180.081909
328.778442
676.812012
421.322876
698.452332
-71.225533
-2663.766602
106.568680
442.628754
165.903671
115.586678
1269.813721
-1039.315674
953.748657
1272.660645
-263.609863
-477.110321
-650.255005
399.182281
175.110229
38.737534
-891.776489
356.426514
-332.086426
212.099152
-351.954742
261.653076
-1074.298828
-161.593887
-771.769653
-962.812256
-4.979917
-3282.157715
1828.459961
-1318.325684
2406.714844
371.731934
-1613.491455
387.675842
1740.910889
-1333.474121
-1723.056885
274.670349
1546.882813
120.517761
-2316.951660
-218.449890
-407.426605
-1198.289307
