0
-175562079623708672.00000000000000000000
-11626273533067264.00000000000000000000
2871710428692480.00000000000000000000
536421830219530240.00000000000000000000
-156450248250621952.00000000000000000000
192362342418219008.00000000000000000000
85812175263760384.00000000000000000000
-132953555916029952.00000000000000000000
531046627108978688.00000000000000000000
214083521042448384.00000000000000000000
345069801548283904.00000000000000000000
-107598465592197120.00000000000000000000
-24623472709730304.00000000000000000000
1831393296467886080.00000000000000000000
-4461566122474340352.00000000000000000000
-10235532963362111488.00000000000000000000
-2201554056441233408.00000000000000000000
-7812656836976312320.00000000000000000000
-4050724531784908800.00000000000000000000
-5060308752792551424.00000000000000000000
1396522978665037824.00000000000000000000
-1218397971796721664.00000000000000000000
-8755138413096599552.00000000000000000000
10321642316003016704.00000000000000000000
-16966699168141672448.00000000000000000000
-2124679227084111872.00000000000000000000
23457262541949894656.00000000000000000000
21880554071626088448.00000000000000000000
22509342781318627328.00000000000000000000
-3006813557758099456.00000000000000000000
26074755524986929152.00000000000000000000
-4961860130908930048.00000000000000000000
13986740082380374016.00000000000000000000
21547305291386716160.00000000000000000000
9240164877945798656.00000000000000000000
-406140731804090368.00000000000000000000
-19132348947255787520.00000000000000000000
9758427380279410688.00000000000000000000
3870133595213398016.00000000000000000000
720279759434547200.00000000000000000000
-17838969230247067648.00000000000000000000
-15567131916657229824.00000000000000000000
2731521409808334848.00000000000000000000
-27733648091440480256.00000000000000000000
-1151961218638938112.00000000000000000000
-10923530374210387968.00000000000000000000
-22161696995825156096.00000000000000000000
2059202897333190656.00000000000000000000
-802461587821559808.00000000000000000000
-3955013418976542720.00000000000000000000
1303524635920302080.00000000000000000000
-16964350611304742912.00000000000000000000
-3379152450266071040.00000000000000000000
-7446152777799041024.00000000000000000000
-6314194012131557376.00000000000000000000
2260407752780152832.00000000000000000000
-9313861843820740608.00000000000000000000
-311892347417788416.00000000000000000000
-3704569134302887936.00000000000000000000
-9376407562766778368.00000000000000000000
2515173255589920768.00000000000000000000
171042485538127872.00000000000000000000
-1051329035382030336.00000000000000000000
1869755669477851136.00000000000000000000
-5860180372255408128.00000000000000000000
2560118817032241152.00000000000000000000
-17857814859547148288.00000000000000000000
-16204336288348766208.00000000000000000000
6143914295605329920.00000000000000000000
-27888017324956975104.00000000000000000000
-4000295430976962560.00000000000000000000
-12036188862519705600.00000000000000000000
-15096772936922562560.00000000000000000000
-4648108440609095680.00000000000000000000
1073086034033508352.00000000000000000000
7036701794440839168.00000000000000000000
-11632098548102725632.00000000000000000000
-19164672390089146368.00000000000000000000
17751870317141164032.00000000000000000000
12431987759751626752.00000000000000000000
6251797826766897152.00000000000000000000
-2713898437438341120.00000000000000000000
15622125090232074240.00000000000000000000
-9698696411100479488.00000000000000000000
5328230049667612672.00000000000000000000
22975379580844507136.00000000000000000000
1635899441854545920.00000000000000000000
-11428706489150210048.00000000000000000000
4153935963162148864.00000000000000000000
-21796474417450057728.00000000000000000000
2773159365396398080.00000000000000000000
4076596865020198912.00000000000000000000
-17578733519650160640.00000000000000000000
-15735705740892962816.00000000000000000000
6330551446617980928.00000000000000000000
-28397588187873017856.00000000000000000000
-3320883006918361088.00000000000000000000
-11476583623470088192.00000000000000000000
-16757109162143383552.00000000000000000000
1600980326945914880.00000000000000000000
1224705045371551744.00000000000000000000
5548252221990240256.00000000000000000000
-8816473019984642048.00000000000000000000
-19506836010606526464.00000000000000000000
24033082210254848.00000000000000000000
13837109022425088.00000000000000000000
1061199445753856.00000000000000000000
5166464478740480.00000000000000000000
21228380519137280.00000000000000000000
-23324940887392256.00000000000000000000
2723370579787776.00000000000000000000
54747595934793728.00000000000000000000
12881520674996224.00000000000000000000
11033103116009472.00000000000000000000
20588829823991808.00000000000000000000
21903671784636416.00000000000000000000
7657353847504896.00000000000000000000
8324613640124628992.00000000000000000000
-13005944924078604288.00000000000000000000
-19579790806132719616.00000000000000000000
-3958209974156394496.00000000000000000000
-23138386577708810240.00000000000000000000
-6678176891146338304.00000000000000000000
-12249230235517583360.00000000000000000000
-6705146811864055808.00000000000000000000
-2981965144726175744.00000000000000000000
-14900162665690169344.00000000000000000000
10569774602601365504.00000000000000000000
-25606618658251997184.00000000000000000000
-10673259537496014848.00000000000000000000
4688900871755399168.00000000000000000000
-1384094236663611392.00000000000000000000
-350565985297629184.00000000000000000000
717277955251765248.00000000000000000000
-3519908080563257344.00000000000000000000
-2604405496131616768.00000000000000000000
-1558674555482931200.00000000000000000000
2686996961319452672.00000000000000000000
-942915677054828544.00000000000000000000
2806533391590096896.00000000000000000000
6381418153053782016.00000000000000000000
-9292551109451186176.00000000000000000000
-4874519875000729600.00000000000000000000
5358422638966341632.00000000000000000000
-2022243088843407360.00000000000000000000
-1864638954679042048.00000000000000000000
758630312694513664.00000000000000000000
-4559887201009139712.00000000000000000000
-4109834276894146560.00000000000000000000
-2596251517900029952.00000000000000000000
4067065748474822656.00000000000000000000
-1012265861148311552.00000000000000000000
1149325757986635776.00000000000000000000
9725050605306642432.00000000000000000000
-13739922811688845312.00000000000000000000
-5302587239484620800.00000000000000000000
24150051624472018944.00000000000000000000
22332565500828057600.00000000000000000000
22799079488400392192.00000000000000000000
-3280007562644160512.00000000000000000000
26491188956937322496.00000000000000000000
-4940137079678959616.00000000000000000000
14248551393139884032.00000000000000000000
22030907888677945344.00000000000000000000
9154332602235092992.00000000000000000000
-377049165961625600.00000000000000000000
-19153452973439320064.00000000000000000000
9666563183778725888.00000000000000000000
3917775159167025152.00000000000000000000
-1087560348698935296.00000000000000000000
-2188715059163693056.00000000000000000000
-8223929161345925120.00000000000000000000
-2552431581486645248.00000000000000000000
-3741219155391545344.00000000000000000000
-1921094478718828544.00000000000000000000
-2789298821702615040.00000000000000000000
959050872753487872.00000000000000000000
-280321812351418368.00000000000000000000
-8893234874522009600.00000000000000000000
6149724115046498304.00000000000000000000
-10339066276768382976.00000000000000000000
1513373164590071808.00000000000000000000
-528653746209554432.00000000000000000000
-2734017026325479424.00000000000000000000
-8811558203008483328.00000000000000000000
-2520502038693937152.00000000000000000000
-4737155138563604480.00000000000000000000
-2376331875036692480.00000000000000000000
-3330574377283485696.00000000000000000000
1008373040230170624.00000000000000000000
-511941959741341696.00000000000000000000
-8972839516372992000.00000000000000000000
7095843425387282432.00000000000000000000
-11849569853448912896.00000000000000000000
755653728559693824.00000000000000000000
1641881609743368192.00000000000000000000
-4259997603556491264.00000000000000000000
-9992086795321344000.00000000000000000000
-2177925276682420224.00000000000000000000
-7392284954375225344.00000000000000000000
-3954103573104558080.00000000000000000000
-4873937133838008320.00000000000000000000
1534296733427695616.00000000000000000000
-1214218728099545088.00000000000000000000
-8622171723170578432.00000000000000000000
10259733214289461248.00000000000000000000
-16680489694361812992.00000000000000000000
-1892445053989683200.00000000000000000000
231001019264270336.00000000000000000000
-154920432439394304.00000000000000000000
-44482774421209088.00000000000000000000
615032032522665984.00000000000000000000
-516192809133277184.00000000000000000000
-242011305366519808.00000000000000000000
-123680060099002368.00000000000000000000
-65837351816921088.00000000000000000000
397603848648130560.00000000000000000000
212529515975409664.00000000000000000000
344711257678413824.00000000000000000000
-327934703103377408.00000000000000000000
-535491127986356224.00000000000000000000
7362459052204359680.00000000000000000000
-9717759743702859776.00000000000000000000
-16454410312481767424.00000000000000000000
-2020542281794191360.00000000000000000000
-17188578415603613696.00000000000000000000
-7805867352674795520.00000000000000000000
-9759120072604909568.00000000000000000000
-338993934652932096.00000000000000000000
-3537145674107715584.00000000000000000000
-11970837189899583488.00000000000000000000
15201598176491470848.00000000000000000000
-28341660429414563840.00000000000000000000
-9298504964915593216.00000000000000000000
1058218987558535168.00000000000000000000
-9227100480784564224.00000000000000000000
-15625658920603746304.00000000000000000000
-3921606132556103680.00000000000000000000
-15074939934529814528.00000000000000000000
-1632158078663131136.00000000000000000000
-7187178756795006976.00000000000000000000
-11845861200728424448.00000000000000000000
4901550818613788672.00000000000000000000
-15508012275943342080.00000000000000000000
-3107847406356529152.00000000000000000000
-4251414815790071808.00000000000000000000
-3584678661288099840.00000000000000000000
5234238298167181312.00000000000000000000
-12930373290878304256.00000000000000000000
-19251553599892750336.00000000000000000000
-1412887010221228032.00000000000000000000
-22189422281031155712.00000000000000000000
-7454782844565454848.00000000000000000000
-11865955875237658624.00000000000000000000
-4686892064011452416.00000000000000000000
-4457706012027125760.00000000000000000000
-12209930391405985792.00000000000000000000
13858622788488658944.00000000000000000000
-26662616013847134208.00000000000000000000
-11131892225720451072.00000000000000000000
24955452687910961152.00000000000000000000
24113578624755433472.00000000000000000000
24139439138240724992.00000000000000000000
-3314399736605179904.00000000000000000000
28389491384246075392.00000000000000000000
-5330926601934733312.00000000000000000000
15408925387559796736.00000000000000000000
23969806484307443712.00000000000000000000
10838510637592608768.00000000000000000000
-292023897425969152.00000000000000000000
-20234631344333783040.00000000000000000000
10633975086547206144.00000000000000000000
4543948955330805760.00000000000000000000
24095834706106384384.00000000000000000000
21637764312027103232.00000000000000000000
22482695017507848192.00000000000000000000
-3259869457425629184.00000000000000000000
25757082426466631680.00000000000000000000
-4938910024702361600.00000000000000000000
13741465426502615040.00000000000000000000
21228618443145609216.00000000000000000000
8831997574413025280.00000000000000000000
-497229944405884928.00000000000000000000
-19111983792886120448.00000000000000000000
9476643440801349632.00000000000000000000
3559602374471319552.00000000000000000000
4622140174984282112.00000000000000000000
-1356431898498301952.00000000000000000000
-348373696550797312.00000000000000000000
824700859760771072.00000000000000000000
-3470468815098216448.00000000000000000000
-2633076361337503744.00000000000000000000
-1567083757851115520.00000000000000000000
2807636201752756224.00000000000000000000
-992177165233553408.00000000000000000000
2784769658429898752.00000000000000000000
6497062587040006144.00000000000000000000
-9408486914018770944.00000000000000000000
-4820685586681561088.00000000000000000000
689720964044292096.00000000000000000000
-3720210786719629312.00000000000000000000
-2945092747410800640.00000000000000000000
989806549444591616.00000000000000000000
-5353446249339027456.00000000000000000000
-874191870991794176.00000000000000000000
-1744659008905543680.00000000000000000000
-7171208900157374464.00000000000000000000
6156370113080590336.00000000000000000000
1520218449106698240.00000000000000000000
-3429128827161280512.00000000000000000000
9778617712300261376.00000000000000000000
-4874380237024002048.00000000000000000000
15974549353259859968.00000000000000000000
15531983828452114432.00000000000000000000
15461834986600005632.00000000000000000000
-1602039019204509696.00000000000000000000
18130414578398396416.00000000000000000000
-3576813304858804224.00000000000000000000
10110409639632830464.00000000000000000000
15112445375664881664.00000000000000000000
7492065634595897344.00000000000000000000
212049098113548288.00000000000000000000
-13807555970936602624.00000000000000000000
8168999759445491712.00000000000000000000
2522234044385591296.00000000000000000000
7459827403913691136.00000000000000000000
-9939674175536889856.00000000000000000000
-16719336539682766848.00000000000000000000
-2148385934729543680.00000000000000000000
-17496447168939032576.00000000000000000000
-7850585590088073216.00000000000000000000
-9951183863256449024.00000000000000000000
-504348801159397376.00000000000000000000
-3569277527039934464.00000000000000000000
-12215978804870381568.00000000000000000000
15309964943013445632.00000000000000000000
-28692261702163496960.00000000000000000000
-9408379161879248896.00000000000000000000
150182619655438336.00000000000000000000
-13686716447588352.00000000000000000000
-57541978966982656.00000000000000000000
58849568875347968.00000000000000000000
38039653462310912.00000000000000000000
-751552962504949760.00000000000000000000
-135915159204921344.00000000000000000000
1218131477665939456.00000000000000000000
311542221683818496.00000000000000000000
678953858990342144.00000000000000000000
2226531662089420800.00000000000000000000
-2080933507705602048.00000000000000000000
-503290658656616448.00000000000000000000
24670703365572788224.00000000000000000000
21838473562607845376.00000000000000000000
22644024159628165120.00000000000000000000
-3500660854641131520.00000000000000000000
25924252174353694720.00000000000000000000
-4923125435774009344.00000000000000000000
13833290040584699904.00000000000000000000
21407192325635964928.00000000000000000000
8700410771579863040.00000000000000000000
-501972103696744448.00000000000000000000
-19117419778373844992.00000000000000000000
9359169419466506240.00000000000000000000
3499083055455272960.00000000000000000000
203714525097099264.00000000000000000000
-43690181156405248.00000000000000000000
-139178449586618368.00000000000000000000
453058404789780480.00000000000000000000
75163903364956160.00000000000000000000
-1006384298573430784.00000000000000000000
-60987517695950848.00000000000000000000
1799819445686763520.00000000000000000000
542650735389573120.00000000000000000000
1251195579019558912.00000000000000000000
3459663364576247808.00000000000000000000
-2805576266718117888.00000000000000000000
-840845470027743232.00000000000000000000
2309772663771365376.00000000000000000000
-3936984451937992704.00000000000000000000
-2606090497701183488.00000000000000000000
831438804454735872.00000000000000000000
-6064524058521763840.00000000000000000000
-1260660449989361664.00000000000000000000
-2043309181875781632.00000000000000000000
-7863557078516760576.00000000000000000000
6819097448187691008.00000000000000000000
1377110413681885184.00000000000000000000
-4853470274642771968.00000000000000000000
10788819309086900224.00000000000000000000
-5693703866449657856.00000000000000000000
24007704451093626880.00000000000000000000
19803068632385191936.00000000000000000000
21487414893021757440.00000000000000000000
-3402565450867933184.00000000000000000000
23725213525638905856.00000000000000000000
-4861524747072045056.00000000000000000000
12423763412775862272.00000000000000000000
19090160686098022400.00000000000000000000
8085154851001991168.00000000000000000000
-778962138117963776.00000000000000000000
-18765292383485558784.00000000000000000000
8855979572282261504.00000000000000000000
2609854950636781568.00000000000000000000
9218033907901923328.00000000000000000000
-14536626738152079360.00000000000000000000
-20845748703144706048.00000000000000000000
-3051225581183041536.00000000000000000000
-25005900480416579584.00000000000000000000
-8544522562749595648.00000000000000000000
-13760129636384112640.00000000000000000000
-5348959142386073600.00000000000000000000
-4125232387485335552.00000000000000000000
-14250029136767614976.00000000000000000000
14893384176504930304.00000000000000000000
-31015749673979740160.00000000000000000000
-12908341276880928768.00000000000000000000
3050627171979624448.00000000000000000000
-17882673717939535872.00000000000000000000
-16581064156396912640.00000000000000000000
5778414090544218112.00000000000000000000
-28364743576528093184.00000000000000000000
-4645264004028039168.00000000000000000000
-12401850146034286592.00000000000000000000
-13652844789303869440.00000000000000000000
-6616390934735093760.00000000000000000000
1276409854545625088.00000000000000000000
9016710580077068288.00000000000000000000
-14994412802423128064.00000000000000000000
-19825204000475578368.00000000000000000000
139383628764282880.00000000000000000000
-76805886542086144.00000000000000000000
-158025642254794752.00000000000000000000
485623877620203520.00000000000000000000
54240381771972608.00000000000000000000
-997976745472688128.00000000000000000000
-79616934047383552.00000000000000000000
1767411340458065920.00000000000000000000
531119916430917632.00000000000000000000
1260810395887599616.00000000000000000000
3435236889131483136.00000000000000000000
-2761630711101259776.00000000000000000000
-827963797955149824.00000000000000000000
-226289440140558336.00000000000000000000
-10012514733522944.00000000000000000000
-131631444723236864.00000000000000000000
-116937957876695040.00000000000000000000
15950762286776320.00000000000000000000
31591187416612864.00000000000000000000
-7832567575216128.00000000000000000000
-107503435145805824.00000000000000000000
322036201177481216.00000000000000000000
-256140115682787328.00000000000000000000
-166217381838848000.00000000000000000000
132542630625017856.00000000000000000000
195977656909430784.00000000000000000000
24201838622140268544.00000000000000000000
22384658162728828928.00000000000000000000
22854360734021713920.00000000000000000000
-3296107711409684480.00000000000000000000
26543796190279892992.00000000000000000000
-4952366397758898176.00000000000000000000
14281063951973220352.00000000000000000000
22077903214672347136.00000000000000000000
9181109558662135808.00000000000000000000
-374942845280190464.00000000000000000000
-19203861183526338560.00000000000000000000
9689579260682960896.00000000000000000000
3915685812196343808.00000000000000000000
75896547476242432.00000000000000000000
2132517297586176.00000000000000000000
45020225153794048.00000000000000000000
121927833701318656.00000000000000000000
4839763496402944.00000000000000000000
-17483777848639488.00000000000000000000
-3073383033995264.00000000000000000000
59799546921746432.00000000000000000000
-89397777171218432.00000000000000000000
32758858027892736.00000000000000000000
80173132312215552.00000000000000000000
-172264111676063744.00000000000000000000
-51790068569866240.00000000000000000000
23673516687924133888.00000000000000000000
22210433948237955072.00000000000000000000
22655280959673335808.00000000000000000000
-3036342042033651712.00000000000000000000
26371744610765504512.00000000000000000000
-4940105193841754112.00000000000000000000
14203427435935956992.00000000000000000000
21911896750087471104.00000000000000000000
9292035438497759232.00000000000000000000
-350846704360095744.00000000000000000000
-19117199876048289792.00000000000000000000
9766799061813297152.00000000000000000000
3984528159356747776.00000000000000000000
18250900162081718272.00000000000000000000
13046537793864466432.00000000000000000000
6922927079977648128.00000000000000000000
-2469265621473296384.00000000000000000000
16109496813383319552.00000000000000000000
-9600761810902843392.00000000000000000000
5769033057336033280.00000000000000000000
23309160524711723008.00000000000000000000
1786790920092385280.00000000000000000000
-11254405308845391872.00000000000000000000
3002384999799324672.00000000000000000000
-20742603517343039488.00000000000000000000
2824402654564712448.00000000000000000000
90475135357681664.00000000000000000000
137620132372414464.00000000000000000000
121715172690624512.00000000000000000000
11218639260745728.00000000000000000000
165935168127762432.00000000000000000000
32742951616512000.00000000000000000000
115655377562894336.00000000000000000000
127455113013886976.00000000000000000000
-110895162229522432.00000000000000000000
18686311783202816.00000000000000000000
-118141613871464448.00000000000000000000
-51914687045959680.00000000000000000000
37065095318077440.00000000000000000000
3408483847082344448.00000000000000000000
-12496400449441628160.00000000000000000000
-17904889350378749952.00000000000000000000
-4489403008110559232.00000000000000000000
-20381849354223222784.00000000000000000000
-1735739083386257408.00000000000000000000
-9723820251795161088.00000000000000000000
-15831201624300191744.00000000000000000000
3288809428102414336.00000000000000000000
-16410466131254444032.00000000000000000000
-3575997742108901376.00000000000000000000
-5661256178802360320.00000000000000000000
-6674442949658411008.00000000000000000000
4500502028237144064.00000000000000000000
-2675748132733583360.00000000000000000000
-1234133495018684416.00000000000000000000
246175070001561600.00000000000000000000
-5065994877175595008.00000000000000000000
-2488837203325616128.00000000000000000000
-2376273326042513408.00000000000000000000
286190146427027456.00000000000000000000
-773807558887473152.00000000000000000000
1991752394454597632.00000000000000000000
4109311733993046016.00000000000000000000
-7359687183390736384.00000000000000000000
-5570915905417773056.00000000000000000000
18645381844383563776.00000000000000000000
13319156204413386752.00000000000000000000
7277525077493547008.00000000000000000000
-2520904734827610112.00000000000000000000
16423676763462172672.00000000000000000000
-9895726695774683136.00000000000000000000
5868782401475313664.00000000000000000000
23694845014479732736.00000000000000000000
1750882244718755840.00000000000000000000
-11294402243328999424.00000000000000000000
2527730228134936576.00000000000000000000
-20408470729754935296.00000000000000000000
2733464521732521984.00000000000000000000
173307118714093568.00000000000000000000
12041170595086336.00000000000000000000
-2617208383471616.00000000000000000000
56428349781704704.00000000000000000000
27162601540550656.00000000000000000000
-664699240492040192.00000000000000000000
-103748285109370880.00000000000000000000
1082803242921885696.00000000000000000000
276457561555730432.00000000000000000000
694918767825649664.00000000000000000000
1960077388603719680.00000000000000000000
-1809359633203068928.00000000000000000000
-494251401765978112.00000000000000000000
1906361710101397504.00000000000000000000
-2484179122314543104.00000000000000000000
-1905381907802095616.00000000000000000000
213032886142500864.00000000000000000000
-4343460706587246592.00000000000000000000
-1428043365693259776.00000000000000000000
-1937370274466889728.00000000000000000000
-599634952723628032.00000000000000000000
-281069394358960128.00000000000000000000
1442233800200290304.00000000000000000000
3388990880311410688.00000000000000000000
-4824081428343947264.00000000000000000000
-3855781944813944832.00000000000000000000
2259809755893596160.00000000000000000000
-12391367402175070208.00000000000000000000
-15934469955404169216.00000000000000000000
-2216859258299875328.00000000000000000000
-20267577110748463104.00000000000000000000
-3403965404047998976.00000000000000000000
-9192056846184087552.00000000000000000000
-14866668242973229056.00000000000000000000
2143447478253387776.00000000000000000000
-12898352213742583808.00000000000000000000
-3374829720301469696.00000000000000000000
-3609276660546797568.00000000000000000000
-9303890372868440064.00000000000000000000
15865223718109184.00000000000000000000
-46765893136416768.00000000000000000000
-38964295496630272.00000000000000000000
27076266255450112.00000000000000000000
-56400325120098304.00000000000000000000
-74917312112623616.00000000000000000000
-41394254848720896.00000000000000000000
11216322125889536.00000000000000000000
63821191088963584.00000000000000000000
4519178010624000.00000000000000000000
27692523195465728.00000000000000000000
-15583914097639424.00000000000000000000
-65075600712269824.00000000000000000000
4823972576692797440.00000000000000000000
-15202837326095974400.00000000000000000000
-20050768810913824768.00000000000000000000
535883241320611840.00000000000000000000
-26260014438174162944.00000000000000000000
-8480096678920060928.00000000000000000000
-13030216643261759488.00000000000000000000
-6850117419986321408.00000000000000000000
-6582127953390338048.00000000000000000000
-9957349924465016832.00000000000000000000
13779457951288786944.00000000000000000000
-25962451407325888512.00000000000000000000
-15268910278343917568.00000000000000000000
2102505238647799808.00000000000000000000
-16520471170101805056.00000000000000000000
-15617216870325682176.00000000000000000000
5853418925500399616.00000000000000000000
-26095523100612362240.00000000000000000000
-4501731831992811520.00000000000000000000
-11475806268749250560.00000000000000000000
-11876069183189942272.00000000000000000000
-6495101058296053760.00000000000000000000
1468511440909369344.00000000000000000000
9523355092795785216.00000000000000000000
-14852327312812146688.00000000000000000000
-18241698349268860928.00000000000000000000
24304559396453613568.00000000000000000000
19713830069651636224.00000000000000000000
21422994506750361600.00000000000000000000
-3480416921428426752.00000000000000000000
23573716216494161920.00000000000000000000
-4807317724311060480.00000000000000000000
12326209243601436672.00000000000000000000
18955866335881461760.00000000000000000000
7842619078589022208.00000000000000000000
-787802830080573440.00000000000000000000
-18679367748798119936.00000000000000000000
8690998402290286592.00000000000000000000
2485412499483000832.00000000000000000000
2667790967083368448.00000000000000000000
-3852649436186411008.00000000000000000000
-2420138342432636928.00000000000000000000
816136626253070336.00000000000000000000
-6013683740365029376.00000000000000000000
-1333124038695845888.00000000000000000000
-2005466053232033792.00000000000000000000
-7855908325878136832.00000000000000000000
7021705555349602304.00000000000000000000
1331628840321024000.00000000000000000000
-5139258635469193216.00000000000000000000
10981446049691860992.00000000000000000000
-5796624751879258112.00000000000000000000
-30627029535686656.00000000000000000000
-42817589830746112.00000000000000000000
-21051382769385472.00000000000000000000
25368589406044160.00000000000000000000
20266116718788608.00000000000000000000
-56474808442945536.00000000000000000000
-25383677626155008.00000000000000000000
10577440371900416.00000000000000000000
66491458156232704.00000000000000000000
-1257931630706688.00000000000000000000
56755733663842304.00000000000000000000
15302053647613952.00000000000000000000
10478813964140544.00000000000000000000
2242067623950942208.00000000000000000000
-4666490625758068736.00000000000000000000
-10389897798832095232.00000000000000000000
-2187366370713272320.00000000000000000000
-8210074765080133632.00000000000000000000
-4184571930524778496.00000000000000000000
-5247823863839981568.00000000000000000000
1337070460805840896.00000000000000000000
-1241410337849212928.00000000000000000000
-8760811343340109824.00000000000000000000
10602693980736978944.00000000000000000000
-17519693043773472768.00000000000000000000
-2484396000983121920.00000000000000000000
17869041972778369024.00000000000000000000
12724354498647031808.00000000000000000000
6669054792926494720.00000000000000000000
-2186619390001152000.00000000000000000000
15710801802523836416.00000000000000000000
-9760631901093101568.00000000000000000000
5573594865498849280.00000000000000000000
23176271350355460096.00000000000000000000
1712144388487905280.00000000000000000000
-11031576083337052160.00000000000000000000
3653538325756641280.00000000000000000000
-21035425454052343808.00000000000000000000
2566254091915231232.00000000000000000000
23388901506004549632.00000000000000000000
22180050043915993088.00000000000000000000
22617734836608040960.00000000000000000000
-2975050316099092480.00000000000000000000
26395949259739365376.00000000000000000000
-4978080676197695488.00000000000000000000
14207780402470322176.00000000000000000000
21912818140831547392.00000000000000000000
9473890263685398528.00000000000000000000
-353661591566155776.00000000000000000000
-19136025714139070464.00000000000000000000
9866515970359558144.00000000000000000000
4053237740488097792.00000000000000000000
20019491106717696.00000000000000000000
-17432538055574552576.00000000000000000000
-15396775784072871936.00000000000000000000
3047761294921826304.00000000000000000000
-27057776094823317504.00000000000000000000
-1118959445850718208.00000000000000000000
-10579063276832817152.00000000000000000000
-21531657041900208128.00000000000000000000
2408293303666606080.00000000000000000000
-655124212201029632.00000000000000000000
-3586352942619295744.00000000000000000000
1427719147202019328.00000000000000000000
-16436552044623429632.00000000000000000000
18423339869200711680.00000000000000000000
13143898448992403456.00000000000000000000
6994647673701662720.00000000000000000000
-2596907101708091392.00000000000000000000
16272058508038373376.00000000000000000000
-9662201421151338496.00000000000000000000
5787321234240831488.00000000000000000000
23386242886888587264.00000000000000000000
1764552610225848320.00000000000000000000
-11454185472100663296.00000000000000000000
2737672077854113792.00000000000000000000
-20606653302615048192.00000000000000000000
2904258534822641664.00000000000000000000
809415998867243008.00000000000000000000
271286163233308672.00000000000000000000
317216148359741440.00000000000000000000
-45399964687269888.00000000000000000000
342075968824803328.00000000000000000000
-535667977559736320.00000000000000000000
13198596635623424.00000000000000000000
551864745909551104.00000000000000000000
590915481917980672.00000000000000000000
-241773329818583040.00000000000000000000
-74401366281289728.00000000000000000000
-365293015838752768.00000000000000000000
-196487246189166592.00000000000000000000
-1998098225814306816.00000000000000000000
-38372672341540864.00000000000000000000
-4669552215885611008.00000000000000000000
-2069940727890051072.00000000000000000000
904368586091397120.00000000000000000000
-884458011060338688.00000000000000000000
-708873631966429184.00000000000000000000
1752484233160425472.00000000000000000000
205175672971198464.00000000000000000000
-7264046714204454912.00000000000000000000
3901562035581747200.00000000000000000000
-6147606455651401728.00000000000000000000
3421498216464515072.00000000000000000000
17727877873911463936.00000000000000000000
12442729988354998272.00000000000000000000
6624232101908578304.00000000000000000000
-2798561932288720896.00000000000000000000
16187322445420560384.00000000000000000000
-9526412834632630272.00000000000000000000
5496069400135991296.00000000000000000000
22466125377277263872.00000000000000000000
1939419489263157248.00000000000000000000
-11683867953584930816.00000000000000000000
3253773764961239040.00000000000000000000
-20709560993905115136.00000000000000000000
3126691661267075072.00000000000000000000
1503770579788890112.00000000000000000000
-9831319503642820608.00000000000000000000
-16082242119154008064.00000000000000000000
-4016084143073918976.00000000000000000000
-16060411315784515584.00000000000000000000
-1722885380140695552.00000000000000000000
-7652127589565202432.00000000000000000000
-12600939815987314688.00000000000000000000
4774437378838233088.00000000000000000000
-15753269339635056640.00000000000000000000
-3291935064782274560.00000000000000000000
-4431981563105771520.00000000000000000000
-4198561016964972544.00000000000000000000
2420029215903580160.00000000000000000000
-11230157778918047744.00000000000000000000
-17066109312943783936.00000000000000000000
-4375198659478814720.00000000000000000000
-18293960335960309760.00000000000000000000
-1728026696512176128.00000000000000000000
-8727133302181330944.00000000000000000000
-14272478965183545344.00000000000000000000
4020682300701278208.00000000000000000000
-16127951016543911936.00000000000000000000
-3370588629075230720.00000000000000000000
-5156505025106673664.00000000000000000000
-5460991680675053568.00000000000000000000
1929950495124750336.00000000000000000000
-2578651910152126464.00000000000000000000
-1889014577711022080.00000000000000000000
220878073405374464.00000000000000000000
-4480704496745316352.00000000000000000000
-1337331594817437696.00000000000000000000
-1988969255646789632.00000000000000000000
-1089737725319315456.00000000000000000000
-262170215406632960.00000000000000000000
1182816126254448640.00000000000000000000
2643299345574658048.00000000000000000000
-4231189024519225344.00000000000000000000
-3869032159440273408.00000000000000000000
4510145020090646528.00000000000000000000
-2702171046416482304.00000000000000000000
-1250517317784174592.00000000000000000000
237881093015994368.00000000000000000000
-5120820924983017472.00000000000000000000
-2452938698434543616.00000000000000000000
-2372478361659244544.00000000000000000000
204375125426962432.00000000000000000000
-758065026278883328.00000000000000000000
2007829453475938304.00000000000000000000
4090906459099889664.00000000000000000000
-7319502232418779136.00000000000000000000
-5611798496517554176.00000000000000000000
499345344.00000000000000000000
-59831184.00000000000000000000
-118533744.00000000000000000000
-141376832.00000000000000000000
-117384752.00000000000000000000
-94042800.00000000000000000000
-87142768.00000000000000000000
-113307232.00000000000000000000
-102888176.00000000000000000000
-29717804.00000000000000000000
-166795296.00000000000000000000
31021020.00000000000000000000
-39992668.00000000000000000000
-144103776.00000000000000000000
-113048592.00000000000000000000
-123877488.00000000000000000000
-99010416.00000000000000000000
-79867168.00000000000000000000
-91733008.00000000000000000000
-18396824.00000000000000000000
-84634496.00000000000000000000
-197527648.00000000000000000000
-185446480.00000000000000000000
-18566516.00000000000000000000
41433828.00000000000000000000
-138172736.00000000000000000000
-72290256.00000000000000000000
152160832.00000000000000000000
-195772592.00000000000000000000
154315024.00000000000000000000
-132186704.00000000000000000000
-144663168.00000000000000000000
-149458416.00000000000000000000
-94420656.00000000000000000000
129292144.00000000000000000000
-12891702.00000000000000000000
-164016848.00000000000000000000
79027376.00000000000000000000
-168551648.00000000000000000000
-169059632.00000000000000000000
62896052.00000000000000000000
-95806672.00000000000000000000
54329460.00000000000000000000
-161495536.00000000000000000000
159148368.00000000000000000000
139067424.00000000000000000000
-158819200.00000000000000000000
-40560516.00000000000000000000
-35242612.00000000000000000000
-111827936.00000000000000000000
-124195808.00000000000000000000
-114502880.00000000000000000000
-29503346.00000000000000000000
-235202128.00000000000000000000
-139364464.00000000000000000000
-153841184.00000000000000000000
-92740192.00000000000000000000
-94299440.00000000000000000000
68057728.00000000000000000000
-101241232.00000000000000000000
-95115504.00000000000000000000
-27090180.00000000000000000000
13138012.00000000000000000000
104683296.00000000000000000000
-8106482.50000000000000000000
869650112.00000000000000000000
-28058976.00000000000000000000
630732928.00000000000000000000
-408656192.00000000000000000000
209440112.00000000000000000000
-45382852.00000000000000000000
350228480.00000000000000000000
281317920.00000000000000000000
379159360.00000000000000000000
17401980.00000000000000000000
659443456.00000000000000000000
34748800.00000000000000000000
98523936.00000000000000000000
-388058688.00000000000000000000
591602624.00000000000000000000
601259776.00000000000000000000
623854016.00000000000000000000
-89537864.00000000000000000000
762166592.00000000000000000000
560758656.00000000000000000000
664305856.00000000000000000000
-247946816.00000000000000000000
-373645888.00000000000000000000
62979712.00000000000000000000
-53473028.00000000000000000000
-231646144.00000000000000000000
755566016.00000000000000000000
208584224.00000000000000000000
-370742656.00000000000000000000
259023456.00000000000000000000
-111621632.00000000000000000000
-400100096.00000000000000000000
673447168.00000000000000000000
426798272.00000000000000000000
277063296.00000000000000000000
-133241024.00000000000000000000
-382547776.00000000000000000000
-65104196.00000000000000000000
-372175616.00000000000000000000
282093088.00000000000000000000
-47566456.00000000000000000000
485752064.00000000000000000000
86628320.00000000000000000000
283849600.00000000000000000000
193853952.00000000000000000000
124936584.00000000000000000000
499292608.00000000000000000000
-40593752.00000000000000000000
643855424.00000000000000000000
484821568.00000000000000000000
-385985792.00000000000000000000
-133495472.00000000000000000000
-15406988.00000000000000000000
607816704.00000000000000000000
250408672.00000000000000000000
-391763904.00000000000000000000
222263136.00000000000000000000
273737248.00000000000000000000
-6690572.50000000000000000000
508912512.00000000000000000000
324796416.00000000000000000000
531969280.00000000000000000000
535915648.00000000000000000000
90498872.00000000000000000000
60982788.00000000000000000000
107545960.00000000000000000000
-12380655.00000000000000000000
-1852655.87500000000000000000
-83142424.00000000000000000000
-151076752.00000000000000000000
-126318616.00000000000000000000
-133155144.00000000000000000000
5009271.00000000000000000000
-136522096.00000000000000000000
15875068.00000000000000000000
50815884.00000000000000000000
33651652.00000000000000000000
49110028.00000000000000000000
-92470632.00000000000000000000
27777872.00000000000000000000
33073496.00000000000000000000
41313812.00000000000000000000
-3235684.50000000000000000000
-23958080.00000000000000000000
-76344168.00000000000000000000
-29973354.00000000000000000000
-79107480.00000000000000000000
-70632328.00000000000000000000
44573876.00000000000000000000
-116152104.00000000000000000000
-62720296.00000000000000000000
-15719021.00000000000000000000
-72822808.00000000000000000000
-95904808.00000000000000000000
-72626216.00000000000000000000
-106066920.00000000000000000000
-94379384.00000000000000000000
6641981.00000000000000000000
-111431208.00000000000000000000
-76870072.00000000000000000000
-10074414.00000000000000000000
-72457112.00000000000000000000
14778986.00000000000000000000
-86875080.00000000000000000000
-32282470.00000000000000000000
47022268.00000000000000000000
-56462020.00000000000000000000
3252295.50000000000000000000
-20479278.00000000000000000000
-68259072.00000000000000000000
-65197556.00000000000000000000
-111537752.00000000000000000000
-3093379.75000000000000000000
-44771020.00000000000000000000
-109118664.00000000000000000000
-63344948.00000000000000000000
-116083000.00000000000000000000
-22356800.00000000000000000000
19780084.00000000000000000000
-6129146.50000000000000000000
-83250856.00000000000000000000
-145329664.00000000000000000000
-28884600.00000000000000000000
-45283500.00000000000000000000
82563624.00000000000000000000
-19149230.00000000000000000000
-72471424.00000000000000000000
-61547684.00000000000000000000
-75406008.00000000000000000000
-8128146.50000000000000000000
12985137152.00000000000000000000
320526880.00000000000000000000
-1066503808.00000000000000000000
-9052001280.00000000000000000000
-9114104832.00000000000000000000
-10911637504.00000000000000000000
-8349093376.00000000000000000000
-5644858368.00000000000000000000
-8089388544.00000000000000000000
390254.62500000000000000000
-2064565888.00000000000000000000
-57830904.00000000000000000000
491758496.00000000000000000000
-8879307776.00000000000000000000
-575892544.00000000000000000000
-687176896.00000000000000000000
-1053188096.00000000000000000000
133658296.00000000000000000000
-3748620032.00000000000000000000
-6032096256.00000000000000000000
-3035312384.00000000000000000000
-8068281344.00000000000000000000
-9155700736.00000000000000000000
-12218660.00000000000000000000
-10626621440.00000000000000000000
-9803276288.00000000000000000000
-3716367104.00000000000000000000
-425311520.00000000000000000000
-9096857600.00000000000000000000
-703774080.00000000000000000000
-10657888256.00000000000000000000
-9566068736.00000000000000000000
-2890867968.00000000000000000000
-7732482048.00000000000000000000
-765329344.00000000000000000000
30670526.00000000000000000000
-8888186880.00000000000000000000
-42560280.00000000000000000000
-8889897984.00000000000000000000
-5924070400.00000000000000000000
213635152.00000000000000000000
-5641820160.00000000000000000000
-737396096.00000000000000000000
-6095690752.00000000000000000000
-388322528.00000000000000000000
-1341959296.00000000000000000000
-6742113280.00000000000000000000
-69147616.00000000000000000000
-3964646144.00000000000000000000
-7261588480.00000000000000000000
-9526550528.00000000000000000000
-10645766144.00000000000000000000
-538315904.00000000000000000000
-1118409088.00000000000000000000
-5824095232.00000000000000000000
-8917869568.00000000000000000000
-9132656640.00000000000000000000
-5985674240.00000000000000000000
15090264.00000000000000000000
-406189408.00000000000000000000
-5747801088.00000000000000000000
-6073049088.00000000000000000000
-5866006528.00000000000000000000
-1365821056.00000000000000000000
-755635712.00000000000000000000
43679052.00000000000000000000
-48494852.00000000000000000000
-49808908.00000000000000000000
-4573331.50000000000000000000
15225046.00000000000000000000
5819749.50000000000000000000
27677806.00000000000000000000
-27075518.00000000000000000000
16673124.00000000000000000000
-3758073.75000000000000000000
-8057340.00000000000000000000
-66592112.00000000000000000000
-70545256.00000000000000000000
-22398750.00000000000000000000
-49142452.00000000000000000000
-58600188.00000000000000000000
-39137300.00000000000000000000
-49533796.00000000000000000000
10126361.00000000000000000000
10578320.00000000000000000000
-10511352.00000000000000000000
-10677898.00000000000000000000
-11036798.00000000000000000000
-69111432.00000000000000000000
-7243251.00000000000000000000
-8132862.00000000000000000000
62458.81250000000000000000
-71554472.00000000000000000000
-12765006.00000000000000000000
-77761512.00000000000000000000
6723039.00000000000000000000
-35700304.00000000000000000000
33204238.00000000000000000000
10206949.00000000000000000000
-73797672.00000000000000000000
9516166.00000000000000000000
-12443342.00000000000000000000
-27725658.00000000000000000000
-22894624.00000000000000000000
-21945302.00000000000000000000
-35565316.00000000000000000000
26242374.00000000000000000000
-56963932.00000000000000000000
-38354092.00000000000000000000
-67041260.00000000000000000000
-70620008.00000000000000000000
2554094.00000000000000000000
18985360.00000000000000000000
3972399.25000000000000000000
-4456713.50000000000000000000
-15480286.00000000000000000000
9643082.00000000000000000000
36327988.00000000000000000000
-54877452.00000000000000000000
-38098596.00000000000000000000
-18042546.00000000000000000000
17662794.00000000000000000000
-29370786.00000000000000000000
-126068888.00000000000000000000
-26472706.00000000000000000000
-25174134.00000000000000000000
-1187596.25000000000000000000
20785340.00000000000000000000
-59099512.00000000000000000000
-67864024.00000000000000000000
161513216.00000000000000000000
8772160.00000000000000000000
-20954052.00000000000000000000
-14456627.00000000000000000000
-27022424.00000000000000000000
7634134.50000000000000000000
17847256.00000000000000000000
-50444532.00000000000000000000
-22824156.00000000000000000000
-8603706.00000000000000000000
12220835.00000000000000000000
-1807184.50000000000000000000
8065563.00000000000000000000
-30848156.00000000000000000000
-9981739.00000000000000000000
4772734.00000000000000000000
7631725.50000000000000000000
1355287.00000000000000000000
-27281260.00000000000000000000
-29483032.00000000000000000000
43377204.00000000000000000000
-9909378.00000000000000000000
-7516287.50000000000000000000
15551349.00000000000000000000
-29392776.00000000000000000000
-11236945.00000000000000000000
-9190721.00000000000000000000
86816128.00000000000000000000
-1249978.75000000000000000000
-6029505.50000000000000000000
-44170444.00000000000000000000
8687815.00000000000000000000
31095716.00000000000000000000
-48137876.00000000000000000000
35198964.00000000000000000000
9668268.00000000000000000000
4484016.50000000000000000000
27335484.00000000000000000000
-16500279.00000000000000000000
-8666527.00000000000000000000
-11119151.00000000000000000000
-21574704.00000000000000000000
21325348.00000000000000000000
-38905972.00000000000000000000
55844724.00000000000000000000
21911916.00000000000000000000
-1936958.50000000000000000000
-20083132.00000000000000000000
20180096.00000000000000000000
-26005608.00000000000000000000
-13718607.00000000000000000000
-48276132.00000000000000000000
-321035.68750000000000000000
-15810831.00000000000000000000
-21083008.00000000000000000000
-41758572.00000000000000000000
20077640.00000000000000000000
-461592.06250000000000000000
31056024.00000000000000000000
-769058.93750000000000000000
3273822.25000000000000000000
-31847508.00000000000000000000
-73355888.00000000000000000000
7005469.50000000000000000000
29369864.00000000000000000000
-37543592.00000000000000000000
-25440072.00000000000000000000
-31043136.00000000000000000000
-11768394.00000000000000000000
-33510672.00000000000000000000
-28166364.00000000000000000000
-20125588.00000000000000000000
1899921.12500000000000000000
-30101628.00000000000000000000
-22639892.00000000000000000000
-32526580.00000000000000000000
-4087473.50000000000000000000
-19508948.00000000000000000000
1474391.50000000000000000000
-24502364.00000000000000000000
-41055232.00000000000000000000
-24931424.00000000000000000000
29696608.00000000000000000000
19100932.00000000000000000000
62707108.00000000000000000000
50807096.00000000000000000000
-24099912.00000000000000000000
-2598689.50000000000000000000
-12965412.00000000000000000000
56940232.00000000000000000000
-15477140.00000000000000000000
23394012.00000000000000000000
10357326.00000000000000000000
-11419700.00000000000000000000
1756037.87500000000000000000
-45452288.00000000000000000000
17759872.00000000000000000000
-30347628.00000000000000000000
-11752952.00000000000000000000
10642596.00000000000000000000
-23094940.00000000000000000000
-9092106.00000000000000000000
2387157.00000000000000000000
-6462700.50000000000000000000
-7243456.50000000000000000000
-3492422.50000000000000000000
-55565768.00000000000000000000
-7312131.50000000000000000000
-3394615.75000000000000000000
-7012900.50000000000000000000
22123820.00000000000000000000
-52455400.00000000000000000000
-2024841.50000000000000000000
29684756.00000000000000000000
-30725332.00000000000000000000
-6911303.50000000000000000000
-35557880.00000000000000000000
-23809000.00000000000000000000
-45709788.00000000000000000000
7682292.00000000000000000000
7086062.50000000000000000000
-15204620.00000000000000000000
8327060.50000000000000000000
-12045990.00000000000000000000
-23480548.00000000000000000000
-478054.93750000000000000000
79475576.00000000000000000000
93133288.00000000000000000000
12217996.00000000000000000000
6037516.50000000000000000000
-32650876.00000000000000000000
-15798502.00000000000000000000
-45750796.00000000000000000000
3401099.00000000000000000000
-40121196.00000000000000000000
-19873296.00000000000000000000
-53402548.00000000000000000000
8369230.00000000000000000000
20092836.00000000000000000000
-8883795.00000000000000000000
-58986620.00000000000000000000
11124556.00000000000000000000
-6569665.50000000000000000000
-23811692.00000000000000000000
-38300068.00000000000000000000
-31705612.00000000000000000000
22688272.00000000000000000000
-46561820.00000000000000000000
2505031.50000000000000000000
56078636.00000000000000000000
85511824.00000000000000000000
-6551316.50000000000000000000
-19973276.00000000000000000000
-7040780.50000000000000000000
53133636.00000000000000000000
-38522192.00000000000000000000
-11394690.00000000000000000000
-15985328.00000000000000000000
-26422348.00000000000000000000
25596980.00000000000000000000
-27570224.00000000000000000000
1534385.25000000000000000000
-7465524.50000000000000000000
-25509808.00000000000000000000
8962024.00000000000000000000
28659800.00000000000000000000
-20429956.00000000000000000000
41563196.00000000000000000000
-15250784.00000000000000000000
-22204572.00000000000000000000
19992832.00000000000000000000
-17171268.00000000000000000000
9228564.00000000000000000000
-28283444.00000000000000000000
35281924.00000000000000000000
91830512.00000000000000000000
1083377.12500000000000000000
-25514776.00000000000000000000
99764832.00000000000000000000
-59523492.00000000000000000000
16097407.00000000000000000000
-16508248.00000000000000000000
-37603068.00000000000000000000
-65735848.00000000000000000000
18425504.00000000000000000000
19874552.00000000000000000000
-25804700.00000000000000000000
14317872.00000000000000000000
-6929240.50000000000000000000
9477743.00000000000000000000
4388434.50000000000000000000
40370852.00000000000000000000
-205452.37500000000000000000
19678040.00000000000000000000
-2725853.75000000000000000000
25984128.00000000000000000000
-32279978.00000000000000000000
-37542840.00000000000000000000
3679631.75000000000000000000
-10860474.00000000000000000000
-15825906.00000000000000000000
-6927807.50000000000000000000
6731705.50000000000000000000
-33932784.00000000000000000000
12609022.00000000000000000000
-27047838.00000000000000000000
-34179880.00000000000000000000
-37825484.00000000000000000000
25466552.00000000000000000000
-54145268.00000000000000000000
-65457156.00000000000000000000
-29322432.00000000000000000000
-28070312.00000000000000000000
-28213678.00000000000000000000
-20195996.00000000000000000000
-21108492.00000000000000000000
15145774.00000000000000000000
13074472.00000000000000000000
-46306020.00000000000000000000
-7128049.50000000000000000000
7427921.50000000000000000000
-33631984.00000000000000000000
-59951300.00000000000000000000
13479108.00000000000000000000
-41830876.00000000000000000000
8228997.50000000000000000000
1519923.00000000000000000000
-26155158.00000000000000000000
-22336840.00000000000000000000
-16480800.00000000000000000000
-3983438.75000000000000000000
14933342.00000000000000000000
-9318168.00000000000000000000
3218222.75000000000000000000
4167018.00000000000000000000
1911433.87500000000000000000
-23442346.00000000000000000000
-32850962.00000000000000000000
-5458613.50000000000000000000
-45992676.00000000000000000000
-32835166.00000000000000000000
-25090080.00000000000000000000
1438879.12500000000000000000
-44920260.00000000000000000000
-17965798.00000000000000000000
13324820.00000000000000000000
2646497.75000000000000000000
13917896.00000000000000000000
-60657460.00000000000000000000
3628196.75000000000000000000
14400520.00000000000000000000
-32800128.00000000000000000000
-437207.93750000000000000000
-47082620.00000000000000000000
-15211960.00000000000000000000
10138924.00000000000000000000
-17701718.00000000000000000000
-43677428.00000000000000000000
-29040080.00000000000000000000
-25325946.00000000000000000000
-18245156.00000000000000000000
-54411132.00000000000000000000
-37096724.00000000000000000000
-18105984.00000000000000000000
-33427846.00000000000000000000
-54750804.00000000000000000000
-16955104.00000000000000000000
6419487.50000000000000000000
-62956532.00000000000000000000
-19416170.00000000000000000000
-55494900.00000000000000000000
-6418292.50000000000000000000
-22594774.00000000000000000000
-7384813.50000000000000000000
-47093740.00000000000000000000
-46532292.00000000000000000000
-20834056.00000000000000000000
12223915.00000000000000000000
56398268.00000000000000000000
93554448.00000000000000000000
92796944.00000000000000000000
-23519032.00000000000000000000
-21466208.00000000000000000000
-33088376.00000000000000000000
53928348.00000000000000000000
-19831752.00000000000000000000
33043480.00000000000000000000
31035840.00000000000000000000
-29800504.00000000000000000000
24779672.00000000000000000000
-32700444.00000000000000000000
29405138.00000000000000000000
-31290628.00000000000000000000
-37426996.00000000000000000000
28014556.00000000000000000000
6610478.50000000000000000000
-824274.37500000000000000000
17761666.00000000000000000000
-8033050.50000000000000000000
-1280964.50000000000000000000
8068583.50000000000000000000
-84581536.00000000000000000000
-35149028.00000000000000000000
-3503412.75000000000000000000
23118508.00000000000000000000
122835312.00000000000000000000
-66983188.00000000000000000000
-25462918.00000000000000000000
43533684.00000000000000000000
-27976538.00000000000000000000
-29905864.00000000000000000000
-4943035.50000000000000000000
-15585998.00000000000000000000
-29604462.00000000000000000000
-433446.78125000000000000000
-21537806.00000000000000000000
-54073428.00000000000000000000
-13003345.00000000000000000000
626264.62500000000000000000
-45664820.00000000000000000000
-84937.73437500000000000000
109265216.00000000000000000000
123009152.00000000000000000000
-12751767.00000000000000000000
-22380072.00000000000000000000
172144560.00000000000000000000
20306860.00000000000000000000
123807784.00000000000000000000
-86893352.00000000000000000000
-32948208.00000000000000000000
-89753896.00000000000000000000
-9641780.00000000000000000000
108305592.00000000000000000000
-12305086.00000000000000000000
-7707611.50000000000000000000
118485448.00000000000000000000
-14888924.00000000000000000000
38333856.00000000000000000000
-108708520.00000000000000000000
121969272.00000000000000000000
115740424.00000000000000000000
117621336.00000000000000000000
11579124.00000000000000000000
151432800.00000000000000000000
74140936.00000000000000000000
144304112.00000000000000000000
-42325168.00000000000000000000
-93092648.00000000000000000000
-5591586.50000000000000000000
-77084072.00000000000000000000
-74118712.00000000000000000000
160188944.00000000000000000000
25389684.00000000000000000000
-89115256.00000000000000000000
17764610.00000000000000000000
-84774712.00000000000000000000
-101433576.00000000000000000000
128538856.00000000000000000000
25788566.00000000000000000000
21314790.00000000000000000000
-9625318.00000000000000000000
-95659016.00000000000000000000
47243.48437500000000000000
-94633592.00000000000000000000
98148616.00000000000000000000
1514637.75000000000000000000
42202372.00000000000000000000
-35633500.00000000000000000000
109062184.00000000000000000000
29898786.00000000000000000000
-51797848.00000000000000000000
44227612.00000000000000000000
-823789.31250000000000000000
98751576.00000000000000000000
37076908.00000000000000000000
-104097976.00000000000000000000
-85311592.00000000000000000000
-9292756.00000000000000000000
116550616.00000000000000000000
90960872.00000000000000000000
-102339176.00000000000000000000
-35704804.00000000000000000000
109370872.00000000000000000000
24903024.00000000000000000000
127334696.00000000000000000000
101203176.00000000000000000000
82903848.00000000000000000000
53259592.00000000000000000000
-53802232.00000000000000000000
-31609762.00000000000000000000
403085664.00000000000000000000
21881074.00000000000000000000
269465568.00000000000000000000
-195712416.00000000000000000000
102146184.00000000000000000000
-4785366.50000000000000000000
173676224.00000000000000000000
121807200.00000000000000000000
166513824.00000000000000000000
-9586684.00000000000000000000
274117888.00000000000000000000
16423284.00000000000000000000
57362988.00000000000000000000
-184724704.00000000000000000000
236824256.00000000000000000000
261378432.00000000000000000000
246611392.00000000000000000000
12804045.00000000000000000000
361500800.00000000000000000000
269884448.00000000000000000000
271552288.00000000000000000000
-124161024.00000000000000000000
-199320000.00000000000000000000
38013564.00000000000000000000
-34886860.00000000000000000000
-104216800.00000000000000000000
356944704.00000000000000000000
62490556.00000000000000000000
-180478688.00000000000000000000
111049648.00000000000000000000
-40688340.00000000000000000000
-200355968.00000000000000000000
291555680.00000000000000000000
177457088.00000000000000000000
135008864.00000000000000000000
-45536684.00000000000000000000
-169196448.00000000000000000000
-27017962.00000000000000000000
-202471520.00000000000000000000
135574496.00000000000000000000
-39355700.00000000000000000000
243647968.00000000000000000000
35516264.00000000000000000000
89619264.00000000000000000000
41764052.00000000000000000000
50590388.00000000000000000000
230055936.00000000000000000000
-37921172.00000000000000000000
285413056.00000000000000000000
209590496.00000000000000000000
-190564576.00000000000000000000
-26033690.00000000000000000000
-13754360.00000000000000000000
308105856.00000000000000000000
69894832.00000000000000000000
-175392480.00000000000000000000
121090640.00000000000000000000
92100880.00000000000000000000
-10701682.00000000000000000000
205236288.00000000000000000000
137026848.00000000000000000000
247604960.00000000000000000000
279576224.00000000000000000000
24379614.00000000000000000000
25168250.00000000000000000000
244960672.00000000000000000000
12016825.00000000000000000000
207631936.00000000000000000000
-143128928.00000000000000000000
-50197440.00000000000000000000
-100006256.00000000000000000000
21677850.00000000000000000000
143851712.00000000000000000000
10863551.00000000000000000000
4031647.50000000000000000000
208023936.00000000000000000000
-1230917.37500000000000000000
69576528.00000000000000000000
-140241696.00000000000000000000
204913184.00000000000000000000
209420416.00000000000000000000
217855328.00000000000000000000
21448294.00000000000000000000
223909664.00000000000000000000
101267712.00000000000000000000
218849312.00000000000000000000
-107732032.00000000000000000000
-143517216.00000000000000000000
11272500.00000000000000000000
-105596896.00000000000000000000
-109558624.00000000000000000000
222711264.00000000000000000000
50259112.00000000000000000000
-145130528.00000000000000000000
41458600.00000000000000000000
-123430704.00000000000000000000
-134351552.00000000000000000000
221426496.00000000000000000000
51765352.00000000000000000000
41635336.00000000000000000000
-28001766.00000000000000000000
-146563168.00000000000000000000
12327560.00000000000000000000
-139010784.00000000000000000000
133203376.00000000000000000000
8044419.00000000000000000000
103471952.00000000000000000000
-21327494.00000000000000000000
130256560.00000000000000000000
57069264.00000000000000000000
-75556672.00000000000000000000
71331280.00000000000000000000
-6340084.00000000000000000000
164310688.00000000000000000000
71578536.00000000000000000000
-146608896.00000000000000000000
-122803792.00000000000000000000
-18707194.00000000000000000000
218076320.00000000000000000000
136664368.00000000000000000000
-145948704.00000000000000000000
-45557016.00000000000000000000
130386720.00000000000000000000
8448966.00000000000000000000
190450240.00000000000000000000
149712432.00000000000000000000
105230880.00000000000000000000
119450928.00000000000000000000
-69371424.00000000000000000000
-29236062.00000000000000000000
19313940.00000000000000000000
12453397.00000000000000000000
-22446500.00000000000000000000
-30905016.00000000000000000000
-5132844.00000000000000000000
-8826269.00000000000000000000
24987224.00000000000000000000
-10988813.00000000000000000000
5154403.00000000000000000000
-427323.65625000000000000000
7308456.00000000000000000000
2882215.75000000000000000000
13809811.00000000000000000000
8684927.00000000000000000000
4161825.75000000000000000000
-21460824.00000000000000000000
-26288328.00000000000000000000
11362457.00000000000000000000
18045172.00000000000000000000
7327629.00000000000000000000
-35796904.00000000000000000000
-12796947.00000000000000000000
-1640465.25000000000000000000
5981990.00000000000000000000
-26092208.00000000000000000000
-1046798.68750000000000000000
-3538980.75000000000000000000
-5265938.00000000000000000000
-4131673.75000000000000000000
28220568.00000000000000000000
-21077468.00000000000000000000
985244.43750000000000000000
15436165.00000000000000000000
20542908.00000000000000000000
11164879.00000000000000000000
-56592992.00000000000000000000
-21656420.00000000000000000000
5264708.00000000000000000000
9774049.00000000000000000000
-1961490.00000000000000000000
-5104930.00000000000000000000
-3582808.25000000000000000000
-1066256.00000000000000000000
-16272639.00000000000000000000
-26815314.00000000000000000000
-42043096.00000000000000000000
-39889744.00000000000000000000
-22927560.00000000000000000000
7152304.00000000000000000000
19444816.00000000000000000000
-2376198.00000000000000000000
-25285964.00000000000000000000
-9471593.00000000000000000000
-20735312.00000000000000000000
17628084.00000000000000000000
19309132.00000000000000000000
11624793.00000000000000000000
-7761360.00000000000000000000
7776527.00000000000000000000
5621949.50000000000000000000
-14436317.00000000000000000000
11546041.00000000000000000000
29574840.00000000000000000000
-14623047.00000000000000000000
3798322.25000000000000000000
898148736.00000000000000000000
2618260.25000000000000000000
719346560.00000000000000000000
-447318080.00000000000000000000
289933216.00000000000000000000
-8960409.00000000000000000000
413456192.00000000000000000000
270090624.00000000000000000000
451987456.00000000000000000000
26843332.00000000000000000000
741129088.00000000000000000000
77656800.00000000000000000000
133582056.00000000000000000000
-423547392.00000000000000000000
700505344.00000000000000000000
720794624.00000000000000000000
721206144.00000000000000000000
-63870088.00000000000000000000
831691648.00000000000000000000
667374080.00000000000000000000
773508352.00000000000000000000
-303655232.00000000000000000000
-450539072.00000000000000000000
71781648.00000000000000000000
-29461608.00000000000000000000
-261068080.00000000000000000000
835451520.00000000000000000000
219167120.00000000000000000000
-423748736.00000000000000000000
283668480.00000000000000000000
-87351544.00000000000000000000
-457434432.00000000000000000000
768728704.00000000000000000000
497642304.00000000000000000000
282863616.00000000000000000000
-30616834.00000000000000000000
-422335872.00000000000000000000
-7131960.50000000000000000000
-428348288.00000000000000000000
229954480.00000000000000000000
-23530662.00000000000000000000
627700032.00000000000000000000
100071584.00000000000000000000
219660272.00000000000000000000
199479824.00000000000000000000
130337416.00000000000000000000
576894592.00000000000000000000
-12670202.00000000000000000000
710153984.00000000000000000000
566164224.00000000000000000000
-440716480.00000000000000000000
-92133512.00000000000000000000
21050904.00000000000000000000
720043776.00000000000000000000
214083888.00000000000000000000
-435302784.00000000000000000000
287340192.00000000000000000000
240605328.00000000000000000000
-41359084.00000000000000000000
565697152.00000000000000000000
275439872.00000000000000000000
663586048.00000000000000000000
639600512.00000000000000000000
136940752.00000000000000000000
100883960.00000000000000000000
854256896.00000000000000000000
9049529.00000000000000000000
674866688.00000000000000000000
-410727040.00000000000000000000
327694272.00000000000000000000
37180888.00000000000000000000
460660736.00000000000000000000
216281152.00000000000000000000
470410624.00000000000000000000
25906230.00000000000000000000
684848384.00000000000000000000
104768616.00000000000000000000
150876864.00000000000000000000
-373096512.00000000000000000000
664117696.00000000000000000000
677415296.00000000000000000000
681463424.00000000000000000000
-57530392.00000000000000000000
791967040.00000000000000000000
675404736.00000000000000000000
736503872.00000000000000000000
-261867168.00000000000000000000
-391212864.00000000000000000000
92046064.00000000000000000000
7347733.50000000000000000000
-224057312.00000000000000000000
793239872.00000000000000000000
193068544.00000000000000000000
-385092672.00000000000000000000
284346368.00000000000000000000
-35932124.00000000000000000000
-419730880.00000000000000000000
733579520.00000000000000000000
511665536.00000000000000000000
288496640.00000000000000000000
-96560656.00000000000000000000
-397615552.00000000000000000000
-49704640.00000000000000000000
-395514112.00000000000000000000
194797152.00000000000000000000
-82440832.00000000000000000000
621233920.00000000000000000000
121496952.00000000000000000000
193624864.00000000000000000000
170107520.00000000000000000000
167332704.00000000000000000000
592657024.00000000000000000000
-25548660.00000000000000000000
708748672.00000000000000000000
567883904.00000000000000000000
-397735360.00000000000000000000
-47039804.00000000000000000000
5056300.50000000000000000000
674788736.00000000000000000000
204773376.00000000000000000000
-395916928.00000000000000000000
329935360.00000000000000000000
215386304.00000000000000000000
-18392646.00000000000000000000
509085824.00000000000000000000
243705536.00000000000000000000
673097024.00000000000000000000
647378176.00000000000000000000
185893520.00000000000000000000
119068008.00000000000000000000
59415752.00000000000000000000
-30801190.00000000000000000000
54855920.00000000000000000000
16042774.00000000000000000000
-9862164.00000000000000000000
-44097692.00000000000000000000
-36538784.00000000000000000000
46637212.00000000000000000000
-89445256.00000000000000000000
-48159480.00000000000000000000
48683700.00000000000000000000
12150378.00000000000000000000
30097674.00000000000000000000
20330888.00000000000000000000
43416540.00000000000000000000
45442884.00000000000000000000
82567976.00000000000000000000
-93758232.00000000000000000000
-34322968.00000000000000000000
-61952512.00000000000000000000
21737462.00000000000000000000
-24967270.00000000000000000000
21463088.00000000000000000000
24595702.00000000000000000000
-96619944.00000000000000000000
-20987102.00000000000000000000
-21967638.00000000000000000000
-25361278.00000000000000000000
-6202921.00000000000000000000
-19070566.00000000000000000000
-64879872.00000000000000000000
-87167192.00000000000000000000
-33018974.00000000000000000000
-47743272.00000000000000000000
-23908398.00000000000000000000
-76542904.00000000000000000000
18212500.00000000000000000000
115577184.00000000000000000000
3953534.25000000000000000000
10281075.00000000000000000000
62939864.00000000000000000000
-70478872.00000000000000000000
9437529.00000000000000000000
42398148.00000000000000000000
-49074528.00000000000000000000
-110063944.00000000000000000000
-29724898.00000000000000000000
-86031944.00000000000000000000
68196352.00000000000000000000
-23629414.00000000000000000000
-10315872.00000000000000000000
-84932680.00000000000000000000
-93210952.00000000000000000000
58237312.00000000000000000000
-62656600.00000000000000000000
4152762.75000000000000000000
-57088728.00000000000000000000
54017016.00000000000000000000
-52499880.00000000000000000000
75553240.00000000000000000000
-25018342.00000000000000000000
-84891096.00000000000000000000
-76697416.00000000000000000000
-45185848.00000000000000000000
-1025305.75000000000000000000
186008176.00000000000000000000
-19584950.00000000000000000000
88946960.00000000000000000000
-146363376.00000000000000000000
-155413680.00000000000000000000
-156432240.00000000000000000000
-159613904.00000000000000000000
-43521620.00000000000000000000
-165048848.00000000000000000000
6211050.00000000000000000000
82661296.00000000000000000000
44926028.00000000000000000000
86593376.00000000000000000000
-153705328.00000000000000000000
102982352.00000000000000000000
91690240.00000000000000000000
92074816.00000000000000000000
17550.67187500000000000000
-7535149.00000000000000000000
-68445176.00000000000000000000
16300724.00000000000000000000
-146542032.00000000000000000000
-124745776.00000000000000000000
51801468.00000000000000000000
-153906192.00000000000000000000
-135317488.00000000000000000000
-12675946.00000000000000000000
-90628416.00000000000000000000
-131464608.00000000000000000000
-46643708.00000000000000000000
-164812112.00000000000000000000
-146105168.00000000000000000000
32224102.00000000000000000000
-151767856.00000000000000000000
-55052132.00000000000000000000
-36870564.00000000000000000000
-133341976.00000000000000000000
46747428.00000000000000000000
-152155664.00000000000000000000
-43870164.00000000000000000000
43547888.00000000000000000000
-74577312.00000000000000000000
15983592.00000000000000000000
-50094564.00000000000000000000
-58627368.00000000000000000000
-61362212.00000000000000000000
-96779312.00000000000000000000
16716604.00000000000000000000
-5075598.00000000000000000000
-126557344.00000000000000000000
-139973264.00000000000000000000
-156841392.00000000000000000000
1577760.50000000000000000000
76558240.00000000000000000000
-18240930.00000000000000000000
-130615392.00000000000000000000
-169365808.00000000000000000000
-50296640.00000000000000000000
-43379736.00000000000000000000
143110768.00000000000000000000
-40879304.00000000000000000000
-65480604.00000000000000000000
-59820380.00000000000000000000
-49328920.00000000000000000000
17066070.00000000000000000000
125436408.00000000000000000000
-16719492.00000000000000000000
48801152.00000000000000000000
-88851656.00000000000000000000
-121527400.00000000000000000000
-125484392.00000000000000000000
-83965600.00000000000000000000
70853288.00000000000000000000
-86311608.00000000000000000000
-10310680.00000000000000000000
61129848.00000000000000000000
-45327680.00000000000000000000
36060492.00000000000000000000
-86378952.00000000000000000000
55025148.00000000000000000000
58863004.00000000000000000000
59749700.00000000000000000000
10750050.00000000000000000000
90223080.00000000000000000000
-19585414.00000000000000000000
88174808.00000000000000000000
-76197912.00000000000000000000
-90494168.00000000000000000000
-33762372.00000000000000000000
-113464296.00000000000000000000
-61850248.00000000000000000000
100734328.00000000000000000000
-29597626.00000000000000000000
-82500504.00000000000000000000
-58479412.00000000000000000000
-118495464.00000000000000000000
-74328072.00000000000000000000
83160808.00000000000000000000
-69822528.00000000000000000000
-75827336.00000000000000000000
-5117517.00000000000000000000
-78533704.00000000000000000000
22571884.00000000000000000000
-86861848.00000000000000000000
68486296.00000000000000000000
47894004.00000000000000000000
-23442916.00000000000000000000
-68636008.00000000000000000000
63694324.00000000000000000000
-31423356.00000000000000000000
-89370456.00000000000000000000
-59764484.00000000000000000000
-6536890.50000000000000000000
47213468.00000000000000000000
-56280772.00000000000000000000
-79403848.00000000000000000000
-107621336.00000000000000000000
-23408654.00000000000000000000
58595360.00000000000000000000
66891288.00000000000000000000
-77743256.00000000000000000000
-118274088.00000000000000000000
62186936.00000000000000000000
7867690.50000000000000000000
86701368.00000000000000000000
68470016.00000000000000000000
-12816262.00000000000000000000
-16191460.00000000000000000000
-125486728.00000000000000000000
-62275708.00000000000000000000
252075680.00000000000000000000
5084209.00000000000000000000
104959840.00000000000000000000
-189478528.00000000000000000000
-80292928.00000000000000000000
-126331104.00000000000000000000
-54471180.00000000000000000000
4608734.50000000000000000000
-57937652.00000000000000000000
7990747.00000000000000000000
160864784.00000000000000000000
53966148.00000000000000000000
111412272.00000000000000000000
-176347344.00000000000000000000
136616336.00000000000000000000
147810592.00000000000000000000
116791792.00000000000000000000
1356424.75000000000000000000
127562560.00000000000000000000
29261188.00000000000000000000
134307488.00000000000000000000
-149451376.00000000000000000000
-172506848.00000000000000000000
46245428.00000000000000000000
-129346384.00000000000000000000
-159093792.00000000000000000000
134205984.00000000000000000000
-24852508.00000000000000000000
-168605728.00000000000000000000
-17981208.00000000000000000000
-145499024.00000000000000000000
-170216512.00000000000000000000
99236768.00000000000000000000
-41271252.00000000000000000000
-11620721.00000000000000000000
-16485501.00000000000000000000
-194079472.00000000000000000000
13765629.00000000000000000000
-176717712.00000000000000000000
9064286.00000000000000000000
7039578.00000000000000000000
16865000.00000000000000000000
31429184.00000000000000000000
22771.73632812500000000000
-20177620.00000000000000000000
-25458424.00000000000000000000
34335972.00000000000000000000
-17705636.00000000000000000000
122079536.00000000000000000000
-24599512.00000000000000000000
-176164352.00000000000000000000
-154117824.00000000000000000000
-16864408.00000000000000000000
121015216.00000000000000000000
4210803.00000000000000000000
-191679312.00000000000000000000
-80154992.00000000000000000000
6395793.00000000000000000000
-2780570.00000000000000000000
184636208.00000000000000000000
18532898.00000000000000000000
29351276.00000000000000000000
48167956.00000000000000000000
-14898416.00000000000000000000
24447416.00000000000000000000
24154812.00000000000000000000
-27201664.00000000000000000000
-58969036.00000000000000000000
16782324.00000000000000000000
-21729052.00000000000000000000
-15733308.00000000000000000000
2105725.50000000000000000000
-7080942.50000000000000000000
-3742273.25000000000000000000
-8559186.00000000000000000000
-23596484.00000000000000000000
-16670252.00000000000000000000
-13532924.00000000000000000000
22783812.00000000000000000000
-38167668.00000000000000000000
-43956008.00000000000000000000
-46103936.00000000000000000000
-56941764.00000000000000000000
-8848534.00000000000000000000
-12203054.00000000000000000000
10394298.00000000000000000000
15630278.00000000000000000000
4076619.25000000000000000000
-20011668.00000000000000000000
11280004.00000000000000000000
17122904.00000000000000000000
3673549.00000000000000000000
-62911180.00000000000000000000
-856617.81250000000000000000
-53732692.00000000000000000000
13504168.00000000000000000000
12134524.00000000000000000000
9040634.00000000000000000000
-9207030.00000000000000000000
-60461016.00000000000000000000
-32566524.00000000000000000000
2833653.00000000000000000000
-43649996.00000000000000000000
-3688993.00000000000000000000
-6154583.50000000000000000000
-47997944.00000000000000000000
2835613.50000000000000000000
-18238736.00000000000000000000
2908195.00000000000000000000
-59927264.00000000000000000000
-49971756.00000000000000000000
-14300630.00000000000000000000
7805952.50000000000000000000
12047422.00000000000000000000
3922900.00000000000000000000
14996894.00000000000000000000
11745810.00000000000000000000
5613054.50000000000000000000
-28827592.00000000000000000000
-5031107.00000000000000000000
36640132.00000000000000000000
11582678.00000000000000000000
17107780.00000000000000000000
-60229664.00000000000000000000
-30149232.00000000000000000000
17093488.00000000000000000000
10785678.00000000000000000000
-22694596.00000000000000000000
-33496256.00000000000000000000
-23964124.00000000000000000000
47569764.00000000000000000000
6600478.00000000000000000000
-6567540.00000000000000000000
11054432.00000000000000000000
-24424654.00000000000000000000
-10350408.00000000000000000000
-21181462.00000000000000000000
3338776.00000000000000000000
-22036598.00000000000000000000
8222483.00000000000000000000
-6428395.00000000000000000000
-12352046.00000000000000000000
-9803508.00000000000000000000
13774572.00000000000000000000
3466539.75000000000000000000
5047655.00000000000000000000
-2448827.75000000000000000000
16381056.00000000000000000000
-8004054.00000000000000000000
-22500562.00000000000000000000
-11760364.00000000000000000000
9947392.00000000000000000000
6874251.00000000000000000000
-27723998.00000000000000000000
-10556492.00000000000000000000
5828839.00000000000000000000
-6895026.00000000000000000000
-27431198.00000000000000000000
4989223.00000000000000000000
-35343192.00000000000000000000
-461137.34375000000000000000
51936.55859375000000000000
-328491.53125000000000000000
-21420814.00000000000000000000
-29782514.00000000000000000000
15755263.00000000000000000000
8355624.00000000000000000000
-19695250.00000000000000000000
5329879.00000000000000000000
8521567.00000000000000000000
16499644.00000000000000000000
-16914674.00000000000000000000
-30594894.00000000000000000000
-6713424.00000000000000000000
-20129486.00000000000000000000
-20983966.00000000000000000000
-20769726.00000000000000000000
8655732.00000000000000000000
-9601540.00000000000000000000
-22750390.00000000000000000000
-2887999.50000000000000000000
2617639.25000000000000000000
-5069907.00000000000000000000
-2728035.25000000000000000000
-8509051.00000000000000000000
9223203.00000000000000000000
-26712622.00000000000000000000
-246592.73437500000000000000
4134784.25000000000000000000
5273361.00000000000000000000
3343793.75000000000000000000
-21898306.00000000000000000000
-22151506.00000000000000000000
-30101342.00000000000000000000
-16837846.00000000000000000000
151993200.00000000000000000000
24866066.00000000000000000000
58795848.00000000000000000000
-146070928.00000000000000000000
-189829040.00000000000000000000
-173700240.00000000000000000000
-216333008.00000000000000000000
46152656.00000000000000000000
-152125936.00000000000000000000
-29738542.00000000000000000000
6149108.00000000000000000000
-5813241.00000000000000000000
52319416.00000000000000000000
-118654200.00000000000000000000
84632744.00000000000000000000
60157240.00000000000000000000
106753968.00000000000000000000
5594447.00000000000000000000
147430016.00000000000000000000
144672496.00000000000000000000
225045632.00000000000000000000
-108019624.00000000000000000000
-184656560.00000000000000000000
7741498.00000000000000000000
1556315.75000000000000000000
-119584864.00000000000000000000
159204320.00000000000000000000
-99349368.00000000000000000000
-152264384.00000000000000000000
-92792456.00000000000000000000
-148159040.00000000000000000000
-45412072.00000000000000000000
93414488.00000000000000000000
-113345752.00000000000000000000
-89679208.00000000000000000000
38959920.00000000000000000000
-114777896.00000000000000000000
7652856.00000000000000000000
-134291568.00000000000000000000
-6980344.50000000000000000000
14672331.00000000000000000000
-40874488.00000000000000000000
-52403872.00000000000000000000
2357874.25000000000000000000
-70111632.00000000000000000000
-21427296.00000000000000000000
-87135224.00000000000000000000
2002030.25000000000000000000
95301560.00000000000000000000
-147927856.00000000000000000000
-112536776.00000000000000000000
-131567144.00000000000000000000
-64496552.00000000000000000000
45572632.00000000000000000000
45356056.00000000000000000000
-126176912.00000000000000000000
-175183088.00000000000000000000
-7198323.50000000000000000000
-32726200.00000000000000000000
44931256.00000000000000000000
13035886.00000000000000000000
161640880.00000000000000000000
184655120.00000000000000000000
-139709904.00000000000000000000
-23928216.00000000000000000000
49554256.00000000000000000000
27548816.00000000000000000000
-55908200.00000000000000000000
23916484.00000000000000000000
8821722.00000000000000000000
-15081628.00000000000000000000
-40767156.00000000000000000000
74027456.00000000000000000000
-18314292.00000000000000000000
-1388114.87500000000000000000
-8631460.00000000000000000000
-6768538.50000000000000000000
-7351817.50000000000000000000
7700066.50000000000000000000
-15161479.00000000000000000000
-8490252.00000000000000000000
-53101572.00000000000000000000
38667064.00000000000000000000
-12683384.00000000000000000000
-23540670.00000000000000000000
-69699648.00000000000000000000
4419511.50000000000000000000
16304058.00000000000000000000
-8373348.00000000000000000000
3531841.25000000000000000000
-7574059.00000000000000000000
-5512779.50000000000000000000
-10318864.00000000000000000000
9715079.00000000000000000000
-21964610.00000000000000000000
-22802048.00000000000000000000
42312416.00000000000000000000
-82576640.00000000000000000000
-36093316.00000000000000000000
-18106506.00000000000000000000
7362538.00000000000000000000
39362796.00000000000000000000
-6634152.50000000000000000000
32758856.00000000000000000000
9276027.00000000000000000000
-4325508.00000000000000000000
-14870430.00000000000000000000
-12497139.00000000000000000000
-3691728.00000000000000000000
-7126516.50000000000000000000
-14106905.00000000000000000000
-38334416.00000000000000000000
407730.53125000000000000000
-74783632.00000000000000000000
-62752400.00000000000000000000
-21731528.00000000000000000000
-24883506.00000000000000000000
-16701097.00000000000000000000
-46671800.00000000000000000000
15924768.00000000000000000000
47904688.00000000000000000000
-21638762.00000000000000000000
14749727.00000000000000000000
5236800.50000000000000000000
-24669458.00000000000000000000
23078740.00000000000000000000
-39740996.00000000000000000000
18824334.00000000000000000000
-2910048.00000000000000000000
-3845089.75000000000000000000
-11103613.00000000000000000000
-3765886.75000000000000000000
-32562506.00000000000000000000
16235715.00000000000000000000
3046538.75000000000000000000
989511.81250000000000000000
-18789824.00000000000000000000
-24220198.00000000000000000000
-24920752.00000000000000000000
-8256142.50000000000000000000
589480.93750000000000000000
5791126.50000000000000000000
5803105.50000000000000000000
23121516.00000000000000000000
-8670485.00000000000000000000
-34004836.00000000000000000000
-33084352.00000000000000000000
-897008.25000000000000000000
15649973.00000000000000000000
34976436.00000000000000000000
-31681424.00000000000000000000
-2197832.75000000000000000000
5400634.50000000000000000000
3317965.75000000000000000000
26442972.00000000000000000000
-8121874.50000000000000000000
8246032.50000000000000000000
-11398945.00000000000000000000
7345520.50000000000000000000
-9561993.00000000000000000000
-46764712.00000000000000000000
2094507.37500000000000000000
1834315.62500000000000000000
-23492986.00000000000000000000
-26905454.00000000000000000000
-53657740.00000000000000000000
9482118.00000000000000000000
-411895.31250000000000000000
11303185.00000000000000000000
-14897323.00000000000000000000
-22978028.00000000000000000000
-19827046.00000000000000000000
15414755.00000000000000000000
-2473195.25000000000000000000
-32788780.00000000000000000000
-61244540.00000000000000000000
-44613292.00000000000000000000
8011385.50000000000000000000
45095580.00000000000000000000
-29387696.00000000000000000000
-19368256.00000000000000000000
-42247828.00000000000000000000
-35739496.00000000000000000000
-17770116.00000000000000000000
-21230140.00000000000000000000
16554259.00000000000000000000
-103361.99218750000000000000
-15683207.00000000000000000000
454479.68750000000000000000
-17810954.00000000000000000000
-16565079.00000000000000000000
60333932.00000000000000000000
48684588.00000000000000000000
-16177969.00000000000000000000
-1387063.37500000000000000000
516555712.00000000000000000000
40973376.00000000000000000000
389180544.00000000000000000000
-266686528.00000000000000000000
112729216.00000000000000000000
-70500480.00000000000000000000
198206928.00000000000000000000
179737824.00000000000000000000
211848416.00000000000000000000
21525680.00000000000000000000
411835904.00000000000000000000
51309672.00000000000000000000
73798720.00000000000000000000
-229076016.00000000000000000000
368508608.00000000000000000000
400147712.00000000000000000000
390185600.00000000000000000000
3300769.75000000000000000000
467082304.00000000000000000000
344013344.00000000000000000000
426085952.00000000000000000000
-169857488.00000000000000000000
-254738128.00000000000000000000
54623696.00000000000000000000
-65314292.00000000000000000000
-146362320.00000000000000000000
467072448.00000000000000000000
136637472.00000000000000000000
-243502672.00000000000000000000
176015568.00000000000000000000
-107395808.00000000000000000000
-246830256.00000000000000000000
393672256.00000000000000000000
226881040.00000000000000000000
184393600.00000000000000000000
-39013944.00000000000000000000
-226903024.00000000000000000000
5451413.50000000000000000000
-252621232.00000000000000000000
200885072.00000000000000000000
-367421.50000000000000000000
298061248.00000000000000000000
42625432.00000000000000000000
153083040.00000000000000000000
108725032.00000000000000000000
16976238.00000000000000000000
291284608.00000000000000000000
-17751224.00000000000000000000
377758688.00000000000000000000
282245344.00000000000000000000
-250680592.00000000000000000000
-107006536.00000000000000000000
-3037754.50000000000000000000
395974464.00000000000000000000
171905168.00000000000000000000
-256424272.00000000000000000000
93904088.00000000000000000000
189574608.00000000000000000000
-22018368.00000000000000000000
347036928.00000000000000000000
202611232.00000000000000000000
355232032.00000000000000000000
317799552.00000000000000000000
37415496.00000000000000000000
19200208.00000000000000000000
10997218.00000000000000000000
18216006.00000000000000000000
2346248.00000000000000000000
-7082304.50000000000000000000
-414807.90625000000000000000
1237644.25000000000000000000
2877025.25000000000000000000
-17822770.00000000000000000000
-3874625.00000000000000000000
1916868.00000000000000000000
-1293787.12500000000000000000
18445586.00000000000000000000
6878360.50000000000000000000
-9950063.00000000000000000000
-8833679.00000000000000000000
-12702597.00000000000000000000
-15669882.00000000000000000000
23465260.00000000000000000000
-4581729.50000000000000000000
-3274894.75000000000000000000
-7641160.50000000000000000000
-7978460.50000000000000000000
-8324324.50000000000000000000
-4790414.50000000000000000000
1394754.50000000000000000000
-1885100.87500000000000000000
-6251496.50000000000000000000
15139775.00000000000000000000
-6746569.50000000000000000000
26032462.00000000000000000000
7724593.50000000000000000000
-22430022.00000000000000000000
-6987714.50000000000000000000
-10488032.00000000000000000000
7688499.50000000000000000000
-2949256.00000000000000000000
-9255466.00000000000000000000
-12679243.00000000000000000000
-7120735.50000000000000000000
-15207523.00000000000000000000
-12976262.00000000000000000000
7024707.50000000000000000000
4344579.50000000000000000000
-12820625.00000000000000000000
-11485497.00000000000000000000
23937814.00000000000000000000
5887997.50000000000000000000
-9729888.00000000000000000000
2092577.12500000000000000000
4201222.50000000000000000000
-9615634.00000000000000000000
5196674.50000000000000000000
15953977.00000000000000000000
-14346325.00000000000000000000
-18713592.00000000000000000000
-6891094.50000000000000000000
8375152.50000000000000000000
-16895646.00000000000000000000
13451461.00000000000000000000
-22293626.00000000000000000000
-18980464.00000000000000000000
787471.68750000000000000000
728750.68750000000000000000
16191991.00000000000000000000
1514657.37500000000000000000
-3386155.25000000000000000000
-42532900.00000000000000000000
-14733196.00000000000000000000
-13932907.00000000000000000000
12007818.00000000000000000000
-6012679.50000000000000000000
31532188.00000000000000000000
-46878124.00000000000000000000
26006732.00000000000000000000
54287448.00000000000000000000
-41391232.00000000000000000000
-65993932.00000000000000000000
-58937804.00000000000000000000
-29067500.00000000000000000000
-8134594.00000000000000000000
-54936552.00000000000000000000
3152365.00000000000000000000
-52184636.00000000000000000000
-41443476.00000000000000000000
-11371610.00000000000000000000
-60757320.00000000000000000000
-27926646.00000000000000000000
-3482863.75000000000000000000
-62614284.00000000000000000000
21922108.00000000000000000000
-2770969.00000000000000000000
-35767456.00000000000000000000
-47311352.00000000000000000000
-27582800.00000000000000000000
-40181384.00000000000000000000
547330.43750000000000000000
-863610.56250000000000000000
-38941920.00000000000000000000
-5799115.00000000000000000000
-40142340.00000000000000000000
-78519056.00000000000000000000
-29590772.00000000000000000000
-36566276.00000000000000000000
-9397717.00000000000000000000
-42660724.00000000000000000000
-65816236.00000000000000000000
9167205.00000000000000000000
-62539948.00000000000000000000
-20173834.00000000000000000000
-43381216.00000000000000000000
-54473320.00000000000000000000
-9324771.00000000000000000000
51596292.00000000000000000000
19639112.00000000000000000000
31903648.00000000000000000000
10470171.00000000000000000000
3465940.25000000000000000000
49227128.00000000000000000000
-43958904.00000000000000000000
15941458.00000000000000000000
-5417857.50000000000000000000
28856788.00000000000000000000
-10157253.00000000000000000000
-31632464.00000000000000000000
-81391760.00000000000000000000
-4232950.00000000000000000000
2217316.50000000000000000000
-19840550.00000000000000000000
-35845704.00000000000000000000
-48815672.00000000000000000000
29935406.00000000000000000000
-13874630.00000000000000000000
-33921320.00000000000000000000
22637968.00000000000000000000
230228.31250000000000000000
-12189506.00000000000000000000
-22286060.00000000000000000000
-12952780.00000000000000000000
-12969282.00000000000000000000
-21084596.00000000000000000000
-31268946.00000000000000000000
-10374562.00000000000000000000
-18722922.00000000000000000000
-4238335.50000000000000000000
-31017574.00000000000000000000
-16588503.00000000000000000000
-22086608.00000000000000000000
-3000931.50000000000000000000
23470354.00000000000000000000
13519832.00000000000000000000
21395372.00000000000000000000
-3012995.00000000000000000000
8998857.00000000000000000000
-13373796.00000000000000000000
-8619177.00000000000000000000
2241792.00000000000000000000
7445105.50000000000000000000
-23602702.00000000000000000000
-8604464.00000000000000000000
-23676762.00000000000000000000
-12265422.00000000000000000000
7609409.50000000000000000000
31086012.00000000000000000000
-30683478.00000000000000000000
-20880422.00000000000000000000
-9762864.00000000000000000000
-3353763.00000000000000000000
-20270914.00000000000000000000
13096018.00000000000000000000
-10898976.00000000000000000000
-7272917.50000000000000000000
21916526.00000000000000000000
3040224.50000000000000000000
-1929182.12500000000000000000
-29674996.00000000000000000000
-13762850.00000000000000000000
-5040729.50000000000000000000
12575458.00000000000000000000
-9622386.00000000000000000000
-27751664.00000000000000000000
7776917.50000000000000000000
-11459636.00000000000000000000
-13819036.00000000000000000000
-11481436.00000000000000000000
-16635988.00000000000000000000
7574315.00000000000000000000
-7569915.00000000000000000000
-24891818.00000000000000000000
-29656098.00000000000000000000
-25029178.00000000000000000000
-27110970.00000000000000000000
9591422.00000000000000000000
-13527904.00000000000000000000
-21030712.00000000000000000000
-17173208.00000000000000000000
17789610.00000000000000000000
-52379932.00000000000000000000
-31181142.00000000000000000000
-24443938.00000000000000000000
12540105.00000000000000000000
15277529.00000000000000000000
25036026.00000000000000000000
-13615031.00000000000000000000
35511452.00000000000000000000
-15267069.00000000000000000000
-24987290.00000000000000000000
-49702036.00000000000000000000
-43893588.00000000000000000000
-27422958.00000000000000000000
-54548764.00000000000000000000
-40223724.00000000000000000000
-33820356.00000000000000000000
-42500812.00000000000000000000
17024210.00000000000000000000
-10018045.00000000000000000000
-20540766.00000000000000000000
-41416076.00000000000000000000
-19713172.00000000000000000000
-55949284.00000000000000000000
10393659.00000000000000000000
-35455240.00000000000000000000
26232330.00000000000000000000
-48959324.00000000000000000000
-34762748.00000000000000000000
475205.90625000000000000000
7229031.00000000000000000000
-41430260.00000000000000000000
39215428.00000000000000000000
25199698.00000000000000000000
-5939477.00000000000000000000
-38293312.00000000000000000000
-28580186.00000000000000000000
25176042.00000000000000000000
-34804828.00000000000000000000
-44797596.00000000000000000000
-13496737.00000000000000000000
63804172.00000000000000000000
-31789154.00000000000000000000
-44554636.00000000000000000000
-73891048.00000000000000000000
-21539298.00000000000000000000
4488665.00000000000000000000
-14276697.00000000000000000000
18525414.00000000000000000000
14926929.00000000000000000000
-24439114.00000000000000000000
6286101.00000000000000000000
-11793033.00000000000000000000
-64499424.00000000000000000000
-23963598.00000000000000000000
-33286242.00000000000000000000
7759194.00000000000000000000
-48889028.00000000000000000000
-107711144.00000000000000000000
-2918414.00000000000000000000
-30459590.00000000000000000000
-3322612.50000000000000000000
1830336.75000000000000000000
-31248634.00000000000000000000
-34578596.00000000000000000000
68392736.00000000000000000000
11031177.00000000000000000000
-52889264.00000000000000000000
-603514.68750000000000000000
10329196.00000000000000000000
13425130.00000000000000000000
30556940.00000000000000000000
-14493034.00000000000000000000
19548118.00000000000000000000
-5788364.50000000000000000000
-14603753.00000000000000000000
16399714.00000000000000000000
16192681.00000000000000000000
7474300.50000000000000000000
-27997240.00000000000000000000
-53404976.00000000000000000000
-44428856.00000000000000000000
31222940.00000000000000000000
38896784.00000000000000000000
23047578.00000000000000000000
-40630552.00000000000000000000
-347357.87500000000000000000
2226464.75000000000000000000
14392273.00000000000000000000
-30796436.00000000000000000000
4754447.50000000000000000000
9101532.00000000000000000000
17713968.00000000000000000000
-694947.81250000000000000000
24595688.00000000000000000000
-37203760.00000000000000000000
2715021.75000000000000000000
-15584389.00000000000000000000
-630704.81250000000000000000
2010593.50000000000000000000
-63965552.00000000000000000000
2807445.25000000000000000000
9053580.00000000000000000000
-5742763.50000000000000000000
-24411834.00000000000000000000
-23536026.00000000000000000000
-34024880.00000000000000000000
20227358.00000000000000000000
-19068134.00000000000000000000
-2572164.25000000000000000000
-35017984.00000000000000000000
-28025794.00000000000000000000
-2197283.75000000000000000000
-9727810.00000000000000000000
15186005.00000000000000000000
-31665898.00000000000000000000
-26107950.00000000000000000000
-23441956.00000000000000000000
29008832.00000000000000000000
-1672369.37500000000000000000
-6965878.50000000000000000000
8504597.00000000000000000000
-3869174.25000000000000000000
33616044.00000000000000000000
5832302.50000000000000000000
-11008783.00000000000000000000
19429278.00000000000000000000
12446491.00000000000000000000
25423826.00000000000000000000
28946144.00000000000000000000
72707360.00000000000000000000
18125012.00000000000000000000
18523580.00000000000000000000
7487386.50000000000000000000
-25704608.00000000000000000000
-14140151.00000000000000000000
-28892332.00000000000000000000
51282428.00000000000000000000
-16883940.00000000000000000000
-6939240.50000000000000000000
14387471.00000000000000000000
-45199116.00000000000000000000
-28172548.00000000000000000000
-20178668.00000000000000000000
2698731.00000000000000000000
-6680222.50000000000000000000
17598514.00000000000000000000
-20618292.00000000000000000000
8342496.50000000000000000000
5192606.50000000000000000000
22933148.00000000000000000000
-49881028.00000000000000000000
-38044028.00000000000000000000
-12297451.00000000000000000000
-3589458.75000000000000000000
-21808192.00000000000000000000
10787937.00000000000000000000
38334964.00000000000000000000
7870225.00000000000000000000
37807036.00000000000000000000
-28811640.00000000000000000000
-11500693.00000000000000000000
30808836.00000000000000000000
2309848.00000000000000000000
42886724.00000000000000000000
-15544900.00000000000000000000
-21243164.00000000000000000000
4781626.50000000000000000000
-7913939.50000000000000000000
17356640.00000000000000000000
-20944668.00000000000000000000
2311755.50000000000000000000
-37368236.00000000000000000000
-15525283.00000000000000000000
-11746791.00000000000000000000
24782300.00000000000000000000
-13932459.00000000000000000000
-23637936.00000000000000000000
12486917.00000000000000000000
-5502324.50000000000000000000
-13021463.00000000000000000000
-8960149.00000000000000000000
29067036.00000000000000000000
-9213189.00000000000000000000
11413467.00000000000000000000
-11952307.00000000000000000000
-17812560.00000000000000000000
-20602520.00000000000000000000
12591781.00000000000000000000
6019391.50000000000000000000
-25710208.00000000000000000000
2788450.50000000000000000000
-18722788.00000000000000000000
10616119.00000000000000000000
-54974404.00000000000000000000
-3727519.75000000000000000000
5258297.00000000000000000000
-1390934.50000000000000000000
-2003103.75000000000000000000
-2867487.75000000000000000000
1877629.25000000000000000000
4198285.00000000000000000000
6043790.50000000000000000000
8237375.50000000000000000000
-4139282.75000000000000000000
-8911742.00000000000000000000
-2885686.25000000000000000000
-3180295.75000000000000000000
2734142.25000000000000000000
-6191670.00000000000000000000
-4004475.75000000000000000000
-1952083.00000000000000000000
7508192.00000000000000000000
295274.75000000000000000000
11200883.00000000000000000000
-8481387.00000000000000000000
-2581864.75000000000000000000
1258243.25000000000000000000
6534645.00000000000000000000
-20403198.00000000000000000000
6915401.00000000000000000000
9547361.00000000000000000000
4879812.50000000000000000000
863751.68750000000000000000
-230930.76562500000000000000
3143777.25000000000000000000
3732050.25000000000000000000
6730624.00000000000000000000
4830059.00000000000000000000
5128098.00000000000000000000
-5641131.00000000000000000000
-6707469.00000000000000000000
-15447767.00000000000000000000
5058164.00000000000000000000
1708564.87500000000000000000
-3090886.75000000000000000000
3721216.75000000000000000000
2853592.75000000000000000000
-1942485.00000000000000000000
-919582.18750000000000000000
-4240917.00000000000000000000
444351.25000000000000000000
-3939728.00000000000000000000
-16515491.00000000000000000000
1631746.75000000000000000000
1928117.00000000000000000000
-1216295.25000000000000000000
10248731.00000000000000000000
-785944.18750000000000000000
-49806.58984375000000000000
9638671.00000000000000000000
9705063.00000000000000000000
-5457698.00000000000000000000
6454996.00000000000000000000
994933.31250000000000000000
296631.06250000000000000000
8446438.00000000000000000000
