0
314533474205696.00000000000000000000
-27798677607153664.00000000000000000000
28494054287212544.00000000000000000000
-6433722496712704.00000000000000000000
35768745339125760.00000000000000000000
-47640524571541504.00000000000000000000
-13424747064852480.00000000000000000000
3535008803323904.00000000000000000000
28273123316989952.00000000000000000000
21443646427496448.00000000000000000000
6039616834502656.00000000000000000000
-29284068424155136.00000000000000000000
6611260338601984.00000000000000000000
-11664177693196288.00000000000000000000
-15980028193931264.00000000000000000000
1771691323686912.00000000000000000000
-11014796891652096.00000000000000000000
9987222744858624.00000000000000000000
-2948524308168704.00000000000000000000
-4443977428238336.00000000000000000000
-30702635992481792.00000000000000000000
50298817269989376.00000000000000000000
16643681171800064.00000000000000000000
13586682364297216.00000000000000000000
-35476524354240512.00000000000000000000
-2862361895501824.00000000000000000000
-16436548857757696.00000000000000000000
896046142062592.00000000000000000000
24955299735535616.00000000000000000000
-46667456780959744.00000000000000000000
66102127960784896.00000000000000000000
-119480080299720704.00000000000000000000
9584431048163328.00000000000000000000
19687500872155136.00000000000000000000
82959165927981056.00000000000000000000
-85005546045833216.00000000000000000000
26856411174535168.00000000000000000000
-123797475914940416.00000000000000000000
-35966429798858752.00000000000000000000
190339893858140160.00000000000000000000
3889416619687936.00000000000000000000
-15567819781439488.00000000000000000000
409769773010780160.00000000000000000000
8056821239513088.00000000000000000000
-46564918731735040.00000000000000000000
21987054279720960.00000000000000000000
-14118821296078848.00000000000000000000
28146426076725248.00000000000000000000
-205623466261479424.00000000000000000000
110580315356921856.00000000000000000000
-581626876406005760.00000000000000000000
-53576049115529216.00000000000000000000
70474018121056256.00000000000000000000
-49684705666138112.00000000000000000000
5556408854511616.00000000000000000000
-25136145775984640.00000000000000000000
17612437888958464.00000000000000000000
-60798255667085312.00000000000000000000
-74538040730583040.00000000000000000000
63031767510024192.00000000000000000000
46344917621932032.00000000000000000000
49021618550210560.00000000000000000000
131652498652921856.00000000000000000000
-120587589156601856.00000000000000000000
-39052595729268736.00000000000000000000
1341670954895409152.00000000000000000000
540223013715443712.00000000000000000000
356000836913987584.00000000000000000000
593650723250503680.00000000000000000000
124586607436103680.00000000000000000000
-259483696183115776.00000000000000000000
436324215772151808.00000000000000000000
718548166059753472.00000000000000000000
-1533610638171963392.00000000000000000000
-852450265503105024.00000000000000000000
176304971526963200.00000000000000000000
-942055584084000768.00000000000000000000
10605005472006144.00000000000000000000
-38979705839288320.00000000000000000000
-16422013614686208.00000000000000000000
18437968184213504.00000000000000000000
-27293960967815168.00000000000000000000
37304428075679744.00000000000000000000
-70297348936302592.00000000000000000000
-25156660687273984.00000000000000000000
21887758930804736.00000000000000000000
56544391208108032.00000000000000000000
-40413365922693120.00000000000000000000
-68529793800339456.00000000000000000000
-89384419822927872.00000000000000000000
-2258327090233344.00000000000000000000
-4398104761597952.00000000000000000000
35058147294969856.00000000000000000000
14794749290479616.00000000000000000000
38894184450490368.00000000000000000000
-26801686848733184.00000000000000000000
-25452253221486592.00000000000000000000
41034405308792832.00000000000000000000
29858107983134720.00000000000000000000
3541876724465664.00000000000000000000
-27680709887918080.00000000000000000000
18836367203106816.00000000000000000000
1596208355213312.00000000000000000000
-17116425000845312.00000000000000000000
-18756618250354688.00000000000000000000
19056531521667072.00000000000000000000
9743713131560960.00000000000000000000
-13568380434907136.00000000000000000000
27882541138575360.00000000000000000000
-28309216074661888.00000000000000000000
41590350170554368.00000000000000000000
-1344466497568768.00000000000000000000
31028170891198464.00000000000000000000
-62653359416410112.00000000000000000000
-13626659919888384.00000000000000000000
-51586461350232064.00000000000000000000
37145312422264832.00000000000000000000
-94637551372992512.00000000000000000000
-78948817524752384.00000000000000000000
39739455489179648.00000000000000000000
-96276356274323456.00000000000000000000
12123731677675520.00000000000000000000
59386933708587008.00000000000000000000
737409981480960.00000000000000000000
-38890885915607040.00000000000000000000
29296736430194688.00000000000000000000
74789459526156288.00000000000000000000
-109222255287861248.00000000000000000000
-199951944767242240.00000000000000000000
87372545472331776.00000000000000000000
-1236489885875961856.00000000000000000000
-454653315125346304.00000000000000000000
59645194387062784.00000000000000000000
1513594441305161728.00000000000000000000
-859496691928137728.00000000000000000000
-691281377202536448.00000000000000000000
33777295705505792.00000000000000000000
273889686508797952.00000000000000000000
124632340247871488.00000000000000000000
614305736373043200.00000000000000000000
219102946242068480.00000000000000000000
-664494456451366912.00000000000000000000
-751438063539847168.00000000000000000000
2539980986691616768.00000000000000000000
1909964672266665984.00000000000000000000
2529633482762616832.00000000000000000000
-144616135881392128.00000000000000000000
2522187590019317760.00000000000000000000
149086698620321792.00000000000000000000
1524021797266128896.00000000000000000000
2081793738115383296.00000000000000000000
-1399428438141435904.00000000000000000000
1027469839217721344.00000000000000000000
413372872615002112.00000000000000000000
-2246413443659726848.00000000000000000000
211136297304064000.00000000000000000000
-444339174502301696.00000000000000000000
-178505558150610944.00000000000000000000
-38802173366108160.00000000000000000000
1318923433706258432.00000000000000000000
-652964290327740416.00000000000000000000
-424720313649987584.00000000000000000000
58514570016194560.00000000000000000000
33043844140367872.00000000000000000000
-21292345467076608.00000000000000000000
4457179352399872.00000000000000000000
-71104819967819776.00000000000000000000
-267261899136040960.00000000000000000000
-346600184295194624.00000000000000000000
837628278603776.00000000000000000000
9766568800026624.00000000000000000000
-17115579966029824.00000000000000000000
-3338178505211904.00000000000000000000
3522826665459712.00000000000000000000
7426221256212480.00000000000000000000
-10933565101441024.00000000000000000000
13767602492932096.00000000000000000000
1704607961055232.00000000000000000000
60677385355264.00000000000000000000
23503057476124672.00000000000000000000
2676160567705600.00000000000000000000
8469071527936000.00000000000000000000
622243729289248768.00000000000000000000
-1193202525407281152.00000000000000000000
-2022288168820146176.00000000000000000000
1234638858050600960.00000000000000000000
-1890327257155633152.00000000000000000000
-1871347212559056896.00000000000000000000
-1489160131840049152.00000000000000000000
633815264537870336.00000000000000000000
-497309040523608064.00000000000000000000
-2210197042469273600.00000000000000000000
2046601944323063808.00000000000000000000
-3649554795129208832.00000000000000000000
-830646606326923264.00000000000000000000
-1703440669474816.00000000000000000000
-9945589479374848.00000000000000000000
16279012678565888.00000000000000000000
-3938133896855552.00000000000000000000
-8329780906688512.00000000000000000000
20231368285880320.00000000000000000000
-3690965776728064.00000000000000000000
-16200009976381440.00000000000000000000
-12207165712367616.00000000000000000000
58041930340106240.00000000000000000000
1414208579174400.00000000000000000000
4010926344765440.00000000000000000000
-58411014059720704.00000000000000000000
-9732865117913088.00000000000000000000
-71999629159301120.00000000000000000000
34055897349095424.00000000000000000000
-47182225791254528.00000000000000000000
35427383485923328.00000000000000000000
-38695091241484288.00000000000000000000
-29273408315326464.00000000000000000000
-11759528114651136.00000000000000000000
23171616997376000.00000000000000000000
-1206064263462912.00000000000000000000
430928698540032.00000000000000000000
7830458746273792.00000000000000000000
-23575769124962304.00000000000000000000
8689255173849088.00000000000000000000
2052145843011584.00000000000000000000
4834650337837056.00000000000000000000
75149867411832832.00000000000000000000
4532718431895552.00000000000000000000
-1718699882971136.00000000000000000000
5673202437062656.00000000000000000000
9124507696496640.00000000000000000000
3076397295730688.00000000000000000000
-6990403408494592.00000000000000000000
-6174894345682944.00000000000000000000
-5349024748011520.00000000000000000000
9425229495402496.00000000000000000000
2096965486750203904.00000000000000000000
1422735748188078080.00000000000000000000
1855770431328354304.00000000000000000000
-534882376501690368.00000000000000000000
1907064023153639424.00000000000000000000
634060112033480704.00000000000000000000
1349136776286961664.00000000000000000000
1189327159236231168.00000000000000000000
-1494881578034135040.00000000000000000000
612081286911098880.00000000000000000000
719933000954937344.00000000000000000000
-2474053994612260864.00000000000000000000
284080303872409600.00000000000000000000
11042527347998720.00000000000000000000
20108100577001472.00000000000000000000
14679957699559424.00000000000000000000
-26865757023371264.00000000000000000000
-19768722998689792.00000000000000000000
40086458781925376.00000000000000000000
3870725458886656.00000000000000000000
-22645953802534912.00000000000000000000
1302701296058368.00000000000000000000
76027045762564096.00000000000000000000
-33949094397345792.00000000000000000000
-109475804387213312.00000000000000000000
-17902289125638144.00000000000000000000
-66032875908104192.00000000000000000000
-133688356100898816.00000000000000000000
-298825029678792704.00000000000000000000
573689536324829184.00000000000000000000
-382374272573636608.00000000000000000000
-350405903276572672.00000000000000000000
-248276528780017664.00000000000000000000
-245374900414447616.00000000000000000000
779972932901273600.00000000000000000000
-139666735828566016.00000000000000000000
72862831686451200.00000000000000000000
-513046625329872896.00000000000000000000
-222692954785972224.00000000000000000000
82765608931819520.00000000000000000000
186948415882526720.00000000000000000000
-52199331708534784.00000000000000000000
408231796761690112.00000000000000000000
-535690277029937152.00000000000000000000
-298331967433211904.00000000000000000000
246787618237317120.00000000000000000000
470664747046404096.00000000000000000000
-470034108408397824.00000000000000000000
-250882800834576384.00000000000000000000
372929398971564032.00000000000000000000
-1252598418417647616.00000000000000000000
-315576467285082112.00000000000000000000
469367735642488832.00000000000000000000
-106970395344633856.00000000000000000000
32682785567145984.00000000000000000000
1636885841223614464.00000000000000000000
-220707185246601216.00000000000000000000
-192293399603183616.00000000000000000000
38647180881297408.00000000000000000000
140656047185461248.00000000000000000000
-1781798175229607936.00000000000000000000
-503137208065064960.00000000000000000000
464728071451181056.00000000000000000000
-1603883037643243520.00000000000000000000
-81472806595854336.00000000000000000000
-51769534331224064.00000000000000000000
-53332232412069888.00000000000000000000
-11503606045868032.00000000000000000000
22961427740360704.00000000000000000000
36600517295603712.00000000000000000000
-128238669667500032.00000000000000000000
-84563963278262272.00000000000000000000
62403207636189184.00000000000000000000
138485954829615104.00000000000000000000
-33785801888235520.00000000000000000000
-39358131112771584.00000000000000000000
-32642524543713280.00000000000000000000
-25067202960949248.00000000000000000000
29306902617784320.00000000000000000000
75663459601088512.00000000000000000000
-7477410823929856.00000000000000000000
70220859863728128.00000000000000000000
-76516543185289216.00000000000000000000
61825886722195456.00000000000000000000
88658656249249792.00000000000000000000
-75445867967938560.00000000000000000000
-14430310577995776.00000000000000000000
-11169883865743360.00000000000000000000
-18651874735423488.00000000000000000000
28088381741203456.00000000000000000000
-61503841484406784.00000000000000000000
202624221879205888.00000000000000000000
-163297474092466176.00000000000000000000
-334960994721726464.00000000000000000000
705216037817155584.00000000000000000000
-729168348872441856.00000000000000000000
-399005004419039232.00000000000000000000
-333559426633957376.00000000000000000000
214979502760001536.00000000000000000000
415808600108171264.00000000000000000000
421595398524633088.00000000000000000000
691617759041159168.00000000000000000000
-1019183026237603840.00000000000000000000
-624510235070955520.00000000000000000000
379760561635721216.00000000000000000000
369676596900003840.00000000000000000000
-249556033897234432.00000000000000000000
-440834549908242432.00000000000000000000
-509827083485052928.00000000000000000000
559664543958040576.00000000000000000000
593534106298482688.00000000000000000000
-28206564208803840.00000000000000000000
-163785794694152192.00000000000000000000
-618924028807086080.00000000000000000000
495382936669913088.00000000000000000000
-614128165245157376.00000000000000000000
31556447573639168.00000000000000000000
-143480357549768704.00000000000000000000
-141903451717107712.00000000000000000000
-594138013060038656.00000000000000000000
-669644912513253376.00000000000000000000
37314237780983808.00000000000000000000
62355091117572096.00000000000000000000
-28670442151608320.00000000000000000000
-422283246127022080.00000000000000000000
1508113513279651840.00000000000000000000
-1127208944154968064.00000000000000000000
55532385244020736.00000000000000000000
-352045756149923840.00000000000000000000
420415656907767808.00000000000000000000
-77952178953650176.00000000000000000000
14822800795631616.00000000000000000000
-26006593912963072.00000000000000000000
-287457093059870720.00000000000000000000
-61262730610343936.00000000000000000000
110384456258289664.00000000000000000000
43495030727376896.00000000000000000000
-38204206544322560.00000000000000000000
17362234569129984.00000000000000000000
70334826820927488.00000000000000000000
-60597719349067776.00000000000000000000
-59766308169842688.00000000000000000000
96625159158366208.00000000000000000000
951650609742741504.00000000000000000000
252473828519706624.00000000000000000000
148297678768308224.00000000000000000000
-906245452440010752.00000000000000000000
143535376080830464.00000000000000000000
179177514374004736.00000000000000000000
288430212390060032.00000000000000000000
153597943289479168.00000000000000000000
-154922854800949248.00000000000000000000
-849027691964268544.00000000000000000000
-259537297374969856.00000000000000000000
-965122582120497152.00000000000000000000
253931420160884736.00000000000000000000
178230886402097152.00000000000000000000
-381492258089730048.00000000000000000000
-8107467493867520.00000000000000000000
610146696202027008.00000000000000000000
-91148938417012736.00000000000000000000
-335142620298739712.00000000000000000000
-269631432593244160.00000000000000000000
49911243716165632.00000000000000000000
553478966418079744.00000000000000000000
400398497968291840.00000000000000000000
884271712558907392.00000000000000000000
-1465298530494054400.00000000000000000000
-463607428584308736.00000000000000000000
1149277654352920576.00000000000000000000
-933082057372860416.00000000000000000000
-1622581607263109120.00000000000000000000
-677638087169277952.00000000000000000000
-1161948907387748352.00000000000000000000
-320140436972765184.00000000000000000000
-1098909920037699584.00000000000000000000
-1043750995084967936.00000000000000000000
1038683620870455296.00000000000000000000
-2774883949384564736.00000000000000000000
-526622192318808064.00000000000000000000
-1231267480521932800.00000000000000000000
283877323718000640.00000000000000000000
434509403111030784.00000000000000000000
129995148082806784.00000000000000000000
-546157284128980992.00000000000000000000
784780822371631104.00000000000000000000
-2963116766647025664.00000000000000000000
21402425478873088.00000000000000000000
782041320431550464.00000000000000000000
443967505212375040.00000000000000000000
-499362962604032000.00000000000000000000
910524545536884736.00000000000000000000
1765375044923424768.00000000000000000000
-1667738412376915968.00000000000000000000
-1935666856077557760.00000000000000000000
20974348235964416.00000000000000000000
-33271108039868416.00000000000000000000
12281584610705408.00000000000000000000
-2605865911713792.00000000000000000000
40275308493930496.00000000000000000000
-4129594412105728.00000000000000000000
-27339889200594944.00000000000000000000
1403591956889600.00000000000000000000
52203416222433280.00000000000000000000
25410922751197184.00000000000000000000
53965512454963200.00000000000000000000
-39673532036153344.00000000000000000000
-24988282936885248.00000000000000000000
-1065576713213181952.00000000000000000000
-414563025232592896.00000000000000000000
-219739391675858944.00000000000000000000
2392077431302258688.00000000000000000000
-718254115418800128.00000000000000000000
-1123382987287691264.00000000000000000000
-369392716741607424.00000000000000000000
114576138180755456.00000000000000000000
1157779146978361344.00000000000000000000
-139104558969257984.00000000000000000000
-622783933095870464.00000000000000000000
-122852900937400320.00000000000000000000
-510989335995088896.00000000000000000000
-3980808155037696.00000000000000000000
-837702433898496.00000000000000000000
-18543693099171840.00000000000000000000
-30603370708336640.00000000000000000000
-15918872154603520.00000000000000000000
-17648386765225984.00000000000000000000
-3420328613117952.00000000000000000000
31504272310927360.00000000000000000000
59205686088695808.00000000000000000000
-7338269989666816.00000000000000000000
19187938193571840.00000000000000000000
-21094141316300800.00000000000000000000
4250153875668992.00000000000000000000
354625554026070016.00000000000000000000
-162419496877817856.00000000000000000000
-407444683875155968.00000000000000000000
911778469828886528.00000000000000000000
-764265515945295872.00000000000000000000
-199295381706637312.00000000000000000000
-268606687756156928.00000000000000000000
123846816499236864.00000000000000000000
117699249419845632.00000000000000000000
256472924108619776.00000000000000000000
760396265807675392.00000000000000000000
-1358231524155064320.00000000000000000000
-527821106669682688.00000000000000000000
66578345344630784.00000000000000000000
32962430887788544.00000000000000000000
-11328803024404480.00000000000000000000
-2361620785266688.00000000000000000000
-47333636273340416.00000000000000000000
62533516943949824.00000000000000000000
9692924069543936.00000000000000000000
-23614359406116864.00000000000000000000
-5763207771717632.00000000000000000000
51492642084618240.00000000000000000000
-18781997212106752.00000000000000000000
9404695256760320.00000000000000000000
-52199619471343616.00000000000000000000
-547583110192037888.00000000000000000000
-202624376498028544.00000000000000000000
-615754205503684608.00000000000000000000
-226334348318605312.00000000000000000000
-767380226228355072.00000000000000000000
-839833850610712576.00000000000000000000
-203691985108729856.00000000000000000000
-598503967575506944.00000000000000000000
9803226981553143808.00000000000000000000
208421414116524032.00000000000000000000
240617571299098624.00000000000000000000
1458250248643149824.00000000000000000000
138947844202561536.00000000000000000000
678974818430746624.00000000000000000000
339143262075879424.00000000000000000000
565966016895516672.00000000000000000000
1003636000540327936.00000000000000000000
213103186167201792.00000000000000000000
151510743802445824.00000000000000000000
428068086038396928.00000000000000000000
452757860158275584.00000000000000000000
-1520358499400286208.00000000000000000000
538117792545636352.00000000000000000000
835179343012429824.00000000000000000000
-2581629662518050816.00000000000000000000
-304604990507319296.00000000000000000000
56919797119582208.00000000000000000000
151344150610968576.00000000000000000000
-150840849163354112.00000000000000000000
1007707079781122048.00000000000000000000
-805829941693251584.00000000000000000000
-592639035113996288.00000000000000000000
64120125107732480.00000000000000000000
501101153048592384.00000000000000000000
-141679512122294272.00000000000000000000
115639950040367104.00000000000000000000
417975084691488768.00000000000000000000
-1000017370334363648.00000000000000000000
-560081774261043200.00000000000000000000
-537401254561710080.00000000000000000000
-226733660018049024.00000000000000000000
-309709301440577536.00000000000000000000
-199206802301124608.00000000000000000000
-440039946598744064.00000000000000000000
-551427964915417088.00000000000000000000
-128228739703111680.00000000000000000000
-321718167439147008.00000000000000000000
5484806552776867840.00000000000000000000
314008632423350272.00000000000000000000
325632360114552832.00000000000000000000
479116040094089216.00000000000000000000
-110075321692192768.00000000000000000000
33118948085989376.00000000000000000000
2233993550364672.00000000000000000000
-244954936901632.00000000000000000000
-3467786122690560.00000000000000000000
-31325931175936.00000000000000000000
27702375850442752.00000000000000000000
-127626563813376.00000000000000000000
-17001570059157504.00000000000000000000
6151483015823360.00000000000000000000
4810020311007232.00000000000000000000
22180834614181888.00000000000000000000
-7672180074610688.00000000000000000000
11522027160600576.00000000000000000000
-167392295912472576.00000000000000000000
-102125105299062784.00000000000000000000
-31976974264041472.00000000000000000000
-460866311736524800.00000000000000000000
-180570561246658560.00000000000000000000
19835361563770880.00000000000000000000
-1556800956530688.00000000000000000000
-39140569544392704.00000000000000000000
62287754620305408.00000000000000000000
75062353158209536.00000000000000000000
-52973357829718016.00000000000000000000
-55985298135318528.00000000000000000000
-11948930803695616.00000000000000000000
111833415015202816.00000000000000000000
-29147969500479488.00000000000000000000
6500488300199936.00000000000000000000
112076699142717440.00000000000000000000
75968488178450432.00000000000000000000
7528537577750528.00000000000000000000
-9070468417978368.00000000000000000000
-4657633797603328.00000000000000000000
-21752946349834240.00000000000000000000
-95432953546407936.00000000000000000000
121226001685413888.00000000000000000000
63042152740945920.00000000000000000000
28294091347329024.00000000000000000000
-609465480029143040.00000000000000000000
-204077467013480448.00000000000000000000
-369822935025713152.00000000000000000000
400540678565658624.00000000000000000000
-357887564507512832.00000000000000000000
-289071296388530176.00000000000000000000
-235726823319666688.00000000000000000000
-344338832474243072.00000000000000000000
2120423567328804864.00000000000000000000
-104185169182720000.00000000000000000000
-116997383044202496.00000000000000000000
-40240794136739840.00000000000000000000
62315903835963392.00000000000000000000
115324699440840704.00000000000000000000
-23169609100165120.00000000000000000000
72038202260586496.00000000000000000000
-218359332784308224.00000000000000000000
-295145273498271744.00000000000000000000
237801979718402048.00000000000000000000
70445490948276224.00000000000000000000
-111736159775752192.00000000000000000000
-52433647944335360.00000000000000000000
505701544058945536.00000000000000000000
-17208983693557760.00000000000000000000
77421123427368960.00000000000000000000
-112239504173039616.00000000000000000000
5026023343128576.00000000000000000000
16582389841002496.00000000000000000000
17132788826243072.00000000000000000000
-40114741141569536.00000000000000000000
-7979163398963200.00000000000000000000
-41364705473724416.00000000000000000000
-9410994900041728.00000000000000000000
43375738010730496.00000000000000000000
94853107191644160.00000000000000000000
25636487991132160.00000000000000000000
-27286977350991872.00000000000000000000
-30132146223972352.00000000000000000000
40630820116889600.00000000000000000000
-1438531881988521984.00000000000000000000
-743206913335885824.00000000000000000000
-94142547802193920.00000000000000000000
2229887509016346624.00000000000000000000
-638550036484980736.00000000000000000000
-856537218943025152.00000000000000000000
-275533559471538176.00000000000000000000
-132363161121587200.00000000000000000000
585443418704969728.00000000000000000000
-55143248322101248.00000000000000000000
-346767413141831680.00000000000000000000
-335959660517392384.00000000000000000000
-545566571506958336.00000000000000000000
476266209034108928.00000000000000000000
-848468040545730560.00000000000000000000
-701842461265231872.00000000000000000000
2336010034867077120.00000000000000000000
-1319818161293361152.00000000000000000000
-1680979418593361920.00000000000000000000
-1008117884813049856.00000000000000000000
1466603513357271040.00000000000000000000
-2398494181161959424.00000000000000000000
231321303565467648.00000000000000000000
2901027894782328832.00000000000000000000
-4960157537153318912.00000000000000000000
-1189486725861212160.00000000000000000000
-2533389143900160.00000000000000000000
-790266063618048.00000000000000000000
5419531468013568.00000000000000000000
-1032374645161984.00000000000000000000
756820817739776.00000000000000000000
6820214255648768.00000000000000000000
-579261970776064.00000000000000000000
-309008233660416.00000000000000000000
-2769264989700096.00000000000000000000
13618649805881344.00000000000000000000
-5209024383418368.00000000000000000000
-9272048413048832.00000000000000000000
-379277421838336.00000000000000000000
-574231939154706432.00000000000000000000
-414608002130116608.00000000000000000000
-458940414041260032.00000000000000000000
-168859869057646592.00000000000000000000
-427661129297166336.00000000000000000000
-602505021669507072.00000000000000000000
-411330495406669824.00000000000000000000
-422654606179303424.00000000000000000000
3985005622281109504.00000000000000000000
32921261478772736.00000000000000000000
126062641666850816.00000000000000000000
55326050720153600.00000000000000000000
-86228177206116352.00000000000000000000
-549997706446110720.00000000000000000000
-627252348351152128.00000000000000000000
-518600877037060096.00000000000000000000
-382418459197177856.00000000000000000000
-463047296129433600.00000000000000000000
-643540170007642112.00000000000000000000
-683043217611948032.00000000000000000000
-536065794610561024.00000000000000000000
4619545327542730752.00000000000000000000
133319564439060480.00000000000000000000
151121722844643328.00000000000000000000
-317722301665640448.00000000000000000000
-82369003061772288.00000000000000000000
-22842878053056512.00000000000000000000
47812830069522432.00000000000000000000
21415722697621504.00000000000000000000
-54822440034893824.00000000000000000000
-59228243256934400.00000000000000000000
-15893284886937600.00000000000000000000
38563725371768832.00000000000000000000
20538636688687104.00000000000000000000
-22736508893003776.00000000000000000000
20939260500639744.00000000000000000000
-34941014946873344.00000000000000000000
33595012998496256.00000000000000000000
-57403285883060224.00000000000000000000
51346784995246080.00000000000000000000
-19557930298769408.00000000000000000000
-19557292496125952.00000000000000000000
-12188129343569920.00000000000000000000
22645953802534912.00000000000000000000
-19328888282808320.00000000000000000000
14013956448321536.00000000000000000000
1085034165436416.00000000000000000000
-2840781832323072.00000000000000000000
-92619681248051200.00000000000000000000
62906629342887936.00000000000000000000
1072527690432512.00000000000000000000
-930372258889728.00000000000000000000
241498572170723328.00000000000000000000
-363946595131064320.00000000000000000000
-93192629885337600.00000000000000000000
-355970806502653952.00000000000000000000
-214269235428327424.00000000000000000000
-95734202552549376.00000000000000000000
-318584628019462144.00000000000000000000
-296271517002498048.00000000000000000000
280147093081817088.00000000000000000000
81125773238337536.00000000000000000000
50943650774908928.00000000000000000000
-669583064984190976.00000000000000000000
-205339912520597504.00000000000000000000
-59307708741844992.00000000000000000000
18635936111788032.00000000000000000000
17202896651157504.00000000000000000000
-111997491355844608.00000000000000000000
-11534246342557696.00000000000000000000
-33785136168304640.00000000000000000000
-5943488487096320.00000000000000000000
48319988397768704.00000000000000000000
88900282519388160.00000000000000000000
16158578574360576.00000000000000000000
-86807001358663680.00000000000000000000
-47612044643401728.00000000000000000000
-1196811024859136.00000000000000000000
44511215694643200.00000000000000000000
-59789754396311552.00000000000000000000
-21641124728799232.00000000000000000000
-63742137920913408.00000000000000000000
48018580477837312.00000000000000000000
-64973736972910592.00000000000000000000
-60101397223309312.00000000000000000000
24766503710621696.00000000000000000000
53237390944239616.00000000000000000000
-5158955802165248.00000000000000000000
93055354140622848.00000000000000000000
-210363873205682176.00000000000000000000
-64487258912194560.00000000000000000000
-352718863424552960.00000000000000000000
-988784278508666880.00000000000000000000
-940872234694606848.00000000000000000000
1200737478592430080.00000000000000000000
-1346511554836692992.00000000000000000000
-1409680559436726272.00000000000000000000
-1062555186540576768.00000000000000000000
980083361961738240.00000000000000000000
-2106337861304320000.00000000000000000000
-483599573634252800.00000000000000000000
1763180144836476928.00000000000000000000
-3204829279728697344.00000000000000000000
-842842801619075072.00000000000000000000
-8251728466018304.00000000000000000000
-1637344478232576.00000000000000000000
36133924933468160.00000000000000000000
-44426755162767360.00000000000000000000
-54764784393912320.00000000000000000000
51437258481336320.00000000000000000000
6112491155226624.00000000000000000000
-8538558730076160.00000000000000000000
-19040687387312128.00000000000000000000
123275405460242432.00000000000000000000
-38371263592267776.00000000000000000000
-15218461772873728.00000000000000000000
-55767805286416384.00000000000000000000
-24315145597485056.00000000000000000000
-7526379893555200.00000000000000000000
6579030904012800.00000000000000000000
-29438970714652672.00000000000000000000
-4091372961267712.00000000000000000000
-39720188265889792.00000000000000000000
-12269349322620928.00000000000000000000
15928257731887104.00000000000000000000
72165432076795904.00000000000000000000
48147047244627968.00000000000000000000
27734740576501760.00000000000000000000
-3689822778556416.00000000000000000000
-7181184245170176.00000000000000000000
292620141965869056.00000000000000000000
-21764405322579968.00000000000000000000
-268486806628990976.00000000000000000000
-141559450606501888.00000000000000000000
-580215172195418112.00000000000000000000
42338872775933952.00000000000000000000
2067024415031296.00000000000000000000
-215606963122208768.00000000000000000000
267180226037940224.00000000000000000000
97627784913879040.00000000000000000000
339931921150640128.00000000000000000000
-475616535101046784.00000000000000000000
-394111593559883776.00000000000000000000
47266046373003264.00000000000000000000
-5570227911786496.00000000000000000000
8446781184540672.00000000000000000000
-20220029572218880.00000000000000000000
31244510541381632.00000000000000000000
-7525327626567680.00000000000000000000
-19532143315124224.00000000000000000000
25150720747503616.00000000000000000000
5515468689375232.00000000000000000000
19665695323193344.00000000000000000000
21561307056570368.00000000000000000000
4768725811068928.00000000000000000000
4138213069291520.00000000000000000000
54172448274251776.00000000000000000000
-29657009024401408.00000000000000000000
12628716752470016.00000000000000000000
-19800574476156928.00000000000000000000
14357153326301184.00000000000000000000
9216768962723840.00000000000000000000
-31637626750500864.00000000000000000000
-15102700593086464.00000000000000000000
26777796093149184.00000000000000000000
48209762357084160.00000000000000000000
40241373957324800.00000000000000000000
-42651791208218624.00000000000000000000
-17009133496565760.00000000000000000000
352466464.00000000000000000000
65202456.00000000000000000000
-711762.43750000000000000000
-4102421.75000000000000000000
-33945012.00000000000000000000
42761184.00000000000000000000
18354910.00000000000000000000
-15594904.00000000000000000000
8351305.50000000000000000000
501518.65625000000000000000
4237699.00000000000000000000
70106256.00000000000000000000
132947760.00000000000000000000
53035532.00000000000000000000
30876190.00000000000000000000
353430656.00000000000000000000
42494656.00000000000000000000
-8681132.00000000000000000000
-8968215.00000000000000000000
19677180.00000000000000000000
-9193725.00000000000000000000
59242680.00000000000000000000
-68703896.00000000000000000000
98742736.00000000000000000000
6549048.00000000000000000000
14519773.00000000000000000000
34002936.00000000000000000000
-84568104.00000000000000000000
-131340352.00000000000000000000
-47155336.00000000000000000000
-34603720.00000000000000000000
-118650680.00000000000000000000
-125908968.00000000000000000000
-346853152.00000000000000000000
4425993.50000000000000000000
120368688.00000000000000000000
27536726.00000000000000000000
21774262.00000000000000000000
-45132424.00000000000000000000
-55971784.00000000000000000000
177545200.00000000000000000000
-52027096.00000000000000000000
-40296308.00000000000000000000
-30048554.00000000000000000000
78224168.00000000000000000000
17564512.00000000000000000000
58807176.00000000000000000000
-31741630.00000000000000000000
-27572222.00000000000000000000
15291928.00000000000000000000
92630096.00000000000000000000
113093.81250000000000000000
29082234.00000000000000000000
-93787272.00000000000000000000
49612052.00000000000000000000
6719035.50000000000000000000
6621363.50000000000000000000
23022050.00000000000000000000
-3976335.00000000000000000000
211846704.00000000000000000000
44268792.00000000000000000000
40246648.00000000000000000000
-11366685.00000000000000000000
41793880.00000000000000000000
23463990.00000000000000000000
-95728624.00000000000000000000
27529216.00000000000000000000
4846210.50000000000000000000
78874320.00000000000000000000
-23632874.00000000000000000000
-52684324.00000000000000000000
77478936.00000000000000000000
34767380.00000000000000000000
1914276.37500000000000000000
3788919.25000000000000000000
16783436.00000000000000000000
4140023.75000000000000000000
16270223.00000000000000000000
93825072.00000000000000000000
-26901268.00000000000000000000
-8087356.50000000000000000000
25882562.00000000000000000000
13629841.00000000000000000000
27053652.00000000000000000000
-63141404.00000000000000000000
-22485586.00000000000000000000
92310600.00000000000000000000
-56391132.00000000000000000000
22950362.00000000000000000000
-32381850.00000000000000000000
-14146317.00000000000000000000
-52098540.00000000000000000000
-65759596.00000000000000000000
-30403316.00000000000000000000
50049068.00000000000000000000
72882192.00000000000000000000
-118693128.00000000000000000000
1291696.12500000000000000000
117587776.00000000000000000000
-82811896.00000000000000000000
-28190926.00000000000000000000
-36557388.00000000000000000000
46614692.00000000000000000000
-9217943.00000000000000000000
172016208.00000000000000000000
-111155400.00000000000000000000
28288006.00000000000000000000
112889152.00000000000000000000
-45669244.00000000000000000000
-34025504.00000000000000000000
-51089556.00000000000000000000
-27739172.00000000000000000000
8222821.50000000000000000000
-69191400.00000000000000000000
-51031948.00000000000000000000
-8019552.50000000000000000000
-45962836.00000000000000000000
-64079164.00000000000000000000
-82954240.00000000000000000000
-8392899.00000000000000000000
-18815918.00000000000000000000
3944276.00000000000000000000
11114669.00000000000000000000
6745688.50000000000000000000
-80131304.00000000000000000000
41108612.00000000000000000000
14406007.00000000000000000000
56756692.00000000000000000000
30065550.00000000000000000000
-11978963.00000000000000000000
26405502.00000000000000000000
-13025371.00000000000000000000
15061798.00000000000000000000
-26393772.00000000000000000000
-24796118.00000000000000000000
16549283.00000000000000000000
-1934399.12500000000000000000
-631264.93750000000000000000
-393712.12500000000000000000
-16682103.00000000000000000000
-2720430.75000000000000000000
-20054666.00000000000000000000
3327957.75000000000000000000
-57756328.00000000000000000000
-12834832.00000000000000000000
-19718352.00000000000000000000
-10858594.00000000000000000000
806611.93750000000000000000
-8052898.50000000000000000000
21509982.00000000000000000000
-9553335.00000000000000000000
9171047.00000000000000000000
-15699500.00000000000000000000
-12285865.00000000000000000000
16220664.00000000000000000000
-6796702.00000000000000000000
-39406664.00000000000000000000
15188363.00000000000000000000
-6032354.00000000000000000000
-1239172.50000000000000000000
21048250.00000000000000000000
-25724146.00000000000000000000
-11030481.00000000000000000000
-16273889.00000000000000000000
-1385577.37500000000000000000
-9915699.00000000000000000000
25446586.00000000000000000000
28326850.00000000000000000000
10729842.00000000000000000000
11507047.00000000000000000000
-14768216.00000000000000000000
-17931418.00000000000000000000
-3162148.25000000000000000000
-7595256.50000000000000000000
-46167684.00000000000000000000
-10465847.00000000000000000000
13982451.00000000000000000000
-10709218.00000000000000000000
-12577913.00000000000000000000
-23135840.00000000000000000000
-23033748.00000000000000000000
-6524859.00000000000000000000
22246784.00000000000000000000
1013770.75000000000000000000
-6714171.50000000000000000000
2132517.50000000000000000000
-15021697.00000000000000000000
-5618779.00000000000000000000
16572693.00000000000000000000
6934118.50000000000000000000
6653027.50000000000000000000
-23773558.00000000000000000000
-33224732.00000000000000000000
-7755314.00000000000000000000
2244501.75000000000000000000
32243948.00000000000000000000
7319807.50000000000000000000
-9932466.00000000000000000000
-2950157.75000000000000000000
8011984.00000000000000000000
17542378.00000000000000000000
28295172.00000000000000000000
6209659.50000000000000000000
12943068.00000000000000000000
3668335.00000000000000000000
-19800428.00000000000000000000
-58236.00000000000000000000
11207170.00000000000000000000
-2380596.25000000000000000000
-4870035.50000000000000000000
9171452.00000000000000000000
-15473924.00000000000000000000
21887000.00000000000000000000
20656740.00000000000000000000
604268.00000000000000000000
-9389410.00000000000000000000
3979366.50000000000000000000
15633952.00000000000000000000
2376885.75000000000000000000
-28497868.00000000000000000000
-6680813.00000000000000000000
-8188517.00000000000000000000
-14024900.00000000000000000000
634280.56250000000000000000
21237052.00000000000000000000
4076387.25000000000000000000
-25792280.00000000000000000000
18032668.00000000000000000000
2164449.75000000000000000000
-39970784.00000000000000000000
-19024558.00000000000000000000
13794076.00000000000000000000
14518174.00000000000000000000
-5302476.00000000000000000000
-15142106.00000000000000000000
-9017940.00000000000000000000
13084610.00000000000000000000
8110368.50000000000000000000
-13607710.00000000000000000000
3303574.25000000000000000000
7793031.00000000000000000000
-3893324.75000000000000000000
5952165.50000000000000000000
-854755.18750000000000000000
-4225002.50000000000000000000
6539165.00000000000000000000
469657.56250000000000000000
-948433.18750000000000000000
14574080.00000000000000000000
-29363158.00000000000000000000
18622566.00000000000000000000
18481048.00000000000000000000
-15909928.00000000000000000000
4603374.00000000000000000000
5876880.00000000000000000000
13551488.00000000000000000000
-20088096.00000000000000000000
2616360.75000000000000000000
-8427025.00000000000000000000
-10252154.00000000000000000000
4307291.00000000000000000000
37938188.00000000000000000000
448864.00000000000000000000
-54479396.00000000000000000000
6063062.00000000000000000000
-35269756.00000000000000000000
15328502.00000000000000000000
-150213.26562500000000000000
-3747992.75000000000000000000
7129955.00000000000000000000
9765631.00000000000000000000
28952506.00000000000000000000
15243303.00000000000000000000
85831200.00000000000000000000
-1905300.25000000000000000000
57449524.00000000000000000000
14189504.00000000000000000000
9399155.00000000000000000000
31962722.00000000000000000000
14562881.00000000000000000000
-23568030.00000000000000000000
38570420.00000000000000000000
-30026754.00000000000000000000
-45526860.00000000000000000000
5057296.00000000000000000000
-30045726.00000000000000000000
27377538.00000000000000000000
8286836.00000000000000000000
-26204474.00000000000000000000
-4878853.00000000000000000000
8271342.00000000000000000000
-28160540.00000000000000000000
20533352.00000000000000000000
16639945.00000000000000000000
-4238775.00000000000000000000
-14333336.00000000000000000000
-29786696.00000000000000000000
14396997.00000000000000000000
-21301486.00000000000000000000
-17932018.00000000000000000000
21072822.00000000000000000000
-38066216.00000000000000000000
35754504.00000000000000000000
3024616.75000000000000000000
43723140.00000000000000000000
-17143518.00000000000000000000
13530206.00000000000000000000
-8090873.00000000000000000000
5653680.00000000000000000000
-27875556.00000000000000000000
11221774.00000000000000000000
-720162.37500000000000000000
-13805349.00000000000000000000
28249240.00000000000000000000
29400364.00000000000000000000
17284764.00000000000000000000
-6782092.00000000000000000000
29461722.00000000000000000000
32125314.00000000000000000000
-39111136.00000000000000000000
-46241820.00000000000000000000
-27632830.00000000000000000000
-33922156.00000000000000000000
-19979040.00000000000000000000
9461173.00000000000000000000
-62898960.00000000000000000000
-73615504.00000000000000000000
-13973811.00000000000000000000
-55843028.00000000000000000000
186283568.00000000000000000000
33203238.00000000000000000000
-39326820.00000000000000000000
-30535736.00000000000000000000
57194604.00000000000000000000
-14202952.00000000000000000000
-31344330.00000000000000000000
-15020300.00000000000000000000
163126848.00000000000000000000
55745044.00000000000000000000
85758656.00000000000000000000
20073650.00000000000000000000
3255545.50000000000000000000
-39739608.00000000000000000000
-10739117.00000000000000000000
268762688.00000000000000000000
27733916.00000000000000000000
29793304.00000000000000000000
-188524240.00000000000000000000
18579252.00000000000000000000
-9841332.00000000000000000000
129420448.00000000000000000000
27182982.00000000000000000000
-180791280.00000000000000000000
113398064.00000000000000000000
84812112.00000000000000000000
70259840.00000000000000000000
170358288.00000000000000000000
121510016.00000000000000000000
63953460.00000000000000000000
-5444544.00000000000000000000
42760932.00000000000000000000
13817890.00000000000000000000
188396736.00000000000000000000
-25675634.00000000000000000000
47681896.00000000000000000000
44301348.00000000000000000000
-222382704.00000000000000000000
14008222.00000000000000000000
-10503200.00000000000000000000
77272784.00000000000000000000
-44408564.00000000000000000000
38463004.00000000000000000000
-41546588.00000000000000000000
2464328.50000000000000000000
265257024.00000000000000000000
-8235179.50000000000000000000
-25242982.00000000000000000000
-43754492.00000000000000000000
-39832076.00000000000000000000
128006288.00000000000000000000
31246098.00000000000000000000
-113382112.00000000000000000000
5613593.50000000000000000000
58994276.00000000000000000000
-93800272.00000000000000000000
-47434428.00000000000000000000
-7493513.00000000000000000000
38246712.00000000000000000000
-37032488.00000000000000000000
-10780960.00000000000000000000
22509016.00000000000000000000
-13649872.00000000000000000000
16857228.00000000000000000000
12800410.00000000000000000000
-14742136.00000000000000000000
-20974328.00000000000000000000
-6669432.00000000000000000000
5940405.00000000000000000000
-34280736.00000000000000000000
-54519224.00000000000000000000
-4044269.50000000000000000000
32161244.00000000000000000000
72314632.00000000000000000000
25703964.00000000000000000000
5141168.00000000000000000000
-25127198.00000000000000000000
29871578.00000000000000000000
13361494.00000000000000000000
-16051116.00000000000000000000
-57521600.00000000000000000000
31739452.00000000000000000000
-11265156.00000000000000000000
46659820.00000000000000000000
-3006968.00000000000000000000
36855432.00000000000000000000
-20104094.00000000000000000000
15962428.00000000000000000000
-50616496.00000000000000000000
31172526.00000000000000000000
10180962.00000000000000000000
-63711760.00000000000000000000
155567.01562500000000000000
-702704.56250000000000000000
-11308288.00000000000000000000
-30001812.00000000000000000000
39891720.00000000000000000000
20686208.00000000000000000000
54101828.00000000000000000000
-34916264.00000000000000000000
3623748.00000000000000000000
59115252.00000000000000000000
-26268650.00000000000000000000
-17302938.00000000000000000000
14516114.00000000000000000000
-18998864.00000000000000000000
22312336.00000000000000000000
14991566.00000000000000000000
-18540206.00000000000000000000
9031966.00000000000000000000
-75513352.00000000000000000000
-2990887.25000000000000000000
9133288.00000000000000000000
22900170.00000000000000000000
-47337160.00000000000000000000
5723103.00000000000000000000
30077240.00000000000000000000
-6475182.00000000000000000000
-14890626.00000000000000000000
-35147464.00000000000000000000
-8801868.00000000000000000000
-33904136.00000000000000000000
-8657663.00000000000000000000
55907492.00000000000000000000
16787236.00000000000000000000
22365962.00000000000000000000
-138936272.00000000000000000000
70282168.00000000000000000000
3028142.50000000000000000000
-14107871.00000000000000000000
-121929920.00000000000000000000
17382760.00000000000000000000
78613488.00000000000000000000
-10264377.00000000000000000000
4035244.00000000000000000000
-30087960.00000000000000000000
44341824.00000000000000000000
-53680216.00000000000000000000
-80468408.00000000000000000000
71813080.00000000000000000000
-738860.87500000000000000000
-6229129.00000000000000000000
30225648.00000000000000000000
7529860.00000000000000000000
2390545.50000000000000000000
-159300336.00000000000000000000
-34975152.00000000000000000000
23782232.00000000000000000000
57041992.00000000000000000000
116626784.00000000000000000000
881109.06250000000000000000
-90762232.00000000000000000000
-122664584.00000000000000000000
-66867768.00000000000000000000
36348752.00000000000000000000
-1527045.87500000000000000000
149659744.00000000000000000000
-301453568.00000000000000000000
-82971096.00000000000000000000
177443280.00000000000000000000
-16861856.00000000000000000000
42712544.00000000000000000000
-39601568.00000000000000000000
-19350748.00000000000000000000
-51566344.00000000000000000000
121381904.00000000000000000000
-158385104.00000000000000000000
75896032.00000000000000000000
49377352.00000000000000000000
-52248240.00000000000000000000
-102701624.00000000000000000000
-78828536.00000000000000000000
45034344.00000000000000000000
15062091.00000000000000000000
-28194708.00000000000000000000
-209990928.00000000000000000000
23126308.00000000000000000000
30786428.00000000000000000000
-38418140.00000000000000000000
2872753.25000000000000000000
-12707125.00000000000000000000
-31366584.00000000000000000000
61923024.00000000000000000000
20622204.00000000000000000000
-2139242.50000000000000000000
5083379.00000000000000000000
7299700.50000000000000000000
29877152.00000000000000000000
41607552.00000000000000000000
3406495.75000000000000000000
2769133.75000000000000000000
-1351686.00000000000000000000
-2601125.25000000000000000000
-968714.06250000000000000000
10612735.00000000000000000000
-14821537.00000000000000000000
-26662542.00000000000000000000
-2051485.25000000000000000000
4898881.50000000000000000000
-15628595.00000000000000000000
3171398.25000000000000000000
3061943.75000000000000000000
7839337.00000000000000000000
-3510545.25000000000000000000
24450940.00000000000000000000
1654280.50000000000000000000
10751319.00000000000000000000
-847468.75000000000000000000
-43148988.00000000000000000000
-689717.62500000000000000000
14118479.00000000000000000000
9808635.00000000000000000000
1771993.25000000000000000000
-26480002.00000000000000000000
7521206.50000000000000000000
22010984.00000000000000000000
-14985997.00000000000000000000
-13711137.00000000000000000000
-11829447.00000000000000000000
-25265630.00000000000000000000
-3102996.25000000000000000000
7117859.50000000000000000000
29844494.00000000000000000000
2880670.75000000000000000000
28562376.00000000000000000000
-367278.40625000000000000000
-6193706.50000000000000000000
9223965.00000000000000000000
-6745006.50000000000000000000
-5084935.50000000000000000000
-22089884.00000000000000000000
-286026.40625000000000000000
-13349083.00000000000000000000
62865456.00000000000000000000
-11775822.00000000000000000000
-3769747.25000000000000000000
-14298197.00000000000000000000
-179724.43750000000000000000
9212357.00000000000000000000
11722584.00000000000000000000
-990956.87500000000000000000
4677119.50000000000000000000
-16202902.00000000000000000000
-3383325.25000000000000000000
-3946751.75000000000000000000
10752521.00000000000000000000
7437773.50000000000000000000
9325765.00000000000000000000
25540882.00000000000000000000
8535276.00000000000000000000
13857619.00000000000000000000
17462478.00000000000000000000
-4655012.50000000000000000000
-8760771.00000000000000000000
-13835279.00000000000000000000
1245972.75000000000000000000
74510208.00000000000000000000
1223272.50000000000000000000
740770.50000000000000000000
-27636866.00000000000000000000
-22127214.00000000000000000000
-24878338.00000000000000000000
-17065474.00000000000000000000
-985809.37500000000000000000
-14245110.00000000000000000000
-18415176.00000000000000000000
2787709.25000000000000000000
-20049270.00000000000000000000
2316009.75000000000000000000
6750837.00000000000000000000
18980226.00000000000000000000
-803259.12500000000000000000
-3480316.50000000000000000000
14839260.00000000000000000000
-9392400.00000000000000000000
-9436246.00000000000000000000
-9388360.00000000000000000000
-23712330.00000000000000000000
-6352505.50000000000000000000
3722400.25000000000000000000
-36924420.00000000000000000000
-16162728.00000000000000000000
4140200.75000000000000000000
6851555.00000000000000000000
-1976485.00000000000000000000
35355820.00000000000000000000
-8367506.50000000000000000000
1606783.00000000000000000000
15843696.00000000000000000000
1859221.00000000000000000000
2480380.75000000000000000000
-8556894.00000000000000000000
-37511056.00000000000000000000
-15361432.00000000000000000000
-645046.00000000000000000000
-19244110.00000000000000000000
2692374.00000000000000000000
-19356214.00000000000000000000
-4803407.50000000000000000000
28758654.00000000000000000000
52916396.00000000000000000000
21311598.00000000000000000000
-17365222.00000000000000000000
-9493770.00000000000000000000
4691066.50000000000000000000
7063537.50000000000000000000
-15391392.00000000000000000000
-3004905.75000000000000000000
-6133538.50000000000000000000
-6523883.50000000000000000000
-17078902.00000000000000000000
-9945944.00000000000000000000
-22068714.00000000000000000000
20559774.00000000000000000000
2754536.75000000000000000000
1368589.00000000000000000000
25536822.00000000000000000000
16810144.00000000000000000000
-5254027.00000000000000000000
-1977511.25000000000000000000
-794561.62500000000000000000
4483301.50000000000000000000
-5357534.00000000000000000000
97713.27343750000000000000
-31854720.00000000000000000000
-20983870.00000000000000000000
-8429271.00000000000000000000
-10316226.00000000000000000000
-26442796.00000000000000000000
-19730722.00000000000000000000
-20622348.00000000000000000000
11665062.00000000000000000000
8770292.00000000000000000000
-53619576.00000000000000000000
7400357.50000000000000000000
8907313.00000000000000000000
-34910920.00000000000000000000
8574984.00000000000000000000
-22307666.00000000000000000000
-11577457.00000000000000000000
-18133618.00000000000000000000
-5298213.50000000000000000000
-45338280.00000000000000000000
-6372283.00000000000000000000
-17157528.00000000000000000000
-17355680.00000000000000000000
-40686740.00000000000000000000
8350826.50000000000000000000
13912171.00000000000000000000
-11940699.00000000000000000000
-15923971.00000000000000000000
3667661.00000000000000000000
-17795322.00000000000000000000
-10158926.00000000000000000000
-203793.06250000000000000000
8513557.00000000000000000000
-7852256.50000000000000000000
-7377882.50000000000000000000
5033982.50000000000000000000
13864699.00000000000000000000
-10751563.00000000000000000000
1709697.87500000000000000000
44561572.00000000000000000000
-13035278.00000000000000000000
8285179.50000000000000000000
-28256506.00000000000000000000
-21831612.00000000000000000000
-2019337.62500000000000000000
-35254900.00000000000000000000
32404876.00000000000000000000
-24666052.00000000000000000000
27079556.00000000000000000000
3227219.00000000000000000000
13260026.00000000000000000000
47983548.00000000000000000000
19883666.00000000000000000000
-6545015.00000000000000000000
7889453.50000000000000000000
34064000.00000000000000000000
65708380.00000000000000000000
18372600.00000000000000000000
34164304.00000000000000000000
1234740.37500000000000000000
55415808.00000000000000000000
-10946791.00000000000000000000
-2679249.50000000000000000000
27736132.00000000000000000000
22850232.00000000000000000000
3053281.50000000000000000000
1411976.37500000000000000000
17309592.00000000000000000000
-32252120.00000000000000000000
71775888.00000000000000000000
-25274356.00000000000000000000
-51964044.00000000000000000000
62599968.00000000000000000000
-841460.25000000000000000000
-79439312.00000000000000000000
-20847132.00000000000000000000
49724732.00000000000000000000
-29347020.00000000000000000000
28930916.00000000000000000000
19385584.00000000000000000000
52945608.00000000000000000000
5275442.50000000000000000000
15681462.00000000000000000000
210935.15625000000000000000
41220600.00000000000000000000
-70016064.00000000000000000000
2095753.75000000000000000000
32302492.00000000000000000000
16874576.00000000000000000000
-41510516.00000000000000000000
-65317992.00000000000000000000
-55444168.00000000000000000000
1024141.25000000000000000000
-42087880.00000000000000000000
-36697056.00000000000000000000
-50697400.00000000000000000000
-2112256.75000000000000000000
21694840.00000000000000000000
-19156332.00000000000000000000
-1951932.62500000000000000000
61411156.00000000000000000000
-65126104.00000000000000000000
12298351.00000000000000000000
-30083128.00000000000000000000
17549588.00000000000000000000
-69642400.00000000000000000000
14933173.00000000000000000000
-47903608.00000000000000000000
-54977340.00000000000000000000
21468072.00000000000000000000
51921140.00000000000000000000
-49767412.00000000000000000000
37091224.00000000000000000000
16184210.00000000000000000000
-7403994.50000000000000000000
-24618452.00000000000000000000
-40013156.00000000000000000000
1957665.62500000000000000000
-18618980.00000000000000000000
-64316976.00000000000000000000
56376040.00000000000000000000
-4045249.50000000000000000000
55294288.00000000000000000000
-1079281.62500000000000000000
20599664.00000000000000000000
30040492.00000000000000000000
-19045376.00000000000000000000
-75066328.00000000000000000000
-112759440.00000000000000000000
-15526204.00000000000000000000
23228426.00000000000000000000
-14138138.00000000000000000000
-10794256.00000000000000000000
51581424.00000000000000000000
87557968.00000000000000000000
41208280.00000000000000000000
6420840.50000000000000000000
-32976374.00000000000000000000
6838659.50000000000000000000
262841440.00000000000000000000
119426992.00000000000000000000
30513950.00000000000000000000
-7979055.50000000000000000000
-152562656.00000000000000000000
-32989742.00000000000000000000
-64506704.00000000000000000000
8215106.00000000000000000000
103048896.00000000000000000000
-67148064.00000000000000000000
-117111808.00000000000000000000
-82711936.00000000000000000000
25749742.00000000000000000000
73215072.00000000000000000000
-45193736.00000000000000000000
38271624.00000000000000000000
-2290970.00000000000000000000
-21636550.00000000000000000000
18454518.00000000000000000000
-233381520.00000000000000000000
224549632.00000000000000000000
14880972.00000000000000000000
117350048.00000000000000000000
26797974.00000000000000000000
42507412.00000000000000000000
4554347.50000000000000000000
86850192.00000000000000000000
16446587.00000000000000000000
-102746064.00000000000000000000
47776924.00000000000000000000
189166848.00000000000000000000
150322816.00000000000000000000
-10546270.00000000000000000000
-16152837.00000000000000000000
60089824.00000000000000000000
-45926336.00000000000000000000
-9821666.00000000000000000000
-94900800.00000000000000000000
-126757216.00000000000000000000
121415872.00000000000000000000
-1963624.25000000000000000000
217037216.00000000000000000000
67968944.00000000000000000000
-1077880.25000000000000000000
17780834.00000000000000000000
26487178.00000000000000000000
-16898786.00000000000000000000
13913380.00000000000000000000
-59576360.00000000000000000000
-15034096.00000000000000000000
-46506736.00000000000000000000
-41790276.00000000000000000000
-34866476.00000000000000000000
-1808127.25000000000000000000
78022544.00000000000000000000
-30885904.00000000000000000000
24892948.00000000000000000000
-30539674.00000000000000000000
-91707312.00000000000000000000
5596886.50000000000000000000
852793.37500000000000000000
-11003664.00000000000000000000
-13225544.00000000000000000000
10749426.00000000000000000000
-655514.43750000000000000000
13388916.00000000000000000000
107029472.00000000000000000000
38998820.00000000000000000000
-24668732.00000000000000000000
50024512.00000000000000000000
-31890288.00000000000000000000
22390952.00000000000000000000
1457328.75000000000000000000
21167272.00000000000000000000
17527910.00000000000000000000
39444912.00000000000000000000
-58946956.00000000000000000000
26007302.00000000000000000000
-36311368.00000000000000000000
-31980424.00000000000000000000
-22013392.00000000000000000000
11292270.00000000000000000000
44645832.00000000000000000000
-4348203.50000000000000000000
27767404.00000000000000000000
58432432.00000000000000000000
4221531.00000000000000000000
-20200154.00000000000000000000
39070576.00000000000000000000
56878792.00000000000000000000
5728641.50000000000000000000
14738822.00000000000000000000
3379017.75000000000000000000
21751402.00000000000000000000
63521520.00000000000000000000
-48516972.00000000000000000000
64723464.00000000000000000000
12313698.00000000000000000000
39095104.00000000000000000000
43748660.00000000000000000000
28605394.00000000000000000000
-18653432.00000000000000000000
-30955070.00000000000000000000
96664872.00000000000000000000
-4003121.75000000000000000000
-17867506.00000000000000000000
7131383.50000000000000000000
-21954088.00000000000000000000
-20750046.00000000000000000000
-30748916.00000000000000000000
8515914.00000000000000000000
25618270.00000000000000000000
-14894090.00000000000000000000
33626356.00000000000000000000
-20370944.00000000000000000000
-17332276.00000000000000000000
-93113008.00000000000000000000
51887432.00000000000000000000
53402496.00000000000000000000
49306296.00000000000000000000
-16404497.00000000000000000000
15290825.00000000000000000000
-31268668.00000000000000000000
-1469502.25000000000000000000
-25058240.00000000000000000000
14378316.00000000000000000000
-3483251.50000000000000000000
-19544576.00000000000000000000
-477614.12500000000000000000
-24915754.00000000000000000000
-33984544.00000000000000000000
-22295246.00000000000000000000
-16727544.00000000000000000000
-32049792.00000000000000000000
11119743.00000000000000000000
19898206.00000000000000000000
3373876.00000000000000000000
-12558871.00000000000000000000
-697931.12500000000000000000
-664792.50000000000000000000
-2341063.00000000000000000000
-47697080.00000000000000000000
-12963092.00000000000000000000
12506725.00000000000000000000
4386528.50000000000000000000
-7075320.00000000000000000000
-10619439.00000000000000000000
-9819606.00000000000000000000
-21588460.00000000000000000000
8399609.00000000000000000000
-32411180.00000000000000000000
24840574.00000000000000000000
1715150.25000000000000000000
21465812.00000000000000000000
-4153287.25000000000000000000
2080457.87500000000000000000
4643295.00000000000000000000
-5139267.00000000000000000000
55472232.00000000000000000000
-30414686.00000000000000000000
-23987128.00000000000000000000
-20357348.00000000000000000000
6996997.00000000000000000000
-36622460.00000000000000000000
21770830.00000000000000000000
18119636.00000000000000000000
21135680.00000000000000000000
-14510153.00000000000000000000
-22714232.00000000000000000000
-33715448.00000000000000000000
6694785.00000000000000000000
18513288.00000000000000000000
13492760.00000000000000000000
-16498063.00000000000000000000
10463841.00000000000000000000
11730932.00000000000000000000
3079714.75000000000000000000
6069634.00000000000000000000
-42268764.00000000000000000000
9342606.00000000000000000000
-2334952.50000000000000000000
6809929.00000000000000000000
-9499068.00000000000000000000
13822450.00000000000000000000
-110424824.00000000000000000000
-43729668.00000000000000000000
-19106912.00000000000000000000
43864204.00000000000000000000
74985320.00000000000000000000
-8167676.50000000000000000000
-8830872.00000000000000000000
-8549157.00000000000000000000
9462422.00000000000000000000
3873750.50000000000000000000
28409630.00000000000000000000
119958168.00000000000000000000
31554428.00000000000000000000
155386880.00000000000000000000
-38615796.00000000000000000000
171674656.00000000000000000000
-3319098.50000000000000000000
-3115259.00000000000000000000
20669044.00000000000000000000
16908814.00000000000000000000
15572782.00000000000000000000
78521264.00000000000000000000
17202542.00000000000000000000
79439496.00000000000000000000
9280662.00000000000000000000
11509607.00000000000000000000
-20794730.00000000000000000000
-35582332.00000000000000000000
-14294572.00000000000000000000
-57328876.00000000000000000000
150067296.00000000000000000000
-85702168.00000000000000000000
-217782736.00000000000000000000
248921824.00000000000000000000
39286876.00000000000000000000
54931972.00000000000000000000
19076400.00000000000000000000
-58891140.00000000000000000000
-4838562.50000000000000000000
137171120.00000000000000000000
-20130680.00000000000000000000
1391311.62500000000000000000
36067308.00000000000000000000
-24115616.00000000000000000000
29598984.00000000000000000000
-28886708.00000000000000000000
15865126.00000000000000000000
9343749.00000000000000000000
93309384.00000000000000000000
35490252.00000000000000000000
-248600160.00000000000000000000
2946774.00000000000000000000
-99622232.00000000000000000000
176861536.00000000000000000000
-15895542.00000000000000000000
-16577366.00000000000000000000
138212224.00000000000000000000
37640772.00000000000000000000
-6441918.50000000000000000000
3995722.00000000000000000000
3170420.00000000000000000000
7541009.50000000000000000000
1906176.12500000000000000000
-25117680.00000000000000000000
22742068.00000000000000000000
29854064.00000000000000000000
13180652.00000000000000000000
17589524.00000000000000000000
-16006966.00000000000000000000
1028195.25000000000000000000
-6489954.50000000000000000000
-8965026.00000000000000000000
-5539753.00000000000000000000
3310934.50000000000000000000
-7576746.00000000000000000000
-4087854.75000000000000000000
-6063100.50000000000000000000
-1642983.25000000000000000000
-14312974.00000000000000000000
-12012746.00000000000000000000
-19876870.00000000000000000000
6872730.00000000000000000000
1224327.50000000000000000000
1945005.25000000000000000000
-1495370.75000000000000000000
-11978212.00000000000000000000
-20436028.00000000000000000000
-11039028.00000000000000000000
-11285950.00000000000000000000
-7816995.50000000000000000000
-10327954.00000000000000000000
-19157862.00000000000000000000
667375.12500000000000000000
-4325152.00000000000000000000
-2049821.62500000000000000000
30220672.00000000000000000000
-35397748.00000000000000000000
10399262.00000000000000000000
-15011612.00000000000000000000
18908018.00000000000000000000
-7259276.00000000000000000000
-8255709.00000000000000000000
-1892013.25000000000000000000
-25509486.00000000000000000000
-14170522.00000000000000000000
5149702.00000000000000000000
11420546.00000000000000000000
13343122.00000000000000000000
6354157.00000000000000000000
18412594.00000000000000000000
25830412.00000000000000000000
13127316.00000000000000000000
-18870874.00000000000000000000
7099942.50000000000000000000
-8373765.50000000000000000000
-19001098.00000000000000000000
-3329057.25000000000000000000
3215769.25000000000000000000
12166440.00000000000000000000
12375002.00000000000000000000
6765009.50000000000000000000
7385812.50000000000000000000
-1248593.25000000000000000000
-20473794.00000000000000000000
-6841300.00000000000000000000
18410936.00000000000000000000
-20164986.00000000000000000000
9503594.00000000000000000000
-6631763.50000000000000000000
-3235409.25000000000000000000
-126159448.00000000000000000000
43169592.00000000000000000000
2344768.50000000000000000000
-51472888.00000000000000000000
14965015.00000000000000000000
5170622.00000000000000000000
98035136.00000000000000000000
6954854.50000000000000000000
-21205058.00000000000000000000
-94638280.00000000000000000000
-2591330.25000000000000000000
-91239232.00000000000000000000
85685272.00000000000000000000
-71055528.00000000000000000000
-16536263.00000000000000000000
7948191.50000000000000000000
-572394.56250000000000000000
-39181432.00000000000000000000
8178675.00000000000000000000
-276107232.00000000000000000000
25827636.00000000000000000000
32904978.00000000000000000000
-23248298.00000000000000000000
-14357648.00000000000000000000
35169352.00000000000000000000
-29625038.00000000000000000000
106888544.00000000000000000000
38687156.00000000000000000000
-318203776.00000000000000000000
-28557744.00000000000000000000
48986972.00000000000000000000
-51299796.00000000000000000000
31977102.00000000000000000000
-63758536.00000000000000000000
-29874662.00000000000000000000
39274296.00000000000000000000
-20829146.00000000000000000000
100513616.00000000000000000000
-33453144.00000000000000000000
-31801338.00000000000000000000
3379462.00000000000000000000
152698880.00000000000000000000
128232088.00000000000000000000
-41929464.00000000000000000000
36667040.00000000000000000000
-3721108.75000000000000000000
18311966.00000000000000000000
68729376.00000000000000000000
-44596288.00000000000000000000
-75035072.00000000000000000000
85911864.00000000000000000000
12314633.00000000000000000000
67741992.00000000000000000000
44302672.00000000000000000000
-16802730.00000000000000000000
21497110.00000000000000000000
72979400.00000000000000000000
-35101440.00000000000000000000
-2560735.00000000000000000000
-136838112.00000000000000000000
-8884725.00000000000000000000
25648926.00000000000000000000
29144758.00000000000000000000
42136760.00000000000000000000
9690387.00000000000000000000
94352448.00000000000000000000
3322884.25000000000000000000
7245249.00000000000000000000
-12589112.00000000000000000000
9908767.00000000000000000000
-29376190.00000000000000000000
22859758.00000000000000000000
-9329251.00000000000000000000
-14838821.00000000000000000000
-3258803.25000000000000000000
-5794087.00000000000000000000
-45593220.00000000000000000000
49693972.00000000000000000000
-38722772.00000000000000000000
-8642268.00000000000000000000
-27087038.00000000000000000000
-35065036.00000000000000000000
-7944123.00000000000000000000
29044966.00000000000000000000
43069028.00000000000000000000
-53079572.00000000000000000000
-1082943.75000000000000000000
-25109162.00000000000000000000
-82021680.00000000000000000000
10418538.00000000000000000000
1931356.75000000000000000000
-26003310.00000000000000000000
-27520254.00000000000000000000
15648188.00000000000000000000
-29794490.00000000000000000000
8069041.50000000000000000000
-29665510.00000000000000000000
3076715.25000000000000000000
-93164672.00000000000000000000
18609618.00000000000000000000
-13755891.00000000000000000000
6955290.50000000000000000000
-13201722.00000000000000000000
15651304.00000000000000000000
54858276.00000000000000000000
-23225230.00000000000000000000
-74271648.00000000000000000000
17084068.00000000000000000000
8804876.00000000000000000000
21162598.00000000000000000000
-25254630.00000000000000000000
10864244.00000000000000000000
19163686.00000000000000000000
-4981498.00000000000000000000
-66760380.00000000000000000000
-33112510.00000000000000000000
33122478.00000000000000000000
7529916.50000000000000000000
46617116.00000000000000000000
-1918281.50000000000000000000
21943942.00000000000000000000
29138434.00000000000000000000
43807748.00000000000000000000
-19102270.00000000000000000000
-53218732.00000000000000000000
-11612485.00000000000000000000
-30018494.00000000000000000000
-36315660.00000000000000000000
1754547.00000000000000000000
14028878.00000000000000000000
-39705600.00000000000000000000
5162906.50000000000000000000
59390888.00000000000000000000
29962542.00000000000000000000
60509472.00000000000000000000
49869364.00000000000000000000
-71026760.00000000000000000000
-66310892.00000000000000000000
83843.39062500000000000000
-6407775.50000000000000000000
79558952.00000000000000000000
30776942.00000000000000000000
173459072.00000000000000000000
-41911104.00000000000000000000
46120008.00000000000000000000
145163408.00000000000000000000
27493682.00000000000000000000
-33893584.00000000000000000000
-56027136.00000000000000000000
141903312.00000000000000000000
22034706.00000000000000000000
22911298.00000000000000000000
3194315.25000000000000000000
-11220278.00000000000000000000
-19650846.00000000000000000000
12407120.00000000000000000000
72807800.00000000000000000000
-5683604.50000000000000000000
-27766646.00000000000000000000
105853112.00000000000000000000
-94087624.00000000000000000000
153250928.00000000000000000000
150206000.00000000000000000000
13115794.00000000000000000000
16523370.00000000000000000000
10369532.00000000000000000000
47880044.00000000000000000000
4861094.50000000000000000000
61510592.00000000000000000000
25553714.00000000000000000000
31346366.00000000000000000000
184790832.00000000000000000000
49816992.00000000000000000000
8259880.00000000000000000000
-37156876.00000000000000000000
-20604666.00000000000000000000
94343064.00000000000000000000
151653424.00000000000000000000
61446176.00000000000000000000
30560786.00000000000000000000
-60432016.00000000000000000000
-12718625.00000000000000000000
-93073032.00000000000000000000
-46715464.00000000000000000000
46756116.00000000000000000000
10808295.00000000000000000000
-142120496.00000000000000000000
62382636.00000000000000000000
-1152578.25000000000000000000
-139176672.00000000000000000000
-2761520.50000000000000000000
93979168.00000000000000000000
73335976.00000000000000000000
-70900952.00000000000000000000
7642529.00000000000000000000
74903576.00000000000000000000
-37960732.00000000000000000000
-17150006.00000000000000000000
-11604672.00000000000000000000
253325.96875000000000000000
-34007236.00000000000000000000
56608872.00000000000000000000
4262151.50000000000000000000
12189090.00000000000000000000
-1864261.25000000000000000000
-18639800.00000000000000000000
-22275544.00000000000000000000
23125640.00000000000000000000
-8356464.50000000000000000000
-28305840.00000000000000000000
14718444.00000000000000000000
25828004.00000000000000000000
-10727040.00000000000000000000
22728510.00000000000000000000
38862236.00000000000000000000
-34466728.00000000000000000000
53827172.00000000000000000000
-25434858.00000000000000000000
40434560.00000000000000000000
-11921857.00000000000000000000
-14377489.00000000000000000000
-21682928.00000000000000000000
1130509.12500000000000000000
5954017.00000000000000000000
-6653835.50000000000000000000
59067840.00000000000000000000
-38958644.00000000000000000000
13984978.00000000000000000000
13283527.00000000000000000000
-5278931.50000000000000000000
-11515545.00000000000000000000
19248610.00000000000000000000
34159888.00000000000000000000
-1855338.62500000000000000000
-21353616.00000000000000000000
22328652.00000000000000000000
16708228.00000000000000000000
27050950.00000000000000000000
3031960.50000000000000000000
-6830918.00000000000000000000
3463475.00000000000000000000
-16912490.00000000000000000000
-18411564.00000000000000000000
-26253116.00000000000000000000
9505743.00000000000000000000
-2982935.00000000000000000000
-10590013.00000000000000000000
-26854158.00000000000000000000
-968066.18750000000000000000
8247597.50000000000000000000
-8036055.50000000000000000000
-23077736.00000000000000000000
-8087706.00000000000000000000
16450256.00000000000000000000
10878048.00000000000000000000
-1181622.87500000000000000000
-14065978.00000000000000000000
-32551684.00000000000000000000
14012321.00000000000000000000
3049981.00000000000000000000
21523612.00000000000000000000
-4607635.00000000000000000000
15657542.00000000000000000000
-21319932.00000000000000000000
-11390812.00000000000000000000
13129808.00000000000000000000
18507726.00000000000000000000
32436260.00000000000000000000
13807682.00000000000000000000
46384392.00000000000000000000
-23577272.00000000000000000000
-2139452.00000000000000000000
-4279206.00000000000000000000
-40127184.00000000000000000000
-12498466.00000000000000000000
-28212668.00000000000000000000
14984170.00000000000000000000
-1214755.12500000000000000000
6286196.00000000000000000000
791238.25000000000000000000
-28184524.00000000000000000000
12307560.00000000000000000000
-33028808.00000000000000000000
-14231832.00000000000000000000
-22042468.00000000000000000000
-4626861.00000000000000000000
25550380.00000000000000000000
15372442.00000000000000000000
11131806.00000000000000000000
-6203057.00000000000000000000
-7825859.00000000000000000000
-35706664.00000000000000000000
-5855474.50000000000000000000
-9597794.00000000000000000000
25678512.00000000000000000000
-39096344.00000000000000000000
17929252.00000000000000000000
-24682124.00000000000000000000
15218727.00000000000000000000
26644538.00000000000000000000
-37864568.00000000000000000000
-13243412.00000000000000000000
-10834316.00000000000000000000
-3207580.75000000000000000000
-12654802.00000000000000000000
-2911600.75000000000000000000
25140732.00000000000000000000
-5664183.00000000000000000000
-47918720.00000000000000000000
26114544.00000000000000000000
-50077416.00000000000000000000
6185248.00000000000000000000
34100640.00000000000000000000
25901128.00000000000000000000
-4881888.00000000000000000000
-6882278.00000000000000000000
12577762.00000000000000000000
-49100684.00000000000000000000
-5193648.00000000000000000000
-6660461.00000000000000000000
458608.25000000000000000000
-21978382.00000000000000000000
61450456.00000000000000000000
-17592142.00000000000000000000
6759803.50000000000000000000
-7285427.00000000000000000000
59236972.00000000000000000000
48310948.00000000000000000000
15539187.00000000000000000000
8915263.00000000000000000000
4368267.00000000000000000000
-1435970.87500000000000000000
-16787206.00000000000000000000
-56442936.00000000000000000000
7777827.00000000000000000000
-33056676.00000000000000000000
-61223604.00000000000000000000
3346758.00000000000000000000
-51637392.00000000000000000000
11710169.00000000000000000000
-3463309.25000000000000000000
-929461.50000000000000000000
-15803551.00000000000000000000
-6923573.00000000000000000000
14145351.00000000000000000000
-3658143.75000000000000000000
49379964.00000000000000000000
5765275.00000000000000000000
-303175.21875000000000000000
-50347252.00000000000000000000
43856512.00000000000000000000
61693040.00000000000000000000
34800032.00000000000000000000
-41727084.00000000000000000000
1187790.87500000000000000000
34677260.00000000000000000000
12174575.00000000000000000000
-12436433.00000000000000000000
-2860112.25000000000000000000
20363222.00000000000000000000
2508093.25000000000000000000
-43900924.00000000000000000000
18479826.00000000000000000000
25159950.00000000000000000000
-19928230.00000000000000000000
107532.64062500000000000000
801925.00000000000000000000
3073746.25000000000000000000
-31314830.00000000000000000000
16004761.00000000000000000000
-31580862.00000000000000000000
29395622.00000000000000000000
-5038852.00000000000000000000
-43246660.00000000000000000000
-9709577.00000000000000000000
-14363703.00000000000000000000
11070561.00000000000000000000
40976932.00000000000000000000
906315.25000000000000000000
-29574794.00000000000000000000
-10996537.00000000000000000000
7980672.00000000000000000000
-3922086.50000000000000000000
-34374180.00000000000000000000
16802686.00000000000000000000
4721097.00000000000000000000
-22068222.00000000000000000000
-30616650.00000000000000000000
28283962.00000000000000000000
24120450.00000000000000000000
-23935872.00000000000000000000
-24726956.00000000000000000000
32807212.00000000000000000000
2468522.50000000000000000000
9952811.00000000000000000000
440313.75000000000000000000
29621220.00000000000000000000
-67615296.00000000000000000000
-6461583.00000000000000000000
15001571.00000000000000000000
39376396.00000000000000000000
-94473832.00000000000000000000
-22138068.00000000000000000000
-43670292.00000000000000000000
28846804.00000000000000000000
-16932228.00000000000000000000
-2098065.75000000000000000000
40289092.00000000000000000000
-21673356.00000000000000000000
-22507908.00000000000000000000
10943496.00000000000000000000
10185231.00000000000000000000
8830624.00000000000000000000
70466440.00000000000000000000
30727832.00000000000000000000
-24623128.00000000000000000000
14147883.00000000000000000000
-19759232.00000000000000000000
8649896.00000000000000000000
-51155868.00000000000000000000
31782548.00000000000000000000
-51635724.00000000000000000000
10057351.00000000000000000000
12560484.00000000000000000000
-9907920.00000000000000000000
15950468.00000000000000000000
25340744.00000000000000000000
-25373928.00000000000000000000
19661996.00000000000000000000
38068620.00000000000000000000
-2851614.25000000000000000000
42920372.00000000000000000000
-16305687.00000000000000000000
-28194736.00000000000000000000
14757589.00000000000000000000
43902868.00000000000000000000
42106276.00000000000000000000
-22656060.00000000000000000000
-15601887.00000000000000000000
-50372380.00000000000000000000
61743596.00000000000000000000
-31438900.00000000000000000000
7825824.00000000000000000000
-11372364.00000000000000000000
-12504445.00000000000000000000
-11275928.00000000000000000000
26420428.00000000000000000000
-1158093.37500000000000000000
16230287.00000000000000000000
34894308.00000000000000000000
-16329054.00000000000000000000
-4538096.50000000000000000000
-24691364.00000000000000000000
-17253894.00000000000000000000
29489480.00000000000000000000
-28868718.00000000000000000000
4595916.50000000000000000000
10277876.00000000000000000000
-25157320.00000000000000000000
36506228.00000000000000000000
-84788200.00000000000000000000
99573160.00000000000000000000
-23615144.00000000000000000000
-5264907.50000000000000000000
-1939197.62500000000000000000
8152645.50000000000000000000
36035224.00000000000000000000
-4725278.50000000000000000000
-113025944.00000000000000000000
55151.83593750000000000000
130480128.00000000000000000000
21951386.00000000000000000000
-2260335.50000000000000000000
-12646543.00000000000000000000
-13572192.00000000000000000000
-53568708.00000000000000000000
-204661648.00000000000000000000
-18898710.00000000000000000000
114675832.00000000000000000000
-46883148.00000000000000000000
-59961544.00000000000000000000
-61589004.00000000000000000000
-51687032.00000000000000000000
83314112.00000000000000000000
11135630.00000000000000000000
109972920.00000000000000000000
-173972624.00000000000000000000
-190939280.00000000000000000000
89431944.00000000000000000000
14935439.00000000000000000000
271070176.00000000000000000000
60332660.00000000000000000000
-87014640.00000000000000000000
-36880476.00000000000000000000
23405260.00000000000000000000
-48533080.00000000000000000000
-48841812.00000000000000000000
200514032.00000000000000000000
956202.00000000000000000000
52483596.00000000000000000000
-38297572.00000000000000000000
89260248.00000000000000000000
1936201.00000000000000000000
-16963032.00000000000000000000
185215424.00000000000000000000
-61858788.00000000000000000000
-10177369.00000000000000000000
2093034.87500000000000000000
125480432.00000000000000000000
-19593902.00000000000000000000
-54034412.00000000000000000000
187859328.00000000000000000000
49044044.00000000000000000000
-23431736.00000000000000000000
42080884.00000000000000000000
101766120.00000000000000000000
33861884.00000000000000000000
23542758.00000000000000000000
-2751177.00000000000000000000
7152778.00000000000000000000
29069546.00000000000000000000
42689536.00000000000000000000
-17009838.00000000000000000000
-2923259.25000000000000000000
-68562016.00000000000000000000
-16137805.00000000000000000000
-24173566.00000000000000000000
-24526544.00000000000000000000
-4796379.50000000000000000000
18492778.00000000000000000000
-21576402.00000000000000000000
8619557.00000000000000000000
27525496.00000000000000000000
53455080.00000000000000000000
-50902392.00000000000000000000
-46109000.00000000000000000000
-43737528.00000000000000000000
45055652.00000000000000000000
21352604.00000000000000000000
-8926319.00000000000000000000
-44217160.00000000000000000000
-13537277.00000000000000000000
-4272371.50000000000000000000
24943388.00000000000000000000
-9678523.00000000000000000000
-2908554.50000000000000000000
-32439546.00000000000000000000
-17602680.00000000000000000000
18425980.00000000000000000000
41605656.00000000000000000000
7400267.50000000000000000000
-8796827.00000000000000000000
-21551206.00000000000000000000
7248245.50000000000000000000
-38424816.00000000000000000000
-382318.31250000000000000000
-16002059.00000000000000000000
-12770837.00000000000000000000
-76479312.00000000000000000000
6934889.50000000000000000000
6648951.50000000000000000000
-10978799.00000000000000000000
-5679209.50000000000000000000
-3987882.00000000000000000000
-51923384.00000000000000000000
-39066308.00000000000000000000
32025612.00000000000000000000
-4503957.50000000000000000000
-11455749.00000000000000000000
-13977717.00000000000000000000
21393882.00000000000000000000
-19224728.00000000000000000000
15049053.00000000000000000000
2017914.12500000000000000000
-16615483.00000000000000000000
42656936.00000000000000000000
-24517480.00000000000000000000
286295.00000000000000000000
-8236651.50000000000000000000
-45508952.00000000000000000000
22841622.00000000000000000000
-6511543.50000000000000000000
12411177.00000000000000000000
31790576.00000000000000000000
-1267127.12500000000000000000
67477880.00000000000000000000
-18198618.00000000000000000000
32853580.00000000000000000000
-31267112.00000000000000000000
-9638471.00000000000000000000
-10087439.00000000000000000000
9999976.00000000000000000000
-10072796.00000000000000000000
11980974.00000000000000000000
-47883876.00000000000000000000
-11485189.00000000000000000000
-38730032.00000000000000000000
-6261729.00000000000000000000
-11391934.00000000000000000000
46811020.00000000000000000000
-24561266.00000000000000000000
-16699919.00000000000000000000
-8586244.00000000000000000000
-13322534.00000000000000000000
4901675.00000000000000000000
507522.18750000000000000000
-15399621.00000000000000000000
-22493844.00000000000000000000
-31711500.00000000000000000000
-14213623.00000000000000000000
-7738764.00000000000000000000
-38221852.00000000000000000000
-13931636.00000000000000000000
-20620332.00000000000000000000
12263643.00000000000000000000
26736324.00000000000000000000
-23602460.00000000000000000000
-2547267.00000000000000000000
-52379916.00000000000000000000
8295105.00000000000000000000
-18745754.00000000000000000000
-1287007.00000000000000000000
-25276328.00000000000000000000
-9876081.00000000000000000000
-526702.25000000000000000000
-45416052.00000000000000000000
-1599578.75000000000000000000
11502312.00000000000000000000
-1784483.37500000000000000000
19898378.00000000000000000000
-8909401.00000000000000000000
7680571.00000000000000000000
-2395919.75000000000000000000
-6280765.00000000000000000000
-9346968.00000000000000000000
-30070326.00000000000000000000
902613.31250000000000000000
2551138.25000000000000000000
10419896.00000000000000000000
10579865.00000000000000000000
-9103642.00000000000000000000
-1482918.62500000000000000000
10575994.00000000000000000000
-2770613.50000000000000000000
-42906956.00000000000000000000
-8366282.00000000000000000000
4476162.00000000000000000000
-39757836.00000000000000000000
27991466.00000000000000000000
35170972.00000000000000000000
39634636.00000000000000000000
21593310.00000000000000000000
5190797.50000000000000000000
-32664466.00000000000000000000
-28670946.00000000000000000000
3224052.75000000000000000000
-4244604.00000000000000000000
15288629.00000000000000000000
18238168.00000000000000000000
59404668.00000000000000000000
-8192373.50000000000000000000
-1211193.12500000000000000000
58028144.00000000000000000000
-43994524.00000000000000000000
-24498710.00000000000000000000
-12503864.00000000000000000000
-15267321.00000000000000000000
21572732.00000000000000000000
-13889103.00000000000000000000
-13176821.00000000000000000000
-2003478.87500000000000000000
-22959602.00000000000000000000
-2291326.25000000000000000000
-18724738.00000000000000000000
13905704.00000000000000000000
-10545072.00000000000000000000
1191225.37500000000000000000
-40947932.00000000000000000000
25252822.00000000000000000000
48745640.00000000000000000000
-32692902.00000000000000000000
-14677086.00000000000000000000
9017808.00000000000000000000
-37729780.00000000000000000000
35151272.00000000000000000000
-12272788.00000000000000000000
2542462.25000000000000000000
2264227.25000000000000000000
2643958.25000000000000000000
33461706.00000000000000000000
-7550439.50000000000000000000
35237948.00000000000000000000
-7747742.50000000000000000000
-7884608.50000000000000000000
-7317333.50000000000000000000
-6511830.50000000000000000000
13256075.00000000000000000000
-8885642.00000000000000000000
-21337406.00000000000000000000
-22667756.00000000000000000000
-32663018.00000000000000000000
-635485.93750000000000000000
13596615.00000000000000000000
25820466.00000000000000000000
11336345.00000000000000000000
-18136582.00000000000000000000
24304868.00000000000000000000
-98793384.00000000000000000000
2462640.75000000000000000000
-10117953.00000000000000000000
13252775.00000000000000000000
52753908.00000000000000000000
92725080.00000000000000000000
30473922.00000000000000000000
-37647684.00000000000000000000
48347392.00000000000000000000
-8941204.00000000000000000000
-6236379.50000000000000000000
-16606359.00000000000000000000
-14979506.00000000000000000000
-27426456.00000000000000000000
34386520.00000000000000000000
-26438594.00000000000000000000
29982946.00000000000000000000
-29300586.00000000000000000000
22495004.00000000000000000000
-25702112.00000000000000000000
-8757212.00000000000000000000
25924650.00000000000000000000
-588573.06250000000000000000
39308184.00000000000000000000
9417781.00000000000000000000
18653706.00000000000000000000
24508084.00000000000000000000
-15764994.00000000000000000000
-26168316.00000000000000000000
-3320037.00000000000000000000
-31365400.00000000000000000000
2792441.50000000000000000000
-31148604.00000000000000000000
-6525518.50000000000000000000
-6917750.50000000000000000000
-17902908.00000000000000000000
-6502754.50000000000000000000
-17650636.00000000000000000000
1506415.62500000000000000000
-17098956.00000000000000000000
14957646.00000000000000000000
-32439626.00000000000000000000
-8520907.00000000000000000000
7049198.50000000000000000000
14388508.00000000000000000000
13539461.00000000000000000000
7167882.50000000000000000000
32206184.00000000000000000000
6985181.50000000000000000000
8174988.50000000000000000000
7510217.50000000000000000000
10101405.00000000000000000000
1452315.87500000000000000000
-32485444.00000000000000000000
-5722707.50000000000000000000
10005390.00000000000000000000
-33226878.00000000000000000000
-2516558.00000000000000000000
-48784488.00000000000000000000
-1818961.12500000000000000000
-19514640.00000000000000000000
3571365.00000000000000000000
12047402.00000000000000000000
14196627.00000000000000000000
-23833286.00000000000000000000
14307551.00000000000000000000
-12699779.00000000000000000000
45024068.00000000000000000000
11684809.00000000000000000000
16770789.00000000000000000000
25900986.00000000000000000000
-55934864.00000000000000000000
-13049172.00000000000000000000
205621584.00000000000000000000
34443908.00000000000000000000
41257340.00000000000000000000
16668473.00000000000000000000
-35262860.00000000000000000000
33118994.00000000000000000000
-231422640.00000000000000000000
11456674.00000000000000000000
-19999730.00000000000000000000
5551195.50000000000000000000
43555760.00000000000000000000
130240144.00000000000000000000
202508944.00000000000000000000
118193296.00000000000000000000
-21887982.00000000000000000000
-166271856.00000000000000000000
21182634.00000000000000000000
-16382595.00000000000000000000
18208906.00000000000000000000
102827208.00000000000000000000
-15216597.00000000000000000000
70464624.00000000000000000000
38857100.00000000000000000000
-46736732.00000000000000000000
48554748.00000000000000000000
-25539696.00000000000000000000
-19441786.00000000000000000000
-41330764.00000000000000000000
-142916784.00000000000000000000
-8832594.00000000000000000000
-305353248.00000000000000000000
-95356664.00000000000000000000
43907640.00000000000000000000
276747328.00000000000000000000
16909878.00000000000000000000
-34935436.00000000000000000000
28175316.00000000000000000000
-32163934.00000000000000000000
-26028708.00000000000000000000
-66956460.00000000000000000000
-20162362.00000000000000000000
227082128.00000000000000000000
-33507146.00000000000000000000
20532618.00000000000000000000
8745457.00000000000000000000
45299492.00000000000000000000
-10662357.00000000000000000000
22391144.00000000000000000000
3353647.75000000000000000000
48035116.00000000000000000000
-140892976.00000000000000000000
27802064.00000000000000000000
-52113484.00000000000000000000
-87741216.00000000000000000000
-59108636.00000000000000000000
34932592.00000000000000000000
-262279344.00000000000000000000
41296256.00000000000000000000
3470248.25000000000000000000
46950308.00000000000000000000
-8727412.00000000000000000000
-6235404.50000000000000000000
-58098524.00000000000000000000
-34814908.00000000000000000000
15058210.00000000000000000000
13642595.00000000000000000000
-3929088.75000000000000000000
9143894.00000000000000000000
-32912700.00000000000000000000
7291556.50000000000000000000
-17989800.00000000000000000000
7727892.00000000000000000000
-26833204.00000000000000000000
-10372037.00000000000000000000
17039100.00000000000000000000
-35552904.00000000000000000000
-2239605.75000000000000000000
-3575184.75000000000000000000
6499335.00000000000000000000
16322441.00000000000000000000
34949376.00000000000000000000
16342870.00000000000000000000
-22960520.00000000000000000000
-7141293.00000000000000000000
28486416.00000000000000000000
-14931448.00000000000000000000
-3393808.75000000000000000000
-22746236.00000000000000000000
15460824.00000000000000000000
33934924.00000000000000000000
7265320.50000000000000000000
-17863880.00000000000000000000
-33819044.00000000000000000000
-19934724.00000000000000000000
-40423232.00000000000000000000
13602082.00000000000000000000
24301244.00000000000000000000
12985628.00000000000000000000
379063.62500000000000000000
-38102480.00000000000000000000
-60054968.00000000000000000000
-37739944.00000000000000000000
-38605612.00000000000000000000
-16906882.00000000000000000000
60380232.00000000000000000000
-16214462.00000000000000000000
-15994282.00000000000000000000
8497476.00000000000000000000
3383301.25000000000000000000
23249660.00000000000000000000
-35859588.00000000000000000000
-4989197.00000000000000000000
2289076.25000000000000000000
1717178.00000000000000000000
4596935.00000000000000000000
10583234.00000000000000000000
-5228748.00000000000000000000
-11553211.00000000000000000000
-13363134.00000000000000000000
4624322.00000000000000000000
3521586.25000000000000000000
-5905228.00000000000000000000
53931388.00000000000000000000
7812993.50000000000000000000
14628526.00000000000000000000
10673376.00000000000000000000
-11956853.00000000000000000000
-33174480.00000000000000000000
18097148.00000000000000000000
-2707673.25000000000000000000
-1196391.62500000000000000000
-6651666.00000000000000000000
-33749372.00000000000000000000
-17646878.00000000000000000000
15668248.00000000000000000000
23491642.00000000000000000000
6961489.50000000000000000000
19378878.00000000000000000000
6565652.00000000000000000000
-19155090.00000000000000000000
51641344.00000000000000000000
-50001160.00000000000000000000
-13668816.00000000000000000000
-16815856.00000000000000000000
27389682.00000000000000000000
-46119952.00000000000000000000
4088004.50000000000000000000
-4248834.00000000000000000000
30116974.00000000000000000000
-57542712.00000000000000000000
-1155298.37500000000000000000
46114400.00000000000000000000
6636978.50000000000000000000
26945438.00000000000000000000
1781832.62500000000000000000
-30725758.00000000000000000000
4967817.00000000000000000000
-23534630.00000000000000000000
7647712.50000000000000000000
-923552.31250000000000000000
14369994.00000000000000000000
-58362628.00000000000000000000
-52042232.00000000000000000000
-747152.93750000000000000000
-11045656.00000000000000000000
-34326208.00000000000000000000
101826.25781250000000000000
-15230656.00000000000000000000
-15865614.00000000000000000000
69681992.00000000000000000000
-4832709.00000000000000000000
30625134.00000000000000000000
-58651220.00000000000000000000
12950310.00000000000000000000
34727452.00000000000000000000
40305004.00000000000000000000
-3129863.00000000000000000000
8899730.00000000000000000000
-29373426.00000000000000000000
-8170088.00000000000000000000
-16541080.00000000000000000000
10182276.00000000000000000000
-43920392.00000000000000000000
57074948.00000000000000000000
39132612.00000000000000000000
8482678.00000000000000000000
11598104.00000000000000000000
-14056886.00000000000000000000
18729862.00000000000000000000
921942.81250000000000000000
6850575.00000000000000000000
11034892.00000000000000000000
79297656.00000000000000000000
-15187288.00000000000000000000
9512688.00000000000000000000
94797048.00000000000000000000
8135630.50000000000000000000
-7392761.50000000000000000000
-65454556.00000000000000000000
6265877.00000000000000000000
-79367480.00000000000000000000
12035857.00000000000000000000
817116.50000000000000000000
-39673176.00000000000000000000
10172048.00000000000000000000
-28316678.00000000000000000000
-11057787.00000000000000000000
150589568.00000000000000000000
-68973624.00000000000000000000
-3483166.00000000000000000000
30297138.00000000000000000000
17319890.00000000000000000000
89518648.00000000000000000000
-26540708.00000000000000000000
99014744.00000000000000000000
-57044380.00000000000000000000
-15139337.00000000000000000000
29697054.00000000000000000000
-14488745.00000000000000000000
10989761.00000000000000000000
-33771768.00000000000000000000
92879064.00000000000000000000
43380036.00000000000000000000
82457272.00000000000000000000
37488544.00000000000000000000
65485764.00000000000000000000
102790264.00000000000000000000
-57729044.00000000000000000000
4799033.50000000000000000000
-62369508.00000000000000000000
-9323485.00000000000000000000
59153300.00000000000000000000
89294920.00000000000000000000
-110279576.00000000000000000000
5204368.50000000000000000000
69425752.00000000000000000000
22459714.00000000000000000000
75189752.00000000000000000000
-22647554.00000000000000000000
74502352.00000000000000000000
-14073901.00000000000000000000
-37680692.00000000000000000000
5297104.00000000000000000000
4801638.00000000000000000000
-54351284.00000000000000000000
48807892.00000000000000000000
50439492.00000000000000000000
84704856.00000000000000000000
88910464.00000000000000000000
-8380640.00000000000000000000
-27944240.00000000000000000000
14561267.00000000000000000000
80529320.00000000000000000000
-33406406.00000000000000000000
16831778.00000000000000000000
-12496989.00000000000000000000
47100516.00000000000000000000
30353468.00000000000000000000
9082293.00000000000000000000
-133314640.00000000000000000000
-51422104.00000000000000000000
-20645736.00000000000000000000
18169600.00000000000000000000
21124920.00000000000000000000
71040392.00000000000000000000
26126724.00000000000000000000
35685848.00000000000000000000
-5567480.50000000000000000000
44817212.00000000000000000000
-21862074.00000000000000000000
52648080.00000000000000000000
23703318.00000000000000000000
47721976.00000000000000000000
16562709.00000000000000000000
12701057.00000000000000000000
6734632.50000000000000000000
11426349.00000000000000000000
-3504436.50000000000000000000
19375176.00000000000000000000
-18567352.00000000000000000000
13188469.00000000000000000000
182758192.00000000000000000000
-64787552.00000000000000000000
11545195.00000000000000000000
50590104.00000000000000000000
-7196280.50000000000000000000
63554720.00000000000000000000
-40988372.00000000000000000000
-38001704.00000000000000000000
21358474.00000000000000000000
41513520.00000000000000000000
-99350064.00000000000000000000
20640178.00000000000000000000
51970372.00000000000000000000
23858244.00000000000000000000
-74945960.00000000000000000000
25021082.00000000000000000000
93353880.00000000000000000000
28145096.00000000000000000000
184640304.00000000000000000000
-27954002.00000000000000000000
-21910256.00000000000000000000
-64152932.00000000000000000000
1378855.87500000000000000000
16443423.00000000000000000000
-57776592.00000000000000000000
557891.87500000000000000000
75409888.00000000000000000000
-65641288.00000000000000000000
19670704.00000000000000000000
-16325451.00000000000000000000
40428040.00000000000000000000
-54738116.00000000000000000000
-25175586.00000000000000000000
24423992.00000000000000000000
10063363.00000000000000000000
-72232240.00000000000000000000
57110688.00000000000000000000
23877952.00000000000000000000
-67786888.00000000000000000000
35852632.00000000000000000000
19450076.00000000000000000000
100336976.00000000000000000000
