0
-803968485687296.00000000000000000000
-30182551322624.00000000000000000000
-270026187735040.00000000000000000000
-1053524943175680.00000000000000000000
77104293085184.00000000000000000000
-22646943121408.00000000000000000000
-577198910078976.00000000000000000000
438908580003840.00000000000000000000
361652486668288.00000000000000000000
702378617602048.00000000000000000000
-66679035920384.00000000000000000000
-123050787864576.00000000000000000000
1096488977432576.00000000000000000000
-18081994852270080.00000000000000000000
3321608252948480.00000000000000000000
342857474899968.00000000000000000000
-3973973788327936.00000000000000000000
4572395876646912.00000000000000000000
12032887750656000.00000000000000000000
6341028512530432.00000000000000000000
-4324944288677888.00000000000000000000
6969034872455168.00000000000000000000
8186311819132928.00000000000000000000
7084831485722624.00000000000000000000
-661940091224064.00000000000000000000
3961083786166272.00000000000000000000
26324069305548800.00000000000000000000
17494104023760896.00000000000000000000
495669190066176.00000000000000000000
11811664722657280.00000000000000000000
35964370362040320.00000000000000000000
-39640353413791744.00000000000000000000
-24145311853182976.00000000000000000000
16787702162653184.00000000000000000000
-19891954200346624.00000000000000000000
19545294504984576.00000000000000000000
4742851317465088.00000000000000000000
-1946657956560896.00000000000000000000
-5331046014910464.00000000000000000000
-398090922098688.00000000000000000000
326787619880960.00000000000000000000
-705073441144832.00000000000000000000
-673685014839296.00000000000000000000
355001327157248.00000000000000000000
736713794125824.00000000000000000000
-144217552715776.00000000000000000000
62229240086528.00000000000000000000
113470636818432.00000000000000000000
600352474791936.00000000000000000000
-50658048737280.00000000000000000000
-263996053651456.00000000000000000000
-169471943639040.00000000000000000000
-2472268538052608.00000000000000000000
386796701614080.00000000000000000000
673220420173824.00000000000000000000
-2914209666957312.00000000000000000000
-326568408776704.00000000000000000000
841405165469696.00000000000000000000
277929967747072.00000000000000000000
1347804760899584.00000000000000000000
1770529400815616.00000000000000000000
543622332153856.00000000000000000000
709429007745024.00000000000000000000
1273565580099584.00000000000000000000
-1258141413015552.00000000000000000000
-1640414037671936.00000000000000000000
-2079732820606976.00000000000000000000
732430906425344.00000000000000000000
-399384915214336.00000000000000000000
3980712860450816.00000000000000000000
1035396490199040.00000000000000000000
-1445833228681216.00000000000000000000
117035333844992.00000000000000000000
-123818362273792.00000000000000000000
1404617782984704.00000000000000000000
-1278522240794624.00000000000000000000
865854535237632.00000000000000000000
-3291616764755968.00000000000000000000
-1364931614081024.00000000000000000000
55785467936768.00000000000000000000
1470829535690752.00000000000000000000
-739261850583040.00000000000000000000
1529047012081664.00000000000000000000
-59638154264576.00000000000000000000
-1689655166631936.00000000000000000000
157798675513344.00000000000000000000
862040470061056.00000000000000000000
604289617625088.00000000000000000000
-677199438938112.00000000000000000000
216727438753792.00000000000000000000
449876584300544.00000000000000000000
-1480133642813440.00000000000000000000
-882642891309056.00000000000000000000
-858919371014144.00000000000000000000
-2722975442796544.00000000000000000000
1831211517345792.00000000000000000000
-211423657459712.00000000000000000000
674195511967744.00000000000000000000
844932407361536.00000000000000000000
330950785368064.00000000000000000000
1421939520307200.00000000000000000000
-84769022935040.00000000000000000000
-214739338657792.00000000000000000000
-229869065601024.00000000000000000000
-2268297588375552.00000000000000000000
435682724020224.00000000000000000000
-1695808244154368.00000000000000000000
-4215898290257920.00000000000000000000
236823607508992.00000000000000000000
-39760378724352.00000000000000000000
-523455749423104.00000000000000000000
856564051214336.00000000000000000000
601215897436160.00000000000000000000
921328265723904.00000000000000000000
185939200573440.00000000000000000000
-21382599540736.00000000000000000000
205833539420160.00000000000000000000
-4889410633990144.00000000000000000000
-2414831135096832.00000000000000000000
3930097744609280.00000000000000000000
-2227032884772864.00000000000000000000
-4442479826829312.00000000000000000000
-1292107088134144.00000000000000000000
9995439017295872.00000000000000000000
4867205653069824.00000000000000000000
-594161078108160.00000000000000000000
-5170101779169280.00000000000000000000
-1533389089800192.00000000000000000000
-6449634813673472.00000000000000000000
9206720886734848.00000000000000000000
-5373439489605632.00000000000000000000
-2409584295673856.00000000000000000000
1476469767274496.00000000000000000000
128146061918208.00000000000000000000
-4221771658035200.00000000000000000000
4296813863501824.00000000000000000000
-870933535391744.00000000000000000000
-694408097824768.00000000000000000000
1991600225910784.00000000000000000000
82667517247488.00000000000000000000
-4029962981998592.00000000000000000000
1327657874620416.00000000000000000000
1903183894937600.00000000000000000000
-1343871376162816.00000000000000000000
-1665911916331008.00000000000000000000
-36371485949952.00000000000000000000
374179664756736.00000000000000000000
2498903509303296.00000000000000000000
945688917573632.00000000000000000000
-234523837071360.00000000000000000000
676260116168704.00000000000000000000
72763758870528.00000000000000000000
1870802928533504.00000000000000000000
-1405272362844160.00000000000000000000
-2323530867802112.00000000000000000000
-3243610036240384.00000000000000000000
-9067903248760832.00000000000000000000
13085902062485504.00000000000000000000
16311235670704128.00000000000000000000
-2996054563749888.00000000000000000000
-603466795843584.00000000000000000000
24384936668561408.00000000000000000000
20587530596384768.00000000000000000000
13486446417543168.00000000000000000000
-1356190013456384.00000000000000000000
-9160233234464768.00000000000000000000
12452439483482112.00000000000000000000
-23168247595532288.00000000000000000000
24715215358656512.00000000000000000000
-3626434698412032.00000000000000000000
771125139210240.00000000000000000000
2274856271872000.00000000000000000000
-4746689407614976.00000000000000000000
-326182935461888.00000000000000000000
276748465864704.00000000000000000000
-95457594310656.00000000000000000000
1333061614567424.00000000000000000000
187847390789632.00000000000000000000
-351497170714624.00000000000000000000
790936279842816.00000000000000000000
926494842945536.00000000000000000000
741419870322688.00000000000000000000
-1039749506662400.00000000000000000000
916454887129088.00000000000000000000
-190951628734464.00000000000000000000
-1438216909488128.00000000000000000000
-449913661947904.00000000000000000000
-54966781739008.00000000000000000000
785497106415616.00000000000000000000
512605185638400.00000000000000000000
-297903193063424.00000000000000000000
676137105620992.00000000000000000000
-98587836940288.00000000000000000000
178088486895616.00000000000000000000
-28737460502528.00000000000000000000
-361650909609984.00000000000000000000
807932136521728.00000000000000000000
391443554238464.00000000000000000000
-44413384392704.00000000000000000000
-206971571535872.00000000000000000000
-4689909776384.00000000000000000000
-800944560275456.00000000000000000000
-174025900818432.00000000000000000000
180197936594944.00000000000000000000
79889696817152.00000000000000000000
28788530348032.00000000000000000000
148456266006528.00000000000000000000
-492063263031296.00000000000000000000
-3792069843746816.00000000000000000000
801564981723136.00000000000000000000
-4926130456887296.00000000000000000000
-535590911082496.00000000000000000000
-7556728669339648.00000000000000000000
1469119064965120.00000000000000000000
-3362148180819968.00000000000000000000
-1908486568935424.00000000000000000000
4727218710249472.00000000000000000000
4929025801715712.00000000000000000000
-2789735340703744.00000000000000000000
4811669578448896.00000000000000000000
-4801914097106944.00000000000000000000
-9586702012121088.00000000000000000000
-777643020517376.00000000000000000000
14275152736944128.00000000000000000000
-11103426763030528.00000000000000000000
-3957614794768384.00000000000000000000
5073649698603008.00000000000000000000
20201247680233472.00000000000000000000
5663589763383296.00000000000000000000
2546056881504256.00000000000000000000
-8207572444119040.00000000000000000000
4533580646580224.00000000000000000000
-6651673833373696.00000000000000000000
17902772309458944.00000000000000000000
-1734526300585984.00000000000000000000
-126675010453504.00000000000000000000
-1934379450368000.00000000000000000000
928621321519104.00000000000000000000
364975684059136.00000000000000000000
3767295398641664.00000000000000000000
-122048114327552.00000000000000000000
-931286348726272.00000000000000000000
325486446116864.00000000000000000000
1377002619666432.00000000000000000000
-395784524660736.00000000000000000000
-1555514211172352.00000000000000000000
-22616911904768.00000000000000000000
-631423945932800.00000000000000000000
-2028268911853568.00000000000000000000
632290052931584.00000000000000000000
-306769750392832.00000000000000000000
228512728350720.00000000000000000000
113927740456960.00000000000000000000
1577053337944064.00000000000000000000
294191166914560.00000000000000000000
-1495476339736576.00000000000000000000
1231984525312000.00000000000000000000
85406976573440.00000000000000000000
131284793819136.00000000000000000000
36055428366336.00000000000000000000
27851832122408960.00000000000000000000
-13076984636637184.00000000000000000000
-8079410083135488.00000000000000000000
80296363513872384.00000000000000000000
34888927730991104.00000000000000000000
-49219947255037952.00000000000000000000
-64339305878781952.00000000000000000000
22646997479587840.00000000000000000000
-61445949620224000.00000000000000000000
3033770819059712.00000000000000000000
-29410044109914112.00000000000000000000
-33999235993042944.00000000000000000000
-50339095473291264.00000000000000000000
-807715173564416.00000000000000000000
-237020454584320.00000000000000000000
1127857338187776.00000000000000000000
-433418705829888.00000000000000000000
-170878109220864.00000000000000000000
282656663142400.00000000000000000000
-331506245435392.00000000000000000000
33843622969344.00000000000000000000
54007234035712.00000000000000000000
-326859527028736.00000000000000000000
-140402078253056.00000000000000000000
-324117525954560.00000000000000000000
1027874660286464.00000000000000000000
112827046035456.00000000000000000000
6532046646149120.00000000000000000000
-2852223625199616.00000000000000000000
-1752481142931456.00000000000000000000
-4081939870908416.00000000000000000000
-213027710304256.00000000000000000000
-4089353252896768.00000000000000000000
2101293556432896.00000000000000000000
5335033355173888.00000000000000000000
5457032974958592.00000000000000000000
2396142390214656.00000000000000000000
2762650203193344.00000000000000000000
-3928915286425600.00000000000000000000
-4055401267986432.00000000000000000000
573856888651776.00000000000000000000
-3565744394600448.00000000000000000000
-8090304267681792.00000000000000000000
-891923577438208.00000000000000000000
-2805481764552704.00000000000000000000
3112387779493888.00000000000000000000
518931538247680.00000000000000000000
502090904371200.00000000000000000000
-276895199395840.00000000000000000000
2313605198381056.00000000000000000000
-3414037828206592.00000000000000000000
585139432194048.00000000000000000000
-2210151784251392.00000000000000000000
1121017804095488.00000000000000000000
1043673160613888.00000000000000000000
-3185058626142208.00000000000000000000
867098129596416.00000000000000000000
-705133168033792.00000000000000000000
-1059837672685568.00000000000000000000
1142441033859072.00000000000000000000
265234010865664.00000000000000000000
-1732206347157504.00000000000000000000
1943030856679424.00000000000000000000
1648901832572928.00000000000000000000
-247111278919680.00000000000000000000
-1895261559324672.00000000000000000000
-1984829344186368.00000000000000000000
-1420755048857600.00000000000000000000
-1463411992952832.00000000000000000000
3817960711913472.00000000000000000000
1877813791555584.00000000000000000000
2033943503175680.00000000000000000000
627983610019840.00000000000000000000
1749288774270976.00000000000000000000
1981450412883968.00000000000000000000
-841292087033856.00000000000000000000
216739149250560.00000000000000000000
-2122327890329600.00000000000000000000
-2451705845252096.00000000000000000000
-168037726552064.00000000000000000000
2451090322751488.00000000000000000000
-3046698670620672.00000000000000000000
-825992272674816.00000000000000000000
-98492903063552.00000000000000000000
78497565376512.00000000000000000000
1824419160784896.00000000000000000000
-195022922186752.00000000000000000000
523296063881216.00000000000000000000
135288139546624.00000000000000000000
1726171783888896.00000000000000000000
1737109186543616.00000000000000000000
-3307579547582464.00000000000000000000
2284500084064256.00000000000000000000
3587106219753472.00000000000000000000
-1714405184110592.00000000000000000000
-11040152231084032.00000000000000000000
3053145684967424.00000000000000000000
3711035890466816.00000000000000000000
2292677970231296.00000000000000000000
4377039020752896.00000000000000000000
-1340881407836160.00000000000000000000
-101945805111296.00000000000000000000
394292761722880.00000000000000000000
3181229931233280.00000000000000000000
-3215251172491264.00000000000000000000
-1016656071491584.00000000000000000000
4027431367213056.00000000000000000000
-1045955465969664.00000000000000000000
2837880045043712.00000000000000000000
1939429526601728.00000000000000000000
-2313923294396416.00000000000000000000
-1533171522863104.00000000000000000000
-924026176274432.00000000000000000000
-786183697203200.00000000000000000000
779667158073344.00000000000000000000
3505945564938240.00000000000000000000
34400607666176.00000000000000000000
-457283087630336.00000000000000000000
-159812578967552.00000000000000000000
228291856302080.00000000000000000000
-203494392856576.00000000000000000000
409293706756096.00000000000000000000
247638150610944.00000000000000000000
-461833538371584.00000000000000000000
233440532234240.00000000000000000000
-52867687776256.00000000000000000000
370589172760576.00000000000000000000
-438185817538560.00000000000000000000
-221677992542208.00000000000000000000
151422997889024.00000000000000000000
10896361020981248.00000000000000000000
14467667129794560.00000000000000000000
33275997860134912.00000000000000000000
16795302107283456.00000000000000000000
11776231242465280.00000000000000000000
-21716095530434560.00000000000000000000
-397343362908160.00000000000000000000
20397473998569472.00000000000000000000
-6920945197383680.00000000000000000000
12709517972209664.00000000000000000000
8208439490641920.00000000000000000000
-26175029645410304.00000000000000000000
2789560589221888.00000000000000000000
-3894913640955904.00000000000000000000
-674075252883456.00000000000000000000
1783985130700800.00000000000000000000
-4733273540395008.00000000000000000000
3355663048638464.00000000000000000000
-61824015794176.00000000000000000000
-273133714014208.00000000000000000000
588185973293056.00000000000000000000
-271836516450304.00000000000000000000
-3772735243157504.00000000000000000000
1350281614852096.00000000000000000000
623733203009536.00000000000000000000
428092745056256.00000000000000000000
-2350182213615616.00000000000000000000
-2494050733129728.00000000000000000000
2189100673138688.00000000000000000000
1839469397278720.00000000000000000000
1700669744480256.00000000000000000000
1341757581164544.00000000000000000000
3434914322055168.00000000000000000000
2373085932027904.00000000000000000000
2471235329982464.00000000000000000000
520698447527936.00000000000000000000
-2725392435642368.00000000000000000000
-5357565290479616.00000000000000000000
-4687033385615360.00000000000000000000
132479924102496256.00000000000000000000
11313021167075328.00000000000000000000
-111967778772090880.00000000000000000000
329524562557403136.00000000000000000000
71973885125328896.00000000000000000000
-135959964303753216.00000000000000000000
-163792941519732736.00000000000000000000
50244829531078656.00000000000000000000
-93404328823357440.00000000000000000000
66189311501926400.00000000000000000000
-39029926891880448.00000000000000000000
42986077102800896.00000000000000000000
-153925769553248256.00000000000000000000
-3006997603549184.00000000000000000000
-1606006115139584.00000000000000000000
3375180722208768.00000000000000000000
-1328710007390208.00000000000000000000
-2017365197848576.00000000000000000000
453423992406016.00000000000000000000
1852217128648704.00000000000000000000
2310587178549248.00000000000000000000
-534191523495936.00000000000000000000
556018278858752.00000000000000000000
-154295961911296.00000000000000000000
-1196973562527744.00000000000000000000
4176114008195072.00000000000000000000
-4860749780353024.00000000000000000000
-373635948740608.00000000000000000000
4701424210411520.00000000000000000000
-1249213383966720.00000000000000000000
2833369255641088.00000000000000000000
308136019755008.00000000000000000000
121918367727616.00000000000000000000
-831122275565568.00000000000000000000
-1453361232609280.00000000000000000000
-1735001699778560.00000000000000000000
1842282466639872.00000000000000000000
-1520285681451008.00000000000000000000
-810733260505088.00000000000000000000
-1523325041901568.00000000000000000000
501898939465728.00000000000000000000
1383520098320384.00000000000000000000
-415560634466304.00000000000000000000
-1356395098144768.00000000000000000000
76142522400768.00000000000000000000
-1134060478922752.00000000000000000000
-213574295224320.00000000000000000000
1828775868235776.00000000000000000000
1216447078465536.00000000000000000000
403920870440960.00000000000000000000
-79595810324480.00000000000000000000
496889329876992.00000000000000000000
333131957665792.00000000000000000000
4195703622467584.00000000000000000000
-167589472894976.00000000000000000000
-3270716917022720.00000000000000000000
-4385792164102144.00000000000000000000
-156924683223040.00000000000000000000
-841531867004928.00000000000000000000
2315839386681344.00000000000000000000
4164576115425280.00000000000000000000
4625298599444480.00000000000000000000
1576589749911552.00000000000000000000
7319461791006720.00000000000000000000
-4478357299265536.00000000000000000000
-1554666089349120.00000000000000000000
-270935009525760.00000000000000000000
752860992110592.00000000000000000000
-777951184420864.00000000000000000000
1759267459694592.00000000000000000000
-425620186071040.00000000000000000000
-4811168141017088.00000000000000000000
-1032100505452544.00000000000000000000
2153185351303168.00000000000000000000
-2161294383775744.00000000000000000000
1660141627768832.00000000000000000000
922610917441536.00000000000000000000
-2230059360321536.00000000000000000000
-872567971774464.00000000000000000000
432055154376704.00000000000000000000
-1361278475960320.00000000000000000000
782987704664064.00000000000000000000
150118351241216.00000000000000000000
989603548889088.00000000000000000000
-624435631489024.00000000000000000000
-891833316016128.00000000000000000000
-664826644791296.00000000000000000000
340883970981888.00000000000000000000
519694129823744.00000000000000000000
-457809556668416.00000000000000000000
-601090873622528.00000000000000000000
-473269794766848.00000000000000000000
516510653087744.00000000000000000000
-542318541144064.00000000000000000000
336744998240256.00000000000000000000
-1168269088129024.00000000000000000000
1485685559132160.00000000000000000000
-581497702580224.00000000000000000000
1042270518247424.00000000000000000000
1704045991428096.00000000000000000000
399409980375040.00000000000000000000
-177999802531840.00000000000000000000
858712071733248.00000000000000000000
-83813006835712.00000000000000000000
-199058631163904.00000000000000000000
-373088675954688.00000000000000000000
-9114377781248.00000000000000000000
362778439188480.00000000000000000000
-420739928817664.00000000000000000000
159650544615424.00000000000000000000
231677179723776.00000000000000000000
148740119724032.00000000000000000000
-77007027175424.00000000000000000000
1673276711501824.00000000000000000000
-836784988618752.00000000000000000000
-159165683073024.00000000000000000000
139318353985536.00000000000000000000
-2981846275063808.00000000000000000000
75761302110208.00000000000000000000
6111703565598720.00000000000000000000
-443703676108800.00000000000000000000
1466534299959296.00000000000000000000
121750713008128.00000000000000000000
-2448394425466880.00000000000000000000
-1972171001823232.00000000000000000000
-149502862295040.00000000000000000000
159385045172224.00000000000000000000
-82033086824448.00000000000000000000
2144151961337856.00000000000000000000
1019928098373632.00000000000000000000
-919173400100864.00000000000000000000
3186998609182720.00000000000000000000
2694810926317568.00000000000000000000
36878585692160.00000000000000000000
-9277060639883264.00000000000000000000
2527390685200384.00000000000000000000
3769617902206976.00000000000000000000
2599199048728576.00000000000000000000
1859961357336576.00000000000000000000
469959884931072.00000000000000000000
1627675835760640.00000000000000000000
-709260161843200.00000000000000000000
1362081500626944.00000000000000000000
188035614375936.00000000000000000000
4652070204342272.00000000000000000000
-2096116644446208.00000000000000000000
-963774286659584.00000000000000000000
-6130087636238336.00000000000000000000
-93144846696448.00000000000000000000
-2390899308888064.00000000000000000000
1558247420985344.00000000000000000000
5283158740172800.00000000000000000000
3559376568713216.00000000000000000000
1644713836806144.00000000000000000000
2228567932928000.00000000000000000000
-3249495752048640.00000000000000000000
-11429513565044736.00000000000000000000
-1372602962542592.00000000000000000000
14410002898878464.00000000000000000000
-19116600934268928.00000000000000000000
-8813699166896128.00000000000000000000
-213548307316736.00000000000000000000
17851205858361344.00000000000000000000
8301146896596992.00000000000000000000
-2114389314371584.00000000000000000000
-9051350444802048.00000000000000000000
5675971617226752.00000000000000000000
-12772003303915520.00000000000000000000
17041879400972288.00000000000000000000
-572518066814976.00000000000000000000
1930634909974528.00000000000000000000
-1990099000623104.00000000000000000000
-1931347471892480.00000000000000000000
-1926801651662848.00000000000000000000
-302221682016256.00000000000000000000
633296014802944.00000000000000000000
1031396734795776.00000000000000000000
632994159132672.00000000000000000000
-1113557244575744.00000000000000000000
1781593505005568.00000000000000000000
-149293096763392.00000000000000000000
-250425483722752.00000000000000000000
910367509184512.00000000000000000000
-2258463187009536.00000000000000000000
-1017892350984192.00000000000000000000
2455017801908224.00000000000000000000
328775250214912.00000000000000000000
-235536023289856.00000000000000000000
1877115590934528.00000000000000000000
559082368925696.00000000000000000000
-252644622860288.00000000000000000000
-3288251926315008.00000000000000000000
-1872754454298624.00000000000000000000
-3023724622118912.00000000000000000000
3235040771178496.00000000000000000000
-9260242621693952.00000000000000000000
-1791811500638208.00000000000000000000
4678769868537856.00000000000000000000
2268035058499584.00000000000000000000
-4034861392199680.00000000000000000000
6490479415787520.00000000000000000000
5686488918392832.00000000000000000000
-6965135579021312.00000000000000000000
4679261105422336.00000000000000000000
-1065959007715328.00000000000000000000
645678606843904.00000000000000000000
-8392784318824448.00000000000000000000
-3533432013455360.00000000000000000000
-1085004637536256.00000000000000000000
706524670328832.00000000000000000000
-3383357803069440.00000000000000000000
-1043533037305856.00000000000000000000
10971659313872896.00000000000000000000
-1588720213950464.00000000000000000000
-6111914555867136.00000000000000000000
-460707887841280.00000000000000000000
-2974968690245632.00000000000000000000
3359276458311680.00000000000000000000
277186988736512.00000000000000000000
-955622438731776.00000000000000000000
-3776413614211072.00000000000000000000
-1690552680579072.00000000000000000000
-161088721125376.00000000000000000000
918140192030720.00000000000000000000
-1315060869758976.00000000000000000000
572882669273088.00000000000000000000
728653080035328.00000000000000000000
553441801797632.00000000000000000000
686708630749184.00000000000000000000
-777930313564160.00000000000000000000
-24519588708352.00000000000000000000
605598374690816.00000000000000000000
-321234495602688.00000000000000000000
23690397876224.00000000000000000000
-19762224713170944.00000000000000000000
-4173262418345984.00000000000000000000
1626398217207808.00000000000000000000
-5790358944350208.00000000000000000000
-2184769332838400.00000000000000000000
19658093231079424.00000000000000000000
5841706888986624.00000000000000000000
-58457868730368.00000000000000000000
5866704672391168.00000000000000000000
7673257037660160.00000000000000000000
-1213970224513024.00000000000000000000
-1976809298067456.00000000000000000000
2126430523621376.00000000000000000000
-1564010461790208.00000000000000000000
-1542497373257728.00000000000000000000
-5001079246815232.00000000000000000000
-5644712308375552.00000000000000000000
2862993255694336.00000000000000000000
-1422984539537408.00000000000000000000
11802188447744.00000000000000000000
3903405059735552.00000000000000000000
3432526588674048.00000000000000000000
3073500340289536.00000000000000000000
-3519681675657216.00000000000000000000
994286539636736.00000000000000000000
-3398059744559104.00000000000000000000
-566088567881728.00000000000000000000
395640710365184.00000000000000000000
-317871334883328.00000000000000000000
-767848884469760.00000000000000000000
-51303065583616.00000000000000000000
-22530024800256.00000000000000000000
430977620901888.00000000000000000000
-147145646669824.00000000000000000000
-466572531466240.00000000000000000000
327772408905728.00000000000000000000
-674860023939072.00000000000000000000
144342324871168.00000000000000000000
619114502553600.00000000000000000000
-15148198255394816.00000000000000000000
469862140870656.00000000000000000000
386440923971584.00000000000000000000
-5888690609979392.00000000000000000000
6922304554532864.00000000000000000000
8425872210001920.00000000000000000000
4417363394953216.00000000000000000000
6788129776205824.00000000000000000000
5501838610661376.00000000000000000000
6117162469031936.00000000000000000000
3602648364220416.00000000000000000000
-1401338575454208.00000000000000000000
5418422292709376.00000000000000000000
-8152914690310144.00000000000000000000
377358779416576.00000000000000000000
3560894839652352.00000000000000000000
-6350349665304576.00000000000000000000
-4298645130182656.00000000000000000000
-4174262071984128.00000000000000000000
-719256362680320.00000000000000000000
-4073457847369728.00000000000000000000
1528649593389056.00000000000000000000
3076298243047424.00000000000000000000
-324895753895936.00000000000000000000
2705874762072064.00000000000000000000
-1750820735418368.00000000000000000000
60330130001625088.00000000000000000000
34027533385072640.00000000000000000000
852109029277696.00000000000000000000
10517184128221184.00000000000000000000
16325889025376256.00000000000000000000
-26075708526690304.00000000000000000000
-22730888928296960.00000000000000000000
13846988520947712.00000000000000000000
-9234922715742208.00000000000000000000
48886352850190336.00000000000000000000
13429117194076160.00000000000000000000
-18327720668692480.00000000000000000000
-14306843153137664.00000000000000000000
-1859007471943680.00000000000000000000
-5939031384784896.00000000000000000000
-6160123416281088.00000000000000000000
683225949143040.00000000000000000000
5420970282057728.00000000000000000000
-701584652632064.00000000000000000000
-361780731707392.00000000000000000000
98776630951936.00000000000000000000
101707702861824.00000000000000000000
-10582436492607488.00000000000000000000
-386711171366912.00000000000000000000
-4314986407002112.00000000000000000000
-3440292694851584.00000000000000000000
231036736212303872.00000000000000000000
66254577824956416.00000000000000000000
-167797861084299264.00000000000000000000
250153188970201088.00000000000000000000
108178483745652736.00000000000000000000
-194009462376235008.00000000000000000000
-144489159468253184.00000000000000000000
102963568814587904.00000000000000000000
-23335049092923392.00000000000000000000
184649818105184256.00000000000000000000
1044334317142016.00000000000000000000
-17084340521402368.00000000000000000000
-166538301795205120.00000000000000000000
-3090692020633600.00000000000000000000
-667156798767104.00000000000000000000
4887876256923648.00000000000000000000
-1116357898797056.00000000000000000000
-1020662739107840.00000000000000000000
-1372272921149440.00000000000000000000
-423177222094848.00000000000000000000
-1619126703357952.00000000000000000000
350381083197440.00000000000000000000
1284382321016832.00000000000000000000
-454776068243456.00000000000000000000
710331689074688.00000000000000000000
974195622150144.00000000000000000000
-492880045015040.00000000000000000000
-195574892593152.00000000000000000000
-574388323745792.00000000000000000000
-238594526543872.00000000000000000000
54329541132288.00000000000000000000
509729302380544.00000000000000000000
-451648560300032.00000000000000000000
170574777155584.00000000000000000000
-304043318575104.00000000000000000000
232329595322368.00000000000000000000
77291283546112.00000000000000000000
152189615996928.00000000000000000000
-285827154313216.00000000000000000000
-1695885016694784.00000000000000000000
1350982231392256.00000000000000000000
21597471637504.00000000000000000000
-3420514102018048.00000000000000000000
-355642250362880.00000000000000000000
507157288058880.00000000000000000000
-626459567718400.00000000000000000000
1691466300653568.00000000000000000000
1958177595719680.00000000000000000000
-822915801022464.00000000000000000000
109962864885760.00000000000000000000
1964090155073536.00000000000000000000
-584705439170560.00000000000000000000
-3243668823605248.00000000000000000000
539779477274624.00000000000000000000
3408752870948864.00000000000000000000
-1456670639128576.00000000000000000000
-1072611576512512.00000000000000000000
576097989165056.00000000000000000000
287278047952896.00000000000000000000
708484450484224.00000000000000000000
-264263482474496.00000000000000000000
-226889213935616.00000000000000000000
1326868405944320.00000000000000000000
-238703645556736.00000000000000000000
248343112450048.00000000000000000000
-1282988469911552.00000000000000000000
-449769612771328.00000000000000000000
-668014315831296.00000000000000000000
-2389620213940224.00000000000000000000
4926493381623808.00000000000000000000
1590117152063488.00000000000000000000
-46298661126144.00000000000000000000
656460115607552.00000000000000000000
-1565141783019520.00000000000000000000
-1976598442016768.00000000000000000000
549127507148800.00000000000000000000
-720958109253632.00000000000000000000
1076221295198208.00000000000000000000
4103476.00000000000000000000
-649673.00000000000000000000
20196154.00000000000000000000
10359644.00000000000000000000
2112107.25000000000000000000
-6978509.50000000000000000000
722762.25000000000000000000
386425.65625000000000000000
-624893.25000000000000000000
5913683.50000000000000000000
12068370.00000000000000000000
2538365.25000000000000000000
5642093.50000000000000000000
-3752746.75000000000000000000
-5835746.00000000000000000000
-9036082.00000000000000000000
-4112266.00000000000000000000
-2396518.25000000000000000000
-4881226.00000000000000000000
446493.21875000000000000000
-13948600.00000000000000000000
-11600712.00000000000000000000
-3697853.25000000000000000000
3092773.25000000000000000000
15177180.00000000000000000000
-4073029.75000000000000000000
-11231262.00000000000000000000
1917671.50000000000000000000
-1898009.75000000000000000000
-553435.43750000000000000000
-7856215.50000000000000000000
10726732.00000000000000000000
-13169668.00000000000000000000
-4028829.25000000000000000000
8350593.50000000000000000000
2103389.00000000000000000000
905964.37500000000000000000
-14861492.00000000000000000000
-5906155.50000000000000000000
1545916.75000000000000000000
8459688.00000000000000000000
-11665104.00000000000000000000
2128315.25000000000000000000
-13801830.00000000000000000000
1936559.37500000000000000000
4399495.50000000000000000000
-15375122.00000000000000000000
4248491.50000000000000000000
2889085.75000000000000000000
-8060888.00000000000000000000
-7585703.00000000000000000000
-2979724.75000000000000000000
32553226.00000000000000000000
-7774114.50000000000000000000
5470935.00000000000000000000
17508318.00000000000000000000
13083250.00000000000000000000
19314662.00000000000000000000
4296502.00000000000000000000
-37722524.00000000000000000000
-1179292.37500000000000000000
-3974035.25000000000000000000
-13560600.00000000000000000000
-3783082.25000000000000000000
929434.93750000000000000000
-10111769.00000000000000000000
-4680311.50000000000000000000
-11754252.00000000000000000000
4661457.50000000000000000000
1392071.87500000000000000000
-6457778.50000000000000000000
4535098.00000000000000000000
1709464.12500000000000000000
-2939412.00000000000000000000
1585436.12500000000000000000
-5134550.00000000000000000000
-3250452.00000000000000000000
-2287269.50000000000000000000
2712932.50000000000000000000
3652825.50000000000000000000
241284.01562500000000000000
-2920666.00000000000000000000
-3309875.00000000000000000000
4539885.50000000000000000000
487745.25000000000000000000
4831134.00000000000000000000
-5566632.00000000000000000000
1457520.87500000000000000000
2164573.50000000000000000000
-130062.14843750000000000000
4308470.00000000000000000000
-8594245.00000000000000000000
-1087748.62500000000000000000
4383951.50000000000000000000
2374133.00000000000000000000
-1611792.37500000000000000000
-9962612.00000000000000000000
-2084518.62500000000000000000
1900077.37500000000000000000
2856927.00000000000000000000
-54403.33203125000000000000
6155008.50000000000000000000
-2272214.00000000000000000000
-2332293.00000000000000000000
-2875033.50000000000000000000
-3741991.50000000000000000000
4844237.50000000000000000000
2648516.00000000000000000000
-5539770.50000000000000000000
-945069.18750000000000000000
2678132.50000000000000000000
803990.43750000000000000000
-3904028.50000000000000000000
-560464.81250000000000000000
1975358.12500000000000000000
9458056.00000000000000000000
621421.06250000000000000000
12128623.00000000000000000000
-9817732.00000000000000000000
4061154.00000000000000000000
-8942586.00000000000000000000
-2210301.00000000000000000000
-1983970.87500000000000000000
-651863.93750000000000000000
6640985.50000000000000000000
1623968.62500000000000000000
-3295293.00000000000000000000
4366316.00000000000000000000
-3956602.50000000000000000000
-4848352.00000000000000000000
-2325001.75000000000000000000
193986.50000000000000000000
-5485082.00000000000000000000
-2496394.50000000000000000000
-3413779.00000000000000000000
-998391.81250000000000000000
-2776943.00000000000000000000
-589252.12500000000000000000
-932751.50000000000000000000
2034269.37500000000000000000
2814263.50000000000000000000
882661.12500000000000000000
2035838.75000000000000000000
4197571.00000000000000000000
4795322.00000000000000000000
206672.25000000000000000000
3313361.50000000000000000000
-4157580.75000000000000000000
-4918982.00000000000000000000
5553214.00000000000000000000
-2848867.50000000000000000000
-3270246.00000000000000000000
-1883499.62500000000000000000
-2308621.00000000000000000000
5230831.00000000000000000000
-3298109.00000000000000000000
2205774.50000000000000000000
-4327361.00000000000000000000
-2401134.50000000000000000000
3056966.00000000000000000000
3926280.50000000000000000000
-1847720.37500000000000000000
3477708.00000000000000000000
-1486591.12500000000000000000
5219215.00000000000000000000
4145827.00000000000000000000
-4121679.25000000000000000000
489906.28125000000000000000
-1278963.37500000000000000000
3476238.00000000000000000000
-399531.81250000000000000000
2900795.00000000000000000000
1858422.62500000000000000000
203461.68750000000000000000
224038.40625000000000000000
-2071238.37500000000000000000
-1618636.12500000000000000000
-98422.28125000000000000000
-2424829.00000000000000000000
-4695139.00000000000000000000
-5582193.00000000000000000000
3703744.50000000000000000000
-875646.06250000000000000000
548357.87500000000000000000
-4735984.00000000000000000000
1931396.87500000000000000000
-3067681.00000000000000000000
5009285.00000000000000000000
2185969.25000000000000000000
1110663.87500000000000000000
901069.50000000000000000000
-3090535.50000000000000000000
2287259.00000000000000000000
3456171.00000000000000000000
-179888.53125000000000000000
1142287.00000000000000000000
-4601004.00000000000000000000
-4622764.00000000000000000000
4461811.00000000000000000000
-158941.84375000000000000000
2930265.00000000000000000000
-4685401.50000000000000000000
-5907697.00000000000000000000
-4976895.00000000000000000000
-3057349.00000000000000000000
-9138629.00000000000000000000
-1161640.25000000000000000000
2216601.50000000000000000000
10543776.00000000000000000000
55431.75390625000000000000
-1586782.50000000000000000000
1936575.25000000000000000000
-4698318.50000000000000000000
3267022.00000000000000000000
5964381.00000000000000000000
-8873893.00000000000000000000
3298782.50000000000000000000
-5845193.50000000000000000000
-1350557.75000000000000000000
-2703845.50000000000000000000
-1329296.87500000000000000000
5036223.50000000000000000000
-2969396.50000000000000000000
-1280208.50000000000000000000
6093152.00000000000000000000
-2222195.00000000000000000000
-597936.75000000000000000000
-4977570.50000000000000000000
4097231.00000000000000000000
2309844.50000000000000000000
2107192.00000000000000000000
-3463345.50000000000000000000
-5266315.50000000000000000000
4150234.00000000000000000000
-6901120.50000000000000000000
-2188939.75000000000000000000
-537427.43750000000000000000
2950766.00000000000000000000
6417820.50000000000000000000
-2013008.62500000000000000000
1362585.50000000000000000000
-9771415.00000000000000000000
590791.12500000000000000000
615983.37500000000000000000
609287.62500000000000000000
1062127.12500000000000000000
-8811183.00000000000000000000
-1214664.75000000000000000000
-6119012.50000000000000000000
-3441304.00000000000000000000
-6377927.00000000000000000000
1681894.25000000000000000000
-1025607.62500000000000000000
53340.08984375000000000000
-4545399.50000000000000000000
1927173.62500000000000000000
-2023883.87500000000000000000
6130923.50000000000000000000
-2875858.50000000000000000000
-4742136.00000000000000000000
-1570580.62500000000000000000
1509701.87500000000000000000
-3839103.00000000000000000000
-6357514.50000000000000000000
-7956287.00000000000000000000
-7459886.50000000000000000000
4613451.50000000000000000000
-2769235.25000000000000000000
1525775.12500000000000000000
3013109.75000000000000000000
1109483.87500000000000000000
4080879.25000000000000000000
-2759309.75000000000000000000
-6092335.50000000000000000000
137417.85937500000000000000
-3071978.25000000000000000000
-1371597.12500000000000000000
-250478.10937500000000000000
6364728.50000000000000000000
5633675.00000000000000000000
2491471.75000000000000000000
-20315862.00000000000000000000
980069.50000000000000000000
-5912519.50000000000000000000
10494785.00000000000000000000
3296559.75000000000000000000
-18419184.00000000000000000000
5833282.50000000000000000000
-8885934.00000000000000000000
-269890.53125000000000000000
2532694.75000000000000000000
-1884498.62500000000000000000
-2808186.25000000000000000000
8960944.00000000000000000000
7171849.50000000000000000000
10154174.00000000000000000000
4330926.00000000000000000000
3154905.25000000000000000000
768163.50000000000000000000
7116909.50000000000000000000
-2336199.75000000000000000000
-135965.39062500000000000000
1730354.12500000000000000000
-3196467.75000000000000000000
5469557.50000000000000000000
-661460.25000000000000000000
-2436854.25000000000000000000
2424475.25000000000000000000
2077694.37500000000000000000
-1858749.62500000000000000000
2855459.75000000000000000000
-700041.06250000000000000000
4335605.50000000000000000000
832708.62500000000000000000
-5172663.50000000000000000000
9588904.00000000000000000000
7196840.50000000000000000000
5502651.50000000000000000000
207273.79687500000000000000
-5294228.00000000000000000000
-10036242.00000000000000000000
513678.53125000000000000000
-9823836.00000000000000000000
-7373332.00000000000000000000
1498729.37500000000000000000
-4553857.00000000000000000000
-1084972.87500000000000000000
-1014986.43750000000000000000
-10971840.00000000000000000000
-3442475.25000000000000000000
9042902.00000000000000000000
-2737380.25000000000000000000
68926.62500000000000000000
6579090.50000000000000000000
2793034.25000000000000000000
4977305.50000000000000000000
318988.12500000000000000000
-3669463.75000000000000000000
-5663078.50000000000000000000
-3888533.75000000000000000000
-5405659.50000000000000000000
1079433.87500000000000000000
6708426.50000000000000000000
11945806.00000000000000000000
-7737506.50000000000000000000
55709.69140625000000000000
9604218.00000000000000000000
3006811.25000000000000000000
-11184076.00000000000000000000
5346572.50000000000000000000
-9661688.00000000000000000000
1382774.00000000000000000000
-6799242.50000000000000000000
-3890005.25000000000000000000
94719.18750000000000000000
1451694.50000000000000000000
-659051.43750000000000000000
-9715638.00000000000000000000
-503290.21875000000000000000
-10142740.00000000000000000000
2263906.25000000000000000000
-3696737.25000000000000000000
3744301.75000000000000000000
412338.09375000000000000000
-4504122.00000000000000000000
5313453.00000000000000000000
1632479.75000000000000000000
-917353.12500000000000000000
1774065.50000000000000000000
-3203978.25000000000000000000
-10637846.00000000000000000000
-6529240.50000000000000000000
-12458234.00000000000000000000
163142.57812500000000000000
-8200178.00000000000000000000
-6694074.00000000000000000000
-3102301.25000000000000000000
2284760.25000000000000000000
3138682.75000000000000000000
9794570.00000000000000000000
6302123.00000000000000000000
9211948.00000000000000000000
10487014.00000000000000000000
825495.00000000000000000000
-3943446.25000000000000000000
6869674.00000000000000000000
1319870.50000000000000000000
-2507167.25000000000000000000
-5973379.00000000000000000000
4613899.00000000000000000000
-4131328.75000000000000000000
1480125.87500000000000000000
2651955.25000000000000000000
1742969.37500000000000000000
-1146561.87500000000000000000
-491426.75000000000000000000
1117543.37500000000000000000
-3296813.75000000000000000000
2084316.12500000000000000000
-139191.03125000000000000000
5960589.50000000000000000000
2125180.75000000000000000000
-2982023.75000000000000000000
456547.93750000000000000000
-6033985.00000000000000000000
-1529716.62500000000000000000
-1370667.87500000000000000000
-1953493.62500000000000000000
3536934.25000000000000000000
-1643459.87500000000000000000
-1924776.87500000000000000000
-13651.96386718750000000000
1020330.25000000000000000000
697399.81250000000000000000
-4194444.00000000000000000000
-250337.40625000000000000000
-382486.81250000000000000000
-3025565.25000000000000000000
-6945747.50000000000000000000
-2494964.00000000000000000000
779841.00000000000000000000
-947350.68750000000000000000
-6016431.50000000000000000000
2238832.75000000000000000000
6046140.50000000000000000000
9540513.00000000000000000000
-1132302.62500000000000000000
-280506.62500000000000000000
-10566003.00000000000000000000
-2923749.75000000000000000000
-2986962.25000000000000000000
-1888310.37500000000000000000
-5126821.50000000000000000000
257175.51562500000000000000
2707886.25000000000000000000
713006.06250000000000000000
-1153958.87500000000000000000
912055.81250000000000000000
-5131790.50000000000000000000
-1457664.12500000000000000000
471500.50000000000000000000
-4799995.50000000000000000000
2720557.25000000000000000000
1514535.62500000000000000000
-1985745.37500000000000000000
-5480202.00000000000000000000
5544409.50000000000000000000
-7251800.50000000000000000000
1189898.37500000000000000000
-9303748.00000000000000000000
-2173965.25000000000000000000
3987784.75000000000000000000
-4830560.50000000000000000000
297157.06250000000000000000
-467938.12500000000000000000
-1905453.87500000000000000000
108073.78906250000000000000
-1447901.37500000000000000000
-6414071.50000000000000000000
-1898548.37500000000000000000
-1030609.75000000000000000000
-645756.18750000000000000000
2589994.00000000000000000000
-757794.56250000000000000000
7406686.00000000000000000000
401257.93750000000000000000
7291122.00000000000000000000
-2908686.00000000000000000000
-4102361.50000000000000000000
315201.06250000000000000000
1372063.12500000000000000000
-1905886.37500000000000000000
-4877203.00000000000000000000
-1671418.87500000000000000000
-3422538.50000000000000000000
1806326.37500000000000000000
2630249.00000000000000000000
-1524597.12500000000000000000
-2362862.25000000000000000000
26489.73632812500000000000
-5103312.00000000000000000000
4132722.50000000000000000000
976132.06250000000000000000
-2551199.00000000000000000000
-7254231.00000000000000000000
185428.26562500000000000000
-100893.61718750000000000000
5350197.50000000000000000000
930895.93750000000000000000
3793289.00000000000000000000
-3180515.00000000000000000000
-2770348.50000000000000000000
1161511.87500000000000000000
-1158739.62500000000000000000
-2293570.25000000000000000000
-4635593.00000000000000000000
2390357.50000000000000000000
-3839239.50000000000000000000
3539881.50000000000000000000
2559905.00000000000000000000
-4479968.00000000000000000000
1031579.06250000000000000000
-2636025.50000000000000000000
-5052286.50000000000000000000
-2923003.50000000000000000000
-3047164.50000000000000000000
4211836.50000000000000000000
104978.21093750000000000000
3706540.00000000000000000000
-4300688.00000000000000000000
-1185660.37500000000000000000
684275.43750000000000000000
6572343.00000000000000000000
-7878014.50000000000000000000
-6308826.50000000000000000000
859266.93750000000000000000
2652100.00000000000000000000
682306.06250000000000000000
2409199.00000000000000000000
-987626.75000000000000000000
-1096443.75000000000000000000
-3710881.00000000000000000000
-2897979.75000000000000000000
-6282465.00000000000000000000
69830.57812500000000000000
2748516.75000000000000000000
-1309328.25000000000000000000
2523290.25000000000000000000
-207706.65625000000000000000
-32575.97070312500000000000
1996521.25000000000000000000
-697616.56250000000000000000
1539237.25000000000000000000
1619107.50000000000000000000
-1360566.00000000000000000000
-1016785.50000000000000000000
555688.12500000000000000000
5478267.00000000000000000000
2637100.25000000000000000000
2192831.00000000000000000000
807896.50000000000000000000
-2264547.50000000000000000000
-581549.37500000000000000000
2144228.75000000000000000000
3263220.75000000000000000000
-710381.43750000000000000000
2405900.25000000000000000000
-1077016.00000000000000000000
4082564.25000000000000000000
907490.37500000000000000000
-1415898.25000000000000000000
2219438.25000000000000000000
563863.81250000000000000000
-410872.34375000000000000000
1701971.00000000000000000000
3722322.25000000000000000000
148328.31250000000000000000
302617.18750000000000000000
-2286100.50000000000000000000
5956411.00000000000000000000
2023228.12500000000000000000
-1713302.00000000000000000000
1407571.75000000000000000000
-429324.84375000000000000000
-1791021.62500000000000000000
2720160.25000000000000000000
-2700998.25000000000000000000
-1272945.50000000000000000000
-759402.43750000000000000000
-126913.89843750000000000000
1347179.00000000000000000000
-1006716.93750000000000000000
2068314.50000000000000000000
-1619621.25000000000000000000
1251085.37500000000000000000
837193.12500000000000000000
-4930587.00000000000000000000
-855566.93750000000000000000
-2161330.00000000000000000000
3235520.25000000000000000000
-1965938.37500000000000000000
-1497959.75000000000000000000
-238953.65625000000000000000
-1322760.75000000000000000000
2731031.25000000000000000000
-4830717.00000000000000000000
2362536.25000000000000000000
-13866338.00000000000000000000
5625792.50000000000000000000
5798793.50000000000000000000
-808886.31250000000000000000
736833.93750000000000000000
-1251711.00000000000000000000
-2210979.75000000000000000000
9026825.00000000000000000000
17256824.00000000000000000000
-499793.75000000000000000000
6828557.50000000000000000000
2050484.75000000000000000000
-6745633.50000000000000000000
1497636.50000000000000000000
-739800.18750000000000000000
-6731919.50000000000000000000
-8784453.00000000000000000000
9148866.00000000000000000000
5063598.00000000000000000000
-7256854.00000000000000000000
-116424.01562500000000000000
-7786140.50000000000000000000
-2968275.75000000000000000000
8509904.00000000000000000000
-11498897.00000000000000000000
1215052.00000000000000000000
2821425.25000000000000000000
-10947579.00000000000000000000
-2385166.75000000000000000000
6326634.00000000000000000000
-237182.18750000000000000000
9171146.00000000000000000000
5517890.50000000000000000000
-9387407.00000000000000000000
-5267034.00000000000000000000
5446739.00000000000000000000
2347925.25000000000000000000
926000.68750000000000000000
2086926.50000000000000000000
893366.43750000000000000000
-2345809.75000000000000000000
-9898661.00000000000000000000
6794383.50000000000000000000
2321327.75000000000000000000
-9805433.00000000000000000000
6203358.50000000000000000000
465128.78125000000000000000
4727340.00000000000000000000
2986283.25000000000000000000
43918.76171875000000000000
6460856.50000000000000000000
-6176509.50000000000000000000
-248915.43750000000000000000
77099.67187500000000000000
-6261077.00000000000000000000
144746.03125000000000000000
-5337600.50000000000000000000
-14059137.00000000000000000000
1939299.75000000000000000000
785780.43750000000000000000
736452.06250000000000000000
3356596.75000000000000000000
-1688491.75000000000000000000
484886.15625000000000000000
7957794.00000000000000000000
2959753.50000000000000000000
-5262488.00000000000000000000
3483579.50000000000000000000
-5570626.00000000000000000000
1665608.12500000000000000000
1642472.25000000000000000000
-3546579.00000000000000000000
-1699770.50000000000000000000
-35364.80078125000000000000
3343587.00000000000000000000
-862230.81250000000000000000
-1868818.75000000000000000000
-5185256.00000000000000000000
-2325479.00000000000000000000
755557.18750000000000000000
2154485.00000000000000000000
-2770701.50000000000000000000
5755078.00000000000000000000
3240319.50000000000000000000
1650421.12500000000000000000
-657363.43750000000000000000
-7848618.00000000000000000000
824652.00000000000000000000
-919650.37500000000000000000
-4541703.00000000000000000000
5668951.00000000000000000000
-159553.09375000000000000000
-2152009.00000000000000000000
43642.55078125000000000000
-1040124.12500000000000000000
-1528127.25000000000000000000
1935175.75000000000000000000
-8048042.00000000000000000000
7903868.00000000000000000000
-362463.75000000000000000000
3943526.50000000000000000000
3131541.00000000000000000000
-2335478.50000000000000000000
-5221325.00000000000000000000
-2594396.00000000000000000000
-2511210.50000000000000000000
-2463056.00000000000000000000
-1671242.12500000000000000000
3353917.50000000000000000000
-7163508.00000000000000000000
-2204009.50000000000000000000
-2821688.50000000000000000000
-3632427.50000000000000000000
-1323391.12500000000000000000
-1744892.00000000000000000000
6286379.00000000000000000000
-8941007.00000000000000000000
-2266329.00000000000000000000
6921187.00000000000000000000
936804.06250000000000000000
-2287038.50000000000000000000
-1195408.37500000000000000000
2222585.50000000000000000000
-2382218.50000000000000000000
598714.06250000000000000000
2265304.00000000000000000000
-2803820.50000000000000000000
-466222.75000000000000000000
2468085.50000000000000000000
-2484984.00000000000000000000
-21419200.00000000000000000000
-10204459.00000000000000000000
-759221.18750000000000000000
4545394.50000000000000000000
4287143.50000000000000000000
2910697.25000000000000000000
1580618.87500000000000000000
-210488.85937500000000000000
-9537355.00000000000000000000
7654563.00000000000000000000
1251834.25000000000000000000
-2482403.25000000000000000000
2558341.25000000000000000000
142555.95312500000000000000
7131730.00000000000000000000
-2288143.75000000000000000000
8016149.00000000000000000000
-7412940.50000000000000000000
782979.68750000000000000000
-19675012.00000000000000000000
-1044500.31250000000000000000
-2666023.00000000000000000000
4014820.25000000000000000000
1531019.50000000000000000000
-7012388.50000000000000000000
-4903361.50000000000000000000
-3475243.75000000000000000000
5147638.00000000000000000000
652326.81250000000000000000
2753052.25000000000000000000
3010694.75000000000000000000
1782542.37500000000000000000
21969004.00000000000000000000
-9657190.00000000000000000000
585041.06250000000000000000
-6124415.50000000000000000000
-313239.59375000000000000000
8725140.00000000000000000000
-2383473.00000000000000000000
2985772.50000000000000000000
5901155.50000000000000000000
1863580.87500000000000000000
-3508155.00000000000000000000
-8649584.00000000000000000000
13516249.00000000000000000000
-3856326.75000000000000000000
-5738502.50000000000000000000
-4193362.25000000000000000000
4472308.00000000000000000000
506445.28125000000000000000
12556115.00000000000000000000
-8241371.50000000000000000000
2255141.75000000000000000000
6640347.50000000000000000000
5707257.50000000000000000000
9845083.00000000000000000000
-5065247.50000000000000000000
-1566143.37500000000000000000
-8915583.00000000000000000000
-2151368.25000000000000000000
1766156.12500000000000000000
1606856.12500000000000000000
4687608.00000000000000000000
1034299.93750000000000000000
6470126.00000000000000000000
2456501.75000000000000000000
-3889907.75000000000000000000
-866143.62500000000000000000
-3201045.25000000000000000000
2317420.25000000000000000000
-1941379.37500000000000000000
-2991259.25000000000000000000
460571.31250000000000000000
-7338904.00000000000000000000
5565989.00000000000000000000
-2849707.50000000000000000000
202227.21875000000000000000
-2202181.50000000000000000000
5191602.00000000000000000000
4541833.00000000000000000000
4828862.00000000000000000000
293129.81250000000000000000
-3335890.75000000000000000000
6661814.50000000000000000000
-135349.65625000000000000000
-2481642.75000000000000000000
-3805509.25000000000000000000
731543.93750000000000000000
2890402.75000000000000000000
1273079.50000000000000000000
1249309.00000000000000000000
4009579.00000000000000000000
5169502.00000000000000000000
3203793.25000000000000000000
-572525.12500000000000000000
4818780.50000000000000000000
6407906.50000000000000000000
-7093681.50000000000000000000
1912412.87500000000000000000
-5094819.50000000000000000000
2134859.50000000000000000000
-7042793.50000000000000000000
123460.63281250000000000000
253710.01562500000000000000
-2881561.50000000000000000000
-1701777.25000000000000000000
-682821.56250000000000000000
-399761.53125000000000000000
-190422.90625000000000000000
793015.12500000000000000000
3958785.50000000000000000000
-3797518.50000000000000000000
2221408.50000000000000000000
-3704893.00000000000000000000
-937251.87500000000000000000
4557270.00000000000000000000
1029280.81250000000000000000
-6000255.50000000000000000000
2628984.50000000000000000000
-4157612.50000000000000000000
-274841.62500000000000000000
-3333152.00000000000000000000
6525873.00000000000000000000
-6418740.00000000000000000000
-4827188.00000000000000000000
-307270.15625000000000000000
-2526981.00000000000000000000
-5047400.00000000000000000000
1353847.62500000000000000000
-204963.89062500000000000000
-2054689.12500000000000000000
-2117217.25000000000000000000
-115734.16406250000000000000
-1409499.62500000000000000000
821892.25000000000000000000
3631299.00000000000000000000
-108661.58593750000000000000
802748.87500000000000000000
-186010.12500000000000000000
322317.62500000000000000000
1354596.62500000000000000000
294121.25000000000000000000
-971132.06250000000000000000
-1726216.37500000000000000000
1460607.12500000000000000000
-2062906.00000000000000000000
2000181.62500000000000000000
441850.21875000000000000000
478060.96875000000000000000
1887906.87500000000000000000
232660.12500000000000000000
1833168.37500000000000000000
644689.12500000000000000000
1362411.62500000000000000000
2344116.50000000000000000000
2951370.50000000000000000000
882099.37500000000000000000
3289465.50000000000000000000
1064329.75000000000000000000
1127534.62500000000000000000
-1777507.37500000000000000000
985572.37500000000000000000
-505075.78125000000000000000
-530272.37500000000000000000
2983.03076171875000000000
1166104.62500000000000000000
-2715157.00000000000000000000
-4310205.00000000000000000000
-746961.12500000000000000000
178794.79687500000000000000
-1473607.37500000000000000000
770040.75000000000000000000
-1538583.62500000000000000000
2018012.12500000000000000000
-5308636.50000000000000000000
1962464.87500000000000000000
-1308043.37500000000000000000
2035416.37500000000000000000
1956711.37500000000000000000
2196105.25000000000000000000
986183.25000000000000000000
276746.31250000000000000000
-2209603.50000000000000000000
1122469.62500000000000000000
1473837.62500000000000000000
-1993170.87500000000000000000
59550.99609375000000000000
-464818.28125000000000000000
-2930863.00000000000000000000
-594072.75000000000000000000
-585965.75000000000000000000
-515337.40625000000000000000
-1877273.25000000000000000000
25296178.00000000000000000000
-3701747.50000000000000000000
35787236.00000000000000000000
-14876358.00000000000000000000
7571388.00000000000000000000
-4193693.00000000000000000000
470725.25000000000000000000
1212971.75000000000000000000
-2519052.50000000000000000000
1274697.25000000000000000000
-2608702.00000000000000000000
-3236660.00000000000000000000
1106384.75000000000000000000
-27977702.00000000000000000000
4086267.75000000000000000000
-4178174.25000000000000000000
-6339546.00000000000000000000
4744310.00000000000000000000
-6610249.00000000000000000000
-8142081.00000000000000000000
1780897.00000000000000000000
14083754.00000000000000000000
1025257.37500000000000000000
146957.79687500000000000000
6627470.00000000000000000000
-5615383.00000000000000000000
-14117836.00000000000000000000
-8980702.00000000000000000000
-69678.66406250000000000000
3994371.00000000000000000000
2838017.00000000000000000000
16695220.00000000000000000000
-3968881.50000000000000000000
-2076450.25000000000000000000
22503320.00000000000000000000
-1371767.00000000000000000000
-5641705.00000000000000000000
-4882582.00000000000000000000
-4580033.00000000000000000000
7549280.00000000000000000000
5234223.00000000000000000000
-4451238.00000000000000000000
4707716.00000000000000000000
-6643925.00000000000000000000
2420036.50000000000000000000
2610808.50000000000000000000
3873077.25000000000000000000
7330324.00000000000000000000
-6928543.00000000000000000000
-6487039.00000000000000000000
-2885442.50000000000000000000
-5749106.00000000000000000000
8032183.00000000000000000000
-1441149.00000000000000000000
-554502.81250000000000000000
49599644.00000000000000000000
4249650.00000000000000000000
-3296385.50000000000000000000
-2151228.50000000000000000000
-301881.87500000000000000000
4863003.00000000000000000000
-210735.34375000000000000000
-4926196.00000000000000000000
-7119.29931640625000000000
-7746021.00000000000000000000
1352441.87500000000000000000
-3255804.25000000000000000000
-5788521.00000000000000000000
-2647833.75000000000000000000
1250557.87500000000000000000
-5604067.50000000000000000000
283419.00000000000000000000
-3089637.75000000000000000000
939473.87500000000000000000
-2448376.25000000000000000000
-7791135.50000000000000000000
2603282.25000000000000000000
3599197.25000000000000000000
-11334697.00000000000000000000
9473726.00000000000000000000
3382806.25000000000000000000
2163006.25000000000000000000
674081.87500000000000000000
-4970474.50000000000000000000
-1000998.12500000000000000000
539532.75000000000000000000
-6456964.00000000000000000000
-5263717.00000000000000000000
-1854126.00000000000000000000
4295007.00000000000000000000
-7141589.50000000000000000000
3627878.25000000000000000000
3249057.25000000000000000000
-3780192.25000000000000000000
-2904053.75000000000000000000
5201325.50000000000000000000
8680948.00000000000000000000
3548921.25000000000000000000
-3638714.25000000000000000000
10892136.00000000000000000000
4702566.00000000000000000000
-2414813.75000000000000000000
1415506.87500000000000000000
862660.31250000000000000000
2397307.25000000000000000000
28529.73437500000000000000
1451180.00000000000000000000
-3364565.25000000000000000000
4308580.00000000000000000000
-4330401.50000000000000000000
7180807.00000000000000000000
12558053.00000000000000000000
-2426404.25000000000000000000
-2020904.75000000000000000000
7378879.00000000000000000000
-3141482.75000000000000000000
-8490152.00000000000000000000
19718874.00000000000000000000
-658111.06250000000000000000
795906.31250000000000000000
-2270256.75000000000000000000
-4237835.50000000000000000000
8135367.50000000000000000000
-4796885.50000000000000000000
-13836730.00000000000000000000
-2780395.25000000000000000000
-3049857.75000000000000000000
9622591.00000000000000000000
-470567.00000000000000000000
-3406527.25000000000000000000
-691345.31250000000000000000
2145375.75000000000000000000
2323835.00000000000000000000
723757.37500000000000000000
-2255456.50000000000000000000
-2046192.62500000000000000000
3304562.75000000000000000000
-2887817.50000000000000000000
5753322.00000000000000000000
2713199.75000000000000000000
4450044.50000000000000000000
-891734.31250000000000000000
1487263.25000000000000000000
1116037.87500000000000000000
-9818821.00000000000000000000
-2177223.25000000000000000000
1338833.00000000000000000000
-1396103.75000000000000000000
-3620684.25000000000000000000
1157072.00000000000000000000
-26980.62304687500000000000
-645557.93750000000000000000
3310929.25000000000000000000
1449191.00000000000000000000
7420783.00000000000000000000
-1625101.75000000000000000000
-1243140.00000000000000000000
3150108.25000000000000000000
-1766878.87500000000000000000
7124520.00000000000000000000
3623969.75000000000000000000
4890958.00000000000000000000
2403160.00000000000000000000
-1379277.50000000000000000000
-5236577.00000000000000000000
-4855626.00000000000000000000
-3428367.50000000000000000000
-6593138.00000000000000000000
6412674.00000000000000000000
-2505759.00000000000000000000
755869.25000000000000000000
-3456316.25000000000000000000
-4629345.00000000000000000000
735968.75000000000000000000
2059343.25000000000000000000
-9296999.00000000000000000000
-315693.87500000000000000000
-6736462.00000000000000000000
-2937947.00000000000000000000
-2771817.75000000000000000000
-2389179.00000000000000000000
3478799.50000000000000000000
-2555857.25000000000000000000
-1847063.00000000000000000000
-1595960.50000000000000000000
1411663.00000000000000000000
4956280.00000000000000000000
-10076546.00000000000000000000
5833136.00000000000000000000
-402902.06250000000000000000
-2429855.75000000000000000000
1928622.25000000000000000000
-5433835.00000000000000000000
1094167.50000000000000000000
4558310.00000000000000000000
1469228.12500000000000000000
3606879.00000000000000000000
7117104.00000000000000000000
1971593.62500000000000000000
-2312635.50000000000000000000
6614447.50000000000000000000
1421847.62500000000000000000
2181150.25000000000000000000
2449834.75000000000000000000
-1972892.87500000000000000000
3547910.50000000000000000000
2897892.00000000000000000000
-3139541.00000000000000000000
1786263.37500000000000000000
-5178687.50000000000000000000
3590166.50000000000000000000
1511581.87500000000000000000
972833.68750000000000000000
-9220467.00000000000000000000
-2764208.50000000000000000000
-5598778.50000000000000000000
7086282.50000000000000000000
478681.56250000000000000000
-5372228.50000000000000000000
1014510.81250000000000000000
-8340336.50000000000000000000
-1112852.12500000000000000000
-5065917.50000000000000000000
3854553.50000000000000000000
-2851131.50000000000000000000
3397514.00000000000000000000
3117162.75000000000000000000
6643123.50000000000000000000
3523739.50000000000000000000
6112731.00000000000000000000
2589145.25000000000000000000
219539.82812500000000000000
-539623.06250000000000000000
-4902083.50000000000000000000
-2051310.37500000000000000000
-1086119.00000000000000000000
1143923.37500000000000000000
1605339.12500000000000000000
-7110101.00000000000000000000
1666747.37500000000000000000
6019394.50000000000000000000
8478738.00000000000000000000
-5494329.00000000000000000000
-1032167.31250000000000000000
-1956005.62500000000000000000
-8222500.50000000000000000000
-4601982.50000000000000000000
5028452.00000000000000000000
-13135621.00000000000000000000
4358073.00000000000000000000
8965865.00000000000000000000
-2703677.00000000000000000000
12341297.00000000000000000000
4222748.50000000000000000000
-10843194.00000000000000000000
-3739223.00000000000000000000
-3628996.00000000000000000000
6298800.00000000000000000000
-26028.49609375000000000000
-2984569.50000000000000000000
771391.18750000000000000000
1357053.25000000000000000000
1733597.00000000000000000000
-9184867.00000000000000000000
-7333710.50000000000000000000
20320278.00000000000000000000
-6247786.00000000000000000000
4313580.00000000000000000000
-18612214.00000000000000000000
-469738.28125000000000000000
9650176.00000000000000000000
-5015349.50000000000000000000
-3044584.00000000000000000000
-4809212.00000000000000000000
4739052.00000000000000000000
2678061.50000000000000000000
2945839.00000000000000000000
-5595409.00000000000000000000
-6031691.00000000000000000000
-2436487.00000000000000000000
1379654.50000000000000000000
9107353.00000000000000000000
15653694.00000000000000000000
6497723.50000000000000000000
-2771271.50000000000000000000
3634626.50000000000000000000
-2109807.50000000000000000000
2461971.50000000000000000000
1746791.25000000000000000000
7355529.50000000000000000000
218222.81250000000000000000
9071956.00000000000000000000
3854246.50000000000000000000
-1603625.00000000000000000000
-617127.31250000000000000000
-5390459.00000000000000000000
9986422.00000000000000000000
6309595.50000000000000000000
-5879362.50000000000000000000
7968032.50000000000000000000
-2102105.00000000000000000000
-227204.51562500000000000000
2315785.00000000000000000000
3719800.50000000000000000000
-8171769.00000000000000000000
-2805895.00000000000000000000
-4270487.00000000000000000000
-1995492.50000000000000000000
-1385627.25000000000000000000
6156103.00000000000000000000
-4565646.50000000000000000000
2798058.50000000000000000000
-21027584.00000000000000000000
-8606201.00000000000000000000
3530683.50000000000000000000
9398068.00000000000000000000
-601399.50000000000000000000
4153701.00000000000000000000
2655200.00000000000000000000
-7145944.50000000000000000000
-1736089.50000000000000000000
564842.81250000000000000000
-5070135.00000000000000000000
2978812.00000000000000000000
262615.68750000000000000000
7123444.50000000000000000000
3264826.50000000000000000000
6649106.00000000000000000000
13178321.00000000000000000000
4534007.00000000000000000000
3826613.00000000000000000000
3254923.00000000000000000000
3965197.00000000000000000000
-2148371.00000000000000000000
-2922995.00000000000000000000
3438538.50000000000000000000
2466417.50000000000000000000
-5048966.50000000000000000000
4269862.50000000000000000000
-2538526.00000000000000000000
-7677959.50000000000000000000
4931699.50000000000000000000
-7113180.50000000000000000000
8547931.00000000000000000000
-755091.81250000000000000000
-1548471.37500000000000000000
3839701.00000000000000000000
-3059714.50000000000000000000
4398943.00000000000000000000
-7809601.00000000000000000000
-936117.62500000000000000000
-1177680.25000000000000000000
3688516.50000000000000000000
5855576.50000000000000000000
-3961741.00000000000000000000
-438953.75000000000000000000
6336365.00000000000000000000
-4111107.50000000000000000000
5290350.00000000000000000000
304868.00000000000000000000
-12512595.00000000000000000000
-3255447.50000000000000000000
9421177.00000000000000000000
-767836.12500000000000000000
8649463.00000000000000000000
1441941.87500000000000000000
-2640873.00000000000000000000
-3198584.50000000000000000000
-720472.75000000000000000000
364105.87500000000000000000
1830723.37500000000000000000
4086873.50000000000000000000
-4465838.50000000000000000000
-1461853.37500000000000000000
4679043.00000000000000000000
-3245820.50000000000000000000
-4033721.00000000000000000000
13388687.00000000000000000000
4068114.00000000000000000000
-5274529.00000000000000000000
-8295283.50000000000000000000
4178333.00000000000000000000
-16248720.00000000000000000000
119091.60937500000000000000
-1313018.12500000000000000000
1219349.12500000000000000000
-6008293.00000000000000000000
722120.18750000000000000000
-11790127.00000000000000000000
1121711.87500000000000000000
-2367409.75000000000000000000
-5291006.50000000000000000000
3405026.00000000000000000000
10688760.00000000000000000000
3217550.00000000000000000000
-6225576.50000000000000000000
-2060966.00000000000000000000
5785062.50000000000000000000
-1488664.75000000000000000000
727131.68750000000000000000
10538634.00000000000000000000
-3766639.50000000000000000000
1065423.50000000000000000000
-2873181.00000000000000000000
1480489.25000000000000000000
-5333095.50000000000000000000
5513407.50000000000000000000
8227979.50000000000000000000
1944812.25000000000000000000
2278298.00000000000000000000
-1229337.75000000000000000000
-5827694.50000000000000000000
4241906.00000000000000000000
312879.68750000000000000000
-7556999.00000000000000000000
468231.65625000000000000000
-3983621.50000000000000000000
-5356514.50000000000000000000
6526444.00000000000000000000
-3443059.00000000000000000000
-6304183.50000000000000000000
-2947574.00000000000000000000
-15925.95703125000000000000
710223.37500000000000000000
-142661.35937500000000000000
5725263.50000000000000000000
-5447955.00000000000000000000
-1874397.50000000000000000000
-310530.37500000000000000000
519622.96875000000000000000
-7703512.50000000000000000000
-2724096.50000000000000000000
115386.94531250000000000000
-1833414.25000000000000000000
-3410602.50000000000000000000
-2206072.50000000000000000000
3282677.00000000000000000000
-7306101.50000000000000000000
-1926145.50000000000000000000
4899713.00000000000000000000
3851260.00000000000000000000
1729464.75000000000000000000
4480668.50000000000000000000
-12627016.00000000000000000000
2548449.75000000000000000000
-429857.93750000000000000000
-9147188.00000000000000000000
-7089098.50000000000000000000
-641655.43750000000000000000
1655182.75000000000000000000
-306710.40625000000000000000
5213128.00000000000000000000
-2044274.50000000000000000000
13325574.00000000000000000000
3692375.50000000000000000000
21688514.00000000000000000000
3802433.50000000000000000000
2488087.25000000000000000000
-3122332.50000000000000000000
6441843.00000000000000000000
20141008.00000000000000000000
2368439.50000000000000000000
-4089433.50000000000000000000
5019958.00000000000000000000
-687588.50000000000000000000
-18522238.00000000000000000000
-347887.93750000000000000000
8337315.00000000000000000000
10367872.00000000000000000000
7564884.00000000000000000000
4868852.50000000000000000000
11675776.00000000000000000000
15077179.00000000000000000000
-13018654.00000000000000000000
19256714.00000000000000000000
12644066.00000000000000000000
11658800.00000000000000000000
5699065.00000000000000000000
-642158.00000000000000000000
8749137.00000000000000000000
-12934634.00000000000000000000
9995786.00000000000000000000
-5792009.00000000000000000000
2554356.00000000000000000000
2810320.50000000000000000000
7285966.00000000000000000000
-2471145.50000000000000000000
-6116173.00000000000000000000
8500278.00000000000000000000
17235626.00000000000000000000
-7969561.50000000000000000000
-1928953.62500000000000000000
17962224.00000000000000000000
-5177089.00000000000000000000
-2311714.25000000000000000000
-7023413.00000000000000000000
8362848.50000000000000000000
2013136.87500000000000000000
14460450.00000000000000000000
7043229.00000000000000000000
10763622.00000000000000000000
9460472.00000000000000000000
-5018638.00000000000000000000
1724922.62500000000000000000
-8066840.00000000000000000000
12760752.00000000000000000000
12573284.00000000000000000000
43946520.00000000000000000000
17501362.00000000000000000000
5761235.00000000000000000000
-7093915.00000000000000000000
-16851860.00000000000000000000
-13250634.00000000000000000000
-15566116.00000000000000000000
15857455.00000000000000000000
-16347877.00000000000000000000
6671776.00000000000000000000
9359175.00000000000000000000
22006946.00000000000000000000
-2641762.00000000000000000000
1484039.25000000000000000000
-1857768.00000000000000000000
3283007.00000000000000000000
1463602.25000000000000000000
-1162644.25000000000000000000
1208811.37500000000000000000
-1701114.37500000000000000000
1077631.50000000000000000000
6466489.00000000000000000000
-941389.81250000000000000000
-319070.25000000000000000000
1506433.75000000000000000000
-73599.10156250000000000000
2350919.50000000000000000000
-1288592.62500000000000000000
543140.06250000000000000000
989691.81250000000000000000
-194896.21875000000000000000
-4572375.50000000000000000000
3003366.75000000000000000000
407411.62500000000000000000
1020979.68750000000000000000
2364276.00000000000000000000
-337992.84375000000000000000
-728319.43750000000000000000
-534539.56250000000000000000
-287884.03125000000000000000
1432221.50000000000000000000
1545184.25000000000000000000
-2173417.50000000000000000000
5646187.50000000000000000000
14564.10449218750000000000
-2105708.00000000000000000000
-1630765.37500000000000000000
-4818313.50000000000000000000
3070121.25000000000000000000
-991800.43750000000000000000
405681.90625000000000000000
1281373.00000000000000000000
-2696389.50000000000000000000
-3802702.00000000000000000000
-898291.68750000000000000000
2393412.25000000000000000000
1998749.00000000000000000000
363920.00000000000000000000
-5109841.00000000000000000000
1330321.75000000000000000000
2264833.25000000000000000000
-4686363.50000000000000000000
-3092155.00000000000000000000
-93228.19531250000000000000
1110557.25000000000000000000
-2721046.75000000000000000000
-1733689.50000000000000000000
-5820839.50000000000000000000
5896.06884765625000000000
-302731.53125000000000000000
-1416.50378417968750000000
4306388.50000000000000000000
3186179.00000000000000000000
-813575.31250000000000000000
-966272.68750000000000000000
590209.87500000000000000000
2606091.50000000000000000000
-5913820.50000000000000000000
-6126350.50000000000000000000
-9765820.00000000000000000000
8751980.00000000000000000000
8165726.50000000000000000000
1549681.12500000000000000000
5637998.50000000000000000000
3455125.00000000000000000000
1792575.00000000000000000000
9381986.00000000000000000000
-2271737.50000000000000000000
-4374755.50000000000000000000
-4265850.00000000000000000000
1794357.50000000000000000000
454401.93750000000000000000
-2942644.00000000000000000000
-5925585.50000000000000000000
-1091826.62500000000000000000
6111672.50000000000000000000
-1963067.50000000000000000000
-5031854.50000000000000000000
1468874.87500000000000000000
2494888.50000000000000000000
-59551.86718750000000000000
81619.80468750000000000000
-5909279.50000000000000000000
5373968.00000000000000000000
-4155742.00000000000000000000
-779367.00000000000000000000
-1795448.25000000000000000000
-5994809.00000000000000000000
618926.00000000000000000000
-11244921.00000000000000000000
2794423.50000000000000000000
-1506046.00000000000000000000
-27739380.00000000000000000000
8681546.00000000000000000000
-8839460.00000000000000000000
1917660.75000000000000000000
5393055.50000000000000000000
5538652.50000000000000000000
-6186521.50000000000000000000
-3913705.50000000000000000000
3675565.50000000000000000000
3169123.50000000000000000000
9756564.00000000000000000000
-2347145.50000000000000000000
4007522.25000000000000000000
138173.21875000000000000000
8002459.00000000000000000000
-7486106.00000000000000000000
-8187528.00000000000000000000
8156602.00000000000000000000
770641.12500000000000000000
13734419.00000000000000000000
-4810923.00000000000000000000
-9275774.00000000000000000000
11000372.00000000000000000000
-7116161.50000000000000000000
11884.13964843750000000000
34244184.00000000000000000000
4165192.50000000000000000000
29294.40625000000000000000
1064887.25000000000000000000
8393414.00000000000000000000
1347184.25000000000000000000
1463731.00000000000000000000
-2171232.75000000000000000000
3442451.25000000000000000000
-2375161.50000000000000000000
-4579070.50000000000000000000
2567267.00000000000000000000
-1239474.75000000000000000000
-2736085.25000000000000000000
3886457.75000000000000000000
1432241.75000000000000000000
-2021795.25000000000000000000
525562.18750000000000000000
3397254.75000000000000000000
4552142.50000000000000000000
4584242.50000000000000000000
1782461.25000000000000000000
3136996.00000000000000000000
-6038132.50000000000000000000
-6073158.50000000000000000000
-1182347.25000000000000000000
6491101.50000000000000000000
-183364.62500000000000000000
-69653.10937500000000000000
3199561.75000000000000000000
74453.53125000000000000000
-2840783.75000000000000000000
2207330.25000000000000000000
2199904.00000000000000000000
1418576.75000000000000000000
4033492.75000000000000000000
-2337420.25000000000000000000
-1668930.25000000000000000000
5094388.50000000000000000000
-374979.31250000000000000000
-6881574.50000000000000000000
-1283371.25000000000000000000
2573263.25000000000000000000
456074.75000000000000000000
1037659.00000000000000000000
-983388.31250000000000000000
-1285335.50000000000000000000
1880224.25000000000000000000
2361344.25000000000000000000
1773662.75000000000000000000
496084.25000000000000000000
-3127474.25000000000000000000
-4945565.50000000000000000000
602738.87500000000000000000
2058432.37500000000000000000
-5293074.00000000000000000000
-320482.81250000000000000000
2140473.25000000000000000000
-3354049.25000000000000000000
-1429970.75000000000000000000
474340.37500000000000000000
-4668518.00000000000000000000
1953832.00000000000000000000
7196560.00000000000000000000
3994117.00000000000000000000
6996292.50000000000000000000
-6092822.50000000000000000000
-4699045.50000000000000000000
1800102.50000000000000000000
3946477.25000000000000000000
-4227762.50000000000000000000
28610.55078125000000000000
-2361037.50000000000000000000
109103.39843750000000000000
430391.81250000000000000000
2505170.25000000000000000000
-1966268.12500000000000000000
247101.04687500000000000000
869397.81250000000000000000
386206.50000000000000000000
1080818.62500000000000000000
258426.00000000000000000000
2073037.00000000000000000000
240004.75000000000000000000
1056708.62500000000000000000
1257235.37500000000000000000
-1434863.87500000000000000000
2016923.37500000000000000000
2577898.75000000000000000000
-4095903.50000000000000000000
-3811808.75000000000000000000
165249.09375000000000000000
1849213.87500000000000000000
2661859.25000000000000000000
41405.43359375000000000000
-1668951.37500000000000000000
3444100.50000000000000000000
1067197.87500000000000000000
-2026107.25000000000000000000
1839866.12500000000000000000
1962827.25000000000000000000
-1225647.25000000000000000000
2403942.50000000000000000000
3746130.00000000000000000000
1889681.62500000000000000000
-3134654.00000000000000000000
1483994.62500000000000000000
-225875.53125000000000000000
-2384931.75000000000000000000
-1241762.62500000000000000000
2232651.00000000000000000000
-1847875.12500000000000000000
-1223972.12500000000000000000
2129785.50000000000000000000
-1147480.62500000000000000000
-521126.84375000000000000000
-677708.50000000000000000000
244588.90625000000000000000
2627497.50000000000000000000
-2015184.62500000000000000000
-897640.62500000000000000000
-2778100.25000000000000000000
1511183.37500000000000000000
1378267.62500000000000000000
-2780047.50000000000000000000
2122756.25000000000000000000
-1078796.12500000000000000000
-627225.18750000000000000000
5446563.50000000000000000000
-897058.43750000000000000000
-1321660.37500000000000000000
-897500.93750000000000000000
-1151705.75000000000000000000
2027202.50000000000000000000
-1946846.37500000000000000000
-1184766.12500000000000000000
-7580135.50000000000000000000
-62982.89843750000000000000
-1164666.75000000000000000000
1752389.25000000000000000000
4462525.50000000000000000000
1946118.00000000000000000000
-820179.56250000000000000000
3823779.50000000000000000000
-4916725.50000000000000000000
251868.03125000000000000000
1384278.75000000000000000000
-2501289.25000000000000000000
-1430096.25000000000000000000
380343.78125000000000000000
2484179.75000000000000000000
-3092402.50000000000000000000
-2374429.25000000000000000000
1697663.25000000000000000000
-9503272.00000000000000000000
-300375.28125000000000000000
7842086.00000000000000000000
3660801.50000000000000000000
4848513.00000000000000000000
2730580.25000000000000000000
-2107578.50000000000000000000
-1315642.25000000000000000000
4798409.50000000000000000000
1050254.12500000000000000000
-2013043.75000000000000000000
-2012093.25000000000000000000
3037183.50000000000000000000
-4052964.50000000000000000000
216643.93750000000000000000
-5882527.00000000000000000000
-2229598.25000000000000000000
5500256.50000000000000000000
-4590185.50000000000000000000
4605386.00000000000000000000
-6158822.50000000000000000000
-6848311.50000000000000000000
1638043.50000000000000000000
-3195515.50000000000000000000
-1343294.50000000000000000000
-1406854.50000000000000000000
-2629133.75000000000000000000
4430829.00000000000000000000
-994989.06250000000000000000
191858.03125000000000000000
-1036084.06250000000000000000
5375914.00000000000000000000
-5424443.50000000000000000000
1502715.50000000000000000000
-1256146.25000000000000000000
-6312143.00000000000000000000
5215815.00000000000000000000
-3871238.50000000000000000000
-110148.57031250000000000000
4839998.50000000000000000000
1340120.37500000000000000000
3498402.50000000000000000000
-5443812.00000000000000000000
-6555239.00000000000000000000
-4429464.50000000000000000000
3223175.50000000000000000000
1180124.00000000000000000000
-16922300.00000000000000000000
-3427490.00000000000000000000
-7821522.00000000000000000000
-3693143.00000000000000000000
7922944.00000000000000000000
-5871162.00000000000000000000
-771600.68750000000000000000
1453776.87500000000000000000
845856.68750000000000000000
-1189925.37500000000000000000
1645695.12500000000000000000
-1646859.62500000000000000000
5771781.00000000000000000000
-5132339.00000000000000000000
3761471.50000000000000000000
1638344.37500000000000000000
12333572.00000000000000000000
-5390278.00000000000000000000
-4510203.50000000000000000000
1033179.43750000000000000000
-2892466.00000000000000000000
10703634.00000000000000000000
4152714.75000000000000000000
-3317244.50000000000000000000
-281998.03125000000000000000
-6577227.50000000000000000000
-10492538.00000000000000000000
-9354132.00000000000000000000
-5139784.00000000000000000000
-3046888.50000000000000000000
283265.93750000000000000000
373590.28125000000000000000
-9155398.00000000000000000000
1386455.75000000000000000000
-7383003.50000000000000000000
2486851.50000000000000000000
8371007.50000000000000000000
-1850718.50000000000000000000
5239941.50000000000000000000
-5496991.00000000000000000000
-4714753.00000000000000000000
-8929900.00000000000000000000
3941485.50000000000000000000
-615444.50000000000000000000
2842301.00000000000000000000
4815463.00000000000000000000
9188872.00000000000000000000
-2731844.50000000000000000000
-4094633.50000000000000000000
3857582.00000000000000000000
252765.40625000000000000000
3413200.50000000000000000000
-4159380.50000000000000000000
3048482.00000000000000000000
2687846.00000000000000000000
-16443814.00000000000000000000
3165757.50000000000000000000
-139217.92187500000000000000
-2893446.50000000000000000000
-7715480.00000000000000000000
-4618385.00000000000000000000
4506757.50000000000000000000
-4162185.75000000000000000000
8271110.00000000000000000000
-4347769.50000000000000000000
-3421333.25000000000000000000
1313683.75000000000000000000
1113833.87500000000000000000
-2415774.25000000000000000000
-1766599.62500000000000000000
3167417.25000000000000000000
49201.57421875000000000000
1714651.12500000000000000000
3742181.25000000000000000000
5659604.50000000000000000000
-1435360.25000000000000000000
996378.00000000000000000000
-3327665.25000000000000000000
1946319.12500000000000000000
-5185359.00000000000000000000
-3877311.25000000000000000000
1280197.87500000000000000000
-3160184.25000000000000000000
-627754.93750000000000000000
1527480.00000000000000000000
-460971.71875000000000000000
5200950.50000000000000000000
-3785865.25000000000000000000
-5285658.50000000000000000000
1996062.00000000000000000000
2553087.25000000000000000000
880665.62500000000000000000
2442116.25000000000000000000
643950.25000000000000000000
2393160.25000000000000000000
1247367.00000000000000000000
-249690.70312500000000000000
-2925686.75000000000000000000
2381222.75000000000000000000
979905.56250000000000000000
1204372.25000000000000000000
-5233658.50000000000000000000
-1113332.25000000000000000000
-97920.87500000000000000000
6719227.00000000000000000000
-756863.93750000000000000000
-2195876.25000000000000000000
768965.18750000000000000000
2008814.12500000000000000000
228458.45312500000000000000
544919.75000000000000000000
1569651.00000000000000000000
-1283236.50000000000000000000
-3585062.25000000000000000000
-2081255.75000000000000000000
-4381505.50000000000000000000
-860155.75000000000000000000
-782003.93750000000000000000
1765679.87500000000000000000
-3476940.75000000000000000000
-34450.41015625000000000000
1443115.87500000000000000000
255657.32812500000000000000
-4128851.50000000000000000000
392860.28125000000000000000
-3127357.25000000000000000000
-2521823.25000000000000000000
1364277.25000000000000000000
-176587.18750000000000000000
4310150.00000000000000000000
13920242.00000000000000000000
-1586611.12500000000000000000
-1119845.12500000000000000000
1373463.12500000000000000000
-6122526.50000000000000000000
7492365.50000000000000000000
-465507.15625000000000000000
-3059765.00000000000000000000
3636636.50000000000000000000
-422812.81250000000000000000
6437413.50000000000000000000
8526164.00000000000000000000
5366751.50000000000000000000
25374402.00000000000000000000
-6488822.50000000000000000000
-2775702.50000000000000000000
-484281.62500000000000000000
6355393.50000000000000000000
-6097173.50000000000000000000
3238727.50000000000000000000
7191528.50000000000000000000
26958040.00000000000000000000
7611847.50000000000000000000
-1016832.37500000000000000000
15835252.00000000000000000000
-7630691.50000000000000000000
-6097760.50000000000000000000
1268314.62500000000000000000
-6249383.50000000000000000000
-943617.25000000000000000000
795039.37500000000000000000
8660102.00000000000000000000
-2838229.00000000000000000000
6541143.50000000000000000000
36082024.00000000000000000000
-285852.56250000000000000000
2707510.25000000000000000000
3813299.00000000000000000000
-17033284.00000000000000000000
-1449945.25000000000000000000
2999881.00000000000000000000
-4771574.50000000000000000000
6689443.50000000000000000000
1132487.62500000000000000000
5762833.50000000000000000000
-608973.56250000000000000000
-5948912.50000000000000000000
-9415550.00000000000000000000
-2895265.00000000000000000000
494999.31250000000000000000
-1253923.62500000000000000000
2433463.50000000000000000000
2773717.00000000000000000000
-23337684.00000000000000000000
-2606161.50000000000000000000
-2026498.62500000000000000000
11969921.00000000000000000000
-13923360.00000000000000000000
-6967909.50000000000000000000
-4220565.00000000000000000000
-5214997.50000000000000000000
3684758.50000000000000000000
-7844725.50000000000000000000
4160125.50000000000000000000
-7724177.50000000000000000000
731308.43750000000000000000
2063466.62500000000000000000
4224180.50000000000000000000
-1472667.37500000000000000000
2943321.25000000000000000000
2607386.00000000000000000000
-2214214.25000000000000000000
-249358.70312500000000000000
-3051189.75000000000000000000
11629625.00000000000000000000
5935958.50000000000000000000
-2385390.25000000000000000000
-10667467.00000000000000000000
-7116404.00000000000000000000
1531550.62500000000000000000
-9632782.00000000000000000000
3142226.25000000000000000000
5300821.00000000000000000000
2221727.75000000000000000000
-133217.68750000000000000000
-4018291.25000000000000000000
16012169.00000000000000000000
6391195.50000000000000000000
9548946.00000000000000000000
1810365.87500000000000000000
-462748.18750000000000000000
3524790.75000000000000000000
11442728.00000000000000000000
-12042006.00000000000000000000
2104224.00000000000000000000
3243420.00000000000000000000
2577375.75000000000000000000
3905118.25000000000000000000
-5225822.00000000000000000000
12561781.00000000000000000000
-5418778.50000000000000000000
5281212.50000000000000000000
-3406413.75000000000000000000
-6005206.00000000000000000000
-3083681.50000000000000000000
-7882787.00000000000000000000
4119572.75000000000000000000
-6603513.00000000000000000000
1587325.12500000000000000000
2175819.25000000000000000000
-1657232.62500000000000000000
3944283.00000000000000000000
-10756536.00000000000000000000
-4700982.00000000000000000000
6563707.00000000000000000000
-998142.31250000000000000000
-391427.25000000000000000000
-554278.81250000000000000000
6197445.00000000000000000000
-7468440.50000000000000000000
4413321.00000000000000000000
1503767.87500000000000000000
11189120.00000000000000000000
2227430.00000000000000000000
-10538359.00000000000000000000
1690386.12500000000000000000
-8690733.00000000000000000000
-8884638.00000000000000000000
4551966.00000000000000000000
-2787235.75000000000000000000
681832.56250000000000000000
1704282.12500000000000000000
2930780.50000000000000000000
2976054.50000000000000000000
328584.56250000000000000000
5499303.50000000000000000000
-3522008.00000000000000000000
271889.93750000000000000000
2335778.50000000000000000000
2679407.50000000000000000000
-2633004.50000000000000000000
-1727017.50000000000000000000
1559773.75000000000000000000
3086392.50000000000000000000
1729082.62500000000000000000
4047746.75000000000000000000
4060313.50000000000000000000
2774342.00000000000000000000
-2634562.00000000000000000000
-3672968.00000000000000000000
1288440.12500000000000000000
-22185.51953125000000000000
5411981.00000000000000000000
-747138.81250000000000000000
290048.18750000000000000000
-1537095.25000000000000000000
-1564525.37500000000000000000
-1321042.00000000000000000000
1175706.87500000000000000000
720044.93750000000000000000
-772229.68750000000000000000
-2484404.50000000000000000000
-754412.68750000000000000000
4392831.50000000000000000000
-3603110.50000000000000000000
-2340608.00000000000000000000
-3257288.00000000000000000000
-3525563.50000000000000000000
-1871616.37500000000000000000
-3382182.00000000000000000000
-6689506.50000000000000000000
5274840.50000000000000000000
-105784.34375000000000000000
-3862384.50000000000000000000
354441.81250000000000000000
-4863397.00000000000000000000
-2962031.00000000000000000000
3835137.00000000000000000000
-836863.93750000000000000000
1009613.56250000000000000000
276384.56250000000000000000
3069179.50000000000000000000
-8288366.50000000000000000000
459306.56250000000000000000
-609672.81250000000000000000
-6359226.00000000000000000000
10008165.00000000000000000000
3762575.00000000000000000000
-1119869.87500000000000000000
2620620.50000000000000000000
-3905588.00000000000000000000
1414277.00000000000000000000
-2625380.50000000000000000000
-670695.43750000000000000000
-2332085.00000000000000000000
269758.87500000000000000000
2669202.25000000000000000000
-4499157.00000000000000000000
-1098425.62500000000000000000
2676637.25000000000000000000
3782933.25000000000000000000
1025267.50000000000000000000
1192207.87500000000000000000
3374984.50000000000000000000
-649065.87500000000000000000
-4212675.00000000000000000000
978110.81250000000000000000
-2302627.00000000000000000000
-2215388.00000000000000000000
62382.17968750000000000000
5221356.00000000000000000000
1343686.62500000000000000000
2988342.25000000000000000000
-260958.06250000000000000000
-996350.43750000000000000000
-1433925.37500000000000000000
2531296.00000000000000000000
2908754.75000000000000000000
714389.18750000000000000000
1087396.12500000000000000000
-87961.25000000000000000000
871769.68750000000000000000
-1877102.87500000000000000000
-1904644.62500000000000000000
-4736701.00000000000000000000
2885914.75000000000000000000
2584577.50000000000000000000
4293766.00000000000000000000
-886936.62500000000000000000
2822840.50000000000000000000
-123647.61718750000000000000
-2680900.75000000000000000000
4776446.00000000000000000000
2855147.50000000000000000000
-3791058.25000000000000000000
-1672107.12500000000000000000
-4756065.00000000000000000000
-2714951.00000000000000000000
3306722.00000000000000000000
3614293.75000000000000000000
2793.94189453125000000000
2876584.25000000000000000000
67353.07031250000000000000
-3602272.75000000000000000000
4969455.00000000000000000000
1289040.62500000000000000000
3714210.25000000000000000000
-2264531.75000000000000000000
788950.87500000000000000000
-4795873.00000000000000000000
-583446.31250000000000000000
-3478998.75000000000000000000
-1858723.37500000000000000000
4035877.25000000000000000000
4485932.00000000000000000000
2225604.75000000000000000000
-3567551.25000000000000000000
-1553583.37500000000000000000
-1370094.12500000000000000000
-4165372.75000000000000000000
-801812.87500000000000000000
5341960.50000000000000000000
7734051.50000000000000000000
-15382890.00000000000000000000
-4836893.00000000000000000000
7771837.00000000000000000000
-1057127.00000000000000000000
1642068.50000000000000000000
4391248.00000000000000000000
1882443.00000000000000000000
6497131.00000000000000000000
-375412.68750000000000000000
1631274.50000000000000000000
-1012961.06250000000000000000
-7029690.00000000000000000000
-6443268.00000000000000000000
-2924609.75000000000000000000
-6046983.50000000000000000000
-1040489.06250000000000000000
2044986.00000000000000000000
2670700.25000000000000000000
5425202.00000000000000000000
349211.75000000000000000000
-6596833.50000000000000000000
-13158949.00000000000000000000
4361044.00000000000000000000
-1781808.50000000000000000000
3201070.25000000000000000000
-1056186.25000000000000000000
-10865455.00000000000000000000
-1757147.50000000000000000000
5304780.00000000000000000000
-1616825.25000000000000000000
-3468370.25000000000000000000
11114707.00000000000000000000
-1905693.00000000000000000000
2151426.50000000000000000000
2667758.75000000000000000000
-1808265.00000000000000000000
-1589387.50000000000000000000
587941.50000000000000000000
7603660.50000000000000000000
4045373.75000000000000000000
3758849.25000000000000000000
423934.25000000000000000000
12823072.00000000000000000000
-8838800.00000000000000000000
-3889521.50000000000000000000
6427250.00000000000000000000
-1065619.00000000000000000000
1754248.50000000000000000000
-8532963.00000000000000000000
-4642058.00000000000000000000
2642132.75000000000000000000
3868313.25000000000000000000
8582456.00000000000000000000
872371.12500000000000000000
7151755.00000000000000000000
-5929518.00000000000000000000
-15299794.00000000000000000000
5895118.00000000000000000000
7107121.00000000000000000000
-7281017.00000000000000000000
-33462.16015625000000000000
-887790.75000000000000000000
-3832206.50000000000000000000
-2299214.75000000000000000000
-12329510.00000000000000000000
-773369.31250000000000000000
-54819.11718750000000000000
6715274.00000000000000000000
518544.09375000000000000000
-324003.03125000000000000000
2035899.00000000000000000000
1285115.00000000000000000000
306677.59375000000000000000
1037097.56250000000000000000
2525496.75000000000000000000
-1662331.75000000000000000000
-132886.73437500000000000000
-756682.68750000000000000000
-689164.31250000000000000000
2041667.25000000000000000000
-1418407.50000000000000000000
-1718093.75000000000000000000
4392993.00000000000000000000
-1371329.75000000000000000000
-1808935.75000000000000000000
-1931137.50000000000000000000
-1184717.75000000000000000000
-3571975.00000000000000000000
5973447.50000000000000000000
-74757.47656250000000000000
-293785.15625000000000000000
-83194.58593750000000000000
274593.34375000000000000000
-6073631.50000000000000000000
-212073.23437500000000000000
-2205443.25000000000000000000
-6143790.50000000000000000000
6943344.00000000000000000000
4432470.00000000000000000000
2753172.00000000000000000000
-2548130.75000000000000000000
-2101630.50000000000000000000
-3491436.75000000000000000000
-1325678.25000000000000000000
1635100.25000000000000000000
2138143.75000000000000000000
-1407790.50000000000000000000
1433658.25000000000000000000
-6911254.50000000000000000000
-3513144.25000000000000000000
4400059.50000000000000000000
-5620608.50000000000000000000
-2618246.00000000000000000000
5290714.00000000000000000000
751383.81250000000000000000
-2477207.00000000000000000000
3439315.50000000000000000000
-7269772.50000000000000000000
200926.34375000000000000000
4906893.50000000000000000000
-5691369.50000000000000000000
4561228.50000000000000000000
74919.77343750000000000000
-3501861.00000000000000000000
-2011112.75000000000000000000
6864394.50000000000000000000
823201.18750000000000000000
1947626.62500000000000000000
258338.87500000000000000000
1704559.50000000000000000000
2082764.25000000000000000000
-2275173.00000000000000000000
-3222927.00000000000000000000
3455971.00000000000000000000
-9301052.00000000000000000000
324853.68750000000000000000
-3487579.50000000000000000000
-5544166.00000000000000000000
6371547.00000000000000000000
-1788930.75000000000000000000
4658487.00000000000000000000
-24507.83398437500000000000
1837269.87500000000000000000
2557418.50000000000000000000
5146769.00000000000000000000
3715504.00000000000000000000
-1027254.06250000000000000000
-1575386.62500000000000000000
5088466.00000000000000000000
4529558.00000000000000000000
-6935594.00000000000000000000
-2019609.62500000000000000000
2747397.50000000000000000000
7230043.00000000000000000000
-3146576.00000000000000000000
2620026.00000000000000000000
1877802.12500000000000000000
-2597569.00000000000000000000
-354848.15625000000000000000
-5226469.00000000000000000000
4462674.00000000000000000000
-4620879.00000000000000000000
-1004111.93750000000000000000
-3941128.50000000000000000000
-3726255.50000000000000000000
-2737938.50000000000000000000
-1823303.12500000000000000000
-200398.96875000000000000000
-5554912.00000000000000000000
2508205.00000000000000000000
2368884.50000000000000000000
-3972146.50000000000000000000
3727614.00000000000000000000
-4521248.00000000000000000000
-5009423.00000000000000000000
-2493720.00000000000000000000
-1970274.75000000000000000000
