0
-759187478937600.00000000000000000000
-24439821434880.00000000000000000000
-261586711216128.00000000000000000000
-1103575337926656.00000000000000000000
94060480036864.00000000000000000000
260947734167552.00000000000000000000
-573288610791424.00000000000000000000
459039326601216.00000000000000000000
360080897736704.00000000000000000000
694086579257344.00000000000000000000
-62893286490112.00000000000000000000
-152135090044928.00000000000000000000
1094391422779392.00000000000000000000
-18165903480848384.00000000000000000000
3361623926374400.00000000000000000000
410905057689600.00000000000000000000
-4078283511562240.00000000000000000000
4445371681996800.00000000000000000000
11271434072489984.00000000000000000000
6425635610165248.00000000000000000000
-4400943734980608.00000000000000000000
7040658820825088.00000000000000000000
8058510772273152.00000000000000000000
7127333945212928.00000000000000000000
-786590242701312.00000000000000000000
4046967562829824.00000000000000000000
26377399914463232.00000000000000000000
17501837112377344.00000000000000000000
524326252052480.00000000000000000000
11827625894871040.00000000000000000000
35906635264163840.00000000000000000000
-39743239355367424.00000000000000000000
-24176263535001600.00000000000000000000
16660084725645312.00000000000000000000
-19883097977782272.00000000000000000000
19476332362596352.00000000000000000000
4737112167415808.00000000000000000000
-1831868647342080.00000000000000000000
-5398959648407552.00000000000000000000
-415015475609600.00000000000000000000
315797805203456.00000000000000000000
-726860333842432.00000000000000000000
-681990340739072.00000000000000000000
316195794321408.00000000000000000000
-7291773911040.00000000000000000000
-126797249249280.00000000000000000000
-14993321885696.00000000000000000000
132593072734208.00000000000000000000
604645026168832.00000000000000000000
-50075539603456.00000000000000000000
-267468148834304.00000000000000000000
-154120656781312.00000000000000000000
-2379379132858368.00000000000000000000
398706142609408.00000000000000000000
697946681114624.00000000000000000000
-2976995109502976.00000000000000000000
-306088561868800.00000000000000000000
1538336892125184.00000000000000000000
293151784828928.00000000000000000000
1367977819635712.00000000000000000000
1770749249454080.00000000000000000000
516122193428480.00000000000000000000
719704247238656.00000000000000000000
1222485936701440.00000000000000000000
-1243936882425856.00000000000000000000
-1741264433184768.00000000000000000000
-2022935770431488.00000000000000000000
788625251893248.00000000000000000000
-278520626413568.00000000000000000000
3941304924897280.00000000000000000000
340007395000320.00000000000000000000
-1296785918132224.00000000000000000000
113761956397056.00000000000000000000
-11502251671552.00000000000000000000
1396582436044800.00000000000000000000
-1205082460782592.00000000000000000000
898277780226048.00000000000000000000
-3137132965134336.00000000000000000000
-1334178440282112.00000000000000000000
-13409822179328.00000000000000000000
1413123697278976.00000000000000000000
-792314226147328.00000000000000000000
1507324409675776.00000000000000000000
148374158311424.00000000000000000000
-1855288701353984.00000000000000000000
174390905929728.00000000000000000000
731644591865856.00000000000000000000
597079441276928.00000000000000000000
-771414445522944.00000000000000000000
138353831837696.00000000000000000000
320731481112576.00000000000000000000
-1422841060786176.00000000000000000000
-910464078839808.00000000000000000000
-898713115426816.00000000000000000000
-2778705059381248.00000000000000000000
1854480844849152.00000000000000000000
196715676172288.00000000000000000000
676434129453056.00000000000000000000
866256248897536.00000000000000000000
305837306281984.00000000000000000000
1412238665580544.00000000000000000000
-102225430970368.00000000000000000000
-258644608286720.00000000000000000000
-255516848685056.00000000000000000000
-2274931165364224.00000000000000000000
451883541987328.00000000000000000000
-1681455537192960.00000000000000000000
-4210825128574976.00000000000000000000
234991938174976.00000000000000000000
-11232525418496.00000000000000000000
-515203707961344.00000000000000000000
850061202292736.00000000000000000000
610023667400704.00000000000000000000
919235140255744.00000000000000000000
193994948608000.00000000000000000000
-19858668388352.00000000000000000000
229272987893760.00000000000000000000
-4859302376374272.00000000000000000000
-2405088001785856.00000000000000000000
3945497081413632.00000000000000000000
-2279722738253824.00000000000000000000
-4457929897934848.00000000000000000000
-1322522301693952.00000000000000000000
9996253987340288.00000000000000000000
4860552748728320.00000000000000000000
-593418384310272.00000000000000000000
-5205023621382144.00000000000000000000
-1531679290163200.00000000000000000000
-6478975345885184.00000000000000000000
9208698719174656.00000000000000000000
-5369492414660608.00000000000000000000
-2421497461211136.00000000000000000000
1463366761578496.00000000000000000000
139057149509632.00000000000000000000
-4263329224720384.00000000000000000000
4073081232424960.00000000000000000000
-880684050677760.00000000000000000000
-687167655378944.00000000000000000000
1979135291293696.00000000000000000000
62700725993472.00000000000000000000
-4044082418548736.00000000000000000000
1315338163585024.00000000000000000000
1901584153837568.00000000000000000000
-1503551951994880.00000000000000000000
-1521573232115712.00000000000000000000
102278019153920.00000000000000000000
484521334013952.00000000000000000000
2418276504174592.00000000000000000000
176582933086208.00000000000000000000
67564013092864.00000000000000000000
623594958749696.00000000000000000000
330238592548864.00000000000000000000
1877975926571008.00000000000000000000
-1237400613289984.00000000000000000000
-2288718815690752.00000000000000000000
-2976045384859648.00000000000000000000
-9525461147189248.00000000000000000000
13052816855662592.00000000000000000000
16230792006991872.00000000000000000000
-2772579362275328.00000000000000000000
-686748023652352.00000000000000000000
21664014757003264.00000000000000000000
20629470952030208.00000000000000000000
13425426743427072.00000000000000000000
-1297317957206016.00000000000000000000
-8990868715339776.00000000000000000000
12444146975375360.00000000000000000000
-22984014973370368.00000000000000000000
24805177743638528.00000000000000000000
-3625351024476160.00000000000000000000
796710594936832.00000000000000000000
2286105059655680.00000000000000000000
-4724979421675520.00000000000000000000
-311857374035968.00000000000000000000
336207053586432.00000000000000000000
-57520852828160.00000000000000000000
1347309631700992.00000000000000000000
221824591855616.00000000000000000000
-340673618247680.00000000000000000000
819936972767232.00000000000000000000
925608536178688.00000000000000000000
770769126686720.00000000000000000000
-974623978029056.00000000000000000000
926431223742464.00000000000000000000
-174513799036928.00000000000000000000
-1504106942300160.00000000000000000000
-451190844293120.00000000000000000000
241908412579840.00000000000000000000
802965879259136.00000000000000000000
533214854643712.00000000000000000000
-291831082385408.00000000000000000000
671568199942144.00000000000000000000
-85271089512448.00000000000000000000
149552355082240.00000000000000000000
-34222532198400.00000000000000000000
-391923617497088.00000000000000000000
885676346179584.00000000000000000000
474946878832640.00000000000000000000
-30170989723648.00000000000000000000
-178020656611328.00000000000000000000
52590515585024.00000000000000000000
-606014382538752.00000000000000000000
-166939120893952.00000000000000000000
318567757119488.00000000000000000000
97079716216832.00000000000000000000
136287256313856.00000000000000000000
153350247022592.00000000000000000000
-309932289163264.00000000000000000000
-3863075048390656.00000000000000000000
897781711503360.00000000000000000000
-4819042963554304.00000000000000000000
-497386103242752.00000000000000000000
-7602224721035264.00000000000000000000
1571368680292352.00000000000000000000
-2933939672973312.00000000000000000000
-1851370483220480.00000000000000000000
5008538531266560.00000000000000000000
4889202328076288.00000000000000000000
-2598781631594496.00000000000000000000
4739740150530048.00000000000000000000
-4471835122991104.00000000000000000000
-9737438184341504.00000000000000000000
-751759265890304.00000000000000000000
14292778208985088.00000000000000000000
-10875180389761024.00000000000000000000
-3946161190731776.00000000000000000000
3846306153889792.00000000000000000000
20174318235287552.00000000000000000000
5607853972783104.00000000000000000000
2565847822368768.00000000000000000000
-8087856136323072.00000000000000000000
4573163065180160.00000000000000000000
-6450419182075904.00000000000000000000
17928537818267648.00000000000000000000
-1732453173559296.00000000000000000000
-21960882913280.00000000000000000000
-1837497738854400.00000000000000000000
834273506492416.00000000000000000000
363819364777984.00000000000000000000
4420459797938176.00000000000000000000
106128381837312.00000000000000000000
-888317818175488.00000000000000000000
484194379628544.00000000000000000000
1359373121093632.00000000000000000000
-267596695863296.00000000000000000000
-1580078605533184.00000000000000000000
216860985393152.00000000000000000000
-701094422380544.00000000000000000000
-1944751393734656.00000000000000000000
711196319678464.00000000000000000000
-271382860529664.00000000000000000000
215901831954432.00000000000000000000
149474341027840.00000000000000000000
1653123114336256.00000000000000000000
267226305265664.00000000000000000000
-1393355707645952.00000000000000000000
1244892781084672.00000000000000000000
149754973519872.00000000000000000000
140564632698880.00000000000000000000
139963815428096.00000000000000000000
27778465491058688.00000000000000000000
-12995217049255936.00000000000000000000
-7998660939874304.00000000000000000000
79692053025390592.00000000000000000000
34836477590372352.00000000000000000000
-49065440101531648.00000000000000000000
-64177106438848512.00000000000000000000
22369993563832320.00000000000000000000
-61279901889593344.00000000000000000000
3261906328485888.00000000000000000000
-29271868569550848.00000000000000000000
-33984390438584320.00000000000000000000
-50198430999379968.00000000000000000000
-804821238022144.00000000000000000000
-212037066031104.00000000000000000000
1154263199776768.00000000000000000000
-428290179334144.00000000000000000000
-179829022392320.00000000000000000000
129091114106880.00000000000000000000
-298784869318656.00000000000000000000
4246311010304.00000000000000000000
92573473439744.00000000000000000000
-331535840444416.00000000000000000000
-108970568056832.00000000000000000000
-322351153545216.00000000000000000000
1047551247646720.00000000000000000000
157766647808000.00000000000000000000
6480662731161600.00000000000000000000
-2902145103822848.00000000000000000000
-1846114114338816.00000000000000000000
-4141823794610176.00000000000000000000
119935778947072.00000000000000000000
-4185240276828160.00000000000000000000
2120345897140224.00000000000000000000
5267147638964224.00000000000000000000
5447841744945152.00000000000000000000
2324556291244032.00000000000000000000
2648751965470720.00000000000000000000
-4044903831044096.00000000000000000000
-4064277623209984.00000000000000000000
598608449634304.00000000000000000000
-3577135184740352.00000000000000000000
-8067569932042240.00000000000000000000
-864175807004672.00000000000000000000
-2783852577685504.00000000000000000000
3138450714787840.00000000000000000000
524657501405184.00000000000000000000
526946282766336.00000000000000000000
-258176356188160.00000000000000000000
2331375625568256.00000000000000000000
-3406572906610688.00000000000000000000
607321528991744.00000000000000000000
-2202218442784768.00000000000000000000
1144774677495808.00000000000000000000
1051235859824640.00000000000000000000
-3167741318004736.00000000000000000000
876493706100736.00000000000000000000
-714249571663872.00000000000000000000
-1046253496434688.00000000000000000000
1127748890263552.00000000000000000000
283717654282240.00000000000000000000
-1725140991737856.00000000000000000000
1962094069022720.00000000000000000000
1661633860468736.00000000000000000000
-232793032359936.00000000000000000000
-1643456350912512.00000000000000000000
-2068965471813632.00000000000000000000
-1472732071985152.00000000000000000000
-1657920055934976.00000000000000000000
3888459915722752.00000000000000000000
3291490331656192.00000000000000000000
2075764136607744.00000000000000000000
673059426009088.00000000000000000000
1727175464058880.00000000000000000000
1920348597518336.00000000000000000000
-863868247080960.00000000000000000000
59122477170688.00000000000000000000
-2173296133013504.00000000000000000000
-2432043484971008.00000000000000000000
-142282586062848.00000000000000000000
2479419927035904.00000000000000000000
-3042257942872064.00000000000000000000
-811035116175360.00000000000000000000
31085341704192.00000000000000000000
83264064716800.00000000000000000000
1826319146942464.00000000000000000000
-183129956417536.00000000000000000000
550011364442112.00000000000000000000
160867161210880.00000000000000000000
1744797446438912.00000000000000000000
1749830745456640.00000000000000000000
-3404473204473856.00000000000000000000
2284673224933376.00000000000000000000
3573084493709312.00000000000000000000
-1670280032288768.00000000000000000000
-11052878219182080.00000000000000000000
2040894505091072.00000000000000000000
3709329714708480.00000000000000000000
2282732705021952.00000000000000000000
4381096691105792.00000000000000000000
-1320710362365952.00000000000000000000
-105438653710336.00000000000000000000
439462328795136.00000000000000000000
3204824065638400.00000000000000000000
-3254638975385600.00000000000000000000
-994652215836672.00000000000000000000
4045609547857920.00000000000000000000
-1018832344842240.00000000000000000000
2831675159478272.00000000000000000000
1779624530935808.00000000000000000000
-2242142311284736.00000000000000000000
-1500243619217408.00000000000000000000
-867501185433600.00000000000000000000
-767050960076800.00000000000000000000
818569428336640.00000000000000000000
3536396614631424.00000000000000000000
93779973373952.00000000000000000000
-460200880373760.00000000000000000000
-139764569210880.00000000000000000000
248319339134976.00000000000000000000
-210705525506048.00000000000000000000
405404882305024.00000000000000000000
116150780297216.00000000000000000000
-423298588475392.00000000000000000000
223287716085760.00000000000000000000
-40435833634816.00000000000000000000
367139038953472.00000000000000000000
-419036269641728.00000000000000000000
-227919351775232.00000000000000000000
252703930318848.00000000000000000000
10846305324630016.00000000000000000000
14441723379843072.00000000000000000000
33317944658231296.00000000000000000000
16465176962269184.00000000000000000000
11709760181108736.00000000000000000000
-21794852345741312.00000000000000000000
-411665266900992.00000000000000000000
20346771909640192.00000000000000000000
-6931953735434240.00000000000000000000
12645933128876032.00000000000000000000
8204279277944832.00000000000000000000
-26140781576192000.00000000000000000000
2763896280580096.00000000000000000000
-3864325957615616.00000000000000000000
-655259605139456.00000000000000000000
1791957663744000.00000000000000000000
-4730371753115648.00000000000000000000
3402187745001472.00000000000000000000
204592696524800.00000000000000000000
-279233674870784.00000000000000000000
605931435982848.00000000000000000000
-274637707542528.00000000000000000000
-3761769923215360.00000000000000000000
1363316974813184.00000000000000000000
640884215382016.00000000000000000000
429896463548416.00000000000000000000
-2356124300869632.00000000000000000000
-2472125193519104.00000000000000000000
2202261660893184.00000000000000000000
1962106551271424.00000000000000000000
1642792375812096.00000000000000000000
1403752481292288.00000000000000000000
3495533222035456.00000000000000000000
2345945496813568.00000000000000000000
2507378016649216.00000000000000000000
476552391294976.00000000000000000000
-2707517050191872.00000000000000000000
-5353398098460672.00000000000000000000
-4596227576430592.00000000000000000000
132507669591228416.00000000000000000000
11253579893440512.00000000000000000000
-112079989087666176.00000000000000000000
329757384144584704.00000000000000000000
71692049371365376.00000000000000000000
-136214647274471424.00000000000000000000
-163703984157097984.00000000000000000000
50111943242940416.00000000000000000000
-93286045424025600.00000000000000000000
66078252237586432.00000000000000000000
-39078395597815808.00000000000000000000
43061814556098560.00000000000000000000
-153935596438421504.00000000000000000000
-2993178009403392.00000000000000000000
-1637320587476992.00000000000000000000
3346003130318848.00000000000000000000
-1367719987380224.00000000000000000000
-1995120354263040.00000000000000000000
1039621597167616.00000000000000000000
1811529561276416.00000000000000000000
2349842911199232.00000000000000000000
-580165725847552.00000000000000000000
567344308944896.00000000000000000000
-192103099400192.00000000000000000000
-1216989989175296.00000000000000000000
4141523415334912.00000000000000000000
-4823950500560896.00000000000000000000
-347060603715584.00000000000000000000
4733314342584320.00000000000000000000
-1251297651064832.00000000000000000000
2844945803116544.00000000000000000000
543829094563840.00000000000000000000
134181128503296.00000000000000000000
-823776807747584.00000000000000000000
-1440077167198208.00000000000000000000
-1737446878347264.00000000000000000000
1865721445351424.00000000000000000000
-1529293301612544.00000000000000000000
-794176094470144.00000000000000000000
-1500358509592576.00000000000000000000
517763005153280.00000000000000000000
1409840060563456.00000000000000000000
-420816130932736.00000000000000000000
-1358762027778048.00000000000000000000
295087674228736.00000000000000000000
-1110590495916032.00000000000000000000
-215234300084224.00000000000000000000
1853806803419136.00000000000000000000
1177707547197440.00000000000000000000
419038685560832.00000000000000000000
-122563116138496.00000000000000000000
507509274050560.00000000000000000000
452728140595200.00000000000000000000
4132786378113024.00000000000000000000
-220032248315904.00000000000000000000
-3324389512708096.00000000000000000000
-4408452411555840.00000000000000000000
620785647484928.00000000000000000000
-964971441684480.00000000000000000000
2322117555126272.00000000000000000000
4083835293663232.00000000000000000000
4589585946378240.00000000000000000000
1501516674367488.00000000000000000000
7271176158052352.00000000000000000000
-4706153506275328.00000000000000000000
-1648477301899264.00000000000000000000
-252987045838848.00000000000000000000
811989806874624.00000000000000000000
-792176720084992.00000000000000000000
1704838010241024.00000000000000000000
-617856479789056.00000000000000000000
-4711710120214528.00000000000000000000
-948292473061376.00000000000000000000
2187905061617664.00000000000000000000
-2174248944664576.00000000000000000000
1693049264537600.00000000000000000000
846094799994880.00000000000000000000
-2096049669799936.00000000000000000000
-868018863210496.00000000000000000000
366511403302912.00000000000000000000
-1424034524823552.00000000000000000000
614108382625792.00000000000000000000
114407744995328.00000000000000000000
645126166675456.00000000000000000000
-787982483193856.00000000000000000000
-898072695537664.00000000000000000000
-781405613195264.00000000000000000000
364760365268992.00000000000000000000
442334118412288.00000000000000000000
-451494881001472.00000000000000000000
-737853034201088.00000000000000000000
-377164566364160.00000000000000000000
480799207981056.00000000000000000000
-571717726502912.00000000000000000000
261950743248896.00000000000000000000
-1141222873759744.00000000000000000000
2443417632112640.00000000000000000000
-587605414510592.00000000000000000000
1077727218106368.00000000000000000000
1676541826170880.00000000000000000000
381634889121792.00000000000000000000
-194191242035200.00000000000000000000
791589047762944.00000000000000000000
-138094883897344.00000000000000000000
-219951835119616.00000000000000000000
-355964070920192.00000000000000000000
10202524942336.00000000000000000000
322466010365952.00000000000000000000
-417144839864320.00000000000000000000
37818000736256.00000000000000000000
236234391683072.00000000000000000000
145498258276352.00000000000000000000
-61929657729024.00000000000000000000
1684948150910976.00000000000000000000
-823383080042496.00000000000000000000
-164528402726912.00000000000000000000
144443072053248.00000000000000000000
-3000328861515776.00000000000000000000
53263541993472.00000000000000000000
6106372437442560.00000000000000000000
-494998101426176.00000000000000000000
1483654039601152.00000000000000000000
647138224635904.00000000000000000000
-2447821852639232.00000000000000000000
-1906515178946560.00000000000000000000
-161820627173376.00000000000000000000
173867792334848.00000000000000000000
-98653351968768.00000000000000000000
2048136088387584.00000000000000000000
997215908659200.00000000000000000000
-1022916523196416.00000000000000000000
3134000860233728.00000000000000000000
2632572286795776.00000000000000000000
15559843381248.00000000000000000000
-9258716834562048.00000000000000000000
2339958849273856.00000000000000000000
3728670757748736.00000000000000000000
2623515811381248.00000000000000000000
1815073446166528.00000000000000000000
474397961879552.00000000000000000000
1569309511909376.00000000000000000000
-749148596862976.00000000000000000000
1338646011576320.00000000000000000000
152755310166016.00000000000000000000
4672973810171904.00000000000000000000
-2160604773089280.00000000000000000000
-915288467963904.00000000000000000000
-6101009633902592.00000000000000000000
107311603384320.00000000000000000000
-2300181814968320.00000000000000000000
1586944513409024.00000000000000000000
5337724152184832.00000000000000000000
3580459489427456.00000000000000000000
1668930338816000.00000000000000000000
2217525437792256.00000000000000000000
-3137036328370176.00000000000000000000
-11492938420846592.00000000000000000000
-1419359452921856.00000000000000000000
14392550299271168.00000000000000000000
-19049794865463296.00000000000000000000
-8783962960822272.00000000000000000000
-270456439439360.00000000000000000000
17813267338493952.00000000000000000000
8318178052538368.00000000000000000000
-2139617146961920.00000000000000000000
-9006231276486656.00000000000000000000
5652951129391104.00000000000000000000
-12740400934551552.00000000000000000000
17004220053979136.00000000000000000000
-495079336706048.00000000000000000000
1935930873085952.00000000000000000000
-1981867293147136.00000000000000000000
-1957410944057344.00000000000000000000
-1971135646269440.00000000000000000000
-264944050241536.00000000000000000000
641538057043968.00000000000000000000
1034083169730560.00000000000000000000
636369466556416.00000000000000000000
-1153158856310784.00000000000000000000
1791931491287040.00000000000000000000
-159246515699712.00000000000000000000
-251298519711744.00000000000000000000
921785344196608.00000000000000000000
-2268580787781632.00000000000000000000
-1044434779111424.00000000000000000000
2305200752689152.00000000000000000000
360806076121088.00000000000000000000
184596050214912.00000000000000000000
1877875129057280.00000000000000000000
625585139220480.00000000000000000000
-273852600942592.00000000000000000000
-3247918425309184.00000000000000000000
-1873914632339456.00000000000000000000
-3049838023278592.00000000000000000000
3245653366931456.00000000000000000000
-9138367555960832.00000000000000000000
-1779669493874688.00000000000000000000
4692308679196672.00000000000000000000
2251076380131328.00000000000000000000
-4001479027326976.00000000000000000000
7319458569781248.00000000000000000000
5666374512803840.00000000000000000000
-6982554892632064.00000000000000000000
4669874454396928.00000000000000000000
-1082518723887104.00000000000000000000
655782114754560.00000000000000000000
-8413730874327040.00000000000000000000
-3569540071948288.00000000000000000000
-1051340885196800.00000000000000000000
847011305750528.00000000000000000000
-3315644959293440.00000000000000000000
-784834070839296.00000000000000000000
11084742581551104.00000000000000000000
-1248684163465216.00000000000000000000
-5871571944079360.00000000000000000000
-449809441882112.00000000000000000000
-2803475746390016.00000000000000000000
3382560281329664.00000000000000000000
430561109737472.00000000000000000000
-865454633517056.00000000000000000000
-3483092580827136.00000000000000000000
-1714107220754432.00000000000000000000
-127487019319296.00000000000000000000
948767201165312.00000000000000000000
-1312792321720320.00000000000000000000
560610337095680.00000000000000000000
480579460005888.00000000000000000000
604459738595328.00000000000000000000
663682774204416.00000000000000000000
-731088662036480.00000000000000000000
-26858613637120.00000000000000000000
638806122299392.00000000000000000000
-319582678024192.00000000000000000000
80886372499456.00000000000000000000
-20136301332267008.00000000000000000000
-4063056510320640.00000000000000000000
1705019204173824.00000000000000000000
-5639910534938624.00000000000000000000
-2267346521554944.00000000000000000000
16280977626103808.00000000000000000000
6128879676686336.00000000000000000000
-170319746695168.00000000000000000000
6106433640726528.00000000000000000000
7729062084608000.00000000000000000000
-1070336049152000.00000000000000000000
-1844044879626240.00000000000000000000
2431234957377536.00000000000000000000
-1687557209325568.00000000000000000000
-1358885776523264.00000000000000000000
-4781552730898432.00000000000000000000
-5668891900510208.00000000000000000000
2844984726257664.00000000000000000000
-1564910660091904.00000000000000000000
453049390727168.00000000000000000000
3841776305569792.00000000000000000000
3742793415524352.00000000000000000000
3125940280360960.00000000000000000000
-3265140438859776.00000000000000000000
973137650909184.00000000000000000000
-2895337043787776.00000000000000000000
-556033244135424.00000000000000000000
410546092376064.00000000000000000000
-305268491550720.00000000000000000000
-783039915360256.00000000000000000000
-51595165302784.00000000000000000000
276692500480.00000000000000000000
449347732897792.00000000000000000000
-156705790885888.00000000000000000000
-456595456655360.00000000000000000000
337128424734720.00000000000000000000
-660276328267776.00000000000000000000
130655170068480.00000000000000000000
632760687394816.00000000000000000000
-15370830032666624.00000000000000000000
525972935802880.00000000000000000000
435210042736640.00000000000000000000
-5806928391307264.00000000000000000000
6834832176840704.00000000000000000000
6609784480464896.00000000000000000000
4514116391665664.00000000000000000000
6691968679673856.00000000000000000000
5604236536578048.00000000000000000000
6164114514640896.00000000000000000000
3669228678807552.00000000000000000000
-1317521080713216.00000000000000000000
5527182138933248.00000000000000000000
-8114305618673664.00000000000000000000
302679599349760.00000000000000000000
3498300254715904.00000000000000000000
-6379690197516288.00000000000000000000
-4312902542557184.00000000000000000000
-4185716212891648.00000000000000000000
-897315841769472.00000000000000000000
-4103210159570944.00000000000000000000
1404218351026176.00000000000000000000
3070866183159808.00000000000000000000
-424561141088256.00000000000000000000
2693565385801728.00000000000000000000
-1974064948183040.00000000000000000000
59991841197522944.00000000000000000000
34052433457971200.00000000000000000000
831995093450752.00000000000000000000
10817386236084224.00000000000000000000
16441146620248064.00000000000000000000
-25948384221200384.00000000000000000000
-22652905207103488.00000000000000000000
14091783403208704.00000000000000000000
-9221706027630592.00000000000000000000
49004644839456768.00000000000000000000
13469572564779008.00000000000000000000
-18441715543179264.00000000000000000000
-14127838579916800.00000000000000000000
-1807816293613568.00000000000000000000
-5999004697493504.00000000000000000000
-6257944517672960.00000000000000000000
907914881531904.00000000000000000000
5483380451835904.00000000000000000000
-701219714629632.00000000000000000000
-614114288205824.00000000000000000000
86161682857984.00000000000000000000
-49414764756992.00000000000000000000
-10552545667710976.00000000000000000000
-499730517852160.00000000000000000000
-4227512418697216.00000000000000000000
-3707589716082688.00000000000000000000
230870039941611520.00000000000000000000
66446562863087616.00000000000000000000
-167605910405906432.00000000000000000000
250812122852753408.00000000000000000000
108238209560870912.00000000000000000000
-194113125706891264.00000000000000000000
-144220998890160128.00000000000000000000
103111006451924992.00000000000000000000
-23136005276041216.00000000000000000000
184668458263248896.00000000000000000000
1187292303589376.00000000000000000000
-17099946285072384.00000000000000000000
-166149658794524672.00000000000000000000
-3088263216627712.00000000000000000000
-674033376952320.00000000000000000000
4870307156328448.00000000000000000000
-1116340584710144.00000000000000000000
-1032354109849600.00000000000000000000
-1394498034728960.00000000000000000000
-435535889825792.00000000000000000000
-1629510189449216.00000000000000000000
341102209007616.00000000000000000000
1270677348810752.00000000000000000000
-475499285446656.00000000000000000000
723749636669440.00000000000000000000
971408255483904.00000000000000000000
-543917980254208.00000000000000000000
-127964356280320.00000000000000000000
-520577248919552.00000000000000000000
-231883942133760.00000000000000000000
38739120226304.00000000000000000000
138024998404096.00000000000000000000
-266229973516288.00000000000000000000
182160317218816.00000000000000000000
-185327956262912.00000000000000000000
235929314787328.00000000000000000000
172592791027712.00000000000000000000
159149023297536.00000000000000000000
-74166845833216.00000000000000000000
-1642673593122816.00000000000000000000
1342442896883712.00000000000000000000
32780283019264.00000000000000000000
-3463311572074496.00000000000000000000
-376234169073664.00000000000000000000
939463630913536.00000000000000000000
-611178812276736.00000000000000000000
1711992888885248.00000000000000000000
1956274790989824.00000000000000000000
-852908430065664.00000000000000000000
109930476470272.00000000000000000000
1917948918759424.00000000000000000000
-580883723583488.00000000000000000000
-3282938783334400.00000000000000000000
528085556396032.00000000000000000000
3392675734618112.00000000000000000000
-1418061433274368.00000000000000000000
-1065129810591744.00000000000000000000
330137862144000.00000000000000000000
306300189671424.00000000000000000000
695539955924992.00000000000000000000
-245501471490048.00000000000000000000
-223175140966400.00000000000000000000
1328559683534848.00000000000000000000
-224674017443840.00000000000000000000
253404932734976.00000000000000000000
-1192314730971136.00000000000000000000
-478610754371584.00000000000000000000
-702045354983424.00000000000000000000
-2442751912181760.00000000000000000000
4997038756331520.00000000000000000000
1615445782167552.00000000000000000000
-161457551441920.00000000000000000000
682596937760768.00000000000000000000
-1666820436131840.00000000000000000000
-1992929920942080.00000000000000000000
492963360669696.00000000000000000000
-721617051189248.00000000000000000000
1009579710218240.00000000000000000000
6522293.00000000000000000000
-1902986.62500000000000000000
23172528.00000000000000000000
8789591.00000000000000000000
3054992.25000000000000000000
-5850585.00000000000000000000
1229428.37500000000000000000
-598115.62500000000000000000
-1211857.12500000000000000000
4652098.00000000000000000000
11522939.00000000000000000000
3136032.25000000000000000000
6025400.00000000000000000000
-776921.00000000000000000000
-6683434.50000000000000000000
-10455132.00000000000000000000
-5452270.00000000000000000000
-4107124.00000000000000000000
-3230837.00000000000000000000
2313749.75000000000000000000
-13411188.00000000000000000000
-14477587.00000000000000000000
-2359670.00000000000000000000
1037533.37500000000000000000
12817367.00000000000000000000
-5807884.00000000000000000000
-9911989.00000000000000000000
148299.43750000000000000000
-1163254.87500000000000000000
1411352.62500000000000000000
-7099782.00000000000000000000
11385582.00000000000000000000
-13976754.00000000000000000000
-2447463.50000000000000000000
6325228.00000000000000000000
2601753.25000000000000000000
1410375.12500000000000000000
-15692216.00000000000000000000
-7053687.00000000000000000000
-608547.12500000000000000000
9068101.00000000000000000000
-9677893.00000000000000000000
2365041.50000000000000000000
-13648751.00000000000000000000
3751404.50000000000000000000
2355488.00000000000000000000
-15766808.00000000000000000000
2331670.25000000000000000000
4229859.00000000000000000000
-6003726.50000000000000000000
-8144527.50000000000000000000
-1292958.12500000000000000000
34055744.00000000000000000000
-10610146.00000000000000000000
3731279.25000000000000000000
19722316.00000000000000000000
9876051.00000000000000000000
18237696.00000000000000000000
3810114.00000000000000000000
-39746384.00000000000000000000
-2523023.25000000000000000000
-4209552.50000000000000000000
-12618195.00000000000000000000
-3994813.00000000000000000000
2580397.00000000000000000000
-7975655.00000000000000000000
-5436444.00000000000000000000
-12449990.00000000000000000000
4133384.25000000000000000000
2989542.75000000000000000000
-6670907.00000000000000000000
5181751.00000000000000000000
1139649.25000000000000000000
-2929957.50000000000000000000
1903537.37500000000000000000
-5885751.00000000000000000000
-3318319.00000000000000000000
-1588128.75000000000000000000
3077187.25000000000000000000
3093642.25000000000000000000
-568719.25000000000000000000
-3910328.25000000000000000000
-1828324.12500000000000000000
4752673.00000000000000000000
737215.93750000000000000000
5271573.00000000000000000000
-6562546.00000000000000000000
1380368.75000000000000000000
2826323.50000000000000000000
-788865.93750000000000000000
3086061.25000000000000000000
-7903713.00000000000000000000
-2365161.50000000000000000000
4689571.00000000000000000000
2450911.25000000000000000000
-685779.06250000000000000000
-13298686.00000000000000000000
-2459563.75000000000000000000
1409466.25000000000000000000
2264311.00000000000000000000
-585746.00000000000000000000
5618290.00000000000000000000
-3584759.50000000000000000000
-1702121.37500000000000000000
-3561056.50000000000000000000
-3092690.50000000000000000000
5049971.00000000000000000000
1571711.75000000000000000000
-6528313.00000000000000000000
-1020820.18750000000000000000
3374281.25000000000000000000
652562.93750000000000000000
-3950489.25000000000000000000
-927568.43750000000000000000
2211081.00000000000000000000
8679890.00000000000000000000
396417.25000000000000000000
12194233.00000000000000000000
-9683378.00000000000000000000
4465595.00000000000000000000
-9781182.00000000000000000000
-3317539.75000000000000000000
-1605491.50000000000000000000
-934707.31250000000000000000
6295810.00000000000000000000
-11880.53320312500000000000
-1661092.50000000000000000000
4663201.00000000000000000000
-5104951.00000000000000000000
-3522118.75000000000000000000
-1285699.37500000000000000000
-227088.12500000000000000000
-5644989.00000000000000000000
-2919645.00000000000000000000
-3099108.25000000000000000000
-839695.25000000000000000000
-3035611.75000000000000000000
-1346007.37500000000000000000
-1040362.31250000000000000000
2047588.37500000000000000000
3213980.00000000000000000000
287064.68750000000000000000
1862612.50000000000000000000
4884956.00000000000000000000
4807102.00000000000000000000
-2708.39477539062500000000
3367954.00000000000000000000
-4596100.00000000000000000000
-4325599.00000000000000000000
5705492.00000000000000000000
-3088737.25000000000000000000
-4150577.25000000000000000000
-1623249.25000000000000000000
-2083739.50000000000000000000
5220188.00000000000000000000
-3542029.75000000000000000000
2510027.25000000000000000000
-4631377.00000000000000000000
-1788043.87500000000000000000
2852977.75000000000000000000
3909898.50000000000000000000
-2140214.75000000000000000000
3429799.25000000000000000000
-1670395.37500000000000000000
4711167.00000000000000000000
4326718.00000000000000000000
-4340201.00000000000000000000
489624.43750000000000000000
-893917.81250000000000000000
2874561.25000000000000000000
-845260.37500000000000000000
3068313.75000000000000000000
1003579.75000000000000000000
209677.71875000000000000000
835597.37500000000000000000
-1698607.87500000000000000000
-1184229.87500000000000000000
400440.81250000000000000000
-2558120.25000000000000000000
-4552332.00000000000000000000
-6373696.00000000000000000000
3735259.00000000000000000000
-948071.75000000000000000000
358027.68750000000000000000
-5197021.00000000000000000000
1690876.87500000000000000000
-3562969.25000000000000000000
5704108.50000000000000000000
1745822.50000000000000000000
740300.68750000000000000000
719484.25000000000000000000
-3124492.25000000000000000000
2535571.25000000000000000000
3597087.50000000000000000000
101009.66406250000000000000
-1527439.62500000000000000000
-1792731.75000000000000000000
-1912647.00000000000000000000
2885711.75000000000000000000
693382.31250000000000000000
5212352.00000000000000000000
-4885515.00000000000000000000
-4652403.50000000000000000000
-3225156.00000000000000000000
-1296058.87500000000000000000
-7266316.00000000000000000000
868286.81250000000000000000
2698787.00000000000000000000
12581461.00000000000000000000
2654197.25000000000000000000
1020835.43750000000000000000
1028556.18750000000000000000
-4728776.00000000000000000000
5254217.50000000000000000000
7190655.50000000000000000000
-6834986.00000000000000000000
2516745.50000000000000000000
-3493745.50000000000000000000
-2097457.50000000000000000000
-801823.31250000000000000000
-556966.81250000000000000000
6015249.00000000000000000000
-973375.06250000000000000000
207237.35937500000000000000
6005618.50000000000000000000
-898964.06250000000000000000
-279855.18750000000000000000
-3025509.25000000000000000000
5327818.50000000000000000000
208787.95312500000000000000
4646810.50000000000000000000
-856499.06250000000000000000
-2967955.25000000000000000000
2788557.50000000000000000000
-7942932.00000000000000000000
-1722514.50000000000000000000
548538.31250000000000000000
4135593.50000000000000000000
6586975.00000000000000000000
-430986.18750000000000000000
1279883.87500000000000000000
-7623640.00000000000000000000
1821502.62500000000000000000
1974403.50000000000000000000
2610390.00000000000000000000
550856.18750000000000000000
-6106829.50000000000000000000
1388561.25000000000000000000
-5944226.00000000000000000000
-1424032.25000000000000000000
-3386946.25000000000000000000
2775634.25000000000000000000
-3426201.75000000000000000000
-47646.06250000000000000000
-6528558.00000000000000000000
2607038.50000000000000000000
-1601344.75000000000000000000
7600822.00000000000000000000
-260906.82812500000000000000
-3398698.50000000000000000000
-41024.49609375000000000000
609489.12500000000000000000
-5414995.50000000000000000000
-5118198.00000000000000000000
-7349039.50000000000000000000
-8361973.50000000000000000000
5477626.00000000000000000000
-2670121.50000000000000000000
1016155.56250000000000000000
2430636.50000000000000000000
1090696.12500000000000000000
949740.56250000000000000000
-4810234.00000000000000000000
-6210333.00000000000000000000
-1239782.37500000000000000000
-3955587.75000000000000000000
175445.54687500000000000000
-988606.31250000000000000000
6676155.50000000000000000000
5539332.00000000000000000000
2843650.50000000000000000000
-21738518.00000000000000000000
230647.73437500000000000000
-4181085.00000000000000000000
9945552.00000000000000000000
3320626.00000000000000000000
-18306290.00000000000000000000
5435052.50000000000000000000
-7573945.00000000000000000000
539953.93750000000000000000
2603850.50000000000000000000
-2154534.00000000000000000000
-3812364.50000000000000000000
5956810.00000000000000000000
7234361.00000000000000000000
9787095.00000000000000000000
3407390.50000000000000000000
2682129.50000000000000000000
3280597.00000000000000000000
6630165.50000000000000000000
-3695000.00000000000000000000
-690169.75000000000000000000
1597592.00000000000000000000
-2144259.00000000000000000000
6186116.00000000000000000000
830735.43750000000000000000
-2754654.00000000000000000000
1188475.87500000000000000000
-160252.17187500000000000000
-2219611.50000000000000000000
3418331.50000000000000000000
-1635922.00000000000000000000
3505121.50000000000000000000
20298.02929687500000000000
-5624265.50000000000000000000
8067260.50000000000000000000
7786241.00000000000000000000
8896935.00000000000000000000
-1026658.37500000000000000000
-4983907.50000000000000000000
-9738021.00000000000000000000
-47975.51562500000000000000
-10941299.00000000000000000000
-8012960.00000000000000000000
1718689.87500000000000000000
-5257422.00000000000000000000
-781255.81250000000000000000
-1183174.12500000000000000000
-10094463.00000000000000000000
-4256652.00000000000000000000
8761869.00000000000000000000
-3355897.00000000000000000000
505664.43750000000000000000
6192528.50000000000000000000
2525201.00000000000000000000
5337025.50000000000000000000
-189482.60937500000000000000
-4543045.00000000000000000000
-5970339.50000000000000000000
-3743708.50000000000000000000
-5094904.50000000000000000000
1889821.62500000000000000000
6204710.50000000000000000000
11894499.00000000000000000000
-8162247.00000000000000000000
-638245.81250000000000000000
9885123.00000000000000000000
2797300.75000000000000000000
-10495567.00000000000000000000
5435729.50000000000000000000
-9055575.00000000000000000000
698100.81250000000000000000
-6268470.50000000000000000000
-3899366.25000000000000000000
109183.30468750000000000000
1044531.37500000000000000000
371807.90625000000000000000
-9646204.00000000000000000000
-1208654.87500000000000000000
-9585584.00000000000000000000
2294242.25000000000000000000
-3487039.50000000000000000000
4288905.00000000000000000000
747540.68750000000000000000
-4293628.00000000000000000000
4846467.00000000000000000000
1479726.00000000000000000000
-911065.43750000000000000000
2357183.50000000000000000000
-3365930.25000000000000000000
-10082977.00000000000000000000
-6417360.50000000000000000000
-12323776.00000000000000000000
-264225.53125000000000000000
-8624115.00000000000000000000
-6307394.00000000000000000000
-3451451.25000000000000000000
1982442.62500000000000000000
2983700.25000000000000000000
9804611.00000000000000000000
6122252.00000000000000000000
9663661.00000000000000000000
11056816.00000000000000000000
401802.87500000000000000000
-3414781.50000000000000000000
7495374.00000000000000000000
571242.56250000000000000000
-2866811.25000000000000000000
-5698468.00000000000000000000
3994629.50000000000000000000
-4116352.75000000000000000000
2125282.25000000000000000000
3720663.75000000000000000000
1358787.37500000000000000000
370457.96875000000000000000
658759.37500000000000000000
2281779.75000000000000000000
-2516365.75000000000000000000
2570232.75000000000000000000
241175.21875000000000000000
5606549.50000000000000000000
2812183.25000000000000000000
-2351026.75000000000000000000
1258749.12500000000000000000
-5647629.00000000000000000000
-1224983.87500000000000000000
-1239725.00000000000000000000
-1881509.25000000000000000000
3844563.75000000000000000000
-224383.96875000000000000000
-810467.81250000000000000000
-552926.75000000000000000000
1778049.12500000000000000000
701590.37500000000000000000
-4592332.00000000000000000000
-693938.37500000000000000000
916735.50000000000000000000
-3016289.75000000000000000000
-6497200.50000000000000000000
-1069437.87500000000000000000
2497208.75000000000000000000
-1491999.62500000000000000000
-5833563.50000000000000000000
2770743.25000000000000000000
5342780.50000000000000000000
10174479.00000000000000000000
-651422.25000000000000000000
-398495.90625000000000000000
-10718501.00000000000000000000
-3325215.75000000000000000000
-2202835.25000000000000000000
-928820.81250000000000000000
-3720267.75000000000000000000
385387.93750000000000000000
3271853.75000000000000000000
473676.81250000000000000000
-1298227.25000000000000000000
-136395.45312500000000000000
-5545881.50000000000000000000
-537302.68750000000000000000
1107873.12500000000000000000
-3464699.25000000000000000000
4013183.25000000000000000000
1174512.50000000000000000000
-1750307.00000000000000000000
-4258195.00000000000000000000
5155733.50000000000000000000
-7734362.50000000000000000000
1208938.00000000000000000000
-10180714.00000000000000000000
-2642220.75000000000000000000
4789494.50000000000000000000
-3853588.25000000000000000000
538693.12500000000000000000
883100.18750000000000000000
-2539219.25000000000000000000
178925.25000000000000000000
-1452174.75000000000000000000
-5800663.00000000000000000000
-2384578.50000000000000000000
-1148238.25000000000000000000
-637919.93750000000000000000
2924002.00000000000000000000
-946617.31250000000000000000
6968416.50000000000000000000
525497.06250000000000000000
6951911.50000000000000000000
-3377636.50000000000000000000
-4217035.50000000000000000000
159889.62500000000000000000
1381495.50000000000000000000
-1409565.37500000000000000000
-5160129.50000000000000000000
-1637017.00000000000000000000
-3667596.50000000000000000000
1758356.00000000000000000000
2654129.00000000000000000000
-1721248.75000000000000000000
-1765251.75000000000000000000
16510.94921875000000000000
-4415527.50000000000000000000
3882090.25000000000000000000
1388281.25000000000000000000
-2472237.25000000000000000000
-6841998.50000000000000000000
-145865.81250000000000000000
606336.68750000000000000000
5337968.00000000000000000000
499966.34375000000000000000
4210446.00000000000000000000
-3098142.75000000000000000000
-2739845.00000000000000000000
1346709.25000000000000000000
-638371.68750000000000000000
-2002448.00000000000000000000
-5064403.50000000000000000000
2164208.00000000000000000000
-3608635.00000000000000000000
4030909.00000000000000000000
2537086.50000000000000000000
-4244830.50000000000000000000
828076.31250000000000000000
-2876354.50000000000000000000
-5370574.00000000000000000000
-3073551.25000000000000000000
-2808685.25000000000000000000
4003183.50000000000000000000
44345.64062500000000000000
3410734.50000000000000000000
-4291722.50000000000000000000
-1092350.25000000000000000000
991496.68750000000000000000
6739905.50000000000000000000
-8179096.00000000000000000000
-5900659.00000000000000000000
1403004.25000000000000000000
2076981.12500000000000000000
638508.68750000000000000000
2421361.50000000000000000000
-1249005.37500000000000000000
-125290.32031250000000000000
-4703436.00000000000000000000
-3932729.75000000000000000000
-5869750.50000000000000000000
-1962839.87500000000000000000
1200198.62500000000000000000
-2695058.75000000000000000000
1524100.12500000000000000000
-1835912.87500000000000000000
-1318523.75000000000000000000
1029560.25000000000000000000
-701287.50000000000000000000
1032254.12500000000000000000
570008.37500000000000000000
-2417127.75000000000000000000
-2019649.12500000000000000000
383488.40625000000000000000
5446704.50000000000000000000
1684395.87500000000000000000
707879.37500000000000000000
-596998.87500000000000000000
-1657774.62500000000000000000
-1887828.37500000000000000000
1582053.87500000000000000000
2400843.25000000000000000000
-979395.50000000000000000000
570344.00000000000000000000
-1714576.87500000000000000000
2868173.75000000000000000000
210424.56250000000000000000
-3128728.75000000000000000000
2420794.25000000000000000000
-380895.31250000000000000000
-1083702.12500000000000000000
3129102.25000000000000000000
2569670.25000000000000000000
-1142887.50000000000000000000
-331367.71875000000000000000
-2631205.75000000000000000000
6467653.50000000000000000000
1781109.62500000000000000000
-2793631.25000000000000000000
312421.93750000000000000000
-551491.56250000000000000000
-2675728.25000000000000000000
2115084.25000000000000000000
-3759412.25000000000000000000
-1182809.12500000000000000000
-288663.34375000000000000000
-1699124.37500000000000000000
726757.00000000000000000000
-2445188.25000000000000000000
636067.50000000000000000000
-2098839.75000000000000000000
305695.43750000000000000000
-253205.32812500000000000000
-6022436.50000000000000000000
-681261.62500000000000000000
-2286917.75000000000000000000
4597700.50000000000000000000
-2224775.75000000000000000000
-1817919.37500000000000000000
-1462589.37500000000000000000
-2365768.25000000000000000000
1275221.12500000000000000000
-3053124.25000000000000000000
1418936.62500000000000000000
-15201579.00000000000000000000
6779576.50000000000000000000
6978233.50000000000000000000
-1158362.37500000000000000000
2214249.75000000000000000000
-1471353.12500000000000000000
-1792015.87500000000000000000
8840500.00000000000000000000
16482475.00000000000000000000
-2830052.75000000000000000000
6465734.50000000000000000000
2116997.25000000000000000000
-8159289.50000000000000000000
350582.34375000000000000000
78736.42187500000000000000
-8191753.50000000000000000000
-8936784.00000000000000000000
9612695.00000000000000000000
5980413.50000000000000000000
-8003234.50000000000000000000
-1342017.87500000000000000000
-6839149.50000000000000000000
-3991674.75000000000000000000
8154484.50000000000000000000
-10341878.00000000000000000000
609293.62500000000000000000
3257951.75000000000000000000
-10700750.00000000000000000000
-2134585.75000000000000000000
6758387.50000000000000000000
-1128509.62500000000000000000
8129472.50000000000000000000
5922719.50000000000000000000
-10222616.00000000000000000000
-6844128.50000000000000000000
4847883.50000000000000000000
4142237.75000000000000000000
574392.43750000000000000000
1306140.62500000000000000000
559071.31250000000000000000
-1968899.25000000000000000000
-9753648.00000000000000000000
7498321.50000000000000000000
2993098.75000000000000000000
-10582122.00000000000000000000
4499471.50000000000000000000
-1191856.75000000000000000000
4125878.75000000000000000000
4127825.00000000000000000000
-738885.18750000000000000000
5678385.50000000000000000000
-6601521.50000000000000000000
-1312275.37500000000000000000
-1022321.18750000000000000000
-7111971.50000000000000000000
2603847.25000000000000000000
-5692078.50000000000000000000
-13372490.00000000000000000000
1734762.87500000000000000000
257702.57812500000000000000
333618.81250000000000000000
2295682.25000000000000000000
-1227060.62500000000000000000
824362.75000000000000000000
7645782.50000000000000000000
2409970.00000000000000000000
-5283000.50000000000000000000
4565569.00000000000000000000
-5684124.00000000000000000000
2475929.00000000000000000000
1424347.50000000000000000000
-3664306.25000000000000000000
-1573167.50000000000000000000
173531.39062500000000000000
2736678.75000000000000000000
-1404455.75000000000000000000
-2138412.25000000000000000000
-5324885.00000000000000000000
-2652581.75000000000000000000
1076594.62500000000000000000
2180999.25000000000000000000
-2889641.75000000000000000000
6547636.00000000000000000000
3651836.25000000000000000000
1344860.50000000000000000000
-233971.54687500000000000000
-7828000.50000000000000000000
889393.12500000000000000000
-1173075.75000000000000000000
-4320921.50000000000000000000
5357064.50000000000000000000
735998.50000000000000000000
-1673308.50000000000000000000
597464.00000000000000000000
-1591089.25000000000000000000
-1755027.50000000000000000000
938722.25000000000000000000
-8629251.00000000000000000000
7817079.00000000000000000000
-572777.37500000000000000000
3447794.25000000000000000000
3439009.75000000000000000000
-2708706.25000000000000000000
-5240662.50000000000000000000
-2284891.25000000000000000000
-2113986.75000000000000000000
-2360260.25000000000000000000
-1479979.75000000000000000000
3620972.75000000000000000000
-6993501.00000000000000000000
-2309095.75000000000000000000
-3384811.75000000000000000000
-3068279.75000000000000000000
-1166929.50000000000000000000
-1781509.00000000000000000000
6393444.00000000000000000000
-9024293.00000000000000000000
-1548174.25000000000000000000
6261695.00000000000000000000
1678003.25000000000000000000
-1410536.50000000000000000000
-1282817.50000000000000000000
1570866.50000000000000000000
-2260472.25000000000000000000
356040.40625000000000000000
2194670.50000000000000000000
-3011750.75000000000000000000
53184.53515625000000000000
1945666.87500000000000000000
-1417558.75000000000000000000
-20785328.00000000000000000000
-10854657.00000000000000000000
-419032.37500000000000000000
5480234.00000000000000000000
3693783.25000000000000000000
2875527.25000000000000000000
2103023.75000000000000000000
487080.46875000000000000000
-8466177.00000000000000000000
7710918.50000000000000000000
1107288.62500000000000000000
-1302199.50000000000000000000
3335770.25000000000000000000
1063882.37500000000000000000
6596703.50000000000000000000
-2762517.25000000000000000000
9297103.00000000000000000000
-6806007.00000000000000000000
1471178.87500000000000000000
-20476460.00000000000000000000
-269960.62500000000000000000
-2768492.00000000000000000000
4822768.00000000000000000000
1748747.62500000000000000000
-6286429.00000000000000000000
-4057999.00000000000000000000
-2370773.75000000000000000000
4491042.50000000000000000000
827259.18750000000000000000
2826665.75000000000000000000
3659845.25000000000000000000
1984061.00000000000000000000
21086768.00000000000000000000
-8665914.00000000000000000000
1405776.87500000000000000000
-5372524.00000000000000000000
-629537.18750000000000000000
7550893.00000000000000000000
-2598026.00000000000000000000
3616975.50000000000000000000
5816285.00000000000000000000
1760759.00000000000000000000
-2578815.00000000000000000000
-8328200.50000000000000000000
14467651.00000000000000000000
-2983697.75000000000000000000
-5347431.00000000000000000000
-3510645.75000000000000000000
3903868.25000000000000000000
1432505.12500000000000000000
13460253.00000000000000000000
-8214676.00000000000000000000
3048546.25000000000000000000
7493774.00000000000000000000
5883511.00000000000000000000
9772077.00000000000000000000
-5293220.00000000000000000000
-2335271.00000000000000000000
-8791499.00000000000000000000
-1995752.25000000000000000000
2335651.25000000000000000000
2507366.25000000000000000000
5041223.50000000000000000000
476993.06250000000000000000
6614675.00000000000000000000
2741023.25000000000000000000
-3783656.75000000000000000000
-469234.37500000000000000000
-2915715.75000000000000000000
2417622.25000000000000000000
-1790100.75000000000000000000
-2906668.75000000000000000000
679651.06250000000000000000
-6761023.00000000000000000000
5047440.00000000000000000000
-3434129.50000000000000000000
587254.93750000000000000000
-2063118.00000000000000000000
5375998.00000000000000000000
4862624.00000000000000000000
4289981.00000000000000000000
732570.06250000000000000000
-2766254.75000000000000000000
7062191.50000000000000000000
-628390.06250000000000000000
-2085918.50000000000000000000
-3431684.75000000000000000000
1022276.43750000000000000000
3144818.75000000000000000000
1655522.62500000000000000000
1545648.87500000000000000000
4714887.50000000000000000000
5492271.00000000000000000000
3400418.75000000000000000000
-180466.56250000000000000000
4992155.50000000000000000000
5860618.50000000000000000000
-7354525.50000000000000000000
2281701.50000000000000000000
-4675244.50000000000000000000
2432828.75000000000000000000
-6701498.50000000000000000000
-429628.43750000000000000000
-296177.31250000000000000000
-2348846.00000000000000000000
-1130464.37500000000000000000
-358136.68750000000000000000
118456.31250000000000000000
268572.31250000000000000000
1037708.93750000000000000000
3747460.25000000000000000000
-4173603.00000000000000000000
2652563.50000000000000000000
-3391998.00000000000000000000
-585516.56250000000000000000
5097120.00000000000000000000
672581.06250000000000000000
-5620400.50000000000000000000
2848343.50000000000000000000
-3757393.25000000000000000000
58717.98046875000000000000
-3862942.50000000000000000000
6103982.00000000000000000000
-6042356.00000000000000000000
-5294593.00000000000000000000
-170247.00000000000000000000
-2101434.50000000000000000000
-4850560.00000000000000000000
1706464.50000000000000000000
-444702.25000000000000000000
-2329140.50000000000000000000
-1462093.87500000000000000000
-1071661.50000000000000000000
-1838204.87500000000000000000
204801.17187500000000000000
3523858.50000000000000000000
-681407.68750000000000000000
147659.07812500000000000000
-436177.00000000000000000000
-272982.28125000000000000000
475049.68750000000000000000
255017.60937500000000000000
-1251869.62500000000000000000
-1904262.50000000000000000000
1935315.37500000000000000000
-2885366.50000000000000000000
2046479.50000000000000000000
-284144.25000000000000000000
-59600.24609375000000000000
1799558.00000000000000000000
-184271.85937500000000000000
2023683.25000000000000000000
236600.76562500000000000000
1862203.00000000000000000000
1633910.50000000000000000000
3161262.00000000000000000000
787013.81250000000000000000
3452689.50000000000000000000
170841.76562500000000000000
2121359.25000000000000000000
-2106543.00000000000000000000
310374.00000000000000000000
-82414.11718750000000000000
-765229.31250000000000000000
-408757.12500000000000000000
1456748.50000000000000000000
-2307545.50000000000000000000
-4493954.50000000000000000000
-1546469.50000000000000000000
-275057.34375000000000000000
-1923523.37500000000000000000
1429070.50000000000000000000
-1335098.50000000000000000000
2079539.50000000000000000000
-5462223.50000000000000000000
1801952.87500000000000000000
-1538109.37500000000000000000
1318843.00000000000000000000
1904954.25000000000000000000
1683665.12500000000000000000
334188.68750000000000000000
-253067.10937500000000000000
-2642735.50000000000000000000
876238.37500000000000000000
1124739.87500000000000000000
-1387847.50000000000000000000
-603331.87500000000000000000
115327.35156250000000000000
-2529743.00000000000000000000
-1495630.50000000000000000000
-854211.81250000000000000000
-594930.12500000000000000000
-2405241.00000000000000000000
25331366.00000000000000000000
-2762640.00000000000000000000
38376732.00000000000000000000
-15931857.00000000000000000000
8424569.00000000000000000000
-1962156.12500000000000000000
764696.12500000000000000000
1592639.62500000000000000000
-1887933.37500000000000000000
1652591.87500000000000000000
-2043087.50000000000000000000
-2105795.50000000000000000000
1181492.37500000000000000000
-25299626.00000000000000000000
5495073.50000000000000000000
-3274437.00000000000000000000
-6988578.00000000000000000000
3508431.75000000000000000000
-4448635.00000000000000000000
-6253564.00000000000000000000
3231956.00000000000000000000
11827163.00000000000000000000
3067901.50000000000000000000
-475673.37500000000000000000
6186010.50000000000000000000
-5501985.00000000000000000000
-12463569.00000000000000000000
-8247353.00000000000000000000
1692982.87500000000000000000
5639581.00000000000000000000
3967764.50000000000000000000
17414268.00000000000000000000
-2887330.00000000000000000000
-732683.62500000000000000000
20189292.00000000000000000000
531896.25000000000000000000
-4022658.25000000000000000000
-3742687.50000000000000000000
-4753361.50000000000000000000
5601222.00000000000000000000
5395223.50000000000000000000
-2495004.25000000000000000000
5082323.00000000000000000000
-5610890.50000000000000000000
4511989.50000000000000000000
1981259.87500000000000000000
5151036.50000000000000000000
6684990.00000000000000000000
-6225904.00000000000000000000
-4479813.00000000000000000000
-3486992.25000000000000000000
-3337809.00000000000000000000
10210595.00000000000000000000
-3247361.00000000000000000000
-487473.93750000000000000000
52260552.00000000000000000000
2985761.75000000000000000000
-4670282.00000000000000000000
-3315970.75000000000000000000
-2519897.75000000000000000000
4711543.50000000000000000000
-522576.62500000000000000000
-2890929.50000000000000000000
1585456.37500000000000000000
-5749592.00000000000000000000
2214106.00000000000000000000
-4190638.50000000000000000000
-6714010.00000000000000000000
-2127943.25000000000000000000
533798.25000000000000000000
-6557982.50000000000000000000
103542.39062500000000000000
-3501286.00000000000000000000
212208.75000000000000000000
-3190728.25000000000000000000
-8438151.00000000000000000000
1914016.12500000000000000000
3020601.50000000000000000000
-12036006.00000000000000000000
8704665.00000000000000000000
2556130.75000000000000000000
2659413.50000000000000000000
249311.46875000000000000000
-5595650.50000000000000000000
-1921429.00000000000000000000
-274955.75000000000000000000
-6469642.00000000000000000000
-6004575.00000000000000000000
-1724608.50000000000000000000
3712205.50000000000000000000
-7031036.50000000000000000000
2794833.50000000000000000000
2772987.50000000000000000000
-4256713.00000000000000000000
-2758933.00000000000000000000
4401356.50000000000000000000
9146839.00000000000000000000
3053448.25000000000000000000
-4395460.50000000000000000000
11549769.00000000000000000000
3893323.00000000000000000000
-3304622.00000000000000000000
941437.68750000000000000000
1407455.00000000000000000000
2863131.00000000000000000000
-566975.31250000000000000000
715114.12500000000000000000
-4165260.50000000000000000000
4781762.00000000000000000000
-4682977.50000000000000000000
7036340.00000000000000000000
11985994.00000000000000000000
-2806608.75000000000000000000
-2557710.00000000000000000000
6657655.00000000000000000000
-3296649.00000000000000000000
-9500965.00000000000000000000
18704536.00000000000000000000
-1154453.62500000000000000000
143495.82812500000000000000
-3267049.50000000000000000000
-4552958.50000000000000000000
8820832.00000000000000000000
-5169624.50000000000000000000
-13197231.00000000000000000000
-2464409.00000000000000000000
-3732627.00000000000000000000
9059512.00000000000000000000
-1226644.00000000000000000000
-4041189.00000000000000000000
74926.57031250000000000000
1402292.87500000000000000000
1905862.62500000000000000000
386592.00000000000000000000
-3056547.75000000000000000000
-2607507.25000000000000000000
2951204.50000000000000000000
-3891082.75000000000000000000
5375840.00000000000000000000
2367872.00000000000000000000
4071203.00000000000000000000
-732560.18750000000000000000
1365074.25000000000000000000
686927.68750000000000000000
-10050196.00000000000000000000
-2719118.50000000000000000000
550403.43750000000000000000
-1667546.87500000000000000000
-4052962.00000000000000000000
571091.93750000000000000000
-359843.53125000000000000000
-585507.06250000000000000000
3009020.50000000000000000000
629885.06250000000000000000
7344667.50000000000000000000
-1477648.00000000000000000000
-1911375.37500000000000000000
2699103.00000000000000000000
-2289559.50000000000000000000
6702125.00000000000000000000
2689690.50000000000000000000
4964092.50000000000000000000
2415235.75000000000000000000
-1445037.50000000000000000000
-5180376.00000000000000000000
-5489001.00000000000000000000
-4049088.75000000000000000000
-7230777.00000000000000000000
6057938.00000000000000000000
-2405350.75000000000000000000
408945.68750000000000000000
-3865840.00000000000000000000
-5544701.00000000000000000000
528148.18750000000000000000
1609066.12500000000000000000
-10122224.00000000000000000000
-490676.50000000000000000000
-6645003.50000000000000000000
-2220419.75000000000000000000
-3240215.00000000000000000000
-3055981.50000000000000000000
2952789.25000000000000000000
-3164400.50000000000000000000
-2100456.50000000000000000000
-1949103.12500000000000000000
967329.62500000000000000000
4305783.00000000000000000000
-10476179.00000000000000000000
5811181.00000000000000000000
-283187.93750000000000000000
-2644000.00000000000000000000
1409305.62500000000000000000
-5462694.50000000000000000000
460288.62500000000000000000
4481616.00000000000000000000
1953905.62500000000000000000
3077094.25000000000000000000
6309208.00000000000000000000
2301655.00000000000000000000
-1928393.37500000000000000000
6554212.50000000000000000000
2185066.50000000000000000000
2234970.50000000000000000000
2163370.25000000000000000000
-2153868.75000000000000000000
3580027.75000000000000000000
1883274.12500000000000000000
-3591820.75000000000000000000
1666966.62500000000000000000
-5696239.50000000000000000000
3106216.50000000000000000000
2138423.75000000000000000000
545611.31250000000000000000
-9399569.00000000000000000000
-2477707.75000000000000000000
-5761090.50000000000000000000
7170963.50000000000000000000
435224.21875000000000000000
-5501703.50000000000000000000
770870.06250000000000000000
-8547535.00000000000000000000
-1066216.37500000000000000000
-5479235.50000000000000000000
4518448.50000000000000000000
-2379571.75000000000000000000
3560662.75000000000000000000
3286927.50000000000000000000
6301941.50000000000000000000
2877447.25000000000000000000
6115588.00000000000000000000
2337962.25000000000000000000
-22669.99414062500000000000
-949008.31250000000000000000
-4762865.50000000000000000000
-2040097.12500000000000000000
-1182455.62500000000000000000
1399578.62500000000000000000
1482191.37500000000000000000
-6844795.00000000000000000000
1870904.87500000000000000000
5908230.50000000000000000000
8388669.00000000000000000000
-5796941.00000000000000000000
-1512467.87500000000000000000
-1878332.87500000000000000000
-7888179.50000000000000000000
-4841759.50000000000000000000
4819380.50000000000000000000
-13309189.00000000000000000000
4294264.00000000000000000000
8211552.50000000000000000000
-2507390.75000000000000000000
13501155.00000000000000000000
4477318.50000000000000000000
-10886566.00000000000000000000
-3623556.00000000000000000000
-3899883.50000000000000000000
6230112.00000000000000000000
-209417.78125000000000000000
-2819463.25000000000000000000
169761.62500000000000000000
1175307.62500000000000000000
419225.31250000000000000000
-7723009.50000000000000000000
-7435549.00000000000000000000
19376118.00000000000000000000
-5199467.50000000000000000000
4797455.50000000000000000000
-18290230.00000000000000000000
-614581.31250000000000000000
8279302.00000000000000000000
-5221367.00000000000000000000
-2921580.25000000000000000000
-6757936.50000000000000000000
3599321.75000000000000000000
2117068.25000000000000000000
2871044.25000000000000000000
-5268703.50000000000000000000
-7733965.50000000000000000000
-2731405.25000000000000000000
1867548.87500000000000000000
10554715.00000000000000000000
13886550.00000000000000000000
6440606.00000000000000000000
-3083649.75000000000000000000
3645298.25000000000000000000
-2437491.75000000000000000000
2020265.75000000000000000000
346207.31250000000000000000
7861209.00000000000000000000
383244.81250000000000000000
9094150.00000000000000000000
3412587.75000000000000000000
-2123756.25000000000000000000
1140854.25000000000000000000
-6701324.50000000000000000000
8604544.00000000000000000000
4793139.00000000000000000000
-5859453.00000000000000000000
9028102.00000000000000000000
-1549207.62500000000000000000
-713115.18750000000000000000
3177630.75000000000000000000
3180155.25000000000000000000
-9787302.00000000000000000000
-3397728.25000000000000000000
-5863624.50000000000000000000
-3193251.75000000000000000000
-1733756.37500000000000000000
4771426.50000000000000000000
-3076973.75000000000000000000
1908115.50000000000000000000
-21569852.00000000000000000000
-7808191.00000000000000000000
3744319.25000000000000000000
8645163.00000000000000000000
-392502.81250000000000000000
4392270.00000000000000000000
3700203.25000000000000000000
-5506046.00000000000000000000
-1969137.75000000000000000000
803655.43750000000000000000
-5804260.50000000000000000000
1293797.00000000000000000000
-112975.91406250000000000000
7493133.50000000000000000000
3373060.50000000000000000000
7413173.00000000000000000000
12676197.00000000000000000000
4808569.00000000000000000000
4492047.00000000000000000000
3497654.50000000000000000000
3940777.00000000000000000000
-1876051.12500000000000000000
-2970958.50000000000000000000
2891364.00000000000000000000
2997989.50000000000000000000
-4729111.50000000000000000000
4796415.50000000000000000000
-2387885.00000000000000000000
-7606025.50000000000000000000
4294529.50000000000000000000
-7139628.50000000000000000000
8601723.00000000000000000000
-339359.59375000000000000000
-1025744.12500000000000000000
3459012.00000000000000000000
-2982509.00000000000000000000
4234527.50000000000000000000
-8082035.00000000000000000000
-1275356.00000000000000000000
-474853.50000000000000000000
3550360.50000000000000000000
5500426.50000000000000000000
-3654920.75000000000000000000
-343246.68750000000000000000
6069293.00000000000000000000
-4023472.75000000000000000000
6073324.00000000000000000000
-70125.07812500000000000000
-12415513.00000000000000000000
-3066203.75000000000000000000
9399793.00000000000000000000
-575254.50000000000000000000
8431847.00000000000000000000
1787229.37500000000000000000
-2182256.25000000000000000000
-2762126.50000000000000000000
-849096.25000000000000000000
676818.62500000000000000000
1675150.87500000000000000000
3909208.00000000000000000000
-5026733.50000000000000000000
-1320258.25000000000000000000
5064478.00000000000000000000
-3100423.50000000000000000000
-3452176.25000000000000000000
13904529.00000000000000000000
3827717.50000000000000000000
-5660814.00000000000000000000
-7461416.50000000000000000000
3411166.25000000000000000000
-17100926.00000000000000000000
96913.75781250000000000000
-1591400.25000000000000000000
722623.62500000000000000000
-5831767.00000000000000000000
1313515.00000000000000000000
-11798353.00000000000000000000
1585692.62500000000000000000
-964868.12500000000000000000
-6081193.00000000000000000000
3304462.50000000000000000000
10835174.00000000000000000000
3804500.00000000000000000000
-6678898.00000000000000000000
-1529002.75000000000000000000
5663535.00000000000000000000
-2293024.00000000000000000000
92861.46875000000000000000
9467864.00000000000000000000
-3730648.00000000000000000000
1663366.50000000000000000000
-3102468.50000000000000000000
711893.12500000000000000000
-6357555.00000000000000000000
5519699.00000000000000000000
9003490.00000000000000000000
1478025.87500000000000000000
2805137.00000000000000000000
-1794013.50000000000000000000
-5669677.00000000000000000000
4030342.50000000000000000000
214913.28125000000000000000
-8916379.00000000000000000000
-1043457.25000000000000000000
-3899438.50000000000000000000
-6501159.00000000000000000000
6104624.50000000000000000000
-3064234.00000000000000000000
-5679364.00000000000000000000
-3966035.00000000000000000000
-1069708.75000000000000000000
776441.93750000000000000000
146951.71875000000000000000
5100888.00000000000000000000
-6095523.50000000000000000000
-2659887.50000000000000000000
-662236.62500000000000000000
394928.06250000000000000000
-6616558.00000000000000000000
-2546592.50000000000000000000
511996.59375000000000000000
-2305812.50000000000000000000
-3752350.50000000000000000000
-2458741.50000000000000000000
2482888.50000000000000000000
-8313914.00000000000000000000
-2215687.00000000000000000000
4724737.50000000000000000000
4280835.00000000000000000000
1366932.87500000000000000000
4158017.25000000000000000000
-12923132.00000000000000000000
1829956.00000000000000000000
-829168.62500000000000000000
-10242706.00000000000000000000
-6714142.00000000000000000000
-150459.00000000000000000000
1868504.75000000000000000000
-1572693.50000000000000000000
6141509.50000000000000000000
-2535880.00000000000000000000
12632428.00000000000000000000
3961330.50000000000000000000
24371864.00000000000000000000
1635481.75000000000000000000
84322.85937500000000000000
-197837.68750000000000000000
8038450.50000000000000000000
17743758.00000000000000000000
5347166.50000000000000000000
-2500248.25000000000000000000
4096681.00000000000000000000
-1808571.50000000000000000000
-22223032.00000000000000000000
-1338015.75000000000000000000
11096454.00000000000000000000
7863839.50000000000000000000
4271874.50000000000000000000
1594479.25000000000000000000
13856829.00000000000000000000
17615554.00000000000000000000
-16315557.00000000000000000000
19028728.00000000000000000000
10918772.00000000000000000000
14797138.00000000000000000000
2697572.75000000000000000000
894732.25000000000000000000
5329337.50000000000000000000
-15503768.00000000000000000000
10673208.00000000000000000000
-8751482.00000000000000000000
-585563.87500000000000000000
4361330.50000000000000000000
9521456.00000000000000000000
-4959751.50000000000000000000
-9124692.00000000000000000000
8764608.00000000000000000000
20518448.00000000000000000000
-11310318.00000000000000000000
-5049366.50000000000000000000
15113236.00000000000000000000
-4769626.50000000000000000000
739670.25000000000000000000
-4567462.50000000000000000000
7014514.50000000000000000000
4454439.50000000000000000000
12634856.00000000000000000000
4300935.50000000000000000000
10622375.00000000000000000000
5640736.50000000000000000000
-8597332.00000000000000000000
-1132459.12500000000000000000
-11236040.00000000000000000000
16130721.00000000000000000000
10167728.00000000000000000000
41323192.00000000000000000000
19938464.00000000000000000000
3203552.50000000000000000000
-9453234.00000000000000000000
-18572870.00000000000000000000
-10361492.00000000000000000000
-12597718.00000000000000000000
18717168.00000000000000000000
-19052364.00000000000000000000
9403471.00000000000000000000
7453186.50000000000000000000
18705112.00000000000000000000
-2128125.00000000000000000000
1597269.50000000000000000000
-1939054.00000000000000000000
2973466.00000000000000000000
1679079.00000000000000000000
-1246827.25000000000000000000
1058171.62500000000000000000
-1774783.12500000000000000000
1035038.62500000000000000000
6573757.50000000000000000000
-904484.50000000000000000000
-160866.34375000000000000000
1206306.75000000000000000000
-98566.46093750000000000000
2213337.00000000000000000000
-1373325.12500000000000000000
523240.34375000000000000000
842341.12500000000000000000
-297596.84375000000000000000
-4657528.00000000000000000000
2912877.25000000000000000000
270218.81250000000000000000
1271745.00000000000000000000
2295022.50000000000000000000
-447591.84375000000000000000
-599970.93750000000000000000
-436062.43750000000000000000
-354140.34375000000000000000
1391444.50000000000000000000
1398343.75000000000000000000
-2497883.50000000000000000000
5563396.00000000000000000000
92057.53906250000000000000
-2054202.87500000000000000000
-1580919.87500000000000000000
-4736884.00000000000000000000
3020513.25000000000000000000
-993182.06250000000000000000
286282.56250000000000000000
1114739.75000000000000000000
-2657693.50000000000000000000
-3894897.00000000000000000000
-1065036.37500000000000000000
2159718.75000000000000000000
1787741.25000000000000000000
158344.37500000000000000000
-5248031.50000000000000000000
1428824.00000000000000000000
2423967.25000000000000000000
-4384180.00000000000000000000
-3317711.00000000000000000000
-20036.52734375000000000000
978797.68750000000000000000
-2990992.75000000000000000000
-1566206.00000000000000000000
-5899075.00000000000000000000
-244728.62500000000000000000
-338493.28125000000000000000
304048.46875000000000000000
4471164.00000000000000000000
3378424.00000000000000000000
-956335.50000000000000000000
-1055802.25000000000000000000
476631.78125000000000000000
2575445.00000000000000000000
-5864893.00000000000000000000
-6020403.00000000000000000000
-9595607.00000000000000000000
9354325.00000000000000000000
7667172.00000000000000000000
1371358.37500000000000000000
6257586.00000000000000000000
3047218.50000000000000000000
1571223.25000000000000000000
9415635.00000000000000000000
-2370882.75000000000000000000
-4039328.25000000000000000000
-4239891.50000000000000000000
1292114.50000000000000000000
1320751.12500000000000000000
-2746702.25000000000000000000
-5661180.00000000000000000000
-1469579.87500000000000000000
5518592.00000000000000000000
-1152792.50000000000000000000
-4590604.00000000000000000000
1976395.87500000000000000000
1493848.87500000000000000000
396365.78125000000000000000
-17525.53125000000000000000
-5863040.00000000000000000000
5466513.50000000000000000000
-3871013.50000000000000000000
-485540.06250000000000000000
-988689.43750000000000000000
-5974731.50000000000000000000
290458.28125000000000000000
-10920028.00000000000000000000
2976596.50000000000000000000
-1637092.00000000000000000000
-28386644.00000000000000000000
9406165.00000000000000000000
-8562115.00000000000000000000
2419555.75000000000000000000
5652961.00000000000000000000
4564474.00000000000000000000
-6622030.00000000000000000000
-3256527.75000000000000000000
3514103.75000000000000000000
3631444.75000000000000000000
10657413.00000000000000000000
-2331599.75000000000000000000
4482131.50000000000000000000
364057.59375000000000000000
8296396.00000000000000000000
-6935203.50000000000000000000
-8661928.00000000000000000000
8681279.00000000000000000000
1297136.75000000000000000000
13003584.00000000000000000000
-4957072.50000000000000000000
-8822267.00000000000000000000
10553817.00000000000000000000
-7279553.00000000000000000000
-656843.43750000000000000000
33790844.00000000000000000000
4383765.00000000000000000000
-328360.96875000000000000000
1497371.75000000000000000000
9048035.00000000000000000000
1542522.50000000000000000000
2363282.75000000000000000000
-2421785.00000000000000000000
3237231.50000000000000000000
-2502704.25000000000000000000
-4123470.75000000000000000000
2544028.75000000000000000000
-1073616.25000000000000000000
-3280204.50000000000000000000
4161637.00000000000000000000
1626087.62500000000000000000
-2202934.75000000000000000000
106885.53906250000000000000
3723167.00000000000000000000
4499105.50000000000000000000
4375741.50000000000000000000
1537794.12500000000000000000
2676180.25000000000000000000
-5899772.50000000000000000000
-6195887.50000000000000000000
-881986.43750000000000000000
6607190.50000000000000000000
-176272.64062500000000000000
-140193.75000000000000000000
3002516.00000000000000000000
-47213.09375000000000000000
-3544690.00000000000000000000
2638023.50000000000000000000
1620027.12500000000000000000
1384616.00000000000000000000
3672758.00000000000000000000
-2132030.00000000000000000000
-2377541.50000000000000000000
4887924.50000000000000000000
-262203.06250000000000000000
-7096469.50000000000000000000
-1504004.75000000000000000000
2332463.50000000000000000000
-87935.75000000000000000000
852379.18750000000000000000
-1461464.50000000000000000000
-856361.93750000000000000000
2125415.00000000000000000000
2224102.50000000000000000000
1107778.75000000000000000000
264005.34375000000000000000
-3173870.00000000000000000000
-5048807.50000000000000000000
671696.93750000000000000000
2362204.25000000000000000000
-5423503.00000000000000000000
-294804.06250000000000000000
2083800.00000000000000000000
-3618463.50000000000000000000
-1159165.75000000000000000000
347626.81250000000000000000
-5045240.00000000000000000000
1534695.25000000000000000000
7761463.00000000000000000000
4503282.50000000000000000000
6990697.50000000000000000000
-6908788.50000000000000000000
-4250974.50000000000000000000
1741552.50000000000000000000
3583207.50000000000000000000
-3904397.50000000000000000000
697649.75000000000000000000
-2598524.00000000000000000000
70065.90625000000000000000
115497.50781250000000000000
2934943.75000000000000000000
-1866408.50000000000000000000
666955.06250000000000000000
850345.18750000000000000000
457578.59375000000000000000
1323655.62500000000000000000
-125086.93750000000000000000
2429753.00000000000000000000
779849.00000000000000000000
1088073.62500000000000000000
1337406.12500000000000000000
-1667401.62500000000000000000
1841804.87500000000000000000
2983912.25000000000000000000
-4297024.50000000000000000000
-3696593.25000000000000000000
5624.05078125000000000000
1904158.75000000000000000000
2831952.25000000000000000000
-228111.87500000000000000000
-1868924.12500000000000000000
3121512.50000000000000000000
1177021.00000000000000000000
-2431314.25000000000000000000
1671947.75000000000000000000
2110580.75000000000000000000
-819416.12500000000000000000
1825120.37500000000000000000
3867446.50000000000000000000
2232796.00000000000000000000
-3411977.00000000000000000000
1254149.00000000000000000000
-362879.21875000000000000000
-2801179.25000000000000000000
-1518164.37500000000000000000
2426782.00000000000000000000
-1421881.37500000000000000000
-1227787.25000000000000000000
2038502.50000000000000000000
-1432204.62500000000000000000
-633601.87500000000000000000
-1040979.75000000000000000000
152524.62500000000000000000
2579345.00000000000000000000
-2053875.00000000000000000000
-821759.50000000000000000000
-2840550.75000000000000000000
1632272.50000000000000000000
1354502.50000000000000000000
-2720654.50000000000000000000
2070457.87500000000000000000
-1139212.62500000000000000000
-920120.56250000000000000000
5330466.50000000000000000000
-526238.68750000000000000000
-1620054.37500000000000000000
-1420272.00000000000000000000
-744604.56250000000000000000
2336765.25000000000000000000
-2224176.25000000000000000000
-737307.87500000000000000000
-6231415.00000000000000000000
-774692.43750000000000000000
-1503868.12500000000000000000
1637529.62500000000000000000
4316519.50000000000000000000
1480812.37500000000000000000
-1428652.62500000000000000000
2889461.50000000000000000000
-5698067.00000000000000000000
-342776.37500000000000000000
1609068.37500000000000000000
-3365494.75000000000000000000
-2240286.50000000000000000000
613356.43750000000000000000
2020360.62500000000000000000
-3648966.00000000000000000000
-2596474.25000000000000000000
1453104.37500000000000000000
-9250887.00000000000000000000
-530603.81250000000000000000
7444984.50000000000000000000
2899988.00000000000000000000
4995080.50000000000000000000
3153884.25000000000000000000
-2597346.50000000000000000000
-1773476.12500000000000000000
4458989.00000000000000000000
662378.31250000000000000000
-1361784.87500000000000000000
-2547750.00000000000000000000
2569668.50000000000000000000
-4430452.50000000000000000000
-474879.50000000000000000000
-6735861.50000000000000000000
-2630593.75000000000000000000
5528411.00000000000000000000
-5261801.00000000000000000000
4487779.50000000000000000000
-5679159.00000000000000000000
-7989377.00000000000000000000
1136171.12500000000000000000
-3216542.00000000000000000000
-2073029.25000000000000000000
-1544330.62500000000000000000
-2178283.50000000000000000000
5024550.50000000000000000000
-733502.81250000000000000000
555099.93750000000000000000
-1041909.43750000000000000000
5401474.50000000000000000000
-6134328.00000000000000000000
996552.81250000000000000000
-1890657.00000000000000000000
-6929901.50000000000000000000
5018700.50000000000000000000
-4631023.50000000000000000000
-651664.18750000000000000000
5869981.00000000000000000000
574707.43750000000000000000
3339786.00000000000000000000
-5837248.50000000000000000000
-6908107.50000000000000000000
-4750339.00000000000000000000
3138681.50000000000000000000
1074750.62500000000000000000
-16760601.00000000000000000000
-3441725.50000000000000000000
-7692410.00000000000000000000
-3718985.00000000000000000000
6590253.00000000000000000000
-5907556.00000000000000000000
-2235227.75000000000000000000
747334.12500000000000000000
478651.75000000000000000000
-1522267.25000000000000000000
2227827.50000000000000000000
-2100645.50000000000000000000
4313864.00000000000000000000
-4439067.00000000000000000000
4040389.50000000000000000000
1854717.50000000000000000000
12041174.00000000000000000000
-6751168.00000000000000000000
-3819249.75000000000000000000
194089.85937500000000000000
-2937447.00000000000000000000
9872003.00000000000000000000
4534187.50000000000000000000
-3572947.00000000000000000000
-31594.56835937500000000000
-5877283.50000000000000000000
-11445980.00000000000000000000
-8930551.00000000000000000000
-4549141.00000000000000000000
-3547871.50000000000000000000
-913072.43750000000000000000
1783428.00000000000000000000
-9089560.00000000000000000000
442377.84375000000000000000
-7836168.50000000000000000000
2850135.50000000000000000000
8512973.00000000000000000000
-1039073.93750000000000000000
5427391.50000000000000000000
-6579596.00000000000000000000
-6283362.00000000000000000000
-9135720.00000000000000000000
3055687.25000000000000000000
282614.71875000000000000000
3778534.25000000000000000000
4857345.00000000000000000000
9920018.00000000000000000000
-2065124.37500000000000000000
-3611313.75000000000000000000
3848047.75000000000000000000
-726199.25000000000000000000
3351578.25000000000000000000
-4359651.00000000000000000000
1845343.50000000000000000000
2727404.00000000000000000000
-16525855.00000000000000000000
2836619.00000000000000000000
-50771.32031250000000000000
-4260139.00000000000000000000
-7994635.00000000000000000000
-3558568.50000000000000000000
2964895.75000000000000000000
-4053618.00000000000000000000
8875573.00000000000000000000
-4806331.50000000000000000000
-3271286.50000000000000000000
1362101.37500000000000000000
947960.00000000000000000000
-2316144.25000000000000000000
-2140397.75000000000000000000
3099063.00000000000000000000
-512917.62500000000000000000
1364576.25000000000000000000
3506435.50000000000000000000
5557402.50000000000000000000
-1253022.87500000000000000000
530636.18750000000000000000
-3898517.25000000000000000000
2202407.25000000000000000000
-5253491.00000000000000000000
-3855581.75000000000000000000
1061239.00000000000000000000
-3716579.50000000000000000000
-298497.37500000000000000000
1331727.12500000000000000000
-517454.93750000000000000000
4908979.50000000000000000000
-3796866.25000000000000000000
-5449932.50000000000000000000
2145947.25000000000000000000
2725352.75000000000000000000
599518.43750000000000000000
2601763.25000000000000000000
922908.00000000000000000000
2006842.00000000000000000000
827354.81250000000000000000
139024.73437500000000000000
-2946232.00000000000000000000
1911533.12500000000000000000
940251.43750000000000000000
1290201.12500000000000000000
-5186498.50000000000000000000
-998786.25000000000000000000
-105670.54687500000000000000
6209128.00000000000000000000
-1319311.62500000000000000000
-2207191.25000000000000000000
391233.37500000000000000000
2205619.25000000000000000000
532666.50000000000000000000
635007.43750000000000000000
1735621.87500000000000000000
-998494.43750000000000000000
-3399257.00000000000000000000
-2209181.25000000000000000000
-4673359.50000000000000000000
-903927.43750000000000000000
-887192.31250000000000000000
1366279.50000000000000000000
-3436769.75000000000000000000
-171845.65625000000000000000
1340709.75000000000000000000
720855.75000000000000000000
-4603105.50000000000000000000
484213.68750000000000000000
-2973800.50000000000000000000
-2939719.75000000000000000000
1274332.87500000000000000000
-55607.28515625000000000000
4023636.75000000000000000000
15001184.00000000000000000000
-2601557.50000000000000000000
-2615544.25000000000000000000
3472275.25000000000000000000
-7262357.50000000000000000000
5826652.00000000000000000000
-632599.00000000000000000000
-3323856.25000000000000000000
3244367.75000000000000000000
-1189936.00000000000000000000
6072573.00000000000000000000
6325342.00000000000000000000
4105161.25000000000000000000
24832284.00000000000000000000
-7766342.50000000000000000000
-3864709.50000000000000000000
58825.44921875000000000000
4477783.50000000000000000000
-6608115.00000000000000000000
1840218.75000000000000000000
6556966.00000000000000000000
27495054.00000000000000000000
6382718.50000000000000000000
-1265537.00000000000000000000
15060746.00000000000000000000
-7056346.00000000000000000000
-7082141.00000000000000000000
649916.68750000000000000000
-7075915.00000000000000000000
-494413.28125000000000000000
-25631.45312500000000000000
10119040.00000000000000000000
-3191981.75000000000000000000
4900983.00000000000000000000
37573928.00000000000000000000
-1358256.00000000000000000000
2032611.62500000000000000000
3218933.25000000000000000000
-16628029.00000000000000000000
-1058561.75000000000000000000
1439217.75000000000000000000
-6435917.00000000000000000000
4924441.50000000000000000000
2181457.75000000000000000000
5066685.00000000000000000000
-1280352.12500000000000000000
-6493344.00000000000000000000
-10321532.00000000000000000000
-2987034.25000000000000000000
-1166181.00000000000000000000
-671869.00000000000000000000
932566.81250000000000000000
1109287.87500000000000000000
-23971422.00000000000000000000
-3383357.25000000000000000000
-3417303.00000000000000000000
11053789.00000000000000000000
-11671550.00000000000000000000
-7931635.00000000000000000000
-2521564.25000000000000000000
-4956938.00000000000000000000
2537503.75000000000000000000
-9272443.00000000000000000000
3152957.75000000000000000000
-7695913.00000000000000000000
646723.75000000000000000000
2313713.75000000000000000000
3933308.25000000000000000000
-1337493.37500000000000000000
3771314.25000000000000000000
3015111.50000000000000000000
-1676387.87500000000000000000
-252479.20312500000000000000
-2151734.75000000000000000000
12464850.00000000000000000000
5867967.00000000000000000000
-2349753.25000000000000000000
-9720686.00000000000000000000
-7470886.50000000000000000000
1751547.87500000000000000000
-9321357.00000000000000000000
2535137.75000000000000000000
6629709.50000000000000000000
1949981.00000000000000000000
-71616.08593750000000000000
-3689194.25000000000000000000
16621870.00000000000000000000
6121455.00000000000000000000
10449305.00000000000000000000
2253003.50000000000000000000
-736160.06250000000000000000
4313756.00000000000000000000
11495039.00000000000000000000
-12209913.00000000000000000000
1024604.31250000000000000000
3868877.00000000000000000000
1413835.87500000000000000000
3955224.50000000000000000000
-4422180.00000000000000000000
12657564.00000000000000000000
-5374547.00000000000000000000
5046311.00000000000000000000
-3703840.25000000000000000000
-5552977.50000000000000000000
-3124885.00000000000000000000
-7224613.50000000000000000000
4291390.50000000000000000000
-5950830.50000000000000000000
43285.95703125000000000000
1904895.12500000000000000000
-631729.93750000000000000000
3905948.50000000000000000000
-10439365.00000000000000000000
-4829687.50000000000000000000
6277950.50000000000000000000
-641154.18750000000000000000
-274438.00000000000000000000
-591945.87500000000000000000
7543341.50000000000000000000
-7315082.00000000000000000000
4362419.50000000000000000000
1911819.00000000000000000000
11172615.00000000000000000000
3179601.00000000000000000000
-10314636.00000000000000000000
784591.81250000000000000000
-7809528.50000000000000000000
-8438979.00000000000000000000
4411665.50000000000000000000
-2644507.25000000000000000000
-6623.77832031250000000000
2344361.75000000000000000000
3205980.25000000000000000000
3196119.75000000000000000000
313961.78125000000000000000
5545403.00000000000000000000
-3490504.25000000000000000000
933620.68750000000000000000
2602494.25000000000000000000
2934133.75000000000000000000
-2241816.00000000000000000000
-1416773.50000000000000000000
1443778.00000000000000000000
3257470.75000000000000000000
2067495.12500000000000000000
4384751.00000000000000000000
3864453.00000000000000000000
2316665.25000000000000000000
-2445931.75000000000000000000
-3468310.75000000000000000000
1686249.62500000000000000000
41685.61718750000000000000
5738077.50000000000000000000
-1123328.00000000000000000000
528955.43750000000000000000
-1080478.50000000000000000000
-1614411.62500000000000000000
-819629.93750000000000000000
1091803.87500000000000000000
995474.75000000000000000000
-361404.71875000000000000000
-2046397.00000000000000000000
-181367.70312500000000000000
4213128.00000000000000000000
-3626282.75000000000000000000
-1962056.50000000000000000000
-2670475.00000000000000000000
-3240008.25000000000000000000
-2362370.25000000000000000000
-3379827.75000000000000000000
-6884327.00000000000000000000
5247021.00000000000000000000
154507.10937500000000000000
-3535419.25000000000000000000
267271.96875000000000000000
-5275997.50000000000000000000
-2639117.75000000000000000000
3685441.50000000000000000000
-432411.59375000000000000000
936226.12500000000000000000
592836.06250000000000000000
3532104.50000000000000000000
-7893730.00000000000000000000
404933.96875000000000000000
-96420.57812500000000000000
-5883079.50000000000000000000
9772131.00000000000000000000
3482616.50000000000000000000
-1298935.62500000000000000000
2554814.25000000000000000000
-3621444.50000000000000000000
1312360.50000000000000000000
-2547997.00000000000000000000
-303270.78125000000000000000
-1845638.00000000000000000000
666986.50000000000000000000
2761468.00000000000000000000
-4652504.00000000000000000000
-1109185.87500000000000000000
2956112.00000000000000000000
3984023.00000000000000000000
1220798.50000000000000000000
1330713.50000000000000000000
3673651.25000000000000000000
-330235.87500000000000000000
-4374200.00000000000000000000
827704.75000000000000000000
-2120685.50000000000000000000
-2175074.75000000000000000000
147070.34375000000000000000
5358193.00000000000000000000
1088055.50000000000000000000
3098712.50000000000000000000
-321318.65625000000000000000
-953647.00000000000000000000
-1469954.87500000000000000000
2691675.75000000000000000000
2884959.00000000000000000000
875605.37500000000000000000
1220647.00000000000000000000
-179972.56250000000000000000
1101517.25000000000000000000
-1845075.00000000000000000000
-2099715.00000000000000000000
-5033282.00000000000000000000
3077714.00000000000000000000
2345020.75000000000000000000
4507762.00000000000000000000
-801953.81250000000000000000
2719392.75000000000000000000
-165211.84375000000000000000
-2727828.00000000000000000000
4618688.00000000000000000000
2967657.75000000000000000000
-3881239.50000000000000000000
-1635010.00000000000000000000
-4732972.00000000000000000000
-2777549.75000000000000000000
3041804.75000000000000000000
3524090.00000000000000000000
59970.46875000000000000000
2863124.00000000000000000000
133472.31250000000000000000
-3699685.50000000000000000000
4855779.00000000000000000000
1538650.75000000000000000000
3794403.50000000000000000000
-2363352.00000000000000000000
1080473.00000000000000000000
-4867329.00000000000000000000
-657755.87500000000000000000
-3675262.00000000000000000000
-1651131.00000000000000000000
4220298.00000000000000000000
4489501.00000000000000000000
1750242.50000000000000000000
-3342745.00000000000000000000
-1191081.75000000000000000000
-1456864.25000000000000000000
-3910500.00000000000000000000
-1392564.37500000000000000000
5830271.50000000000000000000
7507562.50000000000000000000
-14561727.00000000000000000000
-4706874.00000000000000000000
7796266.00000000000000000000
-525435.62500000000000000000
2342264.25000000000000000000
4817658.00000000000000000000
2222538.25000000000000000000
6373842.00000000000000000000
-512855.75000000000000000000
1698628.25000000000000000000
-1325141.75000000000000000000
-6815259.00000000000000000000
-6127508.00000000000000000000
-2894201.00000000000000000000
-6464371.50000000000000000000
-1295638.50000000000000000000
2273669.00000000000000000000
2999567.00000000000000000000
5906643.00000000000000000000
329822.28125000000000000000
-7356055.50000000000000000000
-12820710.00000000000000000000
4824178.00000000000000000000
-1644970.25000000000000000000
3406587.50000000000000000000
-1295204.87500000000000000000
-10240856.00000000000000000000
-1255279.00000000000000000000
5813838.00000000000000000000
-1112471.00000000000000000000
-3422008.50000000000000000000
11342468.00000000000000000000
-1901398.00000000000000000000
2512529.75000000000000000000
2450789.00000000000000000000
-2473096.75000000000000000000
-1102114.25000000000000000000
776938.62500000000000000000
7309479.50000000000000000000
4181432.50000000000000000000
3967942.50000000000000000000
-63340.47265625000000000000
11850735.00000000000000000000
-8933487.00000000000000000000
-4374835.00000000000000000000
6557436.00000000000000000000
-1290757.50000000000000000000
2509150.25000000000000000000
-8277132.50000000000000000000
-4507160.00000000000000000000
2654331.50000000000000000000
4344448.50000000000000000000
8673262.00000000000000000000
1194384.75000000000000000000
7303237.00000000000000000000
-5481614.00000000000000000000
-15069373.00000000000000000000
6014928.00000000000000000000
6968474.00000000000000000000
-7251875.00000000000000000000
-107553.43750000000000000000
-364351.21875000000000000000
-3633036.75000000000000000000
-2880450.25000000000000000000
-12966488.00000000000000000000
8478.74121093750000000000
-1435461.75000000000000000000
5866042.00000000000000000000
-233576.46875000000000000000
-574852.50000000000000000000
1298002.25000000000000000000
381903.65625000000000000000
81345.53906250000000000000
512436.81250000000000000000
1907119.25000000000000000000
-2212461.25000000000000000000
-842629.37500000000000000000
-1226418.25000000000000000000
-79290.71093750000000000000
1301883.62500000000000000000
-1840069.37500000000000000000
-2932084.25000000000000000000
3241338.75000000000000000000
-1236007.62500000000000000000
-2609357.75000000000000000000
-2109151.00000000000000000000
-1673936.12500000000000000000
-3041481.25000000000000000000
4890332.50000000000000000000
-290347.18750000000000000000
-839645.87500000000000000000
24309.80664062500000000000
-994344.12500000000000000000
-4891833.50000000000000000000
-679043.50000000000000000000
-2609549.75000000000000000000
-5234123.50000000000000000000
6294512.00000000000000000000
3908408.75000000000000000000
2741107.75000000000000000000
-2452146.75000000000000000000
-1286777.25000000000000000000
-4179639.50000000000000000000
-2390783.75000000000000000000
408384.18750000000000000000
2714158.75000000000000000000
-1799097.87500000000000000000
1040999.43750000000000000000
-7378442.50000000000000000000
-3505684.25000000000000000000
4314286.50000000000000000000
-6395405.50000000000000000000
-2755360.75000000000000000000
4410625.00000000000000000000
-121633.61718750000000000000
-2948074.75000000000000000000
2519479.25000000000000000000
-7893231.50000000000000000000
-50144.37109375000000000000
5368480.50000000000000000000
-5821050.50000000000000000000
5544160.50000000000000000000
761292.00000000000000000000
-4423284.50000000000000000000
-2866022.25000000000000000000
6422412.50000000000000000000
-186765.93750000000000000000
1696632.62500000000000000000
591992.81250000000000000000
2335364.00000000000000000000
1542514.62500000000000000000
-1787273.62500000000000000000
-2467320.25000000000000000000
3738626.50000000000000000000
-9059088.00000000000000000000
358777.18750000000000000000
-3155457.50000000000000000000
-5368154.50000000000000000000
7001782.50000000000000000000
-1454385.12500000000000000000
5148352.50000000000000000000
568988.56250000000000000000
2159836.50000000000000000000
2425104.25000000000000000000
5212293.50000000000000000000
4115724.25000000000000000000
-239905.90625000000000000000
-1303757.87500000000000000000
4739648.50000000000000000000
5269455.00000000000000000000
-7180736.50000000000000000000
-1942058.75000000000000000000
2619665.50000000000000000000
7403477.50000000000000000000
-2913155.25000000000000000000
3264037.00000000000000000000
2290485.50000000000000000000
-1949880.37500000000000000000
-291460.56250000000000000000
-4877442.00000000000000000000
5005149.50000000000000000000
-5254723.50000000000000000000
-410338.50000000000000000000
-3381794.50000000000000000000
-3397867.75000000000000000000
-3085449.25000000000000000000
-2155529.50000000000000000000
373786.87500000000000000000
-4725406.50000000000000000000
2921487.50000000000000000000
2493499.50000000000000000000
-3433593.00000000000000000000
3470359.00000000000000000000
-4116871.75000000000000000000
-4932659.50000000000000000000
-2307066.25000000000000000000
-1197073.37500000000000000000
